-0.000000000000000000e+00 0.000000000000000000e+00 -0.000000000000000000e+00 -0.000000000000000000e+00 -0.000000000000000000e+00 0.000000000000000000e+00 -0.000000000000000000e+00 0.000000000000000000e+00 -0.000000000000000000e+00 -0.000000000000000000e+00 0.000000000000000000e+00 -0.000000000000000000e+00 -0.000000000000000000e+00 -0.000000000000000000e+00 -0.000000000000000000e+00 0.000000000000000000e+00 0.000000000000000000e+00 0.000000000000000000e+00 -0.000000000000000000e+00 0.000000000000000000e+00 0.000000000000000000e+00 -0.000000000000000000e+00 0.000000000000000000e+00 0.000000000000000000e+00 -0.000000000000000000e+00 -0.000000000000000000e+00 -0.000000000000000000e+00 -0.000000000000000000e+00 -0.000000000000000000e+00 0.000000000000000000e+00 0.000000000000000000e+00 -0.000000000000000000e+00 -0.000000000000000000e+00 0.000000000000000000e+00 -0.000000000000000000e+00 -0.000000000000000000e+00 -0.000000000000000000e+00 0.000000000000000000e+00 0.000000000000000000e+00 -0.000000000000000000e+00 -0.000000000000000000e+00 0.000000000000000000e+00 -0.000000000000000000e+00 0.000000000000000000e+00 0.000000000000000000e+00 0.000000000000000000e+00 0.000000000000000000e+00 0.000000000000000000e+00 0.000000000000000000e+00 -0.000000000000000000e+00 -0.000000000000000000e+00 0.000000000000000000e+00 -0.000000000000000000e+00 -0.000000000000000000e+00 -0.000000000000000000e+00 0.000000000000000000e+00 0.000000000000000000e+00 -0.000000000000000000e+00 0.000000000000000000e+00 -0.000000000000000000e+00 0.000000000000000000e+00 -0.000000000000000000e+00 -0.000000000000000000e+00 0.000000000000000000e+00 9.853998199105262756e-03 9.476001374423503876e-03 1.039636321365833282e-02 8.622807450592517853e-03 8.219729177653789520e-03 9.038446471095085144e-03 8.838911540806293488e-03 1.012848876416683197e-02 8.719218894839286804e-03 7.257272023707628250e-03 8.759635500609874725e-03 -8.466884493827819824e-03 9.036872535943984985e-03 1.011389214545488358e-02 9.362047538161277771e-03 1.064807549118995667e-02 9.053587913513183594e-03 7.071190979331731796e-03 8.731256239116191864e-03 9.538289159536361694e-03 9.401647374033927917e-03 8.404761552810668945e-03 -9.180350229144096375e-03 8.375458419322967529e-03 1.086981501430273056e-02 9.386423043906688690e-03 9.980962611734867096e-03 8.872052654623985291e-03 9.499925188720226288e-03 -9.464972652494907379e-03 9.428409859538078308e-03 7.377220317721366882e-03 8.429643698036670685e-03 9.345261380076408386e-03 9.433073922991752625e-03 8.895383216440677643e-03 9.644927456974983215e-03 9.051759727299213409e-03 9.371958673000335693e-03 9.236229583621025085e-03 8.806836791336536407e-03 9.624741971492767334e-03 -8.164033293724060059e-03 8.591858670115470886e-03 9.522077627480030060e-03 1.035629212856292725e-02 8.516447618603706360e-03 1.045400556176900864e-02 -8.975765667855739594e-03 1.006448268890380859e-02 7.842689752578735352e-03 9.137892164289951324e-03 9.261619299650192261e-03 9.796456433832645416e-03 9.827837347984313965e-03 9.485420770943164825e-03 7.683979347348213196e-03 8.605485782027244568e-03 9.404825046658515930e-03 8.719726465642452240e-03 8.745248429477214813e-03 9.369543753564357758e-03 9.878098033368587494e-03 9.989495389163494110e-03
0.000000000000000000e+00 0.000000000000000000e+00 -0.000000000000000000e+00 0.000000000000000000e+00 0.000000000000000000e+00 -0.000000000000000000e+00 0.000000000000000000e+00 -0.000000000000000000e+00 -0.000000000000000000e+00 -0.000000000000000000e+00 -0.000000000000000000e+00 -0.000000000000000000e+00 0.000000000000000000e+00 0.000000000000000000e+00 0.000000000000000000e+00 0.000000000000000000e+00 -0.000000000000000000e+00 -0.000000000000000000e+00 0.000000000000000000e+00 -0.000000000000000000e+00 0.000000000000000000e+00 -0.000000000000000000e+00 0.000000000000000000e+00 -0.000000000000000000e+00 -0.000000000000000000e+00 0.000000000000000000e+00 0.000000000000000000e+00 0.000000000000000000e+00 0.000000000000000000e+00 -0.000000000000000000e+00 -0.000000000000000000e+00 -0.000000000000000000e+00 0.000000000000000000e+00 0.000000000000000000e+00 0.000000000000000000e+00 0.000000000000000000e+00 0.000000000000000000e+00 -0.000000000000000000e+00 0.000000000000000000e+00 -0.000000000000000000e+00 -0.000000000000000000e+00 -0.000000000000000000e+00 0.000000000000000000e+00 0.000000000000000000e+00 -0.000000000000000000e+00 -0.000000000000000000e+00 0.000000000000000000e+00 -0.000000000000000000e+00 0.000000000000000000e+00 0.000000000000000000e+00 -0.000000000000000000e+00 -0.000000000000000000e+00 0.000000000000000000e+00 -0.000000000000000000e+00 -0.000000000000000000e+00 -0.000000000000000000e+00 -0.000000000000000000e+00 -0.000000000000000000e+00 -0.000000000000000000e+00 0.000000000000000000e+00 -0.000000000000000000e+00 0.000000000000000000e+00 -0.000000000000000000e+00 0.000000000000000000e+00 8.956790901720523834e-03 1.045052241533994675e-02 8.049814961850643158e-03 6.972722709178924561e-03 7.691329345107078552e-03 8.017448708415031433e-03 7.372717373073101044e-03 8.999635465443134308e-03 8.542083203792572021e-03 1.185844931751489639e-02 4.576158244162797928e-03 -7.441007765009999275e-04 7.974562235176563263e-03 6.599115673452615738e-03 7.206995505839586258e-03 9.865486063063144684e-03 6.920715328305959702e-03 2.067769877612590790e-02 6.970271468162536621e-03 9.898377582430839539e-03 8.534215390682220459e-03 6.456977687776088715e-03 -2.690925030037760735e-03 6.242330186069011688e-03 4.816894419491291046e-03 9.224757552146911621e-03 4.942037630826234818e-03 8.656701073050498962e-03 7.763347588479518890e-03 -1.018627081066370010e-03 6.795022170990705490e-03 6.398694124072790146e-03 6.166698411107063293e-03 6.614965852349996567e-03 8.628387004137039185e-03 6.016320083290338516e-03 8.243825286626815796e-03 7.673613261431455612e-03 8.007013238966464996e-03 8.244262076914310455e-03 6.337515544146299362e-03 8.878964930772781372e-03 -3.457495011389255524e-03 7.015734445303678513e-03 4.315513651818037033e-03 5.388263147324323654e-03 7.710472214967012405e-03 9.836985729634761810e-03 -7.074684835970401764e-03 7.372403517365455627e-03 7.425345946103334427e-03 6.457706447690725327e-03 7.727258373051881790e-03 5.811105016618967056e-03 7.322441786527633667e-03 8.683972060680389404e-03 7.435784675180912018e-03 7.183289155364036560e-03 6.889264564961194992e-03 6.036360282450914383e-03 7.391182705760002136e-03 6.556399166584014893e-03 8.555567823350429535e-03 3.953100647777318954e-03
0.000000000000000000e+00 0.000000000000000000e+00 -0.000000000000000000e+00 -0.000000000000000000e+00 -0.000000000000000000e+00 0.000000000000000000e+00 0.000000000000000000e+00 0.000000000000000000e+00 0.000000000000000000e+00 -0.000000000000000000e+00 0.000000000000000000e+00 -0.000000000000000000e+00 0.000000000000000000e+00 0.000000000000000000e+00 -0.000000000000000000e+00 -0.000000000000000000e+00 0.000000000000000000e+00 -0.000000000000000000e+00 0.000000000000000000e+00 0.000000000000000000e+00 0.000000000000000000e+00 0.000000000000000000e+00 -0.000000000000000000e+00 0.000000000000000000e+00 0.000000000000000000e+00 -0.000000000000000000e+00 0.000000000000000000e+00 0.000000000000000000e+00 -0.000000000000000000e+00 0.000000000000000000e+00 -0.000000000000000000e+00 -0.000000000000000000e+00 0.000000000000000000e+00 0.000000000000000000e+00 0.000000000000000000e+00 0.000000000000000000e+00 0.000000000000000000e+00 -0.000000000000000000e+00 0.000000000000000000e+00 0.000000000000000000e+00 0.000000000000000000e+00 0.000000000000000000e+00 0.000000000000000000e+00 -0.000000000000000000e+00 -0.000000000000000000e+00 0.000000000000000000e+00 -0.000000000000000000e+00 -0.000000000000000000e+00 0.000000000000000000e+00 -0.000000000000000000e+00 -0.000000000000000000e+00 0.000000000000000000e+00 0.000000000000000000e+00 -0.000000000000000000e+00 0.000000000000000000e+00 0.000000000000000000e+00 0.000000000000000000e+00 -0.000000000000000000e+00 -0.000000000000000000e+00 -0.000000000000000000e+00 -0.000000000000000000e+00 -0.000000000000000000e+00 0.000000000000000000e+00 -0.000000000000000000e+00 1.168050337582826614e-02 9.649624116718769073e-03 9.311211295425891876e-03 1.034466922283172607e-02 1.121229585260152817e-02 1.100771594792604446e-02 9.175903163850307465e-03 1.061762403696775436e-02 1.023812871426343918e-02 6.923690903931856155e-03 1.017375756055116653e-02 -1.108762063086032867e-02 1.189338508993387222e-02 1.149541698396205902e-02 9.968978352844715118e-03 9.767283685505390167e-03 1.027807965874671936e-02 6.818827707320451736e-03 1.000418979674577713e-02 1.156466268002986908e-02 1.086000353097915649e-02 9.616698138415813446e-03 -1.001956965774297714e-02 9.353566914796829224e-03 1.138831954449415207e-02 1.066139061003923416e-02 1.085740048438310623e-02 1.108038984239101410e-02 1.073264237493276596e-02 -9.642329066991806030e-03 1.037512812763452530e-02 1.061658188700675964e-02 9.015083312988281250e-03 1.081112958490848541e-02 1.007355097681283951e-02 1.056051813066005707e-02 1.088679395616054535e-02 1.138076931238174438e-02 9.112455882132053375e-03 1.005383674055337906e-02 8.882096968591213226e-03 1.145199686288833618e-02 -1.053473539650440216e-02 1.047499570995569229e-02 9.605158120393753052e-03 1.037485897541046143e-02 1.095144171267747879e-02 1.291858777403831482e-02 -1.002596691250801086e-02 1.129484735429286957e-02 1.126013696193695068e-02 1.003369782119989395e-02 1.033439021557569504e-02 1.182219292968511581e-02 1.032988075166940689e-02 9.067832492291927338e-03 1.163476612418889999e-02 1.160382665693759918e-02 1.083378680050373077e-02 1.030766870826482773e-02 1.125005912035703659e-02 1.003668829798698425e-02 1.099287904798984528e-02 1.057605445384979248e-02
-0.000000000000000000e+00 0.000000000000000000e+00 -0.000000000000000000e+00 0.000000000000000000e+00 -0.000000000000000000e+00 0.000000000000000000e+00 -0.000000000000000000e+00 -0.000000000000000000e+00 -0.000000000000000000e+00 -0.000000000000000000e+00 -0.000000000000000000e+00 0.000000000000000000e+00 -0.000000000000000000e+00 0.000000000000000000e+00 -0.000000000000000000e+00 0.000000000000000000e+00 -0.000000000000000000e+00 0.000000000000000000e+00 0.000000000000000000e+00 0.000000000000000000e+00 -0.000000000000000000e+00 0.000000000000000000e+00 -0.000000000000000000e+00 -0.000000000000000000e+00 0.000000000000000000e+00 0.000000000000000000e+00 -0.000000000000000000e+00 -0.000000000000000000e+00 -0.000000000000000000e+00 0.000000000000000000e+00 -0.000000000000000000e+00 -0.000000000000000000e+00 0.000000000000000000e+00 0.000000000000000000e+00 -0.000000000000000000e+00 -0.000000000000000000e+00 0.000000000000000000e+00 -0.000000000000000000e+00 0.000000000000000000e+00 -0.000000000000000000e+00 0.000000000000000000e+00 -0.000000000000000000e+00 -0.000000000000000000e+00 -0.000000000000000000e+00 0.000000000000000000e+00 -0.000000000000000000e+00 0.000000000000000000e+00 0.000000000000000000e+00 0.000000000000000000e+00 0.000000000000000000e+00 0.000000000000000000e+00 -0.000000000000000000e+00 0.000000000000000000e+00 0.000000000000000000e+00 0.000000000000000000e+00 -0.000000000000000000e+00 -0.000000000000000000e+00 -0.000000000000000000e+00 0.000000000000000000e+00 0.000000000000000000e+00 0.000000000000000000e+00 -0.000000000000000000e+00 -0.000000000000000000e+00 0.000000000000000000e+00 5.410001540440134704e-05 -3.015939728356897831e-04 -2.547035110183060169e-04 -3.704860282596200705e-04 3.978180029662325978e-05 5.190882075112313032e-05 -3.485140041448175907e-04 1.064617208612617105e-06 -1.493454783485503867e-05 5.085713928565382957e-05 -3.768497845157980919e-04 1.152580007328651845e-04 3.529418972902931273e-05 1.632980711292475462e-04 -2.632340765558183193e-04 1.494257157901301980e-04 -3.238487261114642024e-05 -4.172014769210363738e-07 -3.611707652453333139e-04 1.554074551677331328e-04 2.617416794237215072e-05 -3.469563671387732029e-04 -7.948894199216738343e-05 -3.354674263391643763e-04 -3.181111824233084917e-04 1.633545616641640663e-04 -1.882354554254561663e-04 -3.663112001959234476e-04 -3.867755585815757513e-04 5.755091024184366688e-06 -1.827297455747611821e-05 1.324199110968038440e-04 -3.272508038207888603e-04 -3.006448678206652403e-04 1.397428513882914558e-05 5.893381967325694859e-05 -2.538899425417184830e-04 -9.985220094677060843e-05 -3.791372364503331482e-05 -3.922134928870946169e-04 -3.850593348033726215e-04 3.646537516033276916e-05 -2.867394359782338142e-04 1.700771244941279292e-04 -1.109863223973661661e-04 9.250492439605295658e-05 1.160893953056074679e-04 1.050252030836418271e-04 -3.477171412669122219e-04 -1.785552158253267407e-04 9.206937829731032252e-05 -1.402033958584070206e-04 -2.394980983808636665e-04 -4.350269227870739996e-05 -3.056012792512774467e-04 2.815660263877362013e-05 1.251980575034394860e-04 8.212629472836852074e-05 -2.961135760415345430e-04 -3.049463557545095682e-04 -3.462651220615953207e-04 -9.868593906503519975e-07 2.231033140560612082e-04 5.003869955544359982e-05
0.000000000000000000e+00 -0.000000000000000000e+00 -0.000000000000000000e+00 -0.000000000000000000e+00 -0.000000000000000000e+00 -0.000000000000000000e+00 0.000000000000000000e+00 -0.000000000000000000e+00 -0.000000000000000000e+00 0.000000000000000000e+00 0.000000000000000000e+00 0.000000000000000000e+00 -0.000000000000000000e+00 -0.000000000000000000e+00 0.000000000000000000e+00 0.000000000000000000e+00 0.000000000000000000e+00 -0.000000000000000000e+00 0.000000000000000000e+00 0.000000000000000000e+00 -0.000000000000000000e+00 -0.000000000000000000e+00 -0.000000000000000000e+00 -0.000000000000000000e+00 0.000000000000000000e+00 -0.000000000000000000e+00 -0.000000000000000000e+00 0.000000000000000000e+00 -0.000000000000000000e+00 0.000000000000000000e+00 0.000000000000000000e+00 0.000000000000000000e+00 0.000000000000000000e+00 -0.000000000000000000e+00 -0.000000000000000000e+00 -0.000000000000000000e+00 0.000000000000000000e+00 0.000000000000000000e+00 -0.000000000000000000e+00 -0.000000000000000000e+00 -0.000000000000000000e+00 0.000000000000000000e+00 0.000000000000000000e+00 0.000000000000000000e+00 0.000000000000000000e+00 -0.000000000000000000e+00 0.000000000000000000e+00 0.000000000000000000e+00 0.000000000000000000e+00 0.000000000000000000e+00 0.000000000000000000e+00 0.000000000000000000e+00 -0.000000000000000000e+00 -0.000000000000000000e+00 -0.000000000000000000e+00 0.000000000000000000e+00 -0.000000000000000000e+00 -0.000000000000000000e+00 0.000000000000000000e+00 0.000000000000000000e+00 0.000000000000000000e+00 -0.000000000000000000e+00 0.000000000000000000e+00 0.000000000000000000e+00 9.852421469986438751e-03 9.109217673540115356e-03 1.008769311010837555e-02 9.044956415891647339e-03 8.155473507940769196e-03 9.071478620171546936e-03 9.743965230882167816e-03 1.076678186655044556e-02 8.760745637118816376e-03 7.115798536688089371e-03 8.614779449999332428e-03 -9.430638514459133148e-03 9.081112220883369446e-03 9.720088914036750793e-03 9.814789518713951111e-03 1.019475050270557404e-02 9.869158267974853516e-03 8.328301832079887390e-03 9.102934040129184723e-03 9.402139112353324890e-03 9.869473986327648163e-03 8.891169913113117218e-03 -8.994807489216327667e-03 1.036035828292369843e-02 1.053045969456434250e-02 9.230692870914936066e-03 9.679807350039482117e-03 8.791017346084117889e-03 9.485587477684020996e-03 -1.018279511481523514e-02 9.676222689449787140e-03 7.305216975510120392e-03 1.104552578181028366e-02 9.284550324082374573e-03 1.027796603739261627e-02 8.836594410240650177e-03 1.025764644145965576e-02 9.240858256816864014e-03 9.669759310781955719e-03 9.072815068066120148e-03 9.864686056971549988e-03 9.638373740017414093e-03 -9.129752404987812042e-03 9.008685126900672913e-03 9.242160245776176453e-03 1.048261485993862152e-02 8.646973408758640289e-03 1.025317516177892685e-02 -9.175173006951808929e-03 9.640689939260482788e-03 7.797418627887964249e-03 8.724919520318508148e-03 9.790219366550445557e-03 9.510544128715991974e-03 9.859374724328517914e-03 1.023479737341403961e-02 7.656334899365901947e-03 8.763376623392105103e-03 9.096889756619930267e-03 8.790930733084678650e-03 8.953548967838287354e-03 9.075277484953403473e-03 9.820512495934963226e-03 9.519902989268302917e-03
0.000000000000000000e+00 -0.000000000000000000e+00 0.000000000000000000e+00 -0.000000000000000000e+00 -0.000000000000000000e+00 -0.000000000000000000e+00 -0.000000000000000000e+00 -0.000000000000000000e+00 -0.000000000000000000e+00 0.000000000000000000e+00 0.000000000000000000e+00 -0.000000000000000000e+00 -0.000000000000000000e+00 -0.000000000000000000e+00 -0.000000000000000000e+00 0.000000000000000000e+00 -0.000000000000000000e+00 0.000000000000000000e+00 0.000000000000000000e+00 0.000000000000000000e+00 0.000000000000000000e+00 0.000000000000000000e+00 0.000000000000000000e+00 0.000000000000000000e+00 0.000000000000000000e+00 0.000000000000000000e+00 0.000000000000000000e+00 0.000000000000000000e+00 -0.000000000000000000e+00 0.000000000000000000e+00 -0.000000000000000000e+00 -0.000000000000000000e+00 -0.000000000000000000e+00 -0.000000000000000000e+00 -0.000000000000000000e+00 -0.000000000000000000e+00 0.000000000000000000e+00 -0.000000000000000000e+00 0.000000000000000000e+00 0.000000000000000000e+00 -0.000000000000000000e+00 -0.000000000000000000e+00 -0.000000000000000000e+00 0.000000000000000000e+00 0.000000000000000000e+00 -0.000000000000000000e+00 -0.000000000000000000e+00 0.000000000000000000e+00 -0.000000000000000000e+00 0.000000000000000000e+00 -0.000000000000000000e+00 0.000000000000000000e+00 -0.000000000000000000e+00 0.000000000000000000e+00 -0.000000000000000000e+00 -0.000000000000000000e+00 0.000000000000000000e+00 -0.000000000000000000e+00 -0.000000000000000000e+00 0.000000000000000000e+00 -0.000000000000000000e+00 -0.000000000000000000e+00 -0.000000000000000000e+00 0.000000000000000000e+00 -2.366451080888509750e-04 -2.882792614400386810e-04 -2.551515062805265188e-04 -2.711925480980426073e-04 -2.039230166701599956e-04 -2.644844062160700560e-04 -2.185154589824378490e-04 -1.599450479261577129e-04 -2.563142334111034870e-04 -3.000906144734472036e-04 -2.492535568308085203e-04 -3.141768684145063162e-04 -3.037557180505245924e-04 -2.607851638458669186e-04 -2.683692728169262409e-04 -2.327148540643975139e-04 -2.248980308650061488e-04 -2.675280848052352667e-04 -2.486694138497114182e-04 -2.099517732858657837e-04 -2.222245384473353624e-04 -2.621065068524330854e-04 -2.420908276690170169e-04 -2.482130075804889202e-04 -2.849295851774513721e-04 -2.818079956341534853e-04 -2.406264538876712322e-04 -2.857280487660318613e-04 -2.172815584344789386e-04 -3.032765525858849287e-04 -3.043249307665973902e-04 -2.491887134965509176e-04 -2.868116716854274273e-04 -2.673372800927609205e-04 -2.840959932655096054e-04 -3.088070079684257507e-04 -2.859388769138604403e-04 -2.871727920137345791e-04 -2.146498445654287934e-04 -2.768163976725190878e-04 -2.807734708767384291e-04 -2.549022610764950514e-04 -2.237289008917286992e-04 -2.625274355523288250e-04 -2.707130624912679195e-04 -2.499658439774066210e-04 -2.539888664614409208e-04 -2.749527920968830585e-04 -2.057174569927155972e-04 -2.787615521810948849e-04 -3.170029085595160723e-04 -2.923116844613105059e-04 -2.915642689913511276e-04 -2.653224219102412462e-04 -2.300081687280908227e-04 -2.298599574714899063e-04 -2.270991390105336905e-04 -2.970542409457266331e-04 -3.061629831790924072e-04 -2.394510083831846714e-04 -2.218889421783387661e-04 -2.580942236818373203e-04 -2.384049876127392054e-04 -2.502186398487538099e-04
-0.000000000000000000e+00 -0.000000000000000000e+00 -0.000000000000000000e+00 0.000000000000000000e+00 -0.000000000000000000e+00 0.000000000000000000e+00 -0.000000000000000000e+00 -0.000000000000000000e+00 0.000000000000000000e+00 0.000000000000000000e+00 0.000000000000000000e+00 -0.000000000000000000e+00 0.000000000000000000e+00 0.000000000000000000e+00 -0.000000000000000000e+00 -0.000000000000000000e+00 0.000000000000000000e+00 0.000000000000000000e+00 0.000000000000000000e+00 0.000000000000000000e+00 0.000000000000000000e+00 -0.000000000000000000e+00 0.000000000000000000e+00 0.000000000000000000e+00 -0.000000000000000000e+00 0.000000000000000000e+00 0.000000000000000000e+00 -0.000000000000000000e+00 0.000000000000000000e+00 -0.000000000000000000e+00 -0.000000000000000000e+00 -0.000000000000000000e+00 0.000000000000000000e+00 0.000000000000000000e+00 0.000000000000000000e+00 -0.000000000000000000e+00 -0.000000000000000000e+00 0.000000000000000000e+00 -0.000000000000000000e+00 -0.000000000000000000e+00 0.000000000000000000e+00 0.000000000000000000e+00 -0.000000000000000000e+00 -0.000000000000000000e+00 -0.000000000000000000e+00 -0.000000000000000000e+00 -0.000000000000000000e+00 0.000000000000000000e+00 0.000000000000000000e+00 0.000000000000000000e+00 -0.000000000000000000e+00 -0.000000000000000000e+00 0.000000000000000000e+00 -0.000000000000000000e+00 0.000000000000000000e+00 0.000000000000000000e+00 0.000000000000000000e+00 0.000000000000000000e+00 -0.000000000000000000e+00 -0.000000000000000000e+00 0.000000000000000000e+00 0.000000000000000000e+00 0.000000000000000000e+00 -0.000000000000000000e+00 9.785574860870838165e-03 9.064227342605590820e-03 1.002468913793563843e-02 8.951626718044281006e-03 8.092402480542659760e-03 8.994145318865776062e-03 9.658884257078170776e-03 1.070713158696889877e-02 8.696752600371837616e-03 7.105161435902118683e-03 8.566510863602161407e-03 -9.434672072529792786e-03 8.999881334602832794e-03 9.703462012112140656e-03 9.715777821838855743e-03 1.014602556824684143e-02 9.774131700396537781e-03 8.294767700135707855e-03 9.005780331790447235e-03 9.350659325718879700e-03 9.788781404495239258e-03 8.821872994303703308e-03 -9.017020463943481445e-03 1.022837683558464050e-02 1.050224527716636658e-02 9.171612560749053955e-03 9.647252038121223450e-03 8.716667070984840393e-03 9.407186880707740784e-03 -1.019725389778614044e-02 9.598369710147380829e-03 7.229520007967948914e-03 1.093698292970657349e-02 9.204287081956863403e-03 1.020068395882844925e-02 8.762251585721969604e-03 1.018519606441259384e-02 9.148506447672843933e-03 9.587996639311313629e-03 9.031861089169979095e-03 9.752541780471801758e-03 9.559766389429569244e-03 -9.135129861533641815e-03 8.915103971958160400e-03 9.189777076244354248e-03 1.042143348604440689e-02 8.555226959288120270e-03 1.021374482661485672e-02 -9.185425005853176117e-03 9.635852649807929993e-03 7.730707060545682907e-03 8.686902001500129700e-03 9.714617393910884857e-03 9.461349807679653168e-03 9.777433238923549652e-03 1.017421390861272812e-02 7.567821070551872253e-03 8.670167066156864166e-03 9.059423580765724182e-03 8.712997660040855408e-03 8.855080232024192810e-03 9.025979787111282349e-03 9.734574705362319946e-03 9.489666670560836792e-03
-0.000000000000000000e+00 -0.000000000000000000e+00 0.000000000000000000e+00 -0.000000000000000000e+00 0.000000000000000000e+00 0.000000000000000000e+00 0.000000000000000000e+00 0.000000000000000000e+00 -0.000000000000000000e+00 -0.000000000000000000e+00 -0.000000000000000000e+00 -0.000000000000000000e+00 -0.000000000000000000e+00 -0.000000000000000000e+00 -0.000000000000000000e+00 0.000000000000000000e+00 0.000000000000000000e+00 0.000000000000000000e+00 0.000000000000000000e+00 0.000000000000000000e+00 -0.000000000000000000e+00 0.000000000000000000e+00 -0.000000000000000000e+00 0.000000000000000000e+00 0.000000000000000000e+00 0.000000000000000000e+00 -0.000000000000000000e+00 -0.000000000000000000e+00 0.000000000000000000e+00 0.000000000000000000e+00 0.000000000000000000e+00 -0.000000000000000000e+00 0.000000000000000000e+00 0.000000000000000000e+00 0.000000000000000000e+00 -0.000000000000000000e+00 -0.000000000000000000e+00 -0.000000000000000000e+00 0.000000000000000000e+00 -0.000000000000000000e+00 0.000000000000000000e+00 -0.000000000000000000e+00 0.000000000000000000e+00 -0.000000000000000000e+00 -0.000000000000000000e+00 0.000000000000000000e+00 0.000000000000000000e+00 -0.000000000000000000e+00 -0.000000000000000000e+00 -0.000000000000000000e+00 -0.000000000000000000e+00 -0.000000000000000000e+00 0.000000000000000000e+00 -0.000000000000000000e+00 0.000000000000000000e+00 -0.000000000000000000e+00 -0.000000000000000000e+00 -0.000000000000000000e+00 0.000000000000000000e+00 0.000000000000000000e+00 -0.000000000000000000e+00 -0.000000000000000000e+00 0.000000000000000000e+00 -0.000000000000000000e+00 -2.393549802945926785e-04 -8.395145996473729610e-04 3.223727457225322723e-03 -2.115176757797598839e-04 3.518519806675612926e-04 -1.836020965129137039e-04 -3.817834076471626759e-04 -3.217233170289546251e-04 -2.639279409777373075e-04 -1.518345088697969913e-03 -1.266540493816137314e-04 -2.247716183774173260e-04 -3.919466107618063688e-04 -3.868811472784727812e-05 -4.024310328532010317e-04 -2.358242345508188009e-04 -4.163952835369855165e-04 6.021288572810590267e-04 -3.916569112334400415e-04 -1.010564228636212647e-04 -7.892410940257832408e-05 -3.771449555642902851e-04 6.301493849605321884e-04 8.953507494879886508e-05 -3.347445162944495678e-04 -2.238106681033968925e-04 -3.400768036954104900e-04 2.938647594419308007e-05 -6.612939614569768310e-05 -3.305890131741762161e-04 -5.104461451992392540e-04 6.146769010229036212e-05 6.666403496637940407e-04 -7.195143844000995159e-04 -2.060093538602814078e-04 -3.465385234449058771e-04 -3.516111464705318213e-04 5.162084707990288734e-04 -2.009736199397593737e-04 -2.781662624329328537e-04 -7.734918035566806793e-04 -1.547951833344995975e-04 5.511121707968413830e-05 2.405288105364888906e-04 -1.210297705256380141e-04 -9.045492042787373066e-04 2.811498598020989448e-05 1.500699290772899985e-04 1.759643782861530781e-04 -3.316712100058794022e-04 -2.422387296974193305e-05 8.460915705654770136e-05 -6.126474472694098949e-04 8.165545295923948288e-05 -1.049367012456059456e-03 -7.010202971287071705e-04 2.447161023155786097e-05 -3.277702780906111002e-04 1.978568798222113401e-05 -6.871987716294825077e-05 -2.878581872209906578e-04 -3.137215026072226465e-05 -8.380502695217728615e-04 -5.364193202694877982e-05
-0.000000000000000000e+00 -0.000000000000000000e+00 0.000000000000000000e+00 -0.000000000000000000e+00 0.000000000000000000e+00 -0.000000000000000000e+00 0.000000000000000000e+00 -0.000000000000000000e+00 -0.000000000000000000e+00 -0.000000000000000000e+00 -0.000000000000000000e+00 0.000000000000000000e+00 -0.000000000000000000e+00 0.000000000000000000e+00 -0.000000000000000000e+00 -0.000000000000000000e+00 -0.000000000000000000e+00 0.000000000000000000e+00 0.000000000000000000e+00 0.000000000000000000e+00 -0.000000000000000000e+00 -0.000000000000000000e+00 0.000000000000000000e+00 0.000000000000000000e+00 0.000000000000000000e+00 -0.000000000000000000e+00 0.000000000000000000e+00 -0.000000000000000000e+00 0.000000000000000000e+00 -0.000000000000000000e+00 -0.000000000000000000e+00 -0.000000000000000000e+00 0.000000000000000000e+00 -0.000000000000000000e+00 0.000000000000000000e+00 -0.000000000000000000e+00 -0.000000000000000000e+00 0.000000000000000000e+00 -0.000000000000000000e+00 0.000000000000000000e+00 0.000000000000000000e+00 -0.000000000000000000e+00 -0.000000000000000000e+00 -0.000000000000000000e+00 0.000000000000000000e+00 0.000000000000000000e+00 -0.000000000000000000e+00 0.000000000000000000e+00 -0.000000000000000000e+00 0.000000000000000000e+00 -0.000000000000000000e+00 0.000000000000000000e+00 -0.000000000000000000e+00 -0.000000000000000000e+00 0.000000000000000000e+00 -0.000000000000000000e+00 0.000000000000000000e+00 0.000000000000000000e+00 0.000000000000000000e+00 0.000000000000000000e+00 -0.000000000000000000e+00 -0.000000000000000000e+00 0.000000000000000000e+00 0.000000000000000000e+00 5.679770401911810040e-05 -9.849150956142693758e-05 7.774415280437096953e-05 -5.436203719000332057e-05 -8.997515396913513541e-05 7.414560968754813075e-05 -6.310819881036877632e-04 2.435223723296076059e-04 -4.170503525529056787e-04 -5.504295695573091507e-04 1.765505585353821516e-04 -1.928876154124736786e-04 -1.066048425855115056e-04 4.666567547246813774e-04 -2.975745871935941977e-07 3.304596611997112632e-05 -8.723997598281130195e-05 -3.247394924983382225e-04 -7.077352493070065975e-04 -5.211650859564542770e-04 2.277916501043364406e-04 -6.618226179853081703e-04 -2.843303373083472252e-04 1.326585970673477277e-05 -8.243532647611573339e-05 -5.931938067078590393e-04 1.338237052550539374e-04 3.279688826296478510e-04 -2.413092734059318900e-04 -5.729944678023457527e-05 -6.221502553671598434e-04 -1.795010757632553577e-04 -6.874746759422123432e-04 6.559438043041154742e-05 -7.128676516003906727e-04 1.672772195888683200e-04 -4.920323844999074936e-04 2.885115100070834160e-04 -5.301700439304113388e-04 -4.060605133417993784e-04 -2.787096018437296152e-04 4.071301373187452555e-04 -3.591515123844146729e-04 -3.174256999045610428e-04 -2.913111820816993713e-04 -3.976531443186104298e-04 -5.758432089351117611e-04 1.940187794389203191e-04 2.792454033624380827e-04 -3.147236129734665155e-04 1.960562367457896471e-04 -2.845781273208558559e-05 -5.776281468570232391e-04 7.494691089959815145e-05 -3.807948669418692589e-04 -3.127463860437273979e-04 -9.346081060357391834e-05 -6.281656678766012192e-04 -1.393684487993596122e-05 -3.036860143765807152e-04 1.689864438958466053e-04 -4.227262979838997126e-04 1.260373101104050875e-04 -7.907260442152619362e-05
-0.000000000000000000e+00 -0.000000000000000000e+00 0.000000000000000000e+00 0.000000000000000000e+00 0.000000000000000000e+00 -0.000000000000000000e+00 0.000000000000000000e+00 0.000000000000000000e+00 -0.000000000000000000e+00 -0.000000000000000000e+00 -0.000000000000000000e+00 0.000000000000000000e+00 0.000000000000000000e+00 -0.000000000000000000e+00 0.000000000000000000e+00 0.000000000000000000e+00 -0.000000000000000000e+00 0.000000000000000000e+00 -0.000000000000000000e+00 -0.000000000000000000e+00 0.000000000000000000e+00 -0.000000000000000000e+00 0.000000000000000000e+00 0.000000000000000000e+00 -0.000000000000000000e+00 -0.000000000000000000e+00 -0.000000000000000000e+00 0.000000000000000000e+00 0.000000000000000000e+00 -0.000000000000000000e+00 -0.000000000000000000e+00 -0.000000000000000000e+00 -0.000000000000000000e+00 0.000000000000000000e+00 -0.000000000000000000e+00 -0.000000000000000000e+00 -0.000000000000000000e+00 -0.000000000000000000e+00 -0.000000000000000000e+00 0.000000000000000000e+00 -0.000000000000000000e+00 -0.000000000000000000e+00 -0.000000000000000000e+00 -0.000000000000000000e+00 -0.000000000000000000e+00 -0.000000000000000000e+00 0.000000000000000000e+00 -0.000000000000000000e+00 0.000000000000000000e+00 0.000000000000000000e+00 0.000000000000000000e+00 -0.000000000000000000e+00 -0.000000000000000000e+00 -0.000000000000000000e+00 -0.000000000000000000e+00 -0.000000000000000000e+00 -0.000000000000000000e+00 0.000000000000000000e+00 -0.000000000000000000e+00 0.000000000000000000e+00 -0.000000000000000000e+00 0.000000000000000000e+00 -0.000000000000000000e+00 0.000000000000000000e+00 9.642075747251510620e-03 9.117355570197105408e-03 9.909845888614654541e-03 8.174585178494453430e-03 8.234163746237754822e-03 8.841115050017833710e-03 8.485459722578525543e-03 1.021570246666669846e-02 8.288329467177391052e-03 6.848874967545270920e-03 8.429560810327529907e-03 -9.570909664034843445e-03 8.904490619897842407e-03 9.676694869995117188e-03 9.118205867707729340e-03 1.004537846893072128e-02 9.390930645167827606e-03 7.889305241405963898e-03 8.242639712989330292e-03 9.286636486649513245e-03 9.467494674026966095e-03 7.921265438199043274e-03 -9.393027983605861664e-03 9.101181291043758392e-03 1.045488007366657257e-02 9.086419828236103058e-03 9.601959958672523499e-03 8.707568049430847168e-03 9.287219494581222534e-03 -1.021404378116130829e-02 9.265461936593055725e-03 7.271221373230218887e-03 9.026224724948406219e-03 8.972589857876300812e-03 9.268832392990589142e-03 8.745729923248291016e-03 9.713142178952693939e-03 8.863680064678192139e-03 9.304120205342769623e-03 8.567671291530132294e-03 8.918640203773975372e-03 9.632035158574581146e-03 -9.219695813953876495e-03 8.407650515437126160e-03 9.052196517586708069e-03 9.968432597815990448e-03 8.475252427160739899e-03 1.023725792765617371e-02 -9.536177851259708405e-03 9.516534395515918732e-03 7.967310957610607147e-03 8.638810366392135620e-03 8.723523467779159546e-03 9.421466849744319916e-03 9.467157535254955292e-03 9.790402837097644806e-03 7.644616067409515381e-03 8.434035815298557281e-03 9.064233861863613129e-03 8.441999554634094238e-03 8.643812499940395355e-03 8.841534145176410675e-03 9.834751486778259277e-03 9.433693252503871918e-03
0.000000000000000000e+00 0.000000000000000000e+00 0.000000000000000000e+00 -0.000000000000000000e+00 -0.000000000000000000e+00 0.000000000000000000e+00 0.000000000000000000e+00 -0.000000000000000000e+00 0.000000000000000000e+00 0.000000000000000000e+00 -0.000000000000000000e+00 0.000000000000000000e+00 0.000000000000000000e+00 -0.000000000000000000e+00 0.000000000000000000e+00 -0.000000000000000000e+00 -0.000000000000000000e+00 0.000000000000000000e+00 -0.000000000000000000e+00 -0.000000000000000000e+00 -0.000000000000000000e+00 0.000000000000000000e+00 0.000000000000000000e+00 -0.000000000000000000e+00 0.000000000000000000e+00 -0.000000000000000000e+00 -0.000000000000000000e+00 0.000000000000000000e+00 0.000000000000000000e+00 -0.000000000000000000e+00 0.000000000000000000e+00 0.000000000000000000e+00 -0.000000000000000000e+00 -0.000000000000000000e+00 -0.000000000000000000e+00 -0.000000000000000000e+00 -0.000000000000000000e+00 -0.000000000000000000e+00 0.000000000000000000e+00 0.000000000000000000e+00 -0.000000000000000000e+00 0.000000000000000000e+00 0.000000000000000000e+00 0.000000000000000000e+00 0.000000000000000000e+00 -0.000000000000000000e+00 -0.000000000000000000e+00 0.000000000000000000e+00 -0.000000000000000000e+00 0.000000000000000000e+00 -0.000000000000000000e+00 0.000000000000000000e+00 -0.000000000000000000e+00 -0.000000000000000000e+00 -0.000000000000000000e+00 0.000000000000000000e+00 -0.000000000000000000e+00 -0.000000000000000000e+00 0.000000000000000000e+00 -0.000000000000000000e+00 -0.000000000000000000e+00 -0.000000000000000000e+00 -0.000000000000000000e+00 -0.000000000000000000e+00 1.115304045379161835e-02 8.352554403245449066e-03 8.258778601884841919e-03 9.249885566532611847e-03 9.518458507955074310e-03 1.049263495951890945e-02 8.518323302268981934e-03 9.773533791303634644e-03 9.762217290699481964e-03 6.419290788471698761e-03 9.005815722048282623e-03 -1.250680163502693176e-02 1.213947311043739319e-02 1.092352997511625290e-02 9.890493005514144897e-03 7.936505600810050964e-03 9.390002116560935974e-03 5.575856659561395645e-03 9.446864016354084015e-03 1.072569098323583603e-02 1.015496160835027695e-02 9.057083167135715485e-03 -1.164372731000185013e-02 8.568679913878440857e-03 1.268603000789880753e-02 1.164167560636997223e-02 1.047745626419782639e-02 9.473871439695358276e-03 1.003096532076597214e-02 -1.065756101161241531e-02 9.392254985868930817e-03 9.702319279313087463e-03 7.654011249542236328e-03 1.118887960910797119e-02 8.957052603363990784e-03 9.629790671169757843e-03 1.045211777091026306e-02 9.872234426438808441e-03 7.822168059647083282e-03 9.401816874742507935e-03 8.681610226631164551e-03 1.021497044712305069e-02 -1.254358422011137009e-02 9.873665869235992432e-03 8.530352264642715454e-03 1.014585234224796295e-02 1.048682630062103271e-02 1.131497137248516083e-02 -1.186609268188476562e-02 1.106001809239387512e-02 1.082026306539773941e-02 8.365949615836143494e-03 9.839034639298915863e-03 1.114749442785978317e-02 1.088146399706602097e-02 8.042124100029468536e-03 1.105399429798126221e-02 1.215189229696989059e-02 9.810587391257286072e-03 9.038327261805534363e-03 1.074348855763673782e-02 8.715008385479450226e-03 1.104917470365762711e-02 9.500474669039249420e-03
0.000000000000000000e+00 -0.000000000000000000e+00 -0.000000000000000000e+00 -0.000000000000000000e+00 -0.000000000000000000e+00 0.000000000000000000e+00 0.000000000000000000e+00 0.000000000000000000e+00 0.000000000000000000e+00 0.000000000000000000e+00 -0.000000000000000000e+00 0.000000000000000000e+00 -0.000000000000000000e+00 0.000000000000000000e+00 -0.000000000000000000e+00 0.000000000000000000e+00 -0.000000000000000000e+00 -0.000000000000000000e+00 0.000000000000000000e+00 -0.000000000000000000e+00 0.000000000000000000e+00 0.000000000000000000e+00 -0.000000000000000000e+00 -0.000000000000000000e+00 -0.000000000000000000e+00 0.000000000000000000e+00 0.000000000000000000e+00 0.000000000000000000e+00 0.000000000000000000e+00 -0.000000000000000000e+00 0.000000000000000000e+00 0.000000000000000000e+00 -0.000000000000000000e+00 0.000000000000000000e+00 0.000000000000000000e+00 -0.000000000000000000e+00 0.000000000000000000e+00 0.000000000000000000e+00 -0.000000000000000000e+00 -0.000000000000000000e+00 -0.000000000000000000e+00 0.000000000000000000e+00 -0.000000000000000000e+00 -0.000000000000000000e+00 0.000000000000000000e+00 -0.000000000000000000e+00 0.000000000000000000e+00 -0.000000000000000000e+00 -0.000000000000000000e+00 -0.000000000000000000e+00 -0.000000000000000000e+00 0.000000000000000000e+00 -0.000000000000000000e+00 0.000000000000000000e+00 0.000000000000000000e+00 0.000000000000000000e+00 0.000000000000000000e+00 -0.000000000000000000e+00 0.000000000000000000e+00 0.000000000000000000e+00 0.000000000000000000e+00 -0.000000000000000000e+00 -0.000000000000000000e+00 -0.000000000000000000e+00 1.000621914863586426e-02 9.193364530801773071e-03 1.011359225958585739e-02 9.211816824972629547e-03 8.241924457252025604e-03 9.198563173413276672e-03 1.003990508615970612e-02 1.102214120328426361e-02 8.919707499444484711e-03 7.422486320137977600e-03 8.802321739494800568e-03 -9.221334941685199738e-03 9.176702238619327545e-03 9.919466450810432434e-03 1.003880612552165985e-02 1.041193492710590363e-02 1.005094218999147415e-02 8.862809278070926666e-03 9.288351982831954956e-03 9.547405876219272614e-03 1.004321593791246414e-02 9.087366051971912384e-03 -8.517771959304809570e-03 1.065274700522422791e-02 1.074623409658670425e-02 9.380429051816463470e-03 9.820697829127311707e-03 8.882985450327396393e-03 9.600131772458553314e-03 -9.911970235407352448e-03 9.865337982773780823e-03 7.378712296485900879e-03 1.147510949522256851e-02 9.407224133610725403e-03 1.055616792291402817e-02 8.960068225860595703e-03 1.044202316552400589e-02 9.327027946710586548e-03 9.986151941120624542e-03 9.275888092815876007e-03 1.021835580468177795e-02 9.755981154739856720e-03 -8.893598802387714386e-03 9.136186912655830383e-03 9.454890154302120209e-03 1.074757799506187439e-02 8.754448033869266510e-03 1.037091575562953949e-02 -8.659893646836280823e-03 9.881506673991680145e-03 7.871615700423717499e-03 8.914518170058727264e-03 1.000246684998273849e-02 9.643821045756340027e-03 9.792020544409751892e-03 1.068894937634468079e-02 7.722736336290836334e-03 8.841942995786666870e-03 9.206186048686504364e-03 8.912412449717521667e-03 9.076948277652263641e-03 9.238012135028839111e-03 9.748357348144054413e-03 9.734733961522579193e-03
-0.000000000000000000e+00 0.000000000000000000e+00 -0.000000000000000000e+00 -0.000000000000000000e+00 0.000000000000000000e+00 0.000000000000000000e+00 0.000000000000000000e+00 -0.000000000000000000e+00 0.000000000000000000e+00 -0.000000000000000000e+00 0.000000000000000000e+00 0.000000000000000000e+00 0.000000000000000000e+00 -0.000000000000000000e+00 -0.000000000000000000e+00 0.000000000000000000e+00 -0.000000000000000000e+00 0.000000000000000000e+00 -0.000000000000000000e+00 0.000000000000000000e+00 0.000000000000000000e+00 -0.000000000000000000e+00 -0.000000000000000000e+00 0.000000000000000000e+00 0.000000000000000000e+00 0.000000000000000000e+00 0.000000000000000000e+00 0.000000000000000000e+00 -0.000000000000000000e+00 0.000000000000000000e+00 -0.000000000000000000e+00 0.000000000000000000e+00 -0.000000000000000000e+00 -0.000000000000000000e+00 -0.000000000000000000e+00 0.000000000000000000e+00 0.000000000000000000e+00 0.000000000000000000e+00 0.000000000000000000e+00 0.000000000000000000e+00 0.000000000000000000e+00 -0.000000000000000000e+00 0.000000000000000000e+00 -0.000000000000000000e+00 0.000000000000000000e+00 0.000000000000000000e+00 -0.000000000000000000e+00 -0.000000000000000000e+00 0.000000000000000000e+00 -0.000000000000000000e+00 0.000000000000000000e+00 0.000000000000000000e+00 -0.000000000000000000e+00 -0.000000000000000000e+00 -0.000000000000000000e+00 -0.000000000000000000e+00 0.000000000000000000e+00 0.000000000000000000e+00 -0.000000000000000000e+00 -0.000000000000000000e+00 0.000000000000000000e+00 -0.000000000000000000e+00 0.000000000000000000e+00 -0.000000000000000000e+00 -3.774379365495406091e-06 -1.096467076422413811e-05 -1.356275970465503633e-05 -2.835825944202952087e-05 -2.894606222980655730e-05 -1.212282677442999557e-05 -4.549139339360408485e-05 -4.287066258257254958e-05 -1.052182233252096921e-05 -5.618367140414193273e-05 -3.571410343283787370e-05 -1.513716051704250276e-05 -2.166283229598775506e-05 -1.142813562182709575e-05 -5.318918920238502324e-05 -1.817131851566955447e-05 -4.772719330503605306e-05 -7.084309618221595883e-05 -4.370693568489514291e-05 -2.367507477174513042e-05 -5.656894427374936640e-05 -5.275067087495699525e-05 -3.337971429573372006e-05 -5.181342930882237852e-05 -3.531301990733481944e-05 -3.227331035304814577e-05 -3.599373303586617112e-05 -1.184251959784887731e-05 -2.339023558306507766e-05 -6.796857974222803023e-07 -3.951404869440011680e-05 -8.168410204234533012e-06 -3.422861118451692164e-05 -3.077033034060150385e-05 -4.169335807091556489e-05 -2.388388020335696638e-05 -3.371347338543273509e-05 -2.834867700585164130e-05 -5.415248233475722373e-05 -4.843265196541324258e-05 -5.857440191903151572e-05 -2.567991941759828478e-05 -1.127684572566067800e-05 -2.650468377396464348e-05 -6.705914711346849799e-05 -2.884204695874359459e-05 -1.305162641074275598e-05 -2.967380714835599065e-05 -4.465173697099089622e-05 -1.013379824144067243e-05 -1.123051788454176858e-05 -4.067491317982785404e-05 -1.814230381569359452e-05 -3.090686732321046293e-05 -2.408916043350473046e-05 -5.099034387967549264e-05 -2.504885378584731370e-05 -2.553093690949026495e-05 -1.631470513530075550e-05 -1.604994031367823482e-05 -1.964533475984353572e-05 -3.084640411543659866e-05 -1.853520757322257850e-06 -1.251415233127772808e-05
-0.000000000000000000e+00 0.000000000000000000e+00 -0.000000000000000000e+00 -0.000000000000000000e+00 -0.000000000000000000e+00 -0.000000000000000000e+00 -0.000000000000000000e+00 0.000000000000000000e+00 -0.000000000000000000e+00 0.000000000000000000e+00 0.000000000000000000e+00 0.000000000000000000e+00 0.000000000000000000e+00 -0.000000000000000000e+00 -0.000000000000000000e+00 -0.000000000000000000e+00 -0.000000000000000000e+00 -0.000000000000000000e+00 0.000000000000000000e+00 0.000000000000000000e+00 -0.000000000000000000e+00 0.000000000000000000e+00 -0.000000000000000000e+00 -0.000000000000000000e+00 0.000000000000000000e+00 0.000000000000000000e+00 -0.000000000000000000e+00 -0.000000000000000000e+00 -0.000000000000000000e+00 -0.000000000000000000e+00 0.000000000000000000e+00 -0.000000000000000000e+00 0.000000000000000000e+00 -0.000000000000000000e+00 -0.000000000000000000e+00 -0.000000000000000000e+00 -0.000000000000000000e+00 -0.000000000000000000e+00 0.000000000000000000e+00 0.000000000000000000e+00 0.000000000000000000e+00 -0.000000000000000000e+00 0.000000000000000000e+00 -0.000000000000000000e+00 0.000000000000000000e+00 -0.000000000000000000e+00 0.000000000000000000e+00 -0.000000000000000000e+00 -0.000000000000000000e+00 -0.000000000000000000e+00 -0.000000000000000000e+00 -0.000000000000000000e+00 -0.000000000000000000e+00 0.000000000000000000e+00 -0.000000000000000000e+00 0.000000000000000000e+00 -0.000000000000000000e+00 0.000000000000000000e+00 -0.000000000000000000e+00 -0.000000000000000000e+00 0.000000000000000000e+00 -0.000000000000000000e+00 0.000000000000000000e+00 0.000000000000000000e+00 9.863978251814842224e-03 9.136570617556571960e-03 1.003781612962484360e-02 9.045504033565521240e-03 8.128616958856582642e-03 9.063262492418289185e-03 9.816097095608711243e-03 1.082288380712270737e-02 8.760959841310977936e-03 7.244181819260120392e-03 8.657700382173061371e-03 -9.337424300611019135e-03 9.071865119040012360e-03 9.800793603062629700e-03 9.855332784354686737e-03 1.026016566902399063e-02 9.882668964564800262e-03 8.589300327003002167e-03 9.140117093920707703e-03 9.413865394890308380e-03 9.870698675513267517e-03 8.902682922780513763e-03 -8.774413727223873138e-03 1.041122991591691971e-02 1.061574276536703110e-02 9.244998916983604431e-03 9.698266163468360901e-03 8.762455545365810394e-03 9.465022943913936615e-03 -1.005174871534109116e-02 9.695711545646190643e-03 7.259523030370473862e-03 1.118651218712329865e-02 9.282883256673812866e-03 1.033493038266897202e-02 8.830458857119083405e-03 1.026762463152408600e-02 9.195161983370780945e-03 9.755643084645271301e-03 9.140434674918651581e-03 9.964982047677040100e-03 9.635319001972675323e-03 -9.035713970661163330e-03 8.987554349005222321e-03 9.295817464590072632e-03 1.057387702167034149e-02 8.610147982835769653e-03 1.025770697742700577e-02 -8.930233307182788849e-03 9.735124185681343079e-03 7.760311011224985123e-03 8.785585872828960419e-03 9.820437058806419373e-03 9.521999396383762360e-03 9.810018353164196014e-03 1.043145172297954559e-02 7.614664267748594284e-03 8.724325336515903473e-03 9.093615226447582245e-03 8.775334805250167847e-03 8.933401666581630707e-03 9.108562953770160675e-03 9.668481536209583282e-03 9.589671157300472260e-03
0.000000000000000000e+00 0.000000000000000000e+00 0.000000000000000000e+00 0.000000000000000000e+00 0.000000000000000000e+00 0.000000000000000000e+00 -0.000000000000000000e+00 0.000000000000000000e+00 -0.000000000000000000e+00 0.000000000000000000e+00 0.000000000000000000e+00 -0.000000000000000000e+00 -0.000000000000000000e+00 0.000000000000000000e+00 0.000000000000000000e+00 -0.000000000000000000e+00 -0.000000000000000000e+00 -0.000000000000000000e+00 0.000000000000000000e+00 -0.000000000000000000e+00 0.000000000000000000e+00 0.000000000000000000e+00 0.000000000000000000e+00 0.000000000000000000e+00 0.000000000000000000e+00 -0.000000000000000000e+00 -0.000000000000000000e+00 0.000000000000000000e+00 0.000000000000000000e+00 0.000000000000000000e+00 -0.000000000000000000e+00 -0.000000000000000000e+00 -0.000000000000000000e+00 0.000000000000000000e+00 -0.000000000000000000e+00 0.000000000000000000e+00 0.000000000000000000e+00 0.000000000000000000e+00 -0.000000000000000000e+00 -0.000000000000000000e+00 -0.000000000000000000e+00 -0.000000000000000000e+00 -0.000000000000000000e+00 -0.000000000000000000e+00 0.000000000000000000e+00 -0.000000000000000000e+00 -0.000000000000000000e+00 0.000000000000000000e+00 -0.000000000000000000e+00 -0.000000000000000000e+00 -0.000000000000000000e+00 0.000000000000000000e+00 -0.000000000000000000e+00 0.000000000000000000e+00 0.000000000000000000e+00 -0.000000000000000000e+00 -0.000000000000000000e+00 0.000000000000000000e+00 -0.000000000000000000e+00 -0.000000000000000000e+00 0.000000000000000000e+00 -0.000000000000000000e+00 -0.000000000000000000e+00 -0.000000000000000000e+00 1.168099138885736465e-02 8.559931069612503052e-03 7.855661213397979736e-03 1.055374462157487869e-02 1.153920963406562805e-02 1.132451463490724564e-02 9.407659061253070831e-03 1.052483078092336655e-02 1.017769426107406616e-02 5.620808806270360947e-03 9.946572594344615936e-03 -1.174872834235429764e-02 1.115835085511207581e-02 1.160325575619935989e-02 1.005586981773376465e-02 9.174737147986888885e-03 9.223228320479393005e-03 6.492203101515769958e-03 9.804885834455490112e-03 1.156894210726022720e-02 1.128610782325267792e-02 9.377590380609035492e-03 -1.089866552501916885e-02 9.562085382640361786e-03 1.052060816437005997e-02 9.912866167724132538e-03 1.031439751386642456e-02 1.126750372350215912e-02 1.052287034690380096e-02 -9.593426249921321869e-03 1.052476372569799423e-02 1.090191490948200226e-02 9.511770680546760559e-03 9.522639214992523193e-03 9.572148323059082031e-03 1.006413530558347702e-02 1.066779531538486481e-02 1.174992509186267853e-02 9.029516018927097321e-03 1.024416834115982056e-02 8.512889966368675232e-03 1.146245840936899185e-02 -1.109567936509847641e-02 1.150711160153150558e-02 8.784576319158077240e-03 9.602243080735206604e-03 1.102764345705509186e-02 1.308301184326410294e-02 -1.087612938135862350e-02 1.124371215701103210e-02 1.117250882089138031e-02 9.944386780261993408e-03 1.036412641406059265e-02 1.197450421750545502e-02 8.701791055500507355e-03 8.786659687757492065e-03 1.215069368481636047e-02 1.193149294704198837e-02 1.005899254232645035e-02 1.002895273268222809e-02 1.177754253149032593e-02 9.743169881403446198e-03 9.270452894270420074e-03 9.797524660825729370e-03
-0.000000000000000000e+00 0.000000000000000000e+00 -0.000000000000000000e+00 0.000000000000000000e+00 0.000000000000000000e+00 -0.000000000000000000e+00 -0.000000000000000000e+00 0.000000000000000000e+00 0.000000000000000000e+00 0.000000000000000000e+00 0.000000000000000000e+00 0.000000000000000000e+00 0.000000000000000000e+00 -0.000000000000000000e+00 0.000000000000000000e+00 0.000000000000000000e+00 -0.000000000000000000e+00 -0.000000000000000000e+00 0.000000000000000000e+00 0.000000000000000000e+00 -0.000000000000000000e+00 -0.000000000000000000e+00 -0.000000000000000000e+00 0.000000000000000000e+00 0.000000000000000000e+00 0.000000000000000000e+00 -0.000000000000000000e+00 0.000000000000000000e+00 -0.000000000000000000e+00 -0.000000000000000000e+00 -0.000000000000000000e+00 -0.000000000000000000e+00 0.000000000000000000e+00 -0.000000000000000000e+00 0.000000000000000000e+00 0.000000000000000000e+00 0.000000000000000000e+00 -0.000000000000000000e+00 -0.000000000000000000e+00 -0.000000000000000000e+00 -0.000000000000000000e+00 0.000000000000000000e+00 0.000000000000000000e+00 0.000000000000000000e+00 0.000000000000000000e+00 0.000000000000000000e+00 0.000000000000000000e+00 -0.000000000000000000e+00 -0.000000000000000000e+00 -0.000000000000000000e+00 -0.000000000000000000e+00 -0.000000000000000000e+00 -0.000000000000000000e+00 0.000000000000000000e+00 -0.000000000000000000e+00 -0.000000000000000000e+00 -0.000000000000000000e+00 -0.000000000000000000e+00 0.000000000000000000e+00 0.000000000000000000e+00 -0.000000000000000000e+00 0.000000000000000000e+00 -0.000000000000000000e+00 -0.000000000000000000e+00 9.846893139183521271e-03 9.138829074800014496e-03 1.008949428796768188e-02 9.049462154507637024e-03 8.129192516207695007e-03 9.065124206244945526e-03 9.747396223247051239e-03 1.079117879271507263e-02 8.770320564508438110e-03 7.243466097861528397e-03 8.620873093605041504e-03 -9.370157495141029358e-03 9.061021730303764343e-03 9.773646481335163116e-03 9.838320314884185791e-03 1.024584192782640457e-02 9.856756776571273804e-03 8.374964818358421326e-03 9.100620634853839874e-03 9.395820088684558868e-03 9.851415641605854034e-03 8.903454989194869995e-03 -8.782263845205307007e-03 1.035753730684518814e-02 1.059220358729362488e-02 9.227534756064414978e-03 9.699643589556217194e-03 8.786846883594989777e-03 9.461391717195510864e-03 -1.008307002484798431e-02 9.670498780906200409e-03 7.279984652996063232e-03 1.095495931804180145e-02 9.272843599319458008e-03 1.029772218316793442e-02 8.821161463856697083e-03 1.024852227419614792e-02 9.203981608152389526e-03 9.727537631988525391e-03 9.105675853788852692e-03 9.915908798575401306e-03 9.614363312721252441e-03 -9.049306623637676239e-03 8.969475515186786652e-03 9.271137416362762451e-03 1.057028304785490036e-02 8.618180640041828156e-03 1.025092694908380508e-02 -8.983135223388671875e-03 9.716867469251155853e-03 7.767650298774242401e-03 8.767494000494480133e-03 9.813124313950538635e-03 9.521671570837497711e-03 9.857065044343471527e-03 1.029222551733255386e-02 7.614884059876203537e-03 8.721490390598773956e-03 9.103946387767791748e-03 8.792717009782791138e-03 8.928034454584121704e-03 9.097469039261341095e-03 9.803014807403087616e-03 9.584869258105754852e-03
0.000000000000000000e+00 0.000000000000000000e+00 0.000000000000000000e+00 -0.000000000000000000e+00 -0.000000000000000000e+00 -0.000000000000000000e+00 0.000000000000000000e+00 -0.000000000000000000e+00 0.000000000000000000e+00 0.000000000000000000e+00 -0.000000000000000000e+00 -0.000000000000000000e+00 -0.000000000000000000e+00 0.000000000000000000e+00 0.000000000000000000e+00 0.000000000000000000e+00 -0.000000000000000000e+00 0.000000000000000000e+00 0.000000000000000000e+00 0.000000000000000000e+00 0.000000000000000000e+00 -0.000000000000000000e+00 -0.000000000000000000e+00 -0.000000000000000000e+00 0.000000000000000000e+00 0.000000000000000000e+00 0.000000000000000000e+00 0.000000000000000000e+00 0.000000000000000000e+00 0.000000000000000000e+00 0.000000000000000000e+00 -0.000000000000000000e+00 0.000000000000000000e+00 0.000000000000000000e+00 -0.000000000000000000e+00 0.000000000000000000e+00 -0.000000000000000000e+00 -0.000000000000000000e+00 -0.000000000000000000e+00 -0.000000000000000000e+00 0.000000000000000000e+00 -0.000000000000000000e+00 0.000000000000000000e+00 0.000000000000000000e+00 0.000000000000000000e+00 0.000000000000000000e+00 -0.000000000000000000e+00 0.000000000000000000e+00 0.000000000000000000e+00 0.000000000000000000e+00 -0.000000000000000000e+00 -0.000000000000000000e+00 0.000000000000000000e+00 -0.000000000000000000e+00 0.000000000000000000e+00 -0.000000000000000000e+00 -0.000000000000000000e+00 -0.000000000000000000e+00 0.000000000000000000e+00 -0.000000000000000000e+00 -0.000000000000000000e+00 0.000000000000000000e+00 -0.000000000000000000e+00 0.000000000000000000e+00 1.136345017584972084e-04 -1.709210919216275215e-04 -1.621194969629868865e-04 -1.620427356101572514e-04 1.361881440971046686e-04 -1.224201841978356242e-04 1.287410268560051918e-04 -6.201890300872037187e-06 1.941070659086108208e-04 1.214199510286562145e-04 -1.822019112296402454e-04 -2.311634743819013238e-04 1.326865749433636665e-04 1.694199454504996538e-04 -1.676251413300633430e-04 -2.453915658406913280e-04 -2.247789961984381080e-04 -3.051173698622733355e-04 -2.259945613332092762e-04 1.483520027250051498e-04 -2.043107087956741452e-04 -2.299160405527800322e-04 -2.493887150194495916e-04 5.825759581057354808e-05 -1.274923124583438039e-04 9.657144983066245914e-05 -1.983957627089694142e-04 -1.659052068134769797e-04 1.650354242883622646e-04 -1.734809775371104479e-04 -1.789927919162437320e-04 -1.638598041608929634e-04 -1.421836495865136385e-04 5.334799425327219069e-05 -1.803339837351813912e-04 -2.385627012699842453e-04 1.025313686113804579e-04 1.140726526500657201e-04 -1.639803958823904395e-04 8.553001680411398411e-05 -1.562737888889387250e-04 -2.018217346630990505e-04 1.798460725694894791e-04 6.347658927552402020e-05 6.384557491401210427e-05 2.665433021320495754e-05 -2.102016878779977560e-04 2.108469780068844557e-04 -2.000259701162576675e-04 -2.189203514717519283e-04 9.809628681978210807e-05 -1.939336216310039163e-04 1.420820917701348662e-04 8.628048090031370521e-05 -1.844467333285138011e-04 -2.280622429680079222e-04 1.307877100771293044e-04 1.873533983598463237e-05 2.443921111989766359e-04 2.000639506150037050e-04 1.845235674409195781e-04 -1.853399298852309585e-04 9.882370068226009607e-05 5.838675861014053226e-05
-0.000000000000000000e+00 -0.000000000000000000e+00 0.000000000000000000e+00 0.000000000000000000e+00 -0.000000000000000000e+00 0.000000000000000000e+00 0.000000000000000000e+00 0.000000000000000000e+00 0.000000000000000000e+00 0.000000000000000000e+00 0.000000000000000000e+00 0.000000000000000000e+00 0.000000000000000000e+00 0.000000000000000000e+00 0.000000000000000000e+00 0.000000000000000000e+00 -0.000000000000000000e+00 -0.000000000000000000e+00 -0.000000000000000000e+00 0.000000000000000000e+00 -0.000000000000000000e+00 -0.000000000000000000e+00 -0.000000000000000000e+00 0.000000000000000000e+00 -0.000000000000000000e+00 -0.000000000000000000e+00 -0.000000000000000000e+00 -0.000000000000000000e+00 0.000000000000000000e+00 0.000000000000000000e+00 0.000000000000000000e+00 -0.000000000000000000e+00 0.000000000000000000e+00 -0.000000000000000000e+00 0.000000000000000000e+00 -0.000000000000000000e+00 0.000000000000000000e+00 0.000000000000000000e+00 -0.000000000000000000e+00 0.000000000000000000e+00 -0.000000000000000000e+00 -0.000000000000000000e+00 -0.000000000000000000e+00 -0.000000000000000000e+00 -0.000000000000000000e+00 0.000000000000000000e+00 0.000000000000000000e+00 -0.000000000000000000e+00 -0.000000000000000000e+00 0.000000000000000000e+00 0.000000000000000000e+00 -0.000000000000000000e+00 -0.000000000000000000e+00 -0.000000000000000000e+00 -0.000000000000000000e+00 0.000000000000000000e+00 -0.000000000000000000e+00 -0.000000000000000000e+00 0.000000000000000000e+00 0.000000000000000000e+00 -0.000000000000000000e+00 -0.000000000000000000e+00 0.000000000000000000e+00 -0.000000000000000000e+00 1.367892976850271225e-02 1.081816945225000381e-02 9.464677423238754272e-03 1.215226948261260986e-02 1.359310094267129898e-02 1.324437931180000305e-02 1.100939698517322540e-02 1.244235970079898834e-02 1.189771201461553574e-02 7.843120023608207703e-03 1.199683640152215958e-02 -1.023643463850021362e-02 1.363005489110946655e-02 1.378354150801897049e-02 1.227802224457263947e-02 1.135423872619867325e-02 1.196595281362533569e-02 8.122704923152923584e-03 1.194201037287712097e-02 1.376926247030496597e-02 1.332158222794532776e-02 1.123741362243890762e-02 -8.987135253846645355e-03 1.175553258508443832e-02 1.242858450859785080e-02 1.252431795001029968e-02 1.235302817076444626e-02 1.286597177386283875e-02 1.265162881463766098e-02 -7.564696948975324631e-03 1.191892102360725403e-02 1.310978922992944717e-02 1.077150832861661911e-02 1.201791595667600632e-02 1.196510531008243561e-02 1.238516531884670258e-02 1.274683605879545212e-02 1.273151393979787827e-02 1.072407793253660202e-02 1.158204115927219391e-02 9.922403842210769653e-03 1.372814178466796875e-02 -8.557167835533618927e-03 1.210104953497648239e-02 1.067841518670320511e-02 1.157831307500600815e-02 1.283150631934404373e-02 1.509335823357105255e-02 -8.922947570681571960e-03 1.321174763143062592e-02 1.349526084959506989e-02 1.163731701672077179e-02 1.180357858538627625e-02 1.352459285408258438e-02 1.123493351042270660e-02 9.955103509128093719e-03 1.432892121374607086e-02 1.372756436467170715e-02 1.258550118654966354e-02 1.251305453479290009e-02 1.358101330697536469e-02 1.163167040795087814e-02 1.221019960939884186e-02 1.163527648895978928e-02
0.000000000000000000e+00 -0.000000000000000000e+00 -0.000000000000000000e+00 0.000000000000000000e+00 0.000000000000000000e+00 -0.000000000000000000e+00 0.000000000000000000e+00 0.000000000000000000e+00 0.000000000000000000e+00 -0.000000000000000000e+00 -0.000000000000000000e+00 0.000000000000000000e+00 -0.000000000000000000e+00 -0.000000000000000000e+00 -0.000000000000000000e+00 0.000000000000000000e+00 -0.000000000000000000e+00 0.000000000000000000e+00 0.000000000000000000e+00 -0.000000000000000000e+00 -0.000000000000000000e+00 0.000000000000000000e+00 -0.000000000000000000e+00 0.000000000000000000e+00 -0.000000000000000000e+00 0.000000000000000000e+00 -0.000000000000000000e+00 -0.000000000000000000e+00 0.000000000000000000e+00 -0.000000000000000000e+00 0.000000000000000000e+00 -0.000000000000000000e+00 -0.000000000000000000e+00 -0.000000000000000000e+00 0.000000000000000000e+00 -0.000000000000000000e+00 0.000000000000000000e+00 -0.000000000000000000e+00 0.000000000000000000e+00 0.000000000000000000e+00 -0.000000000000000000e+00 0.000000000000000000e+00 0.000000000000000000e+00 0.000000000000000000e+00 0.000000000000000000e+00 0.000000000000000000e+00 0.000000000000000000e+00 0.000000000000000000e+00 0.000000000000000000e+00 -0.000000000000000000e+00 -0.000000000000000000e+00 -0.000000000000000000e+00 -0.000000000000000000e+00 -0.000000000000000000e+00 0.000000000000000000e+00 -0.000000000000000000e+00 -0.000000000000000000e+00 -0.000000000000000000e+00 -0.000000000000000000e+00 -0.000000000000000000e+00 -0.000000000000000000e+00 -0.000000000000000000e+00 -0.000000000000000000e+00 -0.000000000000000000e+00 1.412034849636256695e-03 1.434366451576352119e-03 1.413187710568308830e-03 1.347586978226900101e-03 1.433330588042736053e-03 1.407566131092607975e-03 1.224522595293819904e-03 1.279540476389229298e-03 1.385354786179959774e-03 1.282748649828135967e-03 1.406020019203424454e-03 1.443926012143492699e-03 1.423096167854964733e-03 1.425662543624639511e-03 1.310409395955502987e-03 1.381642767228186131e-03 1.314930152148008347e-03 4.475078894756734371e-04 1.339768525213003159e-03 1.415687613189220428e-03 1.354236621409654617e-03 1.329270773567259312e-03 9.487796924076974392e-04 1.167015871033072472e-03 1.401998917572200298e-03 1.426002359949052334e-03 1.424640649929642677e-03 1.436438295058906078e-03 1.391952158883213997e-03 1.412665122188627720e-03 1.332531566731631756e-03 1.429849187843501568e-03 6.374876247718930244e-04 1.405126880854368210e-03 1.246083760634064674e-03 1.419159234501421452e-03 1.333718304522335529e-03 1.415962120518088341e-03 1.224276726134121418e-03 1.395212952047586441e-03 1.111852703616023064e-03 1.406872645020484924e-03 1.431944663636386395e-03 1.364350668154656887e-03 1.360658439807593822e-03 1.299158087931573391e-03 1.409654738381505013e-03 1.446165842935442924e-03 1.166286296211183071e-03 1.423281501047313213e-03 1.455228077247738838e-03 1.407703617587685585e-03 1.318356720730662346e-03 1.428487128578126431e-03 1.408062409609556198e-03 -5.112186772748827934e-05 1.426206668838858604e-03 1.408817595802247524e-03 1.444556401111185551e-03 1.401410205289721489e-03 1.398664200678467751e-03 1.410406897775828838e-03 1.444459194317460060e-03 1.396934036165475845e-03
-0.000000000000000000e+00 0.000000000000000000e+00 0.000000000000000000e+00 0.000000000000000000e+00 0.000000000000000000e+00 0.000000000000000000e+00 0.000000000000000000e+00 -0.000000000000000000e+00 0.000000000000000000e+00 -0.000000000000000000e+00 -0.000000000000000000e+00 -0.000000000000000000e+00 -0.000000000000000000e+00 0.000000000000000000e+00 0.000000000000000000e+00 -0.000000000000000000e+00 -0.000000000000000000e+00 0.000000000000000000e+00 0.000000000000000000e+00 -0.000000000000000000e+00 0.000000000000000000e+00 -0.000000000000000000e+00 0.000000000000000000e+00 -0.000000000000000000e+00 -0.000000000000000000e+00 0.000000000000000000e+00 -0.000000000000000000e+00 0.000000000000000000e+00 0.000000000000000000e+00 0.000000000000000000e+00 0.000000000000000000e+00 0.000000000000000000e+00 0.000000000000000000e+00 0.000000000000000000e+00 -0.000000000000000000e+00 0.000000000000000000e+00 0.000000000000000000e+00 -0.000000000000000000e+00 0.000000000000000000e+00 -0.000000000000000000e+00 0.000000000000000000e+00 0.000000000000000000e+00 0.000000000000000000e+00 0.000000000000000000e+00 0.000000000000000000e+00 0.000000000000000000e+00 0.000000000000000000e+00 0.000000000000000000e+00 -0.000000000000000000e+00 0.000000000000000000e+00 0.000000000000000000e+00 0.000000000000000000e+00 0.000000000000000000e+00 -0.000000000000000000e+00 -0.000000000000000000e+00 0.000000000000000000e+00 -0.000000000000000000e+00 -0.000000000000000000e+00 0.000000000000000000e+00 0.000000000000000000e+00 0.000000000000000000e+00 0.000000000000000000e+00 0.000000000000000000e+00 -0.000000000000000000e+00 1.183686777949333191e-02 9.792565368115901947e-03 9.520544670522212982e-03 1.028016395866870880e-02 1.131737697869539261e-02 1.116933673620223999e-02 9.198428131639957428e-03 1.069790497422218323e-02 1.024383958429098129e-02 7.070704828947782516e-03 1.005382463335990906e-02 -1.096842903643846512e-02 1.178968418389558792e-02 1.158821489661931992e-02 1.007535401731729507e-02 9.994629770517349243e-03 1.029231213033199310e-02 6.812729872763156891e-03 9.934594854712486267e-03 1.159815676510334015e-02 1.099727675318717957e-02 9.615548886358737946e-03 -9.964003227651119232e-03 9.350695647299289703e-03 1.153911557048559189e-02 1.073766965419054031e-02 1.098077837377786636e-02 1.113209873437881470e-02 1.064463891088962555e-02 -9.540100581943988800e-03 1.049078535288572311e-02 1.066826563328504562e-02 8.901659399271011353e-03 1.089041028171777725e-02 1.008646190166473389e-02 1.072417292743921280e-02 1.091142464429140091e-02 1.130785793066024780e-02 9.275066666305065155e-03 1.025592815130949020e-02 8.960830047726631165e-03 1.152353547513484955e-02 -1.032712683081626892e-02 1.046028733253479004e-02 9.689633734524250031e-03 1.042727101594209671e-02 1.087035611271858215e-02 1.289603859186172485e-02 -9.855555370450019836e-03 1.137041114270687103e-02 1.122653018683195114e-02 1.002714596688747406e-02 1.036487799137830734e-02 1.182014681398868561e-02 1.051967591047286987e-02 9.161498397588729858e-03 1.156357303261756897e-02 1.129806321114301682e-02 1.087685022503137589e-02 1.036402024328708649e-02 1.127957459539175034e-02 1.021142862737178802e-02 1.120973005890846252e-02 1.073970180004835129e-02
0.000000000000000000e+00 0.000000000000000000e+00 -0.000000000000000000e+00 -0.000000000000000000e+00 -0.000000000000000000e+00 -0.000000000000000000e+00 -0.000000000000000000e+00 0.000000000000000000e+00 0.000000000000000000e+00 -0.000000000000000000e+00 0.000000000000000000e+00 0.000000000000000000e+00 -0.000000000000000000e+00 -0.000000000000000000e+00 -0.000000000000000000e+00 0.000000000000000000e+00 0.000000000000000000e+00 0.000000000000000000e+00 -0.000000000000000000e+00 0.000000000000000000e+00 0.000000000000000000e+00 -0.000000000000000000e+00 0.000000000000000000e+00 -0.000000000000000000e+00 0.000000000000000000e+00 0.000000000000000000e+00 -0.000000000000000000e+00 -0.000000000000000000e+00 -0.000000000000000000e+00 -0.000000000000000000e+00 -0.000000000000000000e+00 0.000000000000000000e+00 -0.000000000000000000e+00 0.000000000000000000e+00 0.000000000000000000e+00 0.000000000000000000e+00 -0.000000000000000000e+00 0.000000000000000000e+00 0.000000000000000000e+00 0.000000000000000000e+00 0.000000000000000000e+00 -0.000000000000000000e+00 0.000000000000000000e+00 0.000000000000000000e+00 0.000000000000000000e+00 -0.000000000000000000e+00 0.000000000000000000e+00 0.000000000000000000e+00 0.000000000000000000e+00 0.000000000000000000e+00 0.000000000000000000e+00 -0.000000000000000000e+00 -0.000000000000000000e+00 0.000000000000000000e+00 0.000000000000000000e+00 -0.000000000000000000e+00 0.000000000000000000e+00 0.000000000000000000e+00 0.000000000000000000e+00 0.000000000000000000e+00 0.000000000000000000e+00 -0.000000000000000000e+00 -0.000000000000000000e+00 -0.000000000000000000e+00 9.818252176046371460e-03 9.083820506930351257e-03 1.005030237138271332e-02 8.972950279712677002e-03 8.114532567560672760e-03 9.021435864269733429e-03 9.676174260675907135e-03 1.071632280945777893e-02 8.718170225620269775e-03 7.149287499487400055e-03 8.599631488323211670e-03 -9.436755441129207611e-03 9.053339250385761261e-03 9.747474454343318939e-03 9.742519818246364594e-03 1.016716007143259048e-02 9.797710925340652466e-03 8.294292725622653961e-03 9.042722173035144806e-03 9.363983757793903351e-03 9.804643690586090088e-03 8.832906372845172882e-03 -9.012972936034202576e-03 1.025981828570365906e-02 1.055807434022426605e-02 9.210977703332901001e-03 9.639381431043148041e-03 8.739862591028213501e-03 9.419228881597518921e-03 -1.016825810074806213e-02 9.588194079697132111e-03 7.255667354911565781e-03 1.096885930746793747e-02 9.240614250302314758e-03 1.022094115614891052e-02 8.790609426796436310e-03 1.020815968513488770e-02 9.168602526187896729e-03 9.592454880475997925e-03 9.061465971171855927e-03 9.784477762877941132e-03 9.600772522389888763e-03 -9.134290739893913269e-03 8.934142068028450012e-03 9.179960004985332489e-03 1.048679836094379425e-02 8.585062809288501740e-03 1.024851296097040176e-02 -9.182249195873737335e-03 9.681997820734977722e-03 7.745325099676847458e-03 8.694081567227840424e-03 9.741664864122867584e-03 9.500632062554359436e-03 9.810195304453372955e-03 1.020717713981866837e-02 7.596352603286504745e-03 8.685692213475704193e-03 9.068786166608333588e-03 8.728889748454093933e-03 8.876655250787734985e-03 9.029367938637733459e-03 9.778593666851520538e-03 9.508576244115829468e-03
0.000000000000000000e+00 -0.000000000000000000e+00 -0.000000000000000000e+00 -0.000000000000000000e+00 -0.000000000000000000e+00 0.000000000000000000e+00 -0.000000000000000000e+00 -0.000000000000000000e+00 0.000000000000000000e+00 0.000000000000000000e+00 0.000000000000000000e+00 -0.000000000000000000e+00 0.000000000000000000e+00 -0.000000000000000000e+00 -0.000000000000000000e+00 -0.000000000000000000e+00 0.000000000000000000e+00 0.000000000000000000e+00 -0.000000000000000000e+00 -0.000000000000000000e+00 -0.000000000000000000e+00 0.000000000000000000e+00 -0.000000000000000000e+00 -0.000000000000000000e+00 0.000000000000000000e+00 0.000000000000000000e+00 -0.000000000000000000e+00 -0.000000000000000000e+00 0.000000000000000000e+00 0.000000000000000000e+00 0.000000000000000000e+00 0.000000000000000000e+00 0.000000000000000000e+00 0.000000000000000000e+00 0.000000000000000000e+00 0.000000000000000000e+00 0.000000000000000000e+00 -0.000000000000000000e+00 -0.000000000000000000e+00 -0.000000000000000000e+00 -0.000000000000000000e+00 0.000000000000000000e+00 0.000000000000000000e+00 -0.000000000000000000e+00 -0.000000000000000000e+00 -0.000000000000000000e+00 -0.000000000000000000e+00 0.000000000000000000e+00 -0.000000000000000000e+00 0.000000000000000000e+00 0.000000000000000000e+00 0.000000000000000000e+00 -0.000000000000000000e+00 0.000000000000000000e+00 0.000000000000000000e+00 0.000000000000000000e+00 0.000000000000000000e+00 -0.000000000000000000e+00 0.000000000000000000e+00 -0.000000000000000000e+00 -0.000000000000000000e+00 0.000000000000000000e+00 -0.000000000000000000e+00 -0.000000000000000000e+00 1.423338428139686584e-02 1.114629860967397690e-02 9.961454197764396667e-03 1.286641694605350494e-02 1.406907103955745697e-02 1.376186963170766830e-02 1.189983263611793518e-02 1.263908203691244125e-02 1.267481874674558640e-02 7.987416349351406097e-03 1.191583462059497833e-02 -9.894190356135368347e-03 1.428185403347015381e-02 1.370257697999477386e-02 1.280741672962903976e-02 1.182181108742952347e-02 1.259180624037981033e-02 8.139574900269508362e-03 1.249681971967220306e-02 1.414534170180559158e-02 1.360565982758998871e-02 1.184779126197099686e-02 -8.925458416342735291e-03 1.238768734037876129e-02 1.240877527743577957e-02 1.307076867669820786e-02 1.252627186477184296e-02 1.339093036949634552e-02 1.317172590643167496e-02 -7.544311229139566422e-03 1.247480232268571854e-02 1.353545859456062317e-02 1.121581811457872391e-02 1.252497360110282898e-02 1.218535844236612320e-02 1.293614227324724197e-02 1.337119471281766891e-02 1.360107865184545517e-02 1.091131474822759628e-02 1.191994175314903259e-02 1.063368376344442368e-02 1.394162885844707489e-02 -8.516116999089717865e-03 1.291071437299251556e-02 1.093178149312734604e-02 1.185400038957595825e-02 1.336539629846811295e-02 1.524548232555389404e-02 -8.877336978912353516e-03 1.310346648097038269e-02 1.411606464534997940e-02 1.164042111486196518e-02 1.247508823871612549e-02 1.390032563358545303e-02 1.220399420708417892e-02 1.053679827600717545e-02 1.471316441893577576e-02 1.437112037092447281e-02 1.286146137863397598e-02 1.310933846980333328e-02 1.431641727685928345e-02 1.226554438471794128e-02 1.285297889262437820e-02 1.186314318329095840e-02
0.000000000000000000e+00 -0.000000000000000000e+00 -0.000000000000000000e+00 -0.000000000000000000e+00 -0.000000000000000000e+00 0.000000000000000000e+00 -0.000000000000000000e+00 0.000000000000000000e+00 -0.000000000000000000e+00 0.000000000000000000e+00 0.000000000000000000e+00 0.000000000000000000e+00 -0.000000000000000000e+00 -0.000000000000000000e+00 -0.000000000000000000e+00 -0.000000000000000000e+00 -0.000000000000000000e+00 -0.000000000000000000e+00 -0.000000000000000000e+00 -0.000000000000000000e+00 -0.000000000000000000e+00 0.000000000000000000e+00 0.000000000000000000e+00 -0.000000000000000000e+00 0.000000000000000000e+00 0.000000000000000000e+00 -0.000000000000000000e+00 -0.000000000000000000e+00 -0.000000000000000000e+00 -0.000000000000000000e+00 -0.000000000000000000e+00 -0.000000000000000000e+00 0.000000000000000000e+00 0.000000000000000000e+00 0.000000000000000000e+00 -0.000000000000000000e+00 -0.000000000000000000e+00 -0.000000000000000000e+00 0.000000000000000000e+00 -0.000000000000000000e+00 -0.000000000000000000e+00 0.000000000000000000e+00 0.000000000000000000e+00 -0.000000000000000000e+00 0.000000000000000000e+00 0.000000000000000000e+00 0.000000000000000000e+00 0.000000000000000000e+00 -0.000000000000000000e+00 0.000000000000000000e+00 -0.000000000000000000e+00 0.000000000000000000e+00 0.000000000000000000e+00 0.000000000000000000e+00 -0.000000000000000000e+00 0.000000000000000000e+00 -0.000000000000000000e+00 -0.000000000000000000e+00 0.000000000000000000e+00 -0.000000000000000000e+00 0.000000000000000000e+00 -0.000000000000000000e+00 0.000000000000000000e+00 -0.000000000000000000e+00 1.360319461673498154e-02 1.066308002918958664e-02 9.328144602477550507e-03 1.234486978501081467e-02 1.342275831848382950e-02 1.305700000375509262e-02 1.108340267091989517e-02 1.237137522548437119e-02 1.198500953614711761e-02 7.825180888175964355e-03 1.184676215052604675e-02 -1.011058129370212555e-02 1.356620993465185165e-02 1.356850657612085342e-02 1.213754434138536453e-02 1.127754431217908859e-02 1.190128084272146225e-02 7.854818366467952728e-03 1.173908263444900513e-02 1.366288121789693832e-02 1.302267238497734070e-02 1.122702285647392273e-02 -9.056416340172290802e-03 1.154267974197864532e-02 1.225072611123323441e-02 1.244691479951143265e-02 1.238004770129919052e-02 1.268425863236188889e-02 1.247392687946557999e-02 -7.746116723865270615e-03 1.187308132648468018e-02 1.287996582686901093e-02 1.051476784050464630e-02 1.183105260133743286e-02 1.177033688873052597e-02 1.220041420310735703e-02 1.264370419085025787e-02 1.276228483766317368e-02 1.066197268664836884e-02 1.144463475793600082e-02 9.952622465789318085e-03 1.354057341814041138e-02 -8.731847628951072693e-03 1.201369054615497589e-02 1.071029808372259140e-02 1.142756734043359756e-02 1.262090727686882019e-02 1.485945191234350204e-02 -8.961481042206287384e-03 1.312496140599250793e-02 1.328771095722913742e-02 1.150710135698318481e-02 1.185510307550430298e-02 1.346519496291875839e-02 1.144237164407968521e-02 9.899700991809368134e-03 1.410496048629283905e-02 1.353053841739892960e-02 1.236877497285604477e-02 1.245387736707925797e-02 1.366539765149354935e-02 1.172098331153392792e-02 1.227397192269563675e-02 1.168192178010940552e-02
-0.000000000000000000e+00 0.000000000000000000e+00 -0.000000000000000000e+00 0.000000000000000000e+00 -0.000000000000000000e+00 -0.000000000000000000e+00 -0.000000000000000000e+00 0.000000000000000000e+00 0.000000000000000000e+00 -0.000000000000000000e+00 0.000000000000000000e+00 0.000000000000000000e+00 0.000000000000000000e+00 -0.000000000000000000e+00 0.000000000000000000e+00 0.000000000000000000e+00 -0.000000000000000000e+00 0.000000000000000000e+00 0.000000000000000000e+00 0.000000000000000000e+00 -0.000000000000000000e+00 -0.000000000000000000e+00 0.000000000000000000e+00 -0.000000000000000000e+00 -0.000000000000000000e+00 0.000000000000000000e+00 -0.000000000000000000e+00 0.000000000000000000e+00 -0.000000000000000000e+00 0.000000000000000000e+00 -0.000000000000000000e+00 -0.000000000000000000e+00 0.000000000000000000e+00 0.000000000000000000e+00 0.000000000000000000e+00 0.000000000000000000e+00 -0.000000000000000000e+00 0.000000000000000000e+00 -0.000000000000000000e+00 -0.000000000000000000e+00 -0.000000000000000000e+00 -0.000000000000000000e+00 0.000000000000000000e+00 -0.000000000000000000e+00 -0.000000000000000000e+00 -0.000000000000000000e+00 -0.000000000000000000e+00 -0.000000000000000000e+00 0.000000000000000000e+00 0.000000000000000000e+00 -0.000000000000000000e+00 -0.000000000000000000e+00 0.000000000000000000e+00 -0.000000000000000000e+00 -0.000000000000000000e+00 -0.000000000000000000e+00 -0.000000000000000000e+00 -0.000000000000000000e+00 0.000000000000000000e+00 0.000000000000000000e+00 -0.000000000000000000e+00 -0.000000000000000000e+00 -0.000000000000000000e+00 -0.000000000000000000e+00 1.469364948570728302e-02 1.416197232902050018e-02 1.516556274145841599e-02 1.430793851613998413e-02 1.323059946298599243e-02 1.355334836989641190e-02 1.508912816643714905e-02 1.480100117623806000e-02 1.345366239547729492e-02 1.676464825868606567e-02 1.486935466527938843e-02 -9.443751536309719086e-03 1.365231256932020187e-02 1.897620409727096558e-02 1.464956998825073242e-02 1.536066550761461258e-02 1.467824261635541916e-02 9.519776329398155212e-03 1.378493104130029678e-02 1.448305603116750717e-02 1.413614489138126373e-02 1.441480871289968491e-02 -9.018206037580966949e-03 1.492317300289869308e-02 1.963891834020614624e-02 1.424014009535312653e-02 1.624409668147563934e-02 1.300337165594100952e-02 1.411696150898933411e-02 -1.019537821412086487e-02 1.451082155108451843e-02 1.295376289635896683e-02 1.634752191603183746e-02 1.420109905302524567e-02 1.441975869238376617e-02 1.457802113145589828e-02 1.458411850035190582e-02 1.398250740021467209e-02 1.474129129201173782e-02 1.520348805934190750e-02 1.558959856629371643e-02 1.435317192226648331e-02 -9.144085459411144257e-03 1.373713091015815735e-02 1.573013328015804291e-02 1.714643277227878571e-02 1.386969909071922302e-02 1.467979885637760162e-02 -9.195334278047084808e-03 1.915750466287136078e-02 1.303410623222589493e-02 1.433131285011768341e-02 1.443508360534906387e-02 1.500053424388170242e-02 1.463702227920293808e-02 1.563046313822269440e-02 1.261916756629943848e-02 1.342411059886217117e-02 1.452008634805679321e-02 1.437500026077032089e-02 1.375011540949344635e-02 1.496435981243848801e-02 1.470102090388536453e-02 1.468739006668329239e-02
-0.000000000000000000e+00 0.000000000000000000e+00 0.000000000000000000e+00 0.000000000000000000e+00 -0.000000000000000000e+00 -0.000000000000000000e+00 0.000000000000000000e+00 0.000000000000000000e+00 0.000000000000000000e+00 0.000000000000000000e+00 -0.000000000000000000e+00 0.000000000000000000e+00 -0.000000000000000000e+00 0.000000000000000000e+00 -0.000000000000000000e+00 0.000000000000000000e+00 0.000000000000000000e+00 -0.000000000000000000e+00 0.000000000000000000e+00 -0.000000000000000000e+00 -0.000000000000000000e+00 -0.000000000000000000e+00 -0.000000000000000000e+00 -0.000000000000000000e+00 0.000000000000000000e+00 -0.000000000000000000e+00 -0.000000000000000000e+00 0.000000000000000000e+00 0.000000000000000000e+00 -0.000000000000000000e+00 -0.000000000000000000e+00 0.000000000000000000e+00 -0.000000000000000000e+00 -0.000000000000000000e+00 0.000000000000000000e+00 -0.000000000000000000e+00 0.000000000000000000e+00 0.000000000000000000e+00 0.000000000000000000e+00 -0.000000000000000000e+00 0.000000000000000000e+00 -0.000000000000000000e+00 -0.000000000000000000e+00 0.000000000000000000e+00 0.000000000000000000e+00 -0.000000000000000000e+00 0.000000000000000000e+00 -0.000000000000000000e+00 0.000000000000000000e+00 0.000000000000000000e+00 0.000000000000000000e+00 -0.000000000000000000e+00 0.000000000000000000e+00 -0.000000000000000000e+00 0.000000000000000000e+00 0.000000000000000000e+00 0.000000000000000000e+00 0.000000000000000000e+00 -0.000000000000000000e+00 0.000000000000000000e+00 0.000000000000000000e+00 -0.000000000000000000e+00 -0.000000000000000000e+00 0.000000000000000000e+00 9.935284964740276337e-03 9.458832442760467529e-03 1.041174307465553284e-02 8.797269314527511597e-03 8.261400274932384491e-03 9.120606817305088043e-03 9.075396694242954254e-03 1.035042665898799896e-02 8.804637007415294647e-03 7.338119670748710632e-03 8.812514133751392365e-03 -8.617408573627471924e-03 9.127425961196422577e-03 1.010044571012258530e-02 9.540264494717121124e-03 1.064615510404109955e-02 9.322426281869411469e-03 7.186156697571277618e-03 8.884092792868614197e-03 9.569324553012847900e-03 9.559293277561664581e-03 8.589958772063255310e-03 -9.124707430601119995e-03 8.750340901315212250e-03 1.089287642389535904e-02 9.438547305762767792e-03 9.991300292313098907e-03 8.919283747673034668e-03 9.575886651873588562e-03 -9.528856724500656128e-03 9.590943343937397003e-03 7.415034342557191849e-03 8.756881579756736755e-03 9.414341300725936890e-03 9.664731100201606750e-03 8.973731659352779388e-03 9.873948059976100922e-03 9.154591709375381470e-03 9.519333951175212860e-03 9.294688701629638672e-03 9.054075926542282104e-03 9.710513055324554443e-03 -8.321581408381462097e-03 8.734347298741340637e-03 9.546283632516860962e-03 1.047090347856283188e-02 8.624239824712276459e-03 1.046662125736474991e-02 -8.943769149482250214e-03 1.005097664892673492e-02 7.879268378019332886e-03 9.123617783188819885e-03 9.465178474783897400e-03 9.802286513149738312e-03 9.927693754434585571e-03 9.600966237485408783e-03 7.730434648692607880e-03 8.709787391126155853e-03 9.381181560456752777e-03 8.821733295917510986e-03 8.866035379469394684e-03 9.383375756442546844e-03 9.920192882418632507e-03 9.976880624890327454e-03
-0.000000000000000000e+00 0.000000000000000000e+00 0.000000000000000000e+00 0.000000000000000000e+00 0.000000000000000000e+00 -0.000000000000000000e+00 -0.000000000000000000e+00 -0.000000000000000000e+00 -0.000000000000000000e+00 -0.000000000000000000e+00 0.000000000000000000e+00 0.000000000000000000e+00 -0.000000000000000000e+00 0.000000000000000000e+00 -0.000000000000000000e+00 0.000000000000000000e+00 0.000000000000000000e+00 -0.000000000000000000e+00 0.000000000000000000e+00 0.000000000000000000e+00 0.000000000000000000e+00 0.000000000000000000e+00 -0.000000000000000000e+00 0.000000000000000000e+00 -0.000000000000000000e+00 -0.000000000000000000e+00 -0.000000000000000000e+00 0.000000000000000000e+00 0.000000000000000000e+00 0.000000000000000000e+00 -0.000000000000000000e+00 0.000000000000000000e+00 0.000000000000000000e+00 0.000000000000000000e+00 -0.000000000000000000e+00 -0.000000000000000000e+00 0.000000000000000000e+00 0.000000000000000000e+00 -0.000000000000000000e+00 0.000000000000000000e+00 -0.000000000000000000e+00 0.000000000000000000e+00 -0.000000000000000000e+00 0.000000000000000000e+00 -0.000000000000000000e+00 -0.000000000000000000e+00 0.000000000000000000e+00 0.000000000000000000e+00 -0.000000000000000000e+00 -0.000000000000000000e+00 -0.000000000000000000e+00 0.000000000000000000e+00 0.000000000000000000e+00 0.000000000000000000e+00 0.000000000000000000e+00 -0.000000000000000000e+00 -0.000000000000000000e+00 -0.000000000000000000e+00 -0.000000000000000000e+00 -0.000000000000000000e+00 0.000000000000000000e+00 0.000000000000000000e+00 0.000000000000000000e+00 -0.000000000000000000e+00 9.824453853070735931e-03 9.045078419148921967e-03 1.002399064600467682e-02 8.994855917990207672e-03 8.092571981251239777e-03 9.015317074954509735e-03 9.729525074362754822e-03 1.075216382741928101e-02 8.720515295863151550e-03 7.203390821814537048e-03 8.617975749075412750e-03 -9.375686757266521454e-03 9.038593620061874390e-03 9.749832563102245331e-03 9.776935912668704987e-03 1.021376438438892365e-02 9.816218167543411255e-03 8.476532064378261566e-03 9.064561687409877777e-03 9.373352862894535065e-03 9.819210506975650787e-03 8.862951770424842834e-03 -8.859788067638874054e-03 1.032474916428327560e-02 1.057564839720726013e-02 9.216644801199436188e-03 9.663034230470657349e-03 8.731327950954437256e-03 9.431032463908195496e-03 -1.009256578981876373e-02 9.629842825233936310e-03 7.234257645905017853e-03 1.107625849545001984e-02 9.237342514097690582e-03 1.027504168450832367e-02 8.797508664429187775e-03 1.020351983606815338e-02 9.160962887108325958e-03 9.672408923506736755e-03 9.069632738828659058e-03 9.869265370070934296e-03 9.587666951119899750e-03 -9.064836427569389343e-03 8.927889168262481689e-03 9.238963946700096130e-03 1.051809545606374741e-02 8.577129803597927094e-03 1.023363322019577026e-02 -9.026239626109600067e-03 9.690739214420318604e-03 7.732430938631296158e-03 8.729927241802215576e-03 9.764043614268302917e-03 9.488587267696857452e-03 9.789819829165935516e-03 1.035724487155675888e-02 7.572544738650321960e-03 8.682999759912490845e-03 9.074991568922996521e-03 8.727808482944965363e-03 8.888857439160346985e-03 9.053635410964488983e-03 9.754973463714122772e-03 9.553794749081134796e-03
0.000000000000000000e+00 -0.000000000000000000e+00 -0.000000000000000000e+00 0.000000000000000000e+00 0.000000000000000000e+00 0.000000000000000000e+00 0.000000000000000000e+00 0.000000000000000000e+00 -0.000000000000000000e+00 -0.000000000000000000e+00 -0.000000000000000000e+00 -0.000000000000000000e+00 0.000000000000000000e+00 -0.000000000000000000e+00 0.000000000000000000e+00 -0.000000000000000000e+00 -0.000000000000000000e+00 -0.000000000000000000e+00 0.000000000000000000e+00 -0.000000000000000000e+00 0.000000000000000000e+00 0.000000000000000000e+00 0.000000000000000000e+00 -0.000000000000000000e+00 0.000000000000000000e+00 0.000000000000000000e+00 -0.000000000000000000e+00 0.000000000000000000e+00 0.000000000000000000e+00 0.000000000000000000e+00 -0.000000000000000000e+00 0.000000000000000000e+00 0.000000000000000000e+00 -0.000000000000000000e+00 -0.000000000000000000e+00 -0.000000000000000000e+00 -0.000000000000000000e+00 -0.000000000000000000e+00 -0.000000000000000000e+00 0.000000000000000000e+00 -0.000000000000000000e+00 0.000000000000000000e+00 0.000000000000000000e+00 0.000000000000000000e+00 0.000000000000000000e+00 -0.000000000000000000e+00 0.000000000000000000e+00 0.000000000000000000e+00 -0.000000000000000000e+00 0.000000000000000000e+00 0.000000000000000000e+00 0.000000000000000000e+00 0.000000000000000000e+00 0.000000000000000000e+00 -0.000000000000000000e+00 0.000000000000000000e+00 -0.000000000000000000e+00 -0.000000000000000000e+00 0.000000000000000000e+00 -0.000000000000000000e+00 0.000000000000000000e+00 0.000000000000000000e+00 -0.000000000000000000e+00 0.000000000000000000e+00 9.835991077125072479e-03 9.090271778404712677e-03 1.004855148494243622e-02 9.001465514302253723e-03 8.132149465382099152e-03 9.040639735758304596e-03 9.714642539620399475e-03 1.074112020432949066e-02 8.733800612390041351e-03 7.139193359762430191e-03 8.620036765933036804e-03 -9.441123344004154205e-03 9.065205231308937073e-03 9.758636355400085449e-03 9.759891778230667114e-03 1.018963567912578583e-02 9.830977767705917358e-03 8.305069990456104279e-03 9.069064632058143616e-03 9.390784427523612976e-03 9.810580871999263763e-03 8.870021440088748932e-03 -9.007965214550495148e-03 1.031123381108045578e-02 1.057678274810314178e-02 9.239538572728633881e-03 9.646718390285968781e-03 8.759732358157634735e-03 9.419121779501438141e-03 -1.017655618488788605e-02 9.631118737161159515e-03 7.271276786923408508e-03 1.098822895437479019e-02 9.255014359951019287e-03 1.025127340108156204e-02 8.791417814791202545e-03 1.022129692137241364e-02 9.189874865114688873e-03 9.617452509701251984e-03 9.092730470001697540e-03 9.814460761845111847e-03 9.615369141101837158e-03 -9.127982892096042633e-03 8.962176740169525146e-03 9.207672439515590668e-03 1.050663646310567856e-02 8.594219572842121124e-03 1.025472488254308701e-02 -9.176465682685375214e-03 9.702019393444061279e-03 7.776268292218446732e-03 8.704656735062599182e-03 9.772876277565956116e-03 9.514344856142997742e-03 9.817714802920818329e-03 1.020884979516267776e-02 7.621555123478174210e-03 8.715232834219932556e-03 9.086870588362216949e-03 8.754737675189971924e-03 8.913637138903141022e-03 9.050943888723850250e-03 9.780987165868282318e-03 9.498246945440769196e-03
0.000000000000000000e+00 0.000000000000000000e+00 -0.000000000000000000e+00 -0.000000000000000000e+00 0.000000000000000000e+00 0.000000000000000000e+00 -0.000000000000000000e+00 0.000000000000000000e+00 0.000000000000000000e+00 -0.000000000000000000e+00 -0.000000000000000000e+00 -0.000000000000000000e+00 0.000000000000000000e+00 0.000000000000000000e+00 0.000000000000000000e+00 0.000000000000000000e+00 0.000000000000000000e+00 0.000000000000000000e+00 0.000000000000000000e+00 0.000000000000000000e+00 0.000000000000000000e+00 -0.000000000000000000e+00 -0.000000000000000000e+00 0.000000000000000000e+00 -0.000000000000000000e+00 -0.000000000000000000e+00 0.000000000000000000e+00 0.000000000000000000e+00 -0.000000000000000000e+00 0.000000000000000000e+00 0.000000000000000000e+00 -0.000000000000000000e+00 -0.000000000000000000e+00 -0.000000000000000000e+00 0.000000000000000000e+00 -0.000000000000000000e+00 -0.000000000000000000e+00 0.000000000000000000e+00 0.000000000000000000e+00 0.000000000000000000e+00 -0.000000000000000000e+00 0.000000000000000000e+00 -0.000000000000000000e+00 0.000000000000000000e+00 -0.000000000000000000e+00 -0.000000000000000000e+00 -0.000000000000000000e+00 -0.000000000000000000e+00 0.000000000000000000e+00 0.000000000000000000e+00 0.000000000000000000e+00 -0.000000000000000000e+00 0.000000000000000000e+00 0.000000000000000000e+00 0.000000000000000000e+00 0.000000000000000000e+00 0.000000000000000000e+00 0.000000000000000000e+00 -0.000000000000000000e+00 0.000000000000000000e+00 -0.000000000000000000e+00 -0.000000000000000000e+00 0.000000000000000000e+00 0.000000000000000000e+00 1.052587758749723434e-02 9.571120142936706543e-03 1.074619125574827194e-02 9.730028919875621796e-03 8.921965956687927246e-03 9.744065813720226288e-03 1.060544420033693314e-02 1.148955803364515305e-02 9.469492360949516296e-03 7.087814621627330780e-03 9.061614051461219788e-03 -9.384660050272941589e-03 9.795772843062877655e-03 9.786366485059261322e-03 1.057748403400182724e-02 1.073320396244525909e-02 1.073075272142887115e-02 8.269456215202808380e-03 9.836444631218910217e-03 9.899443946778774261e-03 1.060595642775297165e-02 9.469803422689437866e-03 -9.071862325072288513e-03 1.130905468016862869e-02 1.065598055720329285e-02 9.812014177441596985e-03 1.018501538783311844e-02 9.461321868002414703e-03 1.026347558945417404e-02 -1.020097080618143082e-02 1.040034089237451553e-02 8.106184192001819611e-03 1.183463726192712784e-02 9.849217720329761505e-03 1.096989586949348450e-02 9.594846516847610474e-03 1.097288262099027634e-02 1.006564032286405563e-02 1.029841136187314987e-02 9.472790174186229706e-03 1.072905957698822021e-02 1.029737666249275208e-02 -9.150442667305469513e-03 9.902088902890682220e-03 9.647374972701072693e-03 1.083696540445089340e-02 9.537475183606147766e-03 1.076041534543037415e-02 -9.309212677180767059e-03 9.673870168626308441e-03 8.628701791167259216e-03 9.025948122143745422e-03 1.052245963364839554e-02 1.000111550092697144e-02 1.070274598896503448e-02 1.087881717830896378e-02 8.405491709709167480e-03 9.547436609864234924e-03 9.585543535649776459e-03 9.476762264966964722e-03 9.707942605018615723e-03 9.655119851231575012e-03 1.053976733237504959e-02 9.745735675096511841e-03
0.000000000000000000e+00 0.000000000000000000e+00 0.000000000000000000e+00 -0.000000000000000000e+00 0.000000000000000000e+00 0.000000000000000000e+00 -0.000000000000000000e+00 0.000000000000000000e+00 -0.000000000000000000e+00 -0.000000000000000000e+00 -0.000000000000000000e+00 0.000000000000000000e+00 -0.000000000000000000e+00 -0.000000000000000000e+00 -0.000000000000000000e+00 -0.000000000000000000e+00 0.000000000000000000e+00 0.000000000000000000e+00 0.000000000000000000e+00 -0.000000000000000000e+00 -0.000000000000000000e+00 -0.000000000000000000e+00 -0.000000000000000000e+00 0.000000000000000000e+00 -0.000000000000000000e+00 0.000000000000000000e+00 -0.000000000000000000e+00 0.000000000000000000e+00 -0.000000000000000000e+00 0.000000000000000000e+00 0.000000000000000000e+00 0.000000000000000000e+00 -0.000000000000000000e+00 -0.000000000000000000e+00 0.000000000000000000e+00 -0.000000000000000000e+00 -0.000000000000000000e+00 -0.000000000000000000e+00 0.000000000000000000e+00 -0.000000000000000000e+00 0.000000000000000000e+00 -0.000000000000000000e+00 0.000000000000000000e+00 0.000000000000000000e+00 0.000000000000000000e+00 0.000000000000000000e+00 0.000000000000000000e+00 0.000000000000000000e+00 0.000000000000000000e+00 0.000000000000000000e+00 -0.000000000000000000e+00 0.000000000000000000e+00 -0.000000000000000000e+00 0.000000000000000000e+00 0.000000000000000000e+00 0.000000000000000000e+00 0.000000000000000000e+00 0.000000000000000000e+00 -0.000000000000000000e+00 0.000000000000000000e+00 0.000000000000000000e+00 0.000000000000000000e+00 -0.000000000000000000e+00 -0.000000000000000000e+00 -2.205973025411367416e-03 1.366366632282733917e-03 1.864013494923710823e-03 -2.341294166399165988e-04 -1.740959240123629570e-03 9.838573168963193893e-04 6.419450510293245316e-04 1.214093295857310295e-03 2.337471523787826300e-04 -7.320395670831203461e-03 4.084527492523193359e-03 -8.817675523459911346e-03 -1.049999147653579712e-03 8.459269069135189056e-03 8.804724784567952156e-04 2.570911776274442673e-03 6.967133376747369766e-04 6.709547247737646103e-03 1.764512271620333195e-03 -9.270756854675710201e-04 3.152733552269637585e-05 -4.810923419427126646e-04 -7.477708160877227783e-03 1.495794393122196198e-03 9.086250327527523041e-03 1.385460724122822285e-03 4.465155303478240967e-03 -9.860148420557379723e-04 6.955817225389182568e-04 -9.531134739518165588e-03 4.725084581878036261e-04 -1.155082485638558865e-03 2.734279725700616837e-03 3.025531303137540817e-03 8.832390303723514080e-04 7.132682367227971554e-04 4.367228539194911718e-04 8.523815631633624434e-05 1.248770277015864849e-03 -6.031254888512194157e-04 1.695516519248485565e-03 -2.340216888114809990e-03 -7.053890265524387360e-03 3.037925343960523605e-04 4.518419038504362106e-03 5.816705990582704544e-03 -4.041871870867908001e-04 -3.262957092374563217e-03 -6.898690015077590942e-03 8.309820666909217834e-03 -1.162632601335644722e-03 4.237453453242778778e-03 -7.496539619751274586e-04 4.332124721258878708e-03 8.034649072214961052e-04 2.588917268440127373e-03 -1.882484881207346916e-03 -1.118410218623466790e-04 3.609109669923782349e-03 9.905399056151509285e-04 -1.059019006788730621e-03 2.078874036669731140e-03 6.798403919674456120e-04 6.713422946631908417e-03
0.000000000000000000e+00 0.000000000000000000e+00 0.000000000000000000e+00 -0.000000000000000000e+00 -0.000000000000000000e+00 0.000000000000000000e+00 -0.000000000000000000e+00 0.000000000000000000e+00 0.000000000000000000e+00 -0.000000000000000000e+00 -0.000000000000000000e+00 -0.000000000000000000e+00 0.000000000000000000e+00 0.000000000000000000e+00 0.000000000000000000e+00 0.000000000000000000e+00 0.000000000000000000e+00 0.000000000000000000e+00 -0.000000000000000000e+00 0.000000000000000000e+00 -0.000000000000000000e+00 -0.000000000000000000e+00 0.000000000000000000e+00 0.000000000000000000e+00 0.000000000000000000e+00 0.000000000000000000e+00 -0.000000000000000000e+00 0.000000000000000000e+00 0.000000000000000000e+00 0.000000000000000000e+00 -0.000000000000000000e+00 0.000000000000000000e+00 0.000000000000000000e+00 0.000000000000000000e+00 -0.000000000000000000e+00 -0.000000000000000000e+00 -0.000000000000000000e+00 -0.000000000000000000e+00 0.000000000000000000e+00 0.000000000000000000e+00 0.000000000000000000e+00 0.000000000000000000e+00 0.000000000000000000e+00 0.000000000000000000e+00 0.000000000000000000e+00 0.000000000000000000e+00 0.000000000000000000e+00 -0.000000000000000000e+00 0.000000000000000000e+00 -0.000000000000000000e+00 0.000000000000000000e+00 -0.000000000000000000e+00 0.000000000000000000e+00 0.000000000000000000e+00 -0.000000000000000000e+00 -0.000000000000000000e+00 -0.000000000000000000e+00 -0.000000000000000000e+00 -0.000000000000000000e+00 -0.000000000000000000e+00 -0.000000000000000000e+00 -0.000000000000000000e+00 0.000000000000000000e+00 -0.000000000000000000e+00 -2.209608210250735283e-03 -2.145425649359822273e-03 -1.172585645690560341e-03 -1.910354825668036938e-03 -3.181044012308120728e-03 -3.330498235300183296e-03 -1.000213436782360077e-03 -2.148377709090709686e-03 -3.285636426880955696e-03 -2.745094243437051773e-03 -3.017232520505785942e-03 -5.111504811793565750e-03 -3.077410859987139702e-03 -4.084650427103042603e-03 -1.653287326917052269e-03 -1.877487753517925739e-03 -1.521880505606532097e-03 5.209428258240222931e-03 -3.072665538638830185e-03 -2.892232500016689301e-03 -2.741832518950104713e-03 -1.934901345521211624e-03 -7.188678719103336334e-03 -1.292143715545535088e-03 -3.193935379385948181e-03 -3.145010909065604210e-03 1.212870352901518345e-03 -4.198009613901376724e-03 -2.367851557210087776e-03 -6.770718842744827271e-03 -1.948698540218174458e-03 -3.049257444217801094e-03 3.480228770058602095e-04 -2.871180884540081024e-03 -2.626731060445308685e-03 -1.471178256906569004e-03 -1.886740676127374172e-03 -2.431703731417655945e-03 -1.558010117150843143e-03 -2.681619254872202873e-03 -2.623260079417377710e-04 -2.558013191446661949e-03 -6.525778677314519882e-03 -2.415953436866402626e-03 1.037469715811312199e-03 -2.291767857968807220e-03 -2.297113416716456413e-03 -3.745126770809292793e-03 -5.489264614880084991e-03 -3.564136568456888199e-03 -3.128175390884280205e-03 1.397272571921348572e-04 -2.077083103358745575e-03 -3.476131241768598557e-03 -1.624696189537644386e-03 -5.164328031241893768e-04 -3.707108320668339729e-03 -2.862477675080299377e-03 -3.199503291398286819e-03 -1.728382660076022148e-03 -2.643470885232090950e-03 -8.061997941695153713e-04 -1.771105220541357994e-03 2.385678235441446304e-03
