-3.043822835024911910e-05
-3.399520937819033861e-05
-2.354976277274545282e-05
-2.089567897201050073e-05
-7.883566286182031035e-05
-4.274833554518409073e-05
-8.137505210470408201e-05
-3.810095586231909692e-05
-1.698849337117280811e-05
-3.083034534938633442e-04
-6.705215491820126772e-05
-6.395443779183551669e-05
-3.088450102950446308e-05
-3.860913056996650994e-05
-2.084170591842848808e-05
-8.101979619823396206e-05
1.477576370234601200e-05
-1.498090750828851014e-05
-1.504327337897848338e-05
-2.535096245992463082e-05
-1.032383443089202046e-04
-4.671695569413714111e-05
-1.565352795296348631e-05
-2.802038761728908867e-05
9.769443749974016100e-06
-1.267990592168644071e-04
3.136657687718980014e-05
-8.280242582259234041e-06
-1.914859785756561905e-05
-1.620786315470468253e-05
-1.501985098002478480e-04
-2.662135921127628535e-05
-1.807041735446546227e-05
-2.914600736403372139e-05
-1.000599127110035624e-06
-1.649191690376028419e-04
-2.715413529585930519e-06
-2.804048563120886683e-05
-2.741675962170120329e-05
-2.635537202877458185e-05
-1.856870367191731930e-04
-2.653760589055309538e-07
-1.942706694535445422e-05
-1.575843452883418649e-05
-2.192409374401904643e-05
-1.975551422219723463e-04
-2.685859544726554304e-05
-2.305769157828763127e-05
-2.539750676078256220e-05
-2.901898369600530714e-05
-2.209621743531897664e-04
-8.165914914570748806e-05
-2.148198109352961183e-05
-2.574176141934003681e-05
-7.336033013416454196e-05
-2.439834497636184096e-04
-1.499578320363070816e-05
-1.623194293642882258e-05
-2.174393921450246125e-05
-3.698976361192762852e-04
-2.595277328509837389e-04
-2.127507286786567420e-05
-2.121338911820203066e-05
-2.626024615892674774e-05
-1.352563322143396363e-05
-2.784522657748311758e-04
-4.237285611452534795e-05
-3.145754817523993552e-06
-2.249792487418744713e-05
-2.584594767540693283e-05
-2.935358497779816389e-04
-3.764709617826156318e-05
-1.700550819805357605e-05
-2.146052611351478845e-05
6.174210284370929003e-06
-3.102242480963468552e-04
9.083954864763654768e-06
9.077083632291760296e-06
-1.397076357534388080e-05
1.095101288228761405e-05
-3.374595253262668848e-04
-3.940619080822216347e-06
-2.645555241542751901e-06
-1.417057956132339314e-05
1.363829778711078689e-05
-3.567555104382336140e-04
6.458336883952142671e-06
-1.774340853444300592e-05
-1.089523379960155580e-06
-1.009763082038261928e-06
-3.609711129684001207e-04
5.401041107688797638e-06
-5.393593710323330015e-06
-7.647426173207350075e-06
-4.045129117002943531e-06
-3.797817334998399019e-04
-1.400885594193823636e-05
3.586745606298791245e-06
4.055439148942241445e-07
-5.813763436890440062e-06
-3.975044819526374340e-04
-2.565344630056642927e-06
7.130940957722486928e-07
-5.138170763530069962e-06
7.768058480905892793e-07
-4.055414756294339895e-04
1.189238560073135886e-06
-9.138892664850573055e-07
-1.248976423084968701e-05
7.073846859384502750e-07
-4.200232797302305698e-04
-8.548632649763021618e-06
-1.822540980356279761e-06
8.104599373837118037e-07
-1.760057784849777818e-06
-4.333740798756480217e-04
7.246605491673108190e-06
6.494347871921490878e-06
-6.840635364824265707e-07
2.464176077410229482e-06
-4.494318854995071888e-04
9.420466085430234671e-06
3.515095158945769072e-06
1.148246724369528238e-06
-1.040593178913695738e-05
-4.584543057717382908e-04
-5.071974555903580040e-06
-2.114542496656213189e-07
1.100719600799493492e-05
-1.316367706749588251e-05
-4.797264991793781519e-04
5.245313786872429773e-06
-6.871981895528733730e-06
-5.301628789311507717e-06
4.820724939236242790e-07
-4.980653757229447365e-04
9.773953934200108051e-06
-8.950673304752854165e-07
1.371991970700037200e-06
8.859474820432922115e-10
-5.121551803313195705e-04
-3.655695081761223264e-06
-4.719473508885130286e-06
-3.804309471888700500e-07
1.149249237641924992e-05
-5.252653500065207481e-04
3.254420789744472131e-06
1.532387159386416897e-06
2.476674353601993062e-06
-6.485252470156410709e-06
1.003011948341736570e-05
-2.250748730148188770e-05
1.630162114452105016e-05
3.738809255082742311e-06
2.859723508663591929e-06
-5.431320914794923738e-06
5.389468242356088012e-06
5.026063263358082622e-07
-2.632263749546837062e-05
-1.035507921187672764e-05
-4.053690190630732104e-06
9.643118573876563460e-06
4.924691893393173814e-06
1.510649326519342139e-06
-2.984334969369228929e-05
4.007453298981999978e-06
8.884090675564948469e-06
-8.224062185036018491e-06
-6.340349955280544236e-06
-3.056547029700595886e-06
-1.062347837432753295e-05
2.751042848103679717e-05
-4.837222149944864213e-05
-2.715818027354544029e-06
-4.677747256209840998e-07
-3.050754457945004106e-07
2.619941005832515657e-05
-6.228441634448245168e-05
-8.044022479225532152e-07
1.356164489152433816e-06
-2.793571809434070019e-07
-1.292700471822172403e-05
8.646818059787619859e-06
-2.762121584964916110e-05
-1.289204988097480964e-06
3.915686477284907596e-07
4.117402113479329273e-06
-5.381531536841066554e-06
3.469213424978079274e-06
-2.905460678448434919e-05
7.375559562206035480e-06
-4.693477876571705565e-06
-1.500534835940925404e-06
-4.308842562750214711e-06
6.172872872411971912e-06
1.295940019190311432e-04
-5.490013427333906293e-05
-1.073580933734774590e-04
7.707037070758815389e-07
1.232931572303641587e-05
-2.112469132953265216e-07
-1.297930793953128159e-05
7.537165402027312666e-06
-1.180366962216794491e-05
4.029981482744915411e-06
5.088769583494467952e-08
-2.045548853857326321e-06
2.580991804279619828e-06
-1.791344402590766549e-05
-8.682771294843405485e-06
-1.025398796627996489e-05
-1.670278106757905334e-05
2.124006414305767976e-06
1.186324698210228235e-05
-1.696451181487645954e-05
4.265371444489574060e-06
-7.182539775385521352e-06
8.067394446698017418e-06
-1.667010451456008013e-06
7.599686341563938186e-06
-4.008054384030401707e-05
5.092688297736458480e-06
-1.460698399569082540e-06
5.615971986117074266e-06
-3.747417622435023077e-06
-5.757000508310738951e-06
-5.037523806095123291e-05
1.402694215357769281e-05
-1.168580183730227873e-05
-1.395470690113143064e-06
1.200797214551130310e-06
6.295261300692800432e-06
-2.868255705834599212e-06
-3.786171510000713170e-05
1.868299250418203883e-06
5.173154931981116533e-06
1.176654131995746866e-05
-6.056036909285467118e-06
-5.639826213155174628e-06
-4.656928285839967430e-05
-2.979973260153201409e-06
6.102160568843828514e-06
1.045056433213176206e-05
-1.923711124618421309e-06
7.914794878161046654e-06
-9.880091056402307004e-06
8.432412869296967983e-06
2.348943326069274917e-06
7.858585377107374370e-06
3.612314912970759906e-06
-6.737074272678000852e-06
8.000376510608475655e-06
-1.766327841323800385e-05
9.640651114750653505e-06
-5.386423254094552249e-06
-8.976802746474277228e-06
4.340922714618500322e-07
5.651747869706014171e-06
-2.313171353307552636e-05
4.761338004755089059e-06
-4.531293143372749910e-06
2.498604317224817351e-06
1.306851913795981091e-06
5.227548626862699166e-06
-1.940217953233513981e-05
-1.349028298136545345e-05
2.510986178094753996e-06
6.517637984870816581e-07
6.562274847965454683e-06
-1.775423697836231440e-05
-9.027726264321245253e-06
-4.161309334449470043e-06
-7.356526566582033411e-06
1.766491322996444069e-06
-6.186640348460059613e-06
-8.534002517990302294e-06
-4.234483276377432048e-05
6.569028755620820448e-06
1.196637094835750759e-05
-8.163101483660284430e-07
7.312532943615224212e-06
8.731228263059165329e-06
-2.685187837414559908e-06
-1.276617240364430472e-05
5.839076493430184200e-06
-8.994562449515797198e-06
-7.245141205203253776e-06
8.862666618369985372e-06
-7.235017164930468425e-06
-3.072581603191792965e-05
-5.424173650681041181e-06
-5.831250746268779039e-06
1.241647851202287711e-06
8.877377695171162486e-06
-7.049506166367791593e-06
-2.431305438221897930e-05
-1.090674777515232563e-05
6.763960300304461271e-06
1.621106946458894527e-07
-4.980450739822117612e-06
-6.527593086502747610e-06
-2.485736149537842721e-05
3.279044221926596947e-06
4.324955170886823907e-06
9.658936505729798228e-06
-1.055726988852256909e-05
-3.213031504856189713e-06
-7.703114874857419636e-07
-1.173014879896072671e-05
7.409557838400360197e-06
-5.127930307935457677e-06
-4.565630661090835929e-06
-4.125295163248665631e-06
6.392220257112057880e-06
-1.991917997656855732e-05
-8.323111615027301013e-06
7.241900448207161389e-07
-1.694691854936536402e-05
-1.157213546321145259e-06
-1.714670179353561252e-05
4.901542524748947471e-06
1.172064798993233126e-06
5.456430244521470740e-06
6.785130608477629721e-06
1.620474358787760139e-05
1.117061128752538934e-05
-4.798622831003740430e-05
1.005216563498834148e-05
1.177156718767946586e-05
4.351044026407180354e-06
4.331285708758514374e-06
5.061403385298035573e-07
-6.265526280913036317e-06
-1.885167876025661826e-05
4.141365650411898969e-07
1.340182279818691313e-05
-1.460271619180275593e-06
-1.629917096579447389e-05
-5.244094609224703163e-06
-1.234773662872612476e-05
4.154933321842690930e-06
1.045193312165793031e-05
3.453958925092592835e-06
5.815846179757500067e-06
9.091350875678472221e-06
-2.841039349732454866e-05
-9.703022669782512821e-07
8.060650884544884320e-07
-2.129771701220306568e-07
1.100034387491177768e-05
2.143359125739152660e-07
-4.216777597321197391e-05
3.338415126563631929e-06
1.371645794279174879e-05
1.806570480766822584e-06
-1.054971107805613428e-05
-8.819873755783191882e-07
3.069447529924218543e-06
-2.074733492918312550e-05
1.610083018022123724e-06
-1.170027098851278424e-05
-8.786109901848249137e-06
-1.931776523633743636e-06
7.201175321824848652e-06
-2.261230292788241059e-05
-9.513809686723107006e-07
-7.283252671186346561e-06
1.784623918865690939e-06
3.033724851775332354e-06
1.041937480295018759e-06
-2.767061414488125592e-05
-3.358563390065683052e-06
-2.858980906239594333e-06
-9.685976465334533714e-07
7.937715054140426219e-07
5.494023298524552956e-06
-2.597605453047435731e-05
-1.242500820808345452e-05
-2.657783625181764364e-06
1.545949999126605690e-05
8.645745765534229577e-06
-1.786880034160276409e-06
3.737034603545907885e-06
-2.051385126833338290e-05
-1.695455353001307230e-06
5.007439995097229257e-06
5.891531600354937837e-06
2.717532879614736885e-06
-1.014532426779624075e-05
-1.723896821204107255e-05
-1.356516895612003282e-05
-2.463154942233813927e-06
-3.906793153873877600e-06
9.151684139396820683e-07
1.232373733728309162e-06
-2.804681389534380287e-05
-4.953223196935141459e-06
-2.885019966925028712e-06
1.295309516535780858e-06
9.018289347295649350e-06
4.457847353478427976e-06
1.967711068573407829e-05
-5.075290755485184491e-05
-5.333766239346005023e-06
-2.010640400840202346e-06
-9.602727004676125944e-06
1.194049855257617310e-05
8.737789357837755233e-06
-2.934138501586858183e-05
-9.193770893034525216e-06
-1.237541482623782940e-06
1.206756678584497422e-06
7.305575309146661311e-06
-3.207684130757115781e-06
-2.192349529650527984e-05
9.620019227440934628e-06
-1.591088448549271561e-06
4.600527063303161412e-06
-2.423699015707825311e-06
-7.389118650280579459e-07
-3.714423655765131116e-05
7.736879342701286077e-05
-8.585969771957024932e-05
-1.569306914461776614e-05
2.370537686147144996e-06
-5.363962827686918899e-06
-2.657138429640326649e-05
-1.587862357155245263e-06
1.278574836760526523e-05
-3.250615009164903313e-06
7.382096100627677515e-06
6.277884040173375979e-06
-3.860581273329444230e-06
-2.013725315919145942e-05
-1.430954625902813859e-06
5.205679372011218220e-06
-8.046245056902989745e-06
4.796521935190867225e-08
1.253905611520167440e-05
-1.030440398608334363e-05
4.580545009957859293e-07
-3.214351636415813118e-06
-3.161114364047534764e-06
-1.785894255590392277e-06
5.387523742683697492e-06
1.511678274255245924e-04
-3.397701448193402030e-06
-1.721934822853654623e-04
-5.147942943040106911e-07
-4.638368409359827638e-06
-3.361049039085628465e-06
-1.688977863523177803e-05
6.320662123471265659e-06
8.235892892116680741e-06
1.023003369482466951e-05
-3.087678578594932333e-06
-7.645146524737356231e-07
3.253934011127057602e-08
-2.351594775973353535e-05
7.329064828809350729e-06
-1.228882297255040612e-06
1.718979319775826298e-06
-6.053765446267789230e-06
-7.867872227507177740e-06
-1.903843985928688198e-05
-3.351138502694084309e-06
-3.015576794496155344e-06
-9.367275197291746736e-06
3.015204129042103887e-06
-1.082873404811834916e-05
-2.419818883936386555e-05
1.448935654480010271e-05
-9.691247214504983276e-06
-4.510486178332939744e-06
-7.327456842176616192e-06
-1.441996346329688095e-06
-5.095969299873104319e-06
-8.945580702857114375e-06
-3.658956984509131871e-06
1.252305651178176049e-06
-3.745152071132906713e-06
1.902199073811061680e-06
4.583754162013065070e-06
-3.911139720003120601e-05
2.875013933589798398e-06
-6.641323125222697854e-06
2.914935350872838171e-07
-1.485088660047040321e-06
5.763616172771435231e-06
-2.181714990001637489e-05
-7.800535968272015452e-06
5.839927325723692775e-06
-3.469283228696440347e-06
-1.654103107284754515e-05
1.036136382026597857e-06
-1.789133057172875851e-05
-1.093764058168744668e-05
1.490944487159140408e-05
6.028159077686723322e-06
9.831287570705171674e-06
-3.825551857516984455e-07
-1.388692908221855760e-05
-9.503166438662447035e-06
-2.141078766726423055e-06
6.265769570745760575e-06
-1.031737429002532735e-05
9.176943649435997941e-07
2.895472334785154089e-06
-3.574535730876959860e-05
1.727269022921973374e-06
4.691054073191480711e-06
-8.852087375998962671e-06
-1.069454538082936779e-05
-3.004556901942123659e-06
-1.418033298250520602e-05
4.070294835401000455e-06
-1.500191137893125415e-05
6.033932550053577870e-06
-7.073989308992167935e-06
-1.019343108055181801e-05
2.428837888146517798e-06
-6.280887191678630188e-06
5.549142770178150386e-06
1.452997025808144826e-06
-9.038295502250548452e-06
-4.080685539520345628e-05
3.847755124297691509e-06
1.593837396285380237e-06
-1.877390218396612909e-06
-1.903572524497576524e-06
-1.456448899261886254e-05
2.152787601517047733e-06
1.777105609335194458e-07
4.397871180117363110e-06
3.083227056777104735e-06
-2.115816641889978200e-05
-2.049032218565116636e-06
-3.663420784505433403e-06
-6.883430160087300465e-06
-1.938865494821584434e-07
-2.798610330501105636e-05
6.614955509576248005e-06
3.142386958643328398e-06
1.817681209104193840e-06
1.861905388977902476e-06
-3.465480403974652290e-05
2.853155592674738728e-06
-5.903720193600747734e-06
1.984208211069926620e-06
5.891511136724147946e-06
-2.533190672693308443e-05
1.472931580792646855e-05
7.608762189192930236e-06
1.669485982347396202e-06
3.940349870390491560e-06
-3.337396265123970807e-05
-2.961388645417173393e-06
9.755968903846223839e-07
2.281229399159201421e-06
1.342599830422841478e-06
-2.220680653408635408e-05
-6.255931452869845089e-07
-1.507920728727185633e-06
-1.497076573286904022e-05
4.309039013605797663e-06
-2.241636138933245093e-05
1.719775536912493408e-05
-3.451075372140621766e-06
-2.810649675666354597e-06
-6.801717518101213500e-06
-1.503532803326379508e-05
-6.174318968987790868e-06
-3.378600467840442434e-06
2.637804072946892120e-06
4.021925633423961699e-06
-9.696278539195191115e-06
1.492300953032099642e-06
1.154810092884872574e-06
3.849466793326428160e-06
-7.166797331592533737e-06
-3.945436037611216307e-05
1.187050202133832499e-05
-3.728352567122783512e-06
-8.876027095539029688e-06
-1.115606210078112781e-05
-1.763457657943945378e-05
-1.466866251575993374e-05
-1.213649511555559002e-06
-2.000716449401807040e-06
1.814511392694839742e-06
-2.455665708112064749e-05
1.098323809856083244e-05
-7.359303140219708439e-07
1.265633181901648641e-05
1.590388365002581850e-06
-3.227115666959434748e-05
-6.267528533498989418e-06
1.036677440424682572e-05
1.117346710088895634e-05
1.000726570055121556e-05
8.931273623602464795e-05
8.886203204383491538e-07
-9.938594303093850613e-05
8.327377872774377465e-05
3.477762220427393913e-05
7.095061846484895796e-06
-7.373694825218990445e-05
3.521327744238078594e-05
-5.043661076342687011e-05
-4.168818486505188048e-05
-4.408970926306210458e-05
-4.486655882374179782e-07
5.669501479133032262e-05
1.023672552946663927e-06
-7.632369488419499248e-06
-1.487653298681834713e-05
-6.860000212327577174e-06
4.339744555181823671e-05
8.880665518518071622e-06
-3.724177440744824708e-05
7.741680747130885720e-05
-1.757665086188353598e-05
-3.016338723682565615e-06
6.186087830428732559e-06
3.198452759534120560e-05
1.791497379599604756e-05
-2.943252002296503633e-05
2.155708898499142379e-05
-8.163451275322586298e-05
1.043488828145200387e-05
-6.029990618117153645e-05
2.526714888517744839e-05
-1.651474121899809688e-05
-2.851227691280655563e-05
-1.057441295415628701e-05
3.683604882098734379e-05
1.163808519777376205e-05
7.675589586142450571e-05
5.248127763479715213e-06
-1.018139591906219721e-04
8.362509834114462137e-05
3.745713001990225166e-06
-1.216278615174815059e-04
-2.000919812417123467e-05
-5.214165867073461413e-06
-2.252959347970318049e-06
-8.090129995252937078e-06
-6.019219199515646324e-06
-2.215372114733327180e-05
-7.573446055175736547e-06
6.366778507072012872e-06
-2.286902417836245149e-05
1.632713428989518434e-05
1.777028387550672051e-06
-1.281291133636841550e-05
4.430293483892455697e-05
-2.880731017285143025e-06
-1.767089815984945744e-05
9.496548591414466500e-05
-3.143658659610082395e-06
1.034481465467251837e-05
1.951071453731856309e-06
-3.927762008970603347e-05
-4.448154140845872462e-05
3.720641188920126297e-06
-4.897580083706998266e-07
-8.941174201027024537e-06
-4.040355270262807608e-05
-2.458118433423805982e-05
-2.316286554560065269e-05
8.088886715995613486e-06
-2.078221223200671375e-05
8.400135811825748533e-06
3.759968603844754398e-05
-4.247851029504090548e-05
4.605098001775331795e-05
-3.185722016496583819e-05
-1.630826591281220317e-05
-1.552196044940501451e-05
-3.967410157201811671e-05
-1.706371222098823637e-05
2.482717718521598727e-05
1.937843990162946284e-05
5.952519131824374199e-05
1.834635440900456160e-05
-2.264895556436385959e-05
3.045420953640132211e-06
-7.353640285145957023e-06
-2.149321335309650749e-05
8.972422733677376527e-07
8.616471859568264335e-06
-1.375989631924312562e-05
-8.502001946908421814e-06
-3.887823822878999636e-06
-3.425707291171420366e-06
1.384715631047583884e-07
3.221792212571017444e-05
1.369513665849808604e-05
-5.788751514046452940e-05
4.320473453844897449e-05
1.720396721793804318e-05
-6.740712706232443452e-06
-2.240674439235590398e-05
1.122235553339123726e-04
-5.199504357733530924e-06
-2.948957671833341010e-06
-6.152604782982962206e-06
3.744303512576152571e-06
2.467543345119338483e-05
1.807473017834126949e-05
-6.907044735271483660e-05
-5.036783841205760837e-05
-8.734547009225934744e-05
3.804462903644889593e-05
-4.499702481552958488e-05
1.233233615494100377e-05
2.867752482416108251e-05
5.314752343110740185e-06
4.110495137865655124e-05
-1.830093606258742511e-05
6.397602305696636904e-07
4.726808128907578066e-06
2.425128877803217620e-05
-7.027125320746563375e-06
-3.621680662035942078e-06
1.976768118083782610e-07
-1.817770316847600043e-05
-7.315083348657935858e-05
-7.352957254624925554e-06
-2.122467958542983979e-05
-4.993098264094442129e-05
1.032150030368939042e-04
-6.379063415806740522e-05
3.606226528063416481e-05
-6.537988156196661294e-06
-5.601290104095824063e-05
4.271868237992748618e-05
9.813811630010604858e-06
-4.649219408747740090e-05
3.118318272754549980e-05
-1.514884502284985501e-06
-5.937450259807519615e-05
-7.201354605967935640e-07
-7.669350452488288283e-06
2.491863051545806229e-05
-4.697757503890898079e-06
-5.349708590074442327e-05
3.206613473594188690e-05
8.870205783750861883e-05
5.706193860532948747e-06
-2.406890598649624735e-05
-7.689761332585476339e-06
3.196552643203176558e-05
-9.237447557097766548e-06
2.013566245295805857e-06
4.327625720179639757e-05
-5.257700104266405106e-05
-8.900325337890535593e-05
-1.917828012665268034e-05
4.014910518890246749e-05
1.047899149853037670e-05
2.430959284538403153e-06
1.884773519122973084e-05
-1.187509260489605367e-04
2.421647513983771205e-05
6.381807179423049092e-05
-6.546724034706130624e-05
1.879971750895492733e-05
6.384950393112376332e-05
-5.569195855059660971e-05
4.177132723270915449e-05
-3.974823266617022455e-05
8.813918611849658191e-06
2.778720045171212405e-05
-2.434143652862985618e-06
-4.018557592644356191e-05
-1.927251469169277698e-05
-1.401647659804439172e-05
-3.066937642870470881e-05
-2.346976907574571669e-05
4.564148184726946056e-05
3.005748658324591815e-05
-8.875125786289572716e-06
-3.824536906904540956e-05
2.429450614727102220e-05
-2.098911409120773897e-06
-2.976792711706366390e-05
2.570333526819013059e-05
-4.958478257321985438e-06
4.848548996960744262e-06
-4.704419188783504069e-05
4.887282557319849730e-06
4.033876848552608863e-06
-2.980385579576250166e-05
-3.226109583920333534e-06
-2.324052957192179747e-06
-2.438008414173964411e-05
-9.939343499354436062e-07
-1.394589253322919831e-05
5.232057901594089344e-06
1.604128192411735654e-05
9.676083209342323244e-06
1.339315076620550826e-07
6.294505055848276243e-06
1.012088546303857584e-06
-1.513053848611889407e-05
-1.631199484108947217e-05
-4.722243374999379739e-06
9.566572600760991918e-08
4.737099743579165079e-07
-8.330741820827824995e-07
-5.409210189100122079e-06
-7.700642527197487652e-06
-3.644544995040632784e-05
-1.218364104715874419e-05
-5.051216476203990169e-07
6.925658908585319296e-06
6.219510396476835012e-06
2.289016492795781232e-06
-4.243571765982778743e-06
-5.438076186692342162e-06
7.773431207169778645e-06
-2.549413011365686543e-06
-5.621122909360565245e-06
6.882067282276693732e-06
4.898920906271087006e-06
1.835743887568241917e-06
-4.731205081043299288e-06
5.443755071610212326e-06
5.583457095781341195e-06
-2.261914232803974301e-05
6.405939984688302502e-06
-4.341915428085485473e-06
-1.450903073418885469e-05
-8.320968845509923995e-06
1.157994029199471697e-05
5.981078629702096805e-06
3.964474217355018482e-06
-2.456736183376051486e-06
-1.959388646355364472e-05
2.096805488690733910e-03
-9.164875373244285583e-03
7.074393332004547119e-03
1.711154542863368988e-02
1.724436320364475250e-02
-7.924965582787990570e-03
-3.905513091012835503e-03
3.952594939619302750e-03
-3.741587046533823013e-03
1.671430654823780060e-02
-9.220433421432971954e-03
-9.094472043216228485e-03
-6.446403916925191879e-03
-1.088858675211668015e-02
-1.359834684990346432e-03
-1.327683124691247940e-02
-7.687751203775405884e-03
3.448748216032981873e-02
-4.959118086844682693e-03
-2.796560525894165039e-03
3.564935177564620972e-03
-6.828475743532180786e-03
-7.682711817324161530e-03
2.808293886482715607e-02
-1.166148390620946884e-02
-2.071241382509469986e-03
3.887172206304967403e-04
2.535665640607476234e-03
-3.789936192333698273e-03
-1.992145925760269165e-02
-4.469372797757387161e-03
-8.579715155065059662e-03
-1.344702579081058502e-02
2.107268664985895157e-03
-1.433687843382358551e-02
-6.005799863487482071e-03
-5.471100565046072006e-03
4.541757330298423767e-02
-8.207746781408786774e-03
-4.090556874871253967e-03
-6.270313169807195663e-03
1.829906553030014038e-02
-5.196044221520423889e-03
-6.376242730766534805e-03
-1.120252301916480064e-03
-9.952868334949016571e-03
-6.997630931437015533e-03
1.819865219295024872e-02
2.366868779063224792e-03
3.699792316183447838e-03
-6.313113961368799210e-03
-1.430762838572263718e-02
-1.855199458077549934e-03
-7.567740976810455322e-03
-1.051410753279924393e-02
-1.510058250278234482e-02
6.945753470063209534e-03
-2.183624915778636932e-02
-6.733873393386602402e-03
-5.189545452594757080e-03
1.894898829050362110e-03
-9.519496932625770569e-03
-1.449191104620695114e-02
-1.447015907615423203e-02
-3.623035969212651253e-03
5.292805144563317299e-04
-7.580009289085865021e-03
-3.624442731961607933e-03
-7.045472040772438049e-03
6.317686289548873901e-03
-1.309864921495318413e-03
-6.222616881132125854e-03
-6.874401587992906570e-03
2.042808104306459427e-03
-8.060172200202941895e-03
5.268104746937751770e-02
6.289397832006216049e-03
-6.920305080711841583e-03
-1.147988438606262207e-02
4.594048485159873962e-02
1.526072807610034943e-02
8.593264967203140259e-03
2.066395990550518036e-02
-1.741937361657619476e-03
-9.486004710197448730e-04
-1.989772729575634003e-02
-1.698103733360767365e-03
-1.245421706698834896e-03
-1.540390588343143463e-02
-8.995967917144298553e-03
-1.071783993393182755e-02
-4.445003345608711243e-03
-2.122893230989575386e-03
-1.127891521900892258e-02
-8.092927746474742889e-04
2.329084090888500214e-03
1.277301181107759476e-02
-1.420789957046508789e-02
-1.011138502508401871e-02
1.606536656618118286e-02
-1.072571054100990295e-02
-1.254647877067327499e-02
-1.069623231887817383e-02
-7.210240233689546585e-03
1.676017791032791138e-02
-1.222489401698112488e-02
7.243000436574220657e-03
-1.613216474652290344e-02
-7.588327396661043167e-03
-1.241310872137546539e-02
-1.610036939382553101e-02
-9.782101027667522430e-03
1.635763049125671387e-02
4.320034291595220566e-03
-4.392899107187986374e-03
3.131391014903783798e-03
1.116120349615812302e-02
-2.852770732715725899e-03
-1.888233423233032227e-02
8.385909721255302429e-03
-8.139477111399173737e-03
-1.123746740631759167e-03
-4.878570325672626495e-03
-5.027271341532468796e-03
-2.299478044733405113e-03
-5.120620131492614746e-03
1.715226843953132629e-02
-9.038474410772323608e-03
6.739736534655094147e-03
-5.921400617808103561e-03
1.750554703176021576e-02
3.266159817576408386e-02
1.307803206145763397e-03
1.611107587814331055e-02
-8.429553359746932983e-03
-7.379740942269563675e-03
-1.415991690009832382e-02
-1.529059023596346378e-03
-1.216353196650743484e-02
1.344662508927285671e-03
4.504099488258361816e-03
-7.272457703948020935e-03
8.857956156134605408e-03
-3.376288805156946182e-04
7.758979336358606815e-05
-5.121203605085611343e-03
6.139401812106370926e-03
-7.492568809539079666e-03
-3.164972644299268723e-03
-6.964815780520439148e-03
7.420428562909364700e-03
-6.800712551921606064e-03
-6.585007067769765854e-03
5.304659716784954071e-03
9.962696582078933716e-03
-5.676933098584413528e-03
-8.104404434561729431e-03
-9.408050216734409332e-03
7.694388274103403091e-03
-6.020075175911188126e-03
-8.666858193464577198e-04
-5.838602315634489059e-03
4.066136199980974197e-03
5.573969334363937378e-03
-3.011490451171994209e-03
2.292057126760482788e-02
-1.396125275641679764e-02
-6.919678766280412674e-03
1.404034625738859177e-02
1.254303497262299061e-03
-2.368327230215072632e-03
3.905454650521278381e-03
-1.149980630725622177e-02
1.142160780727863312e-02
-5.301873898133635521e-04
-4.191414918750524521e-04
2.775210421532392502e-03
1.007215958088636398e-02
-9.934825822710990906e-03
3.584052203223109245e-03
-1.430931501090526581e-03
-6.655143108218908310e-03
1.783648272976279259e-03
-1.398223079741001129e-02
8.259340189397335052e-03
-1.168114412575960159e-02
-3.560676472261548042e-03
-6.019804161041975021e-03
-4.223289899528026581e-03
-3.948075231164693832e-03
-1.826673001050949097e-02
-2.550810808315873146e-03
-3.833475057035684586e-03
-8.435522206127643585e-03
-3.908478654921054840e-03
3.487061243504285812e-03
-7.042190409265458584e-04
-1.907511148601770401e-03
-1.021472457796335220e-02
-9.219510480761528015e-03
5.048640538007020950e-03
-4.288375377655029297e-03
-7.248456240631639957e-04
-3.292447654530405998e-03
-7.997498032636940479e-04
5.665256176143884659e-03
-2.626160392537713051e-03
-1.175472163595259190e-03
-1.898637274280190468e-03
2.935004420578479767e-02
-2.776770852506160736e-03
-1.101198699325323105e-02
-3.256550058722496033e-03
-5.381391383707523346e-03
-2.884390996769070625e-03
8.490604348480701447e-03
-1.329516153782606125e-02
2.952739782631397247e-02
-8.718571625649929047e-03
-5.445156246423721313e-03
-9.332153946161270142e-03
1.053417287766933441e-02
5.451956531032919884e-04
4.592503886669874191e-03
4.773684963583946228e-02
-1.783201843500137329e-02
6.972562521696090698e-02
1.185655244626104832e-03
-5.846997257322072983e-03
4.328555427491664886e-03
-3.342386102303862572e-03
-1.148818526417016983e-02
-5.601367447525262833e-03
-8.323880843818187714e-03
3.601900301873683929e-03
-5.780243780463933945e-03
1.117869652807712555e-02
3.782295854762196541e-03
-5.785764195024967194e-03
7.128065079450607300e-02
-7.543961051851511002e-03
3.281577304005622864e-02
-1.344582624733448029e-02
-9.483522735536098480e-03
-4.681325517594814301e-03
1.768640009686350822e-03
-9.490747936069965363e-03
8.071768097579479218e-03
-9.969367645680904388e-03
-3.558470343705266714e-04
-1.000358443707227707e-02
2.213102765381336212e-03
1.616247370839118958e-02
-5.087319295853376389e-03
-9.073204360902309418e-03
-1.702610030770301819e-02
-4.032937809824943542e-03
-8.512455038726329803e-03
-7.981121889315545559e-04
3.140621120110154152e-03
-6.911885924637317657e-03
5.379580426961183548e-03
-1.753198169171810150e-02
-3.520686586853116751e-04
-4.721056204289197922e-03
-5.196388810873031616e-03
-1.898215734399855137e-03
-8.498592302203178406e-03
-3.306793048977851868e-03
3.021674603223800659e-02
2.088667079806327820e-02
-1.241786126047372818e-02
-9.032648988068103790e-03
-3.565687686204910278e-03
7.608012529090046883e-04
-6.949883885681629181e-03
-1.805360242724418640e-02
-2.766063669696450233e-03
5.134525708854198456e-03
-1.115531567484140396e-02
-7.333262357860803604e-03
-1.323829684406518936e-02
1.605806523002684116e-03
2.201704494655132294e-02
-9.049506857991218567e-03
1.290924847126007080e-03
3.590689972043037415e-02
-6.505833473056554794e-03
2.508112788200378418e-02
-6.100158672779798508e-03
2.811375634337309748e-05
-3.296467475593090057e-03
3.517369506880640984e-03
1.890519075095653534e-02
8.802556432783603668e-03
-1.114142872393131256e-02
-1.075449492782354355e-02
6.297968327999114990e-03
-8.441015146672725677e-03
-1.176695153117179871e-02
-7.551490329205989838e-03
-5.710927769541740417e-03
-7.943919859826564789e-03
1.544589828699827194e-02
5.562064424157142639e-02
2.782687358558177948e-02
-1.397612690925598145e-02
-4.789698403328657150e-03
2.418896649032831192e-03
-2.302649430930614471e-03
1.177611920866183937e-04
4.031522665172815323e-03
1.148410234600305557e-02
-7.535247597843408585e-03
1.156109967269003391e-03
-4.412215203046798706e-03
-4.356573801487684250e-03
-1.839472539722919464e-02
-1.281660888344049454e-02
-1.221621874719858170e-02
6.252987310290336609e-03
-2.053129300475120544e-02
5.052219144999980927e-03
-9.947185404598712921e-03
-8.149239234626293182e-03
1.967186341062188148e-03
1.923744683153927326e-03
2.549218758940696716e-02
4.465660545974969864e-03
-1.498737558722496033e-02
-7.820906466804444790e-04
-8.460761979222297668e-03
-2.031971886754035950e-02
-5.969038698822259903e-03
-7.008720654994249344e-03
-1.244575064629316330e-02
-4.750791937112808228e-03
-5.391789134591817856e-03
-4.080859012901782990e-03
-3.131606150418519974e-03
-1.320095965638756752e-03
1.429201941937208176e-02
2.193385176360607147e-02
-9.326899424195289612e-03
-1.111149322241544724e-02
-5.183751694858074188e-03
1.388848945498466492e-02
4.751753062009811401e-03
-3.750511212274432182e-03
-8.646958507597446442e-03
-1.147439517080783844e-02
-1.854947186075150967e-03
4.435936920344829559e-03
8.514805696904659271e-03
4.814668092876672745e-03
-2.217135392129421234e-02
-1.208652276545763016e-02
-1.136740762740373611e-02
-3.873337060213088989e-03
1.632864400744438171e-02
-3.858236304949969053e-04
-9.313981048762798309e-03
-1.071375329047441483e-02
-1.155312545597553253e-02
-1.286916993558406830e-02
2.593966899439692497e-03
2.170239342376589775e-03
4.637980367988348007e-03
4.582682158797979355e-04
2.520969882607460022e-02
2.370659727603197098e-03
-7.742586079984903336e-03
-7.391055114567279816e-03
-9.807750582695007324e-03
-7.353115506703034043e-05
1.786181889474391937e-02
1.585668511688709259e-02
-4.238664172589778900e-03
-1.162075623869895935e-02
-9.908265434205532074e-03
1.557027827948331833e-02
-5.420184694230556488e-03
6.165532767772674561e-02
2.667569182813167572e-02
-9.430720470845699310e-03
-7.568685337901115417e-03
2.391759917372837663e-04
-7.555380463600158691e-03
7.070067524909973145e-02
3.574073314666748047e-03
-1.247864682227373123e-02
1.188296359032392502e-02
1.384089700877666473e-02
6.718293577432632446e-02
-8.413354866206645966e-03
-1.402226276695728302e-02
1.424606703221797943e-02
4.761565849184989929e-02
7.429820019751787186e-03
-9.985140524804592133e-03
7.695870008319616318e-03
1.841081120073795319e-02
-7.636649068444967270e-03
-1.007353048771619797e-02
-2.382312202826142311e-03
1.402911148034036160e-03
1.474789693020284176e-03
2.463927678763866425e-02
-1.759093441069126129e-02
-1.037884596735239029e-02
-6.490136496722698212e-03
-7.323527242988348007e-03
-3.514242591336369514e-03
-1.392863877117633820e-02
-1.633117557503283024e-03
4.434511996805667877e-03
-6.102994084358215332e-03
-9.361908771097660065e-03
5.338122695684432983e-02
-5.378808709792792797e-04
1.263862010091543198e-02
-6.868805736303329468e-03
-4.822737071663141251e-03
-8.318891748785972595e-03
4.321936052292585373e-03
-7.935845293104648590e-03
-1.356237218715250492e-03
1.280540041625499725e-02
-8.493927307426929474e-03
-1.222562603652477264e-02
-9.929281659424304962e-03
2.274712547659873962e-03
1.775517477653920650e-03
-3.751736134290695190e-03
-1.114211790263652802e-02
-1.384851243346929550e-02
-1.199071994051337242e-03
-2.265447005629539490e-02
-7.361561059951782227e-03
-1.008671242743730545e-02
1.313982158899307251e-02
-7.573053240776062012e-03
6.384216248989105225e-03
3.433812176808714867e-03
-3.914617933332920074e-03
-1.016864832490682602e-02
-1.786868087947368622e-02
1.025686622597277164e-03
3.244756907224655151e-02
-5.419730674475431442e-03
-4.466187208890914917e-03
-1.605299301445484161e-02
9.121983312070369720e-03
8.151696063578128815e-03
-1.855242624878883362e-02
-4.800898954272270203e-03
4.815706983208656311e-02
9.641377255320549011e-03
-7.284859661012887955e-03
7.228387985378503799e-03
-5.571054294705390930e-03
-9.105017408728599548e-03
1.980398595333099365e-02
-4.771840758621692657e-03
-5.332569591701030731e-03
3.282953519374132156e-03
-5.130935460329055786e-03
-1.767772715538740158e-03
-6.225682795047760010e-03
4.901079460978507996e-03
7.039147021714597940e-05
1.730672898702323437e-03
-8.040262036956846714e-04
-9.287301800213754177e-04
-1.315501239150762558e-02
-1.414525104337371886e-05
-9.391293860971927643e-03
8.189423941075801849e-03
1.997346989810466766e-02
1.475636661052703857e-02
-1.151565089821815491e-02
-1.812791102565824986e-03
-7.951186969876289368e-03
-3.718244610354304314e-03
3.497544303536415100e-02
5.639790743589401245e-02
-1.398162450641393661e-02
1.405279431492090225e-02
-4.118727520108222961e-03
1.337021589279174805e-02
-5.485834088176488876e-03
2.708696760237216949e-03
-6.462106015533208847e-03
-4.673702642321586609e-04
-2.787605859339237213e-03
3.553137555718421936e-02
-5.760621279478073120e-03
8.704339154064655304e-03
-7.135814987123012543e-03
2.318813465535640717e-03
-6.404483225196599960e-03
-8.444214239716529846e-03
4.044727608561515808e-02
1.746784429997205734e-03
5.240530008450150490e-04
5.935059860348701477e-03
-8.368118666112422943e-03
2.855720696970820427e-03
2.231442136690020561e-03
1.331724785268306732e-02
-1.260107941925525665e-02
7.703745272010564804e-03
-1.673394255340099335e-02
5.484295077621936798e-03
-6.871032062917947769e-03
-1.828083395957946777e-02
8.169928565621376038e-03
4.470443818718194962e-03
-4.496493376791477203e-03
1.829616539180278778e-02
-1.285532210022211075e-02
-1.265730336308479309e-02
-2.743293996900320053e-03
-1.821306534111499786e-03
2.243849635124206543e-02
1.937532098963856697e-03
-1.065177097916603088e-02
3.407003358006477356e-02
3.617195179685950279e-04
-1.528615504503250122e-02
1.071288436651229858e-02
-1.284869853407144547e-02
-2.503667725250124931e-03
2.066345699131488800e-02
-4.566910676658153534e-03
9.776725433766841888e-03
-6.408025044947862625e-03
-5.278936121612787247e-03
3.448661416769027710e-03
1.430459786206483841e-02
-7.628158200532197952e-03
1.043305266648530960e-03
-9.872149676084518433e-03
1.190366107039153576e-03
-6.945763714611530304e-03
-4.861543420702219009e-03
-8.480466902256011963e-03
6.936771329492330551e-03
-5.540986079722642899e-03
-3.330996492877602577e-03
2.753453142940998077e-02
-5.835924763232469559e-03
3.049409016966819763e-02
1.828382839448750019e-03
-1.385047286748886108e-02
-1.399062946438789368e-02
1.325272955000400543e-02
-8.234390988945960999e-03
-1.061643846333026886e-02
-1.619160175323486328e-02
-1.381506770849227905e-02
1.491438504308462143e-02
7.112462539225816727e-03
-8.258560672402381897e-03
5.502708628773689270e-02
7.858625031076371670e-04
2.557684294879436493e-02
3.098341450095176697e-02
-1.860858406871557236e-03
-7.557760924100875854e-03
1.354700536467134953e-03
-2.477120980620384216e-02
2.414453402161598206e-02
-4.431902430951595306e-03
-7.175261620432138443e-03
1.215921947732567787e-03
-3.638110589236021042e-03
6.006301380693912506e-03
-1.059023663401603699e-02
-7.808768656104803085e-03
6.054762285202741623e-03
-6.938280537724494934e-03
-6.419632118195295334e-03
-6.556566804647445679e-03
2.784935757517814636e-03
6.078300531953573227e-03
-6.007005926221609116e-03
-1.003547199070453644e-02
2.843039343133568764e-03
-8.618384599685668945e-03
-4.796807654201984406e-03
2.681261394172906876e-04
6.690545938909053802e-03
-1.056287344545125961e-02
2.529489807784557343e-02
-5.114021711051464081e-03
-3.387007629498839378e-03
-1.009335741400718689e-03
3.720602765679359436e-02
4.398824647068977356e-03
-7.439290639013051987e-03
6.809295620769262314e-03
3.033456625416874886e-03
-2.179864561185240746e-03
-6.948930677026510239e-03
-9.476071223616600037e-03
-5.042186938226222992e-03
-1.363817788660526276e-02
-2.079511992633342743e-02
-2.916615223512053490e-03
-7.595305214636027813e-04
-1.464344840496778488e-02
2.346072345972061157e-03
2.720075845718383789e-02
1.823553629219532013e-02
-9.341748431324958801e-03
-1.548830233514308929e-02
-3.397129941731691360e-03
9.382402058690786362e-04
-2.155883470550179482e-03
-1.159738563001155853e-02
-2.378260251134634018e-03
-1.027553528547286987e-02
3.692311933264136314e-03
-5.236444063484668732e-03
-1.307934895157814026e-02
7.506106630899012089e-04
-1.080019958317279816e-02
-2.068443037569522858e-02
-1.047669257968664169e-02
1.764129730872809887e-03
-5.567006301134824753e-03
-1.626587036298587918e-04
-1.012935675680637360e-02
-6.312515586614608765e-03
-9.642849676311016083e-03
2.563840709626674652e-03
-2.342687686905264854e-03
-1.339618023484945297e-02
-9.237397462129592896e-03
3.311550943180918694e-03
3.126558661460876465e-02
-2.617617603391408920e-03
-1.501024980098009109e-02
-8.273784071207046509e-03
3.122829366475343704e-03
-1.012798771262168884e-02
-4.351688839960843325e-04
-1.212272979319095612e-02
3.026600927114486694e-03
-6.937894970178604126e-03
-1.041955128312110901e-02
3.628998529165983200e-03
2.843102440237998962e-03
2.717253379523754120e-02
-4.650995135307312012e-03
-1.225888449698686600e-02
-1.500924304127693176e-02
-5.897056311368942261e-03
-7.701553869992494583e-03
-6.856102263554930687e-04
-1.186911948025226593e-02
-3.838510718196630478e-03
-6.654976401478052139e-03
1.229949947446584702e-02
-1.669727079570293427e-02
-5.360318813472986221e-03
-6.856530439108610153e-03
-3.902739146724343300e-03
-9.776920080184936523e-03
5.035032518208026886e-03
-5.404861178249120712e-03
2.048014663159847260e-03
-1.610920950770378113e-02
-8.609515614807605743e-03
-1.717956736683845520e-02
-5.474504549056291580e-03
1.358925085514783859e-02
-5.169044714421033859e-03
-7.911507040262222290e-03
1.522048003971576691e-02
-2.325538778677582741e-03
-9.640692733228206635e-03
-1.580132544040679932e-02
-1.811331696808338165e-02
-5.159208551049232483e-03
-6.376332603394985199e-03
1.505206711590290070e-02
-6.663701031357049942e-03
1.355093717575073242e-02
-1.016461662948131561e-02
-5.001498851925134659e-03
8.612468838691711426e-03
-7.908116094768047333e-03
-4.557037318591028452e-04
-1.012204866856336594e-02
-6.901376880705356598e-03
-6.349964533001184464e-03
-6.903449539095163345e-03
1.322739408351480961e-03
-5.636808462440967560e-03
3.094926243647933006e-03
3.870686516165733337e-03
8.024441078305244446e-03
-1.120651420205831528e-02
-8.717394433915615082e-03
-8.804965764284133911e-03
4.959752410650253296e-02
-1.193274650722742081e-02
9.826643392443656921e-03
-1.911164075136184692e-02
7.807136280462145805e-04
-3.551593050360679626e-03
8.704338688403367996e-04
2.317915298044681549e-02
-1.211998984217643738e-02
1.781671121716499329e-02
6.084895227104425430e-03
1.726121525280177593e-03
-8.457113988697528839e-03
-1.850799191743135452e-03
-1.049990486353635788e-02
1.911554671823978424e-02
-5.844769533723592758e-03
6.799215823411941528e-02
2.570289000868797302e-02
-4.974516574293375015e-03
-2.354656113311648369e-03
-1.618096046149730682e-02
9.230555966496467590e-03
-8.820796385407447815e-03
-6.786779500544071198e-03
3.200309874955564737e-04
-1.190306991338729858e-02
-1.095780543982982635e-02
-7.544956170022487640e-03
-8.187538944184780121e-03
3.268917324021458626e-03
-8.445642888545989990e-04
1.654139487072825432e-03
9.891938418149948120e-03
-4.955274518579244614e-03
9.873671224340796471e-04
-7.224313449114561081e-04
-2.281760971527546644e-04
1.281320303678512573e-02
3.259918885305523872e-03
2.815394662320613861e-02
4.771811421960592270e-03
-3.009516047313809395e-03
-1.163734123110771179e-02
1.014868449419736862e-02
-9.748067706823348999e-03
-1.106385607272386551e-02
1.614004839211702347e-03
-1.160378451459109783e-03
-1.130413450300693512e-02
-5.693755578249692917e-03
-1.408808166161179543e-03
2.295811101794242859e-02
-3.275980940088629723e-03
-9.573282441124320030e-04
-7.557586301118135452e-03
-8.755873423069715500e-04
1.526438258588314056e-02
-8.311415091156959534e-03
5.090603977441787720e-02
1.029100269079208374e-03
1.752107986249029636e-03
-8.750226348638534546e-03
-4.730615764856338501e-03
-9.199929423630237579e-03
-1.785053638741374016e-03
1.083080191165208817e-03
-3.236283781006932259e-03
-7.847155444324016571e-03
-1.030237227678298950e-02
4.112180322408676147e-03
-2.708631381392478943e-02
-4.510249127633869648e-04
-1.171494182199239731e-02
-8.884216658771038055e-03
1.098977867513895035e-02
3.279920667409896851e-02
-1.575059816241264343e-02
-1.662747003138065338e-02
-1.085387356579303741e-02
2.697027660906314850e-02
-1.830192049965262413e-03
-1.457403972744941711e-02
-1.143447123467922211e-02
-1.114713866263628006e-02
-3.261436359025537968e-04
1.022194419056177139e-02
-5.931210238486528397e-03
-1.965704141184687614e-03
1.923874393105506897e-02
-1.004337333142757416e-02
1.631249906495213509e-03
7.561402162536978722e-04
-7.001860532909631729e-03
-8.945749141275882721e-03
2.765519171953201294e-02
1.244466099888086319e-02
-2.670186106115579605e-03
-1.829425618052482605e-02
-4.724201746284961700e-03
2.715044654905796051e-02
-6.638956721872091293e-03
-2.950113732367753983e-03
1.713794656097888947e-02
-4.709078464657068253e-03
1.117220148444175720e-02
-1.327913813292980194e-02
-1.705790124833583832e-02
-5.501945037394762039e-03
-1.337501034140586853e-02
-1.363268238492310047e-03
2.135873539373278618e-03
1.557221915572881699e-02
-3.530937538016587496e-04
-1.129157561808824539e-02
8.554610423743724823e-03
-1.361286640167236328e-02
-2.627049339935183525e-03
3.065485798288136721e-04
-4.706526175141334534e-03
1.934467814862728119e-03
-8.991742506623268127e-03
5.725436843931674957e-03
-1.043006032705307007e-02
8.234962821006774902e-03
1.084769703447818756e-02
2.810051292181015015e-02
1.031960174441337585e-02
6.525462958961725235e-03
1.780966646037995815e-03
7.844607345759868622e-03
-1.161981653422117233e-02
4.959040321409702301e-03
-4.157945048063993454e-03
4.741525277495384216e-02
-9.520641528069972992e-03
-6.520723109133541584e-04
-9.853710420429706573e-03
-5.559414625167846680e-03
-7.616613525897264481e-03
-1.291943527758121490e-02
6.969908718019723892e-03
-1.106370985507965088e-02
-3.786684479564428329e-03
2.157535171136260033e-03
1.011701114475727081e-02
-7.408213336020708084e-03
-6.052842363715171814e-03
-2.264011418446898460e-03
-9.141221642494201660e-03
-8.997905068099498749e-03
-9.909871965646743774e-03
-1.105693541467189789e-02
2.438983134925365448e-02
1.017155242152512074e-03
2.132384665310382843e-02
-6.852551829069852829e-03
-9.933043271303176880e-03
-3.187951864674687386e-03
-9.031264926306903362e-04
7.053052634000778198e-02
-4.203251097351312637e-03
3.324924036860466003e-03
-5.313989240676164627e-03
-1.201978884637355804e-02
-8.087350986897945404e-03
6.099294871091842651e-03
1.089657377451658249e-02
7.764643058180809021e-03
-6.030075717717409134e-03
-9.379073046147823334e-03
-1.435275468975305557e-02
-5.888341460376977921e-03
5.316905298968777061e-05
-2.257451182231307030e-03
-6.077535450458526611e-03
-1.189562585204839706e-02
-9.685979224741458893e-03
1.781206447049044073e-05
-1.139932777732610703e-02
7.107643410563468933e-03
4.027118161320686340e-02
-5.957591929472982883e-04
9.781874716281890869e-03
-4.595090635120868683e-03
7.035632152110338211e-04
-5.623797187581658363e-04
-6.585498340427875519e-03
-4.808911180589348078e-04
-1.305672060698270798e-02
-1.146818604320287704e-02
9.847501292824745178e-03
3.355297725647687912e-03
-1.953752152621746063e-02
-6.046219263225793839e-03
-6.741149351000785828e-03
2.732372656464576721e-02
7.094187662005424500e-03
-1.558795105665922165e-02
-1.401149109005928040e-02
-1.050290768034756184e-03
5.049959290772676468e-03
-1.468616072088479996e-03
-9.930958040058612823e-03
-7.480625994503498077e-03
1.282536610960960388e-02
-1.219703629612922668e-02
-7.551434449851512909e-03
-1.560827717185020447e-02
-8.463783306069672108e-04
-4.560609348118305206e-03
2.076162956655025482e-02
-9.957179427146911621e-03
-1.090690307319164276e-02
-1.282469183206558228e-02
-9.098209440708160400e-03
-1.989335753023624420e-03
-7.562601007521152496e-03
6.705393549054861069e-03
-2.361658960580825806e-03
2.778214402496814728e-03
-3.958142362534999847e-03
-5.717160180211067200e-03
-1.770693622529506683e-02
4.596196115016937256e-03
1.539377588778734207e-02
-1.919514732435345650e-03
-1.194879226386547089e-02
-1.140128634870052338e-02
1.336605846881866455e-02
4.376237746328115463e-03
-7.962247356772422791e-03
-8.971775881946086884e-03
4.202853422611951828e-03
1.009638234972953796e-02
-3.203592728823423386e-03
-7.478243671357631683e-03
-7.919771596789360046e-03
1.979417353868484497e-02
-8.493158966302871704e-03
-2.534712199121713638e-03
-3.260086756199598312e-03
-1.128817442804574966e-02
-7.276293355971574783e-03
-1.230516284704208374e-02
2.588487043976783752e-02
-1.069820020347833633e-02
2.306009083986282349e-02
-7.745477370917797089e-03
9.953374974429607391e-03
-5.777799990028142929e-03
-1.847186312079429626e-02
-7.392768748104572296e-03
1.535584405064582825e-02
-7.553301285952329636e-03
1.903063245117664337e-02
-6.905541755259037018e-03
-1.000926923006772995e-02
-1.659249700605869293e-02
-1.524859387427568436e-02
-3.336658235639333725e-03
2.281299792230129242e-03
-9.756159037351608276e-03
-7.319096010178327560e-03
-4.304326721467077732e-04
-5.033581517636775970e-03
-2.552931255195289850e-04
2.511654421687126160e-02
1.541332248598337173e-02
-9.867463260889053345e-03
2.115252893418073654e-03
1.897955080494284630e-03
-1.665546209551393986e-03
-6.538969930261373520e-03
3.327701473608613014e-03
-5.097749177366495132e-03
-3.338932001497596502e-04
-1.037330552935600281e-02
3.138518077321350574e-04
4.192383785266429186e-04
2.569886296987533569e-02
1.001209579408168793e-02
-7.546841632574796677e-03
-5.980284884572029114e-03
7.021001540124416351e-03
-9.083233773708343506e-03
-7.020353805273771286e-03
1.090538129210472107e-02
1.907092705368995667e-02
-1.071340497583150864e-02
-6.854682695120573044e-03
1.227768976241350174e-02
1.454827841371297836e-02
-1.824912242591381073e-02
2.290864661335945129e-02
-5.178213585168123245e-03
-1.172297447919845581e-02
6.269665900617837906e-03
-7.837243378162384033e-03
-2.820932539179921150e-03
-9.879468008875846863e-03
2.714781835675239563e-02
1.135946437716484070e-02
2.150995284318923950e-02
-5.584081169217824936e-03
-7.869280874729156494e-03
-1.522270264104008675e-03
-1.646962761878967285e-02
1.034821034409105778e-03
-2.431092318147420883e-03
-4.117084667086601257e-03
-1.140312477946281433e-02
1.674413913860917091e-03
6.092904135584831238e-03
-1.566809020005166531e-03
-3.921622410416603088e-03
-8.904263377189636230e-04
-1.636855117976665497e-02
-2.723540179431438446e-03
-9.606956504285335541e-03
1.002274220809340477e-03
-7.089993450790643692e-03
-2.632125513628125191e-03
4.998108837753534317e-03
1.699091866612434387e-02
-6.113042589277029037e-03
-6.837454624474048615e-03
-1.379554858431220055e-03
-1.668308279477059841e-03
7.773738354444503784e-03
-1.033358369022607803e-02
8.086317218840122223e-03
-6.563794799149036407e-03
-2.823051763698458672e-03
4.186067730188369751e-02
1.903373980894684792e-03
-1.548469718545675278e-02
-1.261185668408870697e-02
9.785820730030536652e-03
7.697192952036857605e-03
-1.098681241273880005e-02
5.936160217970609665e-03
-6.926615256816148758e-03
9.630062617361545563e-03
-6.496780551970005035e-03
-1.900649257004261017e-02
-5.837059579789638519e-04
-8.935203775763511658e-03
-4.741732263937592506e-04
-2.318707993254065514e-03
-5.976227112114429474e-03
-1.738763228058815002e-02
-1.310828048735857010e-02
3.513124585151672363e-02
2.766372822225093842e-02
-9.727663360536098480e-03
-5.480935797095298767e-03
6.244448479264974594e-03
-1.024534646421670914e-02
8.122438564896583557e-03
-3.220187500119209290e-03
9.716735221445560455e-04
5.351088941097259521e-03
-1.427559927105903625e-02
7.685715332627296448e-03
4.774051718413829803e-03
-8.197109214961528778e-03
1.163124572485685349e-02
-9.606859646737575531e-03
4.840810142923146486e-04
-3.753372468054294586e-03
6.625985726714134216e-03
4.471371881663799286e-03
6.634769961237907410e-03
-5.825970438309013844e-04
-3.256255295127630234e-03
-4.827708005905151367e-03
-8.918896317481994629e-03
-2.041291445493698120e-03
-8.418693207204341888e-03
-1.197036262601613998e-02
1.472976710647344589e-02
1.780731487087905407e-03
-2.017358783632516861e-03
-6.718553602695465088e-03
-7.589237764477729797e-03
-4.900198429822921753e-03
7.455656304955482483e-03
-1.239163335412740707e-02
2.267904020845890045e-02
-1.512391958385705948e-02
-4.531016107648611069e-03
1.798558398149907589e-03
-1.186642330139875412e-02
7.769066374748945236e-03
-3.999551408924162388e-04
-4.284859169274568558e-03
1.738007180392742157e-02
-2.416567411273717880e-03
2.403941936790943146e-02
-7.601840887218713760e-03
3.524529456626623869e-04
-9.621803648769855499e-03
1.464323699474334717e-02
-4.742092452943325043e-03
-7.058884017169475555e-03
-2.454000758007168770e-03
-1.754116965457797050e-03
-1.394900213927030563e-02
1.183447521179914474e-02
5.816123448312282562e-03
5.043976008892059326e-03
-5.319609772413969040e-03
-2.492171525955200195e-02
-1.302887685596942902e-02
8.778455667197704315e-03
7.003072183579206467e-03
1.199328922666609287e-03
-1.368643832392990589e-03
5.454541184008121490e-03
-6.114754360169172287e-03
1.301391748711466789e-03
-9.891547262668609619e-03
1.816536416299641132e-03
6.662039458751678467e-02
2.481992356479167938e-03
2.588635124266147614e-02
1.649594749324023724e-03
1.140116597525775433e-03
-3.076228778809309006e-03
-4.021479748189449310e-03
2.641906961798667908e-03
1.407957728952169418e-02
1.092409715056419373e-02
-1.798197627067565918e-02
-1.654869504272937775e-02
-7.254227530211210251e-04
7.003240287303924561e-03
-7.653756532818078995e-03
1.071764342486858368e-02
7.523354724980890751e-04
4.341724514961242676e-02
-2.719938056543469429e-03
-8.948960341513156891e-03
-1.056728977710008621e-02
-1.058215647935867310e-02
-1.089585199952125549e-02
8.956774137914180756e-03
-5.912477150559425354e-03
-3.962605725973844528e-03
-8.233307860791683197e-03
-1.605902612209320068e-02
-6.524242460727691650e-03
3.292430425062775612e-03
-2.652095630764961243e-03
-8.541145361959934235e-03
2.752056159079074860e-02
-5.455611739307641983e-03
-1.834542606957256794e-03
-3.657681867480278015e-03
-7.770209922455251217e-04
8.470827713608741760e-03
1.576748094521462917e-03
-7.914016023278236389e-03
8.877486689016222954e-04
-4.249128513038158417e-03
-7.249011192470788956e-03
-4.291317425668239594e-03
-4.041103646159172058e-03
-1.120235491544008255e-02
-1.834798837080597878e-03
-6.316109094768762589e-03
3.160322317853569984e-03
-8.002279326319694519e-03
-1.899022492580115795e-03
-4.264728166162967682e-03
-1.454861741513013840e-02
9.533842094242572784e-03
-4.732490517199039459e-03
-1.291615050286054611e-02
2.405582740902900696e-02
-4.950641887262463570e-04
-1.271100190933793783e-04
1.664294861257076263e-02
3.454489167779684067e-03
2.580890897661447525e-03
5.092368461191654205e-03
-4.931442439556121826e-03
2.083566598594188690e-02
-6.599288433790206909e-03
-1.667036442086100578e-03
-4.380719736218452454e-03
-1.345877349376678467e-02
-1.132884901016950607e-02
1.614442653954029083e-02
-1.258774660527706146e-02
3.655167529359459877e-03
-9.083981625735759735e-03
-7.749133743345737457e-03
1.122465915977954865e-02
-1.042302139103412628e-02
2.366308309137821198e-02
-6.442112848162651062e-03
6.476567592471837997e-03
8.615395985543727875e-03
7.813068106770515442e-03
-1.061136834323406219e-03
1.617856672964990139e-03
6.631250679492950439e-02
3.425759961828589439e-03
-1.505096070468425751e-02
-6.201332900673151016e-03
-5.444025155156850815e-03
-1.598744839429855347e-02
1.575071830302476883e-03
4.403335601091384888e-02
5.141440778970718384e-03
-8.566807024180889130e-03
-1.325079891830682755e-02
-5.242327228188514709e-03
-1.371057145297527313e-02
1.915451022796332836e-03
-7.054646033793687820e-03
-2.493830106686800718e-04
1.027579978108406067e-02
-1.330423541367053986e-02
9.275414980947971344e-03
1.043092645704746246e-02
-1.915593259036540985e-02
4.907039925456047058e-03
1.098230574280023575e-02
-1.155061880126595497e-03
-5.884272977709770203e-03
-1.679765246808528900e-02
-5.443728063255548477e-03
-8.372459560632705688e-03
-4.202120006084442139e-03
-7.455441169440746307e-03
-5.643345415592193604e-03
-1.311401370912790298e-02
-1.487133093178272247e-03
-1.779990084469318390e-02
-1.136522181332111359e-02
-9.342541918158531189e-03
-2.025123685598373413e-03
-2.277758903801441193e-02
1.227245014160871506e-02
-6.040348205715417862e-03
-4.599942360073328018e-03
-2.463022246956825256e-03
-6.420542951673269272e-03
-6.870408542454242706e-03
-1.073682680726051331e-02
2.893290296196937561e-02
9.171190671622753143e-03
-1.793532259762287140e-02
-2.530470490455627441e-03
6.161000113934278488e-03
-6.503179203718900681e-03
8.209867402911186218e-03
-1.197099499404430389e-02
-1.107212156057357788e-02
-1.589524373412132263e-02
3.192323260009288788e-03
-1.137741468846797943e-02
-1.363033195957541466e-03
-9.752338752150535583e-03
-3.392928978428244591e-03
-1.284747943282127380e-02
-5.233808420598506927e-03
-6.623053457587957382e-03
-4.374702984932810068e-04
-8.684869855642318726e-03
-6.963368505239486694e-03
-7.743572932668030262e-04
-5.434394348412752151e-03
-1.342734880745410919e-02
-1.003664918243885040e-02
-4.027472343295812607e-03
5.254794377833604813e-03
4.148610401898622513e-03
1.208345033228397369e-02
-2.761260839179158211e-03
2.523204777389764786e-03
2.932033268734812737e-03
-2.532709389925003052e-03
9.998101741075515747e-03
3.015886526554822922e-03
-5.497094243764877319e-03
-1.905487105250358582e-02
-1.013013068586587906e-02
1.723524474073201418e-05
-1.427385210990905762e-02
-7.899921387434005737e-03
-7.169994059950113297e-03
-1.384348701685667038e-02
2.579452004283666611e-03
3.224921971559524536e-02
5.511917639523744583e-03
-1.022093184292316437e-02
-1.073263678699731827e-02
4.429375752806663513e-03
-4.047301597893238068e-03
1.356818829663097858e-03
4.076563939452171326e-02
1.373795792460441589e-02
5.699677765369415283e-02
-1.824848703108727932e-03
-7.610961794853210449e-03
2.465358376502990723e-02
1.091183815151453018e-02
5.430806777440011501e-04
4.208473255857825279e-04
1.099767256528139114e-02
7.003182545304298401e-03
-1.234120130538940430e-02
-1.018061302602291107e-02
-4.909654147922992706e-03
-1.160664018243551254e-03
1.298928633332252502e-02
3.744882345199584961e-02
4.146046005189418793e-03
1.107353065162897110e-02
-8.342302404344081879e-03
2.349594607949256897e-02
-1.136696315370500088e-03
-1.155786681920289993e-02
-7.564834784716367722e-03
-9.848012588918209076e-03
-1.131401211023330688e-02
1.059564412571489811e-03
-8.099396363832056522e-04
4.310015123337507248e-03
-1.444834284484386444e-03
-4.565087612718343735e-03
3.712269291281700134e-02
-5.778984166681766510e-03
-8.725187741219997406e-03
-5.111828912049531937e-03
-9.982370771467685699e-03
-1.767646707594394684e-02
2.950029913336038589e-03
-8.764733560383319855e-03
-4.529687575995922089e-03
2.375928685069084167e-03
9.091770334634929895e-05
-6.306233815848827362e-03
-4.146805033087730408e-03
-1.361476606689393520e-03
-2.027284586802124977e-03
1.461077714338898659e-03
-1.015795022249221802e-02
-8.197521790862083435e-03
2.774150110781192780e-03
-1.087511703372001648e-02
-6.994061404839158058e-04
-5.006535444408655167e-03
-9.909615851938724518e-03
-2.856875071302056313e-03
-7.156819105148315430e-03
-4.726757295429706573e-03
4.446964245289564133e-03
-8.721788413822650909e-03
1.519216690212488174e-03
-6.788652855902910233e-03
5.214374884963035583e-02
7.361781783401966095e-03
2.671951195225119591e-03
-6.801492068916559219e-03
-1.322850212454795837e-02
-1.162469293922185898e-02
2.911630831658840179e-02
-9.971941821277141571e-03
-1.136019546538591385e-02
-2.092617377638816833e-02
-5.422780755907297134e-03
-1.399798132479190826e-02
-1.096894033253192902e-02
-2.020555984927341342e-04
-4.614414647221565247e-03
-1.121891289949417114e-02
-2.313128113746643066e-02
-1.908883452415466309e-02
1.772912032902240753e-02
4.940479993820190430e-03
-1.103982795029878616e-02
-9.381832554936408997e-03
1.402873825281858444e-02
1.086294651031494141e-03
1.112952129915356636e-03
-1.149125018855556846e-04
5.402878159657120705e-04
1.214684802107512951e-03
-5.042256671003997326e-04
-7.028214633464813232e-03
-1.823019795119762421e-02
-8.149923756718635559e-03
-1.220994535833597183e-02
-1.470590103417634964e-02
-1.045997720211744308e-03
-1.202727761119604111e-02
-6.954925600439310074e-03
-1.394757721573114395e-02
-2.134377835318446159e-03
-1.032336265780031681e-03
5.698585882782936096e-02
-1.219361368566751480e-02
2.733137516770511866e-04
-2.693369286134839058e-03
-7.562792394310235977e-03
9.220108389854431152e-03
-1.036060787737369537e-02
-4.330871161073446274e-03
-7.533126510679721832e-03
-5.730519536882638931e-03
-1.100107561796903610e-02
-1.754097826778888702e-02
1.110357115976512432e-03
-8.260436356067657471e-03
-6.271761958487331867e-04
-4.636417608708143234e-03
-3.764135763049125671e-04
-6.378628779202699661e-03
2.714178152382373810e-02
5.320664122700691223e-02
1.096941065043210983e-02
-5.275985691696405411e-03
-6.230174563825130463e-03
-9.811963886022567749e-03
1.935090124607086182e-02
1.983277685940265656e-02
-1.598286814987659454e-02
1.836912706494331360e-02
-7.563893683254718781e-03
-6.656220182776451111e-03
-9.410431608557701111e-03
-4.129095934331417084e-03
-1.280858926475048065e-02
-4.897037521004676819e-03
-8.106800727546215057e-03
1.996579580008983612e-02
-1.098704710602760315e-02
-1.616745139472186565e-03
2.127693593502044678e-02
-7.032632827758789062e-03
3.244244027882814407e-03
-1.078180223703384399e-02
-2.078177966177463531e-02
-4.103372339159250259e-03
-1.225704792886972427e-02
-8.685323409736156464e-03
-1.051388401538133621e-02
8.791217580437660217e-03
-7.477766834199428558e-03
-9.296253323554992676e-03
-2.222582697868347168e-02
-1.483885385096073151e-02
6.176835158839821815e-04
6.135635543614625931e-03
-9.072293527424335480e-03
-4.306645598262548447e-03
-2.986585255712270737e-03
3.783466294407844543e-02
3.721093526110053062e-03
1.411903463304042816e-02
-3.903455566614866257e-03
-7.793186698108911514e-03
-1.949407043866813183e-03
6.471244269050657749e-04
-5.746183451265096664e-03
-9.346218779683113098e-03
4.966488108038902283e-03
3.132301196455955505e-02
1.015481445938348770e-02
1.566170528531074524e-02
2.026367932558059692e-03
-1.277817506343126297e-02
2.234360872535035014e-04
-1.034375652670860291e-02
1.563112164149060845e-04
7.837720215320587158e-03
-8.307833224534988403e-03
2.947374060750007629e-02
-9.417414665222167969e-03
5.683648400008678436e-03
-5.617089103907346725e-03
8.736940100789070129e-03
-7.063752040266990662e-03
-1.057497970759868622e-02
-4.558145068585872650e-03
-1.226408639922738075e-03
1.476869639009237289e-02
5.056490655988454819e-03
-5.349569488316774368e-03
-1.031831279397010803e-02
-5.809317808598279953e-03
7.761992514133453369e-03
-7.545931264758110046e-03
1.826307154260575771e-03
-1.853435486555099487e-02
-6.199934985488653183e-03
1.569856703281402588e-02
-1.475883182138204575e-02
3.445539623498916626e-03
-1.192494854331016541e-02
-3.315415699034929276e-03
-9.760552085936069489e-03
-1.080960966646671295e-02
-1.748916134238243103e-02
5.692425649613142014e-03
3.168461844325065613e-02
4.394801799207925797e-03
-8.241605013608932495e-03
-9.346833452582359314e-03
-8.569146506488323212e-03
-7.909334264695644379e-03
2.508680801838636398e-03
-3.659395733848214149e-03
6.309747230261564255e-03
1.864653266966342926e-02
9.115018765442073345e-04
1.100635249167680740e-02
1.206987444311380386e-02
3.577333991415798664e-04
-1.331727765500545502e-02
7.751407567411661148e-03
-1.154646370559930801e-02
1.515337207820266485e-04
1.132542383857071400e-04
-7.413014769554138184e-03
-4.265761468559503555e-03
-6.495262641692534089e-05
-2.828114666044712067e-03
-1.031239610165357590e-02
1.187402755022048950e-02
4.596751183271408081e-03
-5.275189876556396484e-03
1.454962883144617081e-02
-6.154034752398729324e-03
6.126801948994398117e-03
2.185103110969066620e-02
1.711848890408873558e-04
1.174057135358452797e-03
-4.980609286576509476e-03
-8.596577681601047516e-03
-7.102011702954769135e-03
1.471756142564117908e-03
-7.473670877516269684e-03
-8.258597925305366516e-03
4.851563833653926849e-03
-4.664305597543716431e-03
4.856776446104049683e-02
1.862713019363582134e-03
-4.906470421701669693e-04
-1.006003748625516891e-02
3.073249012231826782e-03
-1.276795100420713425e-02
-8.764968253672122955e-03
3.226910950616002083e-03
-5.796960322186350822e-04
1.321856863796710968e-02
-3.661755705252289772e-03
3.555951407179236412e-03
6.626605242490768433e-02
-7.489837706089019775e-03
-1.244502607733011246e-02
-1.124299410730600357e-02
9.883389808237552643e-03
-2.949462737888097763e-03
-7.802210282534360886e-03
9.951038286089897156e-03
-7.134918123483657837e-03
3.529754932969808578e-03
5.676371976733207703e-03
-7.386374054476618767e-04
-9.381147101521492004e-03
4.954722244292497635e-03
2.979741664603352547e-03
-3.382897004485130310e-03
-1.231592800468206406e-02
-6.223579868674278259e-03
-8.984884247183799744e-03
-4.213437903672456741e-03
-5.563616286963224411e-03
1.013045315630733967e-03
-1.216063834726810455e-02
-7.578932214528322220e-03
-3.564884653314948082e-03
-9.254216216504573822e-03
-1.134961750358343124e-02
1.210894319228827953e-03
3.229573834687471390e-03
-9.183177724480628967e-03
-6.003579124808311462e-03
-1.009550970047712326e-02
1.327150035649538040e-03
-2.218764275312423706e-03
-1.100177876651287079e-03
-6.836749613285064697e-03
-1.239655818790197372e-02
3.541874885559082031e-02
-1.803278736770153046e-02
-1.207403023727238178e-03
-1.219034940004348755e-02
3.270312678068876266e-03
-1.274443790316581726e-02
4.342061933130025864e-03
2.584304194897413254e-03
-1.925478718476369977e-04
4.107689857482910156e-02
2.563552185893058777e-02
-5.564587656408548355e-03
4.658673424273729324e-03
-2.029863744974136353e-02
1.498191151767969131e-02
1.334480708464980125e-03
-4.360797349363565445e-03
2.407414140179753304e-03
5.443237721920013428e-03
-8.645273745059967041e-03
-1.372575946152210236e-02
-8.456354960799217224e-03
-4.890849813818931580e-03
6.422591954469680786e-02
-1.192854251712560654e-02
-6.354156415909528732e-03
-5.678824614733457565e-03
-1.531419809907674789e-03
-1.264657080173492432e-02
9.173979633487761021e-04
-5.394564941525459290e-03
-1.347087672911584377e-03
-1.610277779400348663e-02
-1.290186122059822083e-02
6.113316398113965988e-03
-1.925873337313532829e-03
-2.723179291933774948e-03
-1.292803045362234116e-02
7.264772895723581314e-03
-2.976552583277225494e-03
3.492000512778759003e-03
-2.618883270770311356e-03
-9.996818378567695618e-03
3.500533988699316978e-03
2.670426294207572937e-02
8.618701249361038208e-03
-4.456328228116035461e-03
-1.253841165453195572e-02
-2.606168389320373535e-03
-6.318305153399705887e-03
-7.825195789337158203e-03
-3.170209471136331558e-03
1.705818064510822296e-02
4.971710592508316040e-02
-8.271857164800167084e-03
-1.071121729910373688e-02
1.586798578500747681e-02
-8.993047522380948067e-04
8.269011043012142181e-03
-8.478135801851749420e-03
8.216262795031070709e-03
3.678601002320647240e-03
1.212540548294782639e-02
-7.491952739655971527e-03
9.617196395993232727e-03
7.792347576469182968e-03
-1.278039626777172089e-02
-1.020178012549877167e-02
1.552177127450704575e-03
-8.588371798396110535e-03
-1.061843428760766983e-02
-7.999895140528678894e-03
-8.633386343717575073e-03
-3.247244516387581825e-03
-7.616300601512193680e-03
-8.551032282412052155e-03
-9.274818003177642822e-03
-3.991059493273496628e-03
-2.677557058632373810e-03
-6.859631394036114216e-04
-2.743397606536746025e-03
-1.280005555599927902e-02
7.293357979506254196e-03
1.171856373548507690e-02
-1.812000409699976444e-03
1.472875382751226425e-02
-3.215147415176033974e-03
-1.765020191669464111e-03
-4.111861344426870346e-03
-7.111400365829467773e-03
-3.168391995131969452e-03
-6.510003004223108292e-03
3.274669125676155090e-02
1.683705113828182220e-02
-3.853252390399575233e-03
1.431670412421226501e-02
-1.003480236977338791e-02
1.049128547310829163e-02
-9.703888557851314545e-03
-1.140316016972064972e-02
-5.544822663068771362e-03
-1.698686857707798481e-03
3.505849163047969341e-04
2.607633732259273529e-02
-7.681713439524173737e-03
1.660291291773319244e-02
-7.704919669777154922e-03
-1.022871490567922592e-02
-5.557932425290346146e-03
1.572572859004139900e-03
1.155614107847213745e-02
-5.213859025388956070e-03
3.553710505366325378e-02
-3.883785335347056389e-03
2.912763739004731178e-03
-1.388858724385499954e-02
-1.155245583504438400e-02
5.920970579609274864e-04
-1.781237870454788208e-02
-1.591964811086654663e-02
9.817364625632762909e-03
2.110935514792799950e-03
3.638464026153087616e-03
-6.087747868150472641e-03
-8.515345398336648941e-04
-4.426162224262952805e-03
1.947678811848163605e-02
-3.341222181916236877e-03
-3.911482170224189758e-03
-1.741153746843338013e-02
-1.624648226425051689e-03
1.123824622482061386e-02
-1.654951088130474091e-02
-6.372443865984678268e-03
-4.164313722867518663e-04
-5.493993870913982391e-03
-5.348769482225179672e-03
-1.604743674397468567e-02
-7.361817639321088791e-03
2.062160521745681763e-02
6.021848879754543304e-03
5.007175263017416000e-03
2.107167057693004608e-02
5.626640282571315765e-03
1.655660383403301239e-02
-1.067375577986240387e-02
-6.298969499766826630e-03
-1.622586324810981750e-02
5.917535163462162018e-03
-8.014444261789321899e-03
3.451320528984069824e-02
-2.020569751039147377e-03
-1.058531645685434341e-02
-2.476355293765664101e-03
-5.303062498569488525e-03
1.454227138310670853e-02
1.983501389622688293e-02
-1.187204476445913315e-02
4.279038868844509125e-03
2.072714455425739288e-02
1.134893111884593964e-02
-9.674223139882087708e-03
-1.002859417349100113e-02
-3.239271463826298714e-03
-4.397293087095022202e-03
-1.012469083070755005e-02
-5.477442406117916107e-03
-1.551998313516378403e-02
8.887941017746925354e-03
8.614807389676570892e-03
8.372222073376178741e-03
1.016478799283504486e-02
-5.910211242735385895e-03
-7.379271090030670166e-03
-9.014552459120750427e-03
6.101891398429870605e-03
-8.570753852836787701e-04
-4.611439071595668793e-03
-8.019775152206420898e-03
-5.348335020244121552e-03
-3.218334168195724487e-03
-6.167550571262836456e-03
-1.153977308422327042e-02
-1.444815378636121750e-02
-6.168947089463472366e-03
4.354879725724458694e-03
-9.441861882805824280e-03
3.978331759572029114e-02
-6.543236318975687027e-03
-4.779320675879716873e-03
-3.725659335032105446e-03
4.396765027195215225e-03
-6.114748306572437286e-03
5.348034668713808060e-03
3.043324068130459636e-05
1.241231709718704224e-02
-1.203383901156485081e-03
-1.100943330675363541e-02
1.439258735626935959e-02
5.867655389010906219e-03
-9.064377285540103912e-03
-2.512370469048619270e-03
-1.227469183504581451e-02
-9.919670410454273224e-03
-5.666692275553941727e-03
-1.063839439302682877e-02
-1.038610283285379410e-02
1.194053422659635544e-02
-6.003379356116056442e-03
-3.081717528402805328e-03
1.180342442239634693e-04
-3.330928273499011993e-03
-4.777460359036922455e-03
-1.058672205545008183e-03
-5.951559171080589294e-03
-1.318364683538675308e-02
-9.918692521750926971e-03
-1.884708064608275890e-03
-1.298707909882068634e-02
-3.748796181753277779e-03
-2.383419778198003769e-03
1.010279171168804169e-02
-7.322184275835752487e-03
-8.752088993787765503e-03
-1.181513536721467972e-02
1.099043875001370907e-03
1.205398980528116226e-02
-9.706205455586314201e-04
-7.566775660961866379e-03
7.521394174546003342e-03
-3.090865910053253174e-03
-5.557793192565441132e-03
-4.730897955596446991e-03
1.459067966789007187e-02
-1.891031715786084533e-04
2.965803490951657295e-03
-4.353132098913192749e-03
-2.475358080118894577e-03
1.661526411771774292e-02
3.759696381166577339e-03
-5.738060455769300461e-03
-1.443262957036495209e-02
1.331941224634647369e-03
-1.078241597861051559e-02
-1.066069304943084717e-02
-4.530313424766063690e-03
-1.309714373201131821e-02
-1.727290218695998192e-03
2.529159747064113617e-02
-1.369217969477176666e-02
8.261787588708102703e-04
-5.341513082385063171e-03
7.314759306609630585e-03
-4.938817117363214493e-03
-4.210963379591703415e-03
5.306176375597715378e-03
1.122237066738307476e-03
5.344183184206485748e-03
-1.382796652615070343e-02
-5.279609467834234238e-03
-5.309554282575845718e-03
-1.704692840576171875e-02
-6.557833869010210037e-03
1.444175094366073608e-02
-1.995923928916454315e-02
8.763091638684272766e-03
-6.374214775860309601e-03
-2.055443124845623970e-03
-3.002478508278727531e-03
7.685142569243907928e-03
-3.875789931043982506e-03
-7.080625277012586594e-03
8.917900733649730682e-03
-9.570368565618991852e-03
2.431081421673297882e-02
1.791448681615293026e-03
-1.831889036111533642e-03
1.607203297317028046e-02
-1.134338602423667908e-02
-4.882555454969406128e-03
-1.747748628258705139e-02
1.793177053332328796e-02
2.004704065620899200e-02
-1.026010327041149139e-02
1.477712951600551605e-02
-1.591033505974337459e-04
-2.302070846781134605e-03
-6.765746977180242538e-03
4.241960123181343079e-03
-1.005316246300935745e-02
-2.383396495133638382e-04
-1.511233113706111908e-02
-1.314313802868127823e-02
1.250974135473370552e-03
1.054058130830526352e-02
-9.494901634752750397e-03
2.205895259976387024e-03
-9.658181108534336090e-03
-2.056350000202655792e-03
-9.568642824888229370e-03
-1.308451406657695770e-02
-8.590284734964370728e-03
-2.423327881842851639e-03
7.443954795598983765e-02
-5.156384315341711044e-03
-7.192125078290700912e-03
5.233502760529518127e-02
-3.952775150537490845e-03
2.975268987938761711e-03
-1.860067434608936310e-02
6.115234456956386566e-03
2.078837715089321136e-03
-1.131718792021274567e-02
6.583141535520553589e-02
-6.975390482693910599e-03
-5.415140185505151749e-03
-1.272469107061624527e-02
2.877274993807077408e-03
-8.175384253263473511e-03
-8.522187359631061554e-03
-7.949036546051502228e-03
-1.292923558503389359e-02
-5.010908935219049454e-03
-1.457863859832286835e-02
1.666431315243244171e-02
1.897343434393405914e-02
7.278396934270858765e-02
9.907124564051628113e-03
-1.423124689608812332e-02
-7.397856097668409348e-03
-9.936630725860595703e-03
7.226216793060302734e-02
4.117869213223457336e-02
-3.052348620258271694e-04
-1.219073776155710220e-02
-3.624064614996314049e-03
1.632876461371779442e-03
-9.152964688837528229e-03
-1.458985731005668640e-02
-1.142865419387817383e-02
-5.210741888731718063e-03
1.243205647915601730e-02
6.017257925122976303e-03
-5.936588626354932785e-03
8.994061499834060669e-03
-4.956723423674702644e-04
-1.260094228200614452e-03
1.715252758003771305e-03
-7.179620210081338882e-03
-3.482687519863247871e-03
6.521815899759531021e-03
-1.443091686815023422e-02
-7.545336615294218063e-03
-3.069038502871990204e-03
-1.245343592017889023e-02
2.124227024614810944e-02
-8.213819237425923347e-04
-7.145342417061328888e-03
4.004248767159879208e-04
-7.889591157436370850e-03
-4.368039313703775406e-03
-7.573099341243505478e-03
6.648272741585969925e-03
-3.366655902937054634e-03
8.841374889016151428e-03
-1.069840230047702789e-02
-1.233424525707960129e-02
-1.219759695231914520e-02
-8.790153078734874725e-03
-1.278203679248690605e-03
-9.252511896193027496e-03
-7.547004148364067078e-03
1.585194491781294346e-03
-1.037388667464256287e-02
1.200896501541137695e-02
-1.113836281001567841e-02
6.961033493280410767e-02
6.551460362970829010e-03
-4.394979216158390045e-03
-1.065485458821058273e-02
8.843637071549892426e-03
7.740810513496398926e-03
-5.475728772580623627e-03
-6.788454018533229828e-03
9.691734798252582550e-03
-4.932033829391002655e-03
-8.343793451786041260e-03
-2.064845175482332706e-04
6.836284417659044266e-03
-1.808932982385158539e-02
1.616572699276730418e-04
-1.140272244811058044e-02
6.806206423789262772e-03
-2.961710561066865921e-04
-3.998849540948867798e-03
-4.008224233984947205e-03
-5.902113392949104309e-03
