2.545745670795440674e-02
4.800166934728622437e-02
4.803136363625526428e-02
-2.167242765426635742e-01
2.647610567510128021e-02
-1.001831740140914917e-01
8.199092745780944824e-02
-1.320094913244247437e-01
8.779926598072052002e-02
-4.045700281858444214e-02
-1.984144747257232666e-02
6.145613640546798706e-02
-1.276229023933410645e-01
-6.236233189702033997e-02
7.515013962984085083e-02
-6.935092806816101074e-02
4.016081988811492920e-01
-1.738121807575225830e-01
1.864179968833923340e-01
2.163939028978347778e-01
1.310995593667030334e-02
-1.120534092187881470e-01
3.987769782543182373e-01
2.016959339380264282e-01
-5.770144611597061157e-02
-2.218923717737197876e-01
-7.639724016189575195e-02
-1.219408363103866577e-01
1.965494155883789062e-01
-2.775669842958450317e-02
1.902563720941543579e-01
7.391221821308135986e-02
-1.707383692264556885e-01
-8.007471263408660889e-02
-6.008953601121902466e-02
-9.554256498813629150e-02
-1.723418980836868286e-01
5.328626185655593872e-02
-1.212095916271209717e-01
5.642143636941909790e-02
3.154380023479461670e-01
-4.852171242237091064e-02
3.551238030195236206e-02
1.753211319446563721e-01
5.102175474166870117e-02
-8.583728224039077759e-03
-1.145351678133010864e-03
-1.743154078722000122e-01
4.168717563152313232e-02
-4.213920235633850098e-02
2.020478546619415283e-01
-8.761582896113395691e-03
5.609780550003051758e-02
1.366590708494186401e-01
2.150187790393829346e-01
1.374103687703609467e-02
8.155421912670135498e-02
4.272960424423217773e-01
-2.800993248820304871e-02
-4.950150847434997559e-02
4.189117811620235443e-03
1.312122941017150879e-01
1.846821904182434082e-01
-1.605408638715744019e-02
1.388528943061828613e-01
1.187674105167388916e-01
6.925515830516815186e-02
1.938749104738235474e-02
-4.620202630758285522e-02
8.337556570768356323e-02
2.125562131404876709e-01
2.275476753711700439e-01
1.053384542465209961e-01
1.591899991035461426e-01
5.324673652648925781e-02
-2.190358936786651611e-02
3.810142278671264648e-01
1.007404774427413940e-01
5.623225122690200806e-02
1.579093039035797119e-01
1.955070346593856812e-01
1.303264200687408447e-01
8.014023303985595703e-02
3.112186491489410400e-01
2.372498065233230591e-01
1.168739870190620422e-01
2.268617153167724609e-01
1.700141280889511108e-01
2.353414148092269897e-02
1.415401250123977661e-01
2.037669420242309570e-01
-1.952220499515533447e-01
9.761198610067367554e-02
3.333053737878799438e-02
9.492991864681243896e-02
-1.194801032543182373e-01
-6.872022151947021484e-02
-1.041802614927291870e-01
-3.505637347698211670e-01
3.058834075927734375e-01
2.062846422195434570e-01
8.646945655345916748e-02
5.108589306473731995e-02
9.483730792999267578e-02
2.459281980991363525e-01
-2.459519803524017334e-01
-2.176996171474456787e-01
3.858334571123123169e-02
-1.517088711261749268e-01
4.839373379945755005e-02
1.906058192253112793e-01
-5.591035634279251099e-02
-6.242454424500465393e-02
1.650860458612442017e-01
2.556826770305633545e-01
2.271219193935394287e-01
-1.916881203651428223e-01
2.339245006442070007e-02
-9.642286598682403564e-02
-5.070733278989791870e-02
1.313951462507247925e-01
4.396364688873291016e-01
2.123454511165618896e-01
1.896942555904388428e-01
-5.986022762954235077e-03
1.249510496854782104e-01
1.956464052200317383e-01
1.656847596168518066e-01
