2.711235582828521729e-01 -2.765477299690246582e-01 -4.656439423561096191e-01 1.159426569938659668e-01 -7.568705826997756958e-02 3.539248555898666382e-02 2.705122344195842743e-02 2.038807570934295654e-01 7.618257403373718262e-02 -1.192765012383460999e-01 -2.265274226665496826e-01 -6.814639270305633545e-02 1.286993920803070068e-01 -4.295795038342475891e-02 8.242169395089149475e-03 9.683471173048019409e-03 1.859725564718246460e-01 1.912004128098487854e-02 6.852880585938692093e-03 2.074094861745834351e-01 -2.070555388927459717e-01 1.776136010885238647e-01 1.038057059049606323e-01 2.176749706268310547e-01 2.244066596031188965e-01 7.694226806052029133e-04 -1.475031115114688873e-02 -1.096453517675399780e-01 1.071822345256805420e-01 7.311858236789703369e-02 7.395291328430175781e-02 -9.844909608364105225e-02 2.663007080554962158e-01 1.475645154714584351e-01 2.480752468109130859e-01 2.206878960132598877e-01 3.969750404357910156e-01 -3.930260613560676575e-02 1.012167930603027344e-01 -1.875414252281188965e-01 1.601417660713195801e-01 4.171683266758918762e-02 -8.890288881957530975e-03 5.631454661488533020e-02 6.180312857031822205e-02 2.593137510120868683e-02 2.282970398664474487e-01 -1.188571900129318237e-01 -7.607565820217132568e-02 -8.766803145408630371e-02 9.163523465394973755e-02 -1.074797213077545166e-01 -9.335128962993621826e-02 -1.167623028159141541e-01 1.774644404649734497e-01 2.487072199583053589e-01 1.133788228034973145e-01 6.405428797006607056e-02 1.701030135154724121e-01 -1.985531114041805267e-02 3.589794784784317017e-02 3.085007891058921814e-02 8.466401696205139160e-02 3.287269473075866699e-01 0.000000000000000000e+00 -0.000000000000000000e+00 0.000000000000000000e+00 -0.000000000000000000e+00 0.000000000000000000e+00 0.000000000000000000e+00 0.000000000000000000e+00 0.000000000000000000e+00 0.000000000000000000e+00 0.000000000000000000e+00 0.000000000000000000e+00 0.000000000000000000e+00 0.000000000000000000e+00 -0.000000000000000000e+00 0.000000000000000000e+00 -0.000000000000000000e+00 -0.000000000000000000e+00 -0.000000000000000000e+00 0.000000000000000000e+00 0.000000000000000000e+00 -0.000000000000000000e+00 0.000000000000000000e+00 0.000000000000000000e+00 0.000000000000000000e+00 -0.000000000000000000e+00 -0.000000000000000000e+00 -0.000000000000000000e+00 0.000000000000000000e+00 0.000000000000000000e+00 0.000000000000000000e+00 -0.000000000000000000e+00 -0.000000000000000000e+00 -0.000000000000000000e+00 -0.000000000000000000e+00 0.000000000000000000e+00 -0.000000000000000000e+00 -0.000000000000000000e+00 -0.000000000000000000e+00 0.000000000000000000e+00 -0.000000000000000000e+00 -0.000000000000000000e+00 -0.000000000000000000e+00 0.000000000000000000e+00 -0.000000000000000000e+00 0.000000000000000000e+00 0.000000000000000000e+00 -0.000000000000000000e+00 0.000000000000000000e+00 -0.000000000000000000e+00 0.000000000000000000e+00 0.000000000000000000e+00 0.000000000000000000e+00 0.000000000000000000e+00 0.000000000000000000e+00 0.000000000000000000e+00 0.000000000000000000e+00 -0.000000000000000000e+00 -0.000000000000000000e+00 0.000000000000000000e+00 0.000000000000000000e+00 0.000000000000000000e+00 0.000000000000000000e+00 -0.000000000000000000e+00 0.000000000000000000e+00
-3.469138592481613159e-02 1.093473359942436218e-01 2.017326653003692627e-01 -6.533984094858169556e-02 -1.534112077206373215e-02 1.615818589925765991e-01 2.993103582412004471e-03 -1.035854294896125793e-01 1.788893714547157288e-02 -2.719837427139282227e-01 3.032552301883697510e-01 3.236205279827117920e-01 1.419011354446411133e-01 -9.080959856510162354e-02 -1.019913181662559509e-01 1.237994506955146790e-01 3.623327985405921936e-02 -1.983174830675125122e-01 -6.105066463351249695e-02 2.353672683238983154e-01 -2.054388672113418579e-01 1.502658873796463013e-01 7.254322618246078491e-02 5.771940201520919800e-02 -2.309740334749221802e-02 -1.438119560480117798e-01 1.937151551246643066e-01 5.365825444459915161e-02 1.764126271009445190e-01 -3.018960729241371155e-02 2.956608310341835022e-02 3.020686805248260498e-01 3.579651936888694763e-02 2.332409769296646118e-01 -1.045688171871006489e-03 2.852714359760284424e-01 9.074624627828598022e-03 2.243929654359817505e-01 1.491546332836151123e-01 1.299393475055694580e-01 1.768058538436889648e-01 9.773213416337966919e-02 -1.562574803829193115e-01 -2.466106414794921875e-02 -7.118148356676101685e-02 -2.270079404115676880e-01 2.941017448902130127e-01 -1.213082298636436462e-01 1.003785207867622375e-01 -1.879332661628723145e-01 4.008152708411216736e-02 -5.211704224348068237e-02 -1.115234866738319397e-01 1.294068247079849243e-01 -1.203923299908638000e-02 2.320995032787322998e-01 -1.630475670099258423e-01 2.173690795898437500e-01 2.827560603618621826e-01 1.879340112209320068e-01 1.055641546845436096e-01 8.121686428785324097e-02 1.757414266467094421e-02 -3.147917091846466064e-01 0.000000000000000000e+00 0.000000000000000000e+00 0.000000000000000000e+00 -0.000000000000000000e+00 0.000000000000000000e+00 -0.000000000000000000e+00 -0.000000000000000000e+00 0.000000000000000000e+00 0.000000000000000000e+00 0.000000000000000000e+00 0.000000000000000000e+00 -0.000000000000000000e+00 0.000000000000000000e+00 0.000000000000000000e+00 -0.000000000000000000e+00 0.000000000000000000e+00 -0.000000000000000000e+00 0.000000000000000000e+00 0.000000000000000000e+00 -0.000000000000000000e+00 0.000000000000000000e+00 -0.000000000000000000e+00 -0.000000000000000000e+00 -0.000000000000000000e+00 -0.000000000000000000e+00 -0.000000000000000000e+00 0.000000000000000000e+00 -0.000000000000000000e+00 0.000000000000000000e+00 0.000000000000000000e+00 0.000000000000000000e+00 0.000000000000000000e+00 0.000000000000000000e+00 0.000000000000000000e+00 0.000000000000000000e+00 0.000000000000000000e+00 -0.000000000000000000e+00 0.000000000000000000e+00 -0.000000000000000000e+00 0.000000000000000000e+00 0.000000000000000000e+00 0.000000000000000000e+00 0.000000000000000000e+00 0.000000000000000000e+00 0.000000000000000000e+00 0.000000000000000000e+00 -0.000000000000000000e+00 0.000000000000000000e+00 -0.000000000000000000e+00 0.000000000000000000e+00 0.000000000000000000e+00 0.000000000000000000e+00 -0.000000000000000000e+00 -0.000000000000000000e+00 0.000000000000000000e+00 0.000000000000000000e+00 -0.000000000000000000e+00 -0.000000000000000000e+00 0.000000000000000000e+00 0.000000000000000000e+00 -0.000000000000000000e+00 -0.000000000000000000e+00 0.000000000000000000e+00 -0.000000000000000000e+00
-2.311319559812545776e-01 -4.144999012351036072e-02 -1.832303851842880249e-01 1.210502684116363525e-01 -1.947285830974578857e-01 1.926743090152740479e-01 -1.209729611873626709e-01 3.304333239793777466e-02 6.663776934146881104e-02 -5.702386423945426941e-02 2.333982288837432861e-01 1.921508647501468658e-02 -2.565077245235443115e-01 8.365093171596527100e-02 6.790322065353393555e-02 -2.322967499494552612e-01 -1.291272044181823730e-01 1.484403610229492188e-01 7.394924759864807129e-02 4.655929282307624817e-02 3.688113093376159668e-01 -7.710871845483779907e-02 -1.764516234397888184e-01 -3.390732780098915100e-02 3.113805875182151794e-02 -7.241231203079223633e-02 1.689718663692474365e-02 1.171867847442626953e-01 4.496584646403789520e-03 -1.273372769355773926e-01 7.172240316867828369e-02 1.412197053432464600e-01 -1.049359589815139771e-01 -8.959480561316013336e-03 1.277809441089630127e-01 -5.886415950953960419e-03 -1.349073201417922974e-01 1.474285218864679337e-02 -4.320448264479637146e-03 3.495763614773750305e-02 -4.024350200779736042e-04 -8.566366136074066162e-02 4.686054214835166931e-02 5.347106978297233582e-02 5.192400142550468445e-02 3.790455758571624756e-01 -1.522202789783477783e-01 1.651983708143234253e-01 3.400271385908126831e-02 2.167128324508666992e-01 -2.173590287566184998e-02 7.217037677764892578e-02 2.594944089651107788e-02 1.238723099231719971e-01 -1.436476111412048340e-01 4.105572775006294250e-02 2.149281203746795654e-01 1.095831766724586487e-01 3.003937602043151855e-01 6.856799125671386719e-03 2.758154571056365967e-01 1.276069600135087967e-02 2.524381875991821289e-01 3.068048954010009766e-01 0.000000000000000000e+00 0.000000000000000000e+00 0.000000000000000000e+00 -0.000000000000000000e+00 0.000000000000000000e+00 0.000000000000000000e+00 0.000000000000000000e+00 0.000000000000000000e+00 0.000000000000000000e+00 0.000000000000000000e+00 -0.000000000000000000e+00 0.000000000000000000e+00 -0.000000000000000000e+00 0.000000000000000000e+00 -0.000000000000000000e+00 0.000000000000000000e+00 -0.000000000000000000e+00 0.000000000000000000e+00 0.000000000000000000e+00 -0.000000000000000000e+00 0.000000000000000000e+00 0.000000000000000000e+00 -0.000000000000000000e+00 0.000000000000000000e+00 0.000000000000000000e+00 -0.000000000000000000e+00 0.000000000000000000e+00 -0.000000000000000000e+00 0.000000000000000000e+00 0.000000000000000000e+00 0.000000000000000000e+00 -0.000000000000000000e+00 -0.000000000000000000e+00 -0.000000000000000000e+00 -0.000000000000000000e+00 -0.000000000000000000e+00 0.000000000000000000e+00 0.000000000000000000e+00 -0.000000000000000000e+00 -0.000000000000000000e+00 0.000000000000000000e+00 -0.000000000000000000e+00 -0.000000000000000000e+00 -0.000000000000000000e+00 -0.000000000000000000e+00 0.000000000000000000e+00 -0.000000000000000000e+00 0.000000000000000000e+00 0.000000000000000000e+00 0.000000000000000000e+00 -0.000000000000000000e+00 0.000000000000000000e+00 -0.000000000000000000e+00 -0.000000000000000000e+00 -0.000000000000000000e+00 0.000000000000000000e+00 0.000000000000000000e+00 -0.000000000000000000e+00 0.000000000000000000e+00 0.000000000000000000e+00 0.000000000000000000e+00 0.000000000000000000e+00 -0.000000000000000000e+00 0.000000000000000000e+00
-2.037434130907058716e-01 1.474303454160690308e-01 2.917739562690258026e-03 2.094781249761581421e-01 2.571131587028503418e-01 -2.070916630327701569e-02 -1.603617519140243530e-01 1.694562137126922607e-01 -3.812935203313827515e-02 2.137794345617294312e-01 -2.947946488857269287e-01 -2.254867404699325562e-01 9.656524658203125000e-02 -5.792680755257606506e-02 -1.403593868017196655e-01 2.397534064948558807e-02 7.556714117527008057e-02 -3.963083028793334961e-02 -1.705061644315719604e-01 1.827345788478851318e-01 -1.559013277292251587e-01 8.013045787811279297e-02 9.544626809656620026e-03 -1.345834285020828247e-01 -1.163173094391822815e-01 1.451694369316101074e-01 2.750557959079742432e-01 -3.729140851646661758e-03 3.762846812605857849e-03 -1.787279732525348663e-02 1.854188553988933563e-02 2.496909648180007935e-01 -2.367854416370391846e-01 -5.583218485116958618e-02 1.077191680669784546e-01 2.473207265138626099e-01 5.543072707951068878e-03 1.299335062503814697e-01 -2.976251393556594849e-02 2.200637608766555786e-01 2.268347293138504028e-01 7.718108594417572021e-02 4.056275635957717896e-02 2.293061465024948120e-01 -1.862876862287521362e-01 -2.032827772200107574e-02 1.364088654518127441e-01 -2.138407677412033081e-01 -4.250742495059967041e-02 -1.735179424285888672e-01 2.323592156171798706e-01 -5.488201230764389038e-02 2.413551807403564453e-01 -4.452646523714065552e-02 3.135339170694351196e-02 8.813831023871898651e-03 4.164014756679534912e-02 -1.106741577386856079e-01 -1.784495562314987183e-01 -1.529184728860855103e-01 5.754424631595611572e-02 6.421865895390510559e-03 1.345318704843521118e-01 1.249749436974525452e-01 0.000000000000000000e+00 0.000000000000000000e+00 -0.000000000000000000e+00 -0.000000000000000000e+00 0.000000000000000000e+00 0.000000000000000000e+00 0.000000000000000000e+00 0.000000000000000000e+00 -0.000000000000000000e+00 0.000000000000000000e+00 0.000000000000000000e+00 -0.000000000000000000e+00 0.000000000000000000e+00 0.000000000000000000e+00 0.000000000000000000e+00 -0.000000000000000000e+00 0.000000000000000000e+00 -0.000000000000000000e+00 -0.000000000000000000e+00 0.000000000000000000e+00 -0.000000000000000000e+00 0.000000000000000000e+00 -0.000000000000000000e+00 0.000000000000000000e+00 -0.000000000000000000e+00 0.000000000000000000e+00 -0.000000000000000000e+00 -0.000000000000000000e+00 -0.000000000000000000e+00 -0.000000000000000000e+00 0.000000000000000000e+00 -0.000000000000000000e+00 -0.000000000000000000e+00 0.000000000000000000e+00 -0.000000000000000000e+00 -0.000000000000000000e+00 0.000000000000000000e+00 -0.000000000000000000e+00 -0.000000000000000000e+00 -0.000000000000000000e+00 0.000000000000000000e+00 -0.000000000000000000e+00 -0.000000000000000000e+00 0.000000000000000000e+00 -0.000000000000000000e+00 -0.000000000000000000e+00 -0.000000000000000000e+00 -0.000000000000000000e+00 0.000000000000000000e+00 0.000000000000000000e+00 0.000000000000000000e+00 0.000000000000000000e+00 0.000000000000000000e+00 0.000000000000000000e+00 -0.000000000000000000e+00 0.000000000000000000e+00 0.000000000000000000e+00 0.000000000000000000e+00 -0.000000000000000000e+00 -0.000000000000000000e+00 -0.000000000000000000e+00 0.000000000000000000e+00 -0.000000000000000000e+00 0.000000000000000000e+00
-2.214797139167785645e-01 1.698350608348846436e-01 -3.385050892829895020e-01 -1.702264100313186646e-01 -1.056602573953568935e-03 4.203196242451667786e-02 1.732040345668792725e-01 -1.660588979721069336e-01 -4.332089796662330627e-02 7.946886122226715088e-03 -1.941373646259307861e-01 4.360314831137657166e-02 6.419319659471511841e-02 -1.755934804677963257e-01 -1.037861630320549011e-01 -2.332116663455963135e-01 1.475679315626621246e-02 2.048354297876358032e-01 9.048949927091598511e-03 -4.193169251084327698e-02 -1.079245433211326599e-01 -3.891107812523841858e-02 -1.652625948190689087e-01 3.137155771255493164e-01 6.183880195021629333e-02 -1.117841526865959167e-02 -1.845195293426513672e-01 2.579285390675067902e-02 -1.223258897662162781e-01 -1.404951512813568115e-01 -5.538642778992652893e-02 -7.168118655681610107e-02 -2.015562802553176880e-01 -1.084863767027854919e-01 -1.894778460264205933e-01 5.617466941475868225e-02 1.983361095190048218e-01 1.225243061780929565e-01 -2.123845517635345459e-01 -5.038912966847419739e-02 2.412175089120864868e-01 -2.634376585483551025e-01 -2.019182145595550537e-01 -3.116049468517303467e-01 9.756585210561752319e-02 -1.334548741579055786e-01 -8.859083801507949829e-02 -9.124873578548431396e-02 5.704135075211524963e-02 -2.207819074392318726e-01 -2.470256239175796509e-01 -1.229705139994621277e-01 7.135511189699172974e-02 1.444922201335430145e-02 2.660769224166870117e-01 -2.843437530100345612e-02 -4.951461218297481537e-03 3.745150938630104065e-02 -8.795381337404251099e-02 -2.142943441867828369e-01 8.042047731578350067e-03 7.902903109788894653e-02 -1.931689865887165070e-02 -5.404996499419212341e-02 0.000000000000000000e+00 0.000000000000000000e+00 -0.000000000000000000e+00 -0.000000000000000000e+00 0.000000000000000000e+00 -0.000000000000000000e+00 -0.000000000000000000e+00 0.000000000000000000e+00 0.000000000000000000e+00 -0.000000000000000000e+00 0.000000000000000000e+00 0.000000000000000000e+00 0.000000000000000000e+00 -0.000000000000000000e+00 -0.000000000000000000e+00 0.000000000000000000e+00 -0.000000000000000000e+00 -0.000000000000000000e+00 0.000000000000000000e+00 -0.000000000000000000e+00 -0.000000000000000000e+00 0.000000000000000000e+00 -0.000000000000000000e+00 -0.000000000000000000e+00 0.000000000000000000e+00 0.000000000000000000e+00 -0.000000000000000000e+00 0.000000000000000000e+00 0.000000000000000000e+00 -0.000000000000000000e+00 -0.000000000000000000e+00 0.000000000000000000e+00 -0.000000000000000000e+00 0.000000000000000000e+00 -0.000000000000000000e+00 -0.000000000000000000e+00 0.000000000000000000e+00 0.000000000000000000e+00 -0.000000000000000000e+00 0.000000000000000000e+00 0.000000000000000000e+00 -0.000000000000000000e+00 -0.000000000000000000e+00 -0.000000000000000000e+00 -0.000000000000000000e+00 0.000000000000000000e+00 -0.000000000000000000e+00 -0.000000000000000000e+00 -0.000000000000000000e+00 -0.000000000000000000e+00 -0.000000000000000000e+00 0.000000000000000000e+00 0.000000000000000000e+00 -0.000000000000000000e+00 0.000000000000000000e+00 -0.000000000000000000e+00 0.000000000000000000e+00 -0.000000000000000000e+00 0.000000000000000000e+00 0.000000000000000000e+00 0.000000000000000000e+00 -0.000000000000000000e+00 0.000000000000000000e+00 0.000000000000000000e+00
-1.009314283728599548e-01 6.814307719469070435e-02 -1.380016207695007324e-01 1.147039234638214111e-01 -2.674467302858829498e-02 -1.106944754719734192e-01 -6.933718174695968628e-02 -1.532871127128601074e-01 1.111026853322982788e-01 1.580514609813690186e-01 2.324363216757774353e-02 1.554923355579376221e-01 -2.065114229917526245e-01 -2.527289092540740967e-01 1.587965637445449829e-01 -5.472645908594131470e-02 -2.237241566181182861e-01 6.265733391046524048e-02 1.319179385900497437e-01 3.120346739888191223e-02 -2.650007307529449463e-01 -9.500849992036819458e-02 6.099611148238182068e-02 9.980371221899986267e-03 1.098049432039260864e-01 2.168159466236829758e-03 1.308588385581970215e-01 1.271856725215911865e-01 -2.521696686744689941e-01 -2.466513961553573608e-01 -3.053921759128570557e-01 1.136382371187210083e-01 8.948981761932373047e-02 -5.788128077983856201e-02 -1.479761488735675812e-02 -2.086168155074119568e-02 -3.989109694957733154e-01 3.252311050891876221e-02 -2.245159745216369629e-01 6.942144781351089478e-02 -1.664757356047630310e-02 1.498848013579845428e-02 -1.161772534251213074e-01 2.493484169244766235e-01 5.066283792257308960e-02 -3.897135704755783081e-02 -1.242425143718719482e-01 7.634633034467697144e-02 -2.003969997167587280e-02 -1.640419960021972656e-01 -7.048305124044418335e-02 7.376473513431847095e-04 1.875906586647033691e-01 -1.553431600332260132e-01 1.412216871976852417e-01 -1.239728257060050964e-01 3.738424926996231079e-02 1.331322938203811646e-01 5.053304880857467651e-02 4.492919147014617920e-02 1.546231955289840698e-01 -1.527895033359527588e-01 -1.331851780414581299e-01 -1.049269735813140869e-01 0.000000000000000000e+00 -0.000000000000000000e+00 0.000000000000000000e+00 -0.000000000000000000e+00 -0.000000000000000000e+00 0.000000000000000000e+00 0.000000000000000000e+00 0.000000000000000000e+00 -0.000000000000000000e+00 0.000000000000000000e+00 0.000000000000000000e+00 0.000000000000000000e+00 -0.000000000000000000e+00 -0.000000000000000000e+00 -0.000000000000000000e+00 0.000000000000000000e+00 0.000000000000000000e+00 0.000000000000000000e+00 -0.000000000000000000e+00 -0.000000000000000000e+00 0.000000000000000000e+00 0.000000000000000000e+00 0.000000000000000000e+00 0.000000000000000000e+00 -0.000000000000000000e+00 -0.000000000000000000e+00 0.000000000000000000e+00 -0.000000000000000000e+00 -0.000000000000000000e+00 -0.000000000000000000e+00 -0.000000000000000000e+00 -0.000000000000000000e+00 -0.000000000000000000e+00 -0.000000000000000000e+00 -0.000000000000000000e+00 0.000000000000000000e+00 -0.000000000000000000e+00 -0.000000000000000000e+00 -0.000000000000000000e+00 -0.000000000000000000e+00 -0.000000000000000000e+00 -0.000000000000000000e+00 -0.000000000000000000e+00 0.000000000000000000e+00 0.000000000000000000e+00 -0.000000000000000000e+00 -0.000000000000000000e+00 -0.000000000000000000e+00 -0.000000000000000000e+00 0.000000000000000000e+00 -0.000000000000000000e+00 -0.000000000000000000e+00 0.000000000000000000e+00 0.000000000000000000e+00 -0.000000000000000000e+00 -0.000000000000000000e+00 0.000000000000000000e+00 0.000000000000000000e+00 0.000000000000000000e+00 -0.000000000000000000e+00 0.000000000000000000e+00 -0.000000000000000000e+00 0.000000000000000000e+00 -0.000000000000000000e+00
1.704782694578170776e-01 6.496974825859069824e-02 3.330513089895248413e-02 -2.551519684493541718e-02 -1.681740731000900269e-01 1.241155564785003662e-01 1.070749163627624512e-01 3.235552832484245300e-02 -4.864943772554397583e-02 -2.161652594804763794e-02 8.708748221397399902e-02 1.614980697631835938e-01 4.627045094966888428e-01 -1.013844981789588928e-01 1.513278670608997345e-02 6.892980635166168213e-02 1.617563813924789429e-01 -4.784597083926200867e-02 -1.871463060379028320e-01 1.288568228483200073e-01 -1.244187131524085999e-01 4.696712270379066467e-02 4.475874826312065125e-02 -1.748756319284439087e-02 -4.110464453697204590e-01 -1.167546063661575317e-01 8.818774670362472534e-02 -1.129584461450576782e-01 2.184436470270156860e-02 -1.168202757835388184e-01 1.150913834571838379e-01 1.149116605520248413e-01 7.998426258563995361e-02 -1.357573270797729492e-01 1.339089218527078629e-02 -2.852617017924785614e-02 2.494038343429565430e-01 1.781836599111557007e-01 -2.330900579690933228e-01 1.891561895608901978e-01 6.274703145027160645e-02 2.893778681755065918e-02 2.267588302493095398e-02 7.886300981044769287e-02 1.339796632528305054e-01 1.356176137924194336e-01 1.101202741265296936e-01 -1.853514909744262695e-01 -6.891156733036041260e-02 -3.063714504241943359e-01 3.636976182460784912e-01 -7.386485487222671509e-02 1.454008668661117554e-01 -2.470159381628036499e-01 9.581397287547588348e-03 -7.432416081428527832e-02 -3.696981966495513916e-01 -1.068196669220924377e-01 -9.137521684169769287e-02 -3.405792117118835449e-01 2.331945151090621948e-01 1.436049789190292358e-01 -9.919062256813049316e-02 -1.504186987876892090e-01 -0.000000000000000000e+00 -0.000000000000000000e+00 -0.000000000000000000e+00 -0.000000000000000000e+00 0.000000000000000000e+00 -0.000000000000000000e+00 0.000000000000000000e+00 -0.000000000000000000e+00 -0.000000000000000000e+00 0.000000000000000000e+00 -0.000000000000000000e+00 -0.000000000000000000e+00 0.000000000000000000e+00 -0.000000000000000000e+00 0.000000000000000000e+00 0.000000000000000000e+00 -0.000000000000000000e+00 0.000000000000000000e+00 0.000000000000000000e+00 0.000000000000000000e+00 0.000000000000000000e+00 -0.000000000000000000e+00 -0.000000000000000000e+00 -0.000000000000000000e+00 -0.000000000000000000e+00 -0.000000000000000000e+00 0.000000000000000000e+00 0.000000000000000000e+00 -0.000000000000000000e+00 0.000000000000000000e+00 0.000000000000000000e+00 -0.000000000000000000e+00 0.000000000000000000e+00 0.000000000000000000e+00 -0.000000000000000000e+00 0.000000000000000000e+00 -0.000000000000000000e+00 0.000000000000000000e+00 0.000000000000000000e+00 0.000000000000000000e+00 -0.000000000000000000e+00 0.000000000000000000e+00 0.000000000000000000e+00 0.000000000000000000e+00 0.000000000000000000e+00 0.000000000000000000e+00 -0.000000000000000000e+00 0.000000000000000000e+00 -0.000000000000000000e+00 -0.000000000000000000e+00 -0.000000000000000000e+00 -0.000000000000000000e+00 -0.000000000000000000e+00 0.000000000000000000e+00 -0.000000000000000000e+00 -0.000000000000000000e+00 -0.000000000000000000e+00 0.000000000000000000e+00 -0.000000000000000000e+00 0.000000000000000000e+00 -0.000000000000000000e+00 -0.000000000000000000e+00 -0.000000000000000000e+00 0.000000000000000000e+00
1.131625473499298096e-01 9.267525747418403625e-03 1.060529202222824097e-01 2.578229308128356934e-01 1.502933502197265625e-01 2.098400145769119263e-01 -5.838314536958932877e-03 1.064807027578353882e-01 2.581303939223289490e-02 -1.843782812356948853e-01 -3.428188562393188477e-01 -5.410401895642280579e-02 7.163116335868835449e-02 3.007318079471588135e-01 -8.226418495178222656e-02 -1.383359879255294800e-01 -2.767639234662055969e-02 -2.608025632798671722e-02 -1.243179589509963989e-01 2.445715665817260742e-01 2.132071405649185181e-01 4.088923800736665726e-03 1.473332047462463379e-01 -5.510858073830604553e-02 2.003312855958938599e-02 -2.843062579631805420e-01 -9.307873249053955078e-02 -1.367623209953308105e-01 1.766015589237213135e-02 -4.027965664863586426e-02 7.396818697452545166e-02 -2.554954886436462402e-01 -2.150871455669403076e-01 -5.811857804656028748e-02 1.447164416313171387e-01 7.354904711246490479e-02 2.036411464214324951e-01 9.999631345272064209e-02 2.676998972892761230e-01 2.400297969579696655e-01 6.787258386611938477e-02 1.736759394407272339e-02 4.325029253959655762e-02 1.475544273853302002e-01 7.704675197601318359e-02 1.789308153092861176e-02 1.609908789396286011e-01 -1.152061447501182556e-01 2.249201238155364990e-01 1.942280381917953491e-01 -8.492214977741241455e-02 1.211184561252593994e-01 7.779008150100708008e-02 -9.543679654598236084e-02 -3.837516307830810547e-01 2.633897662162780762e-01 -1.462356150150299072e-01 7.606540620326995850e-02 6.185688450932502747e-02 7.968735694885253906e-02 1.167852729558944702e-01 1.389524936676025391e-01 1.211734563112258911e-01 1.399918347597122192e-01 -0.000000000000000000e+00 0.000000000000000000e+00 -0.000000000000000000e+00 -0.000000000000000000e+00 -0.000000000000000000e+00 -0.000000000000000000e+00 -0.000000000000000000e+00 0.000000000000000000e+00 -0.000000000000000000e+00 0.000000000000000000e+00 -0.000000000000000000e+00 -0.000000000000000000e+00 -0.000000000000000000e+00 -0.000000000000000000e+00 -0.000000000000000000e+00 -0.000000000000000000e+00 -0.000000000000000000e+00 0.000000000000000000e+00 -0.000000000000000000e+00 0.000000000000000000e+00 -0.000000000000000000e+00 0.000000000000000000e+00 -0.000000000000000000e+00 -0.000000000000000000e+00 0.000000000000000000e+00 0.000000000000000000e+00 0.000000000000000000e+00 0.000000000000000000e+00 0.000000000000000000e+00 0.000000000000000000e+00 -0.000000000000000000e+00 -0.000000000000000000e+00 -0.000000000000000000e+00 0.000000000000000000e+00 0.000000000000000000e+00 -0.000000000000000000e+00 0.000000000000000000e+00 0.000000000000000000e+00 -0.000000000000000000e+00 0.000000000000000000e+00 -0.000000000000000000e+00 -0.000000000000000000e+00 0.000000000000000000e+00 0.000000000000000000e+00 0.000000000000000000e+00 -0.000000000000000000e+00 -0.000000000000000000e+00 -0.000000000000000000e+00 -0.000000000000000000e+00 -0.000000000000000000e+00 0.000000000000000000e+00 -0.000000000000000000e+00 0.000000000000000000e+00 0.000000000000000000e+00 0.000000000000000000e+00 0.000000000000000000e+00 0.000000000000000000e+00 -0.000000000000000000e+00 0.000000000000000000e+00 0.000000000000000000e+00 -0.000000000000000000e+00 0.000000000000000000e+00 -0.000000000000000000e+00 0.000000000000000000e+00
2.331324815750122070e-01 1.008663251996040344e-01 1.036529056727886200e-02 9.207301586866378784e-02 -9.879050776362419128e-03 -1.459028124809265137e-01 1.627360880374908447e-01 -4.738052561879158020e-02 4.269061610102653503e-03 7.309924811124801636e-02 8.660144358873367310e-02 -4.914956167340278625e-02 1.774794161319732666e-01 2.521675452589988708e-02 -2.535358667373657227e-01 4.034732654690742493e-02 1.794068217277526855e-01 7.315549068152904510e-03 -1.966193877160549164e-02 5.547292903065681458e-02 -3.484716638922691345e-02 1.773462295532226562e-01 3.386853262782096863e-02 -3.073403835296630859e-01 -2.281442470848560333e-02 -1.494901180267333984e-01 1.125473156571388245e-01 -2.794974856078624725e-02 5.405684933066368103e-02 2.304899692535400391e-02 1.395363174378871918e-02 -2.167389690876007080e-01 -2.049924135208129883e-01 -1.107543036341667175e-01 1.107082292437553406e-01 -6.479156762361526489e-02 1.196888759732246399e-01 -2.356650978326797485e-01 -1.861979067325592041e-01 2.132562994956970215e-01 -6.987038999795913696e-02 2.049632668495178223e-01 -4.567943140864372253e-02 2.624845802783966064e-01 3.333644568920135498e-01 8.077593892812728882e-02 -1.269766688346862793e-01 -7.965688407421112061e-02 -1.908387094736099243e-01 -1.905254721641540527e-01 9.652065485715866089e-02 1.239377632737159729e-01 -4.165646806359291077e-02 -1.152327284216880798e-01 2.660730779170989990e-01 6.973711401224136353e-02 1.889469325542449951e-01 2.910715155303478241e-02 -1.799959242343902588e-01 -6.432478874921798706e-02 -2.323957979679107666e-01 9.058851748704910278e-02 -7.098745554685592651e-02 -1.948793828487396240e-01 -0.000000000000000000e+00 0.000000000000000000e+00 -0.000000000000000000e+00 0.000000000000000000e+00 0.000000000000000000e+00 0.000000000000000000e+00 -0.000000000000000000e+00 0.000000000000000000e+00 0.000000000000000000e+00 -0.000000000000000000e+00 0.000000000000000000e+00 -0.000000000000000000e+00 -0.000000000000000000e+00 -0.000000000000000000e+00 0.000000000000000000e+00 0.000000000000000000e+00 0.000000000000000000e+00 -0.000000000000000000e+00 0.000000000000000000e+00 0.000000000000000000e+00 0.000000000000000000e+00 0.000000000000000000e+00 0.000000000000000000e+00 0.000000000000000000e+00 0.000000000000000000e+00 -0.000000000000000000e+00 0.000000000000000000e+00 0.000000000000000000e+00 0.000000000000000000e+00 -0.000000000000000000e+00 0.000000000000000000e+00 0.000000000000000000e+00 -0.000000000000000000e+00 0.000000000000000000e+00 -0.000000000000000000e+00 0.000000000000000000e+00 0.000000000000000000e+00 -0.000000000000000000e+00 0.000000000000000000e+00 -0.000000000000000000e+00 -0.000000000000000000e+00 -0.000000000000000000e+00 -0.000000000000000000e+00 0.000000000000000000e+00 0.000000000000000000e+00 -0.000000000000000000e+00 0.000000000000000000e+00 0.000000000000000000e+00 -0.000000000000000000e+00 0.000000000000000000e+00 -0.000000000000000000e+00 0.000000000000000000e+00 0.000000000000000000e+00 0.000000000000000000e+00 0.000000000000000000e+00 0.000000000000000000e+00 -0.000000000000000000e+00 0.000000000000000000e+00 0.000000000000000000e+00 -0.000000000000000000e+00 -0.000000000000000000e+00 0.000000000000000000e+00 -0.000000000000000000e+00 0.000000000000000000e+00
-9.788170456886291504e-02 2.645504176616668701e-01 5.936578288674354553e-02 -1.120255514979362488e-01 -1.665496453642845154e-02 5.116108655929565430e-01 1.204945612698793411e-02 3.625864088535308838e-01 1.575592756271362305e-01 -2.742286622524261475e-01 2.601512074470520020e-01 6.760236620903015137e-02 -1.051305755972862244e-01 1.286287456750869751e-01 4.236629977822303772e-02 -1.322523597627878189e-02 -1.915932148694992065e-01 3.961789906024932861e-01 1.622197628021240234e-01 1.255089193582534790e-01 1.006919592618942261e-01 -3.817867115139961243e-02 -3.178513422608375549e-02 1.720042228698730469e-01 1.346352417021989822e-02 -1.167116090655326843e-01 -7.233283016830682755e-03 6.378565728664398193e-02 -1.112197935581207275e-01 1.171004325151443481e-01 -6.304346024990081787e-03 -7.384657859802246094e-02 2.151302620768547058e-02 1.020798925310373306e-02 -1.295570433139801025e-01 4.119397327303886414e-02 -8.100141584873199463e-02 -1.202123537659645081e-01 4.911679401993751526e-02 1.843231320381164551e-01 2.995143271982669830e-02 1.212206482887268066e-01 -1.380376964807510376e-01 -9.482073783874511719e-02 -1.083114892244338989e-01 2.117043584585189819e-01 3.700972720980644226e-02 -1.804050356149673462e-01 -1.540144085884094238e-01 4.074994847178459167e-02 -8.638593554496765137e-02 -1.865774691104888916e-01 9.566916851326823235e-04 -8.194614946842193604e-02 7.617510110139846802e-02 -1.723669320344924927e-01 -1.007892638444900513e-01 -4.903852567076683044e-02 -9.548325836658477783e-02 2.046360075473785400e-01 8.778870105743408203e-02 -4.189563915133476257e-02 -5.520402640104293823e-02 -6.083181500434875488e-02 0.000000000000000000e+00 0.000000000000000000e+00 0.000000000000000000e+00 0.000000000000000000e+00 0.000000000000000000e+00 -0.000000000000000000e+00 0.000000000000000000e+00 0.000000000000000000e+00 0.000000000000000000e+00 0.000000000000000000e+00 -0.000000000000000000e+00 0.000000000000000000e+00 -0.000000000000000000e+00 0.000000000000000000e+00 -0.000000000000000000e+00 -0.000000000000000000e+00 0.000000000000000000e+00 -0.000000000000000000e+00 0.000000000000000000e+00 -0.000000000000000000e+00 -0.000000000000000000e+00 -0.000000000000000000e+00 -0.000000000000000000e+00 0.000000000000000000e+00 -0.000000000000000000e+00 0.000000000000000000e+00 0.000000000000000000e+00 -0.000000000000000000e+00 0.000000000000000000e+00 0.000000000000000000e+00 0.000000000000000000e+00 0.000000000000000000e+00 0.000000000000000000e+00 0.000000000000000000e+00 -0.000000000000000000e+00 0.000000000000000000e+00 0.000000000000000000e+00 0.000000000000000000e+00 -0.000000000000000000e+00 0.000000000000000000e+00 0.000000000000000000e+00 0.000000000000000000e+00 -0.000000000000000000e+00 -0.000000000000000000e+00 0.000000000000000000e+00 -0.000000000000000000e+00 0.000000000000000000e+00 0.000000000000000000e+00 -0.000000000000000000e+00 0.000000000000000000e+00 -0.000000000000000000e+00 0.000000000000000000e+00 -0.000000000000000000e+00 -0.000000000000000000e+00 0.000000000000000000e+00 0.000000000000000000e+00 -0.000000000000000000e+00 0.000000000000000000e+00 -0.000000000000000000e+00 -0.000000000000000000e+00 0.000000000000000000e+00 -0.000000000000000000e+00 -0.000000000000000000e+00 -0.000000000000000000e+00
2.089802473783493042e-01 1.326894909143447876e-01 4.119336232542991638e-02 1.164607554674148560e-01 -4.458409920334815979e-02 -3.475180268287658691e-02 -9.802635014057159424e-02 1.296131610870361328e-01 -9.088145941495895386e-02 2.241227626800537109e-01 3.438358604907989502e-01 1.304418891668319702e-01 -1.012876406311988831e-01 -1.712463051080703735e-01 3.596370294690132141e-02 2.893471121788024902e-01 1.206278949975967407e-01 -1.126766949892044067e-02 4.359857179224491119e-03 3.351266682147979736e-01 -1.882308721542358398e-01 2.252779006958007812e-01 1.439164280891418457e-01 5.918699502944946289e-02 -1.041462495923042297e-01 -1.110776066780090332e-01 1.234884411096572876e-01 5.461744219064712524e-02 1.300081610679626465e-01 2.301107048988342285e-01 1.628406792879104614e-01 1.690151095390319824e-01 -2.328569144010543823e-01 -8.459089696407318115e-02 -2.848509699106216431e-02 -1.039198935031890869e-01 1.474164426326751709e-01 -1.650260984897613525e-01 -4.341229423880577087e-02 -1.599001116119325161e-03 1.268033385276794434e-01 -3.736152499914169312e-02 2.416199818253517151e-02 2.053519189357757568e-01 -3.000651895999908447e-01 2.605421543121337891e-01 -6.437750905752182007e-02 -1.940073221921920776e-01 4.329568892717361450e-02 1.713723503053188324e-02 -1.275666505098342896e-01 -3.503343462944030762e-02 7.776810787618160248e-03 5.530315637588500977e-02 -1.147436574101448059e-01 8.893330581486225128e-03 -2.068265974521636963e-01 -1.238319426774978638e-01 2.005518525838851929e-01 1.094572525471448898e-02 1.697171130217611790e-03 -7.921252399682998657e-02 8.235744386911392212e-02 -1.051169112324714661e-01 -0.000000000000000000e+00 -0.000000000000000000e+00 -0.000000000000000000e+00 -0.000000000000000000e+00 0.000000000000000000e+00 0.000000000000000000e+00 0.000000000000000000e+00 -0.000000000000000000e+00 0.000000000000000000e+00 -0.000000000000000000e+00 0.000000000000000000e+00 -0.000000000000000000e+00 0.000000000000000000e+00 -0.000000000000000000e+00 0.000000000000000000e+00 0.000000000000000000e+00 0.000000000000000000e+00 -0.000000000000000000e+00 0.000000000000000000e+00 -0.000000000000000000e+00 -0.000000000000000000e+00 0.000000000000000000e+00 0.000000000000000000e+00 -0.000000000000000000e+00 0.000000000000000000e+00 -0.000000000000000000e+00 0.000000000000000000e+00 -0.000000000000000000e+00 0.000000000000000000e+00 0.000000000000000000e+00 0.000000000000000000e+00 -0.000000000000000000e+00 0.000000000000000000e+00 0.000000000000000000e+00 0.000000000000000000e+00 -0.000000000000000000e+00 -0.000000000000000000e+00 -0.000000000000000000e+00 0.000000000000000000e+00 0.000000000000000000e+00 -0.000000000000000000e+00 -0.000000000000000000e+00 -0.000000000000000000e+00 -0.000000000000000000e+00 -0.000000000000000000e+00 -0.000000000000000000e+00 -0.000000000000000000e+00 -0.000000000000000000e+00 -0.000000000000000000e+00 -0.000000000000000000e+00 -0.000000000000000000e+00 0.000000000000000000e+00 0.000000000000000000e+00 0.000000000000000000e+00 -0.000000000000000000e+00 0.000000000000000000e+00 0.000000000000000000e+00 -0.000000000000000000e+00 -0.000000000000000000e+00 0.000000000000000000e+00 -0.000000000000000000e+00 0.000000000000000000e+00 -0.000000000000000000e+00 0.000000000000000000e+00
-2.597990930080413818e-01 -8.238836377859115601e-02 -1.671280153095722198e-02 4.933014512062072754e-02 7.199183851480484009e-02 1.347867399454116821e-01 -1.792837865650653839e-02 -9.278095327317714691e-03 -2.194388955831527710e-01 -6.467216298915445805e-04 1.344732046127319336e-01 3.198649585247039795e-01 -1.031830459833145142e-01 -2.042193859815597534e-01 -2.069955132901668549e-02 1.137070730328559875e-01 7.504015415906906128e-02 -2.145260125398635864e-01 8.580882102251052856e-02 3.512795269489288330e-01 7.436211407184600830e-02 -5.028281360864639282e-03 -9.283145517110824585e-02 -8.750568958930671215e-04 9.683027118444442749e-02 4.086284432560205460e-03 -1.110361516475677490e-01 2.343446575105190277e-02 -1.434658914804458618e-01 8.009608089923858643e-02 1.153694018721580505e-01 -4.211987182497978210e-02 2.137644439935684204e-01 -1.932057589292526245e-01 -7.836092263460159302e-02 2.180833555757999420e-02 2.586003243923187256e-01 -8.350253850221633911e-02 -2.437497824430465698e-01 -9.305611997842788696e-02 7.076764479279518127e-03 -7.224733382463455200e-02 3.176054656505584717e-01 3.740325272083282471e-01 1.768165268003940582e-02 6.266025453805923462e-02 8.407701738178730011e-03 -6.492096185684204102e-02 2.573803067207336426e-01 -2.253012545406818390e-02 -8.939000219106674194e-02 8.201067894697189331e-02 -1.188983097672462463e-01 -4.046660289168357849e-02 6.446392089128494263e-02 -1.525653293356299400e-03 2.175361104309558868e-02 -3.022963367402553558e-02 -7.540833204984664917e-02 3.299585282802581787e-01 -4.543419182300567627e-02 6.188048049807548523e-02 -1.127969101071357727e-01 1.402046531438827515e-01 0.000000000000000000e+00 0.000000000000000000e+00 0.000000000000000000e+00 0.000000000000000000e+00 -0.000000000000000000e+00 0.000000000000000000e+00 0.000000000000000000e+00 -0.000000000000000000e+00 0.000000000000000000e+00 -0.000000000000000000e+00 -0.000000000000000000e+00 -0.000000000000000000e+00 0.000000000000000000e+00 -0.000000000000000000e+00 -0.000000000000000000e+00 0.000000000000000000e+00 0.000000000000000000e+00 -0.000000000000000000e+00 0.000000000000000000e+00 0.000000000000000000e+00 0.000000000000000000e+00 -0.000000000000000000e+00 0.000000000000000000e+00 -0.000000000000000000e+00 -0.000000000000000000e+00 0.000000000000000000e+00 -0.000000000000000000e+00 -0.000000000000000000e+00 0.000000000000000000e+00 -0.000000000000000000e+00 0.000000000000000000e+00 -0.000000000000000000e+00 0.000000000000000000e+00 0.000000000000000000e+00 -0.000000000000000000e+00 0.000000000000000000e+00 0.000000000000000000e+00 -0.000000000000000000e+00 0.000000000000000000e+00 -0.000000000000000000e+00 -0.000000000000000000e+00 -0.000000000000000000e+00 0.000000000000000000e+00 0.000000000000000000e+00 0.000000000000000000e+00 -0.000000000000000000e+00 0.000000000000000000e+00 -0.000000000000000000e+00 -0.000000000000000000e+00 0.000000000000000000e+00 0.000000000000000000e+00 -0.000000000000000000e+00 0.000000000000000000e+00 -0.000000000000000000e+00 0.000000000000000000e+00 -0.000000000000000000e+00 -0.000000000000000000e+00 0.000000000000000000e+00 0.000000000000000000e+00 0.000000000000000000e+00 -0.000000000000000000e+00 -0.000000000000000000e+00 0.000000000000000000e+00 -0.000000000000000000e+00
1.116448119282722473e-01 1.625059843063354492e-01 -7.133948057889938354e-02 3.807892277836799622e-02 5.587313324213027954e-02 2.511188387870788574e-02 -2.258379198610782623e-02 -8.021085523068904877e-03 1.483172550797462463e-02 1.913502812385559082e-02 1.206280011683702469e-02 -1.590408533811569214e-01 -3.373411251232028008e-03 -5.714789777994155884e-02 2.334511876106262207e-01 5.714989081025123596e-02 -1.576414555311203003e-01 -2.455702424049377441e-01 -1.234335675835609436e-01 2.744280397891998291e-01 -1.454084217548370361e-01 -9.207727760076522827e-02 1.409342736005783081e-01 4.266922548413276672e-02 -1.874080002307891846e-01 -3.289646208286285400e-01 -7.097045332193374634e-02 2.102283686399459839e-01 1.152419820427894592e-01 1.342902034521102905e-01 1.417429149150848389e-01 -5.457227304577827454e-02 3.863772749900817871e-01 -3.189940005540847778e-02 -1.704627871513366699e-01 5.600706338882446289e-01 -1.951016299426555634e-02 1.341457664966583252e-01 2.474541068077087402e-01 4.914956633001565933e-03 1.686979681253433228e-01 -1.588710099458694458e-01 -7.357811182737350464e-02 1.723902300000190735e-02 -1.144107803702354431e-01 -1.186121720820665359e-02 -6.957835704088211060e-02 2.926972210407257080e-01 -1.322863847017288208e-01 -3.120457753539085388e-02 -1.713775843381881714e-01 -5.747447535395622253e-02 -1.950499117374420166e-01 5.051457509398460388e-02 -9.510403126478195190e-02 1.511166542768478394e-01 9.387531131505966187e-02 -1.838888823986053467e-01 -1.321988701820373535e-01 1.471841782331466675e-01 9.249263256788253784e-02 1.644026488065719604e-02 -3.367867469787597656e-01 1.613350957632064819e-01 -0.000000000000000000e+00 0.000000000000000000e+00 0.000000000000000000e+00 -0.000000000000000000e+00 0.000000000000000000e+00 -0.000000000000000000e+00 0.000000000000000000e+00 0.000000000000000000e+00 0.000000000000000000e+00 -0.000000000000000000e+00 0.000000000000000000e+00 0.000000000000000000e+00 0.000000000000000000e+00 0.000000000000000000e+00 -0.000000000000000000e+00 0.000000000000000000e+00 0.000000000000000000e+00 0.000000000000000000e+00 -0.000000000000000000e+00 0.000000000000000000e+00 -0.000000000000000000e+00 -0.000000000000000000e+00 0.000000000000000000e+00 0.000000000000000000e+00 -0.000000000000000000e+00 -0.000000000000000000e+00 -0.000000000000000000e+00 0.000000000000000000e+00 -0.000000000000000000e+00 -0.000000000000000000e+00 0.000000000000000000e+00 0.000000000000000000e+00 0.000000000000000000e+00 0.000000000000000000e+00 -0.000000000000000000e+00 0.000000000000000000e+00 -0.000000000000000000e+00 -0.000000000000000000e+00 0.000000000000000000e+00 0.000000000000000000e+00 0.000000000000000000e+00 0.000000000000000000e+00 0.000000000000000000e+00 -0.000000000000000000e+00 0.000000000000000000e+00 0.000000000000000000e+00 -0.000000000000000000e+00 0.000000000000000000e+00 0.000000000000000000e+00 -0.000000000000000000e+00 -0.000000000000000000e+00 -0.000000000000000000e+00 -0.000000000000000000e+00 0.000000000000000000e+00 -0.000000000000000000e+00 -0.000000000000000000e+00 0.000000000000000000e+00 0.000000000000000000e+00 0.000000000000000000e+00 -0.000000000000000000e+00 0.000000000000000000e+00 0.000000000000000000e+00 0.000000000000000000e+00 -0.000000000000000000e+00
-2.044571340084075928e-01 1.898352801799774170e-01 -2.851266786456108093e-02 -1.289184093475341797e-01 -1.182600408792495728e-01 2.262526452541351318e-01 -5.175202339887619019e-02 -1.070504188537597656e-01 -5.517551675438880920e-03 -5.263153463602066040e-02 1.785974800586700439e-01 -2.103881537914276123e-01 1.215408518910408020e-01 1.707489043474197388e-01 2.353704273700714111e-01 -2.305899560451507568e-01 -1.393501758575439453e-01 -7.143451832234859467e-03 1.216475740075111389e-01 1.427731066942214966e-01 1.694369912147521973e-01 1.599616706371307373e-01 5.515307188034057617e-02 -9.827684611082077026e-03 -1.538999378681182861e-01 1.935959607362747192e-01 5.827884376049041748e-02 2.009310424327850342e-01 -2.004595100879669189e-01 3.022032976150512695e-01 -2.476028539240360260e-02 1.508001089096069336e-01 -1.630540788173675537e-01 -8.890905231237411499e-02 1.649106144905090332e-01 -6.638865917921066284e-02 6.734964251518249512e-02 -4.060314223170280457e-02 2.412701547145843506e-01 1.968463957309722900e-01 -1.332997679710388184e-01 -2.264366447925567627e-01 2.700061500072479248e-01 9.134788066148757935e-03 -1.877554878592491150e-02 2.488848939538002014e-02 5.149928480386734009e-02 1.437097489833831787e-01 -3.370833992958068848e-01 -2.011629641056060791e-01 -1.747048795223236084e-01 -5.242719501256942749e-02 -5.570304766297340393e-02 -1.466524004936218262e-01 5.936685018241405487e-03 7.242073118686676025e-02 -1.655047237873077393e-01 1.320602148771286011e-01 -3.851434588432312012e-02 -3.460848238319158554e-04 -5.125461518764495850e-02 2.846774756908416748e-01 8.453338593244552612e-02 -8.051302284002304077e-03 0.000000000000000000e+00 -0.000000000000000000e+00 -0.000000000000000000e+00 -0.000000000000000000e+00 0.000000000000000000e+00 -0.000000000000000000e+00 -0.000000000000000000e+00 0.000000000000000000e+00 -0.000000000000000000e+00 0.000000000000000000e+00 -0.000000000000000000e+00 0.000000000000000000e+00 0.000000000000000000e+00 -0.000000000000000000e+00 -0.000000000000000000e+00 -0.000000000000000000e+00 0.000000000000000000e+00 0.000000000000000000e+00 0.000000000000000000e+00 -0.000000000000000000e+00 -0.000000000000000000e+00 0.000000000000000000e+00 0.000000000000000000e+00 0.000000000000000000e+00 -0.000000000000000000e+00 -0.000000000000000000e+00 -0.000000000000000000e+00 0.000000000000000000e+00 -0.000000000000000000e+00 -0.000000000000000000e+00 0.000000000000000000e+00 -0.000000000000000000e+00 0.000000000000000000e+00 0.000000000000000000e+00 -0.000000000000000000e+00 0.000000000000000000e+00 0.000000000000000000e+00 -0.000000000000000000e+00 -0.000000000000000000e+00 0.000000000000000000e+00 -0.000000000000000000e+00 -0.000000000000000000e+00 -0.000000000000000000e+00 0.000000000000000000e+00 0.000000000000000000e+00 -0.000000000000000000e+00 0.000000000000000000e+00 0.000000000000000000e+00 -0.000000000000000000e+00 0.000000000000000000e+00 -0.000000000000000000e+00 -0.000000000000000000e+00 -0.000000000000000000e+00 0.000000000000000000e+00 0.000000000000000000e+00 0.000000000000000000e+00 -0.000000000000000000e+00 -0.000000000000000000e+00 0.000000000000000000e+00 -0.000000000000000000e+00 0.000000000000000000e+00 0.000000000000000000e+00 -0.000000000000000000e+00 0.000000000000000000e+00
-2.518768012523651123e-01 3.103852039203047752e-03 2.474722862243652344e-01 -1.314542144536972046e-01 6.645368039608001709e-02 2.632118165493011475e-01 1.057358533143997192e-01 -4.109144210815429688e-03 -1.170186325907707214e-01 1.700669527053833008e-01 -1.673796176910400391e-01 2.690256945788860321e-02 -3.820608556270599365e-01 -9.612467139959335327e-02 -4.102014005184173584e-02 1.431713551282882690e-01 -6.777162849903106689e-02 1.135666817426681519e-01 -4.137430340051651001e-02 2.572483420372009277e-01 -1.930592358112335205e-01 1.112287342548370361e-01 1.354071795940399170e-01 6.261058151721954346e-02 -3.498101830482482910e-01 -1.173768565058708191e-02 1.037230808287858963e-02 1.817200630903244019e-01 2.806926369667053223e-01 -2.434618175029754639e-01 2.571356855332851410e-02 -2.093832641839981079e-01 1.001757383346557617e-01 1.059245467185974121e-01 1.006765961647033691e-01 -3.787273913621902466e-02 1.118465065956115723e-01 1.640217304229736328e-01 3.392610326409339905e-02 -1.956793218851089478e-01 -2.563444077968597412e-01 -4.689580947160720825e-02 1.536416914314031601e-02 2.143159210681915283e-01 -4.075152426958084106e-02 -8.677755482494831085e-03 -8.904027938842773438e-02 -8.960928767919540405e-02 -1.912674866616725922e-02 -1.123282164335250854e-01 3.770775720477104187e-02 2.431214451789855957e-01 2.239093035459518433e-01 4.063987731933593750e-01 -1.010418236255645752e-01 7.149194926023483276e-02 1.248104032129049301e-02 -2.980447001755237579e-02 -5.041228607296943665e-02 1.932647824287414551e-02 -2.713491022586822510e-01 -6.169947981834411621e-02 9.465514123439788818e-02 -1.336068212985992432e-01 0.000000000000000000e+00 -0.000000000000000000e+00 -0.000000000000000000e+00 -0.000000000000000000e+00 0.000000000000000000e+00 -0.000000000000000000e+00 -0.000000000000000000e+00 -0.000000000000000000e+00 0.000000000000000000e+00 0.000000000000000000e+00 -0.000000000000000000e+00 0.000000000000000000e+00 0.000000000000000000e+00 -0.000000000000000000e+00 -0.000000000000000000e+00 0.000000000000000000e+00 0.000000000000000000e+00 0.000000000000000000e+00 0.000000000000000000e+00 -0.000000000000000000e+00 -0.000000000000000000e+00 -0.000000000000000000e+00 0.000000000000000000e+00 -0.000000000000000000e+00 0.000000000000000000e+00 0.000000000000000000e+00 0.000000000000000000e+00 -0.000000000000000000e+00 0.000000000000000000e+00 0.000000000000000000e+00 0.000000000000000000e+00 0.000000000000000000e+00 0.000000000000000000e+00 -0.000000000000000000e+00 0.000000000000000000e+00 0.000000000000000000e+00 0.000000000000000000e+00 0.000000000000000000e+00 0.000000000000000000e+00 0.000000000000000000e+00 -0.000000000000000000e+00 -0.000000000000000000e+00 0.000000000000000000e+00 -0.000000000000000000e+00 0.000000000000000000e+00 -0.000000000000000000e+00 0.000000000000000000e+00 0.000000000000000000e+00 -0.000000000000000000e+00 -0.000000000000000000e+00 0.000000000000000000e+00 0.000000000000000000e+00 -0.000000000000000000e+00 0.000000000000000000e+00 0.000000000000000000e+00 0.000000000000000000e+00 -0.000000000000000000e+00 -0.000000000000000000e+00 -0.000000000000000000e+00 0.000000000000000000e+00 -0.000000000000000000e+00 0.000000000000000000e+00 0.000000000000000000e+00 0.000000000000000000e+00
7.550754398107528687e-02 3.726736083626747131e-02 1.711403578519821167e-02 -5.136315152049064636e-02 1.882681995630264282e-01 2.013958990573883057e-01 1.516477465629577637e-01 -6.152278743684291840e-03 -9.668344259262084961e-02 7.145264535211026669e-04 -2.963204979896545410e-01 1.669338941574096680e-01 1.710977405309677124e-01 9.446822851896286011e-02 -8.689809590578079224e-02 -1.573054678738117218e-02 2.874775417149066925e-02 2.252636849880218506e-01 -1.912815272808074951e-01 2.996733225882053375e-02 3.783275932073593140e-02 1.130992844700813293e-01 7.965915650129318237e-02 1.875299513339996338e-01 -1.853813081979751587e-01 -1.254519075155258179e-01 -5.231153219938278198e-02 7.633577100932598114e-03 -1.429785490036010742e-01 -3.326323628425598145e-02 1.011591181159019470e-01 -6.275238841772079468e-02 1.861347854137420654e-01 -5.290609784424304962e-03 2.088784575462341309e-01 9.657135605812072754e-02 2.851825356483459473e-01 -2.058668732643127441e-01 -5.025637894868850708e-02 -1.485805306583642960e-02 -9.152492880821228027e-02 -6.738601624965667725e-02 -4.935301467776298523e-02 -1.258037239313125610e-01 3.743691444396972656e-01 1.380342245101928711e-01 -2.202623523771762848e-02 -1.708356738090515137e-01 -1.231856718659400940e-01 9.779442846775054932e-02 -3.470610827207565308e-02 -2.924452722072601318e-02 3.872423619031906128e-02 -8.831319957971572876e-02 3.341604471206665039e-01 -6.187078729271888733e-02 2.964128553867340088e-01 -7.336105406284332275e-02 -6.370449811220169067e-02 -6.235416233539581299e-02 2.560283057391643524e-02 1.679907925426959991e-02 1.591654866933822632e-01 1.006005629897117615e-01 0.000000000000000000e+00 0.000000000000000000e+00 0.000000000000000000e+00 0.000000000000000000e+00 -0.000000000000000000e+00 -0.000000000000000000e+00 0.000000000000000000e+00 0.000000000000000000e+00 0.000000000000000000e+00 -0.000000000000000000e+00 -0.000000000000000000e+00 -0.000000000000000000e+00 -0.000000000000000000e+00 -0.000000000000000000e+00 0.000000000000000000e+00 0.000000000000000000e+00 -0.000000000000000000e+00 -0.000000000000000000e+00 -0.000000000000000000e+00 -0.000000000000000000e+00 -0.000000000000000000e+00 0.000000000000000000e+00 0.000000000000000000e+00 -0.000000000000000000e+00 -0.000000000000000000e+00 -0.000000000000000000e+00 0.000000000000000000e+00 0.000000000000000000e+00 -0.000000000000000000e+00 0.000000000000000000e+00 -0.000000000000000000e+00 0.000000000000000000e+00 -0.000000000000000000e+00 0.000000000000000000e+00 -0.000000000000000000e+00 -0.000000000000000000e+00 -0.000000000000000000e+00 -0.000000000000000000e+00 0.000000000000000000e+00 -0.000000000000000000e+00 0.000000000000000000e+00 0.000000000000000000e+00 -0.000000000000000000e+00 -0.000000000000000000e+00 -0.000000000000000000e+00 0.000000000000000000e+00 0.000000000000000000e+00 -0.000000000000000000e+00 -0.000000000000000000e+00 -0.000000000000000000e+00 -0.000000000000000000e+00 0.000000000000000000e+00 -0.000000000000000000e+00 -0.000000000000000000e+00 0.000000000000000000e+00 -0.000000000000000000e+00 -0.000000000000000000e+00 0.000000000000000000e+00 0.000000000000000000e+00 0.000000000000000000e+00 -0.000000000000000000e+00 0.000000000000000000e+00 -0.000000000000000000e+00 -0.000000000000000000e+00
6.167242303490638733e-02 3.330798745155334473e-01 -1.335536688566207886e-01 -1.429871618747711182e-01 9.425980038940906525e-03 -8.455922454595565796e-02 1.585983298718929291e-02 6.264940649271011353e-02 -6.308061629533767700e-02 4.205632582306861877e-02 -1.512560844421386719e-01 1.230608448386192322e-01 1.736399233341217041e-01 1.493164896965026855e-01 2.625423073768615723e-01 -2.268078327178955078e-01 -2.355024367570877075e-01 1.634671166539192200e-02 1.128418371081352234e-01 4.157777503132820129e-02 1.413094699382781982e-01 -5.954695399850606918e-03 8.408660441637039185e-02 1.120576728135347366e-02 5.155865475535392761e-02 -4.544464349746704102e-01 -1.231004670262336731e-01 2.289148271083831787e-01 1.235681176185607910e-01 1.981877982616424561e-01 1.056803092360496521e-01 1.202253717929124832e-02 6.074203643947839737e-03 6.856644898653030396e-02 4.884708300232887268e-02 -2.076294124126434326e-01 3.688788414001464844e-02 -6.710464507341384888e-02 1.783711612224578857e-01 -1.636394485831260681e-02 -2.506038248538970947e-01 -2.809642441570758820e-02 -1.260816156864166260e-01 1.736424565315246582e-01 -9.402983635663986206e-02 -1.599326729774475098e-01 8.803717046976089478e-02 -2.889736592769622803e-01 5.802626162767410278e-02 -5.027444288134574890e-02 -1.526780873537063599e-01 1.046227812767028809e-01 1.453498154878616333e-01 -1.870075017213821411e-01 1.558802723884582520e-01 -2.111606672406196594e-02 3.683036565780639648e-01 -7.580817490816116333e-02 -1.350618749856948853e-01 7.738349586725234985e-02 1.019210666418075562e-01 1.617061495780944824e-01 6.433189660310745239e-02 -6.553052365779876709e-02 0.000000000000000000e+00 -0.000000000000000000e+00 0.000000000000000000e+00 -0.000000000000000000e+00 -0.000000000000000000e+00 0.000000000000000000e+00 0.000000000000000000e+00 0.000000000000000000e+00 -0.000000000000000000e+00 0.000000000000000000e+00 0.000000000000000000e+00 -0.000000000000000000e+00 0.000000000000000000e+00 0.000000000000000000e+00 0.000000000000000000e+00 0.000000000000000000e+00 -0.000000000000000000e+00 -0.000000000000000000e+00 -0.000000000000000000e+00 -0.000000000000000000e+00 0.000000000000000000e+00 -0.000000000000000000e+00 0.000000000000000000e+00 -0.000000000000000000e+00 -0.000000000000000000e+00 -0.000000000000000000e+00 -0.000000000000000000e+00 -0.000000000000000000e+00 -0.000000000000000000e+00 0.000000000000000000e+00 -0.000000000000000000e+00 0.000000000000000000e+00 -0.000000000000000000e+00 -0.000000000000000000e+00 -0.000000000000000000e+00 -0.000000000000000000e+00 0.000000000000000000e+00 -0.000000000000000000e+00 -0.000000000000000000e+00 -0.000000000000000000e+00 -0.000000000000000000e+00 0.000000000000000000e+00 0.000000000000000000e+00 0.000000000000000000e+00 -0.000000000000000000e+00 -0.000000000000000000e+00 -0.000000000000000000e+00 0.000000000000000000e+00 0.000000000000000000e+00 0.000000000000000000e+00 -0.000000000000000000e+00 0.000000000000000000e+00 0.000000000000000000e+00 0.000000000000000000e+00 0.000000000000000000e+00 0.000000000000000000e+00 -0.000000000000000000e+00 -0.000000000000000000e+00 0.000000000000000000e+00 0.000000000000000000e+00 0.000000000000000000e+00 0.000000000000000000e+00 0.000000000000000000e+00 -0.000000000000000000e+00
-4.680387675762176514e-02 3.108672983944416046e-02 1.384169012308120728e-01 2.290013134479522705e-01 1.195053532719612122e-01 2.327407598495483398e-01 1.458634883165359497e-01 6.893464922904968262e-02 -1.898737996816635132e-01 -5.772367119789123535e-02 -1.491755098104476929e-01 1.875655353069305420e-01 -1.849475055932998657e-01 1.258091777563095093e-01 -5.303820967674255371e-02 9.951039403676986694e-02 1.364939212799072266e-01 -1.702048443257808685e-02 -5.226177722215652466e-02 1.500669866800308228e-01 9.013984352350234985e-02 9.180597960948944092e-03 -4.563334584236145020e-02 -5.318434536457061768e-02 6.538727134466171265e-02 -1.921454221010208130e-01 4.848098754882812500e-02 -2.353644520044326782e-01 -8.944932371377944946e-02 -1.113587841391563416e-01 -3.146506845951080322e-02 4.133817553520202637e-02 1.660351455211639404e-01 -1.216092556715011597e-01 -1.305823028087615967e-02 1.071107164025306702e-01 -2.060355432331562042e-02 -4.485051333904266357e-02 -2.637214958667755127e-01 -4.846654832363128662e-02 -4.635089635848999023e-02 2.320088148117065430e-01 -1.836474686861038208e-01 -1.344403624534606934e-02 1.763188838958740234e-01 1.588794291019439697e-01 -3.076518140733242035e-02 -3.826386928558349609e-01 -8.858918398618698120e-02 1.577548310160636902e-02 1.355013251304626465e-01 -1.234749555587768555e-01 4.998816549777984619e-02 2.087608277797698975e-01 2.183703184127807617e-01 1.325128972530364990e-01 -9.433471411466598511e-02 1.930796504020690918e-01 -2.845300920307636261e-02 1.479955762624740601e-01 2.749907039105892181e-02 -1.742863804101943970e-01 1.269053369760513306e-01 3.067873716354370117e-01 0.000000000000000000e+00 -0.000000000000000000e+00 -0.000000000000000000e+00 -0.000000000000000000e+00 -0.000000000000000000e+00 0.000000000000000000e+00 -0.000000000000000000e+00 -0.000000000000000000e+00 -0.000000000000000000e+00 0.000000000000000000e+00 -0.000000000000000000e+00 -0.000000000000000000e+00 0.000000000000000000e+00 0.000000000000000000e+00 0.000000000000000000e+00 -0.000000000000000000e+00 -0.000000000000000000e+00 -0.000000000000000000e+00 -0.000000000000000000e+00 -0.000000000000000000e+00 0.000000000000000000e+00 -0.000000000000000000e+00 -0.000000000000000000e+00 0.000000000000000000e+00 -0.000000000000000000e+00 -0.000000000000000000e+00 0.000000000000000000e+00 0.000000000000000000e+00 0.000000000000000000e+00 -0.000000000000000000e+00 -0.000000000000000000e+00 0.000000000000000000e+00 0.000000000000000000e+00 -0.000000000000000000e+00 -0.000000000000000000e+00 -0.000000000000000000e+00 0.000000000000000000e+00 0.000000000000000000e+00 -0.000000000000000000e+00 0.000000000000000000e+00 0.000000000000000000e+00 0.000000000000000000e+00 -0.000000000000000000e+00 -0.000000000000000000e+00 -0.000000000000000000e+00 0.000000000000000000e+00 -0.000000000000000000e+00 -0.000000000000000000e+00 -0.000000000000000000e+00 0.000000000000000000e+00 -0.000000000000000000e+00 0.000000000000000000e+00 0.000000000000000000e+00 -0.000000000000000000e+00 0.000000000000000000e+00 0.000000000000000000e+00 -0.000000000000000000e+00 -0.000000000000000000e+00 -0.000000000000000000e+00 -0.000000000000000000e+00 0.000000000000000000e+00 0.000000000000000000e+00 -0.000000000000000000e+00 0.000000000000000000e+00
8.290520869195461273e-03 1.222395077347755432e-01 1.166572645306587219e-01 1.025971490889787674e-02 6.098008900880813599e-02 -3.408705070614814758e-02 7.934682816267013550e-02 2.227311730384826660e-01 -7.968408986926078796e-03 -2.087446628138422966e-03 1.903095543384552002e-01 2.036129683256149292e-02 1.600928604602813721e-02 2.691979408264160156e-01 8.908248692750930786e-02 3.510026261210441589e-02 1.438388377428054810e-01 1.669288277626037598e-01 -1.531176567077636719e-01 -2.453190684318542480e-01 -1.198705285787582397e-01 1.685740202665328979e-01 -1.409076303243637085e-01 -2.829072251915931702e-02 -1.153499186038970947e-01 2.276988476514816284e-01 1.817679703235626221e-01 6.388012319803237915e-03 1.557147502899169922e-01 4.911894723773002625e-02 2.124627530574798584e-01 -1.678691208362579346e-01 -1.800868958234786987e-01 -6.973679177463054657e-03 2.136279642581939697e-01 2.031070590019226074e-01 1.286517679691314697e-01 5.918770655989646912e-02 5.517962947487831116e-02 -1.164231672883033752e-01 1.438062191009521484e-01 4.358797147870063782e-02 -4.177649691700935364e-02 -2.492102980613708496e-01 -2.706696987152099609e-01 8.221078664064407349e-02 3.361205756664276123e-02 -1.199795007705688477e-01 -1.199683621525764465e-01 -1.699487119913101196e-01 9.166880697011947632e-02 1.943252682685852051e-01 1.136896088719367981e-01 1.888315193355083466e-02 7.296143472194671631e-02 -1.368556767702102661e-01 -6.832341104745864868e-02 7.635644823312759399e-02 -1.090206112712621689e-02 2.016335129737854004e-01 9.064707905054092407e-02 -2.919938415288925171e-02 -6.798455864191055298e-02 1.671928912401199341e-01 0.000000000000000000e+00 -0.000000000000000000e+00 0.000000000000000000e+00 0.000000000000000000e+00 -0.000000000000000000e+00 0.000000000000000000e+00 0.000000000000000000e+00 0.000000000000000000e+00 0.000000000000000000e+00 -0.000000000000000000e+00 0.000000000000000000e+00 -0.000000000000000000e+00 0.000000000000000000e+00 0.000000000000000000e+00 -0.000000000000000000e+00 0.000000000000000000e+00 0.000000000000000000e+00 -0.000000000000000000e+00 0.000000000000000000e+00 0.000000000000000000e+00 0.000000000000000000e+00 -0.000000000000000000e+00 -0.000000000000000000e+00 -0.000000000000000000e+00 0.000000000000000000e+00 -0.000000000000000000e+00 -0.000000000000000000e+00 0.000000000000000000e+00 0.000000000000000000e+00 0.000000000000000000e+00 -0.000000000000000000e+00 -0.000000000000000000e+00 -0.000000000000000000e+00 -0.000000000000000000e+00 0.000000000000000000e+00 -0.000000000000000000e+00 -0.000000000000000000e+00 0.000000000000000000e+00 -0.000000000000000000e+00 0.000000000000000000e+00 -0.000000000000000000e+00 0.000000000000000000e+00 -0.000000000000000000e+00 0.000000000000000000e+00 -0.000000000000000000e+00 0.000000000000000000e+00 -0.000000000000000000e+00 -0.000000000000000000e+00 0.000000000000000000e+00 0.000000000000000000e+00 -0.000000000000000000e+00 0.000000000000000000e+00 -0.000000000000000000e+00 -0.000000000000000000e+00 -0.000000000000000000e+00 -0.000000000000000000e+00 -0.000000000000000000e+00 0.000000000000000000e+00 -0.000000000000000000e+00 -0.000000000000000000e+00 0.000000000000000000e+00 0.000000000000000000e+00 -0.000000000000000000e+00 -0.000000000000000000e+00
1.963232010602951050e-01 1.121752783656120300e-01 -3.685478353872895241e-03 -6.713462620973587036e-02 1.251442581415176392e-01 -1.373299062252044678e-01 -1.915149688720703125e-01 2.365731298923492432e-01 1.610217541456222534e-01 2.975523099303245544e-02 1.323386281728744507e-02 -1.308436095714569092e-01 2.068167030811309814e-01 -1.951702684164047241e-01 7.114259898662567139e-02 2.277936190366744995e-01 -5.200373940169811249e-03 -2.270964235067367554e-01 7.047152519226074219e-02 -1.538016200065612793e-01 3.378347726538777351e-03 -1.755597591400146484e-01 1.031879261136054993e-01 -7.539741694927215576e-03 1.508136391639709473e-01 1.748413145542144775e-01 -5.177626013755798340e-02 2.053328230977058411e-02 1.498576700687408447e-01 -1.979200541973114014e-01 1.089708954095840454e-01 -1.105794906616210938e-01 2.636329457163810730e-02 9.661663323640823364e-02 -1.253280639648437500e-01 1.174753531813621521e-01 -1.461575478315353394e-01 2.377606332302093506e-01 1.474633365869522095e-01 6.333176791667938232e-02 -1.408348530530929565e-01 -8.190722018480300903e-02 6.618514657020568848e-02 1.769020594656467438e-02 1.219564154744148254e-01 2.137132138013839722e-01 5.968781188130378723e-03 -3.450220823287963867e-02 -7.731948792934417725e-02 2.843300700187683105e-01 1.451311260461807251e-01 3.339442014694213867e-01 -3.332918882369995117e-02 -5.562783032655715942e-02 2.280344069004058838e-01 9.363349527120590210e-02 -1.305987089872360229e-01 1.050375029444694519e-02 -2.985714562237262726e-02 -2.140394151210784912e-01 -2.336064726114273071e-02 -1.752376183867454529e-02 -5.114345811307430267e-03 5.887118726968765259e-02 0.000000000000000000e+00 0.000000000000000000e+00 0.000000000000000000e+00 -0.000000000000000000e+00 0.000000000000000000e+00 -0.000000000000000000e+00 -0.000000000000000000e+00 -0.000000000000000000e+00 -0.000000000000000000e+00 0.000000000000000000e+00 -0.000000000000000000e+00 -0.000000000000000000e+00 -0.000000000000000000e+00 -0.000000000000000000e+00 -0.000000000000000000e+00 0.000000000000000000e+00 0.000000000000000000e+00 -0.000000000000000000e+00 0.000000000000000000e+00 0.000000000000000000e+00 -0.000000000000000000e+00 -0.000000000000000000e+00 0.000000000000000000e+00 0.000000000000000000e+00 -0.000000000000000000e+00 0.000000000000000000e+00 0.000000000000000000e+00 0.000000000000000000e+00 -0.000000000000000000e+00 0.000000000000000000e+00 0.000000000000000000e+00 -0.000000000000000000e+00 -0.000000000000000000e+00 -0.000000000000000000e+00 -0.000000000000000000e+00 0.000000000000000000e+00 -0.000000000000000000e+00 0.000000000000000000e+00 -0.000000000000000000e+00 -0.000000000000000000e+00 -0.000000000000000000e+00 0.000000000000000000e+00 -0.000000000000000000e+00 -0.000000000000000000e+00 0.000000000000000000e+00 0.000000000000000000e+00 -0.000000000000000000e+00 -0.000000000000000000e+00 0.000000000000000000e+00 -0.000000000000000000e+00 -0.000000000000000000e+00 -0.000000000000000000e+00 -0.000000000000000000e+00 0.000000000000000000e+00 -0.000000000000000000e+00 -0.000000000000000000e+00 0.000000000000000000e+00 -0.000000000000000000e+00 0.000000000000000000e+00 0.000000000000000000e+00 -0.000000000000000000e+00 0.000000000000000000e+00 0.000000000000000000e+00 0.000000000000000000e+00
1.274873018264770508e-01 2.027905313298106194e-03 3.594100773334503174e-01 -1.320054475218057632e-02 1.949492245912551880e-01 -2.165379077196121216e-01 -1.186735033988952637e-01 -1.558622810989618301e-02 -1.262521892786026001e-01 1.831888109445571899e-01 6.237064674496650696e-02 9.946473687887191772e-02 -1.180711686611175537e-01 1.815665960311889648e-01 -9.243795275688171387e-02 -1.527347713708877563e-01 3.548508137464523315e-02 2.030752450227737427e-01 -7.862843573093414307e-02 1.264060288667678833e-01 -8.228657394647598267e-02 5.616246163845062256e-02 8.979531377553939819e-02 3.127775490283966064e-01 7.034794986248016357e-02 -1.303041875362396240e-01 1.476093679666519165e-01 -9.984481148421764374e-03 1.101428363472223282e-02 -4.149123653769493103e-02 1.889195442199707031e-01 -2.203391678631305695e-02 -1.103879809379577637e-01 1.147974878549575806e-01 1.665133684873580933e-01 -4.961869865655899048e-02 7.714267075061798096e-02 1.534276157617568970e-01 6.219048053026199341e-02 -1.161340698599815369e-01 2.753150649368762970e-02 4.630426689982414246e-02 -2.026748098433017731e-02 -1.142432838678359985e-01 1.217357590794563293e-01 1.206297799944877625e-01 2.186270244419574738e-02 2.191572450101375580e-02 -2.090511769056320190e-01 2.457238584756851196e-01 -6.346981972455978394e-02 1.669860333204269409e-01 -1.724996021948754787e-03 6.908601522445678711e-02 4.852012917399406433e-02 -9.547249972820281982e-02 -2.607510797679424286e-02 -2.215717881917953491e-01 1.694466802291572094e-03 7.224965095520019531e-02 -5.802569538354873657e-02 3.332214653491973877e-01 -8.673444390296936035e-02 2.477641403675079346e-01 -0.000000000000000000e+00 -0.000000000000000000e+00 -0.000000000000000000e+00 -0.000000000000000000e+00 -0.000000000000000000e+00 0.000000000000000000e+00 0.000000000000000000e+00 -0.000000000000000000e+00 0.000000000000000000e+00 0.000000000000000000e+00 0.000000000000000000e+00 0.000000000000000000e+00 -0.000000000000000000e+00 0.000000000000000000e+00 0.000000000000000000e+00 0.000000000000000000e+00 0.000000000000000000e+00 -0.000000000000000000e+00 0.000000000000000000e+00 -0.000000000000000000e+00 -0.000000000000000000e+00 0.000000000000000000e+00 0.000000000000000000e+00 -0.000000000000000000e+00 -0.000000000000000000e+00 0.000000000000000000e+00 -0.000000000000000000e+00 0.000000000000000000e+00 0.000000000000000000e+00 -0.000000000000000000e+00 -0.000000000000000000e+00 0.000000000000000000e+00 -0.000000000000000000e+00 0.000000000000000000e+00 -0.000000000000000000e+00 -0.000000000000000000e+00 0.000000000000000000e+00 0.000000000000000000e+00 -0.000000000000000000e+00 0.000000000000000000e+00 -0.000000000000000000e+00 0.000000000000000000e+00 -0.000000000000000000e+00 0.000000000000000000e+00 0.000000000000000000e+00 -0.000000000000000000e+00 0.000000000000000000e+00 0.000000000000000000e+00 0.000000000000000000e+00 0.000000000000000000e+00 -0.000000000000000000e+00 -0.000000000000000000e+00 0.000000000000000000e+00 -0.000000000000000000e+00 0.000000000000000000e+00 -0.000000000000000000e+00 0.000000000000000000e+00 -0.000000000000000000e+00 0.000000000000000000e+00 -0.000000000000000000e+00 0.000000000000000000e+00 0.000000000000000000e+00 -0.000000000000000000e+00 -0.000000000000000000e+00
1.339500844478607178e-01 1.863000839948654175e-01 7.417153567075729370e-02 2.643738500773906708e-02 1.118707880377769470e-01 -3.681281208992004395e-02 -1.102522481232881546e-02 -1.611814945936203003e-01 -1.382027715444564819e-01 1.778284460306167603e-01 2.020998746156692505e-01 -2.551755495369434357e-02 -3.099563531577587128e-02 2.023535370826721191e-01 1.444578617811203003e-01 -6.089683622121810913e-02 1.958632320165634155e-01 2.175178974866867065e-01 -1.939869970083236694e-01 2.203897982835769653e-01 1.356231272220611572e-01 -6.845494359731674194e-02 -2.016148120164871216e-01 -1.153422668576240540e-01 1.946490071713924408e-02 3.241559490561485291e-02 1.162777170538902283e-01 2.395123988389968872e-01 2.687188386917114258e-01 1.041562333703041077e-01 4.088058695197105408e-02 -9.032149682752788067e-04 -2.945874333381652832e-01 -1.894939094781875610e-01 -4.940734058618545532e-02 2.326387315988540649e-01 6.715303659439086914e-02 6.774338334798812866e-02 1.156538203358650208e-01 7.439012825489044189e-02 1.736969202756881714e-01 -9.868704527616500854e-02 -7.739106076769530773e-04 2.795801758766174316e-01 1.458087116479873657e-01 2.166511267423629761e-01 8.414565771818161011e-02 1.144481152296066284e-01 -1.219132915139198303e-01 1.435799747705459595e-01 1.147042308002710342e-02 1.268402766436338425e-02 -3.996189683675765991e-02 2.947809100151062012e-01 2.296747416257858276e-01 1.002426818013191223e-01 1.613207906484603882e-01 -1.901424378156661987e-01 -2.519490011036396027e-02 2.847248129546642303e-02 2.269249111413955688e-01 6.521612405776977539e-02 1.081308946013450623e-01 -8.161946386098861694e-02 -0.000000000000000000e+00 -0.000000000000000000e+00 -0.000000000000000000e+00 -0.000000000000000000e+00 0.000000000000000000e+00 0.000000000000000000e+00 0.000000000000000000e+00 -0.000000000000000000e+00 -0.000000000000000000e+00 -0.000000000000000000e+00 0.000000000000000000e+00 -0.000000000000000000e+00 -0.000000000000000000e+00 -0.000000000000000000e+00 -0.000000000000000000e+00 0.000000000000000000e+00 -0.000000000000000000e+00 -0.000000000000000000e+00 0.000000000000000000e+00 0.000000000000000000e+00 -0.000000000000000000e+00 -0.000000000000000000e+00 -0.000000000000000000e+00 0.000000000000000000e+00 0.000000000000000000e+00 0.000000000000000000e+00 0.000000000000000000e+00 0.000000000000000000e+00 -0.000000000000000000e+00 0.000000000000000000e+00 0.000000000000000000e+00 -0.000000000000000000e+00 0.000000000000000000e+00 -0.000000000000000000e+00 0.000000000000000000e+00 -0.000000000000000000e+00 0.000000000000000000e+00 0.000000000000000000e+00 0.000000000000000000e+00 -0.000000000000000000e+00 -0.000000000000000000e+00 -0.000000000000000000e+00 0.000000000000000000e+00 0.000000000000000000e+00 -0.000000000000000000e+00 0.000000000000000000e+00 0.000000000000000000e+00 -0.000000000000000000e+00 0.000000000000000000e+00 -0.000000000000000000e+00 0.000000000000000000e+00 0.000000000000000000e+00 -0.000000000000000000e+00 0.000000000000000000e+00 -0.000000000000000000e+00 -0.000000000000000000e+00 0.000000000000000000e+00 0.000000000000000000e+00 0.000000000000000000e+00 -0.000000000000000000e+00 0.000000000000000000e+00 -0.000000000000000000e+00 0.000000000000000000e+00 -0.000000000000000000e+00
1.240982338786125183e-01 2.770964987576007843e-02 -3.700302541255950928e-02 -3.984191641211509705e-02 1.113903746008872986e-01 9.761828184127807617e-02 -1.772336065769195557e-01 2.225804887712001801e-02 1.510868780314922333e-02 6.197116151452064514e-02 9.796920418739318848e-02 3.839583322405815125e-02 -7.944751530885696411e-02 -5.864467937499284744e-03 -1.046933978796005249e-01 -8.106385916471481323e-02 4.588302075862884521e-01 6.140435859560966492e-02 -8.319871127605438232e-02 -8.778313547372817993e-02 1.038207784295082092e-01 -5.790928844362497330e-04 1.048704460263252258e-01 -7.971052080392837524e-02 1.800188273191452026e-01 1.310744136571884155e-01 7.053247094154357910e-02 9.008698165416717529e-02 1.798167526721954346e-01 6.241718679666519165e-02 -5.042754858732223511e-02 3.406086936593055725e-02 3.427728116512298584e-01 1.131753921508789062e-01 3.275165855884552002e-01 3.063018806278705597e-02 9.275777637958526611e-02 1.080923080444335938e-01 -8.274286054074764252e-03 6.330211460590362549e-02 9.702433645725250244e-02 1.806377172470092773e-01 8.564807474613189697e-02 1.011112630367279053e-01 -9.484261274337768555e-02 1.576090157032012939e-01 -2.701769815757870674e-03 6.444313377141952515e-02 1.023524478077888489e-01 1.668795049190521240e-01 7.423485815525054932e-02 1.665160953998565674e-01 1.130179241299629211e-01 4.651946946978569031e-02 2.419822961091995239e-01 -2.088377922773361206e-01 -2.256266474723815918e-01 -1.627041101455688477e-01 -3.367614448070526123e-01 -8.439762890338897705e-02 -1.791825145483016968e-01 6.520340591669082642e-02 -2.465315610170364380e-01 1.095640957355499268e-01 -0.000000000000000000e+00 -0.000000000000000000e+00 0.000000000000000000e+00 -0.000000000000000000e+00 -0.000000000000000000e+00 0.000000000000000000e+00 0.000000000000000000e+00 -0.000000000000000000e+00 0.000000000000000000e+00 0.000000000000000000e+00 -0.000000000000000000e+00 0.000000000000000000e+00 -0.000000000000000000e+00 0.000000000000000000e+00 -0.000000000000000000e+00 0.000000000000000000e+00 0.000000000000000000e+00 0.000000000000000000e+00 0.000000000000000000e+00 0.000000000000000000e+00 0.000000000000000000e+00 0.000000000000000000e+00 0.000000000000000000e+00 -0.000000000000000000e+00 0.000000000000000000e+00 -0.000000000000000000e+00 -0.000000000000000000e+00 0.000000000000000000e+00 -0.000000000000000000e+00 -0.000000000000000000e+00 -0.000000000000000000e+00 0.000000000000000000e+00 0.000000000000000000e+00 0.000000000000000000e+00 -0.000000000000000000e+00 -0.000000000000000000e+00 0.000000000000000000e+00 0.000000000000000000e+00 0.000000000000000000e+00 -0.000000000000000000e+00 -0.000000000000000000e+00 0.000000000000000000e+00 -0.000000000000000000e+00 0.000000000000000000e+00 0.000000000000000000e+00 0.000000000000000000e+00 -0.000000000000000000e+00 0.000000000000000000e+00 0.000000000000000000e+00 0.000000000000000000e+00 0.000000000000000000e+00 -0.000000000000000000e+00 0.000000000000000000e+00 0.000000000000000000e+00 -0.000000000000000000e+00 0.000000000000000000e+00 -0.000000000000000000e+00 0.000000000000000000e+00 -0.000000000000000000e+00 -0.000000000000000000e+00 0.000000000000000000e+00 0.000000000000000000e+00 -0.000000000000000000e+00 -0.000000000000000000e+00
2.046685814857482910e-01 6.789137423038482666e-02 -1.566383540630340576e-01 2.000386416912078857e-01 8.135627210140228271e-02 2.687042765319347382e-02 2.647931873798370361e-01 -1.238738149404525757e-01 1.013781037181615829e-02 -1.594162583351135254e-01 -5.147002637386322021e-02 1.163739264011383057e-01 1.601100666448473930e-03 1.594090647995471954e-02 2.255478799343109131e-01 9.590493142604827881e-02 -1.422701478004455566e-01 4.153596758842468262e-01 1.451686322689056396e-01 9.923812933266162872e-03 -2.323589324951171875e-01 2.637198269367218018e-01 -2.784605026245117188e-01 -9.035131079144775867e-04 1.689414680004119873e-01 3.176003396511077881e-01 -1.170591730624437332e-02 5.321504920721054077e-02 2.361344397068023682e-01 3.628322482109069824e-02 -6.989012658596038818e-02 -1.549279689788818359e-01 1.077119410037994385e-01 -1.383548080921173096e-01 1.142786145210266113e-01 3.643761873245239258e-01 -5.062858015298843384e-02 1.711825430393218994e-01 4.361417144536972046e-02 2.974000275135040283e-01 9.777590632438659668e-02 1.065906733274459839e-01 1.120328903198242188e-01 1.160807311534881592e-01 1.773680187761783600e-02 -7.361060380935668945e-02 1.517613679170608521e-01 1.294518709182739258e-01 9.546766430139541626e-02 -8.044609427452087402e-02 -1.097311731427907944e-02 -2.019905745983123779e-01 4.080859571695327759e-02 -1.210936158895492554e-01 -1.005221903324127197e-01 2.230879217386245728e-01 -2.097860872745513916e-01 -3.151907026767730713e-02 -1.042128503322601318e-01 -2.734966203570365906e-02 2.897577546536922455e-02 1.781303286552429199e-01 4.710118472576141357e-02 1.196084097027778625e-01 -0.000000000000000000e+00 0.000000000000000000e+00 -0.000000000000000000e+00 0.000000000000000000e+00 -0.000000000000000000e+00 0.000000000000000000e+00 0.000000000000000000e+00 -0.000000000000000000e+00 0.000000000000000000e+00 0.000000000000000000e+00 -0.000000000000000000e+00 -0.000000000000000000e+00 -0.000000000000000000e+00 0.000000000000000000e+00 -0.000000000000000000e+00 0.000000000000000000e+00 0.000000000000000000e+00 0.000000000000000000e+00 0.000000000000000000e+00 -0.000000000000000000e+00 0.000000000000000000e+00 0.000000000000000000e+00 0.000000000000000000e+00 -0.000000000000000000e+00 -0.000000000000000000e+00 -0.000000000000000000e+00 0.000000000000000000e+00 0.000000000000000000e+00 0.000000000000000000e+00 0.000000000000000000e+00 -0.000000000000000000e+00 0.000000000000000000e+00 -0.000000000000000000e+00 -0.000000000000000000e+00 -0.000000000000000000e+00 -0.000000000000000000e+00 0.000000000000000000e+00 -0.000000000000000000e+00 0.000000000000000000e+00 0.000000000000000000e+00 -0.000000000000000000e+00 0.000000000000000000e+00 -0.000000000000000000e+00 0.000000000000000000e+00 -0.000000000000000000e+00 -0.000000000000000000e+00 0.000000000000000000e+00 0.000000000000000000e+00 0.000000000000000000e+00 -0.000000000000000000e+00 0.000000000000000000e+00 0.000000000000000000e+00 0.000000000000000000e+00 -0.000000000000000000e+00 0.000000000000000000e+00 0.000000000000000000e+00 -0.000000000000000000e+00 0.000000000000000000e+00 0.000000000000000000e+00 -0.000000000000000000e+00 0.000000000000000000e+00 0.000000000000000000e+00 0.000000000000000000e+00 0.000000000000000000e+00
-2.604167461395263672e-01 -5.689549446105957031e-02 -4.981256276369094849e-02 -2.380047142505645752e-01 -1.162689849734306335e-01 2.298842370510101318e-01 1.222438924014568329e-02 1.937989592552185059e-01 2.206102609634399414e-01 9.324031323194503784e-02 3.372205495834350586e-01 -8.505427278578281403e-03 6.524697691202163696e-02 2.660845406353473663e-02 2.438801713287830353e-02 -9.769012778997421265e-02 7.842959463596343994e-02 -2.143617123365402222e-01 5.923876911401748657e-02 9.956491179764270782e-03 1.356800496578216553e-01 3.839073777198791504e-01 9.985605627298355103e-02 1.673504710197448730e-01 1.190715432167053223e-01 -4.898603074252605438e-03 9.922913461923599243e-02 8.030457794666290283e-02 8.046044409275054932e-02 1.508660018444061279e-01 2.094217240810394287e-01 8.140723407268524170e-02 1.453153043985366821e-01 1.460483223199844360e-01 -3.955140709877014160e-02 3.168971464037895203e-02 2.420373726636171341e-03 -8.900994807481765747e-02 3.100853562355041504e-01 2.072203755378723145e-01 1.363149136304855347e-01 1.533618122339248657e-01 8.792151510715484619e-02 1.071142330765724182e-01 3.038253784179687500e-01 1.546875238418579102e-01 -4.251169413328170776e-02 -2.461689710617065430e-01 1.249183490872383118e-01 2.312039136886596680e-01 3.154858946800231934e-02 2.445862628519535065e-02 -1.289206445217132568e-01 7.465072721242904663e-02 1.908134855329990387e-02 1.996015608310699463e-01 2.117090858519077301e-02 -3.129149600863456726e-02 -6.817709654569625854e-02 -1.927952319383621216e-01 -1.079035773873329163e-01 3.398724645376205444e-02 2.991728186607360840e-01 -5.678234249353408813e-02 -0.000000000000000000e+00 0.000000000000000000e+00 -0.000000000000000000e+00 0.000000000000000000e+00 -0.000000000000000000e+00 -0.000000000000000000e+00 -0.000000000000000000e+00 0.000000000000000000e+00 0.000000000000000000e+00 -0.000000000000000000e+00 0.000000000000000000e+00 -0.000000000000000000e+00 0.000000000000000000e+00 0.000000000000000000e+00 0.000000000000000000e+00 0.000000000000000000e+00 0.000000000000000000e+00 0.000000000000000000e+00 -0.000000000000000000e+00 0.000000000000000000e+00 0.000000000000000000e+00 -0.000000000000000000e+00 -0.000000000000000000e+00 -0.000000000000000000e+00 -0.000000000000000000e+00 -0.000000000000000000e+00 0.000000000000000000e+00 -0.000000000000000000e+00 -0.000000000000000000e+00 0.000000000000000000e+00 -0.000000000000000000e+00 -0.000000000000000000e+00 0.000000000000000000e+00 0.000000000000000000e+00 0.000000000000000000e+00 -0.000000000000000000e+00 -0.000000000000000000e+00 -0.000000000000000000e+00 -0.000000000000000000e+00 0.000000000000000000e+00 0.000000000000000000e+00 -0.000000000000000000e+00 -0.000000000000000000e+00 0.000000000000000000e+00 0.000000000000000000e+00 0.000000000000000000e+00 0.000000000000000000e+00 0.000000000000000000e+00 -0.000000000000000000e+00 -0.000000000000000000e+00 0.000000000000000000e+00 -0.000000000000000000e+00 0.000000000000000000e+00 0.000000000000000000e+00 -0.000000000000000000e+00 0.000000000000000000e+00 -0.000000000000000000e+00 -0.000000000000000000e+00 -0.000000000000000000e+00 -0.000000000000000000e+00 -0.000000000000000000e+00 -0.000000000000000000e+00 -0.000000000000000000e+00 -0.000000000000000000e+00
-1.061116531491279602e-01 -2.925118245184421539e-02 -1.476681232452392578e-01 -8.256783708930015564e-03 1.465659439563751221e-01 -4.664983227849006653e-02 1.618393957614898682e-01 -3.997589647769927979e-02 -2.535227686166763306e-02 4.628603905439376831e-02 2.045638263225555420e-01 2.617520689964294434e-01 8.957276493310928345e-02 -2.535704672336578369e-01 1.783545911312103271e-01 1.601823866367340088e-01 -7.169777899980545044e-02 1.799254417419433594e-01 1.334680318832397461e-01 -2.171892439946532249e-03 5.344552546739578247e-02 2.861929535865783691e-01 2.122617959976196289e-01 2.313389778137207031e-01 1.546979099512100220e-01 -2.604425512254238129e-02 1.792164742946624756e-01 -1.152389422059059143e-01 8.554521948099136353e-02 2.130616307258605957e-01 -3.852698206901550293e-02 5.877613276243209839e-02 2.911340892314910889e-01 6.917846202850341797e-02 5.596781522035598755e-02 1.475922763347625732e-01 -3.950227797031402588e-02 9.028287976980209351e-02 2.860615253448486328e-01 -6.165542080998420715e-02 -3.749491274356842041e-02 -1.354190111160278320e-01 7.032523397356271744e-03 -6.455153971910476685e-02 -1.962636709213256836e-01 6.535109877586364746e-02 1.259892731904983521e-01 6.430573761463165283e-02 2.822551131248474121e-01 -1.993609368801116943e-01 7.119520008563995361e-02 6.138600036501884460e-02 1.126987859606742859e-01 -6.943832850083708763e-04 2.166125178337097168e-01 7.292906939983367920e-02 7.637665420770645142e-02 5.173498392105102539e-02 -1.007315143942832947e-01 1.904507279396057129e-01 1.530988980084657669e-02 -2.242179587483406067e-02 -2.592503838241100311e-02 -2.417075447738170624e-02 -0.000000000000000000e+00 0.000000000000000000e+00 -0.000000000000000000e+00 0.000000000000000000e+00 -0.000000000000000000e+00 0.000000000000000000e+00 0.000000000000000000e+00 -0.000000000000000000e+00 -0.000000000000000000e+00 -0.000000000000000000e+00 0.000000000000000000e+00 0.000000000000000000e+00 -0.000000000000000000e+00 -0.000000000000000000e+00 -0.000000000000000000e+00 -0.000000000000000000e+00 -0.000000000000000000e+00 -0.000000000000000000e+00 -0.000000000000000000e+00 -0.000000000000000000e+00 0.000000000000000000e+00 -0.000000000000000000e+00 0.000000000000000000e+00 0.000000000000000000e+00 0.000000000000000000e+00 0.000000000000000000e+00 -0.000000000000000000e+00 -0.000000000000000000e+00 -0.000000000000000000e+00 -0.000000000000000000e+00 0.000000000000000000e+00 0.000000000000000000e+00 -0.000000000000000000e+00 0.000000000000000000e+00 -0.000000000000000000e+00 -0.000000000000000000e+00 0.000000000000000000e+00 -0.000000000000000000e+00 0.000000000000000000e+00 -0.000000000000000000e+00 -0.000000000000000000e+00 0.000000000000000000e+00 -0.000000000000000000e+00 -0.000000000000000000e+00 0.000000000000000000e+00 0.000000000000000000e+00 0.000000000000000000e+00 -0.000000000000000000e+00 0.000000000000000000e+00 0.000000000000000000e+00 0.000000000000000000e+00 -0.000000000000000000e+00 0.000000000000000000e+00 0.000000000000000000e+00 -0.000000000000000000e+00 0.000000000000000000e+00 -0.000000000000000000e+00 -0.000000000000000000e+00 0.000000000000000000e+00 -0.000000000000000000e+00 -0.000000000000000000e+00 -0.000000000000000000e+00 -0.000000000000000000e+00 0.000000000000000000e+00
-6.939527392387390137e-02 8.747252821922302246e-02 2.540050148963928223e-01 1.504973620176315308e-01 2.342329174280166626e-01 1.980212330818176270e-02 1.905485689640045166e-01 1.724993251264095306e-02 1.126613188534975052e-02 2.368968278169631958e-01 2.901365458965301514e-01 -8.607205748558044434e-02 4.612518101930618286e-02 8.811549097299575806e-02 1.079291403293609619e-01 1.337995529174804688e-01 1.973528601229190826e-02 1.169769316911697388e-01 -6.125476956367492676e-02 1.127622500061988831e-01 -9.598392248153686523e-02 2.323426306247711182e-01 3.812279403209686279e-01 1.779103279113769531e-02 -1.543680727481842041e-01 -3.512250781059265137e-01 -1.287891864776611328e-01 3.261808305978775024e-02 -4.785666614770889282e-02 -1.119945570826530457e-01 -3.899613767862319946e-02 6.820326298475265503e-02 1.661635637283325195e-01 2.066442556679248810e-02 5.496565252542495728e-02 -1.019030809402465820e-01 -7.800273597240447998e-02 1.141228526830673218e-01 1.722989976406097412e-01 1.038450151681900024e-01 1.312862038612365723e-01 1.653712391853332520e-01 2.303708791732788086e-01 1.440643519163131714e-01 -1.389124691486358643e-01 -3.063255921006202698e-02 -9.285371005535125732e-02 6.808226928114891052e-03 3.083851039409637451e-01 1.645402237772941589e-02 -5.538773536682128906e-02 -1.434515509754419327e-02 -1.504668295383453369e-01 1.427749916911125183e-02 -1.346341683529317379e-03 1.294838637113571167e-01 -1.418810896575450897e-02 -8.601374924182891846e-02 3.199445456266403198e-02 -3.541003167629241943e-02 -1.519436240196228027e-01 1.849236190319061279e-01 8.833270519971847534e-02 3.392161428928375244e-02 0.000000000000000000e+00 -0.000000000000000000e+00 0.000000000000000000e+00 -0.000000000000000000e+00 -0.000000000000000000e+00 -0.000000000000000000e+00 -0.000000000000000000e+00 0.000000000000000000e+00 -0.000000000000000000e+00 -0.000000000000000000e+00 0.000000000000000000e+00 -0.000000000000000000e+00 0.000000000000000000e+00 -0.000000000000000000e+00 0.000000000000000000e+00 -0.000000000000000000e+00 0.000000000000000000e+00 -0.000000000000000000e+00 0.000000000000000000e+00 0.000000000000000000e+00 -0.000000000000000000e+00 -0.000000000000000000e+00 0.000000000000000000e+00 0.000000000000000000e+00 -0.000000000000000000e+00 0.000000000000000000e+00 0.000000000000000000e+00 -0.000000000000000000e+00 -0.000000000000000000e+00 -0.000000000000000000e+00 -0.000000000000000000e+00 0.000000000000000000e+00 -0.000000000000000000e+00 -0.000000000000000000e+00 -0.000000000000000000e+00 0.000000000000000000e+00 0.000000000000000000e+00 -0.000000000000000000e+00 -0.000000000000000000e+00 0.000000000000000000e+00 -0.000000000000000000e+00 -0.000000000000000000e+00 0.000000000000000000e+00 -0.000000000000000000e+00 0.000000000000000000e+00 0.000000000000000000e+00 -0.000000000000000000e+00 -0.000000000000000000e+00 0.000000000000000000e+00 -0.000000000000000000e+00 0.000000000000000000e+00 0.000000000000000000e+00 0.000000000000000000e+00 0.000000000000000000e+00 -0.000000000000000000e+00 0.000000000000000000e+00 -0.000000000000000000e+00 0.000000000000000000e+00 -0.000000000000000000e+00 -0.000000000000000000e+00 0.000000000000000000e+00 -0.000000000000000000e+00 -0.000000000000000000e+00 0.000000000000000000e+00
-6.922602653503417969e-03 1.552286148071289062e-01 -1.266114115715026855e-01 1.577432602643966675e-01 1.633174717426300049e-01 1.086852420121431351e-02 1.139466390013694763e-01 -1.859460175037384033e-01 2.969453036785125732e-01 -3.422618657350540161e-02 2.180790454149246216e-01 7.301045581698417664e-03 -1.124508902430534363e-01 -1.061283499002456665e-01 -7.231516391038894653e-02 2.248229235410690308e-01 1.043246909976005554e-01 1.891820281744003296e-01 3.325902819633483887e-01 6.752296537160873413e-02 -3.362376242876052856e-02 1.126225106418132782e-02 8.012811094522476196e-02 -2.540400624275207520e-02 2.886123657226562500e-01 4.004793241620063782e-02 1.252581030130386353e-01 -1.596955507993698120e-01 1.251177638769149780e-01 2.553832903504371643e-02 2.625363171100616455e-01 -1.484238952398300171e-01 1.817388832569122314e-02 1.055246815085411072e-01 1.852152198553085327e-01 6.019525974988937378e-02 -1.223071292042732239e-01 2.540504336357116699e-01 -4.521270096302032471e-02 1.143743023276329041e-01 3.053865730762481689e-01 2.988992258906364441e-02 -9.247221797704696655e-02 -9.433255344629287720e-02 1.460438370704650879e-01 -1.305058691650629044e-02 7.096474990248680115e-03 4.366450756788253784e-02 -2.518337368965148926e-01 1.034451946616172791e-01 2.700017988681793213e-01 2.778518199920654297e-01 2.197093218564987183e-01 -3.747615963220596313e-02 3.727339953184127808e-02 -2.019538879394531250e-01 1.060699149966239929e-01 -2.326065748929977417e-01 -2.283633649349212646e-01 -2.556810900568962097e-02 1.023338809609413147e-01 7.349594682455062866e-02 -1.511774659156799316e-01 -1.888474524021148682e-01 -0.000000000000000000e+00 -0.000000000000000000e+00 0.000000000000000000e+00 0.000000000000000000e+00 -0.000000000000000000e+00 0.000000000000000000e+00 -0.000000000000000000e+00 0.000000000000000000e+00 0.000000000000000000e+00 0.000000000000000000e+00 0.000000000000000000e+00 -0.000000000000000000e+00 -0.000000000000000000e+00 0.000000000000000000e+00 0.000000000000000000e+00 0.000000000000000000e+00 -0.000000000000000000e+00 0.000000000000000000e+00 0.000000000000000000e+00 -0.000000000000000000e+00 -0.000000000000000000e+00 -0.000000000000000000e+00 0.000000000000000000e+00 -0.000000000000000000e+00 -0.000000000000000000e+00 0.000000000000000000e+00 0.000000000000000000e+00 0.000000000000000000e+00 -0.000000000000000000e+00 -0.000000000000000000e+00 0.000000000000000000e+00 0.000000000000000000e+00 -0.000000000000000000e+00 -0.000000000000000000e+00 -0.000000000000000000e+00 0.000000000000000000e+00 0.000000000000000000e+00 0.000000000000000000e+00 -0.000000000000000000e+00 0.000000000000000000e+00 -0.000000000000000000e+00 -0.000000000000000000e+00 -0.000000000000000000e+00 0.000000000000000000e+00 -0.000000000000000000e+00 0.000000000000000000e+00 -0.000000000000000000e+00 -0.000000000000000000e+00 -0.000000000000000000e+00 0.000000000000000000e+00 0.000000000000000000e+00 -0.000000000000000000e+00 0.000000000000000000e+00 0.000000000000000000e+00 -0.000000000000000000e+00 -0.000000000000000000e+00 0.000000000000000000e+00 -0.000000000000000000e+00 0.000000000000000000e+00 0.000000000000000000e+00 -0.000000000000000000e+00 0.000000000000000000e+00 -0.000000000000000000e+00 0.000000000000000000e+00
2.766574621200561523e-01 5.255792662501335144e-02 -1.178446561098098755e-01 -2.573634497821331024e-02 -4.014732316136360168e-02 -4.624665081501007080e-01 -3.055586107075214386e-02 1.602374911308288574e-01 1.180621087551116943e-01 2.276210188865661621e-01 4.299575462937355042e-02 3.402411639690399170e-01 1.474587619304656982e-01 -2.443966716527938843e-01 1.551993042230606079e-01 -4.714879021048545837e-02 1.334384828805923462e-01 2.190550565719604492e-01 -9.027861058712005615e-02 1.679150462150573730e-01 -2.886441051959991455e-01 -5.065438523888587952e-02 1.154656261205673218e-01 2.840622328221797943e-02 -7.220865786075592041e-02 1.905902028083801270e-01 -3.089434206485748291e-01 1.632612198591232300e-01 -1.958410888910293579e-01 7.337918877601623535e-02 2.128128111362457275e-01 -2.485846579074859619e-01 2.564583718776702881e-01 -1.381774060428142548e-02 3.862486183643341064e-01 5.733287706971168518e-02 3.728540614247322083e-02 2.123521268367767334e-01 -1.594682335853576660e-01 2.762633264064788818e-01 -3.462086021900177002e-01 1.429381966590881348e-01 -1.124765258282423019e-02 1.437450349330902100e-01 -6.239863857626914978e-02 2.219416387379169464e-02 5.733586475253105164e-02 -6.955969333648681641e-02 4.267146345227956772e-03 1.261690557003021240e-01 1.993913799524307251e-01 1.193902045488357544e-01 -2.868165029212832451e-03 -1.592348664999008179e-01 1.671429574489593506e-01 -2.334260344505310059e-01 -1.843314021825790405e-01 2.209680080413818359e-01 1.372678484767675400e-02 4.508519545197486877e-02 2.651782520115375519e-02 2.005095332860946655e-01 3.028633892536163330e-01 1.912388503551483154e-01 -0.000000000000000000e+00 -0.000000000000000000e+00 0.000000000000000000e+00 -0.000000000000000000e+00 -0.000000000000000000e+00 -0.000000000000000000e+00 0.000000000000000000e+00 0.000000000000000000e+00 0.000000000000000000e+00 0.000000000000000000e+00 0.000000000000000000e+00 -0.000000000000000000e+00 0.000000000000000000e+00 -0.000000000000000000e+00 -0.000000000000000000e+00 0.000000000000000000e+00 -0.000000000000000000e+00 -0.000000000000000000e+00 0.000000000000000000e+00 0.000000000000000000e+00 0.000000000000000000e+00 0.000000000000000000e+00 0.000000000000000000e+00 0.000000000000000000e+00 0.000000000000000000e+00 -0.000000000000000000e+00 -0.000000000000000000e+00 0.000000000000000000e+00 -0.000000000000000000e+00 0.000000000000000000e+00 0.000000000000000000e+00 -0.000000000000000000e+00 0.000000000000000000e+00 -0.000000000000000000e+00 -0.000000000000000000e+00 -0.000000000000000000e+00 0.000000000000000000e+00 -0.000000000000000000e+00 -0.000000000000000000e+00 -0.000000000000000000e+00 -0.000000000000000000e+00 0.000000000000000000e+00 0.000000000000000000e+00 0.000000000000000000e+00 -0.000000000000000000e+00 0.000000000000000000e+00 0.000000000000000000e+00 -0.000000000000000000e+00 0.000000000000000000e+00 -0.000000000000000000e+00 0.000000000000000000e+00 0.000000000000000000e+00 0.000000000000000000e+00 0.000000000000000000e+00 -0.000000000000000000e+00 0.000000000000000000e+00 0.000000000000000000e+00 0.000000000000000000e+00 -0.000000000000000000e+00 0.000000000000000000e+00 0.000000000000000000e+00 0.000000000000000000e+00 -0.000000000000000000e+00 -0.000000000000000000e+00
-2.001073360443115234e-01 3.478892445564270020e-01 1.257774829864501953e-01 -1.285326182842254639e-01 -6.446803361177444458e-02 1.567018628120422363e-01 4.625046625733375549e-02 3.332278877496719360e-02 -2.052547633647918701e-01 5.729267001152038574e-02 -1.392378956079483032e-01 5.631696805357933044e-02 -2.281372845172882080e-01 -8.573394268751144409e-03 4.744453355669975281e-02 -6.358388066291809082e-02 4.611825570464134216e-02 -3.035958297550678253e-02 2.029998227953910828e-02 -1.004074066877365112e-01 4.865908529609441757e-03 5.349376704543828964e-03 2.538732290267944336e-01 1.017514914274215698e-01 -1.296543926000595093e-01 -1.706459075212478638e-01 -1.230188906192779541e-01 2.564028277993202209e-02 1.063897758722305298e-01 -1.176459789276123047e-01 -1.027648001909255981e-01 -1.160976886749267578e-01 -2.795954793691635132e-02 1.924979984760284424e-01 -5.356061086058616638e-02 4.240866377949714661e-02 -5.992621183395385742e-03 1.700496077537536621e-01 -5.697920918464660645e-02 7.293170690536499023e-02 -7.064096629619598389e-02 -2.228377759456634521e-01 1.235152482986450195e-01 6.834273040294647217e-02 -1.576354503631591797e-01 4.840874671936035156e-02 3.145716190338134766e-01 1.628467589616775513e-01 3.948255479335784912e-01 -1.508789509534835815e-01 6.676219403743743896e-02 -1.066407561302185059e-02 -1.609924435615539551e-01 -3.648283705115318298e-02 -1.991329193115234375e-01 2.287949249148368835e-02 3.067963719367980957e-01 1.763473004102706909e-01 -6.909738760441541672e-03 -3.415253460407257080e-01 2.611297369003295898e-01 -4.590776562690734863e-02 2.518281573429703712e-03 -9.332834184169769287e-02 0.000000000000000000e+00 -0.000000000000000000e+00 0.000000000000000000e+00 -0.000000000000000000e+00 0.000000000000000000e+00 -0.000000000000000000e+00 0.000000000000000000e+00 -0.000000000000000000e+00 -0.000000000000000000e+00 -0.000000000000000000e+00 -0.000000000000000000e+00 -0.000000000000000000e+00 0.000000000000000000e+00 0.000000000000000000e+00 0.000000000000000000e+00 -0.000000000000000000e+00 0.000000000000000000e+00 0.000000000000000000e+00 -0.000000000000000000e+00 0.000000000000000000e+00 -0.000000000000000000e+00 -0.000000000000000000e+00 0.000000000000000000e+00 -0.000000000000000000e+00 -0.000000000000000000e+00 0.000000000000000000e+00 -0.000000000000000000e+00 0.000000000000000000e+00 -0.000000000000000000e+00 0.000000000000000000e+00 -0.000000000000000000e+00 -0.000000000000000000e+00 0.000000000000000000e+00 -0.000000000000000000e+00 -0.000000000000000000e+00 0.000000000000000000e+00 0.000000000000000000e+00 -0.000000000000000000e+00 0.000000000000000000e+00 0.000000000000000000e+00 -0.000000000000000000e+00 0.000000000000000000e+00 0.000000000000000000e+00 -0.000000000000000000e+00 0.000000000000000000e+00 -0.000000000000000000e+00 0.000000000000000000e+00 0.000000000000000000e+00 -0.000000000000000000e+00 0.000000000000000000e+00 0.000000000000000000e+00 -0.000000000000000000e+00 -0.000000000000000000e+00 0.000000000000000000e+00 -0.000000000000000000e+00 -0.000000000000000000e+00 -0.000000000000000000e+00 -0.000000000000000000e+00 -0.000000000000000000e+00 0.000000000000000000e+00 -0.000000000000000000e+00 0.000000000000000000e+00 0.000000000000000000e+00 0.000000000000000000e+00
