2.313636839389801025e-01
-3.219020739197731018e-02
2.340926229953765869e-01
-2.023898214101791382e-01
-1.080168113112449646e-01
6.040745601058006287e-02
7.224071770906448364e-03
-4.908319562673568726e-02
1.103784665465354919e-01
-1.422068625688552856e-01
-1.442026793956756592e-01
-9.932368248701095581e-02
-1.296539008617401123e-01
8.891936391592025757e-02
1.173690613359212875e-02
-1.624726653099060059e-01
-1.762726716697216034e-02
4.765570163726806641e-02
-3.829946517944335938e-01
-7.353896647691726685e-02
3.280770480632781982e-01
-6.403013318777084351e-02
1.095216535031795502e-02
2.767631411552429199e-01
1.347016096115112305e-01
2.295030355453491211e-01
1.550393085926771164e-02
-2.268369197845458984e-01
-9.272788465023040771e-02
-9.533096849918365479e-02
2.758339941501617432e-01
7.828933186829090118e-03
5.154912173748016357e-02
-6.512337923049926758e-02
1.475022137165069580e-01
9.349065832793712616e-03
-1.830886900424957275e-01
6.151232868432998657e-02
1.295177489519119263e-01
2.868094146251678467e-01
1.245012134313583374e-01
-1.746451668441295624e-02
5.810032039880752563e-02
5.013389885425567627e-02
2.364921718835830688e-01
3.395662084221839905e-02
1.292188018560409546e-01
2.067388892173767090e-01
1.372957527637481689e-01
1.222781911492347717e-01
1.167576834559440613e-01
2.808608300983905792e-02
-3.134310618042945862e-02
2.105757407844066620e-02
4.000056982040405273e-01
5.278950557112693787e-02
1.118679717183113098e-02
3.164247050881385803e-02
3.639247640967369080e-02
1.573291122913360596e-01
-7.645354419946670532e-02
1.857342869043350220e-01
-6.554005295038223267e-02
-1.004187241196632385e-01
-5.882679671049118042e-02
-5.106117576360702515e-02
2.866805158555507660e-02
1.633574813604354858e-01
-5.981289967894554138e-02
2.065836936235427856e-01
-1.034860014915466309e-01
-1.361312866210937500e-01
-4.450380429625511169e-02
-1.110336836427450180e-02
3.533194586634635925e-02
-3.434808850288391113e-01
2.798665165901184082e-01
-8.170280605554580688e-02
-4.527398049831390381e-01
-2.320893257856369019e-01
1.539105325937271118e-01
3.275713026523590088e-01
-1.002914011478424072e-01
-8.160523325204849243e-02
-4.353068023920059204e-02
-1.490218788385391235e-01
-5.198855884373188019e-03
3.553007915616035461e-02
9.202179312705993652e-02
9.912952780723571777e-02
-1.748971641063690186e-01
-1.263852566480636597e-01
-4.494519438594579697e-03
3.436257317662239075e-02
4.014002680778503418e-01
2.854556143283843994e-01
3.067977130413055420e-01
-1.073042154312133789e-01
-2.052960097789764404e-01
2.073808014392852783e-01
7.333247456699609756e-03
2.350684851408004761e-01
-1.446858495473861694e-01
3.180867061018943787e-02
5.047366488724946976e-03
1.837769150733947754e-01
2.024516463279724121e-01
-9.248875826597213745e-02
4.224304109811782837e-02
2.071938514709472656e-01
9.659954160451889038e-02
9.700932353734970093e-02
3.302281722426414490e-02
7.351430598646402359e-03
2.440289780497550964e-02
9.009619057178497314e-02
1.668549776077270508e-01
-3.407506942749023438e-01
2.037936002016067505e-01
3.697105646133422852e-01
3.613807260990142822e-02
-7.075351476669311523e-02
-1.465013027191162109e-01
3.407329618930816650e-01
7.825271040201187134e-02
-1.398803591728210449e-01
2.605034410953521729e-01
2.088544219732284546e-01
2.247186563909053802e-02
-2.286148518323898315e-01
-4.966854304075241089e-02
-6.643895059823989868e-02
-1.299405246973037720e-01
-6.289461255073547363e-02
6.262221932411193848e-02
-1.349381655454635620e-01
8.898536860942840576e-02
5.755233112722635269e-03
1.850156933069229126e-01
5.215858668088912964e-02
3.194512054324150085e-02
1.503795851022005081e-02
1.274270415306091309e-01
2.030482515692710876e-02
-2.742557041347026825e-02
6.169883534312248230e-02
-1.188163179904222488e-02
-1.577949076890945435e-01
2.378506958484649658e-01
3.061119318008422852e-01
-8.964470587670803070e-03
2.261449024081230164e-02
2.074067294597625732e-02
-1.047208160161972046e-01
1.213142126798629761e-01
-6.141803169157356024e-05
3.471985831856727600e-02
7.531841099262237549e-02
-1.363274455070495605e-01
2.684578001499176025e-01
-2.905707657337188721e-01
-1.711581945419311523e-01
-1.600229293107986450e-01
6.165893282741308212e-03
1.726840287446975708e-01
-2.463742718100547791e-02
9.590403735637664795e-02
-3.283247351646423340e-02
9.445728361606597900e-02
-3.747488663066178560e-04
3.526211380958557129e-01
-7.864276319742202759e-02
3.680706769227981567e-02
-3.004100322723388672e-01
-2.258396334946155548e-02
-1.364766210317611694e-01
-1.462522000074386597e-01
1.851246356964111328e-01
1.274171173572540283e-01
-1.698380857706069946e-01
5.730500072240829468e-02
3.599312007427215576e-01
-7.477410137653350830e-02
1.766987591981887817e-01
2.561914324760437012e-01
1.863481998443603516e-01
-9.241208434104919434e-02
-3.156135678291320801e-01
-7.104547321796417236e-02
-4.658367950469255447e-03
1.528853625059127808e-01
-2.034675776958465576e-01
1.149380579590797424e-01
-7.845977693796157837e-02
1.530176848173141479e-01
-4.520784690976142883e-02
-1.674094796180725098e-01
-2.230286598205566406e-01
2.438771352171897888e-02
-2.312443591654300690e-02
1.417544335126876831e-01
2.614092230796813965e-01
1.318238079547882080e-01
1.451545655727386475e-01
6.658629328012466431e-02
-1.332878172397613525e-01
5.432098358869552612e-02
7.976116240024566650e-02
-1.370758414268493652e-01
5.100519396364688873e-03
2.422273159027099609e-01
-3.174574673175811768e-02
2.895188331604003906e-02
1.556215882301330566e-01
3.119074106216430664e-01
-8.815210312604904175e-02
1.695312112569808960e-01
1.870214045047760010e-01
-6.353864818811416626e-02
-1.069087348878383636e-02
1.605450659990310669e-01
-1.923797279596328735e-01
-2.129117995500564575e-01
2.257338762283325195e-01
-8.049915730953216553e-02
1.203804314136505127e-01
2.017530798912048340e-01
9.108766168355941772e-02
2.134342677891254425e-02
-9.692510962486267090e-02
2.306347042322158813e-01
1.898595541715621948e-01
-3.616358339786529541e-02
5.067820101976394653e-02
9.165472537279129028e-02
-2.177188694477081299e-01
1.660581678152084351e-02
9.351650625467300415e-02
2.647715434432029724e-02
-2.950276434421539307e-02
-1.841259896755218506e-01
8.546248078346252441e-02
7.435629516839981079e-02
2.389317601919174194e-01
6.735951453447341919e-02
3.640849888324737549e-02
4.485661536455154419e-02
-5.468358099460601807e-02
-1.185285113751888275e-02
2.540148794651031494e-01
1.980520188808441162e-01
3.215379640460014343e-02
1.667674332857131958e-01
8.157604187726974487e-02
1.010477840900421143e-01
-8.109635114669799805e-02
6.415057182312011719e-02
-8.508541435003280640e-02
-1.964692026376724243e-01
1.344327535480260849e-02
1.555626541376113892e-01
-6.908614188432693481e-02
8.939255028963088989e-02
-2.359837740659713745e-01
3.553669154644012451e-01
-1.098443493247032166e-01
1.711632460355758667e-01
-4.439946636557579041e-02
-2.055604159832000732e-01
2.213449776172637939e-01
-6.787062436342239380e-02
-5.426118895411491394e-02
7.664916664361953735e-02
-7.505795359611511230e-02
-1.353534609079360962e-01
5.525466427206993103e-02
-6.953074131160974503e-03
-4.203576967120170593e-02
2.611099481582641602e-01
-1.581759564578533173e-02
-8.160952478647232056e-02
4.124164283275604248e-01
-3.478876873850822449e-02
-5.023026838898658752e-02
4.372957721352577209e-02
-4.498494416475296021e-02
6.949678808450698853e-02
-9.700085222721099854e-02
2.112483792006969452e-02
1.171694844961166382e-01
-2.599738352000713348e-02
-2.632730603218078613e-01
-2.820959389209747314e-01
-2.015798538923263550e-01
1.071525737643241882e-01
3.780327737331390381e-02
2.511402405798435211e-02
1.456107199192047119e-01
1.190123558044433594e-01
-1.620000600814819336e-01
1.351305108983069658e-04
8.317821472883224487e-02
7.967330515384674072e-02
1.273886263370513916e-01
-1.158863902091979980e-01
-1.070448085665702820e-01
8.671947754919528961e-03
-1.703725755214691162e-01
1.028326824307441711e-01
-2.969012558460235596e-01
1.136861518025398254e-01
7.307235151529312134e-02
-1.608974486589431763e-01
1.927646249532699585e-01
-2.332388162612915039e-01
-2.740045189857482910e-01
1.988278329372406006e-01
1.281411945819854736e-01
3.113967739045619965e-02
-2.913472428917884827e-02
1.580669134855270386e-01
9.158489108085632324e-02
-2.448269724845886230e-02
-3.352515399456024170e-02
-1.048718839883804321e-01
2.827744483947753906e-01
-1.187208741903305054e-01
3.085464006289839745e-03
1.159615218639373779e-01
2.590636909008026123e-01
-9.977190196514129639e-02
7.930673658847808838e-02
5.518927425146102905e-02
9.780579805374145508e-02
-8.182640373706817627e-02
-1.901576668024063110e-01
7.797633111476898193e-02
-3.346411138772964478e-02
-2.664686143398284912e-01
-6.872322410345077515e-02
-1.034805644303560257e-02
-1.140089780092239380e-01
-7.774642109870910645e-02
-4.363192245364189148e-02
-1.649644225835800171e-01
1.844255998730659485e-02
-2.195661962032318115e-01
3.156197965145111084e-01
-2.736847102642059326e-02
-2.013939023017883301e-01
-2.161857299506664276e-02
1.705113202333450317e-01
-8.821110427379608154e-02
1.594273746013641357e-01
-1.218391656875610352e-01
3.968714177608489990e-02
-1.744617223739624023e-01
-8.059861510992050171e-02
6.537486612796783447e-02
2.127306461334228516e-01
-2.145745605230331421e-01
1.589103192090988159e-01
3.672331105917692184e-03
-2.802932858467102051e-01
5.221575498580932617e-02
1.154027953743934631e-01
-1.862912774085998535e-01
-2.161881420761346817e-03
1.150339394807815552e-01
-8.969268202781677246e-02
-1.021063327789306641e-01
-7.456613332033157349e-02
1.676761955022811890e-01
6.769472360610961914e-02
-5.113729089498519897e-02
-3.338800668716430664e-01
-9.531847387552261353e-02
1.211874634027481079e-01
-8.208201825618743896e-02
-1.056865453720092773e-01
4.735464975237846375e-02
1.443756222724914551e-01
-6.625980883836746216e-02
-7.126337289810180664e-02
-3.114463388919830322e-01
3.335191681981086731e-02
-1.339163929224014282e-01
-9.794654697179794312e-02
-2.068371921777725220e-01
1.383803784847259521e-01
-1.646945774555206299e-01
-2.987555265426635742e-01
-2.050270736217498779e-01
2.249428443610668182e-02
-1.885187923908233643e-01
4.684760421514511108e-02
1.935069411993026733e-01
1.945971846580505371e-01
1.115172207355499268e-01
-4.405119270086288452e-02
-4.302524402737617493e-02
-1.135381013154983521e-01
2.224824279546737671e-01
1.285393685102462769e-01
2.449663542211055756e-02
3.413981497287750244e-01
-1.008328329771757126e-02
1.399096846580505371e-01
-3.122513182461261749e-02
3.131321966648101807e-01
-2.489659339189529419e-01
-1.982551217079162598e-01
-1.183351799845695496e-01
9.308733791112899780e-02
7.624296844005584717e-02
9.653440117835998535e-02
-4.377137720584869385e-01
8.535536937415599823e-03
3.674043715000152588e-02
-2.806818520184606314e-04
3.218634054064750671e-02
1.773654073476791382e-01
-6.201313808560371399e-02
2.429769188165664673e-01
1.935961097478866577e-01
1.428822427988052368e-01
9.552004933357238770e-02
-2.805716395378112793e-01
1.338400095701217651e-01
1.026892736554145813e-01
-1.225998178124427795e-01
4.785530269145965576e-01
1.554556190967559814e-01
2.904646396636962891e-01
-1.724600642919540405e-01
-1.460841298103332520e-01
-1.035950146615505219e-02
6.738997250795364380e-02
-1.004036441445350647e-01
5.395638197660446167e-02
-2.725754976272583008e-01
6.509828567504882812e-02
2.972988784313201904e-02
-1.880521774291992188e-01
-4.177807271480560303e-02
9.665334969758987427e-02
3.220793977379798889e-02
1.337311863899230957e-01
-5.630220174789428711e-01
-1.044936180114746094e-01
9.899134188890457153e-02
1.893696486949920654e-01
-1.716598123311996460e-01
-2.072122395038604736e-01
5.775128956884145737e-03
3.099865615367889404e-01
7.915862649679183960e-02
1.246410235762596130e-01
3.100512623786926270e-01
-4.012171328067779541e-01
-1.232143417000770569e-01
1.564755588769912720e-01
1.083012670278549194e-01
-5.738641694188117981e-02
8.779622614383697510e-02
5.041433125734329224e-02
1.756215989589691162e-01
1.971348822116851807e-01
-1.989810168743133545e-01
2.968500852584838867e-01
-1.783898845314979553e-02
9.751496464014053345e-02
8.024792373180389404e-02
-2.928047180175781250e-01
6.596703827381134033e-02
1.912313397042453289e-03
-2.700617723166942596e-02
-2.356323748826980591e-01
-2.448553889989852905e-01
-1.600723862648010254e-01
1.740353703498840332e-01
8.991605043411254883e-02
1.659706421196460724e-02
3.103102557361125946e-02
1.977888047695159912e-01
-1.239606514573097229e-01
9.320946782827377319e-02
3.190869465470314026e-04
1.713404208421707153e-01
-8.172965794801712036e-02
1.922912150621414185e-01
-3.534187972545623779e-01
-2.080774120986461639e-02
1.126968637108802795e-01
4.019970446825027466e-02
1.650131493806838989e-01
-1.031755432486534119e-01
-2.159653306007385254e-01
-1.795117408037185669e-01
3.973892331123352051e-02
4.184442106634378433e-03
-5.369275342673063278e-03
-9.086689352989196777e-02
-1.818827539682388306e-01
-3.818796575069427490e-02
1.859052181243896484e-01
-9.414862841367721558e-02
1.513205617666244507e-01
-1.000699922442436218e-01
-1.461648195981979370e-01
-2.917136996984481812e-02
1.368284374475479126e-01
1.534358412027359009e-01
1.373770385980606079e-01
-3.713942468166351318e-01
-4.094077274203300476e-02
1.301421374082565308e-01
1.367400288581848145e-01
-1.453453451395034790e-01
2.197671532630920410e-01
2.284168899059295654e-01
-5.377329420298337936e-03
-5.771874263882637024e-02
-1.629967093467712402e-01
1.960314810276031494e-01
3.798067867755889893e-01
2.536518871784210205e-01
-1.044783834367990494e-02
1.936560571193695068e-01
-5.699028074741363525e-02
-3.790711611509323120e-02
1.772277057170867920e-01
-1.670333184301853180e-02
-1.721026897430419922e-01
-3.104997100308537483e-03
1.687109656631946564e-02
-2.958562374114990234e-01
-1.511325836181640625e-01
-2.335871160030364990e-01
9.104645997285842896e-02
-6.287307292222976685e-02
1.218910329043865204e-02
-1.081372871994972229e-01
-2.311303764581680298e-01
-1.260746717453002930e-01
2.938072197139263153e-02
-1.537387538701295853e-02
2.907858043909072876e-02
-2.480907440185546875e-01
-7.016415148973464966e-02
-1.996712237596511841e-01
3.469207137823104858e-02
-2.156604826450347900e-01
-1.819529337808489799e-03
-1.593088209629058838e-01
1.417350918054580688e-01
-1.313374489545822144e-01
-1.390876024961471558e-01
1.602637320756912231e-01
-3.857912868261337280e-02
-5.418942309916019440e-03
-4.202759824693202972e-03
2.402951419353485107e-01
9.363278746604919434e-02
1.939088255167007446e-01
-8.905720897018909454e-03
1.254302561283111572e-01
-1.227684915065765381e-01
1.011566258966922760e-02
-1.671752333641052246e-01
6.980538368225097656e-02
1.218028739094734192e-01
-1.361074745655059814e-01
7.339268922805786133e-02
-1.975101828575134277e-01
-4.411966353654861450e-02
-9.773271530866622925e-02
1.584088802337646484e-02
-1.388110071420669556e-01
-3.423365205526351929e-02
-3.040797077119350433e-02
1.315884143114089966e-01
2.759553492069244385e-01
1.050967797636985779e-01
-6.319737434387207031e-02
-8.232653886079788208e-02
9.165871143341064453e-02
2.100895345211029053e-01
3.163031116127967834e-02
-4.912722390145063400e-03
1.554287783801555634e-02
1.451887339353561401e-01
-6.874691694974899292e-02
1.858553588390350342e-01
-2.888921499252319336e-01
6.494426168501377106e-03
2.339033037424087524e-01
-1.036057397723197937e-01
1.399341374635696411e-01
3.554386645555496216e-02
-2.212206721305847168e-01
-9.466902166604995728e-02
1.551892310380935669e-01
7.372945547103881836e-02
2.386402934789657593e-01
-7.328378409147262573e-02
-1.426870971918106079e-01
-1.332498192787170410e-01
8.130413293838500977e-02
-8.824953436851501465e-02
1.349100321531295776e-01
6.201325356960296631e-02
1.817472577095031738e-01
2.624050676822662354e-01
-1.015771552920341492e-01
1.781915575265884399e-01
6.370061077177524567e-03
2.987515740096569061e-02
4.187304899096488953e-02
1.523202508687973022e-01
-2.463195659220218658e-02
7.322681695222854614e-02
-3.405406326055526733e-02
-2.032747566699981689e-01
8.080725371837615967e-02
8.400930464267730713e-02
3.045866787433624268e-01
1.712380908429622650e-02
5.982427299022674561e-02
-4.045954719185829163e-02
1.638691127300262451e-01
2.893159091472625732e-01
1.172978803515434265e-01
5.445169657468795776e-02
-3.948258981108665466e-02
-4.978124424815177917e-02
-4.030665755271911621e-02
-3.308021649718284607e-02
1.392146646976470947e-01
1.034438610076904297e-01
1.670725941658020020e-01
7.373646646738052368e-02
1.795199140906333923e-02
-2.200771570205688477e-01
1.755031570792198181e-02
-7.659575436264276505e-03
-5.820213258266448975e-02
-1.321653276681900024e-01
9.198934584856033325e-02
2.194761335849761963e-01
-3.029905632138252258e-02
-8.899191021919250488e-02
-9.544196724891662598e-02
-2.489803433418273926e-01
-3.189684450626373291e-01
4.230048656463623047e-01
9.096298366785049438e-03
1.325345784425735474e-01
2.029146254062652588e-01
-9.397422522306442261e-02
1.372064352035522461e-01
6.574901938438415527e-02
-4.948027059435844421e-02
2.589504234492778778e-02
4.612176492810249329e-02
-3.749210834503173828e-01
-1.897989809513092041e-01
-1.202040687203407288e-01
-1.384191811084747314e-01
-1.825933605432510376e-01
-2.369616366922855377e-02
2.592239342629909515e-02
1.878983825445175171e-01
-3.053584396839141846e-01
-1.084120050072669983e-01
9.469573944807052612e-02
-1.133440807461738586e-01
2.304046899080276489e-01
9.255057573318481445e-02
-1.257973257452249527e-02
3.092481195926666260e-02
-1.996115408837795258e-02
8.199586719274520874e-02
2.763458341360092163e-02
2.306314557790756226e-01
5.878102456335909665e-06
2.751207724213600159e-02
1.271742433309555054e-01
-2.208197712898254395e-01
-1.744722574949264526e-02
1.081470474600791931e-01
-1.711522974073886871e-02
1.065106838941574097e-01
3.821791335940361023e-02
-1.704433113336563110e-01
-1.054405048489570618e-01
4.784022271633148193e-02
-1.519492864608764648e-01
1.878904700279235840e-01
-2.064905762672424316e-01
4.372688382863998413e-02
1.626478284597396851e-01
6.298672407865524292e-02
-4.361743479967117310e-02
1.540265530347824097e-01
3.067443668842315674e-01
1.739263236522674561e-01
-3.056862354278564453e-01
-2.333793044090270996e-01
-1.699992269277572632e-01
8.835831284523010254e-02
-1.350387334823608398e-01
2.916544489562511444e-02
1.734237931668758392e-02
-2.391531467437744141e-01
-2.153768949210643768e-02
1.006642431020736694e-01
2.114038765430450439e-01
1.821228675544261932e-02
-1.649052351713180542e-01
1.738177835941314697e-01
7.122820615768432617e-02
-3.113708458840847015e-02
-2.292838394641876221e-01
1.956771463155746460e-01
1.203497424721717834e-01
4.699139669537544250e-02
-1.065370626747608185e-02
-2.240412086248397827e-01
-1.939110755920410156e-01
-1.124726328998804092e-02
9.116367995738983154e-02
-9.059901535511016846e-02
-8.353550918400287628e-03
3.841571509838104248e-02
-8.413693867623806000e-03
-2.134338766336441040e-01
5.887113511562347412e-02
-1.607310771942138672e-01
-3.615663647651672363e-01
-1.613197773694992065e-01
9.571219235658645630e-02
-7.354173064231872559e-02
-8.991266787052154541e-02
6.466945260763168335e-02
3.873788192868232727e-02
-9.962569177150726318e-02
-2.059324271976947784e-02
-5.841539800167083740e-02
-5.985772982239723206e-02
1.112188994884490967e-01
2.431749254465103149e-01
8.832681179046630859e-02
1.971039026975631714e-01
-1.549898087978363037e-01
-1.451205462217330933e-01
2.280575968325138092e-02
-2.878837659955024719e-02
-1.740693598985671997e-01
-1.195344422012567520e-02
-1.419897973537445068e-01
6.597799807786941528e-02
2.310170084238052368e-01
-3.102015852928161621e-01
5.014974251389503479e-02
4.812876507639884949e-02
-4.066910222172737122e-02
-2.407538145780563354e-01
2.975977025926113129e-02
-1.094155572354793549e-02
1.019405201077461243e-03
1.163537353277206421e-01
-2.252817302942276001e-01
2.862646877765655518e-01
-2.492084503173828125e-01
-2.577726244926452637e-01
1.277095377445220947e-01
2.269446551799774170e-01
1.661758311092853546e-02
5.095973238348960876e-02
-1.138335242867469788e-01
2.033168673515319824e-01
-1.320469528436660767e-01
2.274475395679473877e-01
-4.373152740299701691e-03
-8.723802864551544189e-02
3.898671269416809082e-02
9.780156426131725311e-03
3.173350915312767029e-02
-4.546185210347175598e-02
-4.861719161272048950e-02
-1.943456232547760010e-01
-2.062912881374359131e-01
6.578871607780456543e-02
3.132808580994606018e-02
3.314778208732604980e-01
1.915434151887893677e-01
1.136957406997680664e-01
9.201051667332649231e-03
-2.160173654556274414e-02
1.018243581056594849e-01
-1.389947384595870972e-01
-1.718351244926452637e-01
-5.884323269128799438e-02
1.938914358615875244e-01
-1.568606197834014893e-01
6.396897882223129272e-02
2.324274331331253052e-01
5.947364121675491333e-02
-1.062959879636764526e-01
1.567684710025787354e-01
1.813942193984985352e-01
4.234526678919792175e-02
-1.745730340480804443e-01
-2.512368559837341309e-01
6.641285866498947144e-02
-2.712234556674957275e-01
-9.700202941894531250e-02
-1.081339567899703979e-01
6.375459022819995880e-03
-1.083084940910339355e-01
5.823699384927749634e-02
-5.824873596429824829e-02
-5.992252752184867859e-02
-1.293257176876068115e-01
-1.292282808572053909e-02
-2.493144385516643524e-02
-2.217862308025360107e-01
-3.946076612919569016e-03
1.494395732879638672e-01
3.670957386493682861e-01
-9.722569584846496582e-02
-1.077778264880180359e-01
-2.994485795497894287e-01
-2.206444591283798218e-01
2.062827348709106445e-01
-3.866821527481079102e-02
-1.187281236052513123e-01
-3.878683224320411682e-02
-1.699204146862030029e-01
-1.158366352319717407e-01
-1.570310890674591064e-01
-2.396150976419448853e-01
8.189047873020172119e-02
6.945097446441650391e-02
5.429648980498313904e-02
-3.202340006828308105e-01
2.215738743543624878e-01
-1.311296820640563965e-01
-1.967000812292098999e-01
2.159971278160810471e-03
7.875725626945495605e-02
2.227360606193542480e-01
8.786632120609283447e-02
-7.790649775415658951e-03
1.569292042404413223e-03
-1.040487736463546753e-01
-1.582741737365722656e-01
-5.939316004514694214e-02
-4.295814409852027893e-02
1.038673594594001770e-01
-1.098054200410842896e-01
1.395675260573625565e-02
-8.773484081029891968e-02
-9.768088161945343018e-02
6.886786222457885742e-02
1.908818334341049194e-01
-5.008255690336227417e-02
2.841766476631164551e-01
-2.058818489313125610e-01
7.168410811573266983e-03
1.582679301500320435e-01
-9.476447850465774536e-02
-4.620919376611709595e-02
-5.563567578792572021e-02
8.384802192449569702e-02
6.622430682182312012e-02
-4.483284801244735718e-02
-2.612912356853485107e-01
3.955398499965667725e-02
-2.113243043422698975e-01
-3.423605263233184814e-01
2.466649115085601807e-01
3.445179164409637451e-01
9.799531847238540649e-02
3.861546888947486877e-02
-1.876376196742057800e-02
2.490732520818710327e-01
5.699305608868598938e-02
-1.207631826400756836e-01
-3.672303557395935059e-01
-2.237834222614765167e-02
2.833557780832052231e-03
2.236695736646652222e-01
-1.348987370729446411e-01
1.299124490469694138e-02
6.162035092711448669e-02
2.376905381679534912e-01
9.272252768278121948e-02
1.695932149887084961e-01
2.346050143241882324e-01
-1.035876478999853134e-02
2.145476341247558594e-01
1.287914663553237915e-01
1.863505840301513672e-01
-1.269592940807342529e-01
4.604873806238174438e-02
