-8.860545349307358265e-04
-1.007848535664379597e-03
-8.950961637310683727e-04
-8.842342649586498737e-04
-3.133788704872131348e-03
-8.151073125191032887e-04
-1.374987536109983921e-03
-8.273691055364906788e-04
-8.407333516515791416e-04
-3.219686215743422508e-03
-8.384993416257202625e-04
-1.073181279934942722e-03
-8.184745092876255512e-04
-8.425879641436040401e-04
-9.262019884772598743e-04
-8.537946268916130066e-04
5.602119024842977524e-03
-8.466704166494309902e-04
-8.398542995564639568e-04
-9.145576623268425465e-04
-8.154539391398429871e-04
-1.257940195500850677e-03
-8.940250263549387455e-04
-8.229647646658122540e-04
-8.768975021666847169e-06
-8.486449951305985451e-04
7.020638440735638142e-04
-7.194534409791231155e-04
-8.716435986571013927e-04
-9.049428626894950867e-04
-8.061198750510811806e-04
-4.630174080375581980e-04
-1.006090664304792881e-03
-8.297992753796279430e-04
1.096793494070880115e-05
-8.328767144121229649e-04
-7.800541352480649948e-04
-7.680353592149913311e-04
-8.302148780785501003e-04
-1.112140598706901073e-03
-8.653503609821200371e-04
-3.943082119803875685e-04
-8.147807675413787365e-04
-8.647073409520089626e-04
-9.779490064829587936e-04
-8.269222453236579895e-04
-8.330930140800774097e-04
-9.359186515212059021e-04
-8.583848248235881329e-04
-8.456170908175408840e-04
-8.279323810711503029e-04
-1.329363905824720860e-03
-7.787610520608723164e-04
-8.141013677231967449e-04
-8.377358899451792240e-04
-8.251814288087189198e-04
-9.657470218371599913e-05
-1.531585934571921825e-03
-7.776645361445844173e-04
-8.384606335312128067e-04
-8.769272244535386562e-04
-1.998612424358725548e-03
-9.147613891400396824e-04
-8.433015900664031506e-04
-9.296654607169330120e-04
-8.495375514030456543e-04
-2.021642867475748062e-03
-8.155521354638040066e-04
-8.352500735782086849e-04
-8.099884726107120514e-04
-8.521960698999464512e-04
7.258777623064815998e-04
-1.023445627652108669e-03
-8.592770318500697613e-04
4.563369202514877543e-06
-8.766569662839174271e-04
1.182397409138502553e-05
-1.756042183842509985e-05
-1.098248503694776446e-05
-1.472924122936092317e-05
-8.232343825511634350e-04
-8.754068403504788876e-06
7.306795851036440581e-06
3.962145456171128899e-06
1.080600100067385938e-06
-8.533812942914664745e-04
-1.458323549741180614e-05
3.144223956041969359e-05
4.842691851081326604e-05
3.769376417039893568e-05
-8.672598632983863354e-04
2.851786302926484495e-05
7.808901500538922846e-06
4.728824569610878825e-05
-6.542867140524322167e-06
-8.465196588076651096e-04
1.219551268150098622e-05
1.868446133812540211e-06
2.430289168842136860e-05
2.350619979551993310e-05
-8.464324055239558220e-04
5.027939096180489287e-07
2.061843952105846256e-05
1.906382203742396086e-05
1.931440237967763096e-05
-8.522509015165269375e-04
2.177688884330564179e-06
-2.452221269777510315e-05
9.901705197989940643e-06
-1.112890913645969704e-05
-8.431276073679327965e-04
2.285606205987278372e-05
-1.103411068470450118e-05
9.995772416004911065e-06
6.015334292897023261e-06
-8.589528151787817478e-04
-5.570990197156788781e-06
-1.194299784401664510e-05
3.720233144122175872e-05
-1.692674049991182983e-05
-8.424338884651660919e-04
-1.328848156845197082e-05
-3.409916462260298431e-05
-1.186352619697572663e-05
1.851520937634631991e-05
-8.427827269770205021e-04
1.884266930574085563e-05
-2.740371564868837595e-05
7.944597200548741966e-06
1.846708619268611073e-05
-8.311556885018944740e-04
-1.669945777393877506e-05
-4.197629459667950869e-05
-1.591143643508985406e-07
-3.126007186438073404e-06
-8.611991070210933685e-04
8.549912308808416128e-06
-2.167415914300363511e-05
-1.875657835626043379e-05
1.542561403766740113e-05
-8.531426428817212582e-04
-1.225506366608897224e-05
-2.763402335403952748e-06
-2.569852995293331333e-06
-4.062396328663453460e-05
-8.443201659247279167e-04
-6.111609309300547466e-06
-7.578557415399700403e-06
2.255867002531886101e-05
-6.885881884954869747e-05
5.279232027532998472e-06
-6.729919114150106907e-04
-1.381998299621045589e-03
-3.243784885853528976e-03
2.306815076735801995e-05
-8.356700163858477026e-06
-3.977198048232821748e-06
-1.567582876305095851e-05
-7.781371823512017727e-04
-3.483542706817388535e-03
-2.167814272979740053e-05
1.260151748283533379e-05
-3.557956006261520088e-05
-1.792649891285691410e-05
-8.204905898310244083e-04
-2.361349061175133102e-06
-1.021526804834138602e-05
-2.107097134285140783e-05
-5.725834125769324601e-05
-7.043216555757680908e-06
1.434935722500085831e-02
1.853593252599239349e-02
-4.281796049326658249e-03
-1.845990300353150815e-05
-2.278360079799313098e-05
-9.218649211106821895e-06
4.147976171225309372e-03
-2.442208817228674889e-03
9.407131001353263855e-03
-2.615740413602907211e-05
-2.746737300185486674e-05
3.061728057218715549e-05
3.846819890895858407e-05
-8.106198511086404324e-04
2.784430515021085739e-03
2.420361124677583575e-05
2.805042458930984139e-05
-3.001675759151112288e-05
1.084814630303299055e-05
-8.345909300260245800e-04
9.395544111612252891e-06
-3.995989573013503104e-06
1.485301527281990275e-05
4.018974141217768192e-05
3.076824214076623321e-05
1.349868811666965485e-02
1.508092135190963745e-02
-4.392289090901613235e-03
5.814793894387548789e-06
-6.713799848512280732e-06
-1.085772510123206303e-05
-8.978748810477554798e-04
-1.143995206803083420e-03
-6.363464053720235825e-03
-1.117844112741295248e-05
5.041888289269991219e-05
-4.186308615317102522e-06
-3.741900854947743937e-06
-8.148823981173336506e-04
6.973156359890708700e-06
1.343413077847799286e-05
1.896256071631796658e-05
-3.235608528484590352e-05
-2.858192965504713356e-05
-8.297641179524362087e-04
-3.387898323126137257e-05
1.920852992043364793e-05
1.247944851456850301e-06
-7.122293936845380813e-06
-1.041443192661972716e-05
-7.616342627443373203e-04
-3.941954579204320908e-03
-1.571166649227961898e-05
-1.143024110206170008e-05
2.256419065815862268e-05
-2.393745671724900603e-05
-4.111854359507560730e-03
1.010031253099441528e-02
-9.879019111394882202e-03
8.454844646621495485e-06
1.839524880051612854e-02
2.046361987595446408e-05
7.687310244364198297e-06
-8.185955230146646500e-04
-1.956414431333541870e-03
-8.729521141503937542e-06
-4.716223884315695614e-06
-2.617719110276084393e-05
1.369257461192319170e-05
-8.325212984345853329e-04
9.059684089152142406e-06
-1.752363095874898136e-05
2.112036781909409910e-05
2.538855915190652013e-05
-1.102152782550547272e-05
-7.742090383544564247e-04
-1.039770245552062988e-02
-3.230307129342691042e-06
-3.272808726251241751e-07
5.263389539322815835e-06
2.524878073018044233e-05
-2.967880864161998034e-04
-3.258967306464910507e-03
3.233850933611392975e-03
-7.966721568664070219e-06
-3.028530591109301895e-05
2.246595613542012870e-05
1.281523873331025243e-05
-7.554058684036135674e-04
-6.055959966033697128e-03
-1.542138670629356056e-05
-1.283452911593485624e-05
1.979799708351492882e-05
5.892024546483298764e-06
-8.380762883462011814e-04
-4.933656236971728504e-05
-3.201515210093930364e-05
3.607945473049767315e-05
-1.750038609316106886e-05
-8.347889524884521961e-04
-2.614402001199778169e-05
-1.777722536644432694e-05
5.751371645601466298e-06
2.215489803347736597e-05
-5.673904524883255363e-05
-1.329366932623088360e-05
-4.075261531397700310e-04
-4.728532861918210983e-03
4.891279153525829315e-03
-2.557451261964160949e-05
1.869286596775054932e-02
1.362050170428119600e-05
-9.095714631257578731e-06
-9.274218464270234108e-04
1.106334663927555084e-02
-1.106954277929617092e-05
-8.111625356832519174e-05
-1.449228761885024142e-06
-1.606638215889688581e-05
-8.517964161001145840e-04
-3.111475962214171886e-05
-2.284601396240759641e-05
-1.259247892448911443e-05
4.288374839234165847e-06
-7.605398877785773948e-06
-7.857009768486022949e-04
-5.794627126306295395e-03
-1.204998898174380884e-05
2.477175985404755920e-05
-2.926821798610035330e-05
3.787246782849251758e-07
-1.505760825239121914e-03
1.398708438500761986e-03
-1.236370485275983810e-02
-1.616487134015187621e-05
-2.673730705282650888e-05
2.777529516606591642e-05
1.671614518272690475e-05
-6.604335503652691841e-04
-1.513334270566701889e-02
-1.765735760272946209e-05
6.221170224307570606e-06
2.376009433646686375e-05
1.667639935476472601e-06
-8.111772476695477962e-04
-8.683717169333249331e-06
1.747031819832045585e-05
1.096107098419452086e-06
2.991081237269099802e-05
-8.068540482781827450e-04
-5.493344815477030352e-06
-3.633261803770437837e-05
-1.054258336807833984e-05
2.401544224994722754e-05
-1.023127970256609842e-05
2.273433892696630210e-05
-6.987431552261114120e-04
-3.904445096850395203e-03
1.007044035941362381e-02
-1.642475035623647273e-05
8.500644071318674833e-06
-2.376487145738792606e-06
-2.587501739981235005e-06
-8.938332321122288704e-04
2.528140321373939514e-03
3.464503242867067456e-05
1.233621060237055644e-05
8.032163350435439497e-06
-2.683975435502361506e-05
-8.352931472472846508e-04
-2.569654861872550100e-05
-2.746416066656820476e-05
-6.531550297950161621e-06
1.937116212502587587e-05
3.535879659466445446e-05
-5.891610635444521904e-04
-1.347736269235610962e-02
7.157824256864842027e-06
-1.661426153987122234e-06
2.156022674171254039e-05
2.899232458730693907e-05
3.034353023394942284e-03
-1.531562115997076035e-02
-3.494826378300786018e-03
-2.080448393826372921e-05
5.496546160429716110e-03
-1.304755278397351503e-05
-1.627001984161324799e-05
-8.061733678914606571e-04
-2.436404611216858029e-05
9.098424925468862057e-06
1.292840806854655966e-05
-2.638098067109240219e-06
2.565032264101319015e-05
-8.418852812610566616e-04
-1.980891101993620396e-05
2.963681254186667502e-05
4.061427171109244227e-05
-8.456755722363595851e-07
1.739290564728435129e-05
-6.629643612541258335e-04
7.368068327195942402e-05
-2.337587466172408313e-05
-3.057219510083086789e-05
-5.863291789864888415e-06
-3.513284536893479526e-05
-6.835429812781512737e-04
3.991049714386463165e-03
1.578551530838012695e-02
-4.799838734470540658e-06
1.092434445126855280e-06
-1.058287489286158234e-05
1.571920984133612365e-05
-7.669571205042302608e-04
-4.464551340788602829e-03
-2.219197631347924471e-05
-2.867562398023437709e-05
-2.868716001103166491e-05
-5.981304980196000542e-07
-8.263968047685921192e-04
-2.907890484493691474e-05
-5.064738161308923736e-06
3.939267480745911598e-05
-3.314647619845345616e-05
3.195777753717266023e-05
-8.476345683448016644e-04
-8.938217433751560748e-06
4.734026879305019975e-05
1.485205029894132167e-05
-2.732798566285055131e-05
-3.379620829946361482e-05
-1.389374607242643833e-03
-1.112195942550897598e-02
-1.297023613005876541e-03
-2.123654849128797650e-05
-1.966152740351390094e-05
1.732509372232016176e-05
-4.667414032155647874e-05
-9.227927075698971748e-04
5.009501706808805466e-03
-1.253359914699103683e-05
1.170009454654064029e-05
1.584217898198403418e-05
2.891976146202068776e-05
-8.513749926351010799e-04
1.609158425708301365e-05
8.075529876805376261e-06
-1.147362127085216343e-05
-4.578987500281073153e-06
1.238389995705801994e-05
-8.323091315105557442e-04
-1.170678806374780834e-04
6.970664117034175433e-07
2.613626384118106216e-05
-2.232636325061321259e-05
3.658446075860410929e-06
-1.542913028970360756e-03
2.642469713464379311e-03
8.035873062908649445e-03
3.722117617144249380e-05
2.139840034942608327e-05
2.002365363296121359e-05
-3.445558832027018070e-05
-1.437589380657300353e-04
-3.132076188921928406e-02
1.390195029671303928e-05
-2.681044861674308777e-05
-2.545425195421557873e-05
1.608206548553425819e-05
-8.298353641293942928e-04
-2.948119072243571281e-05
8.635812264401465654e-06
-1.965695992112159729e-05
-1.242845792148727924e-05
3.294543057563714683e-05
-8.345413953065872192e-04
2.628215122967958450e-03
2.652940565894823521e-05
2.824777402565814555e-05
1.012466054817195982e-05
9.302309990744106472e-06
1.346753997495397925e-04
-5.327067803591489792e-03
-1.560395397245883942e-02
-4.087496563442982733e-05
3.019530049641616642e-05
1.795171192497946322e-05
2.136802504537627101e-05
-7.877007592469453812e-04
-5.958294495940208435e-03
1.466016783524537459e-05
-7.660480150661896914e-06
8.600650289736222476e-06
-6.932093583600362763e-06
-8.385790861211717129e-04
2.555542960180900991e-05
4.278044798411428928e-06
-2.926836350525263697e-05
-1.376506952510681003e-05
2.411789319012314081e-05
-7.299720891751348972e-04
-6.798584479838609695e-03
2.852706893463619053e-05
2.609687044241582043e-06
2.327898982912302017e-05
1.125976268667727709e-05
7.059681811369955540e-04
7.475238759070634842e-03
1.529261935502290726e-04
-4.292675384931499138e-06
1.613117456145118922e-05
-3.428564014029689133e-05
-1.794108720787335187e-05
-8.421535021625459194e-04
-3.138562533422373235e-05
-2.854244667105376720e-05
-2.950426824099849910e-05
5.542261988011887297e-06
-1.113402595365187153e-05
-8.270119433291256428e-04
1.646478580141774728e-07
-1.267837615159805864e-05
1.030345742947247345e-06
-7.735619874438270926e-06
-3.085035814365255646e-06
-8.282281924039125443e-04
-1.383951166644692421e-03
-2.014926758420187980e-05
1.115899749493109994e-06
1.102181727219431195e-06
1.266837671209941618e-06
-1.670079072937369347e-03
1.646777673158794641e-05
5.906382109969854355e-03
-2.783250238280743361e-06
-7.388953690679045394e-06
-3.294347334303893149e-05
-5.585483449976891279e-06
-6.177820614539086819e-04
-9.906844235956668854e-03
1.873186374723445624e-05
1.693994090601336211e-05
-8.706268999958410859e-06
-4.038060433231294155e-05
-8.336395840160548687e-04
4.992171307094395161e-05
3.008311432495247573e-05
2.576658698671963066e-05
-8.889311175153125077e-06
-8.433499024249613285e-04
7.887331776146311313e-06
-1.850460466812364757e-05
1.733248063828796148e-05
-1.966983290913049132e-05
-4.825060386792756617e-06
-7.848430541343986988e-04
-5.497516758623532951e-05
-3.233246752643026412e-05
9.692109415482264012e-06
2.657787035786896013e-06
-8.227887446992099285e-04
-1.662901740928646177e-05
-3.507867631924455054e-06
-3.333103450131602585e-05
-3.670340447570197284e-05
-8.177637937478721142e-04
4.347622962086461484e-05
1.354259984509553760e-05
2.878898703784216195e-05
-1.804845305741764605e-05
-8.509758044965565205e-04
1.416027089362614788e-06
9.206926733895670623e-06
-5.066729045211104676e-06
-3.437636769376695156e-05
-8.433313923887908459e-04
-3.905542598658939824e-06
-5.015593706048093736e-05
-1.968812102859374136e-05
-1.553363972561783157e-06
-8.091043564490973949e-04
-1.738657556416001171e-05
-5.905736543354578316e-06
-1.251492540177423507e-05
1.468989285058341920e-05
-8.399480138905346394e-04
1.997507206397131085e-05
-5.552426046051550657e-06
4.815136890101712197e-06
-3.568373358575627208e-06
-8.258307934738695621e-04
2.290618613187689334e-05
-2.657850200193934143e-05
-3.650012104117195122e-06
-3.192201256752014160e-05
-8.395893382839858532e-04
-5.534218416869407520e-06
4.211820851196534932e-06
-2.743877303146291524e-05
7.796585123287513852e-06
-8.037642692215740681e-04
-2.005759256462624762e-07
-2.023008892138022929e-05
-2.497732930351048708e-05
3.195970202796161175e-05
-8.115937816910445690e-04
-2.266884985147044063e-05
2.892826614697696641e-06
3.835392635664902627e-05
5.964180900264182128e-07
-8.834275067783892155e-04
8.826149496599100530e-06
1.173701275547500700e-05
2.882443004637025297e-05
1.405024158884771168e-05
-8.136558462865650654e-04
-2.074606709356885403e-05
-2.684151513676624745e-05
-4.200404873699881136e-05
-2.020709507633000612e-05
-8.162898593582212925e-04
2.253754610137548298e-05
2.332740405108779669e-05
-7.104505129973404109e-06
-1.677125510468613356e-05
-8.567874901928007603e-04
2.736810347414575517e-05
1.964420152944512665e-05
-1.607179910934064537e-05
8.433087714365683496e-06
-1.880810479633510113e-03
4.403740149427903816e-06
-7.325437618419528008e-04
-1.878504990600049496e-03
2.135005546733736992e-03
3.585570724681019783e-03
-1.131546450778841972e-03
-1.112407189793884754e-03
-2.054241849691607058e-05
1.586049445904791355e-03
-2.241734648123383522e-03
-4.802355542778968811e-03
-3.162134205922484398e-03
3.605115693062543869e-03
3.028207225725054741e-03
3.306692815385758877e-04
1.322921016253530979e-03
1.229425240308046341e-02
-3.526197929204499815e-07
-4.554299172013998032e-03
-1.883184420876204967e-03
-9.418165427632629871e-04
1.481410465203225613e-03
-3.361483104526996613e-03
5.579988937824964523e-03
2.330420538783073425e-03
1.129761803895235062e-03
-1.942067290656268597e-03
3.658790083136409521e-04
-8.903552661649882793e-04
-2.769536571577191353e-03
-3.777383361011743546e-03
7.028532680124044418e-03
-3.202284686267375946e-03
-3.632530278991907835e-04
-4.329451359808444977e-03
3.073447805945761502e-05
-1.884493976831436157e-03
1.793643968994729221e-05
-7.681767456233501434e-04
-1.892130821943283081e-03
1.154411438619717956e-05
-7.503710221499204636e-04
-8.393789757974445820e-04
-1.164756304206093773e-05
3.048385951842647046e-05
-3.231626578781288117e-06
3.021787233592476696e-05
1.759973820298910141e-04
-1.824374521675053984e-05
-9.323891135863959789e-04
1.485198445152491331e-04
-3.600761294364929199e-03
-1.105571258813142776e-02
-1.429090742021799088e-03
1.267088484019041061e-02
1.242441940121352673e-03
1.581232436001300812e-02
-2.309625269845128059e-04
-4.638242069631814957e-03
-1.038260757923126221e-03
7.966493256390094757e-03
-8.012009784579277039e-04
1.373150036670267582e-03
4.850710276514291763e-03
-4.817520733922719955e-03
-5.186894908547401428e-03
-1.150095413322560489e-04
1.916417386382818222e-04
-1.666585681959986687e-03
1.719573861919343472e-03
-1.928293961100280285e-03
7.590965833514928818e-04
2.559124492108821869e-03
-3.313056658953428268e-03
-1.439474406652152538e-03
5.064575467258691788e-03
-1.544305216521024704e-02
-9.123023599386215210e-03
2.071170136332511902e-03
-4.659589845687150955e-03
9.716064669191837311e-04
-2.451140666380524635e-03
2.853944664821028709e-03
-2.058841801044763997e-06
1.679945271462202072e-04
2.607698115753009915e-05
-9.058125433512032032e-04
1.641537528485059738e-04
1.013552446238463745e-05
-9.094484266825020313e-04
2.046941081061959267e-04
-9.318899246864020824e-04
-1.327311565546551719e-05
6.038818537490442395e-05
-3.981674126407597214e-06
4.075484175700694323e-04
2.607417627586983144e-05
-1.135229133069515228e-03
3.556989540811628103e-04
7.791405543684959412e-03
-3.521805163472890854e-03
-3.621686249971389771e-03
-3.411576850339770317e-03
2.329882045160047710e-05
-1.665484393015503883e-03
-2.267842413857579231e-03
4.439176991581916809e-03
1.909722923301160336e-03
3.118870779871940613e-03
5.451048491522669792e-04
-5.801868392154574394e-04
4.767673672176897526e-04
-2.390966517850756645e-03
-3.711608005687594414e-03
-2.517325105145573616e-03
3.577450697775930166e-04
6.106705404818058014e-04
-3.934083040803670883e-03
1.103879367292392999e-05
4.489359911531209946e-03
-3.937685396522283554e-03
-1.754862023517489433e-03
6.872563157230615616e-03
2.101234422298148274e-04
6.376968231052160263e-03
-4.930276423692703247e-03
1.793193223420530558e-04
-9.335474111139774323e-03
1.242007419932633638e-05
2.484981901943683624e-03
1.888327300548553467e-03
2.494067884981632233e-03
3.750527976080775261e-04
1.897533002193085849e-05
-1.151241012848913670e-03
3.717363579198718071e-04
-9.399630471307318658e-06
-1.123063266277313232e-03
3.461277519818395376e-04
6.009308435750426725e-06
-1.168752554804086685e-03
-1.377566422888776287e-05
2.979058990604244173e-05
-3.024465695489197969e-04
-3.581989585654810071e-05
-7.184881251305341721e-04
-2.506014425307512283e-04
-2.389404922723770142e-03
-4.995951429009437561e-03
-2.402290992904454470e-04
-1.452494529075920582e-03
-1.265026628971099854e-03
1.613457873463630676e-02
-1.985011156648397446e-03
-5.073680076748132706e-03
4.121190868318080902e-04
-8.272127161035314202e-06
2.004812005907297134e-03
-1.433889730833470821e-03
-5.152636367711238563e-05
3.628284903243184090e-03
-2.767825499176979065e-03
-4.455005750060081482e-03
-2.917591773439198732e-04
2.514266408979892731e-03
-1.046820543706417084e-03
-1.745215013215783983e-05
-3.203199477866292000e-03
2.096319622069131583e-05
-1.729934941977262497e-03
1.897517540783155710e-05
-2.672847127541899681e-03
5.447273608297109604e-03
-2.366302534937858582e-03
-9.510106792731676251e-06
-3.004827536642551422e-03
9.520753286778926849e-03
-3.401240101084113121e-03
-3.607886610552668571e-04
-4.595713689923286438e-03
-2.821137022692710161e-04
-1.481449817219981924e-05
-6.834757514297962189e-04
-2.849793818313628435e-04
2.080906597257126123e-05
-6.713590119034051895e-04
-2.850063901860266924e-04
6.358901828207308426e-06
1.924658863572403789e-05
-6.736776558682322502e-04
-3.825971361948177218e-06
-2.555766695877537131e-05
-8.445486309938132763e-04
-1.378702017973409966e-05
-1.894966408144682646e-05
-8.370769792236387730e-04
8.454378985334187746e-06
2.927125569840427488e-05
-2.231279358966276050e-05
5.482070832840690855e-07
-3.534395773385767825e-06
-1.472380245104432106e-05
6.944268079678295180e-06
1.317380065302131698e-05
-4.563334732665680349e-05
2.697260470085893758e-06
-1.593969864188693464e-05
-1.915056054713204503e-05
1.978977888938970864e-05
9.482732821197714657e-06
-3.512910916469991207e-05
1.779608464858029038e-05
-8.244386990554630756e-04
9.862716296993312426e-07
1.694856837275438011e-05
-5.256428266875445843e-05
1.282011567127483431e-06
-2.331291398149915040e-05
-4.964912022842327133e-06
1.608796810614876449e-05
-1.296783102588960901e-05
-3.040494266315363348e-05
-3.508489953674143180e-06
3.428051286391564645e-06
-4.247981632943265140e-05
1.277598585147643462e-05
1.949498073372524232e-05
-2.549817145336419344e-05
2.324155320820864290e-05
-8.255267166532576084e-04
2.098977711284533143e-05
-1.226542190124746412e-05
-8.205341291613876820e-04
-2.077942554024048150e-05
-1.353568950435146689e-05
-3.631443178164772689e-05
-3.273721631558146328e-06
6.642271728196647018e-06
-8.038471569307148457e-04
