-2.490320475772023201e-04
4.698510165326297283e-04
-2.171326632378622890e-04
-2.472122432664036751e-04
-1.761077903211116791e-03
-1.759416190907359123e-04
-2.912166237365454435e-04
-1.914830500027164817e-04
-2.037108351942151785e-04
-1.877255039289593697e-03
-1.986170391319319606e-04
-4.573916085064411163e-04
-1.587341394042596221e-04
-2.055660297628492117e-04
-2.028374728979542851e-04
-2.135493268724530935e-04
-1.023444201564416289e-04
-1.836036244640126824e-04
-2.028316375799477100e-04
-1.884019002318382263e-04
-1.749940565787255764e-04
-2.251892146887257695e-04
-1.990413147723302245e-04
-1.859421317931264639e-04
-8.768975021666847169e-06
-2.080421254504472017e-04
-2.160056610591709614e-04
-2.910984330810606480e-04
-2.346216060686856508e-04
-1.833220303524285555e-04
-1.654165971558541059e-04
-3.240268561057746410e-04
-1.969913573702797294e-04
-1.927770208567380905e-04
1.096793494070880115e-05
-1.920906070154160261e-04
-5.625687190331518650e-04
-2.037624944932758808e-04
-1.931923907250165939e-04
-6.399968406185507774e-04
-2.245098585262894630e-04
-6.573288701474666595e-04
-1.470122078899294138e-04
-2.276851155329495668e-04
-1.694868842605501413e-04
-1.860292977653443813e-04
-3.025784390047192574e-04
-2.406820131000131369e-04
-2.213623956777155399e-04
-1.809217646950855851e-04
-1.870061096269637346e-04
-7.030048436718061566e-05
-1.679565029917284846e-04
-1.770787639543414116e-04
-1.968947908608242869e-04
-1.842170022428035736e-04
-1.639816910028457642e-04
-1.686909963609650731e-04
-1.406425726599991322e-04
-2.184538025176152587e-04
-2.359317149966955185e-04
-2.482260169927030802e-04
-2.242118207504972816e-04
-2.062793937511742115e-04
-1.895846362458541989e-04
-2.085247542709112167e-04
-1.243812876055017114e-04
-1.782055769581347704e-04
-1.982280809897929430e-04
-1.602098200237378478e-04
-2.111533103743568063e-04
-3.577935276553034782e-04
-1.792613184079527855e-04
-2.222545736003667116e-04
4.563369202514877543e-06
-2.356004988541826606e-04
1.182397409138502553e-05
-1.756042183842509985e-05
-1.098248503694776446e-05
-1.472924122936092317e-05
-1.821619516704231501e-04
-8.754068403504788876e-06
7.306795851036440581e-06
3.962145456171128899e-06
1.080600100067385938e-06
-2.122981823049485683e-04
-1.458323549741180614e-05
3.144223956041969359e-05
4.842691851081326604e-05
3.769376417039893568e-05
-2.261641784571111202e-04
2.851786302926484495e-05
7.808901500538922846e-06
4.728824569610878825e-05
-6.542867140524322167e-06
-2.054100623354315758e-04
1.219551268150098622e-05
1.868446133812540211e-06
2.430289168842136860e-05
2.350619979551993310e-05
-2.053127973340451717e-04
5.027939096180489287e-07
2.061843952105846256e-05
1.906382203742396086e-05
1.931440237967763096e-05
-2.111274807248264551e-04
2.177688884330564179e-06
-2.452221269777510315e-05
9.901705197989940643e-06
-1.112890913645969704e-05
-2.019895910052582622e-04
2.285606205987278372e-05
-1.103411068470450118e-05
9.995772416004911065e-06
6.015334292897023261e-06
-2.178081485908478498e-04
-5.570990197156788781e-06
-1.194299784401664510e-05
3.720233144122175872e-05
-1.692674049991182983e-05
-2.012810000451281667e-04
-1.328848156845197082e-05
-3.409916462260298431e-05
-1.186352619697572663e-05
1.851520937634631991e-05
-2.016205398831516504e-04
1.884266930574085563e-05
-2.740371564868837595e-05
7.944597200548741966e-06
1.846708619268611073e-05
-1.899876806419342756e-04
-1.669945777393877506e-05
-4.197629459667950869e-05
-1.591143643508985406e-07
-3.126007186438073404e-06
-2.200258895754814148e-04
8.549912308808416128e-06
-2.167415914300363511e-05
-1.875657835626043379e-05
1.542561403766740113e-05
-2.119552082149311900e-04
-1.225506366608897224e-05
-2.763402335403952748e-06
-2.569852995293331333e-06
-4.062396328663453460e-05
-2.031326584983617067e-04
-6.111609309300547466e-06
-7.578557415399700403e-06
2.255867002531886101e-05
-6.885881884954869747e-05
5.279232027532998472e-06
-3.809084591921418905e-04
5.800589919090270996e-03
2.572721429169178009e-02
2.306815076735801995e-05
7.296304684132337570e-03
-3.977198048232821748e-06
-1.567582876305095851e-05
-1.822694321162998676e-04
-2.071158261969685555e-03
-2.167814272979740053e-05
1.260151748283533379e-05
-3.557956006261520088e-05
-1.792649891285691410e-05
-1.834685390349477530e-04
-2.361349061175133102e-06
-1.021526804834138602e-05
-2.107097134285140783e-05
-5.725834125769324601e-05
-7.043216555757680908e-06
1.673517050221562386e-03
2.888701274059712887e-04
-6.255836691707372665e-03
-1.845990300353150815e-05
-2.278360079799313098e-05
-9.218649211106821895e-06
-8.284385694423690438e-05
-6.884371861815452576e-03
4.765036515891551971e-03
-2.615740413602907211e-05
-2.746737300185486674e-05
3.061728057218715549e-05
3.846819890895858407e-05
-1.725035108393058181e-04
8.012128819245845079e-05
2.420361124677583575e-05
2.805042458930984139e-05
-3.001675759151112288e-05
1.084814630303299055e-05
-1.975686755031347275e-04
9.395544111612252891e-06
-3.995989573013503104e-06
1.485301527281990275e-05
4.018974141217768192e-05
3.076824214076623321e-05
1.972657162696123123e-03
9.979376336559653282e-04
-5.351971834897994995e-03
5.814793894387548789e-06
-6.713799848512280732e-06
-1.085772510123206303e-05
1.146636423072777689e-04
-9.479535743594169617e-03
1.152674015611410141e-02
-1.117844112741295248e-05
5.041888289269991219e-05
-4.186308615317102522e-06
-3.741900854947743937e-06
-2.006041177082806826e-04
1.406189333647489548e-02
1.343413077847799286e-05
1.896256071631796658e-05
-3.235608528484590352e-05
-2.858192965504713356e-05
-1.927416305989027023e-04
-3.387898323126137257e-05
1.920852992043364793e-05
1.247944851456850301e-06
-7.122293936845380813e-06
-1.041443192661972716e-05
-2.118174452334642410e-04
1.017044857144355774e-02
-1.571166649227961898e-05
-1.143024110206170008e-05
2.256419065815862268e-05
-2.393745671724900603e-05
-2.916331577580422163e-04
8.217906579375267029e-03
-1.552217989228665829e-03
8.454844646621495485e-06
-1.226531821885146201e-06
2.046361987595446408e-05
7.687310244364198297e-06
-2.076966193271800876e-04
6.820870563387870789e-03
-8.729521141503937542e-06
-4.716223884315695614e-06
-2.617719110276084393e-05
1.369257461192319170e-05
-1.954992767423391342e-04
9.059684089152142406e-06
-1.752363095874898136e-05
2.112036781909409910e-05
2.538855915190652013e-05
-1.102152782550547272e-05
-2.264752401970326900e-04
9.767349809408187866e-03
-3.230307129342691042e-06
-3.272808726251241751e-07
5.263389539322815835e-06
2.524878073018044233e-05
-1.719536085147410631e-04
8.787870756350457668e-04
-4.423790145665407181e-03
-7.966721568664070219e-06
-3.028530591109301895e-05
2.246595613542012870e-05
1.281523873331025243e-05
-1.766948844306170940e-04
-2.739052986726164818e-03
-1.542138670629356056e-05
-1.283452911593485624e-05
1.979799708351492882e-05
5.892024546483298764e-06
-2.010537136811763048e-04
-4.933656236971728504e-05
-3.201515210093930364e-05
3.607945473049767315e-05
-1.750038609316106886e-05
-1.977661158889532089e-04
-2.614402001199778169e-05
-1.777722536644432694e-05
5.751371645601466298e-06
2.215489803347736597e-05
-5.673904524883255363e-05
-1.329366932623088360e-05
-1.483009691582992673e-04
-1.324945711530745029e-03
-1.764469547197222710e-03
-2.557451261964160949e-05
3.775251389015465975e-05
1.362050170428119600e-05
-9.095714631257578731e-06
-7.822489715181291103e-05
-6.884582806378602982e-03
-1.106954277929617092e-05
-8.111625356832519174e-05
-1.449228761885024142e-06
-1.606638215889688581e-05
-2.147740451619029045e-04
-3.111475962214171886e-05
-2.284601396240759641e-05
-1.259247892448911443e-05
4.288374839234165847e-06
-7.605398877785773948e-06
-2.339227503398433328e-04
8.949168957769870758e-03
-1.204998898174380884e-05
2.477175985404755920e-05
-2.926821798610035330e-05
3.787246782849251758e-07
-1.123217516578733921e-04
-3.114478429779410362e-03
-2.378879813477396965e-03
-1.616487134015187621e-05
-2.673730705282650888e-05
2.777529516606591642e-05
1.671614518272690475e-05
-1.963700196938589215e-04
1.138084218837320805e-03
-1.765735760272946209e-05
6.221170224307570606e-06
2.376009433646686375e-05
1.667639935476472601e-06
-1.741553423926234245e-04
-8.683717169333249331e-06
1.747031819832045585e-05
1.096107098419452086e-06
2.991081237269099802e-05
-1.698321430012583733e-04
-5.493344815477030352e-06
-3.633261803770437837e-05
-1.054258336807833984e-05
2.401544224994722754e-05
-1.023127970256609842e-05
2.273433892696630210e-05
1.588967716088518500e-04
-6.786413956433534622e-03
6.715499795973300934e-03
-1.642475035623647273e-05
8.500644071318674833e-06
-2.376487145738792606e-06
-2.587501739981235005e-06
-1.832864654716104269e-04
4.368623252958059311e-03
3.464503242867067456e-05
1.233621060237055644e-05
8.032163350435439497e-06
-2.683975435502361506e-05
-1.982709218282252550e-04
-2.569654861872550100e-05
-2.746416066656820476e-05
-6.531550297950161621e-06
1.937116212502587587e-05
3.535879659466445446e-05
2.333037118660286069e-04
-1.391673460602760315e-02
7.157824256864842027e-06
-1.661426153987122234e-06
2.156022674171254039e-05
2.899232458730693907e-05
3.080274327658116817e-04
-6.422874983400106430e-03
3.253322094678878784e-03
-2.080448393826372921e-05
1.492628689447883517e-05
-1.304755278397351503e-05
-1.627001984161324799e-05
-1.999793748836964369e-04
1.526633556932210922e-02
9.098424925468862057e-06
1.292840806854655966e-05
-2.638098067109240219e-06
2.565032264101319015e-05
-2.048629103228449821e-04
-1.980891101993620396e-05
2.963681254186667502e-05
4.061427171109244227e-05
-8.456755722363595851e-07
1.739290564728435129e-05
-2.035395737038925290e-04
9.806575253605842590e-03
-2.337587466172408313e-05
-3.057219510083086789e-05
-5.863291789864888415e-06
-3.513284536893479526e-05
-1.562343823025003076e-04
3.978319466114044189e-03
-9.378216229379177094e-03
-4.799838734470540658e-06
1.092434445126855280e-06
-1.058287489286158234e-05
1.571920984133612365e-05
-1.883847726276144385e-04
7.611501961946487427e-03
-2.219197631347924471e-05
-2.867562398023437709e-05
-2.868716001103166491e-05
-5.981304980196000542e-07
-1.893740263767540455e-04
-2.907890484493691474e-05
-5.064738161308923736e-06
3.939267480745911598e-05
-3.314647619845345616e-05
3.195777753717266023e-05
-2.383302489761263132e-04
1.439948007464408875e-02
4.734026879305019975e-05
1.485205029894132167e-05
-2.732798566285055131e-05
-3.379620829946361482e-05
-1.940536167239770293e-04
2.179495291784405708e-03
-7.933219894766807556e-03
-2.123654849128797650e-05
8.680437691509723663e-03
1.732509372232016176e-05
-4.667414032155647874e-05
-2.595624246168881655e-04
2.274561487138271332e-02
-1.253359914699103683e-05
1.170009454654064029e-05
1.584217898198403418e-05
2.891976146202068776e-05
-2.143530873581767082e-04
1.609158425708301365e-05
8.075529876805376261e-06
-1.147362127085216343e-05
-4.578987500281073153e-06
1.238389995705801994e-05
-1.991542958421632648e-04
8.681515231728553772e-03
6.970664117034175433e-07
2.613626384118106216e-05
-2.232636325061321259e-05
3.658446075860410929e-06
-1.974356709979474545e-04
-4.961438011378049850e-03
3.338098758831620216e-03
3.722117617144249380e-05
2.139840034942608327e-05
2.002365363296121359e-05
-3.445558832027018070e-05
-2.356768090976402164e-04
1.261456310749053955e-02
1.390195029671303928e-05
-2.681044861674308777e-05
-2.545425195421557873e-05
1.608206548553425819e-05
-1.928133424371480942e-04
-2.948119072243571281e-05
8.635812264401465654e-06
-1.965695992112159729e-05
-1.242845792148727924e-05
3.294543057563714683e-05
-1.804419880500063300e-04
1.132577657699584961e-02
2.652940565894823521e-05
2.824777402565814555e-05
1.012466054817195982e-05
9.302309990744106472e-06
-2.062329149339348078e-04
2.590516116470098495e-03
5.523185711354017258e-03
-4.087496563442982733e-05
3.019530049641616642e-05
1.795171192497946322e-05
2.136802504537627101e-05
-2.044041902991011739e-04
1.831188332289457321e-03
1.466016783524537459e-05
-7.660480150661896914e-06
8.600650289736222476e-06
-6.932093583600362763e-06
-2.015566278714686632e-04
2.555542960180900991e-05
4.278044798411428928e-06
-2.926836350525263697e-05
-1.376506952510681003e-05
2.411789319012314081e-05
-1.969837758224457502e-04
9.919890202581882477e-03
2.852706893463619053e-05
2.609687044241582043e-06
2.327898982912302017e-05
1.125976268667727709e-05
-2.075782977044582367e-04
-9.852585382759571075e-03
1.876122877001762390e-02
-4.292675384931499138e-06
1.613117456145118922e-05
-3.428564014029689133e-05
-1.794108720787335187e-05
-2.054547512670978904e-04
-2.744435332715511322e-03
-2.854244667105376720e-05
-2.950426824099849910e-05
5.542261988011887297e-06
-1.113402595365187153e-05
-1.899896014947444201e-04
1.646478580141774728e-07
-1.267837615159805864e-05
1.030345742947247345e-06
-7.735619874438270926e-06
-3.085035814365255646e-06
-2.042763662757351995e-04
-5.976653657853603363e-03
-2.014926758420187980e-05
1.115899749493109994e-06
1.102181727219431195e-06
1.266837671209941618e-06
-6.750401371391490102e-05
-4.574996419250965118e-03
-7.389208185486495495e-04
-2.783250238280743361e-06
-1.159727340564131737e-03
-3.294347334303893149e-05
-5.585483449976891279e-06
-1.893085718620568514e-04
1.355867087841033936e-02
1.873186374723445624e-05
1.693994090601336211e-05
-8.706268999958410859e-06
-4.038060433231294155e-05
-1.966168638318777084e-04
4.992171307094395161e-05
3.008311432495247573e-05
2.576658698671963066e-05
-8.889311175153125077e-06
-2.063278225250542164e-04
7.887331776146311313e-06
-1.850460466812364757e-05
1.733248063828796148e-05
-1.966983290913049132e-05
-4.825060386792756617e-06
-1.478202757425606251e-04
-5.497516758623532951e-05
-3.233246752643026412e-05
9.692109415482264012e-06
2.657787035786896013e-06
-1.857661118265241385e-04
-1.662901740928646177e-05
-3.507867631924455054e-06
-3.333103450131602585e-05
-3.670340447570197284e-05
-1.807416265364736319e-04
4.347622962086461484e-05
1.354259984509553760e-05
2.878898703784216195e-05
-1.804845305741764605e-05
-2.139535499736666679e-04
1.416027089362614788e-06
9.206926733895670623e-06
-5.066729045211104676e-06
-3.437636769376695156e-05
-2.063091960735619068e-04
-3.905542598658939824e-06
-5.015593706048093736e-05
-1.968812102859374136e-05
-1.553363972561783157e-06
-1.720822183415293694e-04
-1.738657556416001171e-05
-5.905736543354578316e-06
-1.251492540177423507e-05
1.468989285058341920e-05
-2.029257302638143301e-04
1.997507206397131085e-05
-5.552426046051550657e-06
4.815136890101712197e-06
-3.568373358575627208e-06
-1.888087135739624500e-04
2.290618613187689334e-05
-2.657850200193934143e-05
-3.650012104117195122e-06
-3.192201256752014160e-05
-2.025671419687569141e-04
-5.534218416869407520e-06
4.211820851196534932e-06
-2.743877303146291524e-05
7.796585123287513852e-06
-1.667420146986842155e-04
-2.005759256462624762e-07
-2.023008892138022929e-05
-2.497732930351048708e-05
3.195970202796161175e-05
-1.745716435834765434e-04
-2.266884985147044063e-05
2.892826614697696641e-06
3.835392635664902627e-05
5.964180900264182128e-07
-2.464057179167866707e-04
8.826149496599100530e-06
1.173701275547500700e-05
2.882443004637025297e-05
1.405024158884771168e-05
-1.766335917636752129e-04
-2.074606709356885403e-05
-2.684151513676624745e-05
-4.200404873699881136e-05
-2.020709507633000612e-05
-1.792674011085182428e-04
2.253754610137548298e-05
2.332740405108779669e-05
-7.104505129973404109e-06
-1.677125510468613356e-05
-2.197650319430977106e-04
2.736810347414575517e-05
1.964420152944512665e-05
-1.607179910934064537e-05
8.433087714365683496e-06
-1.659588888287544250e-03
4.403740149427903816e-06
-1.685215102043002844e-04
-1.657282933592796326e-03
2.648612484335899353e-03
1.007414655759930611e-03
-3.062892006710171700e-03
3.058644651900976896e-04
1.182947773486375809e-02
-5.972260260023176670e-04
-1.981903333216905594e-03
1.134644378907978535e-03
-6.276377243921160698e-04
-3.123051719740033150e-03
-1.355341402813792229e-03
-1.053006853908300400e-03
1.780783786671236157e-04
-2.949381945654749870e-03
2.112980000674724579e-03
2.704639453440904617e-03
-1.661962829530239105e-03
-2.460243180394172668e-03
4.492633044719696045e-03
-2.712890505790710449e-03
6.273804232478141785e-03
-3.001203294843435287e-03
-5.666479934006929398e-03
1.264268066734075546e-03
7.989138248376548290e-04
-5.582829006016254425e-03
1.259486307390034199e-04
-4.857582098338752985e-04
4.323523957282304764e-03
-1.128480653278529644e-03
-1.866681035608053207e-03
1.960045658051967621e-03
-3.044197335839271545e-03
-1.663272269070148468e-03
1.793643968994729221e-05
-2.041536499746143818e-04
-1.670908881351351738e-03
1.154411438619717956e-05
-1.863488578237593174e-04
-2.023566630668938160e-04
-1.164756304206093773e-05
3.048385951842647046e-05
-3.231626578781288117e-06
3.021787233592476696e-05
-8.215815178118646145e-04
-1.824374521675053984e-05
-2.561708097346127033e-04
-8.490579202771186829e-04
2.278538420796394348e-03
-5.527015775442123413e-03
-2.290531294420361519e-03
1.114298123866319656e-03
2.326400252059102058e-03
4.201761446893215179e-03
2.197344088926911354e-03
1.446431851945817471e-03
-1.331269624643027782e-03
-1.701710047200322151e-03
2.566672163084149361e-03
-1.067262346623465419e-04
-3.097193082794547081e-03
-1.601242925971746445e-03
-1.213301671668887138e-03
1.224908232688903809e-02
-8.059362298808991909e-04
3.121247282251715660e-03
2.895754761993885040e-03
4.085897002369165421e-03
-1.783460029400885105e-04
-2.004072302952408791e-03
4.574766848236322403e-03
1.961586065590381622e-03
-4.598669242113828659e-03
-1.422514906153082848e-03
-2.763034543022513390e-03
-6.954775890335440636e-04
2.396734664216637611e-03
-1.680926303379237652e-03
-3.687131684273481369e-03
2.886913483962416649e-03
8.633400429971516132e-04
-8.295832085423171520e-04
2.607698115753009915e-05
-2.295935119036585093e-04
-8.334238664247095585e-04
1.013552446238463745e-05
-2.332294534426182508e-04
-7.928836275823414326e-04
-2.556716208346188068e-04
-1.327311565546551719e-05
6.038818537490442395e-05
-3.981674126407597214e-06
-9.874149691313505173e-04
2.607417627586983144e-05
1.585270219948142767e-04
-1.039263792335987091e-03
-3.508796798996627331e-04
7.780545856803655624e-04
-2.469293540343642235e-03
-1.449385745218023658e-04
-1.376128662377595901e-02
2.926669316366314888e-03
5.002561956644058228e-03
-6.691234651952981949e-03
-4.343209438957273960e-04
1.607186975888907909e-03
-8.557748515158891678e-04
7.145497947931289673e-03
3.405118768569082022e-04
2.319467952474951744e-03
7.181292166933417320e-04
3.324179444462060928e-03
-1.037218607962131500e-03
2.466965094208717346e-02
1.532388268969953060e-03
4.376723954919725657e-04
4.684830550104379654e-03
3.429208416491746902e-03
4.722535668406635523e-04
6.309245247393846512e-03
-4.288144118618220091e-04
-2.083653816953301430e-03
1.262811012566089630e-03
1.107192365452647209e-03
-6.478787399828433990e-04
-2.699554432183504105e-03
1.815761905163526535e-03
4.600972402840852737e-03
-1.038285554386675358e-03
-1.019910676404833794e-03
1.897533002193085849e-05
1.425149093847721815e-04
-1.023226184770464897e-03
-9.399630471307318658e-06
1.706918992567807436e-04
-1.048837788403034210e-03
6.009308435750426725e-06
1.250032946700230241e-04
-1.377566422888776287e-05
2.979058990604244173e-05
-2.098342869430780411e-03
-3.581989585654810071e-05
-1.202847761305747554e-05
-2.046498470008373260e-03
-2.569092670455574989e-03
1.179838436655700207e-03
3.453298995736986399e-04
2.223389688879251480e-03
-5.316919996403157711e-04
-7.341883610934019089e-04
-6.718377699144184589e-04
-3.702833084389567375e-03
4.112184047698974609e-03
-3.820838173851370811e-03
2.409615786746144295e-03
-2.671269467100501060e-04
-5.509567912667989731e-03
4.306861956138163805e-04
-7.227270398288965225e-04
1.017143251374363899e-03
-2.087654545903205872e-03
-3.782896790653467178e-03
8.056405931711196899e-05
-2.478827955201268196e-03
-4.519518464803695679e-03
-7.339920266531407833e-04
-1.516437623649835587e-03
1.842673867940902710e-03
1.254794304259121418e-03
-4.367100540548563004e-03
-5.091735147289000452e-06
-2.901743631809949875e-03
1.079656998626887798e-03
-1.756392884999513626e-03
-1.992966979742050171e-03
5.345446057617664337e-03
-1.333733438514173031e-03
-2.078010234981775284e-03
-1.481449817219981924e-05
2.298359140695538372e-05
-2.080878242850303650e-03
2.080906597257126123e-05
3.510103852022439241e-05
-2.080904319882392883e-03
6.358901828207308426e-06
1.924658863572403789e-05
3.278207077528350055e-05
-3.825971361948177218e-06
-2.555766695877537131e-05
-2.075264637824147940e-04
-1.378702017973409966e-05
-1.894966408144682646e-05
-2.000544045586138964e-04
8.454378985334187746e-06
2.927125569840427488e-05
-2.231279358966276050e-05
5.482070832840690855e-07
-3.534395773385767825e-06
-1.472380245104432106e-05
6.944268079678295180e-06
1.317380065302131698e-05
-4.563334732665680349e-05
2.697260470085893758e-06
-1.593969864188693464e-05
-1.915056054713204503e-05
1.978977888938970864e-05
9.482732821197714657e-06
-3.512910916469991207e-05
1.779608464858029038e-05
-1.874163863249123096e-04
9.862716296993312426e-07
1.694856837275438011e-05
-5.256428266875445843e-05
1.282011567127483431e-06
-2.331291398149915040e-05
-4.964912022842327133e-06
1.608796810614876449e-05
-1.296783102588960901e-05
-3.040494266315363348e-05
-3.508489953674143180e-06
3.428051286391564645e-06
-4.247981632943265140e-05
1.277598585147643462e-05
1.949498073372524232e-05
-2.549817145336419344e-05
2.324155320820864290e-05
-1.885041710920631886e-04
2.098977711284533143e-05
-1.226542190124746412e-05
-1.835113798733800650e-04
-2.077942554024048150e-05
-1.353568950435146689e-05
-3.631443178164772689e-05
-3.273721631558146328e-06
6.642271728196647018e-06
-1.668249024078249931e-04
