2.592387795448303223e-02
4.846817627549171448e-02
4.849786683917045593e-02
-2.162579596042633057e-01
2.647980488836765289e-02
-9.971669316291809082e-02
8.245740830898284912e-02
-1.315431743860244751e-01
8.826574683189392090e-02
-3.999049589037895203e-02
-1.937502436339855194e-02
6.192262098193168640e-02
-1.271565854549407959e-01
-6.236233189702033997e-02
7.561662048101425171e-02
-6.888444721698760986e-02
4.020746052265167236e-01
-1.733458638191223145e-01
1.868843138217926025e-01
2.168602198362350464e-01
1.357636600732803345e-02
-1.115869283676147461e-01
3.992433845996856689e-01
2.021622508764266968e-01
-5.723493918776512146e-02
-2.218923717737197876e-01
-7.593075931072235107e-02
-1.214743554592132568e-01
1.970157325267791748e-01
-2.729027532041072845e-02
1.907226890325546265e-01
7.437869906425476074e-02
-1.702720522880554199e-01
-7.960823178291320801e-02
-5.962302908301353455e-02
-9.507608413696289062e-02
-1.718755811452865601e-01
5.375276878476142883e-02
-1.207431107759475708e-01
5.688794329762458801e-02
3.159044086933135986e-01
-4.805520549416542053e-02
3.597888723015785217e-02
1.757874488830566406e-01
5.148826166987419128e-02
-8.117306046187877655e-03
-6.789150647819042206e-04
-1.743154078722000122e-01
4.479272663593292236e-02
-4.167269542813301086e-02
2.025141716003417969e-01
-8.295160718262195587e-03
5.656431242823600769e-02
1.371253877878189087e-01
2.154850959777832031e-01
1.420744694769382477e-02
8.202069997787475586e-02
4.277624487876892090e-01
-2.754350937902927399e-02
-4.903500154614448547e-02
4.655569791793823242e-03
1.316786110401153564e-01
1.851485073566436768e-01
-1.558767538517713547e-02
1.393192112445831299e-01
1.192338913679122925e-01
6.972163915634155273e-02
1.985391229391098022e-02
-4.573551937937736511e-02
8.384204655885696411e-02
2.130225300788879395e-01
2.280139923095703125e-01
1.058049350976943970e-01
1.596563160419464111e-01
5.371324345469474792e-02
-2.143716625869274139e-02
3.814806342124938965e-01
1.012069582939147949e-01
5.669875815510749817e-02
1.583756208419799805e-01
1.959733515977859497e-01
1.307927370071411133e-01
8.060671389102935791e-02
3.116850554943084717e-01
2.377161234617233276e-01
1.173404678702354431e-01
2.273280322551727295e-01
1.700192987918853760e-01
2.400056459009647369e-02
1.420064419507980347e-01
2.037669420242309570e-01
-1.947557330131530762e-01
9.807846695184707642e-02
3.379704430699348450e-02
9.539639949798583984e-02
-1.190136224031448364e-01
-6.825374066829681396e-02
-1.037137806415557861e-01
-3.505637347698211670e-01
3.063498139381408691e-01
2.067509591579437256e-01
8.646945655345916748e-02
5.155239999294281006e-02
9.530378878116607666e-02
2.463945150375366211e-01
-2.459519803524017334e-01
-2.176996171474456787e-01
3.904985263943672180e-02
-1.512425541877746582e-01
4.886024072766304016e-02
1.910721361637115479e-01
-5.544384941458702087e-02
-6.195803731679916382e-02
1.655523627996444702e-01
2.561490833759307861e-01
2.275882363319396973e-01
-1.912218034267425537e-01
2.385887317359447479e-02
-9.642286598682403564e-02
-5.024082586169242859e-02
1.318614631891250610e-01
4.401028752326965332e-01
2.128117680549621582e-01
1.901605725288391113e-01
-5.519570782780647278e-03
1.254173666238784790e-01
1.961127221584320068e-01
1.661510765552520752e-01
