2.611700892448425293e-01 -2.865011990070343018e-01 -4.755973815917968750e-01 1.059890910983085632e-01 -7.568722218275070190e-02 2.543896809220314026e-02 1.709770783782005310e-02 1.939273327589035034e-01 6.622900813817977905e-02 -1.292300522327423096e-01 -2.364808470010757446e-01 -7.809995859861373901e-02 1.187459528446197510e-01 -4.295795038342475891e-02 -1.711385091766715050e-03 -2.700837503653019667e-04 1.760191321372985840e-01 9.166454896330833435e-03 -3.100676694884896278e-03 1.974560618400573730e-01 -2.170089632272720337e-01 1.676601767539978027e-01 9.385214000940322876e-02 2.077215462923049927e-01 2.144532352685928345e-01 7.694226806052029133e-04 -2.470381557941436768e-02 -1.195989176630973816e-01 9.722866863012313843e-02 6.316501647233963013e-02 6.399934738874435425e-02 -1.084026619791984558e-01 2.563472390174865723e-01 1.376110911369323730e-01 2.381217926740646362e-01 2.107344716787338257e-01 3.870215713977813721e-01 -4.925611615180969238e-02 9.126322716474533081e-02 -1.974948495626449585e-01 1.501883417367935181e-01 3.176332265138626099e-02 -1.884381473064422607e-02 4.636103287339210510e-02 5.184961110353469849e-02 1.597785949707031250e-02 2.183436155319213867e-01 -1.188571900129318237e-01 -7.614576071500778198e-02 -9.762159734964370728e-02 8.168166875839233398e-02 -1.174332872033119202e-01 -1.033048555254936218e-01 -1.267158538103103638e-01 1.675110161304473877e-01 2.387537658214569092e-01 1.034252569079399109e-01 5.410075932741165161e-02 1.601495891809463501e-01 -2.980882674455642700e-02 2.594442293047904968e-02 2.089656516909599304e-02 7.471045106649398804e-02 3.187734782695770264e-01 0.000000000000000000e+00 -0.000000000000000000e+00 0.000000000000000000e+00 -0.000000000000000000e+00 0.000000000000000000e+00 0.000000000000000000e+00 0.000000000000000000e+00 0.000000000000000000e+00 0.000000000000000000e+00 0.000000000000000000e+00 0.000000000000000000e+00 0.000000000000000000e+00 0.000000000000000000e+00 -0.000000000000000000e+00 0.000000000000000000e+00 -0.000000000000000000e+00 -0.000000000000000000e+00 -0.000000000000000000e+00 0.000000000000000000e+00 0.000000000000000000e+00 -0.000000000000000000e+00 0.000000000000000000e+00 0.000000000000000000e+00 0.000000000000000000e+00 -0.000000000000000000e+00 -0.000000000000000000e+00 -0.000000000000000000e+00 0.000000000000000000e+00 0.000000000000000000e+00 0.000000000000000000e+00 -0.000000000000000000e+00 -0.000000000000000000e+00 -0.000000000000000000e+00 -0.000000000000000000e+00 0.000000000000000000e+00 -0.000000000000000000e+00 -0.000000000000000000e+00 -0.000000000000000000e+00 0.000000000000000000e+00 -0.000000000000000000e+00 -0.000000000000000000e+00 -0.000000000000000000e+00 0.000000000000000000e+00 -0.000000000000000000e+00 0.000000000000000000e+00 0.000000000000000000e+00 -0.000000000000000000e+00 0.000000000000000000e+00 -0.000000000000000000e+00 0.000000000000000000e+00 0.000000000000000000e+00 0.000000000000000000e+00 0.000000000000000000e+00 0.000000000000000000e+00 0.000000000000000000e+00 0.000000000000000000e+00 -0.000000000000000000e+00 -0.000000000000000000e+00 0.000000000000000000e+00 0.000000000000000000e+00 0.000000000000000000e+00 0.000000000000000000e+00 -0.000000000000000000e+00 0.000000000000000000e+00
-2.957428805530071259e-02 1.144644692540168762e-01 2.068493515253067017e-01 -6.022256985306739807e-02 -1.533695776015520096e-02 1.666985452175140381e-01 8.110206574201583862e-03 -9.846829622983932495e-02 2.300601825118064880e-02 -2.668657004833221436e-01 3.083732724189758301e-01 3.287385702133178711e-01 1.470178216695785522e-01 -9.080959856510162354e-02 -9.687418490648269653e-02 1.289161741733551025e-01 4.135054722428321838e-02 -1.932007968425750732e-01 -5.593341961503028870e-02 2.404839545488357544e-01 -2.003221809864044189e-01 1.553825736045837402e-01 7.766035199165344238e-02 6.283652782440185547e-02 -1.798032037913799286e-02 -1.438119560480117798e-01 1.988318413496017456e-01 5.877552181482315063e-02 1.815293133258819580e-01 -2.507250756025314331e-02 3.468333184719085693e-02 3.071867227554321289e-01 4.091378673911094666e-02 2.383576631546020508e-01 4.071425180882215500e-03 2.903894782066345215e-01 1.419172808527946472e-02 2.295096516609191895e-01 1.542713195085525513e-01 1.350560337305068970e-01 1.819225400686264038e-01 1.028492674231529236e-01 -1.511407941579818726e-01 -1.954398304224014282e-02 -6.606435030698776245e-02 -2.218912541866302490e-01 2.992197871208190918e-01 -1.213082298636436462e-01 1.020438969135284424e-01 -1.828165799379348755e-01 4.519879445433616638e-02 -4.699977487325668335e-02 -1.064063534140586853e-01 1.345235109329223633e-01 -6.922129541635513306e-03 2.372161895036697388e-01 -1.579308807849884033e-01 2.224857658147811890e-01 2.878741025924682617e-01 1.930506974458694458e-01 1.106812879443168640e-01 8.633399009704589844e-02 2.269122377038002014e-02 -3.096736669540405273e-01 0.000000000000000000e+00 0.000000000000000000e+00 0.000000000000000000e+00 -0.000000000000000000e+00 0.000000000000000000e+00 -0.000000000000000000e+00 -0.000000000000000000e+00 0.000000000000000000e+00 0.000000000000000000e+00 0.000000000000000000e+00 0.000000000000000000e+00 -0.000000000000000000e+00 0.000000000000000000e+00 0.000000000000000000e+00 -0.000000000000000000e+00 0.000000000000000000e+00 -0.000000000000000000e+00 0.000000000000000000e+00 0.000000000000000000e+00 -0.000000000000000000e+00 0.000000000000000000e+00 -0.000000000000000000e+00 -0.000000000000000000e+00 -0.000000000000000000e+00 -0.000000000000000000e+00 -0.000000000000000000e+00 0.000000000000000000e+00 -0.000000000000000000e+00 0.000000000000000000e+00 0.000000000000000000e+00 0.000000000000000000e+00 0.000000000000000000e+00 0.000000000000000000e+00 0.000000000000000000e+00 0.000000000000000000e+00 0.000000000000000000e+00 -0.000000000000000000e+00 0.000000000000000000e+00 -0.000000000000000000e+00 0.000000000000000000e+00 0.000000000000000000e+00 0.000000000000000000e+00 0.000000000000000000e+00 0.000000000000000000e+00 0.000000000000000000e+00 0.000000000000000000e+00 -0.000000000000000000e+00 0.000000000000000000e+00 -0.000000000000000000e+00 0.000000000000000000e+00 0.000000000000000000e+00 0.000000000000000000e+00 -0.000000000000000000e+00 -0.000000000000000000e+00 0.000000000000000000e+00 0.000000000000000000e+00 -0.000000000000000000e+00 -0.000000000000000000e+00 0.000000000000000000e+00 0.000000000000000000e+00 -0.000000000000000000e+00 -0.000000000000000000e+00 0.000000000000000000e+00 -0.000000000000000000e+00
-2.302645891904830933e-01 -4.058326035737991333e-02 -1.823630183935165405e-01 1.219168007373809814e-01 -1.947285830974578857e-01 1.935416758060455322e-01 -1.201064288616180420e-01 3.391001746058464050e-02 6.750430166721343994e-02 -5.615713447332382202e-02 2.342655956745147705e-01 2.008190006017684937e-02 -2.556401491165161133e-01 8.365093171596527100e-02 6.876975297927856445e-02 -2.314293831586837769e-01 -1.282598376274108887e-01 1.493077278137207031e-01 7.481577992439270020e-02 4.742602631449699402e-02 3.696788847446441650e-01 -7.624218612909317017e-02 -1.755842566490173340e-01 -3.304057195782661438e-02 3.200475499033927917e-02 -7.241231203079223633e-02 1.776398345828056335e-02 1.180533170700073242e-01 5.363338626921176910e-03 -1.264700144529342651e-01 7.258893549442291260e-02 1.420870721340179443e-01 -1.040694266557693481e-01 -8.092730306088924408e-03 1.286477595567703247e-01 -5.019663833081722260e-03 -1.340399533510208130e-01 1.560961548238992691e-02 -3.453712211921811104e-03 3.582436591386795044e-02 4.643085994757711887e-04 -8.479712903499603271e-02 4.772727563977241516e-02 5.433779954910278320e-02 5.279073119163513184e-02 3.799131512641906738e-01 -1.513529121875762939e-01 1.651983708143234253e-01 3.552396595478057861e-02 2.175801992416381836e-01 -2.086908556520938873e-02 7.303690910339355469e-02 2.681625820696353912e-02 1.247390732169151306e-01 -1.427802443504333496e-01 4.192245751619338989e-02 2.157954871654510498e-01 1.104497089982032776e-01 3.012613356113433838e-01 7.723547518253326416e-03 2.766830325126647949e-01 1.362744159996509552e-02 2.533062696456909180e-01 3.076724708080291748e-01 0.000000000000000000e+00 0.000000000000000000e+00 0.000000000000000000e+00 -0.000000000000000000e+00 0.000000000000000000e+00 0.000000000000000000e+00 0.000000000000000000e+00 0.000000000000000000e+00 0.000000000000000000e+00 0.000000000000000000e+00 -0.000000000000000000e+00 0.000000000000000000e+00 -0.000000000000000000e+00 0.000000000000000000e+00 -0.000000000000000000e+00 0.000000000000000000e+00 -0.000000000000000000e+00 0.000000000000000000e+00 0.000000000000000000e+00 -0.000000000000000000e+00 0.000000000000000000e+00 0.000000000000000000e+00 -0.000000000000000000e+00 0.000000000000000000e+00 0.000000000000000000e+00 -0.000000000000000000e+00 0.000000000000000000e+00 -0.000000000000000000e+00 0.000000000000000000e+00 0.000000000000000000e+00 0.000000000000000000e+00 -0.000000000000000000e+00 -0.000000000000000000e+00 -0.000000000000000000e+00 -0.000000000000000000e+00 -0.000000000000000000e+00 0.000000000000000000e+00 0.000000000000000000e+00 -0.000000000000000000e+00 -0.000000000000000000e+00 0.000000000000000000e+00 -0.000000000000000000e+00 -0.000000000000000000e+00 -0.000000000000000000e+00 -0.000000000000000000e+00 0.000000000000000000e+00 -0.000000000000000000e+00 0.000000000000000000e+00 0.000000000000000000e+00 0.000000000000000000e+00 -0.000000000000000000e+00 0.000000000000000000e+00 -0.000000000000000000e+00 -0.000000000000000000e+00 -0.000000000000000000e+00 0.000000000000000000e+00 0.000000000000000000e+00 -0.000000000000000000e+00 0.000000000000000000e+00 0.000000000000000000e+00 0.000000000000000000e+00 0.000000000000000000e+00 -0.000000000000000000e+00 0.000000000000000000e+00
-2.275439202785491943e-01 1.236298531293869019e-01 -2.088235132396221161e-02 1.856776177883148193e-01 2.571147084236145020e-01 -4.450926184654235840e-02 -1.841622591018676758e-01 1.456557065248489380e-01 -6.192941963672637939e-02 1.899789273738861084e-01 -3.185939788818359375e-01 -2.492872476577758789e-01 7.276510447263717651e-02 -5.792680755257606506e-02 -1.641598939895629883e-01 1.752445386955514550e-04 5.176711827516555786e-02 -6.343105435371398926e-02 -1.943066716194152832e-01 1.589340716600418091e-01 -1.797018349170684814e-01 5.633043497800827026e-02 -1.425547897815704346e-02 -1.583839356899261475e-01 -1.401179134845733643e-01 1.451694369316101074e-01 2.512564659118652344e-01 -2.752923220396041870e-02 -2.003723755478858948e-02 -4.167290031909942627e-02 -5.258205812424421310e-03 2.258903831243515015e-01 -2.605854272842407227e-01 -7.963228225708007812e-02 8.391903340816497803e-02 2.235202193260192871e-01 -1.825701259076595306e-02 1.061334311962127686e-01 -5.356260389089584351e-02 1.962632536888122559e-01 2.030342221260070801e-01 5.338104069232940674e-02 1.676268503069877625e-02 2.055056393146514893e-01 -2.100881934165954590e-01 -4.412836581468582153e-02 1.126083731651306152e-01 -2.138407677412033081e-01 -4.250455647706985474e-02 -1.973184496164321899e-01 2.085587084293365479e-01 -7.868212461471557617e-02 2.175546735525131226e-01 -6.832665205001831055e-02 7.553302682936191559e-03 -1.498628128319978714e-02 1.784007251262664795e-02 -1.344742625951766968e-01 -2.022500634193420410e-01 -1.767189800739288330e-01 3.374417871236801147e-02 -1.737822219729423523e-02 1.107318401336669922e-01 1.011748835444450378e-01 0.000000000000000000e+00 0.000000000000000000e+00 -0.000000000000000000e+00 -0.000000000000000000e+00 0.000000000000000000e+00 0.000000000000000000e+00 0.000000000000000000e+00 0.000000000000000000e+00 -0.000000000000000000e+00 0.000000000000000000e+00 0.000000000000000000e+00 -0.000000000000000000e+00 0.000000000000000000e+00 0.000000000000000000e+00 0.000000000000000000e+00 -0.000000000000000000e+00 0.000000000000000000e+00 -0.000000000000000000e+00 -0.000000000000000000e+00 0.000000000000000000e+00 -0.000000000000000000e+00 0.000000000000000000e+00 -0.000000000000000000e+00 0.000000000000000000e+00 -0.000000000000000000e+00 0.000000000000000000e+00 -0.000000000000000000e+00 -0.000000000000000000e+00 -0.000000000000000000e+00 -0.000000000000000000e+00 0.000000000000000000e+00 -0.000000000000000000e+00 -0.000000000000000000e+00 0.000000000000000000e+00 -0.000000000000000000e+00 -0.000000000000000000e+00 0.000000000000000000e+00 -0.000000000000000000e+00 -0.000000000000000000e+00 -0.000000000000000000e+00 0.000000000000000000e+00 -0.000000000000000000e+00 -0.000000000000000000e+00 0.000000000000000000e+00 -0.000000000000000000e+00 -0.000000000000000000e+00 -0.000000000000000000e+00 -0.000000000000000000e+00 0.000000000000000000e+00 0.000000000000000000e+00 0.000000000000000000e+00 0.000000000000000000e+00 0.000000000000000000e+00 0.000000000000000000e+00 -0.000000000000000000e+00 0.000000000000000000e+00 0.000000000000000000e+00 0.000000000000000000e+00 -0.000000000000000000e+00 -0.000000000000000000e+00 -0.000000000000000000e+00 0.000000000000000000e+00 -0.000000000000000000e+00 0.000000000000000000e+00
-2.056491076946258545e-01 1.856656670570373535e-01 -3.226752281188964844e-01 -1.543958038091659546e-01 -1.056602690368890762e-03 5.786228179931640625e-02 1.890346407890319824e-01 -1.502282917499542236e-01 -2.749065309762954712e-02 2.377713099122047424e-02 -1.783067584037780762e-01 5.943346396088600159e-02 8.002340048551559448e-02 -1.755934804677963257e-01 -8.795595169067382812e-02 -2.173810601234436035e-01 3.058701939880847931e-02 2.206660360097885132e-01 2.487919479608535767e-02 -2.610144391655921936e-02 -9.209433197975158691e-02 -2.308084443211555481e-02 -1.494319885969161987e-01 3.295454382896423340e-01 7.766901701688766479e-02 -1.117841526865959167e-02 -1.686889231204986572e-01 4.162318259477615356e-02 -1.064956784248352051e-01 -1.246645897626876831e-01 -3.955610841512680054e-02 -5.585083365440368652e-02 -1.857256740331649780e-01 -9.265616536140441895e-02 -1.736472398042678833e-01 7.200485467910766602e-02 2.141667157411575317e-01 1.383549571037292480e-01 -1.965539455413818359e-01 -3.455881401896476746e-02 2.570475339889526367e-01 -2.476071715354919434e-01 -1.860876083374023438e-01 -2.957750856876373291e-01 1.133960559964179993e-01 -1.176247298717498779e-01 -7.276063412427902222e-02 -9.124873578548431396e-02 5.706524848937988281e-02 -2.049513012170791626e-01 -2.311950176954269409e-01 -1.071403026580810547e-01 8.718532323837280273e-02 3.027945384383201599e-02 2.819067835807800293e-01 -1.260414440184831619e-02 1.087876316159963608e-02 5.328182876110076904e-02 -7.212360948324203491e-02 -1.984637379646301270e-01 2.387229353189468384e-02 9.485924243927001953e-02 -3.486650763079524040e-03 -3.821964561939239502e-02 0.000000000000000000e+00 0.000000000000000000e+00 -0.000000000000000000e+00 -0.000000000000000000e+00 0.000000000000000000e+00 -0.000000000000000000e+00 -0.000000000000000000e+00 0.000000000000000000e+00 0.000000000000000000e+00 -0.000000000000000000e+00 0.000000000000000000e+00 0.000000000000000000e+00 0.000000000000000000e+00 -0.000000000000000000e+00 -0.000000000000000000e+00 0.000000000000000000e+00 -0.000000000000000000e+00 -0.000000000000000000e+00 0.000000000000000000e+00 -0.000000000000000000e+00 -0.000000000000000000e+00 0.000000000000000000e+00 -0.000000000000000000e+00 -0.000000000000000000e+00 0.000000000000000000e+00 0.000000000000000000e+00 -0.000000000000000000e+00 0.000000000000000000e+00 0.000000000000000000e+00 -0.000000000000000000e+00 -0.000000000000000000e+00 0.000000000000000000e+00 -0.000000000000000000e+00 0.000000000000000000e+00 -0.000000000000000000e+00 -0.000000000000000000e+00 0.000000000000000000e+00 0.000000000000000000e+00 -0.000000000000000000e+00 0.000000000000000000e+00 0.000000000000000000e+00 -0.000000000000000000e+00 -0.000000000000000000e+00 -0.000000000000000000e+00 -0.000000000000000000e+00 0.000000000000000000e+00 -0.000000000000000000e+00 -0.000000000000000000e+00 -0.000000000000000000e+00 -0.000000000000000000e+00 -0.000000000000000000e+00 0.000000000000000000e+00 0.000000000000000000e+00 -0.000000000000000000e+00 0.000000000000000000e+00 -0.000000000000000000e+00 0.000000000000000000e+00 -0.000000000000000000e+00 0.000000000000000000e+00 0.000000000000000000e+00 0.000000000000000000e+00 -0.000000000000000000e+00 0.000000000000000000e+00 0.000000000000000000e+00
-1.043108031153678894e-01 6.476370245218276978e-02 -1.413809508085250854e-01 1.113248169422149658e-01 -2.674467302858829498e-02 -1.140738502144813538e-01 -7.271649688482284546e-02 -1.566664427518844604e-01 1.077233105897903442e-01 1.546721309423446655e-01 1.986417546868324280e-02 1.521130055189132690e-01 -2.098907530307769775e-01 -2.527289092540740967e-01 1.554172337055206299e-01 -5.810596421360969543e-02 -2.271034866571426392e-01 5.927778780460357666e-02 1.285386085510253906e-01 2.782399393618106842e-02 -2.683800458908081055e-01 -9.838787466287612915e-02 5.761661753058433533e-02 6.600925233215093613e-03 1.064255684614181519e-01 2.168159466236829758e-03 1.274795085191726685e-01 1.238064616918563843e-01 -2.555484771728515625e-01 -2.500302791595458984e-01 -3.087714910507202148e-01 1.102590635418891907e-01 8.611044287681579590e-02 -6.126078218221664429e-02 -1.817706227302551270e-02 -2.424111962318420410e-02 -4.022902846336364746e-01 2.914364077150821686e-02 -2.278953045606613159e-01 6.604207307100296021e-02 -2.002700790762901306e-02 1.160903461277484894e-02 -1.195566281676292419e-01 2.459687441587448120e-01 4.728329926729202271e-02 -4.235083982348442078e-02 -1.276220679283142090e-01 7.634633034467697144e-02 -2.004255354404449463e-02 -1.674213260412216187e-01 -7.386235892772674561e-02 -2.641794737428426743e-03 1.842113286256790161e-01 -1.587224900722503662e-01 1.378423571586608887e-01 -1.273523569107055664e-01 3.400474414229393005e-02 1.297529637813568115e-01 4.715346172451972961e-02 4.154969006776809692e-02 1.512438654899597168e-01 -1.561688333749771118e-01 -1.365647763013839722e-01 -1.083063483238220215e-01 0.000000000000000000e+00 -0.000000000000000000e+00 0.000000000000000000e+00 -0.000000000000000000e+00 -0.000000000000000000e+00 0.000000000000000000e+00 0.000000000000000000e+00 0.000000000000000000e+00 -0.000000000000000000e+00 0.000000000000000000e+00 0.000000000000000000e+00 0.000000000000000000e+00 -0.000000000000000000e+00 -0.000000000000000000e+00 -0.000000000000000000e+00 0.000000000000000000e+00 0.000000000000000000e+00 0.000000000000000000e+00 -0.000000000000000000e+00 -0.000000000000000000e+00 0.000000000000000000e+00 0.000000000000000000e+00 0.000000000000000000e+00 0.000000000000000000e+00 -0.000000000000000000e+00 -0.000000000000000000e+00 0.000000000000000000e+00 -0.000000000000000000e+00 -0.000000000000000000e+00 -0.000000000000000000e+00 -0.000000000000000000e+00 -0.000000000000000000e+00 -0.000000000000000000e+00 -0.000000000000000000e+00 -0.000000000000000000e+00 0.000000000000000000e+00 -0.000000000000000000e+00 -0.000000000000000000e+00 -0.000000000000000000e+00 -0.000000000000000000e+00 -0.000000000000000000e+00 -0.000000000000000000e+00 -0.000000000000000000e+00 0.000000000000000000e+00 0.000000000000000000e+00 -0.000000000000000000e+00 -0.000000000000000000e+00 -0.000000000000000000e+00 -0.000000000000000000e+00 0.000000000000000000e+00 -0.000000000000000000e+00 -0.000000000000000000e+00 0.000000000000000000e+00 0.000000000000000000e+00 -0.000000000000000000e+00 -0.000000000000000000e+00 0.000000000000000000e+00 0.000000000000000000e+00 0.000000000000000000e+00 -0.000000000000000000e+00 0.000000000000000000e+00 -0.000000000000000000e+00 0.000000000000000000e+00 -0.000000000000000000e+00
1.467152982950210571e-01 4.120648279786109924e-02 9.541915729641914368e-03 -4.927846789360046387e-02 -1.681740731000900269e-01 1.003524810075759888e-01 8.331184834241867065e-02 8.592316880822181702e-03 -7.241255044937133789e-02 -4.537985846400260925e-02 6.332440674304962158e-02 1.377350986003875732e-01 4.389415085315704346e-01 -1.013844981789588928e-01 -8.630417287349700928e-03 4.516653344035148621e-02 1.379934102296829224e-01 -7.160906493663787842e-02 -2.109092772006988525e-01 1.050937250256538391e-01 -1.481816619634628296e-01 2.320392243564128876e-02 2.099554799497127533e-02 -4.125088825821876526e-02 -4.348094463348388672e-01 -1.167546063661575317e-01 6.442467868328094482e-02 -1.367214322090148926e-01 -1.918847556225955486e-03 -1.405831873416900635e-01 9.132831543684005737e-02 9.114859253168106079e-02 5.622104182839393616e-02 -1.595202982425689697e-01 -1.037230901420116425e-02 -5.228943750262260437e-02 2.256409078836441040e-01 1.544206887483596802e-01 -2.568531632423400879e-01 1.653932183980941772e-01 3.898376598954200745e-02 5.174562800675630569e-03 -1.087332959286868572e-03 5.509979277849197388e-02 1.102166026830673218e-01 1.118545606732368469e-01 8.635720610618591309e-02 -1.853514909744262695e-01 -6.891117990016937256e-02 -3.301344513893127441e-01 3.399346172809600830e-01 -9.762792289257049561e-02 1.216377764940261841e-01 -2.707787752151489258e-01 -1.418179273605346680e-02 -9.808722883462905884e-02 -3.934611976146697998e-01 -1.305825859308242798e-01 -1.151382848620414734e-01 -3.643422126770019531e-01 2.094315439462661743e-01 1.198418810963630676e-01 -1.229536905884742737e-01 -1.741816699504852295e-01 -0.000000000000000000e+00 -0.000000000000000000e+00 -0.000000000000000000e+00 -0.000000000000000000e+00 0.000000000000000000e+00 -0.000000000000000000e+00 0.000000000000000000e+00 -0.000000000000000000e+00 -0.000000000000000000e+00 0.000000000000000000e+00 -0.000000000000000000e+00 -0.000000000000000000e+00 0.000000000000000000e+00 -0.000000000000000000e+00 0.000000000000000000e+00 0.000000000000000000e+00 -0.000000000000000000e+00 0.000000000000000000e+00 0.000000000000000000e+00 0.000000000000000000e+00 0.000000000000000000e+00 -0.000000000000000000e+00 -0.000000000000000000e+00 -0.000000000000000000e+00 -0.000000000000000000e+00 -0.000000000000000000e+00 0.000000000000000000e+00 0.000000000000000000e+00 -0.000000000000000000e+00 0.000000000000000000e+00 0.000000000000000000e+00 -0.000000000000000000e+00 0.000000000000000000e+00 0.000000000000000000e+00 -0.000000000000000000e+00 0.000000000000000000e+00 -0.000000000000000000e+00 0.000000000000000000e+00 0.000000000000000000e+00 0.000000000000000000e+00 -0.000000000000000000e+00 0.000000000000000000e+00 0.000000000000000000e+00 0.000000000000000000e+00 0.000000000000000000e+00 0.000000000000000000e+00 -0.000000000000000000e+00 0.000000000000000000e+00 -0.000000000000000000e+00 -0.000000000000000000e+00 -0.000000000000000000e+00 -0.000000000000000000e+00 -0.000000000000000000e+00 0.000000000000000000e+00 -0.000000000000000000e+00 -0.000000000000000000e+00 -0.000000000000000000e+00 0.000000000000000000e+00 -0.000000000000000000e+00 0.000000000000000000e+00 -0.000000000000000000e+00 -0.000000000000000000e+00 -0.000000000000000000e+00 0.000000000000000000e+00
9.119822829961776733e-02 -1.269691623747348785e-02 8.408860117197036743e-02 2.358587533235549927e-01 1.502934396266937256e-01 1.878755986690521240e-01 -2.780274674296379089e-02 8.451639115810394287e-02 3.848622320219874382e-03 -2.063426971435546875e-01 -3.647833764553070068e-01 -7.606836408376693726e-02 4.966676980257034302e-02 3.007318079471588135e-01 -1.042284965515136719e-01 -1.603004038333892822e-01 -4.964096471667289734e-02 -4.804481938481330872e-02 -1.462823599576950073e-01 2.226071506738662720e-01 1.912427246570587158e-01 -1.787550374865531921e-02 1.253687441349029541e-01 -7.707290351390838623e-02 -1.931309700012207031e-03 -2.843062579631805420e-01 -1.150430440902709961e-01 -1.587267369031906128e-01 -4.304274916648864746e-03 -6.224422156810760498e-02 5.200381204485893250e-02 -2.774600088596343994e-01 -2.370515614748001099e-01 -8.008290827274322510e-02 1.227521896362304688e-01 5.158466473221778870e-02 1.816767305135726929e-01 7.803200185298919678e-02 2.457353323698043823e-01 2.180653810501098633e-01 4.590800777077674866e-02 -4.596836399286985397e-03 2.128577604889869690e-02 1.255899667739868164e-01 5.508236587047576904e-02 -4.071347881108522415e-03 1.390264630317687988e-01 -1.152061447501182556e-01 2.249062806367874146e-01 1.722636222839355469e-01 -1.068864613771438599e-01 9.915414452552795410e-02 5.582568049430847168e-02 -1.174011081457138062e-01 -4.057161211967468262e-01 2.414252161979675293e-01 -1.682000309228897095e-01 5.410100147128105164e-02 3.989230468869209290e-02 5.772297456860542297e-02 9.482096135616302490e-02 1.169881895184516907e-01 9.920914471149444580e-02 1.180275157094001770e-01 -0.000000000000000000e+00 0.000000000000000000e+00 -0.000000000000000000e+00 -0.000000000000000000e+00 -0.000000000000000000e+00 -0.000000000000000000e+00 -0.000000000000000000e+00 0.000000000000000000e+00 -0.000000000000000000e+00 0.000000000000000000e+00 -0.000000000000000000e+00 -0.000000000000000000e+00 -0.000000000000000000e+00 -0.000000000000000000e+00 -0.000000000000000000e+00 -0.000000000000000000e+00 -0.000000000000000000e+00 0.000000000000000000e+00 -0.000000000000000000e+00 0.000000000000000000e+00 -0.000000000000000000e+00 0.000000000000000000e+00 -0.000000000000000000e+00 -0.000000000000000000e+00 0.000000000000000000e+00 0.000000000000000000e+00 0.000000000000000000e+00 0.000000000000000000e+00 0.000000000000000000e+00 0.000000000000000000e+00 -0.000000000000000000e+00 -0.000000000000000000e+00 -0.000000000000000000e+00 0.000000000000000000e+00 0.000000000000000000e+00 -0.000000000000000000e+00 0.000000000000000000e+00 0.000000000000000000e+00 -0.000000000000000000e+00 0.000000000000000000e+00 -0.000000000000000000e+00 -0.000000000000000000e+00 0.000000000000000000e+00 0.000000000000000000e+00 0.000000000000000000e+00 -0.000000000000000000e+00 -0.000000000000000000e+00 -0.000000000000000000e+00 -0.000000000000000000e+00 -0.000000000000000000e+00 0.000000000000000000e+00 -0.000000000000000000e+00 0.000000000000000000e+00 0.000000000000000000e+00 0.000000000000000000e+00 0.000000000000000000e+00 0.000000000000000000e+00 -0.000000000000000000e+00 0.000000000000000000e+00 0.000000000000000000e+00 -0.000000000000000000e+00 0.000000000000000000e+00 -0.000000000000000000e+00 0.000000000000000000e+00
2.119762450456619263e-01 7.971052825450897217e-02 -1.079040952026844025e-02 7.091721892356872559e-02 -9.879049845039844513e-03 -1.670590490102767944e-01 1.415798515081405640e-01 -6.853611022233963013e-02 -1.688656955957412720e-02 5.194339528679847717e-02 6.544564664363861084e-02 -7.030516117811203003e-02 1.563231796026229858e-01 2.521675452589988708e-02 -2.746918201446533203e-01 1.919176243245601654e-02 1.582505851984024048e-01 -1.384015101939439774e-02 -4.081764817237854004e-02 3.431728854775428772e-02 -5.600280687212944031e-02 1.561899930238723755e-01 1.271286420524120331e-02 -3.284963369369506836e-01 -4.397007822990417480e-02 -1.494901180267333984e-01 9.139151871204376221e-02 -4.910541325807571411e-02 3.290120884776115417e-02 1.893308362923562527e-03 -7.202045992016792297e-03 -2.378952056169509888e-01 -2.261486500501632690e-01 -1.319105327129364014e-01 8.955243229866027832e-02 -8.594736456871032715e-02 9.853307902812957764e-02 -2.568207979202270508e-01 -2.073541432619094849e-01 1.921000629663467407e-01 -9.102618694305419922e-02 1.838070303201675415e-01 -6.683503091335296631e-02 2.413280457258224487e-01 3.122085034847259521e-01 5.962008982896804810e-02 -1.481329053640365601e-01 -7.965688407421112061e-02 -1.908385306596755981e-01 -2.116817086935043335e-01 7.536485046148300171e-02 1.027819514274597168e-01 -6.281204521656036377e-02 -1.363890618085861206e-01 2.449165731668472290e-01 4.858144745230674744e-02 1.677906960248947144e-01 7.951459847390651703e-03 -2.011521607637405396e-01 -8.548058569431304932e-02 -2.535515129566192627e-01 6.943272054195404053e-02 -9.214325994253158569e-02 -2.160356193780899048e-01 -0.000000000000000000e+00 0.000000000000000000e+00 -0.000000000000000000e+00 0.000000000000000000e+00 0.000000000000000000e+00 0.000000000000000000e+00 -0.000000000000000000e+00 0.000000000000000000e+00 0.000000000000000000e+00 -0.000000000000000000e+00 0.000000000000000000e+00 -0.000000000000000000e+00 -0.000000000000000000e+00 -0.000000000000000000e+00 0.000000000000000000e+00 0.000000000000000000e+00 0.000000000000000000e+00 -0.000000000000000000e+00 0.000000000000000000e+00 0.000000000000000000e+00 0.000000000000000000e+00 0.000000000000000000e+00 0.000000000000000000e+00 0.000000000000000000e+00 0.000000000000000000e+00 -0.000000000000000000e+00 0.000000000000000000e+00 0.000000000000000000e+00 0.000000000000000000e+00 -0.000000000000000000e+00 0.000000000000000000e+00 0.000000000000000000e+00 -0.000000000000000000e+00 0.000000000000000000e+00 -0.000000000000000000e+00 0.000000000000000000e+00 0.000000000000000000e+00 -0.000000000000000000e+00 0.000000000000000000e+00 -0.000000000000000000e+00 -0.000000000000000000e+00 -0.000000000000000000e+00 -0.000000000000000000e+00 0.000000000000000000e+00 0.000000000000000000e+00 -0.000000000000000000e+00 0.000000000000000000e+00 0.000000000000000000e+00 -0.000000000000000000e+00 0.000000000000000000e+00 -0.000000000000000000e+00 0.000000000000000000e+00 0.000000000000000000e+00 0.000000000000000000e+00 0.000000000000000000e+00 0.000000000000000000e+00 -0.000000000000000000e+00 0.000000000000000000e+00 0.000000000000000000e+00 -0.000000000000000000e+00 -0.000000000000000000e+00 0.000000000000000000e+00 -0.000000000000000000e+00 0.000000000000000000e+00
-1.185638010501861572e-01 2.438687384128570557e-01 3.868390247225761414e-02 -1.327072381973266602e-01 -1.665496453642845154e-02 4.909296929836273193e-01 -8.632506243884563446e-03 3.419046998023986816e-01 1.368775665760040283e-01 -2.949103713035583496e-01 2.394695580005645752e-01 4.692045971751213074e-02 -1.258124262094497681e-01 1.286287456750869751e-01 2.168434299528598785e-02 -3.390714153647422791e-02 -2.122749239206314087e-01 3.754972815513610840e-01 1.415380537509918213e-01 1.048267781734466553e-01 8.000986278057098389e-02 -5.886055156588554382e-02 -5.246702209115028381e-02 1.513225138187408447e-01 -7.218445185571908951e-03 -1.167116090655326843e-01 -2.791526727378368378e-02 4.310374334454536438e-02 -1.319015622138977051e-01 9.641833603382110596e-02 -2.698630653321743011e-02 -9.452867507934570312e-02 8.310598204843699932e-04 -1.047397498041391373e-02 -1.502387523651123047e-01 2.051201276481151581e-02 -1.016835123300552368e-01 -1.408940255641937256e-01 2.843484841287136078e-02 1.636414229869842529e-01 9.269469417631626129e-03 1.005385518074035645e-01 -1.587194055318832397e-01 -1.155028343200683594e-01 -1.289933174848556519e-01 1.910226494073867798e-01 1.632777228951454163e-02 -1.804050356149673462e-01 -1.540150195360183716e-01 2.006798796355724335e-02 -1.070680320262908936e-01 -2.072591781616210938e-01 -1.972528174519538879e-02 -1.026282459497451782e-01 5.549319088459014893e-02 -1.930486410856246948e-01 -1.214713603258132935e-01 -6.972061097621917725e-02 -1.161653548479080200e-01 1.839542984962463379e-01 6.710660457611083984e-02 -6.257764995098114014e-02 -7.588610053062438965e-02 -8.151388168334960938e-02 0.000000000000000000e+00 0.000000000000000000e+00 0.000000000000000000e+00 0.000000000000000000e+00 0.000000000000000000e+00 -0.000000000000000000e+00 0.000000000000000000e+00 0.000000000000000000e+00 0.000000000000000000e+00 0.000000000000000000e+00 -0.000000000000000000e+00 0.000000000000000000e+00 -0.000000000000000000e+00 0.000000000000000000e+00 -0.000000000000000000e+00 -0.000000000000000000e+00 0.000000000000000000e+00 -0.000000000000000000e+00 0.000000000000000000e+00 -0.000000000000000000e+00 -0.000000000000000000e+00 -0.000000000000000000e+00 -0.000000000000000000e+00 0.000000000000000000e+00 -0.000000000000000000e+00 0.000000000000000000e+00 0.000000000000000000e+00 -0.000000000000000000e+00 0.000000000000000000e+00 0.000000000000000000e+00 0.000000000000000000e+00 0.000000000000000000e+00 0.000000000000000000e+00 0.000000000000000000e+00 -0.000000000000000000e+00 0.000000000000000000e+00 0.000000000000000000e+00 0.000000000000000000e+00 -0.000000000000000000e+00 0.000000000000000000e+00 0.000000000000000000e+00 0.000000000000000000e+00 -0.000000000000000000e+00 -0.000000000000000000e+00 0.000000000000000000e+00 -0.000000000000000000e+00 0.000000000000000000e+00 0.000000000000000000e+00 -0.000000000000000000e+00 0.000000000000000000e+00 -0.000000000000000000e+00 0.000000000000000000e+00 -0.000000000000000000e+00 -0.000000000000000000e+00 0.000000000000000000e+00 0.000000000000000000e+00 -0.000000000000000000e+00 0.000000000000000000e+00 -0.000000000000000000e+00 -0.000000000000000000e+00 0.000000000000000000e+00 -0.000000000000000000e+00 -0.000000000000000000e+00 -0.000000000000000000e+00
1.884654313325881958e-01 1.121748164296150208e-01 2.067897282540798187e-02 9.594618529081344604e-02 -4.458409920334815979e-02 -5.526610463857650757e-02 -1.185409203171730042e-01 1.090985089540481567e-01 -1.113960295915603638e-01 2.036079466342926025e-01 3.233219981193542480e-01 1.099272444844245911e-01 -1.218022108078002930e-01 -1.712463051080703735e-01 1.544930320233106613e-02 2.688332498073577881e-01 1.001133248209953308e-01 -3.178198635578155518e-02 -1.615453884005546570e-02 3.146128058433532715e-01 -2.087456881999969482e-01 2.047630846500396729e-01 1.234017461538314819e-01 3.867269307374954224e-02 -1.246607974171638489e-01 -1.110776066780090332e-01 1.029738709330558777e-01 3.410314023494720459e-02 1.094935089349746704e-01 2.095958888530731201e-01 1.423258632421493530e-01 1.485002934932708740e-01 -2.533713281154632568e-01 -1.051054671406745911e-01 -4.899939149618148804e-02 -1.244344487786293030e-01 1.269016265869140625e-01 -1.855409145355224609e-01 -6.392669677734375000e-02 -2.211342938244342804e-02 1.062887087464332581e-01 -5.787582695484161377e-02 3.647585865110158920e-03 1.848371028900146484e-01 -3.205790519714355469e-01 2.400281131267547607e-01 -8.489207923412322998e-02 -1.940073221921920776e-01 4.330920800566673279e-02 -3.377193352207541466e-03 -1.480814665555953979e-01 -5.554773658514022827e-02 -1.273761224001646042e-02 3.478885069489479065e-02 -1.352583467960357666e-01 -1.162109989672899246e-02 -2.273414134979248047e-01 -1.443466991186141968e-01 1.800370365381240845e-01 -9.568710811436176300e-03 -1.881723850965499878e-02 -9.972709417343139648e-02 6.184297800064086914e-02 -1.256316155195236206e-01 -0.000000000000000000e+00 -0.000000000000000000e+00 -0.000000000000000000e+00 -0.000000000000000000e+00 0.000000000000000000e+00 0.000000000000000000e+00 0.000000000000000000e+00 -0.000000000000000000e+00 0.000000000000000000e+00 -0.000000000000000000e+00 0.000000000000000000e+00 -0.000000000000000000e+00 0.000000000000000000e+00 -0.000000000000000000e+00 0.000000000000000000e+00 0.000000000000000000e+00 0.000000000000000000e+00 -0.000000000000000000e+00 0.000000000000000000e+00 -0.000000000000000000e+00 -0.000000000000000000e+00 0.000000000000000000e+00 0.000000000000000000e+00 -0.000000000000000000e+00 0.000000000000000000e+00 -0.000000000000000000e+00 0.000000000000000000e+00 -0.000000000000000000e+00 0.000000000000000000e+00 0.000000000000000000e+00 0.000000000000000000e+00 -0.000000000000000000e+00 0.000000000000000000e+00 0.000000000000000000e+00 0.000000000000000000e+00 -0.000000000000000000e+00 -0.000000000000000000e+00 -0.000000000000000000e+00 0.000000000000000000e+00 0.000000000000000000e+00 -0.000000000000000000e+00 -0.000000000000000000e+00 -0.000000000000000000e+00 -0.000000000000000000e+00 -0.000000000000000000e+00 -0.000000000000000000e+00 -0.000000000000000000e+00 -0.000000000000000000e+00 -0.000000000000000000e+00 -0.000000000000000000e+00 -0.000000000000000000e+00 0.000000000000000000e+00 0.000000000000000000e+00 0.000000000000000000e+00 -0.000000000000000000e+00 0.000000000000000000e+00 0.000000000000000000e+00 -0.000000000000000000e+00 -0.000000000000000000e+00 0.000000000000000000e+00 -0.000000000000000000e+00 0.000000000000000000e+00 -0.000000000000000000e+00 0.000000000000000000e+00
-2.806554436683654785e-01 -1.032449230551719666e-01 -3.756959363818168640e-02 2.847335301339626312e-02 7.199183851480484009e-02 1.139302626252174377e-01 -3.878515958786010742e-02 -3.013486601412296295e-02 -2.402957230806350708e-01 -2.150349132716655731e-02 1.136167123913764954e-01 2.990086078643798828e-01 -1.240395754575729370e-01 -2.042193859815597534e-01 -4.155635088682174683e-02 9.285051375627517700e-02 5.418343469500541687e-02 -2.353828400373458862e-01 6.495226174592971802e-02 3.304231762886047363e-01 5.350539088249206543e-02 -2.588505484163761139e-02 -1.136880144476890564e-01 -2.173182740807533264e-02 7.597371190786361694e-02 4.086284432560205460e-03 -1.318930983543395996e-01 2.577682957053184509e-03 -1.643227189779281616e-01 5.923934280872344971e-02 9.451284259557723999e-02 -6.297649443149566650e-02 1.929076015949249268e-01 -2.140625864267349243e-01 -9.921748191118240356e-02 9.515535784885287285e-04 2.377434670925140381e-01 -1.043590977787971497e-01 -2.646061182022094727e-01 -1.139126792550086975e-01 -1.378002669662237167e-02 -9.310389310121536255e-02 2.967491149902343750e-01 3.531761765480041504e-01 -3.175131976604461670e-03 4.180346056818962097e-02 -1.244909595698118210e-02 -6.492096185684204102e-02 2.572769224643707275e-01 -4.338693618774414062e-02 -1.102465614676475525e-01 6.115395948290824890e-02 -1.397551894187927246e-01 -6.132337823510169983e-02 4.360714927315711975e-02 -2.238242328166961670e-02 8.968290640041232109e-04 -5.108644440770149231e-02 -9.626489132642745972e-02 3.091021776199340820e-01 -6.629079580307006836e-02 4.102368280291557312e-02 -1.336538344621658325e-01 1.193482205271720886e-01 0.000000000000000000e+00 0.000000000000000000e+00 0.000000000000000000e+00 0.000000000000000000e+00 -0.000000000000000000e+00 0.000000000000000000e+00 0.000000000000000000e+00 -0.000000000000000000e+00 0.000000000000000000e+00 -0.000000000000000000e+00 -0.000000000000000000e+00 -0.000000000000000000e+00 0.000000000000000000e+00 -0.000000000000000000e+00 -0.000000000000000000e+00 0.000000000000000000e+00 0.000000000000000000e+00 -0.000000000000000000e+00 0.000000000000000000e+00 0.000000000000000000e+00 0.000000000000000000e+00 -0.000000000000000000e+00 0.000000000000000000e+00 -0.000000000000000000e+00 -0.000000000000000000e+00 0.000000000000000000e+00 -0.000000000000000000e+00 -0.000000000000000000e+00 0.000000000000000000e+00 -0.000000000000000000e+00 0.000000000000000000e+00 -0.000000000000000000e+00 0.000000000000000000e+00 0.000000000000000000e+00 -0.000000000000000000e+00 0.000000000000000000e+00 0.000000000000000000e+00 -0.000000000000000000e+00 0.000000000000000000e+00 -0.000000000000000000e+00 -0.000000000000000000e+00 -0.000000000000000000e+00 0.000000000000000000e+00 0.000000000000000000e+00 0.000000000000000000e+00 -0.000000000000000000e+00 0.000000000000000000e+00 -0.000000000000000000e+00 -0.000000000000000000e+00 0.000000000000000000e+00 0.000000000000000000e+00 -0.000000000000000000e+00 0.000000000000000000e+00 -0.000000000000000000e+00 0.000000000000000000e+00 -0.000000000000000000e+00 -0.000000000000000000e+00 0.000000000000000000e+00 0.000000000000000000e+00 0.000000000000000000e+00 -0.000000000000000000e+00 -0.000000000000000000e+00 0.000000000000000000e+00 -0.000000000000000000e+00
9.113632142543792725e-02 1.419974863529205322e-01 -9.184796363115310669e-02 1.757051795721054077e-02 5.587314069271087646e-02 4.603456705808639526e-03 -4.309215396642684937e-02 -2.852949500083923340e-02 -5.676722619682550430e-03 -1.373434322886168957e-03 -8.445653133094310760e-03 -1.795493513345718384e-01 -2.388185076415538788e-02 -5.714789777994155884e-02 2.129426896572113037e-01 3.664145618677139282e-02 -1.781499534845352173e-01 -2.660784721374511719e-01 -1.439420729875564575e-01 2.539196908473968506e-01 -1.659169197082519531e-01 -1.125857681035995483e-01 1.204260736703872681e-01 2.216079458594322205e-02 -2.079164981842041016e-01 -3.289646208286285400e-01 -9.147894382476806641e-02 1.897198706865310669e-01 9.473349153995513916e-02 1.137820407748222351e-01 1.212347745895385742e-01 -7.508070766925811768e-02 3.658689260482788086e-01 -5.240784585475921631e-02 -1.909712851047515869e-01 5.395636558532714844e-01 -4.001857340335845947e-02 1.136375963687896729e-01 2.269456088542938232e-01 -1.559348870068788528e-02 1.481894701719284058e-01 -1.793795078992843628e-01 -9.408659487962722778e-02 -3.269442357122898102e-03 -1.349195986986160278e-01 -3.236963227391242981e-02 -9.008684009313583374e-02 2.926972210407257080e-01 -1.322866529226303101e-01 -5.171302706003189087e-02 -1.918860822916030884e-01 -7.798293977975845337e-02 -2.155584096908569336e-01 3.000614605844020844e-02 -1.156125143170356750e-01 1.306081563234329224e-01 7.336682081222534180e-02 -2.043973803520202637e-01 -1.527073681354522705e-01 1.266756802797317505e-01 7.198414951562881470e-02 -4.068199079483747482e-03 -3.572950959205627441e-01 1.408265978097915649e-01 -0.000000000000000000e+00 0.000000000000000000e+00 0.000000000000000000e+00 -0.000000000000000000e+00 0.000000000000000000e+00 -0.000000000000000000e+00 0.000000000000000000e+00 0.000000000000000000e+00 0.000000000000000000e+00 -0.000000000000000000e+00 0.000000000000000000e+00 0.000000000000000000e+00 0.000000000000000000e+00 0.000000000000000000e+00 -0.000000000000000000e+00 0.000000000000000000e+00 0.000000000000000000e+00 0.000000000000000000e+00 -0.000000000000000000e+00 0.000000000000000000e+00 -0.000000000000000000e+00 -0.000000000000000000e+00 0.000000000000000000e+00 0.000000000000000000e+00 -0.000000000000000000e+00 -0.000000000000000000e+00 -0.000000000000000000e+00 0.000000000000000000e+00 -0.000000000000000000e+00 -0.000000000000000000e+00 0.000000000000000000e+00 0.000000000000000000e+00 0.000000000000000000e+00 0.000000000000000000e+00 -0.000000000000000000e+00 0.000000000000000000e+00 -0.000000000000000000e+00 -0.000000000000000000e+00 0.000000000000000000e+00 0.000000000000000000e+00 0.000000000000000000e+00 0.000000000000000000e+00 0.000000000000000000e+00 -0.000000000000000000e+00 0.000000000000000000e+00 0.000000000000000000e+00 -0.000000000000000000e+00 0.000000000000000000e+00 0.000000000000000000e+00 -0.000000000000000000e+00 -0.000000000000000000e+00 -0.000000000000000000e+00 -0.000000000000000000e+00 0.000000000000000000e+00 -0.000000000000000000e+00 -0.000000000000000000e+00 0.000000000000000000e+00 0.000000000000000000e+00 0.000000000000000000e+00 -0.000000000000000000e+00 0.000000000000000000e+00 0.000000000000000000e+00 0.000000000000000000e+00 -0.000000000000000000e+00
-2.248992174863815308e-01 1.693931967020034790e-01 -4.895520210266113281e-02 -1.493604928255081177e-01 -1.182600408792495728e-01 2.058105617761611938e-01 -7.219463586807250977e-02 -1.274931281805038452e-01 -2.596015110611915588e-02 -7.307414710521697998e-02 1.581553965806961060e-01 -2.308302372694015503e-01 1.010980457067489624e-01 1.707489043474197388e-01 2.149283438920974731e-01 -2.510319352149963379e-01 -1.597922593355178833e-01 -2.758605405688285828e-02 1.012047678232192993e-01 1.223309338092803955e-01 1.489949077367782593e-01 1.395195871591567993e-01 3.471053391695022583e-02 -3.027031943202018738e-02 -1.743420213460922241e-01 1.935959607362747192e-01 3.783630579710006714e-02 1.804889589548110962e-01 -2.209015935659408569e-01 2.817608416080474854e-01 -4.520281404256820679e-02 1.303580254316329956e-01 -1.834961622953414917e-01 -1.093518584966659546e-01 1.444685310125350952e-01 -8.683146536350250244e-02 4.690705239772796631e-02 -6.104568392038345337e-02 2.208280712366104126e-01 1.764043122529983521e-01 -1.537418514490127563e-01 -2.468787282705307007e-01 2.495635747909545898e-01 -1.130781602114439011e-02 -3.921815007925033569e-02 4.445884376764297485e-03 3.105674311518669128e-02 1.437097489833831787e-01 -3.370833992958068848e-01 -2.216050475835800171e-01 -1.951469630002975464e-01 -7.286980748176574707e-02 -7.614581286907196045e-02 -1.670944839715957642e-01 -1.450591906905174255e-02 5.197799950838088989e-02 -1.859468072652816772e-01 1.116175353527069092e-01 -5.895688384771347046e-02 -2.078866213560104370e-02 -7.169723510742187500e-02 2.642350196838378906e-01 6.409057974815368652e-02 -2.849391102790832520e-02 0.000000000000000000e+00 -0.000000000000000000e+00 -0.000000000000000000e+00 -0.000000000000000000e+00 0.000000000000000000e+00 -0.000000000000000000e+00 -0.000000000000000000e+00 0.000000000000000000e+00 -0.000000000000000000e+00 0.000000000000000000e+00 -0.000000000000000000e+00 0.000000000000000000e+00 0.000000000000000000e+00 -0.000000000000000000e+00 -0.000000000000000000e+00 -0.000000000000000000e+00 0.000000000000000000e+00 0.000000000000000000e+00 0.000000000000000000e+00 -0.000000000000000000e+00 -0.000000000000000000e+00 0.000000000000000000e+00 0.000000000000000000e+00 0.000000000000000000e+00 -0.000000000000000000e+00 -0.000000000000000000e+00 -0.000000000000000000e+00 0.000000000000000000e+00 -0.000000000000000000e+00 -0.000000000000000000e+00 0.000000000000000000e+00 -0.000000000000000000e+00 0.000000000000000000e+00 0.000000000000000000e+00 -0.000000000000000000e+00 0.000000000000000000e+00 0.000000000000000000e+00 -0.000000000000000000e+00 -0.000000000000000000e+00 0.000000000000000000e+00 -0.000000000000000000e+00 -0.000000000000000000e+00 -0.000000000000000000e+00 0.000000000000000000e+00 0.000000000000000000e+00 -0.000000000000000000e+00 0.000000000000000000e+00 0.000000000000000000e+00 -0.000000000000000000e+00 0.000000000000000000e+00 -0.000000000000000000e+00 -0.000000000000000000e+00 -0.000000000000000000e+00 0.000000000000000000e+00 0.000000000000000000e+00 0.000000000000000000e+00 -0.000000000000000000e+00 -0.000000000000000000e+00 0.000000000000000000e+00 -0.000000000000000000e+00 0.000000000000000000e+00 0.000000000000000000e+00 -0.000000000000000000e+00 0.000000000000000000e+00
-2.724416255950927734e-01 -1.745991967618465424e-02 2.269083261489868164e-01 -1.520181745290756226e-01 6.645368039608001709e-02 2.426471412181854248e-01 8.517201989889144897e-02 -2.467295713722705841e-02 -1.375825852155685425e-01 1.495029926300048828e-01 -1.879435777664184570e-01 6.338765844702720642e-03 -4.026256799697875977e-01 -9.612467139959335327e-02 -6.158380210399627686e-02 1.226074770092964172e-01 -8.833545446395874023e-02 9.300284832715988159e-02 -6.193796172738075256e-02 2.366842329502105713e-01 -2.136231958866119385e-01 9.066490083932876587e-02 1.148431524634361267e-01 4.204692319035530090e-02 -3.703750073909759521e-01 -1.173768565058708191e-02 -1.019146759063005447e-02 1.611561030149459839e-01 2.601278126239776611e-01 -2.640265226364135742e-01 5.149768665432929993e-03 -2.299472242593765259e-01 7.961190491914749146e-02 8.536071330308914185e-02 8.011276274919509888e-02 -5.843644961714744568e-02 9.128267318010330200e-02 1.434577703475952148e-01 1.336231175810098648e-02 -2.162432819604873657e-01 -2.769092321395874023e-01 -6.745965033769607544e-02 -5.199622362852096558e-03 1.937519609928131104e-01 -6.131521984934806824e-02 -2.924153767526149750e-02 -1.096041128039360046e-01 -8.960928767919540405e-02 -1.912528648972511292e-02 -1.328919827938079834e-01 1.714395545423030853e-02 2.225574851036071777e-01 2.033453434705734253e-01 3.858339488506317139e-01 -1.216056495904922485e-01 5.092828720808029175e-02 -8.082728832960128784e-03 -5.036818608641624451e-02 -7.097615301609039307e-02 -1.237332122400403023e-03 -2.919139266014099121e-01 -8.226334303617477417e-02 7.409131526947021484e-02 -1.541707813739776611e-01 0.000000000000000000e+00 -0.000000000000000000e+00 -0.000000000000000000e+00 -0.000000000000000000e+00 0.000000000000000000e+00 -0.000000000000000000e+00 -0.000000000000000000e+00 -0.000000000000000000e+00 0.000000000000000000e+00 0.000000000000000000e+00 -0.000000000000000000e+00 0.000000000000000000e+00 0.000000000000000000e+00 -0.000000000000000000e+00 -0.000000000000000000e+00 0.000000000000000000e+00 0.000000000000000000e+00 0.000000000000000000e+00 0.000000000000000000e+00 -0.000000000000000000e+00 -0.000000000000000000e+00 -0.000000000000000000e+00 0.000000000000000000e+00 -0.000000000000000000e+00 0.000000000000000000e+00 0.000000000000000000e+00 0.000000000000000000e+00 -0.000000000000000000e+00 0.000000000000000000e+00 0.000000000000000000e+00 0.000000000000000000e+00 0.000000000000000000e+00 0.000000000000000000e+00 -0.000000000000000000e+00 0.000000000000000000e+00 0.000000000000000000e+00 0.000000000000000000e+00 0.000000000000000000e+00 0.000000000000000000e+00 0.000000000000000000e+00 -0.000000000000000000e+00 -0.000000000000000000e+00 0.000000000000000000e+00 -0.000000000000000000e+00 0.000000000000000000e+00 -0.000000000000000000e+00 0.000000000000000000e+00 0.000000000000000000e+00 -0.000000000000000000e+00 -0.000000000000000000e+00 0.000000000000000000e+00 0.000000000000000000e+00 -0.000000000000000000e+00 0.000000000000000000e+00 0.000000000000000000e+00 0.000000000000000000e+00 -0.000000000000000000e+00 -0.000000000000000000e+00 -0.000000000000000000e+00 0.000000000000000000e+00 -0.000000000000000000e+00 0.000000000000000000e+00 0.000000000000000000e+00 0.000000000000000000e+00
5.496139824390411377e-02 1.672123186290264130e-02 -3.432063851505517960e-03 -7.190922647714614868e-02 1.882684826850891113e-01 1.808498948812484741e-01 1.311017423868179321e-01 -2.669838815927505493e-02 -1.172296330332756042e-01 -1.983159221708774567e-02 -3.168670237064361572e-01 1.463878899812698364e-01 1.505517363548278809e-01 9.446822851896286011e-02 -1.074442863464355469e-01 -3.627659752964973450e-02 8.201606571674346924e-03 2.047176808118820190e-01 -2.118275314569473267e-01 9.421204216778278351e-03 1.728663221001625061e-02 9.255309402942657471e-02 5.911303311586380005e-02 1.669839471578598022e-01 -2.059273123741149902e-01 -1.254519075155258179e-01 -7.285760343074798584e-02 -1.291252207010984421e-02 -1.635245531797409058e-01 -5.380928143858909607e-02 8.061292767524719238e-02 -8.329857885837554932e-02 1.655887812376022339e-01 -2.583672106266021729e-02 1.883324533700942993e-01 7.602516561746597290e-02 2.646360099315643311e-01 -2.264128774404525757e-01 -7.080246508121490479e-02 -3.540410473942756653e-02 -1.120711192488670349e-01 -8.793220669031143188e-02 -6.989910453557968140e-02 -1.463497281074523926e-01 3.538226187229156494e-01 1.174881607294082642e-01 -4.257230088114738464e-02 -1.708356738090515137e-01 -1.231854259967803955e-01 7.724823802709579468e-02 -5.525215342640876770e-02 -4.979059472680091858e-02 1.817810907959938049e-02 -1.088593900203704834e-01 3.136139214038848877e-01 -8.241695165634155273e-02 2.758663296699523926e-01 -9.390724450349807739e-02 -8.425068855285644531e-02 -8.290034532546997070e-02 5.056700669229030609e-03 -3.747027600184082985e-03 1.386194825172424316e-01 8.005437254905700684e-02 0.000000000000000000e+00 0.000000000000000000e+00 0.000000000000000000e+00 0.000000000000000000e+00 -0.000000000000000000e+00 -0.000000000000000000e+00 0.000000000000000000e+00 0.000000000000000000e+00 0.000000000000000000e+00 -0.000000000000000000e+00 -0.000000000000000000e+00 -0.000000000000000000e+00 -0.000000000000000000e+00 -0.000000000000000000e+00 0.000000000000000000e+00 0.000000000000000000e+00 -0.000000000000000000e+00 -0.000000000000000000e+00 -0.000000000000000000e+00 -0.000000000000000000e+00 -0.000000000000000000e+00 0.000000000000000000e+00 0.000000000000000000e+00 -0.000000000000000000e+00 -0.000000000000000000e+00 -0.000000000000000000e+00 0.000000000000000000e+00 0.000000000000000000e+00 -0.000000000000000000e+00 0.000000000000000000e+00 -0.000000000000000000e+00 0.000000000000000000e+00 -0.000000000000000000e+00 0.000000000000000000e+00 -0.000000000000000000e+00 -0.000000000000000000e+00 -0.000000000000000000e+00 -0.000000000000000000e+00 0.000000000000000000e+00 -0.000000000000000000e+00 0.000000000000000000e+00 0.000000000000000000e+00 -0.000000000000000000e+00 -0.000000000000000000e+00 -0.000000000000000000e+00 0.000000000000000000e+00 0.000000000000000000e+00 -0.000000000000000000e+00 -0.000000000000000000e+00 -0.000000000000000000e+00 -0.000000000000000000e+00 0.000000000000000000e+00 -0.000000000000000000e+00 -0.000000000000000000e+00 0.000000000000000000e+00 -0.000000000000000000e+00 -0.000000000000000000e+00 0.000000000000000000e+00 0.000000000000000000e+00 0.000000000000000000e+00 -0.000000000000000000e+00 0.000000000000000000e+00 -0.000000000000000000e+00 -0.000000000000000000e+00
4.100913926959037781e-02 3.124163746833801270e-01 -1.542171388864517212e-01 -1.636506319046020508e-01 9.425980038940906525e-03 -1.052222698926925659e-01 -4.803430754691362381e-03 4.198616370558738708e-02 -8.374364674091339111e-02 2.139311470091342926e-02 -1.719195544719696045e-01 1.023977994918823242e-01 1.529764533042907715e-01 1.493164896965026855e-01 2.418791055679321289e-01 -2.474713027477264404e-01 -2.561662793159484863e-01 -4.316567908972501755e-03 9.217879176139831543e-02 2.091456204652786255e-02 1.206459403038024902e-01 -2.661794051527976990e-02 6.342352926731109619e-02 -9.457463398575782776e-03 3.089545480906963348e-02 -4.544464349746704102e-01 -1.437638103961944580e-01 2.082513570785522461e-01 1.029050722718238831e-01 1.775243282318115234e-01 8.501726388931274414e-02 -8.640691637992858887e-03 -1.458903867751359940e-02 4.790321737527847290e-02 2.818388305604457855e-02 -2.282928824424743652e-01 1.622468605637550354e-02 -8.776769042015075684e-02 1.577076911926269531e-01 -3.702722489833831787e-02 -2.712673842906951904e-01 -4.875968396663665771e-02 -1.467450857162475586e-01 1.529789865016937256e-01 -1.146928817033767700e-01 -1.805961430072784424e-01 6.737412512302398682e-02 -2.889736592769622803e-01 5.803693085908889771e-02 -7.093761861324310303e-02 -1.733415573835372925e-01 8.395973592996597290e-02 1.246862262487411499e-01 -2.076709717512130737e-01 1.352168023586273193e-01 -4.177932441234588623e-02 3.476401567459106445e-01 -9.647122025489807129e-02 -1.557253450155258179e-01 5.672036483883857727e-02 8.125802129507064819e-02 1.410426795482635498e-01 4.366865754127502441e-02 -8.619356900453567505e-02 0.000000000000000000e+00 -0.000000000000000000e+00 0.000000000000000000e+00 -0.000000000000000000e+00 -0.000000000000000000e+00 0.000000000000000000e+00 0.000000000000000000e+00 0.000000000000000000e+00 -0.000000000000000000e+00 0.000000000000000000e+00 0.000000000000000000e+00 -0.000000000000000000e+00 0.000000000000000000e+00 0.000000000000000000e+00 0.000000000000000000e+00 0.000000000000000000e+00 -0.000000000000000000e+00 -0.000000000000000000e+00 -0.000000000000000000e+00 -0.000000000000000000e+00 0.000000000000000000e+00 -0.000000000000000000e+00 0.000000000000000000e+00 -0.000000000000000000e+00 -0.000000000000000000e+00 -0.000000000000000000e+00 -0.000000000000000000e+00 -0.000000000000000000e+00 -0.000000000000000000e+00 0.000000000000000000e+00 -0.000000000000000000e+00 0.000000000000000000e+00 -0.000000000000000000e+00 -0.000000000000000000e+00 -0.000000000000000000e+00 -0.000000000000000000e+00 0.000000000000000000e+00 -0.000000000000000000e+00 -0.000000000000000000e+00 -0.000000000000000000e+00 -0.000000000000000000e+00 0.000000000000000000e+00 0.000000000000000000e+00 0.000000000000000000e+00 -0.000000000000000000e+00 -0.000000000000000000e+00 -0.000000000000000000e+00 0.000000000000000000e+00 0.000000000000000000e+00 0.000000000000000000e+00 -0.000000000000000000e+00 0.000000000000000000e+00 0.000000000000000000e+00 0.000000000000000000e+00 0.000000000000000000e+00 0.000000000000000000e+00 -0.000000000000000000e+00 -0.000000000000000000e+00 0.000000000000000000e+00 0.000000000000000000e+00 0.000000000000000000e+00 0.000000000000000000e+00 0.000000000000000000e+00 -0.000000000000000000e+00
-6.753234565258026123e-02 1.035828143358230591e-02 1.176885589957237244e-01 2.082726806402206421e-01 1.195053830742835999e-01 2.120121270418167114e-01 1.251348853111267090e-01 4.820615053176879883e-02 -2.106024324893951416e-01 -7.845211774110794067e-02 -1.699041426181793213e-01 1.668369024991989136e-01 -2.056761384010314941e-01 1.258091777563095093e-01 -7.376667112112045288e-02 7.878193259239196777e-02 1.157655864953994751e-01 -3.774889558553695679e-02 -7.299024611711502075e-02 1.293383538722991943e-01 6.941138207912445068e-02 -1.154790818691253662e-02 -6.636180728673934937e-02 -7.391279935836791992e-02 4.465877264738082886e-02 -1.921454221010208130e-01 2.775248326361179352e-02 -2.560927271842956543e-01 -1.101777851581573486e-01 -1.320875436067581177e-01 -5.219355225563049316e-02 2.060966379940509796e-02 1.453065127134323120e-01 -1.423379629850387573e-01 -3.378665819764137268e-02 8.638225495815277100e-02 -4.133196920156478882e-02 -6.557897478342056274e-02 -2.844494581222534180e-01 -6.919501721858978271e-02 -6.707936525344848633e-02 2.112801820039749146e-01 -2.043761014938354492e-01 -3.417246416211128235e-02 1.555902510881423950e-01 1.381507962942123413e-01 -5.149365961551666260e-02 -3.826386928558349609e-01 -8.858668804168701172e-02 -4.953020252287387848e-03 1.147729903459548950e-01 -1.442036628723144531e-01 2.925966866314411163e-02 1.880321949720382690e-01 1.976416856050491333e-01 1.117844581604003906e-01 -1.150631830096244812e-01 1.723510175943374634e-01 -4.918148368597030640e-02 1.272669434547424316e-01 6.770601496100425720e-03 -1.950150132179260254e-01 1.061769500374794006e-01 2.860594093799591064e-01 0.000000000000000000e+00 -0.000000000000000000e+00 -0.000000000000000000e+00 -0.000000000000000000e+00 -0.000000000000000000e+00 0.000000000000000000e+00 -0.000000000000000000e+00 -0.000000000000000000e+00 -0.000000000000000000e+00 0.000000000000000000e+00 -0.000000000000000000e+00 -0.000000000000000000e+00 0.000000000000000000e+00 0.000000000000000000e+00 0.000000000000000000e+00 -0.000000000000000000e+00 -0.000000000000000000e+00 -0.000000000000000000e+00 -0.000000000000000000e+00 -0.000000000000000000e+00 0.000000000000000000e+00 -0.000000000000000000e+00 -0.000000000000000000e+00 0.000000000000000000e+00 -0.000000000000000000e+00 -0.000000000000000000e+00 0.000000000000000000e+00 0.000000000000000000e+00 0.000000000000000000e+00 -0.000000000000000000e+00 -0.000000000000000000e+00 0.000000000000000000e+00 0.000000000000000000e+00 -0.000000000000000000e+00 -0.000000000000000000e+00 -0.000000000000000000e+00 0.000000000000000000e+00 0.000000000000000000e+00 -0.000000000000000000e+00 0.000000000000000000e+00 0.000000000000000000e+00 0.000000000000000000e+00 -0.000000000000000000e+00 -0.000000000000000000e+00 -0.000000000000000000e+00 0.000000000000000000e+00 -0.000000000000000000e+00 -0.000000000000000000e+00 -0.000000000000000000e+00 0.000000000000000000e+00 -0.000000000000000000e+00 0.000000000000000000e+00 0.000000000000000000e+00 -0.000000000000000000e+00 0.000000000000000000e+00 0.000000000000000000e+00 -0.000000000000000000e+00 -0.000000000000000000e+00 -0.000000000000000000e+00 -0.000000000000000000e+00 0.000000000000000000e+00 0.000000000000000000e+00 -0.000000000000000000e+00 0.000000000000000000e+00
-1.253416854888200760e-02 1.014150977134704590e-01 9.583286195993423462e-02 -1.056497078388929367e-02 6.098008900880813599e-02 -5.491175130009651184e-02 5.852224677801132202e-02 2.019064873456954956e-01 -2.879314497113227844e-02 -2.291216701269149780e-02 1.694848686456680298e-01 -4.633970675058662891e-04 -4.815429449081420898e-03 2.691979408264160156e-01 6.825807690620422363e-02 1.427559927105903625e-02 1.230143606662750244e-01 1.461041420698165894e-01 -1.739423424005508423e-01 -2.661438584327697754e-01 -1.406953185796737671e-01 1.477493345737457275e-01 -1.617323160171508789e-01 -4.911544546484947205e-02 -1.361746042966842651e-01 2.276988476514816284e-01 1.609432846307754517e-01 -1.443667896091938019e-02 1.348900645971298218e-01 2.829424664378166199e-02 1.916380673646926880e-01 -1.886938065290451050e-01 -2.009115815162658691e-01 -2.779841423034667969e-02 1.928032785654067993e-01 1.822823733091354370e-01 1.078274473547935486e-01 3.836300596594810486e-02 3.435492515563964844e-02 -1.372481286525726318e-01 1.229817420244216919e-01 2.276325225830078125e-02 -6.260098516941070557e-02 -2.700351178646087646e-01 -2.914946079254150391e-01 6.138618662953376770e-02 1.278738584369421005e-02 -1.199795007705688477e-01 -1.199690774083137512e-01 -1.907733976840972900e-01 7.084439694881439209e-02 1.735005825757980347e-01 9.286519885063171387e-02 -1.941546215675771236e-03 5.213681980967521667e-02 -1.576803624629974365e-01 -8.914782106876373291e-02 5.553184449672698975e-02 -3.172679245471954346e-02 1.808088272809982300e-01 6.982266902923583984e-02 -5.002410709857940674e-02 -8.880896866321563721e-02 1.463682055473327637e-01 0.000000000000000000e+00 -0.000000000000000000e+00 0.000000000000000000e+00 0.000000000000000000e+00 -0.000000000000000000e+00 0.000000000000000000e+00 0.000000000000000000e+00 0.000000000000000000e+00 0.000000000000000000e+00 -0.000000000000000000e+00 0.000000000000000000e+00 -0.000000000000000000e+00 0.000000000000000000e+00 0.000000000000000000e+00 -0.000000000000000000e+00 0.000000000000000000e+00 0.000000000000000000e+00 -0.000000000000000000e+00 0.000000000000000000e+00 0.000000000000000000e+00 0.000000000000000000e+00 -0.000000000000000000e+00 -0.000000000000000000e+00 -0.000000000000000000e+00 0.000000000000000000e+00 -0.000000000000000000e+00 -0.000000000000000000e+00 0.000000000000000000e+00 0.000000000000000000e+00 0.000000000000000000e+00 -0.000000000000000000e+00 -0.000000000000000000e+00 -0.000000000000000000e+00 -0.000000000000000000e+00 0.000000000000000000e+00 -0.000000000000000000e+00 -0.000000000000000000e+00 0.000000000000000000e+00 -0.000000000000000000e+00 0.000000000000000000e+00 -0.000000000000000000e+00 0.000000000000000000e+00 -0.000000000000000000e+00 0.000000000000000000e+00 -0.000000000000000000e+00 0.000000000000000000e+00 -0.000000000000000000e+00 -0.000000000000000000e+00 0.000000000000000000e+00 0.000000000000000000e+00 -0.000000000000000000e+00 0.000000000000000000e+00 -0.000000000000000000e+00 -0.000000000000000000e+00 -0.000000000000000000e+00 -0.000000000000000000e+00 -0.000000000000000000e+00 0.000000000000000000e+00 -0.000000000000000000e+00 -0.000000000000000000e+00 0.000000000000000000e+00 0.000000000000000000e+00 -0.000000000000000000e+00 -0.000000000000000000e+00
1.754298359155654907e-01 9.128185361623764038e-02 -2.457884885370731354e-02 -8.802805095911026001e-02 1.251442581415176392e-01 -1.582232713699340820e-01 -2.124083340167999268e-01 2.156797647476196289e-01 1.401283890008926392e-01 8.861817419528961182e-03 -7.659514434635639191e-03 -1.517369747161865234e-01 1.859233379364013672e-01 -1.951702684164047241e-01 5.024938285350799561e-02 2.069002538919448853e-01 -2.609374187886714935e-02 -2.479897886514663696e-01 4.957816004753112793e-02 -1.746949851512908936e-01 -1.751499064266681671e-02 -1.964531242847442627e-01 8.229450136423110962e-02 -2.843307889997959137e-02 1.299202740192413330e-01 1.748413145542144775e-01 -7.266988605260848999e-02 -3.601278876885771751e-04 1.289643049240112305e-01 -2.188134193420410156e-01 8.807747066020965576e-02 -1.314725577831268311e-01 5.469906609505414963e-03 7.572320848703384399e-02 -1.462213695049285889e-01 9.658192843198776245e-02 -1.670509129762649536e-01 2.168672680854797363e-01 1.265699714422225952e-01 4.243839904665946960e-02 -1.617282181978225708e-01 -1.028006449341773987e-01 4.529177397489547729e-02 -3.203206462785601616e-03 1.010629907250404358e-01 1.928198486566543579e-01 -1.492461562156677246e-02 -3.450220823287963867e-02 -7.731719315052032471e-02 2.634364962577819824e-01 1.242374554276466370e-01 3.130506277084350586e-01 -5.422262102365493774e-02 -7.652130722999572754e-02 2.071410417556762695e-01 7.274007052183151245e-02 -1.514920741319656372e-01 -1.038966234773397446e-02 -5.075056478381156921e-02 -2.349327802658081055e-01 -4.425405710935592651e-02 -3.841711208224296570e-02 -2.600771375000476837e-02 3.797775879502296448e-02 0.000000000000000000e+00 0.000000000000000000e+00 0.000000000000000000e+00 -0.000000000000000000e+00 0.000000000000000000e+00 -0.000000000000000000e+00 -0.000000000000000000e+00 -0.000000000000000000e+00 -0.000000000000000000e+00 0.000000000000000000e+00 -0.000000000000000000e+00 -0.000000000000000000e+00 -0.000000000000000000e+00 -0.000000000000000000e+00 -0.000000000000000000e+00 0.000000000000000000e+00 0.000000000000000000e+00 -0.000000000000000000e+00 0.000000000000000000e+00 0.000000000000000000e+00 -0.000000000000000000e+00 -0.000000000000000000e+00 0.000000000000000000e+00 0.000000000000000000e+00 -0.000000000000000000e+00 0.000000000000000000e+00 0.000000000000000000e+00 0.000000000000000000e+00 -0.000000000000000000e+00 0.000000000000000000e+00 0.000000000000000000e+00 -0.000000000000000000e+00 -0.000000000000000000e+00 -0.000000000000000000e+00 -0.000000000000000000e+00 0.000000000000000000e+00 -0.000000000000000000e+00 0.000000000000000000e+00 -0.000000000000000000e+00 -0.000000000000000000e+00 -0.000000000000000000e+00 0.000000000000000000e+00 -0.000000000000000000e+00 -0.000000000000000000e+00 0.000000000000000000e+00 0.000000000000000000e+00 -0.000000000000000000e+00 -0.000000000000000000e+00 0.000000000000000000e+00 -0.000000000000000000e+00 -0.000000000000000000e+00 -0.000000000000000000e+00 -0.000000000000000000e+00 0.000000000000000000e+00 -0.000000000000000000e+00 -0.000000000000000000e+00 0.000000000000000000e+00 -0.000000000000000000e+00 0.000000000000000000e+00 0.000000000000000000e+00 -0.000000000000000000e+00 0.000000000000000000e+00 0.000000000000000000e+00 0.000000000000000000e+00
1.066791191697120667e-01 -1.878032274544239044e-02 3.386016488075256348e-01 -3.400883078575134277e-02 1.949494779109954834e-01 -2.373462766408920288e-01 -1.394818574190139771e-01 -3.639453276991844177e-02 -1.470605581998825073e-01 1.623804420232772827e-01 4.156235232949256897e-02 7.865656167268753052e-02 -1.388795226812362671e-01 1.815665960311889648e-01 -1.132461279630661011e-01 -1.735431402921676636e-01 1.467691361904144287e-02 1.822668761014938354e-01 -9.943661093711853027e-02 1.055978462100028992e-01 -1.030947491526603699e-01 3.535419330000877380e-02 6.898713856935501099e-02 2.919691205024719238e-01 4.953967407345771790e-02 -1.303041875362396240e-01 1.268009990453720093e-01 -3.079271689057350159e-02 -9.793912060558795929e-03 -6.229945272207260132e-02 1.681111752986907959e-01 -4.284225776791572571e-02 -1.311963796615600586e-01 9.398931264877319336e-02 1.457049995660781860e-01 -7.042688131332397461e-02 5.633440241217613220e-02 1.326192468404769897e-01 4.138218984007835388e-02 -1.369424760341644287e-01 6.723271682858467102e-03 2.549608983099460602e-02 -4.107581451535224915e-02 -1.350516974925994873e-01 1.009275838732719421e-01 9.982160478830337524e-02 1.054453197866678238e-03 2.191572450101375580e-02 -2.090513259172439575e-01 2.249154895544052124e-01 -8.427800238132476807e-02 1.461776643991470337e-01 -2.253322862088680267e-02 4.827772453427314758e-02 2.771193906664848328e-02 -1.162806749343872070e-01 -4.688340052962303162e-02 -2.423801571130752563e-01 -1.911375857889652252e-02 5.144138261675834656e-02 -7.883385568857192993e-02 3.124130368232727051e-01 -1.075426191091537476e-01 2.269557714462280273e-01 -0.000000000000000000e+00 -0.000000000000000000e+00 -0.000000000000000000e+00 -0.000000000000000000e+00 -0.000000000000000000e+00 0.000000000000000000e+00 0.000000000000000000e+00 -0.000000000000000000e+00 0.000000000000000000e+00 0.000000000000000000e+00 0.000000000000000000e+00 0.000000000000000000e+00 -0.000000000000000000e+00 0.000000000000000000e+00 0.000000000000000000e+00 0.000000000000000000e+00 0.000000000000000000e+00 -0.000000000000000000e+00 0.000000000000000000e+00 -0.000000000000000000e+00 -0.000000000000000000e+00 0.000000000000000000e+00 0.000000000000000000e+00 -0.000000000000000000e+00 -0.000000000000000000e+00 0.000000000000000000e+00 -0.000000000000000000e+00 0.000000000000000000e+00 0.000000000000000000e+00 -0.000000000000000000e+00 -0.000000000000000000e+00 0.000000000000000000e+00 -0.000000000000000000e+00 0.000000000000000000e+00 -0.000000000000000000e+00 -0.000000000000000000e+00 0.000000000000000000e+00 0.000000000000000000e+00 -0.000000000000000000e+00 0.000000000000000000e+00 -0.000000000000000000e+00 0.000000000000000000e+00 -0.000000000000000000e+00 0.000000000000000000e+00 0.000000000000000000e+00 -0.000000000000000000e+00 0.000000000000000000e+00 0.000000000000000000e+00 0.000000000000000000e+00 0.000000000000000000e+00 -0.000000000000000000e+00 -0.000000000000000000e+00 0.000000000000000000e+00 -0.000000000000000000e+00 0.000000000000000000e+00 -0.000000000000000000e+00 0.000000000000000000e+00 -0.000000000000000000e+00 0.000000000000000000e+00 -0.000000000000000000e+00 0.000000000000000000e+00 0.000000000000000000e+00 -0.000000000000000000e+00 -0.000000000000000000e+00
1.128895729780197144e-01 1.652398407459259033e-01 5.311105772852897644e-02 5.376914516091346741e-03 1.118707880377769470e-01 -5.787327885627746582e-02 -3.208560869097709656e-02 -1.822417378425598145e-01 -1.592630296945571899e-01 1.567682027816772461e-01 1.810396313667297363e-01 -4.657801985740661621e-02 -5.205608904361724854e-02 2.023535370826721191e-01 1.233977153897285461e-01 -8.195732533931732178e-02 1.748029738664627075e-01 1.964576542377471924e-01 -2.150472402572631836e-01 1.993295401334762573e-01 1.145626753568649292e-01 -8.951550722122192383e-02 -2.226750701665878296e-01 -1.364025920629501343e-01 -1.595573034137487411e-03 3.241559490561485291e-02 9.521715342998504639e-02 2.184521555900573730e-01 2.476577609777450562e-01 8.309566974639892578e-02 1.982016675174236298e-02 -2.196368016302585602e-02 -3.156485557556152344e-01 -2.105541676282882690e-01 -7.046791166067123413e-02 2.115784883499145508e-01 4.609249904751777649e-02 4.668283835053443909e-02 9.459325671195983887e-02 5.332965031266212463e-02 1.526366770267486572e-01 -1.197476089000701904e-01 -2.183437533676624298e-02 2.585190534591674805e-01 1.247485876083374023e-01 1.955908834934234619e-01 6.308504939079284668e-02 1.144481152296066284e-01 -1.219147965312004089e-01 1.225197911262512207e-01 -9.590018540620803833e-03 -8.376410230994224548e-03 -6.102236360311508179e-02 2.737198173999786377e-01 2.086144834756851196e-01 7.918211817741394043e-02 1.402605473995208740e-01 -2.112026810646057129e-01 -4.625536501407623291e-02 7.412055041640996933e-03 2.058646678924560547e-01 4.415558278560638428e-02 8.707032352685928345e-02 -1.026800274848937988e-01 -0.000000000000000000e+00 -0.000000000000000000e+00 -0.000000000000000000e+00 -0.000000000000000000e+00 0.000000000000000000e+00 0.000000000000000000e+00 0.000000000000000000e+00 -0.000000000000000000e+00 -0.000000000000000000e+00 -0.000000000000000000e+00 0.000000000000000000e+00 -0.000000000000000000e+00 -0.000000000000000000e+00 -0.000000000000000000e+00 -0.000000000000000000e+00 0.000000000000000000e+00 -0.000000000000000000e+00 -0.000000000000000000e+00 0.000000000000000000e+00 0.000000000000000000e+00 -0.000000000000000000e+00 -0.000000000000000000e+00 -0.000000000000000000e+00 0.000000000000000000e+00 0.000000000000000000e+00 0.000000000000000000e+00 0.000000000000000000e+00 0.000000000000000000e+00 -0.000000000000000000e+00 0.000000000000000000e+00 0.000000000000000000e+00 -0.000000000000000000e+00 0.000000000000000000e+00 -0.000000000000000000e+00 0.000000000000000000e+00 -0.000000000000000000e+00 0.000000000000000000e+00 0.000000000000000000e+00 0.000000000000000000e+00 -0.000000000000000000e+00 -0.000000000000000000e+00 -0.000000000000000000e+00 0.000000000000000000e+00 0.000000000000000000e+00 -0.000000000000000000e+00 0.000000000000000000e+00 0.000000000000000000e+00 -0.000000000000000000e+00 0.000000000000000000e+00 -0.000000000000000000e+00 0.000000000000000000e+00 0.000000000000000000e+00 -0.000000000000000000e+00 0.000000000000000000e+00 -0.000000000000000000e+00 -0.000000000000000000e+00 0.000000000000000000e+00 0.000000000000000000e+00 0.000000000000000000e+00 -0.000000000000000000e+00 0.000000000000000000e+00 -0.000000000000000000e+00 0.000000000000000000e+00 -0.000000000000000000e+00
1.027512475848197937e-01 6.362688262015581131e-03 -5.835001170635223389e-02 -6.118890270590782166e-02 1.113904267549514771e-01 7.627129554748535156e-02 -1.985809653997421265e-01 9.110698010772466660e-04 -6.238271947950124741e-03 4.062417522072792053e-02 7.662221789360046387e-02 1.704892516136169434e-02 -1.007945016026496887e-01 -5.864467937499284744e-03 -1.260404884815216064e-01 -1.024108454585075378e-01 4.374833703041076660e-01 4.005737230181694031e-02 -1.045456975698471069e-01 -1.091301217675209045e-01 8.247379213571548462e-02 -2.192603982985019684e-02 8.352345973253250122e-02 -1.010575070977210999e-01 1.586714684963226318e-01 1.310744136571884155e-01 4.918548092246055603e-02 6.873999536037445068e-02 1.584693938493728638e-01 4.107021167874336243e-02 -7.177453488111495972e-02 1.271391473710536957e-02 3.214259743690490723e-01 9.182840585708618164e-02 3.061697483062744141e-01 9.283221326768398285e-03 7.141079008579254150e-02 8.674532175064086914e-02 -2.962121367454528809e-02 4.195514693856239319e-02 7.567735016345977783e-02 1.592903584241867065e-01 6.430108845233917236e-02 7.976427674293518066e-02 -1.161895990371704102e-01 1.362616568803787231e-01 -2.404871024191379547e-02 6.444313377141952515e-02 1.023759469389915466e-01 1.455321460962295532e-01 5.288786813616752625e-02 1.451687365770339966e-01 9.167093783617019653e-02 2.517250739037990570e-02 2.206349372863769531e-01 -2.301851511001586914e-01 -2.469740062952041626e-01 -1.840514689683914185e-01 -3.581082820892333984e-01 -1.057446151971817017e-01 -2.005298733711242676e-01 4.385643824934959412e-02 -2.678782939910888672e-01 8.821710944175720215e-02 -0.000000000000000000e+00 -0.000000000000000000e+00 0.000000000000000000e+00 -0.000000000000000000e+00 -0.000000000000000000e+00 0.000000000000000000e+00 0.000000000000000000e+00 -0.000000000000000000e+00 0.000000000000000000e+00 0.000000000000000000e+00 -0.000000000000000000e+00 0.000000000000000000e+00 -0.000000000000000000e+00 0.000000000000000000e+00 -0.000000000000000000e+00 0.000000000000000000e+00 0.000000000000000000e+00 0.000000000000000000e+00 0.000000000000000000e+00 0.000000000000000000e+00 0.000000000000000000e+00 0.000000000000000000e+00 0.000000000000000000e+00 -0.000000000000000000e+00 0.000000000000000000e+00 -0.000000000000000000e+00 -0.000000000000000000e+00 0.000000000000000000e+00 -0.000000000000000000e+00 -0.000000000000000000e+00 -0.000000000000000000e+00 0.000000000000000000e+00 0.000000000000000000e+00 0.000000000000000000e+00 -0.000000000000000000e+00 -0.000000000000000000e+00 0.000000000000000000e+00 0.000000000000000000e+00 0.000000000000000000e+00 -0.000000000000000000e+00 -0.000000000000000000e+00 0.000000000000000000e+00 -0.000000000000000000e+00 0.000000000000000000e+00 0.000000000000000000e+00 0.000000000000000000e+00 -0.000000000000000000e+00 0.000000000000000000e+00 0.000000000000000000e+00 0.000000000000000000e+00 0.000000000000000000e+00 -0.000000000000000000e+00 0.000000000000000000e+00 0.000000000000000000e+00 -0.000000000000000000e+00 0.000000000000000000e+00 -0.000000000000000000e+00 0.000000000000000000e+00 -0.000000000000000000e+00 -0.000000000000000000e+00 0.000000000000000000e+00 0.000000000000000000e+00 -0.000000000000000000e+00 -0.000000000000000000e+00
1.877308189868927002e-01 5.095354840159416199e-02 -1.735761165618896484e-01 1.831008791923522949e-01 8.135627210140228271e-02 9.932566434144973755e-03 2.478550076484680176e-01 -1.408116817474365234e-01 -6.800008937716484070e-03 -1.763540208339691162e-01 -6.840768456459045410e-02 9.943617135286331177e-02 -1.533675752580165863e-02 1.594090647995471954e-02 2.086101174354553223e-01 7.896717637777328491e-02 -1.592079102993011475e-01 3.984211385250091553e-01 1.282308697700500488e-01 -7.014006841927766800e-03 -2.492965757846832275e-01 2.467817068099975586e-01 -2.953990399837493896e-01 -1.784141547977924347e-02 1.520037055015563965e-01 3.176003396511077881e-01 -2.864382602274417877e-02 3.627732396125793457e-02 2.191966772079467773e-01 1.934537105262279510e-02 -8.682788163423538208e-02 -1.718657314777374268e-01 9.077418595552444458e-02 -1.552925705909729004e-01 9.734085947275161743e-02 3.474376499652862549e-01 -6.756623089313507080e-02 1.542447805404663086e-01 2.667634375393390656e-02 2.804614901542663574e-01 8.083815127611160278e-02 8.965291827917098999e-02 9.509513527154922485e-02 9.914297610521316528e-02 7.989589939825236797e-04 -9.054835885763168335e-02 1.348236054182052612e-01 1.294518709182739258e-01 9.548293054103851318e-02 -9.738384932279586792e-02 -2.791100926697254181e-02 -2.189283370971679688e-01 2.387076057493686676e-02 -1.380313783884048462e-01 -1.174599453806877136e-01 2.061501592397689819e-01 -2.267238497734069824e-01 -4.845681414008140564e-02 -1.211506053805351257e-01 -4.428739100694656372e-02 1.203790865838527679e-02 1.611925661563873291e-01 3.016336821019649506e-02 1.026706546545028687e-01 -0.000000000000000000e+00 0.000000000000000000e+00 -0.000000000000000000e+00 0.000000000000000000e+00 -0.000000000000000000e+00 0.000000000000000000e+00 0.000000000000000000e+00 -0.000000000000000000e+00 0.000000000000000000e+00 0.000000000000000000e+00 -0.000000000000000000e+00 -0.000000000000000000e+00 -0.000000000000000000e+00 0.000000000000000000e+00 -0.000000000000000000e+00 0.000000000000000000e+00 0.000000000000000000e+00 0.000000000000000000e+00 0.000000000000000000e+00 -0.000000000000000000e+00 0.000000000000000000e+00 0.000000000000000000e+00 0.000000000000000000e+00 -0.000000000000000000e+00 -0.000000000000000000e+00 -0.000000000000000000e+00 0.000000000000000000e+00 0.000000000000000000e+00 0.000000000000000000e+00 0.000000000000000000e+00 -0.000000000000000000e+00 0.000000000000000000e+00 -0.000000000000000000e+00 -0.000000000000000000e+00 -0.000000000000000000e+00 -0.000000000000000000e+00 0.000000000000000000e+00 -0.000000000000000000e+00 0.000000000000000000e+00 0.000000000000000000e+00 -0.000000000000000000e+00 0.000000000000000000e+00 -0.000000000000000000e+00 0.000000000000000000e+00 -0.000000000000000000e+00 -0.000000000000000000e+00 0.000000000000000000e+00 0.000000000000000000e+00 0.000000000000000000e+00 -0.000000000000000000e+00 0.000000000000000000e+00 0.000000000000000000e+00 0.000000000000000000e+00 -0.000000000000000000e+00 0.000000000000000000e+00 0.000000000000000000e+00 -0.000000000000000000e+00 0.000000000000000000e+00 0.000000000000000000e+00 -0.000000000000000000e+00 0.000000000000000000e+00 0.000000000000000000e+00 0.000000000000000000e+00 0.000000000000000000e+00
-2.866557836532592773e-01 -8.313502371311187744e-02 -7.605189830064773560e-02 -2.642437219619750977e-01 -1.162689849734306335e-01 2.036451697349548340e-01 -1.401500962674617767e-02 1.675598919391632080e-01 1.943711936473846436e-01 6.700077652931213379e-02 3.109815120697021484e-01 -3.474472090601921082e-02 3.900776058435440063e-02 2.660845406353473663e-02 -1.851360779255628586e-03 -1.239296793937683105e-01 5.219021067023277283e-02 -2.406007796525955200e-01 3.299955651164054871e-02 -1.628289930522441864e-02 1.094405949115753174e-01 3.576683402061462402e-01 7.361651957035064697e-02 1.411114037036895752e-01 9.283200651407241821e-02 -4.898603074252605438e-03 7.298959791660308838e-02 5.406519770622253418e-02 5.422106385231018066e-02 1.246266812086105347e-01 1.831826567649841309e-01 5.516784638166427612e-02 1.190760135650634766e-01 1.198090463876724243e-01 -6.579078733921051025e-02 5.450275726616382599e-03 -2.381899766623973846e-02 -1.152494847774505615e-01 2.838463187217712402e-01 1.809813082218170166e-01 1.100757271051406860e-01 1.271227449178695679e-01 6.168216466903686523e-02 8.087469637393951416e-02 2.775863409042358398e-01 1.284484565258026123e-01 -6.875105202198028564e-02 -2.461689710617065430e-01 1.249530017375946045e-01 2.049648463726043701e-01 5.309150554239749908e-03 -1.780751044861972332e-03 -1.551597118377685547e-01 4.841130226850509644e-02 -7.158031687140464783e-03 1.733624935150146484e-01 -5.068466067314147949e-03 -5.753068998456001282e-02 -9.441663324832916260e-02 -2.190342992544174194e-01 -1.341428607702255249e-01 7.747817318886518478e-03 2.729337513446807861e-01 -8.302187174558639526e-02 -0.000000000000000000e+00 0.000000000000000000e+00 -0.000000000000000000e+00 0.000000000000000000e+00 -0.000000000000000000e+00 -0.000000000000000000e+00 -0.000000000000000000e+00 0.000000000000000000e+00 0.000000000000000000e+00 -0.000000000000000000e+00 0.000000000000000000e+00 -0.000000000000000000e+00 0.000000000000000000e+00 0.000000000000000000e+00 0.000000000000000000e+00 0.000000000000000000e+00 0.000000000000000000e+00 0.000000000000000000e+00 -0.000000000000000000e+00 0.000000000000000000e+00 0.000000000000000000e+00 -0.000000000000000000e+00 -0.000000000000000000e+00 -0.000000000000000000e+00 -0.000000000000000000e+00 -0.000000000000000000e+00 0.000000000000000000e+00 -0.000000000000000000e+00 -0.000000000000000000e+00 0.000000000000000000e+00 -0.000000000000000000e+00 -0.000000000000000000e+00 0.000000000000000000e+00 0.000000000000000000e+00 0.000000000000000000e+00 -0.000000000000000000e+00 -0.000000000000000000e+00 -0.000000000000000000e+00 -0.000000000000000000e+00 0.000000000000000000e+00 0.000000000000000000e+00 -0.000000000000000000e+00 -0.000000000000000000e+00 0.000000000000000000e+00 0.000000000000000000e+00 0.000000000000000000e+00 0.000000000000000000e+00 0.000000000000000000e+00 -0.000000000000000000e+00 -0.000000000000000000e+00 0.000000000000000000e+00 -0.000000000000000000e+00 0.000000000000000000e+00 0.000000000000000000e+00 -0.000000000000000000e+00 0.000000000000000000e+00 -0.000000000000000000e+00 -0.000000000000000000e+00 -0.000000000000000000e+00 -0.000000000000000000e+00 -0.000000000000000000e+00 -0.000000000000000000e+00 -0.000000000000000000e+00 -0.000000000000000000e+00
-1.341635882854461670e-01 -5.730292201042175293e-02 -1.757198274135589600e-01 -3.630856052041053772e-02 1.465659439563751221e-01 -7.470145076513290405e-02 1.337876915931701660e-01 -6.802757829427719116e-02 -5.340401083230972290e-02 1.823429577052593231e-02 1.765121221542358398e-01 2.337004691362380981e-01 6.152106449007987976e-02 -2.535704672336578369e-01 1.503028869628906250e-01 1.321306824684143066e-01 -9.974939376115798950e-02 1.518737375736236572e-01 1.054162904620170593e-01 -3.022363409399986267e-02 2.539380826056003571e-02 2.581405043601989746e-01 1.842100918292999268e-01 2.032872736454010010e-01 1.266462057828903198e-01 -2.604425512254238129e-02 1.511647701263427734e-01 -1.432905048131942749e-01 5.749351531267166138e-02 1.850099265575408936e-01 -6.657864898443222046e-02 3.072438947856426239e-02 2.630816400051116943e-01 4.112676531076431274e-02 2.791607938706874847e-02 1.195409297943115234e-01 -6.755395233631134033e-02 6.223119050264358521e-02 2.580090761184692383e-01 -8.970706164836883545e-02 -6.554657220840454102e-02 -1.634707152843475342e-01 -2.101917751133441925e-02 -9.260316193103790283e-02 -2.243153750896453857e-01 3.729937225580215454e-02 9.793762117624282837e-02 6.430573761463165283e-02 2.820743620395660400e-01 -2.274126410484313965e-01 4.314349219202995300e-02 3.333424776792526245e-02 8.464716374874114990e-02 -2.874612994492053986e-02 1.885608136653900146e-01 4.487737268209457397e-02 4.832496494054794312e-02 2.368326298892498016e-02 -1.287835687398910522e-01 1.623990237712860107e-01 -1.274183392524719238e-02 -5.047352984547615051e-02 -5.397677421569824219e-02 -5.222248658537864685e-02 -0.000000000000000000e+00 0.000000000000000000e+00 -0.000000000000000000e+00 0.000000000000000000e+00 -0.000000000000000000e+00 0.000000000000000000e+00 0.000000000000000000e+00 -0.000000000000000000e+00 -0.000000000000000000e+00 -0.000000000000000000e+00 0.000000000000000000e+00 0.000000000000000000e+00 -0.000000000000000000e+00 -0.000000000000000000e+00 -0.000000000000000000e+00 -0.000000000000000000e+00 -0.000000000000000000e+00 -0.000000000000000000e+00 -0.000000000000000000e+00 -0.000000000000000000e+00 0.000000000000000000e+00 -0.000000000000000000e+00 0.000000000000000000e+00 0.000000000000000000e+00 0.000000000000000000e+00 0.000000000000000000e+00 -0.000000000000000000e+00 -0.000000000000000000e+00 -0.000000000000000000e+00 -0.000000000000000000e+00 0.000000000000000000e+00 0.000000000000000000e+00 -0.000000000000000000e+00 0.000000000000000000e+00 -0.000000000000000000e+00 -0.000000000000000000e+00 0.000000000000000000e+00 -0.000000000000000000e+00 0.000000000000000000e+00 -0.000000000000000000e+00 -0.000000000000000000e+00 0.000000000000000000e+00 -0.000000000000000000e+00 -0.000000000000000000e+00 0.000000000000000000e+00 0.000000000000000000e+00 0.000000000000000000e+00 -0.000000000000000000e+00 0.000000000000000000e+00 0.000000000000000000e+00 0.000000000000000000e+00 -0.000000000000000000e+00 0.000000000000000000e+00 0.000000000000000000e+00 -0.000000000000000000e+00 0.000000000000000000e+00 -0.000000000000000000e+00 -0.000000000000000000e+00 0.000000000000000000e+00 -0.000000000000000000e+00 -0.000000000000000000e+00 -0.000000000000000000e+00 -0.000000000000000000e+00 0.000000000000000000e+00
-9.218344837427139282e-02 6.468435376882553101e-02 2.312169671058654785e-01 1.277093142271041870e-01 2.342334091663360596e-01 -2.986154984682798386e-03 1.677605211734771729e-01 -5.538353230804204941e-03 -1.152217015624046326e-02 2.141087800264358521e-01 2.673482596874237061e-01 -1.088602319359779358e-01 2.333688735961914062e-02 8.811549097299575806e-02 8.514096587896347046e-02 1.110114976763725281e-01 -3.052993677556514740e-03 9.418875724077224731e-02 -8.404291421175003052e-02 8.997407555580139160e-02 -1.187720969319343567e-01 2.095545828342437744e-01 3.584396541118621826e-01 -4.997252952307462692e-03 -1.771561205387115479e-01 -3.512250781059265137e-01 -1.515772342681884766e-01 9.829735383391380310e-03 -7.064481824636459351e-02 -1.347827613353729248e-01 -6.178443878889083862e-02 4.541491717100143433e-02 1.433755159378051758e-01 -2.123854588717222214e-03 3.217735141515731812e-02 -1.246912851929664612e-01 -1.007909104228019714e-01 9.133467823266983032e-02 1.495109498500823975e-01 8.105684071779251099e-02 1.084981188178062439e-01 1.425831913948059082e-01 2.075828313827514648e-01 1.212763041257858276e-01 -1.617005169391632080e-01 -5.342084914445877075e-02 -1.156418845057487488e-01 6.808226928114891052e-03 3.080013692378997803e-01 -6.334254983812570572e-03 -7.817587256431579590e-02 -3.713351115584373474e-02 -1.732548773288726807e-01 -8.510790765285491943e-03 -2.413465268909931183e-02 1.066957861185073853e-01 -3.697646781802177429e-02 -1.088019236922264099e-01 9.206114336848258972e-03 -5.819833278656005859e-02 -1.747316718101501465e-01 1.621355712413787842e-01 6.554453074932098389e-02 1.113326102495193481e-02 0.000000000000000000e+00 -0.000000000000000000e+00 0.000000000000000000e+00 -0.000000000000000000e+00 -0.000000000000000000e+00 -0.000000000000000000e+00 -0.000000000000000000e+00 0.000000000000000000e+00 -0.000000000000000000e+00 -0.000000000000000000e+00 0.000000000000000000e+00 -0.000000000000000000e+00 0.000000000000000000e+00 -0.000000000000000000e+00 0.000000000000000000e+00 -0.000000000000000000e+00 0.000000000000000000e+00 -0.000000000000000000e+00 0.000000000000000000e+00 0.000000000000000000e+00 -0.000000000000000000e+00 -0.000000000000000000e+00 0.000000000000000000e+00 0.000000000000000000e+00 -0.000000000000000000e+00 0.000000000000000000e+00 0.000000000000000000e+00 -0.000000000000000000e+00 -0.000000000000000000e+00 -0.000000000000000000e+00 -0.000000000000000000e+00 0.000000000000000000e+00 -0.000000000000000000e+00 -0.000000000000000000e+00 -0.000000000000000000e+00 0.000000000000000000e+00 0.000000000000000000e+00 -0.000000000000000000e+00 -0.000000000000000000e+00 0.000000000000000000e+00 -0.000000000000000000e+00 -0.000000000000000000e+00 0.000000000000000000e+00 -0.000000000000000000e+00 0.000000000000000000e+00 0.000000000000000000e+00 -0.000000000000000000e+00 -0.000000000000000000e+00 0.000000000000000000e+00 -0.000000000000000000e+00 0.000000000000000000e+00 0.000000000000000000e+00 0.000000000000000000e+00 0.000000000000000000e+00 -0.000000000000000000e+00 0.000000000000000000e+00 -0.000000000000000000e+00 0.000000000000000000e+00 -0.000000000000000000e+00 -0.000000000000000000e+00 0.000000000000000000e+00 -0.000000000000000000e+00 -0.000000000000000000e+00 0.000000000000000000e+00
-2.716561779379844666e-02 1.349853873252868652e-01 -1.468546390533447266e-01 1.375000327825546265e-01 1.633176207542419434e-01 -9.374514222145080566e-03 9.370368719100952148e-02 -2.061892449855804443e-01 2.767018973827362061e-01 -5.446915328502655029e-02 1.978358179330825806e-01 -1.294199377298355103e-02 -1.326939761638641357e-01 -1.061283499002456665e-01 -9.255811572074890137e-02 2.045796960592269897e-01 8.408173173666000366e-02 1.689388006925582886e-01 3.123468756675720215e-01 4.727996885776519775e-02 -5.386672914028167725e-02 -8.980788290500640869e-03 5.988521873950958252e-02 -4.564698040485382080e-02 2.683689594268798828e-01 4.004793241620063782e-02 1.050150915980339050e-01 -1.799387782812118530e-01 1.048747524619102478e-01 5.295270122587680817e-03 2.422931492328643799e-01 -1.686671227216720581e-01 -2.069145673885941505e-03 8.528172969818115234e-02 1.649719923734664917e-01 3.995229303836822510e-02 -1.425503343343734741e-01 2.338072955608367920e-01 -6.545573472976684570e-02 9.413135051727294922e-02 2.851431667804718018e-01 9.646865539252758026e-03 -1.127151772379875183e-01 -1.145755052566528320e-01 1.258006095886230469e-01 -3.329358994960784912e-02 -1.314656436443328857e-02 4.366450756788253784e-02 -2.518337368965148926e-01 8.320223540067672729e-02 2.497584521770477295e-01 2.576084136962890625e-01 1.994660943746566772e-01 -5.771913006901741028e-02 1.703037507832050323e-02 -2.221971154212951660e-01 8.582695573568344116e-02 -2.528498768806457520e-01 -2.486065924167633057e-01 -4.581107944250106812e-02 8.209092915058135986e-02 5.325301736593246460e-02 -1.714206933975219727e-01 -2.090906798839569092e-01 -0.000000000000000000e+00 -0.000000000000000000e+00 0.000000000000000000e+00 0.000000000000000000e+00 -0.000000000000000000e+00 0.000000000000000000e+00 -0.000000000000000000e+00 0.000000000000000000e+00 0.000000000000000000e+00 0.000000000000000000e+00 0.000000000000000000e+00 -0.000000000000000000e+00 -0.000000000000000000e+00 0.000000000000000000e+00 0.000000000000000000e+00 0.000000000000000000e+00 -0.000000000000000000e+00 0.000000000000000000e+00 0.000000000000000000e+00 -0.000000000000000000e+00 -0.000000000000000000e+00 -0.000000000000000000e+00 0.000000000000000000e+00 -0.000000000000000000e+00 -0.000000000000000000e+00 0.000000000000000000e+00 0.000000000000000000e+00 0.000000000000000000e+00 -0.000000000000000000e+00 -0.000000000000000000e+00 0.000000000000000000e+00 0.000000000000000000e+00 -0.000000000000000000e+00 -0.000000000000000000e+00 -0.000000000000000000e+00 0.000000000000000000e+00 0.000000000000000000e+00 0.000000000000000000e+00 -0.000000000000000000e+00 0.000000000000000000e+00 -0.000000000000000000e+00 -0.000000000000000000e+00 -0.000000000000000000e+00 0.000000000000000000e+00 -0.000000000000000000e+00 0.000000000000000000e+00 -0.000000000000000000e+00 -0.000000000000000000e+00 -0.000000000000000000e+00 0.000000000000000000e+00 0.000000000000000000e+00 -0.000000000000000000e+00 0.000000000000000000e+00 0.000000000000000000e+00 -0.000000000000000000e+00 -0.000000000000000000e+00 0.000000000000000000e+00 -0.000000000000000000e+00 0.000000000000000000e+00 0.000000000000000000e+00 -0.000000000000000000e+00 0.000000000000000000e+00 -0.000000000000000000e+00 0.000000000000000000e+00
2.595715522766113281e-01 3.547182306647300720e-02 -1.349306255578994751e-01 -4.282243922352790833e-02 -4.014732316136360168e-02 -4.795524179935455322e-01 -4.764193296432495117e-02 1.431515961885452271e-01 1.009760797023773193e-01 2.105351239442825317e-01 2.590967901051044464e-02 3.231552541255950928e-01 1.303728669881820679e-01 -2.443966716527938843e-01 1.381134092807769775e-01 -6.423481553792953491e-02 1.163525134325027466e-01 2.019691616296768188e-01 -1.073646396398544312e-01 1.508291512727737427e-01 -3.057300150394439697e-01 -6.774042546749114990e-02 9.837959706783294678e-02 1.132017280906438828e-02 -8.929467946290969849e-02 1.905902028083801270e-01 -3.260293304920196533e-01 1.461753249168395996e-01 -2.129269838333129883e-01 5.629309639334678650e-02 1.957269161939620972e-01 -2.656707763671875000e-01 2.393723130226135254e-01 -3.090380690991878510e-02 3.691627085208892822e-01 4.024677723646163940e-02 2.019931934773921967e-02 1.952662318944931030e-01 -1.765541285276412964e-01 2.591774165630340576e-01 -3.632945120334625244e-01 1.258523017168045044e-01 -2.833370678126811981e-02 1.266591399908065796e-01 -7.948474586009979248e-02 5.108121316879987717e-03 4.024976491928100586e-02 -6.955969333648681641e-02 4.271688871085643768e-03 1.090829521417617798e-01 1.823054850101470947e-01 1.023041754961013794e-01 -1.995422504842281342e-02 -1.763207614421844482e-01 1.500570625066757202e-01 -2.505118548870086670e-01 -2.014172971248626709e-01 2.038821130990982056e-01 -3.359235357493162155e-03 2.799911983311176300e-02 9.431776590645313263e-03 1.834236383438110352e-01 2.857774794101715088e-01 1.741529554128646851e-01 -0.000000000000000000e+00 -0.000000000000000000e+00 0.000000000000000000e+00 -0.000000000000000000e+00 -0.000000000000000000e+00 -0.000000000000000000e+00 0.000000000000000000e+00 0.000000000000000000e+00 0.000000000000000000e+00 0.000000000000000000e+00 0.000000000000000000e+00 -0.000000000000000000e+00 0.000000000000000000e+00 -0.000000000000000000e+00 -0.000000000000000000e+00 0.000000000000000000e+00 -0.000000000000000000e+00 -0.000000000000000000e+00 0.000000000000000000e+00 0.000000000000000000e+00 0.000000000000000000e+00 0.000000000000000000e+00 0.000000000000000000e+00 0.000000000000000000e+00 0.000000000000000000e+00 -0.000000000000000000e+00 -0.000000000000000000e+00 0.000000000000000000e+00 -0.000000000000000000e+00 0.000000000000000000e+00 0.000000000000000000e+00 -0.000000000000000000e+00 0.000000000000000000e+00 -0.000000000000000000e+00 -0.000000000000000000e+00 -0.000000000000000000e+00 0.000000000000000000e+00 -0.000000000000000000e+00 -0.000000000000000000e+00 -0.000000000000000000e+00 -0.000000000000000000e+00 0.000000000000000000e+00 0.000000000000000000e+00 0.000000000000000000e+00 -0.000000000000000000e+00 0.000000000000000000e+00 0.000000000000000000e+00 -0.000000000000000000e+00 0.000000000000000000e+00 -0.000000000000000000e+00 0.000000000000000000e+00 0.000000000000000000e+00 0.000000000000000000e+00 0.000000000000000000e+00 -0.000000000000000000e+00 0.000000000000000000e+00 0.000000000000000000e+00 0.000000000000000000e+00 -0.000000000000000000e+00 0.000000000000000000e+00 0.000000000000000000e+00 0.000000000000000000e+00 -0.000000000000000000e+00 -0.000000000000000000e+00
-1.749107837677001953e-01 3.730848431587219238e-01 1.509740203619003296e-01 -1.033366471529006958e-01 -6.446803361177444458e-02 1.818984150886535645e-01 7.144640386104583740e-02 5.851891636848449707e-02 -1.800582110881805420e-01 8.248861134052276611e-02 -1.140419840812683105e-01 8.151291310787200928e-02 -2.029407322406768799e-01 -8.573394268751144409e-03 7.264047861099243164e-02 -3.838776424527168274e-02 7.131419330835342407e-02 -5.163557827472686768e-03 4.549609869718551636e-02 -7.521147280931472778e-02 3.006194904446601868e-02 3.054541721940040588e-02 2.790688276290893555e-01 1.269477754831314087e-01 -1.044584289193153381e-01 -1.706459075212478638e-01 -9.782294929027557373e-02 5.083639919757843018e-02 1.315861493349075317e-01 -9.245003759860992432e-02 -7.756885886192321777e-02 -9.090174734592437744e-02 -2.763521159067749977e-03 2.176945507526397705e-01 -2.836455777287483215e-02 6.760463118553161621e-02 1.920342445373535156e-02 1.952461600303649902e-01 -3.178308159112930298e-02 9.812764078378677368e-02 -4.544483497738838196e-02 -1.976412236690521240e-01 1.487117707729339600e-01 9.353867173194885254e-02 -1.324388980865478516e-01 7.360468804836273193e-02 3.397672176361083984e-01 1.628467589616775513e-01 3.985223174095153809e-01 -1.256823986768722534e-01 9.195813536643981934e-02 1.453196257352828979e-02 -1.357958912849426270e-01 -1.128679607063531876e-02 -1.739363670349121094e-01 4.807560890913009644e-02 3.319919705390930176e-01 2.015438526868820190e-01 1.828632503747940063e-02 -3.163297474384307861e-01 2.863253355026245117e-01 -2.071174047887325287e-02 2.771432138979434967e-02 -6.813240796327590942e-02 0.000000000000000000e+00 -0.000000000000000000e+00 0.000000000000000000e+00 -0.000000000000000000e+00 0.000000000000000000e+00 -0.000000000000000000e+00 0.000000000000000000e+00 -0.000000000000000000e+00 -0.000000000000000000e+00 -0.000000000000000000e+00 -0.000000000000000000e+00 -0.000000000000000000e+00 0.000000000000000000e+00 0.000000000000000000e+00 0.000000000000000000e+00 -0.000000000000000000e+00 0.000000000000000000e+00 0.000000000000000000e+00 -0.000000000000000000e+00 0.000000000000000000e+00 -0.000000000000000000e+00 -0.000000000000000000e+00 0.000000000000000000e+00 -0.000000000000000000e+00 -0.000000000000000000e+00 0.000000000000000000e+00 -0.000000000000000000e+00 0.000000000000000000e+00 -0.000000000000000000e+00 0.000000000000000000e+00 -0.000000000000000000e+00 -0.000000000000000000e+00 0.000000000000000000e+00 -0.000000000000000000e+00 -0.000000000000000000e+00 0.000000000000000000e+00 0.000000000000000000e+00 -0.000000000000000000e+00 0.000000000000000000e+00 0.000000000000000000e+00 -0.000000000000000000e+00 0.000000000000000000e+00 0.000000000000000000e+00 -0.000000000000000000e+00 0.000000000000000000e+00 -0.000000000000000000e+00 0.000000000000000000e+00 0.000000000000000000e+00 -0.000000000000000000e+00 0.000000000000000000e+00 0.000000000000000000e+00 -0.000000000000000000e+00 -0.000000000000000000e+00 0.000000000000000000e+00 -0.000000000000000000e+00 -0.000000000000000000e+00 -0.000000000000000000e+00 -0.000000000000000000e+00 -0.000000000000000000e+00 0.000000000000000000e+00 -0.000000000000000000e+00 0.000000000000000000e+00 0.000000000000000000e+00 0.000000000000000000e+00
