2.214102596044540405e-01
-2.707310393452644348e-02
2.349599897861480713e-01
-2.261903285980224609e-01
-9.218659996986389160e-02
5.702795833349227905e-02
-1.653915457427501678e-02
-7.104770094156265259e-02
8.922266960144042969e-02
-1.628885716199874878e-01
-1.647174954414367676e-01
-1.201802417635917664e-01
-1.501623988151550293e-01
6.847655773162841797e-02
-8.826865814626216888e-03
-1.830186694860458374e-01
-3.829054534435272217e-02
2.692720480263233185e-02
-4.038195610046386719e-01
-9.443239122629165649e-02
3.072686195373535156e-01
-8.509069681167602539e-02
-1.039482187479734421e-02
2.598246037960052490e-01
1.084622144699096680e-01
2.014513313770294189e-01
-7.284345570951700211e-03
-2.470801472663879395e-01
-1.098139137029647827e-01
-7.013502717018127441e-02
2.524654269218444824e-01
-9.844650514423847198e-03
4.194238409399986267e-02
-8.587045967578887939e-02
1.515605449676513672e-01
3.385220468044281006e-02
-1.574556678533554077e-01
4.841321706771850586e-02
1.254999041557312012e-01
2.790232598781585693e-01
1.097912713885307312e-01
-1.890090852975845337e-02
5.514197051525115967e-02
5.301184952259063721e-02
2.424332499504089355e-01
6.984192878007888794e-02
1.549740433692932129e-01
2.214227765798568726e-01
1.376830786466598511e-01
1.266958266496658325e-01
1.523352861404418945e-01
4.393107816576957703e-02
-2.173605188727378845e-02
5.274355784058570862e-02
4.311804473400115967e-01
6.618043035268783569e-02
2.921749092638492584e-02
6.975067406892776489e-02
6.720826774835586548e-02
1.930121481418609619e-01
-4.292498901486396790e-02
2.163698375225067139e-01
-3.445273265242576599e-02
-7.018380612134933472e-02
-2.736127935349941254e-02
-2.070952020585536957e-02
5.904913693666458130e-02
1.607164144515991211e-01
-8.195859938859939575e-02
1.815680563449859619e-01
-1.056076437234878540e-01
-1.319039016962051392e-01
-4.032975807785987854e-02
-5.260832607746124268e-03
4.103031009435653687e-02
-3.380375206470489502e-01
2.840844988822937012e-01
-7.873608916997909546e-02
-4.473390579223632812e-01
-2.264845073223114014e-01
1.596967130899429321e-01
3.336291313171386719e-01
-9.642645716667175293e-02
-7.564613968133926392e-02
-3.651447966694831848e-02
-1.410774290561676025e-01
3.222149389330297709e-04
4.177602007985115051e-02
9.893091768026351929e-02
1.055450737476348877e-01
-1.669434905052185059e-01
-1.194532588124275208e-01
2.445908263325691223e-03
1.140010170638561249e-02
4.090735316276550293e-01
2.937298715114593506e-01
3.160724043846130371e-01
-9.773702919483184814e-02
-1.997819840908050537e-01
1.894337981939315796e-01
-9.922772645950317383e-03
2.471826970577239990e-01
-1.400173604488372803e-01
4.409136995673179626e-02
1.943627931177616119e-02
1.996133625507354736e-01
2.157361805438995361e-01
-7.633361965417861938e-02
5.325547978281974792e-02
1.978168487548828125e-01
8.503614366054534912e-02
8.328189700841903687e-02
4.699935391545295715e-02
-3.169897710904479027e-03
1.527181360870599747e-02
8.136871457099914551e-02
1.542526781558990479e-01
-3.479282855987548828e-01
1.950598359107971191e-01
3.556309044361114502e-01
2.098862826824188232e-02
-7.689644396305084229e-02
-1.543899923563003540e-01
3.337200582027435303e-01
7.122765481472015381e-02
-1.479772478342056274e-01
2.515053153038024902e-01
1.973565667867660522e-01
1.400717813521623611e-02
-2.355697304010391235e-01
-5.733980610966682434e-02
-7.103545218706130981e-02
-1.389273554086685181e-01
-6.748258322477340698e-02
5.802560597658157349e-02
-1.395349353551864624e-01
8.439559489488601685e-02
-3.292060690000653267e-03
1.804156750440597534e-01
4.754965752363204956e-02
2.734859660267829895e-02
1.503795851022005081e-02
1.183259338140487671e-01
2.030482515692710876e-02
-2.742557041347026825e-02
6.169883534312248230e-02
-1.188163179904222488e-02
-1.669443398714065552e-01
2.378506958484649658e-01
3.061119318008422852e-01
-8.964470587670803070e-03
2.261449024081230164e-02
1.154727488756179810e-02
-1.047208160161972046e-01
1.213142126798629761e-01
-6.141803169157356024e-05
3.471985831856727600e-02
6.608533114194869995e-02
-1.363274455070495605e-01
2.684578001499176025e-01
-2.905707657337188721e-01
-1.711581945419311523e-01
-1.692917793989181519e-01
6.165893282741308212e-03
1.726840287446975708e-01
-2.463742718100547791e-02
9.590403735637664795e-02
-4.213463515043258667e-02
9.445728361606597900e-02
-3.747488663066178560e-04
3.526211380958557129e-01
-7.864276319742202759e-02
2.747438661754131317e-02
-3.004100322723388672e-01
-2.258396334946155548e-02
-1.364766210317611694e-01
-1.462522000074386597e-01
1.757642775774002075e-01
1.274171173572540283e-01
-1.698380857706069946e-01
5.730500072240829468e-02
3.599312007427215576e-01
-8.416088670492172241e-02
1.766987591981887817e-01
2.561914324760437012e-01
1.863481998443603516e-01
-9.241208434104919434e-02
-3.250237405300140381e-01
-7.104547321796417236e-02
-4.658367950469255447e-03
1.528853625059127808e-01
-2.034675776958465576e-01
1.055049523711204529e-01
-7.845977693796157837e-02
1.530176848173141479e-01
-4.520784690976142883e-02
-1.674094796180725098e-01
-2.325019836425781250e-01
2.438771352171897888e-02
-2.312443591654300690e-02
1.417544335126876831e-01
2.614092230796813965e-01
1.223323270678520203e-01
1.451545655727386475e-01
6.658629328012466431e-02
-1.332878172397613525e-01
5.432098358869552612e-02
7.025237381458282471e-02
-1.370758414268493652e-01
5.100519396364688873e-03
2.422273159027099609e-01
-3.174574673175811768e-02
1.942699961364269257e-02
1.556215882301330566e-01
3.119074106216430664e-01
-8.815210312604904175e-02
1.695312112569808960e-01
1.870214045047760010e-01
-6.812272220849990845e-02
-1.069539785385131836e-02
1.605192273855209351e-01
-1.923797279596328735e-01
-2.129117995500564575e-01
2.257338762283325195e-01
-8.049915730953216553e-02
1.157839298248291016e-01
2.017530798912048340e-01
9.108766168355941772e-02
2.134342677891254425e-02
-9.692510962486267090e-02
2.306347042322158813e-01
1.852627843618392944e-01
-3.616358339786529541e-02
5.067820101976394653e-02
9.165472537279129028e-02
-2.177188694477081299e-01
1.660581678152084351e-02
9.091703593730926514e-02
2.470836974680423737e-02
-3.193309158086776733e-02
-1.841259896755218506e-01
8.546248078346252441e-02
7.435629516839981079e-02
2.343657463788986206e-01
6.731529533863067627e-02
3.636832907795906067e-02
4.485661536455154419e-02
-5.468358099460601807e-02
-1.185285113751888275e-02
2.540148794651031494e-01
1.934484988451004028e-01
3.215580433607101440e-02
1.667674332857131958e-01
8.157604187726974487e-02
1.010477840900421143e-01
-8.109635114669799805e-02
5.955391749739646912e-02
-8.508541435003280640e-02
-1.964692026376724243e-01
1.344327535480260849e-02
1.555626541376113892e-01
-6.908614188432693481e-02
8.433304727077484131e-02
-2.363842278718948364e-01
3.546292185783386230e-01
-1.098443493247032166e-01
1.711632460355758667e-01
-4.439946636557579041e-02
-2.101511955261230469e-01
2.213449776172637939e-01
-6.788992881774902344e-02
-5.426118895411491394e-02
7.664916664361953735e-02
-7.505795359611511230e-02
-1.353534609079360962e-01
5.065604671835899353e-02
-6.949157454073429108e-03
-4.203576967120170593e-02
2.611099481582641602e-01
-1.581759564578533173e-02
-8.160952478647232056e-02
4.078199565410614014e-01
-3.478876873850822449e-02
-5.023026838898658752e-02
4.372957721352577209e-02
-4.498494416475296021e-02
6.949678808450698853e-02
-1.015955060720443726e-01
2.111946977674961090e-02
1.171694844961166382e-01
-2.599738352000713348e-02
-2.632730603218078613e-01
-2.820959389209747314e-01
-2.061946541070938110e-01
1.071525737643241882e-01
3.781702741980552673e-02
2.511402405798435211e-02
1.456107199192047119e-01
1.190123558044433594e-01
-1.620000600814819336e-01
-4.460110794752836227e-03
8.316848427057266235e-02
7.967330515384674072e-02
1.273886263370513916e-01
-1.158863902091979980e-01
-1.070448085665702820e-01
4.075460135936737061e-03
-1.703725755214691162e-01
1.028326824307441711e-01
-2.969012558460235596e-01
1.136861518025398254e-01
7.307235151529312134e-02
-1.654781401157379150e-01
1.927143931388854980e-01
-2.332388162612915039e-01
-2.740045189857482910e-01
1.988278329372406006e-01
1.281411945819854736e-01
2.655773423612117767e-02
-2.913472428917884827e-02
1.580269336700439453e-01
9.158489108085632324e-02
-2.448269724845886230e-02
-3.352515399456024170e-02
-1.048718839883804321e-01
2.781802713871002197e-01
-1.187265440821647644e-01
3.085464006289839745e-03
1.159615218639373779e-01
2.590636909008026123e-01
-9.977190196514129639e-02
7.471023499965667725e-02
5.518927425146102905e-02
9.780579805374145508e-02
-8.182640373706817627e-02
-1.901576668024063110e-01
7.337982952594757080e-02
-3.346411138772964478e-02
-2.664686143398284912e-01
-6.872322410345077515e-02
-1.034805644303560257e-02
-1.140089780092239380e-01
-7.774642109870910645e-02
-4.964906722307205200e-02
-1.629404723644256592e-01
1.843563839793205261e-02
-2.195661962032318115e-01
3.156197965145111084e-01
-2.736847102642059326e-02
-2.013939023017883301e-01
-2.620946802198886871e-02
1.704839020967483521e-01
-8.821110427379608154e-02
1.594273746013641357e-01
-1.218391656875610352e-01
3.968714177608489990e-02
-1.790584921836853027e-01
-8.059861510992050171e-02
6.537486612796783447e-02
2.127306461334228516e-01
-2.145745605230331421e-01
1.589103192090988159e-01
-9.237341000698506832e-04
-2.802945375442504883e-01
5.221575498580932617e-02
1.154027953743934631e-01
-1.862912774085998535e-01
-2.161881420761346817e-03
1.104605719447135925e-01
-8.969268202781677246e-02
-1.021733060479164124e-01
-7.456613332033157349e-02
1.676761955022811890e-01
6.769472360610961914e-02
-5.113729089498519897e-02
-3.384744524955749512e-01
-9.532520920038223267e-02
1.211874634027481079e-01
-8.208201825618743896e-02
-1.056865453720092773e-01
4.735464975237846375e-02
1.397788524627685547e-01
-6.625980883836746216e-02
-7.126337289810180664e-02
-3.114463388919830322e-01
3.335191681981086731e-02
-1.385131627321243286e-01
-9.794654697179794312e-02
-2.068371921777725220e-01
1.383803784847259521e-01
-1.646945774555206299e-01
-2.987555265426635742e-01
-2.050270736217498779e-01
1.791645959019660950e-02
-1.885415911674499512e-01
4.682417586445808411e-02
1.935069411993026733e-01
1.945971846580505371e-01
1.115172207355499268e-01
-4.405119270086288452e-02
-4.761710762977600098e-02
-1.135556101799011230e-01
2.224824279546737671e-01
1.285393685102462769e-01
2.449663542211055756e-02
3.413981497287750244e-01
-1.467978581786155701e-02
1.399096846580505371e-01
-3.122513182461261749e-02
3.131321966648101807e-01
-2.489659339189529419e-01
-1.982551217079162598e-01
-1.229294762015342712e-01
9.308005869388580322e-02
7.624296844005584717e-02
9.653440117835998535e-02
-4.377137720584869385e-01
8.535536937415599823e-03
3.214384242892265320e-02
-2.806818520184606314e-04
3.218634054064750671e-02
1.773654073476791382e-01
-6.201313808560371399e-02
2.429769188165664673e-01
1.935961097478866577e-01
1.383043527603149414e-01
9.546653926372528076e-02
-2.805716395378112793e-01
1.338400095701217651e-01
1.026892736554145813e-01
-1.225998178124427795e-01
4.739565551280975342e-01
1.554556190967559814e-01
2.904646396636962891e-01
-1.724600642919540405e-01
-1.460841298103332520e-01
-1.035950146615505219e-02
6.280754506587982178e-02
-1.004448905587196350e-01
5.395638197660446167e-02
-2.725754976272583008e-01
6.509828567504882812e-02
2.972988784313201904e-02
-1.926531493663787842e-01
-4.180755466222763062e-02
9.665527194738388062e-02
3.220793977379798889e-02
1.337311863899230957e-01
-5.630220174789428711e-01
-1.044936180114746094e-01
9.434888511896133423e-02
1.894386410713195801e-01
-1.716598123311996460e-01
-2.072122395038604736e-01
5.775128956884145737e-03
3.099865615367889404e-01
7.456212490797042847e-02
1.246410235762596130e-01
3.100512623786926270e-01
-4.012171328067779541e-01
-1.232143417000770569e-01
1.564755588769912720e-01
1.035681813955307007e-01
-5.718961358070373535e-02
8.779622614383697510e-02
5.041433125734329224e-02
1.756215989589691162e-01
1.971348822116851807e-01
-2.035633027553558350e-01
2.968682944774627686e-01
-1.790311932563781738e-02
9.751496464014053345e-02
8.024792373180389404e-02
-2.928047180175781250e-01
6.596703827381134033e-02
-2.659301972016692162e-03
-2.711336128413677216e-02
-2.356323748826980591e-01
-2.448553889989852905e-01
-1.600723862648010254e-01
1.740353703498840332e-01
8.531954884529113770e-02
1.659706421196460724e-02
3.103102557361125946e-02
1.977888047695159912e-01
-1.239606514573097229e-01
9.320946782827377319e-02
-4.435732495039701462e-03
1.713404208421707153e-01
-8.268052339553833008e-02
1.922912150621414185e-01
-3.534187972545623779e-01
-2.080774120986461639e-02
1.079368516802787781e-01
4.043408110737800598e-02
1.649494022130966187e-01
-1.031755432486534119e-01
-2.159653306007385254e-01
-1.795117408037185669e-01
3.973892331123352051e-02
-4.059396160300821066e-04
-5.386005621403455734e-03
-9.086689352989196777e-02
-1.818827539682388306e-01
-3.818796575069427490e-02
1.859052181243896484e-01
-9.874513000249862671e-02
1.513205617666244507e-01
-1.000699922442436218e-01
-1.461648195981979370e-01
-2.917136996984481812e-02
1.368284374475479126e-01
1.479074656963348389e-01
1.373770385980606079e-01
-3.704423010349273682e-01
-4.094077274203300476e-02
1.301421374082565308e-01
1.367400288581848145e-01
-1.499421149492263794e-01
2.197671532630920410e-01
2.284168899059295654e-01
-5.377329420298337936e-03
-5.771874263882637024e-02
-1.629967093467712402e-01
1.960314810276031494e-01
3.752103149890899658e-01
2.536518871784210205e-01
-1.044783834367990494e-02
1.936560571193695068e-01
-5.699028074741363525e-02
-3.790711611509323120e-02
1.726309359073638916e-01
-1.670333184301853180e-02
-1.721026897430419922e-01
-3.104997100308537483e-03
1.687109656631946564e-02
-2.958562374114990234e-01
-1.557293534278869629e-01
-2.335871160030364990e-01
9.104645997285842896e-02
-6.287307292222976685e-02
1.218910329043865204e-02
-1.081372871994972229e-01
-2.357357442378997803e-01
-1.260552108287811279e-01
2.938072197139263153e-02
-1.537387538701295853e-02
2.907858043909072876e-02
-2.480907440185546875e-01
-7.016415148973464966e-02
-2.042679935693740845e-01
3.469207137823104858e-02
-2.156604826450347900e-01
-1.819529337808489799e-03
-1.593088209629058838e-01
1.417350918054580688e-01
-1.359342187643051147e-01
-1.390876024961471558e-01
1.602637320756912231e-01
-3.857912868261337280e-02
-5.418942309916019440e-03
-4.202759824693202972e-03
2.356917411088943481e-01
9.364666789770126343e-02
1.939088255167007446e-01
-8.905720897018909454e-03
1.254302561283111572e-01
-1.227684915065765381e-01
5.522755440324544907e-03
-1.671851724386215210e-01
6.980125606060028076e-02
1.218028739094734192e-01
-1.361074745655059814e-01
7.339268922805786133e-02
-1.975101828575134277e-01
-4.870367050170898438e-02
-9.776739776134490967e-02
1.584088802337646484e-02
-1.388110071420669556e-01
-3.423365205526351929e-02
-3.040797077119350433e-02
1.269916445016860962e-01
2.759553492069244385e-01
1.050967797636985779e-01
-6.319737434387207031e-02
-8.232653886079788208e-02
8.706220984458923340e-02
2.100895345211029053e-01
3.163031116127967834e-02
-4.912722390145063400e-03
1.554287783801555634e-02
1.451887339353561401e-01
-7.334341853857040405e-02
1.858553588390350342e-01
-2.888921499252319336e-01
6.494426168501377106e-03
2.339033037424087524e-01
-1.082022413611412048e-01
1.399341374635696411e-01
3.554386645555496216e-02
-2.212206721305847168e-01
-9.466902166604995728e-02
1.505924612283706665e-01
7.372945547103881836e-02
2.386402934789657593e-01
-7.328378409147262573e-02
-1.426870971918106079e-01
-1.378465890884399414e-01
8.130413293838500977e-02
-8.824953436851501465e-02
1.349100321531295776e-01
6.201325356960296631e-02
1.771504878997802734e-01
2.624050676822662354e-01
-1.015771552920341492e-01
1.781915575265884399e-01
6.370061077177524567e-03
2.527864277362823486e-02
4.187304899096488953e-02
1.523202508687973022e-01
-2.463195659220218658e-02
7.322681695222854614e-02
-3.865065798163414001e-02
-2.032747566699981689e-01
8.080725371837615967e-02
8.400930464267730713e-02
3.045866787433624268e-01
1.252729166299104691e-02
5.982427299022674561e-02
-4.045954719185829163e-02
1.638691127300262451e-01
2.893159091472625732e-01
1.127013787627220154e-01
5.445169657468795776e-02
-3.948258981108665466e-02
-4.978124424815177917e-02
-4.030665755271911621e-02
-3.767681121826171875e-02
1.392146646976470947e-01
1.034438610076904297e-01
1.670725941658020020e-01
7.373646646738052368e-02
1.335547585040330887e-02
-2.200771570205688477e-01
1.755031570792198181e-02
-7.659575436264276505e-03
-5.820213258266448975e-02
-1.367620974779129028e-01
9.198934584856033325e-02
2.194761335849761963e-01
-3.029905632138252258e-02
-8.899191021919250488e-02
-1.000384688377380371e-01
-2.489803433418273926e-01
-3.189684450626373291e-01
4.230048656463623047e-01
9.096298366785049438e-03
1.279378086328506470e-01
2.029146254062652588e-01
-9.397422522306442261e-02
1.372064352035522461e-01
6.574901938438415527e-02
-5.407686531543731689e-02
2.589504234492778778e-02
4.612176492810249329e-02
-3.749210834503173828e-01
-1.897989809513092041e-01
-1.210570484399795532e-01
-1.384191811084747314e-01
-1.868201047182083130e-01
-2.454975061118602753e-02
2.193954586982727051e-02
1.877813786268234253e-01
-3.053584396839141846e-01
-1.084120050072669983e-01
9.461311995983123779e-02
-1.133339181542396545e-01
2.307924628257751465e-01
9.247051924467086792e-02
-1.257973257452249527e-02
3.092481195926666260e-02
-1.995990984141826630e-02
8.183879405260086060e-02
2.773713134229183197e-02
2.306314557790756226e-01
5.878102456335909665e-06
2.664167247712612152e-02
1.263227164745330811e-01
-2.207900136709213257e-01
-1.746037416160106659e-02
1.079975515604019165e-01
-1.809714920818805695e-02
1.052208095788955688e-01
3.821791335940361023e-02
-1.704635322093963623e-01
-1.043829098343849182e-01
4.718194901943206787e-02
-1.502544134855270386e-01
1.850215792655944824e-01
-2.066029608249664307e-01
4.411467537283897400e-02
1.604258418083190918e-01
6.298672407865524292e-02
-4.362689703702926636e-02
1.531750261783599854e-01
3.067443668842315674e-01
1.696995794773101807e-01
-3.065341711044311523e-01
-2.333793044090270996e-01
-1.742259711027145386e-01
8.376181125640869141e-02
-1.350387334823608398e-01
2.916544489562511444e-02
1.734237931668758392e-02
-2.391531467437744141e-01
-2.408108487725257874e-02
1.006642431020736694e-01
2.085647732019424438e-01
1.566889137029647827e-02
-1.684740632772445679e-01
1.738177835941314697e-01
7.243087887763977051e-02
-3.094357438385486603e-02
-2.292838394641876221e-01
1.956765949726104736e-01
1.202027797698974609e-01
4.638941213488578796e-02
-1.073146611452102661e-02
-2.240495681762695312e-01
-1.939360052347183228e-01
-1.125116739422082901e-02
9.151006489992141724e-02
-9.059901535511016846e-02
-8.378042839467525482e-03
3.848633542656898499e-02
-1.095711067318916321e-02
-2.146082967519760132e-01
5.887091904878616333e-02
-1.610019057989120483e-01
-3.622178733348846436e-01
-1.612175405025482178e-01
9.494335204362869263e-02
-7.420744746923446655e-02
-8.990211784839630127e-02
6.448888778686523438e-02
3.880850225687026978e-02
-9.843616932630538940e-02
-2.274340949952602386e-02
-5.857380479574203491e-02
-5.983735620975494385e-02
1.115493848919868469e-01
2.434521913528442383e-01
8.578377962112426758e-02
1.971039026975631714e-01
-1.578289121389389038e-01
-1.476627588272094727e-01
2.280575968325138092e-02
-3.162745013833045959e-02
-1.766115725040435791e-01
-1.479254104197025299e-02
-1.419897973537445068e-01
6.597799807786941528e-02
2.310170084238052368e-01
-3.121366798877716064e-01
5.014974251389503479e-02
4.444802552461624146e-02
-4.260852560400962830e-02
-2.430066168308258057e-01
2.962137944996356964e-02
-1.094155572354793549e-02
-2.877613587770611048e-05
1.163650974631309509e-01
-2.252699881792068481e-01
2.866249680519104004e-01
-2.492013275623321533e-01
-2.578051984310150146e-01
1.277035772800445557e-01
2.269446551799774170e-01
1.653632894158363342e-02
5.007451027631759644e-02
-1.141340881586074829e-01
2.032983750104904175e-01
-1.319783627986907959e-01
2.255096733570098877e-01
-4.373152740299701691e-03
-8.902822434902191162e-02
3.550552576780319214e-02
9.790949523448944092e-03
3.155081719160079956e-02
-4.782513901591300964e-02
-4.861013218760490417e-02
-1.966963410377502441e-01
-2.056780010461807251e-01
6.558842211961746216e-02
3.252465650439262390e-02
3.311044275760650635e-01
1.932706534862518311e-01
1.134515702724456787e-01
1.149115897715091705e-02
-2.123133838176727295e-02
9.988515824079513550e-02
-1.389947384595870972e-01
-1.755157411098480225e-01
-6.078265607357025146e-02
1.938914358615875244e-01
-1.605412364006042480e-01
6.202961504459381104e-02
2.324274331331253052e-01
5.579290166497230530e-02
-1.062959879636764526e-01
1.567684710025787354e-01
1.803890168666839600e-01
4.234526678919792175e-02
-1.786996424198150635e-01
-2.522399127483367920e-01
6.142072007060050964e-02
-2.708667218685150146e-01
-9.608390182256698608e-02
-1.077411249279975891e-01
6.293020211160182953e-03
-1.083084940910339355e-01
5.746351182460784912e-02
-5.824873596429824829e-02
-5.992252752184867859e-02
-1.292962431907653809e-01
-1.291563361883163452e-02
-2.493144385516643524e-02
-2.217924743890762329e-01
-3.946076612919569016e-03
1.494395732879638672e-01
3.674354255199432373e-01
-9.823309630155563354e-02
-1.096956804394721985e-01
-3.001545071601867676e-01
-2.206399142742156982e-01
2.061197310686111450e-01
-3.961199522018432617e-02
-1.187281236052513123e-01
-3.879984468221664429e-02
-1.706939935684204102e-01
-1.160091012716293335e-01
-1.577286422252655029e-01
-2.396643310785293579e-01
8.277350664138793945e-02
6.831330806016921997e-02
5.391652137041091919e-02
-3.196672499179840088e-01
2.215738743543624878e-01
-1.321348845958709717e-01
-1.967000812292098999e-01
-1.966840121895074844e-03
7.774985581636428833e-02
2.227360606193542480e-01
8.373942971229553223e-02
-8.798020891845226288e-03
1.569292042404413223e-03
-1.040487736463546753e-01
-1.624007821083068848e-01
-5.939316004514694214e-02
-4.295814409852027893e-02
9.927085787057876587e-02
-1.098054200410842896e-01
1.395675260573625565e-02
-9.233134239912033081e-02
-9.768088161945343018e-02
6.886786222457885742e-02
1.908818334341049194e-01
-5.008255690336227417e-02
2.841766476631164551e-01
-2.058818489313125610e-01
7.168410811573266983e-03
1.582679301500320435e-01
-9.476447850465774536e-02
-4.620919376611709595e-02
-5.563567578792572021e-02
8.384802192449569702e-02
6.622430682182312012e-02
-4.483284801244735718e-02
-2.612912356853485107e-01
3.955398499965667725e-02
-2.159210741519927979e-01
-3.423605263233184814e-01
2.466649115085601807e-01
3.445179164409637451e-01
9.799531847238540649e-02
3.861546888947486877e-02
-1.876376196742057800e-02
2.490732520818710327e-01
5.699305608868598938e-02
-1.207631826400756836e-01
-3.672303557395935059e-01
-2.237834222614765167e-02
2.833557780832052231e-03
2.236695736646652222e-01
-1.348987370729446411e-01
1.299124490469694138e-02
6.162035092711448669e-02
2.330937683582305908e-01
9.272252768278121948e-02
1.695932149887084961e-01
2.300082445144653320e-01
-1.035876478999853134e-02
2.145476341247558594e-01
1.287914663553237915e-01
1.863505840301513672e-01
-1.269592940807342529e-01
4.145214334130287170e-02
