-8.732065907679498196e-04
-2.926676999777555466e-03
-8.812865708023309708e-04
-8.713864372111856937e-04
-2.839486347511410713e-03
-8.022342808544635773e-04
-3.116943407803773880e-03
-8.431014721281826496e-04
-8.278868044726550579e-04
-3.276815637946128845e-03
-8.256082655861973763e-04
-1.299473573453724384e-03
-8.843097020871937275e-04
-8.297413005493581295e-04
-8.592892554588615894e-04
-8.409009315073490143e-04
3.932623076252639294e-04
-7.738419226370751858e-04
-8.270077523775398731e-04
-1.145834336057305336e-03
-8.025610004551708698e-04
-3.582853823900222778e-03
-1.462562242522835732e-03
-8.101167040877044201e-04
-8.768975021666847169e-06
-8.357471087947487831e-04
2.650463284226134419e-05
-8.794098976068198681e-04
-8.587967022322118282e-04
-8.921780972741544247e-04
-7.932228036224842072e-04
5.284203216433525085e-04
-7.276168325915932655e-04
-8.169520297087728977e-04
1.096793494070880115e-05
-8.199770818464457989e-04
-1.438427862012758851e-04
-8.829785510897636414e-04
-8.173676324076950550e-04
-8.541741990484297276e-04
-8.524577715434134007e-04
7.143619004637002945e-04
-9.197532199323177338e-04
-8.518606773577630520e-04
-9.638246265240013599e-04
-8.140236604958772659e-04
-8.464423590339720249e-04
-9.241668740287423134e-04
-8.455374627374112606e-04
-8.327701943926513195e-04
-8.150369394570589066e-04
1.261161640286445618e-03
-8.035197388380765915e-04
-8.012526086531579494e-04
5.795494071207940578e-04
-8.122766157612204552e-04
-4.687931505031883717e-04
-9.824524167925119400e-04
-7.648163591511547565e-04
-6.059828680008649826e-03
-8.640239830128848553e-04
-3.102481423411518335e-04
-8.892377372831106186e-04
-8.304549264721572399e-04
-9.710462181828916073e-04
-8.366359397768974304e-04
-2.196991350501775742e-03
-1.014574780128896236e-03
-8.224031771533191204e-04
-8.269057725556194782e-04
-8.392907911911606789e-04
-9.920501615852117538e-04
-9.477882413193583488e-04
-8.464296697638928890e-04
4.563369202514877543e-06
-8.637558203190565109e-04
1.182397409138502553e-05
-1.756042183842509985e-05
-1.098248503694776446e-05
-1.472924122936092317e-05
-8.103283471427857876e-04
-8.754068403504788876e-06
7.306795851036440581e-06
3.962145456171128899e-06
1.080600100067385938e-06
-8.404816617257893085e-04
-1.458323549741180614e-05
3.144223956041969359e-05
4.842691851081326604e-05
3.769376417039893568e-05
-8.543585427105426788e-04
2.851786302926484495e-05
7.808901500538922846e-06
4.728824569610878825e-05
-6.542867140524322167e-06
-8.336177561432123184e-04
1.219551268150098622e-05
1.868446133812540211e-06
2.430289168842136860e-05
2.350619979551993310e-05
-8.335323655046522617e-04
5.027939096180489287e-07
2.061843952105846256e-05
1.906382203742396086e-05
1.931440237967763096e-05
-8.393545285798609257e-04
2.177688884330564179e-06
-2.452221269777510315e-05
9.901705197989940643e-06
-1.112890913645969704e-05
-8.302229689434170723e-04
2.285606205987278372e-05
-1.103411068470450118e-05
9.995772416004911065e-06
6.015334292897023261e-06
-8.460449171252548695e-04
-5.570990197156788781e-06
-1.194299784401664510e-05
3.720233144122175872e-05
-1.692674049991182983e-05
-8.295298321172595024e-04
-1.328848156845197082e-05
-3.409916462260298431e-05
-1.186352619697572663e-05
1.851520937634631991e-05
-8.298785542137920856e-04
1.884266930574085563e-05
-2.740371564868837595e-05
7.944597200548741966e-06
1.846708619268611073e-05
-8.182516903616487980e-04
-1.669945777393877506e-05
-4.197629459667950869e-05
-1.591143643508985406e-07
-3.126007186438073404e-06
-8.482908015139400959e-04
8.549912308808416128e-06
-2.167415914300363511e-05
-1.875657835626043379e-05
1.542561403766740113e-05
-8.402352686971426010e-04
-1.225506366608897224e-05
-2.763402335403952748e-06
-2.569852995293331333e-06
-4.062396328663453460e-05
-8.314037113450467587e-04
-6.111609309300547466e-06
-7.578557415399700403e-06
2.255867002531886101e-05
-6.885881884954869747e-05
5.279232027532998472e-06
4.981687525287270546e-04
-3.612586762756109238e-03
1.901827752590179443e-03
2.306815076735801995e-05
-8.356700163858477026e-06
-3.977198048232821748e-06
-1.567582876305095851e-05
-7.662439602427184582e-04
-2.072829985991120338e-03
-2.167814272979740053e-05
1.260151748283533379e-05
-3.557956006261520088e-05
-1.792649891285691410e-05
-8.076421800069510937e-04
-2.361349061175133102e-06
-1.021526804834138602e-05
-2.107097134285140783e-05
-5.725834125769324601e-05
-7.043216555757680908e-06
1.371204294264316559e-02
1.522061042487621307e-02
-7.417467422783374786e-03
-1.845990300353150815e-05
-2.278360079799313098e-05
-9.218649211106821895e-06
9.053926914930343628e-03
-8.775108493864536285e-03
1.498807314783334732e-02
-2.615740413602907211e-05
-2.746737300185486674e-05
3.061728057218715549e-05
3.846819890895858407e-05
-7.693260558880865574e-04
-6.073268596082925797e-03
2.420361124677583575e-05
2.805042458930984139e-05
-3.001675759151112288e-05
1.084814630303299055e-05
-8.217438007704913616e-04
9.395544111612252891e-06
-3.995989573013503104e-06
1.485301527281990275e-05
4.018974141217768192e-05
3.076824214076623321e-05
8.248686790466308594e-03
1.304589398205280304e-02
-8.738522417843341827e-03
5.814793894387548789e-06
-6.713799848512280732e-06
-1.085772510123206303e-05
-4.312558157835155725e-04
-1.220717444084584713e-03
-4.985321313142776489e-03
-1.117844112741295248e-05
5.041888289269991219e-05
-4.186308615317102522e-06
-3.741900854947743937e-06
-7.233007927425205708e-04
-1.297620311379432678e-02
1.343413077847799286e-05
1.896256071631796658e-05
-3.235608528484590352e-05
-2.858192965504713356e-05
-8.169168722815811634e-04
-3.387898323126137257e-05
1.920852992043364793e-05
1.247944851456850301e-06
-7.122293936845380813e-06
-1.041443192661972716e-05
-8.032713667489588261e-04
-5.651845131069421768e-04
-1.571166649227961898e-05
-1.143024110206170008e-05
2.256419065815862268e-05
-2.393745671724900603e-05
2.755468944087624550e-03
-2.491996623575687408e-02
-7.987817749381065369e-03
8.454844646621495485e-06
1.651046238839626312e-02
2.046361987595446408e-05
7.687310244364198297e-06
-8.657732978463172913e-04
6.720323581248521805e-03
-8.729521141503937542e-06
-4.716223884315695614e-06
-2.617719110276084393e-05
1.369257461192319170e-05
-8.196741691790521145e-04
9.059684089152142406e-06
-1.752363095874898136e-05
2.112036781909409910e-05
2.538855915190652013e-05
-1.102152782550547272e-05
-5.123152513988316059e-04
-1.293291454203426838e-03
-3.230307129342691042e-06
-3.272808726251241751e-07
5.263389539322815835e-06
2.524878073018044233e-05
1.970234792679548264e-03
-2.533332258462905884e-02
8.736268617212772369e-03
-7.966721568664070219e-06
-3.028530591109301895e-05
2.246595613542012870e-05
1.281523873331025243e-05
-1.620576949790120125e-04
-3.302584588527679443e-02
-1.542138670629356056e-05
-1.283452911593485624e-05
1.979799708351492882e-05
5.892024546483298764e-06
-8.252297411672770977e-04
-4.933656236971728504e-05
-3.201515210093930364e-05
3.607945473049767315e-05
-1.750038609316106886e-05
-8.219419396482408047e-04
-2.614402001199778169e-05
-1.777722536644432694e-05
5.751371645601466298e-06
2.215489803347736597e-05
-5.673904524883255363e-05
-1.329366932623088360e-05
-8.778644260019063950e-04
-4.443038720637559891e-03
3.691359423100948334e-03
-2.557451261964160949e-05
9.518486447632312775e-03
1.362050170428119600e-05
-9.095714631257578731e-06
-7.412279373966157436e-04
-4.158873111009597778e-03
-1.106954277929617092e-05
-8.111625356832519174e-05
-1.449228761885024142e-06
-1.606638215889688581e-05
-8.389492868445813656e-04
-3.111475962214171886e-05
-2.284601396240759641e-05
-1.259247892448911443e-05
4.288374839234165847e-06
-7.605398877785773948e-06
-7.727118209004402161e-04
-4.322153516113758087e-03
-1.204998898174380884e-05
2.477175985404755920e-05
-2.926821798610035330e-05
3.787246782849251758e-07
-3.051127772778272629e-03
2.930931281298398972e-03
-9.705122560262680054e-03
-1.616487134015187621e-05
-2.673730705282650888e-05
2.777529516606591642e-05
1.671614518272690475e-05
-9.143169154413044453e-04
9.957313537597656250e-03
-1.765735760272946209e-05
6.221170224307570606e-06
2.376009433646686375e-05
1.667639935476472601e-06
-7.983287214301526546e-04
-8.683717169333249331e-06
1.747031819832045585e-05
1.096107098419452086e-06
2.991081237269099802e-05
-7.940050563775002956e-04
-5.493344815477030352e-06
-3.633261803770437837e-05
-1.054258336807833984e-05
2.401544224994722754e-05
-1.023127970256609842e-05
2.273433892696630210e-05
-1.465501845814287663e-03
-7.853105664253234863e-03
-4.144414328038692474e-03
-1.642475035623647273e-05
8.500644071318674833e-06
-2.376487145738792606e-06
-2.587501739981235005e-06
-7.521791849285364151e-04
-5.611085798591375351e-03
3.464503242867067456e-05
1.233621060237055644e-05
8.032163350435439497e-06
-2.683975435502361506e-05
-8.224460179917514324e-04
-2.569654861872550100e-05
-2.746416066656820476e-05
-6.531550297950161621e-06
1.937116212502587587e-05
3.535879659466445446e-05
-8.228080696426331997e-04
2.253121056128293276e-05
7.157824256864842027e-06
-1.661426153987122234e-06
2.156022674171254039e-05
2.899232458730693907e-05
2.209262922406196594e-03
-1.230829674750566483e-02
2.672921167686581612e-03
-2.080448393826372921e-05
6.484558805823326111e-03
-1.304755278397351503e-05
-1.627001984161324799e-05
-6.754264468327164650e-04
-1.565598323941230774e-02
9.098424925468862057e-06
1.292840806854655966e-05
-2.638098067109240219e-06
2.565032264101319015e-05
-8.290386176668107510e-04
-1.980891101993620396e-05
2.963681254186667502e-05
4.061427171109244227e-05
-8.456755722363595851e-07
1.739290564728435129e-05
-6.498521543107926846e-04
-4.188598599284887314e-03
-2.337587466172408313e-05
-3.057219510083086789e-05
-5.863291789864888415e-06
-3.513284536893479526e-05
-1.052016625180840492e-03
1.381054893136024475e-02
-7.209342438727617264e-03
-4.799838734470540658e-06
1.092434445126855280e-06
-1.058287489286158234e-05
1.571920984133612365e-05
-7.537071360275149345e-04
-5.289624445140361786e-03
-2.219197631347924471e-05
-2.867562398023437709e-05
-2.868716001103166491e-05
-5.981304980196000542e-07
-8.135492098517715931e-04
-2.907890484493691474e-05
-5.064738161308923736e-06
3.939267480745911598e-05
-3.314647619845345616e-05
3.195777753717266023e-05
-8.347875555045902729e-04
-8.938217433751560748e-06
4.734026879305019975e-05
1.485205029894132167e-05
-2.732798566285055131e-05
-3.379620829946361482e-05
-3.538979683071374893e-03
9.481358341872692108e-03
1.873684301972389221e-02
-2.123654849128797650e-05
-1.966152740351390094e-05
1.732509372232016176e-05
-4.667414032155647874e-05
-8.719722391106188297e-04
1.667183707468211651e-03
-1.253359914699103683e-05
1.170009454654064029e-05
1.584217898198403418e-05
2.891976146202068776e-05
-8.385282126255333424e-04
1.609158425708301365e-05
8.075529876805376261e-06
-1.147362127085216343e-05
-4.578987500281073153e-06
1.238389995705801994e-05
-2.327415160834789276e-03
4.195222165435552597e-03
1.426953356713056564e-03
2.613626384118106216e-05
-2.232636325061321259e-05
3.658446075860410929e-06
-1.500909682363271713e-03
2.917365171015262604e-03
-7.859849371016025543e-03
3.722117617144249380e-05
2.139840034942608327e-05
2.002365363296121359e-05
-3.445558832027018070e-05
-6.675135227851569653e-04
-6.477330345660448074e-03
1.390195029671303928e-05
-2.681044861674308777e-05
-2.545425195421557873e-05
1.608206548553425819e-05
-8.169881184585392475e-04
-2.948119072243571281e-05
8.635812264401465654e-06
-1.965695992112159729e-05
-1.242845792148727924e-05
3.294543057563714683e-05
7.620992138981819153e-03
2.695904858410358429e-02
-1.128562260419130325e-02
2.824777402565814555e-05
1.012466054817195982e-05
9.302309990744106472e-06
-1.433191704563796520e-03
1.408619713038206100e-02
-1.008413499221205711e-03
-4.087496563442982733e-05
3.019530049641616642e-05
1.795171192497946322e-05
2.136802504537627101e-05
-7.875837618485093117e-04
-5.359442904591560364e-03
1.466016783524537459e-05
-7.660480150661896914e-06
8.600650289736222476e-06
-6.932093583600362763e-06
-8.257323061116039753e-04
2.555542960180900991e-05
4.278044798411428928e-06
-2.926836350525263697e-05
-1.376506952510681003e-05
2.411789319012314081e-05
-6.616687751375138760e-04
-9.064494632184505463e-03
2.852706893463619053e-05
2.609687044241582043e-06
2.327898982912302017e-05
1.125976268667727709e-05
4.341967287473380566e-04
3.715034108608961105e-04
-1.489256974309682846e-02
-4.292675384931499138e-06
1.613117456145118922e-05
-3.428564014029689133e-05
-1.794108720787335187e-05
-6.148932734504342079e-04
-2.308911178261041641e-03
-2.854244667105376720e-05
-2.950426824099849910e-05
5.542261988011887297e-06
-1.113402595365187153e-05
-8.141643484123051167e-04
1.646478580141774728e-07
-1.267837615159805864e-05
1.030345742947247345e-06
-7.735619874438270926e-06
-3.085035814365255646e-06
-7.864857907406985760e-04
-6.195299793034791946e-03
-2.014926758420187980e-05
1.115899749493109994e-06
1.102181727219431195e-06
1.266837671209941618e-06
1.299534196732565761e-04
-1.012814510613679886e-02
1.241079764440655708e-03
-2.783250238280743361e-06
-7.388953690679045394e-06
-3.294347334303893149e-05
-5.585483449976891279e-06
-6.689038127660751343e-04
-1.378410123288631439e-02
1.873186374723445624e-05
1.693994090601336211e-05
-8.706268999958410859e-06
-4.038060433231294155e-05
-8.207928040064871311e-04
4.992171307094395161e-05
3.008311432495247573e-05
2.576658698671963066e-05
-8.889311175153125077e-06
-8.305030060000717640e-04
7.887331776146311313e-06
-1.850460466812364757e-05
1.733248063828796148e-05
-1.966983290913049132e-05
-4.825060386792756617e-06
-7.719951099716126919e-04
-5.497516758623532951e-05
-3.233246752643026412e-05
9.692109415482264012e-06
2.657787035786896013e-06
-8.099406841211020947e-04
-1.662901740928646177e-05
-3.507867631924455054e-06
-3.333103450131602585e-05
-3.670340447570197284e-05
-8.049150346778333187e-04
4.347622962086461484e-05
1.354259984509553760e-05
2.878898703784216195e-05
-1.804845305741764605e-05
-8.381287916563451290e-04
1.416027089362614788e-06
9.206926733895670623e-06
-5.066729045211104676e-06
-3.437636769376695156e-05
-8.304846123792231083e-04
-3.905542598658939824e-06
-5.015593706048093736e-05
-1.968812102859374136e-05
-1.553363972561783157e-06
-7.962554809637367725e-04
-1.738657556416001171e-05
-5.905736543354578316e-06
-1.251492540177423507e-05
1.468989285058341920e-05
-8.271014667116105556e-04
1.997507206397131085e-05
-5.552426046051550657e-06
4.815136890101712197e-06
-3.568373358575627208e-06
-8.129829657264053822e-04
2.290618613187689334e-05
-2.657850200193934143e-05
-3.650012104117195122e-06
-3.192201256752014160e-05
-8.267425582744181156e-04
-5.534218416869407520e-06
4.211820851196534932e-06
-2.743877303146291524e-05
7.796585123287513852e-06
-7.909153937362134457e-04
-2.005759256462624762e-07
-2.023008892138022929e-05
-2.497732930351048708e-05
3.195970202796161175e-05
-7.987452554516494274e-04
-2.266884985147044063e-05
2.892826614697696641e-06
3.835392635664902627e-05
5.964180900264182128e-07
-8.705801446922123432e-04
8.826149496599100530e-06
1.173701275547500700e-05
2.882443004637025297e-05
1.405024158884771168e-05
-8.008073200471699238e-04
-2.074606709356885403e-05
-2.684151513676624745e-05
-4.200404873699881136e-05
-2.020709507633000612e-05
-8.034412167035043240e-04
2.253754610137548298e-05
2.332740405108779669e-05
-7.104505129973404109e-06
-1.677125510468613356e-05
-8.439402445219457150e-04
2.736810347414575517e-05
1.964420152944512665e-05
-1.607179910934064537e-05
8.433087714365683496e-06
3.603487974032759666e-03
4.403740149427903816e-06
-1.609839149750769138e-03
3.605793928727507591e-03
-7.159738452173769474e-04
7.470844138879328966e-07
-2.830465324223041534e-03
9.181064553558826447e-03
4.411518166307359934e-04
5.348474252969026566e-03
1.585676567628979683e-03
-2.696296542126219720e-05
1.528807682916522026e-03
-3.086020238697528839e-03
-3.484827699139714241e-03
-3.705655690282583237e-04
2.349015790969133377e-03
3.698985558003187180e-03
1.963612390682101250e-03
-4.524758551269769669e-03
3.601114032790064812e-03
1.756638870574533939e-03
1.451999065466225147e-03
3.249965608119964600e-03
6.715406198054552078e-03
1.507161185145378113e-02
-3.794866148382425308e-03
-6.730869412422180176e-03
-3.337251720950007439e-03
-2.516657346859574318e-03
2.810899633914232254e-03
-2.153096254914999008e-03
1.023771765176206827e-04
2.803162205964326859e-03
2.330284100025892258e-03
1.325507182627916336e-02
5.227057845331728458e-04
3.599804593250155449e-03
1.793643968994729221e-05
-1.645471551455557346e-03
3.592166816815733910e-03
1.154411438619717956e-05
-1.627665595151484013e-03
-8.265324286185204983e-04
-1.164756304206093773e-05
3.048385951842647046e-05
-3.231626578781288117e-06
3.021787233592476696e-05
-5.208074580878019333e-04
-1.824374521675053984e-05
-9.266959968954324722e-04
-5.482847336679697037e-04
1.929389196448028088e-03
5.230288952589035034e-03
-4.924328066408634186e-03
-9.718462242744863033e-04
-1.864293590188026428e-03
4.400489386171102524e-03
1.348423247691243887e-04
1.247119158506393433e-03
-8.218667935580015182e-04
9.515825659036636353e-03
-4.905535839498043060e-03
3.871513530611991882e-03
2.187203383073210716e-03
3.824485000222921371e-03
2.478824462741613388e-03
-2.054436597973108292e-03
-5.051624029874801636e-04
1.039446890354156494e-02
-4.916012752801179886e-03
-3.544050559867173433e-04
4.093020688742399216e-04
1.602775300852954388e-03
6.507324986159801483e-03
-5.654114065691828728e-04
2.344032051041722298e-03
-8.006673306226730347e-03
-8.995138923637568951e-04
4.439190030097961426e-03
-5.043382290750741959e-03
3.178039798513054848e-03
-6.851964164525270462e-03
7.946744561195373535e-03
1.368789654225111008e-02
-5.288084503263235092e-04
2.607698115753009915e-05
-9.001179132610559464e-04
-5.326501559466123581e-04
1.013552446238463745e-05
-9.037541458383202553e-04
-4.921089857816696167e-04
-9.261968079954385757e-04
-1.327311565546551719e-05
6.038818537490442395e-05
-3.981674126407597214e-06
-1.643308089114725590e-03
2.607417627586983144e-05
-1.122197718359529972e-03
-1.695158658549189568e-03
2.176624955609440804e-03
-3.531445749104022980e-03
-2.605208428576588631e-04
-3.386867232620716095e-03
-5.302111385390162468e-04
-2.040955470874905586e-03
1.464771456085145473e-03
-3.231563823646865785e-05
4.448840918485075235e-04
-3.597260685637593269e-03
6.780999246984720230e-03
-4.957859404385089874e-03
-4.520971328020095825e-03
7.490681018680334091e-03
-5.872980691492557526e-03
2.065431559458374977e-03
-1.693113474175333977e-03
1.309904037043452263e-03
-1.078569097444415092e-03
3.567359875887632370e-03
1.786704160622321069e-05
2.148257190128788352e-04
1.374914404004812241e-02
8.038997650146484375e-03
-4.051704425364732742e-03
-1.170886298496043310e-05
-1.688836258836090565e-03
-6.249502766877412796e-03
-1.044226228259503841e-03
1.242007419932633638e-05
-2.855459693819284439e-03
-2.088194247335195541e-03
9.080003364942967892e-04
-1.675807521678507328e-03
1.897533002193085849e-05
-1.138209714554250240e-03
-1.679120701737701893e-03
-9.399630471307318658e-06
-1.110031851567327976e-03
-1.704728929325938225e-03
6.009308435750426725e-06
-1.155720907263457775e-03
-1.377566422888776287e-05
2.979058990604244173e-05
-2.553272293880581856e-03
-3.581989585654810071e-05
-7.324254838749766350e-04
-2.501425566151738167e-03
-4.621218889951705933e-03
7.763369940221309662e-03
-2.331298543140292168e-03
2.771764702629297972e-04
2.015967154875397682e-03
1.437080791220068932e-03
6.212696462171152234e-06
-7.478471961803734303e-04
-2.165538462577387691e-04
3.063479904085397720e-03
-4.679637961089611053e-03
2.412448637187480927e-03
6.095697171986103058e-03
-3.024297999218106270e-03
1.885934849269688129e-03
1.671038451604545116e-03
-2.542584436014294624e-03
-2.634454518556594849e-03
-2.760817995294928551e-03
6.135566160082817078e-03
1.092883571982383728e-02
4.180190153419971466e-03
6.542569608427584171e-04
3.719906089827418327e-03
-3.574943169951438904e-03
-4.818738438189029694e-03
5.926200537942349911e-04
-4.294498648960143328e-04
9.689942999102640897e-06
8.548581972718238831e-04
7.712986320257186890e-03
-4.876652732491493225e-03
-9.023140184581279755e-03
-2.532939659431576729e-03
-1.481449817219981924e-05
-6.974126445129513741e-04
-2.535804407671093941e-03
2.080906597257126123e-05
-6.852966034784913063e-04
-2.535832347348332405e-03
6.358901828207308426e-06
1.924658863572403789e-05
-6.876147817820310593e-04
-3.825971361948177218e-06
-2.555766695877537131e-05
-8.317019673995673656e-04
-1.378702017973409966e-05
-1.894966408144682646e-05
-8.242303156293928623e-04
8.454378985334187746e-06
2.927125569840427488e-05
-2.231279358966276050e-05
5.482070832840690855e-07
-3.534395773385767825e-06
-1.472380245104432106e-05
6.944268079678295180e-06
1.317380065302131698e-05
-4.563334732665680349e-05
2.697260470085893758e-06
-1.593969864188693464e-05
-1.915056054713204503e-05
1.978977888938970864e-05
9.482732821197714657e-06
-3.512910916469991207e-05
1.779608464858029038e-05
-8.115908713079988956e-04
9.862716296993312426e-07
1.694856837275438011e-05
-5.256428266875445843e-05
1.282011567127483431e-06
-2.331291398149915040e-05
-4.964912022842327133e-06
1.608796810614876449e-05
-1.296783102588960901e-05
-3.040494266315363348e-05
-3.508489953674143180e-06
3.428051286391564645e-06
-4.247981632943265140e-05
1.277598585147643462e-05
1.949498073372524232e-05
-2.549817145336419344e-05
2.324155320820864290e-05
-8.126791217364370823e-04
2.098977711284533143e-05
-1.226542190124746412e-05
-8.076857193373143673e-04
-2.077942554024048150e-05
-1.353568950435146689e-05
-3.631443178164772689e-05
-3.273721631558146328e-06
6.642271728196647018e-06
-7.909980486147105694e-04
