0.000000000000000000e+00 0.000000000000000000e+00 0.000000000000000000e+00 0.000000000000000000e+00 0.000000000000000000e+00 -0.000000000000000000e+00 -0.000000000000000000e+00 0.000000000000000000e+00 0.000000000000000000e+00 -0.000000000000000000e+00 -0.000000000000000000e+00 0.000000000000000000e+00 0.000000000000000000e+00 0.000000000000000000e+00 -0.000000000000000000e+00 0.000000000000000000e+00 -0.000000000000000000e+00 0.000000000000000000e+00 0.000000000000000000e+00 0.000000000000000000e+00 -0.000000000000000000e+00 -0.000000000000000000e+00 0.000000000000000000e+00 0.000000000000000000e+00 0.000000000000000000e+00 0.000000000000000000e+00 0.000000000000000000e+00 0.000000000000000000e+00 -0.000000000000000000e+00 -0.000000000000000000e+00 -0.000000000000000000e+00 0.000000000000000000e+00 -0.000000000000000000e+00 0.000000000000000000e+00 0.000000000000000000e+00 0.000000000000000000e+00 0.000000000000000000e+00 -0.000000000000000000e+00 -0.000000000000000000e+00 -0.000000000000000000e+00 0.000000000000000000e+00 -0.000000000000000000e+00 -0.000000000000000000e+00 -0.000000000000000000e+00 0.000000000000000000e+00 -0.000000000000000000e+00 0.000000000000000000e+00 -0.000000000000000000e+00 0.000000000000000000e+00 -0.000000000000000000e+00 0.000000000000000000e+00 -0.000000000000000000e+00 -0.000000000000000000e+00 0.000000000000000000e+00 0.000000000000000000e+00 0.000000000000000000e+00 -0.000000000000000000e+00 -0.000000000000000000e+00 0.000000000000000000e+00 0.000000000000000000e+00 -0.000000000000000000e+00 0.000000000000000000e+00 -0.000000000000000000e+00 -0.000000000000000000e+00 -1.516052288934588432e-03 -1.527390559203922749e-03 -1.477745245210826397e-03 -1.524027902632951736e-03 -1.531758462078869343e-03 -1.515070558525621891e-03 -1.544371829368174076e-03 -1.544358325190842152e-03 -1.498244120739400387e-03 -1.531495014205574989e-03 -1.521994709037244320e-03 -1.527652610093355179e-03 -1.481767394579946995e-03 -1.486969296820461750e-03 -1.511395559646189213e-03 -1.543791615404188633e-03 -1.480293343774974346e-03 -1.500888261944055557e-03 -1.542630954645574093e-03 -1.531588030047714710e-03 -1.462145242840051651e-03 -1.524114282801747322e-03 -1.499711419455707073e-03 -1.511137466877698898e-03 -1.485923305153846741e-03 -1.529031083919107914e-03 -1.484619104303419590e-03 -1.502364873886108398e-03 -1.527726300992071629e-03 -1.513528637588024139e-03 -1.515847980044782162e-03 -1.465267967432737350e-03 -1.479329541325569153e-03 -1.497790799476206303e-03 -1.485310029238462448e-03 -1.521071884781122208e-03 -1.474018208682537079e-03 -1.540365512482821941e-03 -1.538518699817359447e-03 -1.506256987340748310e-03 -1.486480585299432278e-03 -1.512093818746507168e-03 -1.482927356846630573e-03 -1.509511959739029408e-03 -1.511080190539360046e-03 -1.536822412163019180e-03 -1.490985392592847347e-03 -1.529987785033881664e-03 -1.464706147089600563e-03 -1.523756887763738632e-03 -1.501193735748529434e-03 -1.519361161626875401e-03 -1.499927137047052383e-03 -1.529102679342031479e-03 -1.530107925646007061e-03 -1.502298517152667046e-03 -1.489231479354202747e-03 -1.532499911263585091e-03 -1.506227767094969749e-03 -1.502272905781865120e-03 -1.546185230836272240e-03 -1.481243292801082134e-03 -1.529366476461291313e-03 -1.533024245873093605e-03
0.000000000000000000e+00 -0.000000000000000000e+00 -0.000000000000000000e+00 0.000000000000000000e+00 0.000000000000000000e+00 0.000000000000000000e+00 -0.000000000000000000e+00 0.000000000000000000e+00 0.000000000000000000e+00 -0.000000000000000000e+00 0.000000000000000000e+00 -0.000000000000000000e+00 -0.000000000000000000e+00 -0.000000000000000000e+00 0.000000000000000000e+00 0.000000000000000000e+00 -0.000000000000000000e+00 -0.000000000000000000e+00 -0.000000000000000000e+00 -0.000000000000000000e+00 0.000000000000000000e+00 0.000000000000000000e+00 -0.000000000000000000e+00 -0.000000000000000000e+00 -0.000000000000000000e+00 0.000000000000000000e+00 0.000000000000000000e+00 0.000000000000000000e+00 -0.000000000000000000e+00 0.000000000000000000e+00 0.000000000000000000e+00 0.000000000000000000e+00 0.000000000000000000e+00 0.000000000000000000e+00 -0.000000000000000000e+00 -0.000000000000000000e+00 0.000000000000000000e+00 -0.000000000000000000e+00 -0.000000000000000000e+00 -0.000000000000000000e+00 -0.000000000000000000e+00 0.000000000000000000e+00 0.000000000000000000e+00 0.000000000000000000e+00 0.000000000000000000e+00 0.000000000000000000e+00 0.000000000000000000e+00 -0.000000000000000000e+00 0.000000000000000000e+00 0.000000000000000000e+00 0.000000000000000000e+00 0.000000000000000000e+00 0.000000000000000000e+00 0.000000000000000000e+00 0.000000000000000000e+00 -0.000000000000000000e+00 0.000000000000000000e+00 -0.000000000000000000e+00 -0.000000000000000000e+00 -0.000000000000000000e+00 0.000000000000000000e+00 -0.000000000000000000e+00 0.000000000000000000e+00 0.000000000000000000e+00 -1.195543063658988103e-05 -1.426953349437098950e-05 1.385093355565913953e-06 -4.387583612697198987e-05 -5.239132951828651130e-05 -4.399616955197416246e-05 -7.820566679583862424e-06 -5.660728129441849887e-05 -4.644518412533216178e-05 -1.474155760661233217e-05 -2.225574280600994825e-05 -2.492973544576670974e-05 -6.230457074707373977e-06 -5.735263039241544902e-05 -7.438849570462480187e-05 -3.471083618933334947e-05 -2.016848520725034177e-05 -4.699565761256963015e-05 -7.516620826208963990e-05 -4.432165042089764029e-06 -1.337592493655392900e-05 -5.522859282791614532e-05 -3.108013333985581994e-05 8.013471415324602276e-06 -2.080516060232184827e-05 -7.030031702015548944e-05 -4.386452201288193464e-05 5.987021722830832005e-06 -2.749639315879903734e-05 -3.077272413065657020e-05 -5.376637273002415895e-05 -1.434538626199355349e-05 -5.656516077578999102e-05 -2.858930565707851201e-05 -1.278461422771215439e-05 -2.236417094536591321e-05 -4.877033279626630247e-05 -3.424458191148005426e-05 -2.191996827605180442e-06 2.935810698545537889e-05 -5.677283115801401436e-05 -3.670416845125146210e-05 -2.279786713188514113e-05 -1.867016544565558434e-05 -1.015211910271318629e-05 1.328374401055043563e-05 -6.771488551748916507e-05 -9.799924737308174372e-05 -4.132231697440147400e-05 -4.732410889118909836e-05 1.967242133105173707e-05 -6.615972233703359962e-05 -8.331500430358573794e-05 -2.444546589686069638e-05 -1.574830457684583962e-05 -2.658688026713207364e-05 -6.841214781161397696e-05 -4.607654773280955851e-05 -1.988504300243221223e-05 -3.133104473818093538e-05 -2.474530447216238827e-05 -5.573059024754911661e-05 -1.454469656891888008e-05 -4.207675738143734634e-05
0.000000000000000000e+00 0.000000000000000000e+00 -0.000000000000000000e+00 0.000000000000000000e+00 0.000000000000000000e+00 0.000000000000000000e+00 0.000000000000000000e+00 -0.000000000000000000e+00 -0.000000000000000000e+00 -0.000000000000000000e+00 -0.000000000000000000e+00 -0.000000000000000000e+00 0.000000000000000000e+00 0.000000000000000000e+00 0.000000000000000000e+00 0.000000000000000000e+00 -0.000000000000000000e+00 0.000000000000000000e+00 0.000000000000000000e+00 0.000000000000000000e+00 0.000000000000000000e+00 0.000000000000000000e+00 -0.000000000000000000e+00 -0.000000000000000000e+00 -0.000000000000000000e+00 0.000000000000000000e+00 0.000000000000000000e+00 0.000000000000000000e+00 0.000000000000000000e+00 -0.000000000000000000e+00 0.000000000000000000e+00 0.000000000000000000e+00 0.000000000000000000e+00 0.000000000000000000e+00 0.000000000000000000e+00 0.000000000000000000e+00 -0.000000000000000000e+00 -0.000000000000000000e+00 0.000000000000000000e+00 -0.000000000000000000e+00 0.000000000000000000e+00 -0.000000000000000000e+00 -0.000000000000000000e+00 -0.000000000000000000e+00 -0.000000000000000000e+00 -0.000000000000000000e+00 0.000000000000000000e+00 -0.000000000000000000e+00 -0.000000000000000000e+00 -0.000000000000000000e+00 0.000000000000000000e+00 -0.000000000000000000e+00 0.000000000000000000e+00 0.000000000000000000e+00 0.000000000000000000e+00 -0.000000000000000000e+00 -0.000000000000000000e+00 -0.000000000000000000e+00 -0.000000000000000000e+00 0.000000000000000000e+00 -0.000000000000000000e+00 0.000000000000000000e+00 -0.000000000000000000e+00 -0.000000000000000000e+00 -1.763475942425429821e-03 -1.747214118950068951e-03 -1.772492774762213230e-03 -1.784610212780535221e-03 -1.769897295162081718e-03 -1.792609808035194874e-03 -1.749779214151203632e-03 -1.813830807805061340e-03 -1.696158898994326591e-03 -1.758633181452751160e-03 -1.701868721283972263e-03 -1.742315245792269707e-03 -1.720027532428503036e-03 -1.733912387862801552e-03 -1.752398675307631493e-03 -1.735255820676684380e-03 -1.803281833417713642e-03 -1.789080444723367691e-03 -1.681617461144924164e-03 -1.833889749832451344e-03 -1.751111121848225594e-03 -1.733737648464739323e-03 -1.756047247909009457e-03 -1.754998462274670601e-03 -1.773449825122952461e-03 -1.775037031620740891e-03 -1.795672113075852394e-03 -1.812484930269420147e-03 -1.794394804164767265e-03 -1.712114666588604450e-03 -1.676266547292470932e-03 -1.735990052111446857e-03 -1.732502947561442852e-03 -1.772434101440012455e-03 -1.717622624710202217e-03 -1.692491583526134491e-03 -1.778937410563230515e-03 -1.786729320883750916e-03 -1.751349540427327156e-03 -1.742474734783172607e-03 -1.780767226591706276e-03 -1.771994517184793949e-03 -1.755169592797756195e-03 -1.767286914400756359e-03 -1.775478012859821320e-03 -1.773716998286545277e-03 -1.776369521394371986e-03 -1.737470622174441814e-03 -1.807996653951704502e-03 -1.741116633638739586e-03 -1.726776245050132275e-03 -1.735402969643473625e-03 -1.747062196955084801e-03 -1.726288464851677418e-03 -1.708884490653872490e-03 -1.768363988958299160e-03 -1.748937531374394894e-03 -1.743462053127586842e-03 -1.762792235240340233e-03 -1.809241250157356262e-03 -1.744879991747438908e-03 -1.799044548533856869e-03 -1.795645337551832199e-03 -1.788272405974566936e-03
-0.000000000000000000e+00 -0.000000000000000000e+00 0.000000000000000000e+00 0.000000000000000000e+00 0.000000000000000000e+00 0.000000000000000000e+00 0.000000000000000000e+00 0.000000000000000000e+00 -0.000000000000000000e+00 0.000000000000000000e+00 0.000000000000000000e+00 -0.000000000000000000e+00 -0.000000000000000000e+00 -0.000000000000000000e+00 -0.000000000000000000e+00 -0.000000000000000000e+00 -0.000000000000000000e+00 -0.000000000000000000e+00 -0.000000000000000000e+00 0.000000000000000000e+00 -0.000000000000000000e+00 -0.000000000000000000e+00 -0.000000000000000000e+00 -0.000000000000000000e+00 0.000000000000000000e+00 -0.000000000000000000e+00 0.000000000000000000e+00 -0.000000000000000000e+00 0.000000000000000000e+00 0.000000000000000000e+00 -0.000000000000000000e+00 0.000000000000000000e+00 0.000000000000000000e+00 0.000000000000000000e+00 -0.000000000000000000e+00 -0.000000000000000000e+00 -0.000000000000000000e+00 -0.000000000000000000e+00 -0.000000000000000000e+00 -0.000000000000000000e+00 0.000000000000000000e+00 -0.000000000000000000e+00 0.000000000000000000e+00 -0.000000000000000000e+00 0.000000000000000000e+00 0.000000000000000000e+00 -0.000000000000000000e+00 0.000000000000000000e+00 -0.000000000000000000e+00 0.000000000000000000e+00 0.000000000000000000e+00 -0.000000000000000000e+00 -0.000000000000000000e+00 -0.000000000000000000e+00 -0.000000000000000000e+00 0.000000000000000000e+00 -0.000000000000000000e+00 -0.000000000000000000e+00 0.000000000000000000e+00 -0.000000000000000000e+00 -0.000000000000000000e+00 -0.000000000000000000e+00 -0.000000000000000000e+00 0.000000000000000000e+00 -1.589318155311048031e-03 -1.697598723694682121e-03 -1.732564414851367474e-03 -1.647520461119711399e-03 -1.752820913679897785e-03 -1.734605059027671814e-03 -1.522094244137406349e-03 -1.745684305205941200e-03 -1.778565812855958939e-03 -1.546618412248790264e-03 -1.689916709437966347e-03 -1.578559284098446369e-03 -7.600085809826850891e-04 -1.746768248267471790e-03 -1.707075629383325577e-03 -1.740976818837225437e-03 -1.447713235393166542e-03 -1.658009714446961880e-03 -1.755951670929789543e-03 -1.045224256813526154e-03 -1.393237500451505184e-03 -1.771443174220621586e-03 -1.691598212346434593e-03 -1.157897990196943283e-03 -1.683051930740475655e-03 -1.725126290693879128e-03 -1.617741887457668781e-03 -1.507662935182452202e-03 -6.325211725197732449e-04 -1.730305491946637630e-03 -1.767236157320439816e-03 -1.437871367670595646e-03 -1.717698411084711552e-03 -1.674305414780974388e-03 -1.619558548554778099e-03 -7.445045048370957375e-04 -1.477163517847657204e-03 -1.701241126284003258e-03 -1.737111830152571201e-03 -1.446791691705584526e-03 -1.736270263791084290e-03 -1.586671103723347187e-03 -1.591548672877252102e-03 -1.590188825502991676e-03 -1.709486357867717743e-03 -1.482119900174438953e-03 -1.712165074422955513e-03 -1.728575443848967552e-03 -1.701651606708765030e-03 -1.721471897326409817e-03 -3.775351506192237139e-04 -1.745954272337257862e-03 -1.720148720778524876e-03 -1.536670373752713203e-03 -1.735958387143909931e-03 -1.554431393742561340e-03 -1.737822312861680984e-03 -1.739038503728806973e-03 -1.653918996453285217e-03 -1.732447883114218712e-03 -1.720853731967508793e-03 -1.745458226650953293e-03 -1.496558426879346371e-03 -1.631565275602042675e-03
-0.000000000000000000e+00 -0.000000000000000000e+00 0.000000000000000000e+00 0.000000000000000000e+00 0.000000000000000000e+00 -0.000000000000000000e+00 0.000000000000000000e+00 -0.000000000000000000e+00 -0.000000000000000000e+00 -0.000000000000000000e+00 -0.000000000000000000e+00 -0.000000000000000000e+00 -0.000000000000000000e+00 -0.000000000000000000e+00 -0.000000000000000000e+00 -0.000000000000000000e+00 -0.000000000000000000e+00 -0.000000000000000000e+00 -0.000000000000000000e+00 0.000000000000000000e+00 0.000000000000000000e+00 -0.000000000000000000e+00 -0.000000000000000000e+00 0.000000000000000000e+00 0.000000000000000000e+00 -0.000000000000000000e+00 0.000000000000000000e+00 0.000000000000000000e+00 0.000000000000000000e+00 -0.000000000000000000e+00 -0.000000000000000000e+00 0.000000000000000000e+00 0.000000000000000000e+00 0.000000000000000000e+00 0.000000000000000000e+00 -0.000000000000000000e+00 0.000000000000000000e+00 0.000000000000000000e+00 0.000000000000000000e+00 -0.000000000000000000e+00 -0.000000000000000000e+00 -0.000000000000000000e+00 -0.000000000000000000e+00 0.000000000000000000e+00 -0.000000000000000000e+00 0.000000000000000000e+00 0.000000000000000000e+00 0.000000000000000000e+00 0.000000000000000000e+00 -0.000000000000000000e+00 0.000000000000000000e+00 0.000000000000000000e+00 0.000000000000000000e+00 0.000000000000000000e+00 0.000000000000000000e+00 -0.000000000000000000e+00 -0.000000000000000000e+00 0.000000000000000000e+00 0.000000000000000000e+00 -0.000000000000000000e+00 -0.000000000000000000e+00 -0.000000000000000000e+00 0.000000000000000000e+00 0.000000000000000000e+00 -1.516553224064409733e-03 -1.500210026279091835e-03 -1.548679778352379799e-03 -1.486709224991500378e-03 -1.483298954553902149e-03 -1.460523228161036968e-03 -1.498151104897260666e-03 -1.464722445234656334e-03 -1.510789967142045498e-03 -1.469879643991589546e-03 -1.502203056588768959e-03 -1.501191291026771069e-03 -1.481445506215095520e-03 -1.535828108899295330e-03 -1.504522282630205154e-03 -1.465227804146707058e-03 -1.504964893683791161e-03 -1.505374093540012836e-03 -1.485274056904017925e-03 -1.492748036980628967e-03 -1.521197031252086163e-03 -1.490744180046021938e-03 -1.530137611553072929e-03 -1.505179912783205509e-03 -1.494799391366541386e-03 -1.467006164602935314e-03 -1.532807596959173679e-03 -1.502468483522534370e-03 -1.498399069532752037e-03 -1.498740399256348610e-03 -1.486290595494210720e-03 -1.484937616623938084e-03 -1.504841144196689129e-03 -1.485489192418754101e-03 -1.462792977690696716e-03 -1.525070983916521072e-03 -1.487909117713570595e-03 -1.508415443822741508e-03 -1.466181478463113308e-03 -1.491786330007016659e-03 -1.467503025196492672e-03 -1.484084874391555786e-03 -1.476544188335537910e-03 -1.446310780011117458e-03 -1.478552585467696190e-03 -1.483971485868096352e-03 -1.485802931711077690e-03 -1.496971817687153816e-03 -1.493070274591445923e-03 -1.502369297668337822e-03 -1.510980422608554363e-03 -1.493408344686031342e-03 -1.544630154967308044e-03 -1.506985048763453960e-03 -1.506031956523656845e-03 -1.474042772315442562e-03 -1.516098855063319206e-03 -1.521590165793895721e-03 -1.518859760835766792e-03 -1.497744582593441010e-03 -1.517703407444059849e-03 -1.508707646280527115e-03 -1.476909383200109005e-03 -1.534256152808666229e-03
0.000000000000000000e+00 -0.000000000000000000e+00 0.000000000000000000e+00 0.000000000000000000e+00 -0.000000000000000000e+00 0.000000000000000000e+00 0.000000000000000000e+00 -0.000000000000000000e+00 0.000000000000000000e+00 -0.000000000000000000e+00 -0.000000000000000000e+00 -0.000000000000000000e+00 -0.000000000000000000e+00 -0.000000000000000000e+00 -0.000000000000000000e+00 -0.000000000000000000e+00 -0.000000000000000000e+00 -0.000000000000000000e+00 0.000000000000000000e+00 0.000000000000000000e+00 -0.000000000000000000e+00 -0.000000000000000000e+00 -0.000000000000000000e+00 -0.000000000000000000e+00 0.000000000000000000e+00 -0.000000000000000000e+00 0.000000000000000000e+00 -0.000000000000000000e+00 0.000000000000000000e+00 -0.000000000000000000e+00 0.000000000000000000e+00 -0.000000000000000000e+00 -0.000000000000000000e+00 0.000000000000000000e+00 0.000000000000000000e+00 0.000000000000000000e+00 0.000000000000000000e+00 -0.000000000000000000e+00 -0.000000000000000000e+00 -0.000000000000000000e+00 -0.000000000000000000e+00 -0.000000000000000000e+00 -0.000000000000000000e+00 -0.000000000000000000e+00 -0.000000000000000000e+00 0.000000000000000000e+00 0.000000000000000000e+00 0.000000000000000000e+00 -0.000000000000000000e+00 -0.000000000000000000e+00 -0.000000000000000000e+00 -0.000000000000000000e+00 -0.000000000000000000e+00 -0.000000000000000000e+00 0.000000000000000000e+00 -0.000000000000000000e+00 -0.000000000000000000e+00 0.000000000000000000e+00 0.000000000000000000e+00 0.000000000000000000e+00 -0.000000000000000000e+00 -0.000000000000000000e+00 0.000000000000000000e+00 0.000000000000000000e+00 -1.875337911769747734e-03 -1.830789959058165550e-03 -1.806405838578939438e-03 -1.805568695999681950e-03 -1.814469695091247559e-03 -1.842117635533213615e-03 -1.794365234673023224e-03 -1.848408486694097519e-03 -1.870764186605811119e-03 -1.862453063949942589e-03 -1.827528118155896664e-03 -1.845823833718895912e-03 -1.837248913943767548e-03 -1.867577666416764259e-03 -1.893695909529924393e-03 -1.814372488297522068e-03 -1.864043297246098518e-03 -1.825906103476881981e-03 -1.850780448876321316e-03 -1.865633996203541756e-03 -1.857200753875076771e-03 -1.845924067310988903e-03 -1.852635177783668041e-03 -1.847734907642006874e-03 -1.822809572331607342e-03 -1.815955038182437420e-03 -1.873106346465647221e-03 -1.865851110778748989e-03 -1.834688591770827770e-03 -1.829585875384509563e-03 -1.830832683481276035e-03 -1.846530474722385406e-03 -1.830625114962458611e-03 -1.852724817581474781e-03 -1.811795518733561039e-03 -1.852764631621539593e-03 -1.899130525998771191e-03 -1.898372196592390537e-03 -1.849825261160731316e-03 -1.842215657234191895e-03 -1.847855979576706886e-03 -1.797723583877086639e-03 -1.840775366872549057e-03 -1.827661646530032158e-03 -1.851134351454675198e-03 -1.850696629844605923e-03 -1.857225899584591389e-03 -1.809892826713621616e-03 -1.821679179556667805e-03 -1.874195877462625504e-03 -1.873276662081480026e-03 -1.900767791084945202e-03 -1.901968149468302727e-03 -1.848483341746032238e-03 -1.834166352637112141e-03 -1.866274513304233551e-03 -1.861460623331367970e-03 -1.843556761741638184e-03 -1.837588497437536716e-03 -1.869108760729432106e-03 -1.842579804360866547e-03 -1.877534552477300167e-03 -1.839764299802482128e-03 -1.790069509297609329e-03
-0.000000000000000000e+00 0.000000000000000000e+00 -0.000000000000000000e+00 0.000000000000000000e+00 -0.000000000000000000e+00 -0.000000000000000000e+00 0.000000000000000000e+00 0.000000000000000000e+00 0.000000000000000000e+00 -0.000000000000000000e+00 -0.000000000000000000e+00 0.000000000000000000e+00 -0.000000000000000000e+00 -0.000000000000000000e+00 0.000000000000000000e+00 -0.000000000000000000e+00 0.000000000000000000e+00 -0.000000000000000000e+00 -0.000000000000000000e+00 -0.000000000000000000e+00 0.000000000000000000e+00 -0.000000000000000000e+00 0.000000000000000000e+00 0.000000000000000000e+00 -0.000000000000000000e+00 0.000000000000000000e+00 -0.000000000000000000e+00 -0.000000000000000000e+00 -0.000000000000000000e+00 -0.000000000000000000e+00 0.000000000000000000e+00 -0.000000000000000000e+00 0.000000000000000000e+00 0.000000000000000000e+00 0.000000000000000000e+00 -0.000000000000000000e+00 -0.000000000000000000e+00 -0.000000000000000000e+00 0.000000000000000000e+00 0.000000000000000000e+00 -0.000000000000000000e+00 -0.000000000000000000e+00 -0.000000000000000000e+00 0.000000000000000000e+00 -0.000000000000000000e+00 0.000000000000000000e+00 0.000000000000000000e+00 -0.000000000000000000e+00 0.000000000000000000e+00 0.000000000000000000e+00 -0.000000000000000000e+00 0.000000000000000000e+00 0.000000000000000000e+00 0.000000000000000000e+00 -0.000000000000000000e+00 0.000000000000000000e+00 -0.000000000000000000e+00 -0.000000000000000000e+00 -0.000000000000000000e+00 -0.000000000000000000e+00 0.000000000000000000e+00 -0.000000000000000000e+00 -0.000000000000000000e+00 -0.000000000000000000e+00 -1.521589467301964760e-03 -1.563539146445691586e-03 -1.522201695479452610e-03 -1.532157766632735729e-03 -1.533312140963971615e-03 -1.545798033475875854e-03 -1.530372304841876030e-03 -1.562090474180877209e-03 -1.542891724966466427e-03 -1.566824852488934994e-03 -1.488516340032219887e-03 -1.568974927067756653e-03 -1.536769093945622444e-03 -1.511851558461785316e-03 -1.529928180389106274e-03 -1.509743044152855873e-03 -1.553846755996346474e-03 -1.543545746244490147e-03 -1.536593423224985600e-03 -1.529056928120553493e-03 -1.548386760987341404e-03 -1.561707700602710247e-03 -1.534074428491294384e-03 -1.516674528829753399e-03 -1.545578939840197563e-03 -1.553031848743557930e-03 -1.557058305479586124e-03 -1.541777979582548141e-03 -1.541878213174641132e-03 -1.532284775748848915e-03 -1.524759572930634022e-03 -1.538305310532450676e-03 -1.520707854069769382e-03 -1.528418390080332756e-03 -1.546708750538527966e-03 -1.546141807921230793e-03 -1.527099753729999065e-03 -1.529598375782370567e-03 -1.536668394692242146e-03 -1.512590912170708179e-03 -1.531660323962569237e-03 -1.535458024591207504e-03 -1.547853695228695869e-03 -1.516313757747411728e-03 -1.519775250926613808e-03 -1.544771250337362289e-03 -1.557579496875405312e-03 -1.531264279037714005e-03 -1.538494951091706753e-03 -1.510462607257068157e-03 -1.571489498019218445e-03 -1.541462959721684456e-03 -1.536611351184546947e-03 -1.515524461865425110e-03 -1.541540841571986675e-03 -1.555300666950643063e-03 -1.542542595416307449e-03 -1.506539294496178627e-03 -1.574993715621531010e-03 -1.568386447615921497e-03 -1.552152330987155437e-03 -1.571739674545824528e-03 -1.503198873251676559e-03 -1.546896179206669331e-03
0.000000000000000000e+00 -0.000000000000000000e+00 0.000000000000000000e+00 -0.000000000000000000e+00 0.000000000000000000e+00 -0.000000000000000000e+00 0.000000000000000000e+00 0.000000000000000000e+00 0.000000000000000000e+00 -0.000000000000000000e+00 -0.000000000000000000e+00 0.000000000000000000e+00 -0.000000000000000000e+00 -0.000000000000000000e+00 -0.000000000000000000e+00 0.000000000000000000e+00 -0.000000000000000000e+00 0.000000000000000000e+00 -0.000000000000000000e+00 -0.000000000000000000e+00 0.000000000000000000e+00 0.000000000000000000e+00 0.000000000000000000e+00 -0.000000000000000000e+00 0.000000000000000000e+00 -0.000000000000000000e+00 0.000000000000000000e+00 -0.000000000000000000e+00 0.000000000000000000e+00 0.000000000000000000e+00 0.000000000000000000e+00 0.000000000000000000e+00 -0.000000000000000000e+00 -0.000000000000000000e+00 -0.000000000000000000e+00 0.000000000000000000e+00 0.000000000000000000e+00 -0.000000000000000000e+00 0.000000000000000000e+00 0.000000000000000000e+00 -0.000000000000000000e+00 0.000000000000000000e+00 0.000000000000000000e+00 -0.000000000000000000e+00 -0.000000000000000000e+00 -0.000000000000000000e+00 -0.000000000000000000e+00 -0.000000000000000000e+00 0.000000000000000000e+00 -0.000000000000000000e+00 -0.000000000000000000e+00 0.000000000000000000e+00 0.000000000000000000e+00 0.000000000000000000e+00 0.000000000000000000e+00 0.000000000000000000e+00 0.000000000000000000e+00 -0.000000000000000000e+00 0.000000000000000000e+00 0.000000000000000000e+00 0.000000000000000000e+00 -0.000000000000000000e+00 0.000000000000000000e+00 0.000000000000000000e+00 -1.631418592296540737e-03 -1.719077350571751595e-03 -1.675682608038187027e-03 -1.719727762974798679e-03 -1.749980146996676922e-03 -1.710396958515048027e-03 -1.500947517342865467e-03 -1.774686621502041817e-03 -1.779144862666726112e-03 -1.575783593580126762e-03 -1.713630510494112968e-03 -1.569009618833661079e-03 -8.040965767577290535e-04 -1.765896216966211796e-03 -1.706513343378901482e-03 -1.740530133247375488e-03 -1.450362149626016617e-03 -1.636446337215602398e-03 -1.740426057949662209e-03 -1.092506805434823036e-03 -1.381822046823799610e-03 -1.748688402585685253e-03 -1.693125814199447632e-03 -1.166801666840910912e-03 -1.686480711214244366e-03 -1.734990859404206276e-03 -1.582675147801637650e-03 -1.543827587738633156e-03 -6.702392711304128170e-04 -1.743274857290089130e-03 -1.772928633727133274e-03 -1.417607418261468410e-03 -1.773169846273958683e-03 -1.719170599244534969e-03 -1.635348889976739883e-03 -7.194282952696084976e-04 -1.475292257964611053e-03 -1.707207178696990013e-03 -1.756076002493500710e-03 -1.434082514606416225e-03 -1.710609300062060356e-03 -1.557869953103363514e-03 -1.617090078070759773e-03 -1.577203976921737194e-03 -1.702286535874009132e-03 -1.497425138950347900e-03 -1.692813355475664139e-03 -1.756926183588802814e-03 -1.716091879643499851e-03 -1.745369518175721169e-03 -3.464299952611327171e-04 -1.724898000247776508e-03 -1.732420874759554863e-03 -1.475964440032839775e-03 -1.751765725202858448e-03 -1.573513378389179707e-03 -1.738630700856447220e-03 -1.715942169539630413e-03 -1.677530119195580482e-03 -1.720573636703193188e-03 -1.694814418442547321e-03 -1.751007162965834141e-03 -1.509524532593786716e-03 -1.631498103961348534e-03
0.000000000000000000e+00 0.000000000000000000e+00 -0.000000000000000000e+00 0.000000000000000000e+00 -0.000000000000000000e+00 -0.000000000000000000e+00 0.000000000000000000e+00 -0.000000000000000000e+00 -0.000000000000000000e+00 0.000000000000000000e+00 0.000000000000000000e+00 0.000000000000000000e+00 0.000000000000000000e+00 -0.000000000000000000e+00 0.000000000000000000e+00 0.000000000000000000e+00 -0.000000000000000000e+00 -0.000000000000000000e+00 -0.000000000000000000e+00 0.000000000000000000e+00 -0.000000000000000000e+00 -0.000000000000000000e+00 0.000000000000000000e+00 0.000000000000000000e+00 0.000000000000000000e+00 0.000000000000000000e+00 -0.000000000000000000e+00 -0.000000000000000000e+00 0.000000000000000000e+00 0.000000000000000000e+00 -0.000000000000000000e+00 0.000000000000000000e+00 -0.000000000000000000e+00 0.000000000000000000e+00 0.000000000000000000e+00 -0.000000000000000000e+00 0.000000000000000000e+00 0.000000000000000000e+00 -0.000000000000000000e+00 -0.000000000000000000e+00 0.000000000000000000e+00 -0.000000000000000000e+00 0.000000000000000000e+00 -0.000000000000000000e+00 0.000000000000000000e+00 -0.000000000000000000e+00 -0.000000000000000000e+00 0.000000000000000000e+00 -0.000000000000000000e+00 -0.000000000000000000e+00 0.000000000000000000e+00 -0.000000000000000000e+00 0.000000000000000000e+00 -0.000000000000000000e+00 0.000000000000000000e+00 0.000000000000000000e+00 0.000000000000000000e+00 -0.000000000000000000e+00 -0.000000000000000000e+00 0.000000000000000000e+00 -0.000000000000000000e+00 -0.000000000000000000e+00 0.000000000000000000e+00 0.000000000000000000e+00 -1.636748784221708775e-03 -1.692094374448060989e-03 -1.727378461509943008e-03 -1.690319855697453022e-03 -1.734618213959038258e-03 -1.703852554783225060e-03 -1.519063487648963928e-03 -1.720200642012059689e-03 -1.736199599690735340e-03 -1.591953332535922527e-03 -1.725756097584962845e-03 -1.586548634804785252e-03 -7.256205426529049873e-04 -1.736054779030382633e-03 -1.749532530084252357e-03 -1.719616935588419437e-03 -1.495948527008295059e-03 -1.650866703130304813e-03 -1.745277550071477890e-03 -1.088917255401611328e-03 -1.415932900272309780e-03 -1.747707137838006020e-03 -1.663842704147100449e-03 -1.154929166659712791e-03 -1.713466015644371510e-03 -1.717292470857501030e-03 -1.578229013830423355e-03 -1.496765413321554661e-03 -6.721930112689733505e-04 -1.718229497782886028e-03 -1.727059832774102688e-03 -1.447445130906999111e-03 -1.721311360597610474e-03 -1.716076279990375042e-03 -1.608195365406572819e-03 -7.396233268082141876e-04 -1.505461405031383038e-03 -1.695335377007722855e-03 -1.717319129966199398e-03 -1.413116464391350746e-03 -1.727424096316099167e-03 -1.627160352654755116e-03 -1.615210319869220257e-03 -1.632311381399631500e-03 -1.638331217691302299e-03 -1.520893536508083344e-03 -1.725768204778432846e-03 -1.734315883368253708e-03 -1.699428190477192402e-03 -1.744641223922371864e-03 -3.884965844918042421e-04 -1.742551685310900211e-03 -1.746780704706907272e-03 -1.528381137177348137e-03 -1.734373858198523521e-03 -1.590844825841486454e-03 -1.758235506713390350e-03 -1.756536890752613544e-03 -1.687536947429180145e-03 -1.726085203699767590e-03 -1.697067054919898510e-03 -1.728440052829682827e-03 -1.481309067457914352e-03 -1.654006657190620899e-03
0.000000000000000000e+00 0.000000000000000000e+00 -0.000000000000000000e+00 -0.000000000000000000e+00 0.000000000000000000e+00 -0.000000000000000000e+00 0.000000000000000000e+00 0.000000000000000000e+00 -0.000000000000000000e+00 0.000000000000000000e+00 -0.000000000000000000e+00 0.000000000000000000e+00 0.000000000000000000e+00 -0.000000000000000000e+00 0.000000000000000000e+00 -0.000000000000000000e+00 0.000000000000000000e+00 0.000000000000000000e+00 0.000000000000000000e+00 0.000000000000000000e+00 -0.000000000000000000e+00 -0.000000000000000000e+00 0.000000000000000000e+00 -0.000000000000000000e+00 0.000000000000000000e+00 -0.000000000000000000e+00 0.000000000000000000e+00 0.000000000000000000e+00 -0.000000000000000000e+00 0.000000000000000000e+00 0.000000000000000000e+00 0.000000000000000000e+00 0.000000000000000000e+00 -0.000000000000000000e+00 0.000000000000000000e+00 -0.000000000000000000e+00 0.000000000000000000e+00 -0.000000000000000000e+00 0.000000000000000000e+00 -0.000000000000000000e+00 -0.000000000000000000e+00 0.000000000000000000e+00 -0.000000000000000000e+00 0.000000000000000000e+00 0.000000000000000000e+00 -0.000000000000000000e+00 -0.000000000000000000e+00 -0.000000000000000000e+00 0.000000000000000000e+00 -0.000000000000000000e+00 0.000000000000000000e+00 -0.000000000000000000e+00 -0.000000000000000000e+00 0.000000000000000000e+00 -0.000000000000000000e+00 -0.000000000000000000e+00 0.000000000000000000e+00 -0.000000000000000000e+00 -0.000000000000000000e+00 -0.000000000000000000e+00 -0.000000000000000000e+00 -0.000000000000000000e+00 0.000000000000000000e+00 -0.000000000000000000e+00 -1.678754226304590702e-03 -1.647318713366985321e-03 -1.670454395934939384e-03 -1.696370076388120651e-03 -1.683916430920362473e-03 -1.748731476254761219e-03 -1.773841329850256443e-03 -1.711402554064989090e-03 -1.640838920138776302e-03 -1.697313971817493439e-03 -1.669268356636166573e-03 -1.732264412567019463e-03 -1.661894726566970348e-03 -1.693071564659476280e-03 -1.658032764680683613e-03 -1.664815586991608143e-03 -1.718962448649108410e-03 -1.721572829410433769e-03 -1.715073012746870518e-03 -1.662256196141242981e-03 -1.677203224971890450e-03 -1.606341102160513401e-03 -1.672666752710938454e-03 -1.742873457260429859e-03 -1.732772565446794033e-03 -1.626032637432217598e-03 -1.698262873105704784e-03 -1.736059552058577538e-03 -1.719542196951806545e-03 -1.671533333137631416e-03 -1.684115501120686531e-03 -1.705093309283256531e-03 -1.694454695098102093e-03 -1.689811702817678452e-03 -1.664626644924283028e-03 -1.639812602661550045e-03 -1.745894202031195164e-03 -1.712530618533492088e-03 -1.683214446529746056e-03 -1.682957285083830357e-03 -1.664660405367612839e-03 -1.706040930002927780e-03 -1.693465397693216801e-03 -1.725891721434891224e-03 -1.694523147307336330e-03 -1.656178617849946022e-03 -1.709523261524736881e-03 -1.682191505096852779e-03 -1.699352986179292202e-03 -1.661933609284460545e-03 -1.716783968731760979e-03 -1.727351336739957333e-03 -1.681272522546350956e-03 -1.699053682386875153e-03 -1.684507355093955994e-03 -1.693325932137668133e-03 -1.653669285587966442e-03 -1.671766978688538074e-03 -1.748147304169833660e-03 -1.723816269077360630e-03 -1.700702356174588203e-03 -1.723302411846816540e-03 -1.743067870847880840e-03 -1.743495813570916653e-03
-0.000000000000000000e+00 -0.000000000000000000e+00 -0.000000000000000000e+00 0.000000000000000000e+00 -0.000000000000000000e+00 -0.000000000000000000e+00 -0.000000000000000000e+00 -0.000000000000000000e+00 0.000000000000000000e+00 -0.000000000000000000e+00 0.000000000000000000e+00 -0.000000000000000000e+00 0.000000000000000000e+00 -0.000000000000000000e+00 -0.000000000000000000e+00 0.000000000000000000e+00 0.000000000000000000e+00 0.000000000000000000e+00 -0.000000000000000000e+00 0.000000000000000000e+00 0.000000000000000000e+00 -0.000000000000000000e+00 0.000000000000000000e+00 -0.000000000000000000e+00 -0.000000000000000000e+00 0.000000000000000000e+00 0.000000000000000000e+00 0.000000000000000000e+00 0.000000000000000000e+00 -0.000000000000000000e+00 -0.000000000000000000e+00 -0.000000000000000000e+00 0.000000000000000000e+00 -0.000000000000000000e+00 0.000000000000000000e+00 0.000000000000000000e+00 -0.000000000000000000e+00 -0.000000000000000000e+00 -0.000000000000000000e+00 -0.000000000000000000e+00 0.000000000000000000e+00 0.000000000000000000e+00 -0.000000000000000000e+00 0.000000000000000000e+00 0.000000000000000000e+00 0.000000000000000000e+00 -0.000000000000000000e+00 0.000000000000000000e+00 -0.000000000000000000e+00 0.000000000000000000e+00 0.000000000000000000e+00 -0.000000000000000000e+00 -0.000000000000000000e+00 -0.000000000000000000e+00 -0.000000000000000000e+00 0.000000000000000000e+00 0.000000000000000000e+00 -0.000000000000000000e+00 -0.000000000000000000e+00 0.000000000000000000e+00 0.000000000000000000e+00 -0.000000000000000000e+00 -0.000000000000000000e+00 0.000000000000000000e+00 -1.616670866496860981e-03 -1.733320299535989761e-03 -1.721615321002900600e-03 -1.690267003141343594e-03 -1.764064421877264977e-03 -1.737376442179083824e-03 -1.538762007839977741e-03 -1.737616956233978271e-03 -1.745875226333737373e-03 -1.573593588545918465e-03 -1.718742540106177330e-03 -1.587353530339896679e-03 -7.537272758781909943e-04 -1.717459759674966335e-03 -1.760284183546900749e-03 -1.776614575646817684e-03 -1.461618812754750252e-03 -1.676640240475535393e-03 -1.695368904620409012e-03 -1.051299273967742920e-03 -1.437678351067006588e-03 -1.744577777571976185e-03 -1.680634333752095699e-03 -1.172509742900729179e-03 -1.724134315736591816e-03 -1.727027003653347492e-03 -1.575042610056698322e-03 -1.483332947827875614e-03 -6.815113592892885208e-04 -1.738864346407353878e-03 -1.740852836519479752e-03 -1.444354071281850338e-03 -1.712446101009845734e-03 -1.719764550216495991e-03 -1.623030402697622776e-03 -7.402212359011173248e-04 -1.491534640081226826e-03 -1.715126214548945427e-03 -1.715978840366005898e-03 -1.509728026576340199e-03 -1.728818519040942192e-03 -1.534641953185200691e-03 -1.632716273888945580e-03 -1.586294150911271572e-03 -1.703560352325439453e-03 -1.534040551632642746e-03 -1.737123820930719376e-03 -1.733216107822954655e-03 -1.690324046649038792e-03 -1.748302951455116272e-03 -4.151479515712708235e-04 -1.729195355437695980e-03 -1.701665110886096954e-03 -1.501058693975210190e-03 -1.725401380099356174e-03 -1.551867462694644928e-03 -1.761047635227441788e-03 -1.739348168484866619e-03 -1.700043445453047752e-03 -1.746489782817661762e-03 -1.699380693025887012e-03 -1.683997921645641327e-03 -1.479587866924703121e-03 -1.656248583458364010e-03
-0.000000000000000000e+00 -0.000000000000000000e+00 -0.000000000000000000e+00 0.000000000000000000e+00 0.000000000000000000e+00 0.000000000000000000e+00 0.000000000000000000e+00 -0.000000000000000000e+00 -0.000000000000000000e+00 -0.000000000000000000e+00 0.000000000000000000e+00 -0.000000000000000000e+00 0.000000000000000000e+00 -0.000000000000000000e+00 -0.000000000000000000e+00 0.000000000000000000e+00 -0.000000000000000000e+00 -0.000000000000000000e+00 0.000000000000000000e+00 0.000000000000000000e+00 0.000000000000000000e+00 0.000000000000000000e+00 -0.000000000000000000e+00 0.000000000000000000e+00 0.000000000000000000e+00 -0.000000000000000000e+00 -0.000000000000000000e+00 -0.000000000000000000e+00 0.000000000000000000e+00 -0.000000000000000000e+00 -0.000000000000000000e+00 -0.000000000000000000e+00 -0.000000000000000000e+00 -0.000000000000000000e+00 -0.000000000000000000e+00 0.000000000000000000e+00 -0.000000000000000000e+00 -0.000000000000000000e+00 0.000000000000000000e+00 0.000000000000000000e+00 -0.000000000000000000e+00 0.000000000000000000e+00 0.000000000000000000e+00 0.000000000000000000e+00 -0.000000000000000000e+00 -0.000000000000000000e+00 0.000000000000000000e+00 0.000000000000000000e+00 0.000000000000000000e+00 -0.000000000000000000e+00 0.000000000000000000e+00 0.000000000000000000e+00 -0.000000000000000000e+00 0.000000000000000000e+00 -0.000000000000000000e+00 0.000000000000000000e+00 0.000000000000000000e+00 -0.000000000000000000e+00 0.000000000000000000e+00 -0.000000000000000000e+00 -0.000000000000000000e+00 -0.000000000000000000e+00 0.000000000000000000e+00 0.000000000000000000e+00 -6.022072630003094673e-04 -6.257459754124283791e-04 -8.627368370071053505e-04 -8.465209975838661194e-04 -1.069689285941421986e-03 -9.485434857197105885e-04 -5.334350862540304661e-04 -1.077877357602119446e-03 -1.111556310206651688e-03 -5.038946401327848434e-04 -8.543067378923296928e-04 -3.471710951998829842e-04 -1.838117022998631001e-04 -1.114267623052000999e-03 -1.126270042732357979e-03 -1.093284459784626961e-03 -5.528774927370250225e-04 -3.852363443002104759e-04 -1.079947338439524174e-03 -1.157905862783081830e-04 -3.335467190481722355e-04 -1.122841960750520229e-03 -7.607715087942779064e-04 -3.228542045690119267e-04 -8.525215671397745609e-04 -9.814403019845485687e-04 -5.443205591291189194e-04 -3.567880194168537855e-04 -5.381969458539970219e-05 -1.079117879271507263e-03 -1.101242611184716225e-03 -3.343837452121078968e-04 -1.064338604919612408e-03 -9.022196172736585140e-04 -5.719292093999683857e-04 -3.102951814071275294e-05 -5.048458115197718143e-04 -8.157973061315715313e-04 -8.694509160704910755e-04 -2.925796725321561098e-04 -9.671904263086616993e-04 -4.777678113896399736e-04 -4.659337282646447420e-04 -4.333741962909698486e-04 -6.073914701119065285e-04 -3.129286924377083778e-04 -9.301700047217309475e-04 -1.117950305342674255e-03 -7.426553056575357914e-04 -9.768947493284940720e-04 -1.142162000178359449e-05 -1.132315723225474358e-03 -1.090105390176177025e-03 -3.666226402856409550e-04 -1.067378325387835503e-03 -5.330721614882349968e-04 -1.141191110946238041e-03 -1.090128789655864239e-03 -8.659440791234374046e-04 -1.044255681335926056e-03 -8.873038459569215775e-04 -9.700306691229343414e-04 -2.197907451773062348e-04 -6.083117914386093616e-04
-0.000000000000000000e+00 0.000000000000000000e+00 0.000000000000000000e+00 0.000000000000000000e+00 -0.000000000000000000e+00 -0.000000000000000000e+00 -0.000000000000000000e+00 -0.000000000000000000e+00 -0.000000000000000000e+00 0.000000000000000000e+00 -0.000000000000000000e+00 -0.000000000000000000e+00 0.000000000000000000e+00 0.000000000000000000e+00 -0.000000000000000000e+00 -0.000000000000000000e+00 0.000000000000000000e+00 -0.000000000000000000e+00 0.000000000000000000e+00 0.000000000000000000e+00 -0.000000000000000000e+00 -0.000000000000000000e+00 0.000000000000000000e+00 0.000000000000000000e+00 0.000000000000000000e+00 0.000000000000000000e+00 0.000000000000000000e+00 -0.000000000000000000e+00 0.000000000000000000e+00 0.000000000000000000e+00 0.000000000000000000e+00 0.000000000000000000e+00 -0.000000000000000000e+00 -0.000000000000000000e+00 0.000000000000000000e+00 0.000000000000000000e+00 -0.000000000000000000e+00 0.000000000000000000e+00 0.000000000000000000e+00 0.000000000000000000e+00 -0.000000000000000000e+00 0.000000000000000000e+00 0.000000000000000000e+00 0.000000000000000000e+00 0.000000000000000000e+00 0.000000000000000000e+00 -0.000000000000000000e+00 0.000000000000000000e+00 -0.000000000000000000e+00 0.000000000000000000e+00 0.000000000000000000e+00 -0.000000000000000000e+00 0.000000000000000000e+00 0.000000000000000000e+00 -0.000000000000000000e+00 -0.000000000000000000e+00 -0.000000000000000000e+00 -0.000000000000000000e+00 -0.000000000000000000e+00 -0.000000000000000000e+00 -0.000000000000000000e+00 -0.000000000000000000e+00 -0.000000000000000000e+00 0.000000000000000000e+00 -1.715684193186461926e-03 -1.722015440464019775e-03 -1.685120398178696632e-03 -1.711272750981152058e-03 -1.704996451735496521e-03 -1.740860985592007637e-03 -1.772722811438143253e-03 -1.741630141623318195e-03 -1.689196797087788582e-03 -1.677789725363254547e-03 -1.649934332817792892e-03 -1.684155897237360477e-03 -1.669626915827393532e-03 -1.764531014487147331e-03 -1.717840204946696758e-03 -1.701242523267865181e-03 -1.732172677293419838e-03 -1.703985035419464111e-03 -1.699108281172811985e-03 -1.730128424242138863e-03 -1.682209083810448647e-03 -1.679296256043016911e-03 -1.635486260056495667e-03 -1.692399964667856693e-03 -1.645958516746759415e-03 -1.678375410847365856e-03 -1.665815012529492378e-03 -1.764424145221710205e-03 -1.723121735267341137e-03 -1.669095130637288094e-03 -1.688868389464914799e-03 -1.707461895421147346e-03 -1.699515269137918949e-03 -1.725805574096739292e-03 -1.688773161731660366e-03 -1.709890435449779034e-03 -1.757506746798753738e-03 -1.707852934487164021e-03 -1.721464795991778374e-03 -1.675178296864032745e-03 -1.701226108707487583e-03 -1.742713619023561478e-03 -1.750074210576713085e-03 -1.757091726176440716e-03 -1.734867575578391552e-03 -1.748718554154038429e-03 -1.688883057795464993e-03 -1.692486112006008625e-03 -1.730198040604591370e-03 -1.726854592561721802e-03 -1.699618180282413960e-03 -1.681321067735552788e-03 -1.701500266790390015e-03 -1.700599095784127712e-03 -1.660255016759037971e-03 -1.716900267638266087e-03 -1.676335814408957958e-03 -1.692904625087976456e-03 -1.728384057059884071e-03 -1.691980054602026939e-03 -1.668944256380200386e-03 -1.713363220915198326e-03 -1.740481820888817310e-03 -1.753258053213357925e-03
0.000000000000000000e+00 0.000000000000000000e+00 0.000000000000000000e+00 0.000000000000000000e+00 -0.000000000000000000e+00 -0.000000000000000000e+00 -0.000000000000000000e+00 -0.000000000000000000e+00 0.000000000000000000e+00 0.000000000000000000e+00 0.000000000000000000e+00 0.000000000000000000e+00 0.000000000000000000e+00 0.000000000000000000e+00 -0.000000000000000000e+00 0.000000000000000000e+00 -0.000000000000000000e+00 0.000000000000000000e+00 -0.000000000000000000e+00 -0.000000000000000000e+00 0.000000000000000000e+00 0.000000000000000000e+00 0.000000000000000000e+00 0.000000000000000000e+00 0.000000000000000000e+00 0.000000000000000000e+00 -0.000000000000000000e+00 0.000000000000000000e+00 -0.000000000000000000e+00 -0.000000000000000000e+00 0.000000000000000000e+00 0.000000000000000000e+00 0.000000000000000000e+00 0.000000000000000000e+00 -0.000000000000000000e+00 -0.000000000000000000e+00 -0.000000000000000000e+00 0.000000000000000000e+00 -0.000000000000000000e+00 0.000000000000000000e+00 0.000000000000000000e+00 0.000000000000000000e+00 -0.000000000000000000e+00 0.000000000000000000e+00 -0.000000000000000000e+00 0.000000000000000000e+00 0.000000000000000000e+00 0.000000000000000000e+00 -0.000000000000000000e+00 -0.000000000000000000e+00 0.000000000000000000e+00 0.000000000000000000e+00 -0.000000000000000000e+00 -0.000000000000000000e+00 0.000000000000000000e+00 0.000000000000000000e+00 -0.000000000000000000e+00 0.000000000000000000e+00 0.000000000000000000e+00 0.000000000000000000e+00 0.000000000000000000e+00 0.000000000000000000e+00 0.000000000000000000e+00 0.000000000000000000e+00 -1.585557707585394382e-03 -1.703700749203562737e-03 -1.699696644209325314e-03 -1.673588878475129604e-03 -1.730469986796379089e-03 -1.672680722549557686e-03 -1.549355103634297848e-03 -1.770176226273179054e-03 -1.746397465467453003e-03 -1.581701915711164474e-03 -1.723405672237277031e-03 -1.561838202178478241e-03 -7.722966838628053665e-04 -1.726560876704752445e-03 -1.763478387147188187e-03 -1.744532142765820026e-03 -1.502414699643850327e-03 -1.672368496656417847e-03 -1.772325718775391579e-03 -1.042494666762650013e-03 -1.394370221532881260e-03 -1.721869804896414280e-03 -1.720558735541999340e-03 -1.156792626716196537e-03 -1.744694891385734081e-03 -1.713242498226463795e-03 -1.567047671414911747e-03 -1.508017652668058872e-03 -7.054372690618038177e-04 -1.749370829202234745e-03 -1.697744359262287617e-03 -1.449793227948248386e-03 -1.737273181788623333e-03 -1.692919875495135784e-03 -1.577615388669073582e-03 -7.411232218146324158e-04 -1.475300407037138939e-03 -1.715514343231916428e-03 -1.693428261205554008e-03 -1.481861690990626812e-03 -1.739961793646216393e-03 -1.559934578835964203e-03 -1.601531868800520897e-03 -1.584218000061810017e-03 -1.640840200707316399e-03 -1.504909712821245193e-03 -1.722653396427631378e-03 -1.743000117130577564e-03 -1.676386222243309021e-03 -1.714619342237710953e-03 -3.889319486916065216e-04 -1.747523900121450424e-03 -1.756986021064221859e-03 -1.478479593060910702e-03 -1.717571052722632885e-03 -1.571408240124583244e-03 -1.760063925758004189e-03 -1.745227607898414135e-03 -1.684473361819982529e-03 -1.743381144478917122e-03 -1.678725704550743103e-03 -1.735793659463524818e-03 -1.437674858607351780e-03 -1.624273601919412613e-03
-0.000000000000000000e+00 -0.000000000000000000e+00 -0.000000000000000000e+00 0.000000000000000000e+00 0.000000000000000000e+00 -0.000000000000000000e+00 0.000000000000000000e+00 0.000000000000000000e+00 0.000000000000000000e+00 0.000000000000000000e+00 -0.000000000000000000e+00 -0.000000000000000000e+00 -0.000000000000000000e+00 -0.000000000000000000e+00 0.000000000000000000e+00 0.000000000000000000e+00 -0.000000000000000000e+00 -0.000000000000000000e+00 -0.000000000000000000e+00 -0.000000000000000000e+00 0.000000000000000000e+00 0.000000000000000000e+00 -0.000000000000000000e+00 -0.000000000000000000e+00 -0.000000000000000000e+00 -0.000000000000000000e+00 -0.000000000000000000e+00 -0.000000000000000000e+00 -0.000000000000000000e+00 -0.000000000000000000e+00 -0.000000000000000000e+00 -0.000000000000000000e+00 0.000000000000000000e+00 0.000000000000000000e+00 0.000000000000000000e+00 -0.000000000000000000e+00 0.000000000000000000e+00 -0.000000000000000000e+00 -0.000000000000000000e+00 0.000000000000000000e+00 -0.000000000000000000e+00 -0.000000000000000000e+00 -0.000000000000000000e+00 -0.000000000000000000e+00 -0.000000000000000000e+00 -0.000000000000000000e+00 0.000000000000000000e+00 0.000000000000000000e+00 -0.000000000000000000e+00 0.000000000000000000e+00 0.000000000000000000e+00 0.000000000000000000e+00 -0.000000000000000000e+00 -0.000000000000000000e+00 0.000000000000000000e+00 0.000000000000000000e+00 -0.000000000000000000e+00 -0.000000000000000000e+00 -0.000000000000000000e+00 -0.000000000000000000e+00 0.000000000000000000e+00 -0.000000000000000000e+00 -0.000000000000000000e+00 -0.000000000000000000e+00 -1.406523399055004120e-03 -1.404861803166568279e-03 -1.370159559883177280e-03 -1.397123094648122787e-03 -1.408331678248941898e-03 -1.399608212523162365e-03 -1.368041499517858028e-03 -1.487630768679082394e-03 -1.313795102760195732e-03 -1.353316241875290871e-03 -1.360788359306752682e-03 -1.370789599604904652e-03 -1.301866024732589722e-03 -1.390300109051167965e-03 -1.358956913463771343e-03 -1.384979696013033390e-03 -1.463311142288148403e-03 -1.412734971381723881e-03 -1.351415528915822506e-03 -1.320200506597757339e-03 -1.411316683515906334e-03 -1.281331758946180344e-03 -1.318485592491924763e-03 -1.447263523004949093e-03 -1.396354637108743191e-03 -1.383070019073784351e-03 -1.382217742502689362e-03 -1.450564945116639137e-03 -1.309307990595698357e-03 -1.332878950051963329e-03 -1.353293424472212791e-03 -1.375548541545867920e-03 -1.377544016577303410e-03 -1.308596925809979439e-03 -1.350928330793976784e-03 -1.351754879578948021e-03 -1.413535792380571365e-03 -1.375468447804450989e-03 -1.339719514362514019e-03 -1.358951441943645477e-03 -1.409825403243303299e-03 -1.432645833119750023e-03 -1.366721699014306068e-03 -1.434403704479336739e-03 -1.365174539387226105e-03 -1.268636668100953102e-03 -1.458297017961740494e-03 -1.408129115588963032e-03 -1.295625814236700535e-03 -1.389302196912467480e-03 -1.339126145467162132e-03 -1.347043784335255623e-03 -1.394108519889414310e-03 -1.320178969763219357e-03 -1.399776083417236805e-03 -1.366188400425016880e-03 -1.397446147166192532e-03 -1.394932856783270836e-03 -1.376789296045899391e-03 -1.382529386319220066e-03 -1.423769048415124416e-03 -1.430988661013543606e-03 -1.400172943249344826e-03 -1.454468932934105396e-03
-0.000000000000000000e+00 -0.000000000000000000e+00 0.000000000000000000e+00 0.000000000000000000e+00 0.000000000000000000e+00 0.000000000000000000e+00 -0.000000000000000000e+00 0.000000000000000000e+00 0.000000000000000000e+00 0.000000000000000000e+00 -0.000000000000000000e+00 0.000000000000000000e+00 0.000000000000000000e+00 0.000000000000000000e+00 -0.000000000000000000e+00 0.000000000000000000e+00 0.000000000000000000e+00 -0.000000000000000000e+00 -0.000000000000000000e+00 -0.000000000000000000e+00 0.000000000000000000e+00 -0.000000000000000000e+00 0.000000000000000000e+00 0.000000000000000000e+00 -0.000000000000000000e+00 -0.000000000000000000e+00 -0.000000000000000000e+00 -0.000000000000000000e+00 -0.000000000000000000e+00 0.000000000000000000e+00 0.000000000000000000e+00 0.000000000000000000e+00 0.000000000000000000e+00 -0.000000000000000000e+00 0.000000000000000000e+00 0.000000000000000000e+00 -0.000000000000000000e+00 -0.000000000000000000e+00 0.000000000000000000e+00 0.000000000000000000e+00 0.000000000000000000e+00 -0.000000000000000000e+00 0.000000000000000000e+00 0.000000000000000000e+00 0.000000000000000000e+00 -0.000000000000000000e+00 -0.000000000000000000e+00 0.000000000000000000e+00 -0.000000000000000000e+00 -0.000000000000000000e+00 0.000000000000000000e+00 -0.000000000000000000e+00 0.000000000000000000e+00 -0.000000000000000000e+00 0.000000000000000000e+00 0.000000000000000000e+00 -0.000000000000000000e+00 0.000000000000000000e+00 0.000000000000000000e+00 -0.000000000000000000e+00 0.000000000000000000e+00 -0.000000000000000000e+00 0.000000000000000000e+00 -0.000000000000000000e+00 -1.352251740172505379e-03 -1.255529932677745819e-03 -1.288486528210341930e-03 -1.289124367758631706e-03 -1.301171607337892056e-03 -1.340481801889836788e-03 -1.272587920539081097e-03 -1.378190936520695686e-03 -1.228950801305472851e-03 -1.250718138180673122e-03 -1.158928615041077137e-03 -1.256283023394644260e-03 -1.231504138559103012e-03 -1.287154387682676315e-03 -1.272644032724201679e-03 -1.334337051957845688e-03 -1.341014634817838669e-03 -1.297646318562328815e-03 -1.279783318750560284e-03 -1.306658959947526455e-03 -1.258379314094781876e-03 -1.194014213979244232e-03 -1.276863389648497105e-03 -1.357692643068730831e-03 -1.263016485609114170e-03 -1.370631391182541847e-03 -1.254454138688743114e-03 -1.282482291571795940e-03 -1.209000358358025551e-03 -1.206928165629506111e-03 -1.339448615908622742e-03 -1.311395317316055298e-03 -1.289200503379106522e-03 -1.178657752461731434e-03 -1.200059545226395130e-03 -1.203599851578474045e-03 -1.331949839368462563e-03 -1.288270344957709312e-03 -1.327992416918277740e-03 -1.267362851649522781e-03 -1.318330294452607632e-03 -1.348988036625087261e-03 -1.219389610923826694e-03 -1.324728946201503277e-03 -1.319446251727640629e-03 -1.231444999575614929e-03 -1.388335600495338440e-03 -1.203834195621311665e-03 -1.247702981345355511e-03 -1.393821672536432743e-03 -1.306958962231874466e-03 -1.245338702574372292e-03 -1.278158160857856274e-03 -1.256610732525587082e-03 -1.271980814635753632e-03 -1.358151435852050781e-03 -1.233151298947632313e-03 -1.273261499591171741e-03 -1.257696072570979595e-03 -1.335660112090408802e-03 -1.331241684965789318e-03 -1.313387765549123287e-03 -1.289607957005500793e-03 -1.337708323262631893e-03
0.000000000000000000e+00 -0.000000000000000000e+00 -0.000000000000000000e+00 0.000000000000000000e+00 0.000000000000000000e+00 0.000000000000000000e+00 0.000000000000000000e+00 0.000000000000000000e+00 0.000000000000000000e+00 0.000000000000000000e+00 -0.000000000000000000e+00 -0.000000000000000000e+00 0.000000000000000000e+00 0.000000000000000000e+00 0.000000000000000000e+00 0.000000000000000000e+00 0.000000000000000000e+00 -0.000000000000000000e+00 0.000000000000000000e+00 -0.000000000000000000e+00 0.000000000000000000e+00 0.000000000000000000e+00 0.000000000000000000e+00 -0.000000000000000000e+00 0.000000000000000000e+00 0.000000000000000000e+00 0.000000000000000000e+00 0.000000000000000000e+00 0.000000000000000000e+00 -0.000000000000000000e+00 -0.000000000000000000e+00 -0.000000000000000000e+00 0.000000000000000000e+00 0.000000000000000000e+00 0.000000000000000000e+00 -0.000000000000000000e+00 -0.000000000000000000e+00 -0.000000000000000000e+00 0.000000000000000000e+00 0.000000000000000000e+00 0.000000000000000000e+00 -0.000000000000000000e+00 0.000000000000000000e+00 0.000000000000000000e+00 -0.000000000000000000e+00 0.000000000000000000e+00 0.000000000000000000e+00 -0.000000000000000000e+00 -0.000000000000000000e+00 0.000000000000000000e+00 0.000000000000000000e+00 0.000000000000000000e+00 -0.000000000000000000e+00 0.000000000000000000e+00 -0.000000000000000000e+00 -0.000000000000000000e+00 0.000000000000000000e+00 -0.000000000000000000e+00 0.000000000000000000e+00 -0.000000000000000000e+00 -0.000000000000000000e+00 0.000000000000000000e+00 -0.000000000000000000e+00 -0.000000000000000000e+00 -1.591332140378654003e-03 -1.713027013465762138e-03 -1.719551975838840008e-03 -1.669189776293933392e-03 -1.727530849166214466e-03 -1.718639628961682320e-03 -1.507734530605375767e-03 -1.741238753311336040e-03 -1.779666170477867126e-03 -1.580583746545016766e-03 -1.745994202792644501e-03 -1.616900321096181870e-03 -7.323974277824163437e-04 -1.743478118441998959e-03 -1.739697763696312904e-03 -1.760330633260309696e-03 -1.467900117859244347e-03 -1.641796668991446495e-03 -1.736406236886978149e-03 -1.053051790222525597e-03 -1.389152952469885349e-03 -1.782456296496093273e-03 -1.700155087746679783e-03 -1.171868527308106422e-03 -1.672318088822066784e-03 -1.724933157674968243e-03 -1.579345669597387314e-03 -1.518393633887171745e-03 -6.763330893591046333e-04 -1.755390432663261890e-03 -1.771704526618123055e-03 -1.463463995605707169e-03 -1.736159902065992355e-03 -1.661996706388890743e-03 -1.622735406272113323e-03 -7.236782694235444069e-04 -1.504241256043314934e-03 -1.685642171651124954e-03 -1.696385676041245461e-03 -1.409157994203269482e-03 -1.736685517244040966e-03 -1.601265394128859043e-03 -1.599912531673908234e-03 -1.585099380463361740e-03 -1.680455636233091354e-03 -1.494284952059388161e-03 -1.729569397866725922e-03 -1.752846408635377884e-03 -1.671942765824496746e-03 -1.739759347401559353e-03 -3.957139851991087198e-04 -1.740100560709834099e-03 -1.707382500171661377e-03 -1.508588204160332680e-03 -1.722999964840710163e-03 -1.575045869685709476e-03 -1.749353948980569839e-03 -1.757935504429042339e-03 -1.651941100135445595e-03 -1.745367771945893764e-03 -1.691953511908650398e-03 -1.729830983094871044e-03 -1.436651451513171196e-03 -1.653550658375024796e-03
0.000000000000000000e+00 0.000000000000000000e+00 -0.000000000000000000e+00 0.000000000000000000e+00 -0.000000000000000000e+00 -0.000000000000000000e+00 -0.000000000000000000e+00 0.000000000000000000e+00 -0.000000000000000000e+00 0.000000000000000000e+00 0.000000000000000000e+00 0.000000000000000000e+00 0.000000000000000000e+00 -0.000000000000000000e+00 0.000000000000000000e+00 0.000000000000000000e+00 -0.000000000000000000e+00 -0.000000000000000000e+00 -0.000000000000000000e+00 0.000000000000000000e+00 0.000000000000000000e+00 -0.000000000000000000e+00 0.000000000000000000e+00 0.000000000000000000e+00 0.000000000000000000e+00 -0.000000000000000000e+00 0.000000000000000000e+00 -0.000000000000000000e+00 0.000000000000000000e+00 -0.000000000000000000e+00 -0.000000000000000000e+00 0.000000000000000000e+00 -0.000000000000000000e+00 -0.000000000000000000e+00 0.000000000000000000e+00 0.000000000000000000e+00 -0.000000000000000000e+00 0.000000000000000000e+00 0.000000000000000000e+00 -0.000000000000000000e+00 0.000000000000000000e+00 0.000000000000000000e+00 -0.000000000000000000e+00 0.000000000000000000e+00 -0.000000000000000000e+00 -0.000000000000000000e+00 0.000000000000000000e+00 -0.000000000000000000e+00 0.000000000000000000e+00 0.000000000000000000e+00 0.000000000000000000e+00 -0.000000000000000000e+00 0.000000000000000000e+00 -0.000000000000000000e+00 0.000000000000000000e+00 -0.000000000000000000e+00 0.000000000000000000e+00 0.000000000000000000e+00 -0.000000000000000000e+00 0.000000000000000000e+00 0.000000000000000000e+00 0.000000000000000000e+00 0.000000000000000000e+00 -0.000000000000000000e+00 -1.643941854126751423e-03 -1.719021238386631012e-03 -1.720282714813947678e-03 -1.711522811092436314e-03 -1.738626277074217796e-03 -1.740386942401528358e-03 -1.543027698062360287e-03 -1.740008126944303513e-03 -1.706068636849522591e-03 -1.594418659806251526e-03 -1.697899191640317440e-03 -1.587887178175151348e-03 -7.498181075789034367e-04 -1.757556456141173840e-03 -1.714056357741355896e-03 -1.743115717545151711e-03 -1.506203552708029747e-03 -1.632044673897325993e-03 -1.775978133082389832e-03 -1.066573197022080421e-03 -1.386011834256350994e-03 -1.729871262796223164e-03 -1.687320065684616566e-03 -1.167242298834025860e-03 -1.685590134002268314e-03 -1.747017959132790565e-03 -1.607441692613065243e-03 -1.503052422776818275e-03 -6.583854556083679199e-04 -1.740789972245693207e-03 -1.733323442749679089e-03 -1.453952398151159286e-03 -1.752473064698278904e-03 -1.714953570626676083e-03 -1.600994961336255074e-03 -7.397797307930886745e-04 -1.538503332994878292e-03 -1.679398585110902786e-03 -1.710502780042588711e-03 -1.454745186492800713e-03 -1.746262889355421066e-03 -1.555615221150219440e-03 -1.620706752873957157e-03 -1.591604202985763550e-03 -1.654693041928112507e-03 -1.501430873759090900e-03 -1.739015569910407066e-03 -1.766039873473346233e-03 -1.678407075814902782e-03 -1.726659364067018032e-03 -4.037444596178829670e-04 -1.782138017006218433e-03 -1.749493763782083988e-03 -1.513331080786883831e-03 -1.761591178365051746e-03 -1.620275201275944710e-03 -1.741185085847973824e-03 -1.734100398607552052e-03 -1.682777889072895050e-03 -1.710196607746183872e-03 -1.713891979306936264e-03 -1.773605938069522381e-03 -1.435571233741939068e-03 -1.640448579564690590e-03
0.000000000000000000e+00 0.000000000000000000e+00 0.000000000000000000e+00 -0.000000000000000000e+00 -0.000000000000000000e+00 -0.000000000000000000e+00 0.000000000000000000e+00 0.000000000000000000e+00 0.000000000000000000e+00 -0.000000000000000000e+00 -0.000000000000000000e+00 -0.000000000000000000e+00 0.000000000000000000e+00 -0.000000000000000000e+00 0.000000000000000000e+00 0.000000000000000000e+00 0.000000000000000000e+00 -0.000000000000000000e+00 -0.000000000000000000e+00 0.000000000000000000e+00 0.000000000000000000e+00 -0.000000000000000000e+00 -0.000000000000000000e+00 -0.000000000000000000e+00 -0.000000000000000000e+00 -0.000000000000000000e+00 0.000000000000000000e+00 -0.000000000000000000e+00 -0.000000000000000000e+00 0.000000000000000000e+00 0.000000000000000000e+00 -0.000000000000000000e+00 -0.000000000000000000e+00 -0.000000000000000000e+00 0.000000000000000000e+00 0.000000000000000000e+00 0.000000000000000000e+00 0.000000000000000000e+00 0.000000000000000000e+00 -0.000000000000000000e+00 -0.000000000000000000e+00 0.000000000000000000e+00 -0.000000000000000000e+00 0.000000000000000000e+00 0.000000000000000000e+00 -0.000000000000000000e+00 0.000000000000000000e+00 0.000000000000000000e+00 0.000000000000000000e+00 -0.000000000000000000e+00 -0.000000000000000000e+00 -0.000000000000000000e+00 -0.000000000000000000e+00 -0.000000000000000000e+00 0.000000000000000000e+00 -0.000000000000000000e+00 0.000000000000000000e+00 0.000000000000000000e+00 0.000000000000000000e+00 0.000000000000000000e+00 -0.000000000000000000e+00 0.000000000000000000e+00 0.000000000000000000e+00 0.000000000000000000e+00 -2.529078483348712325e-05 -5.996288746246136725e-05 -5.092430728836916387e-05 -4.457671821000985801e-05 -1.306392223341390491e-04 -8.735606388654559851e-05 -1.199756411551788915e-06 -1.146867653005756438e-04 -8.036517829168587923e-05 -4.239212648826651275e-05 -6.088771988288499415e-05 -1.073923340300098062e-05 -7.060676580294966698e-06 -1.372603146592155099e-04 -9.250767470803111792e-05 -1.226144813699647784e-04 1.136402443080442026e-05 -4.867732423008419573e-05 -9.803837019717320800e-05 1.360533951810793951e-05 -2.622561441967263818e-05 -9.153224527835845947e-05 -3.298410956631414592e-05 -8.230043022194877267e-06 -6.318519444903358817e-05 -9.842069266596809030e-05 -2.695738839975092560e-05 -3.654628380900248885e-05 -3.392019789316691458e-05 -1.533524919068440795e-04 -1.198975369334220886e-04 -2.462115844537038356e-05 -1.019580668071284890e-04 -7.435561565216630697e-05 -2.969903471239376813e-05 8.998217708722222596e-06 1.332639044449024368e-06 -5.418204818852245808e-05 -5.999614222673699260e-05 2.067542664008215070e-05 -6.624528759857639670e-05 -3.529329478624276817e-05 -3.849884888040833175e-05 -2.807142118399497122e-05 -2.111447065544780344e-05 -1.585532118042465299e-05 -6.921004387550055981e-05 -1.354804116999730468e-04 -5.465699723572470248e-05 -7.091126462910324335e-05 2.524725459807086736e-05 -1.084399264072999358e-04 -1.315515546593815088e-04 -7.233231372083537281e-06 -1.016895548673346639e-04 -1.526763480796944350e-05 -1.244307204615324736e-04 -9.017195407068356872e-05 -6.103302803239785135e-05 -1.366798096569254994e-04 -7.063991506583988667e-05 -3.135790029773488641e-05 -3.524978819768875837e-05 -2.820316512952558696e-05
-0.000000000000000000e+00 0.000000000000000000e+00 0.000000000000000000e+00 -0.000000000000000000e+00 -0.000000000000000000e+00 -0.000000000000000000e+00 -0.000000000000000000e+00 0.000000000000000000e+00 0.000000000000000000e+00 0.000000000000000000e+00 0.000000000000000000e+00 -0.000000000000000000e+00 0.000000000000000000e+00 0.000000000000000000e+00 0.000000000000000000e+00 0.000000000000000000e+00 0.000000000000000000e+00 -0.000000000000000000e+00 -0.000000000000000000e+00 0.000000000000000000e+00 -0.000000000000000000e+00 -0.000000000000000000e+00 0.000000000000000000e+00 -0.000000000000000000e+00 0.000000000000000000e+00 0.000000000000000000e+00 0.000000000000000000e+00 0.000000000000000000e+00 0.000000000000000000e+00 -0.000000000000000000e+00 -0.000000000000000000e+00 -0.000000000000000000e+00 -0.000000000000000000e+00 0.000000000000000000e+00 0.000000000000000000e+00 -0.000000000000000000e+00 0.000000000000000000e+00 0.000000000000000000e+00 -0.000000000000000000e+00 -0.000000000000000000e+00 -0.000000000000000000e+00 0.000000000000000000e+00 0.000000000000000000e+00 -0.000000000000000000e+00 0.000000000000000000e+00 0.000000000000000000e+00 -0.000000000000000000e+00 0.000000000000000000e+00 -0.000000000000000000e+00 -0.000000000000000000e+00 0.000000000000000000e+00 -0.000000000000000000e+00 -0.000000000000000000e+00 0.000000000000000000e+00 -0.000000000000000000e+00 -0.000000000000000000e+00 -0.000000000000000000e+00 -0.000000000000000000e+00 -0.000000000000000000e+00 0.000000000000000000e+00 -0.000000000000000000e+00 -0.000000000000000000e+00 0.000000000000000000e+00 0.000000000000000000e+00 -1.489012618549168110e-03 -1.511553535237908363e-03 -1.520573394373059273e-03 -1.478686579503118992e-03 -1.471705501899123192e-03 -1.531073241494596004e-03 -1.498399768024682999e-03 -1.547927502542734146e-03 -1.495630596764385700e-03 -1.496388693340122700e-03 -1.478068646974861622e-03 -1.546133775264024734e-03 -1.465852954424917698e-03 -1.516723190434277058e-03 -1.534261275082826614e-03 -1.492947456426918507e-03 -1.532839611172676086e-03 -1.513201044872403145e-03 -1.484444364905357361e-03 -1.497595338150858879e-03 -1.491274451836943626e-03 -1.482055871747434139e-03 -1.480443868786096573e-03 -1.475347438827157021e-03 -1.485205139033496380e-03 -1.461574574932456017e-03 -1.496787997893989086e-03 -1.496898708865046501e-03 -1.493838732130825520e-03 -1.479678088799118996e-03 -1.470121438615024090e-03 -1.555255497805774212e-03 -1.489539747126400471e-03 -1.518677454441785812e-03 -1.499719102866947651e-03 -1.484370790421962738e-03 -1.520819147117435932e-03 -1.547046354971826077e-03 -1.479474711231887341e-03 -1.451071118935942650e-03 -1.510609057731926441e-03 -1.530547393485903740e-03 -1.490695867687463760e-03 -1.496936078183352947e-03 -1.477418118156492710e-03 -1.509454450570046902e-03 -1.520670251920819283e-03 -1.464790431782603264e-03 -1.490038353949785233e-03 -1.494337338954210281e-03 -1.497265999205410480e-03 -1.498820958659052849e-03 -1.443825662136077881e-03 -1.485795946791768074e-03 -1.521667698398232460e-03 -1.541224308311939240e-03 -1.508161076344549656e-03 -1.479341881349682808e-03 -1.519207609817385674e-03 -1.513200113549828529e-03 -1.500699552707374096e-03 -1.534465700387954712e-03 -1.487707253545522690e-03 -1.486998400650918484e-03
0.000000000000000000e+00 0.000000000000000000e+00 0.000000000000000000e+00 -0.000000000000000000e+00 0.000000000000000000e+00 0.000000000000000000e+00 -0.000000000000000000e+00 0.000000000000000000e+00 -0.000000000000000000e+00 -0.000000000000000000e+00 -0.000000000000000000e+00 -0.000000000000000000e+00 -0.000000000000000000e+00 -0.000000000000000000e+00 -0.000000000000000000e+00 0.000000000000000000e+00 0.000000000000000000e+00 -0.000000000000000000e+00 0.000000000000000000e+00 0.000000000000000000e+00 0.000000000000000000e+00 -0.000000000000000000e+00 -0.000000000000000000e+00 0.000000000000000000e+00 -0.000000000000000000e+00 0.000000000000000000e+00 0.000000000000000000e+00 -0.000000000000000000e+00 0.000000000000000000e+00 0.000000000000000000e+00 0.000000000000000000e+00 0.000000000000000000e+00 -0.000000000000000000e+00 -0.000000000000000000e+00 0.000000000000000000e+00 -0.000000000000000000e+00 0.000000000000000000e+00 -0.000000000000000000e+00 -0.000000000000000000e+00 -0.000000000000000000e+00 0.000000000000000000e+00 -0.000000000000000000e+00 -0.000000000000000000e+00 -0.000000000000000000e+00 -0.000000000000000000e+00 -0.000000000000000000e+00 0.000000000000000000e+00 0.000000000000000000e+00 0.000000000000000000e+00 -0.000000000000000000e+00 -0.000000000000000000e+00 0.000000000000000000e+00 -0.000000000000000000e+00 0.000000000000000000e+00 -0.000000000000000000e+00 0.000000000000000000e+00 -0.000000000000000000e+00 0.000000000000000000e+00 0.000000000000000000e+00 0.000000000000000000e+00 -0.000000000000000000e+00 -0.000000000000000000e+00 -0.000000000000000000e+00 0.000000000000000000e+00 -1.648756093345582485e-03 -1.703257672488689423e-03 -1.698536099866032600e-03 -1.711179385893046856e-03 -1.723736175335943699e-03 -1.719591673463582993e-03 -1.521736849099397659e-03 -1.725211390294134617e-03 -1.776776742190122604e-03 -1.550684566609561443e-03 -1.731191528961062431e-03 -1.562518416903913021e-03 -7.690927013754844666e-04 -1.732949283905327320e-03 -1.698655309155583382e-03 -1.755899167619645596e-03 -1.485050423070788383e-03 -1.620547496713697910e-03 -1.779087120667099953e-03 -1.086648902855813503e-03 -1.405308139510452747e-03 -1.739992178045213223e-03 -1.700078835710883141e-03 -1.168211922049522400e-03 -1.716008526273071766e-03 -1.756064244545996189e-03 -1.611437299288809299e-03 -1.513725263066589832e-03 -7.131159072741866112e-04 -1.736687147058546543e-03 -1.753835123963654041e-03 -1.438112696632742882e-03 -1.740608015097677708e-03 -1.696726190857589245e-03 -1.588223152793943882e-03 -7.264715386554598808e-04 -1.483434811234474182e-03 -1.684988616034388542e-03 -1.691525336354970932e-03 -1.476443605497479439e-03 -1.729736453853547573e-03 -1.594744739122688770e-03 -1.579195610247552395e-03 -1.567995990626513958e-03 -1.674419967457652092e-03 -1.524114049971103668e-03 -1.734726130962371826e-03 -1.742184045724570751e-03 -1.699384418316185474e-03 -1.762580825015902519e-03 -3.812585491687059402e-04 -1.740222214721143246e-03 -1.760367420502007008e-03 -1.525297528132796288e-03 -1.716699334792792797e-03 -1.578849274665117264e-03 -1.726437360048294067e-03 -1.742548658512532711e-03 -1.682385336607694626e-03 -1.748100854456424713e-03 -1.650006626732647419e-03 -1.723770285025238991e-03 -1.450095907784998417e-03 -1.640082919038832188e-03
-0.000000000000000000e+00 0.000000000000000000e+00 0.000000000000000000e+00 0.000000000000000000e+00 -0.000000000000000000e+00 -0.000000000000000000e+00 0.000000000000000000e+00 0.000000000000000000e+00 0.000000000000000000e+00 -0.000000000000000000e+00 0.000000000000000000e+00 0.000000000000000000e+00 0.000000000000000000e+00 -0.000000000000000000e+00 -0.000000000000000000e+00 0.000000000000000000e+00 -0.000000000000000000e+00 0.000000000000000000e+00 -0.000000000000000000e+00 0.000000000000000000e+00 0.000000000000000000e+00 0.000000000000000000e+00 0.000000000000000000e+00 -0.000000000000000000e+00 -0.000000000000000000e+00 -0.000000000000000000e+00 0.000000000000000000e+00 0.000000000000000000e+00 -0.000000000000000000e+00 -0.000000000000000000e+00 0.000000000000000000e+00 -0.000000000000000000e+00 0.000000000000000000e+00 0.000000000000000000e+00 -0.000000000000000000e+00 0.000000000000000000e+00 -0.000000000000000000e+00 -0.000000000000000000e+00 -0.000000000000000000e+00 -0.000000000000000000e+00 -0.000000000000000000e+00 0.000000000000000000e+00 -0.000000000000000000e+00 -0.000000000000000000e+00 -0.000000000000000000e+00 0.000000000000000000e+00 -0.000000000000000000e+00 -0.000000000000000000e+00 0.000000000000000000e+00 -0.000000000000000000e+00 0.000000000000000000e+00 -0.000000000000000000e+00 0.000000000000000000e+00 0.000000000000000000e+00 0.000000000000000000e+00 -0.000000000000000000e+00 -0.000000000000000000e+00 -0.000000000000000000e+00 0.000000000000000000e+00 -0.000000000000000000e+00 0.000000000000000000e+00 0.000000000000000000e+00 -0.000000000000000000e+00 0.000000000000000000e+00 -1.624858821742236614e-03 -1.733076060190796852e-03 -1.715523889288306236e-03 -1.662401831708848476e-03 -1.739456667564809322e-03 -1.725372625514864922e-03 -1.498745405115187168e-03 -1.727029797621071339e-03 -1.761206774972379208e-03 -1.588909653946757317e-03 -1.732734031975269318e-03 -1.594056724570691586e-03 -7.709340425208210945e-04 -1.732633332721889019e-03 -1.749899936839938164e-03 -1.749651390127837658e-03 -1.511452021077275276e-03 -1.632739906199276447e-03 -1.776241231709718704e-03 -1.069207442924380302e-03 -1.427327166311442852e-03 -1.720676780678331852e-03 -1.680830493569374084e-03 -1.133186277002096176e-03 -1.752158044837415218e-03 -1.762311439961194992e-03 -1.588612096384167671e-03 -1.485405606217682362e-03 -6.740787648595869541e-04 -1.736916252411901951e-03 -1.762096770107746124e-03 -1.440208754502236843e-03 -1.724321162328124046e-03 -1.715168356895446777e-03 -1.621593721210956573e-03 -7.148676086217164993e-04 -1.470908173359930515e-03 -1.715201186016201973e-03 -1.704726601019501686e-03 -1.473552663810551167e-03 -1.711989403702318668e-03 -1.590551459230482578e-03 -1.612711232155561447e-03 -1.552048488520085812e-03 -1.623370219022035599e-03 -1.503309584222733974e-03 -1.762317260727286339e-03 -1.732152071781456470e-03 -1.711906632408499718e-03 -1.741648884490132332e-03 -3.487212525214999914e-04 -1.766801229678094387e-03 -1.763329957611858845e-03 -1.511786598712205887e-03 -1.780831255018711090e-03 -1.569658052176237106e-03 -1.710074604488909245e-03 -1.725067035295069218e-03 -1.704279799014329910e-03 -1.742342836223542690e-03 -1.689164084382355213e-03 -1.772513496689498425e-03 -1.454495708458125591e-03 -1.643605530261993408e-03
-0.000000000000000000e+00 -0.000000000000000000e+00 -0.000000000000000000e+00 0.000000000000000000e+00 0.000000000000000000e+00 0.000000000000000000e+00 -0.000000000000000000e+00 -0.000000000000000000e+00 -0.000000000000000000e+00 -0.000000000000000000e+00 0.000000000000000000e+00 -0.000000000000000000e+00 -0.000000000000000000e+00 0.000000000000000000e+00 -0.000000000000000000e+00 -0.000000000000000000e+00 0.000000000000000000e+00 0.000000000000000000e+00 -0.000000000000000000e+00 0.000000000000000000e+00 0.000000000000000000e+00 -0.000000000000000000e+00 -0.000000000000000000e+00 0.000000000000000000e+00 0.000000000000000000e+00 0.000000000000000000e+00 0.000000000000000000e+00 0.000000000000000000e+00 0.000000000000000000e+00 -0.000000000000000000e+00 -0.000000000000000000e+00 0.000000000000000000e+00 -0.000000000000000000e+00 -0.000000000000000000e+00 -0.000000000000000000e+00 -0.000000000000000000e+00 -0.000000000000000000e+00 -0.000000000000000000e+00 -0.000000000000000000e+00 -0.000000000000000000e+00 -0.000000000000000000e+00 0.000000000000000000e+00 0.000000000000000000e+00 0.000000000000000000e+00 0.000000000000000000e+00 -0.000000000000000000e+00 0.000000000000000000e+00 0.000000000000000000e+00 0.000000000000000000e+00 0.000000000000000000e+00 0.000000000000000000e+00 0.000000000000000000e+00 0.000000000000000000e+00 -0.000000000000000000e+00 -0.000000000000000000e+00 0.000000000000000000e+00 -0.000000000000000000e+00 0.000000000000000000e+00 -0.000000000000000000e+00 0.000000000000000000e+00 0.000000000000000000e+00 0.000000000000000000e+00 -0.000000000000000000e+00 -0.000000000000000000e+00 -1.733347540721297264e-03 -1.681713387370109558e-03 -1.677653053775429726e-03 -1.709305099211633205e-03 -1.696593011729419231e-03 -1.726221875287592411e-03 -1.699469517916440964e-03 -1.754972501657903194e-03 -1.651220722123980522e-03 -1.693447586148977280e-03 -1.653684070333838463e-03 -1.760137034580111504e-03 -1.571114757098257542e-03 -1.697596977464854717e-03 -1.734676421619951725e-03 -1.680147834122180939e-03 -1.775330980308353901e-03 -1.737041864544153214e-03 -1.674161641858518124e-03 -1.725422800518572330e-03 -1.658466761000454426e-03 -1.660929992794990540e-03 -1.714948099106550217e-03 -1.697895815595984459e-03 -1.689325901679694653e-03 -1.668883953243494034e-03 -1.676321728155016899e-03 -1.749452087096869946e-03 -1.715601421892642975e-03 -1.675034523941576481e-03 -1.653566025197505951e-03 -1.757722231559455395e-03 -1.709625241346657276e-03 -1.698830281384289265e-03 -1.690235803835093975e-03 -1.677762600593268871e-03 -1.722763758152723312e-03 -1.705709844827651978e-03 -1.666710129939019680e-03 -1.719815074466168880e-03 -1.704723341390490532e-03 -1.756967278197407722e-03 -1.679414301179349422e-03 -1.720148837193846703e-03 -1.686482806690037251e-03 -1.694187289103865623e-03 -1.714143669232726097e-03 -1.690936507657170296e-03 -1.692773541435599327e-03 -1.665373682044446468e-03 -1.738634891808032990e-03 -1.703544170595705509e-03 -1.703949761576950550e-03 -1.719528576359152794e-03 -1.679316395893692970e-03 -1.706344657577574253e-03 -1.676863292232155800e-03 -1.687664072960615158e-03 -1.685707829892635345e-03 -1.762224361300468445e-03 -1.706976443529129028e-03 -1.700057298876345158e-03 -1.681501627899706364e-03 -1.703714369796216488e-03
0.000000000000000000e+00 0.000000000000000000e+00 -0.000000000000000000e+00 -0.000000000000000000e+00 0.000000000000000000e+00 0.000000000000000000e+00 -0.000000000000000000e+00 -0.000000000000000000e+00 0.000000000000000000e+00 -0.000000000000000000e+00 0.000000000000000000e+00 -0.000000000000000000e+00 -0.000000000000000000e+00 -0.000000000000000000e+00 0.000000000000000000e+00 0.000000000000000000e+00 -0.000000000000000000e+00 -0.000000000000000000e+00 -0.000000000000000000e+00 0.000000000000000000e+00 -0.000000000000000000e+00 0.000000000000000000e+00 -0.000000000000000000e+00 0.000000000000000000e+00 0.000000000000000000e+00 0.000000000000000000e+00 -0.000000000000000000e+00 0.000000000000000000e+00 0.000000000000000000e+00 -0.000000000000000000e+00 0.000000000000000000e+00 -0.000000000000000000e+00 0.000000000000000000e+00 0.000000000000000000e+00 -0.000000000000000000e+00 0.000000000000000000e+00 -0.000000000000000000e+00 -0.000000000000000000e+00 0.000000000000000000e+00 0.000000000000000000e+00 -0.000000000000000000e+00 0.000000000000000000e+00 0.000000000000000000e+00 0.000000000000000000e+00 -0.000000000000000000e+00 -0.000000000000000000e+00 -0.000000000000000000e+00 -0.000000000000000000e+00 -0.000000000000000000e+00 -0.000000000000000000e+00 -0.000000000000000000e+00 0.000000000000000000e+00 0.000000000000000000e+00 -0.000000000000000000e+00 0.000000000000000000e+00 -0.000000000000000000e+00 -0.000000000000000000e+00 0.000000000000000000e+00 0.000000000000000000e+00 0.000000000000000000e+00 -0.000000000000000000e+00 0.000000000000000000e+00 0.000000000000000000e+00 -0.000000000000000000e+00 -1.621123519726097584e-03 -1.710490090772509575e-03 -1.639718073420226574e-03 -1.687748474068939686e-03 -1.746844267472624779e-03 -1.699609681963920593e-03 -1.530366716906428337e-03 -1.744003267958760262e-03 -1.774385571479797363e-03 -1.545262639410793781e-03 -1.709430944174528122e-03 -1.561713521368801594e-03 -7.835695287212729454e-04 -1.741116284392774105e-03 -1.736163627356290817e-03 -1.748958718962967396e-03 -1.447552116587758064e-03 -1.632452011108398438e-03 -1.756534911692142487e-03 -1.037406967952847481e-03 -1.427028910256922245e-03 -1.786926644854247570e-03 -1.664685783907771111e-03 -1.142453751526772976e-03 -1.738885533995926380e-03 -1.771788462065160275e-03 -1.596725196577608585e-03 -1.477295416407287121e-03 -6.803626893088221550e-04 -1.750903786160051823e-03 -1.702942652627825737e-03 -1.410829136148095131e-03 -1.755511504597961903e-03 -1.710339798592031002e-03 -1.636039349250495434e-03 -7.144720293581485748e-04 -1.495892996899783611e-03 -1.690766774117946625e-03 -1.702780835330486298e-03 -1.459503313526511192e-03 -1.717474544420838356e-03 -1.537107396870851517e-03 -1.575800473801791668e-03 -1.561551005579531193e-03 -1.680085435509681702e-03 -1.475615543313324451e-03 -1.690679462626576424e-03 -1.732547301799058914e-03 -1.696913386695086956e-03 -1.763041131198406219e-03 -3.912130196113139391e-04 -1.764556509442627430e-03 -1.749737770296633244e-03 -1.512943534180521965e-03 -1.734170014970004559e-03 -1.585146994329988956e-03 -1.748308306559920311e-03 -1.765706459991633892e-03 -1.729332143440842628e-03 -1.728812116198241711e-03 -1.694780075922608376e-03 -1.721544773317873478e-03 -1.470638322643935680e-03 -1.656528678722679615e-03
0.000000000000000000e+00 -0.000000000000000000e+00 -0.000000000000000000e+00 0.000000000000000000e+00 -0.000000000000000000e+00 0.000000000000000000e+00 0.000000000000000000e+00 0.000000000000000000e+00 0.000000000000000000e+00 0.000000000000000000e+00 0.000000000000000000e+00 -0.000000000000000000e+00 -0.000000000000000000e+00 0.000000000000000000e+00 0.000000000000000000e+00 -0.000000000000000000e+00 0.000000000000000000e+00 -0.000000000000000000e+00 -0.000000000000000000e+00 -0.000000000000000000e+00 0.000000000000000000e+00 -0.000000000000000000e+00 0.000000000000000000e+00 0.000000000000000000e+00 -0.000000000000000000e+00 -0.000000000000000000e+00 -0.000000000000000000e+00 0.000000000000000000e+00 0.000000000000000000e+00 -0.000000000000000000e+00 -0.000000000000000000e+00 0.000000000000000000e+00 -0.000000000000000000e+00 0.000000000000000000e+00 -0.000000000000000000e+00 0.000000000000000000e+00 0.000000000000000000e+00 0.000000000000000000e+00 -0.000000000000000000e+00 -0.000000000000000000e+00 -0.000000000000000000e+00 -0.000000000000000000e+00 -0.000000000000000000e+00 -0.000000000000000000e+00 0.000000000000000000e+00 -0.000000000000000000e+00 0.000000000000000000e+00 0.000000000000000000e+00 -0.000000000000000000e+00 0.000000000000000000e+00 0.000000000000000000e+00 -0.000000000000000000e+00 -0.000000000000000000e+00 0.000000000000000000e+00 0.000000000000000000e+00 -0.000000000000000000e+00 -0.000000000000000000e+00 -0.000000000000000000e+00 0.000000000000000000e+00 -0.000000000000000000e+00 -0.000000000000000000e+00 0.000000000000000000e+00 0.000000000000000000e+00 -0.000000000000000000e+00 -1.664798590354621410e-03 -1.657701097428798676e-03 -1.718511106446385384e-03 -1.681568683125078678e-03 -1.723166671581566334e-03 -1.692149322479963303e-03 -1.711170654743909836e-03 -1.757579506374895573e-03 -1.680764718912541866e-03 -1.658042427152395248e-03 -1.631942694075405598e-03 -1.664050389081239700e-03 -1.661183428950607777e-03 -1.717998879030346870e-03 -1.682610833086073399e-03 -1.655440428294241428e-03 -1.675289124250411987e-03 -1.712251221761107445e-03 -1.703363494016230106e-03 -1.690043369308114052e-03 -1.677860389463603497e-03 -1.677760155871510506e-03 -1.670304685831069946e-03 -1.632932224310934544e-03 -1.644851989112794399e-03 -1.668986864387989044e-03 -1.684252521954476833e-03 -1.707952236756682396e-03 -1.670369179919362068e-03 -1.687706098891794682e-03 -1.710289274342358112e-03 -1.706301700323820114e-03 -1.673267222940921783e-03 -1.685111550614237785e-03 -1.694797538220882416e-03 -1.650252263061702251e-03 -1.709027215838432312e-03 -1.631733146496117115e-03 -1.644024625420570374e-03 -1.672678859904408455e-03 -1.684353104792535305e-03 -1.660247100517153740e-03 -1.689130673184990883e-03 -1.723313587717711926e-03 -1.710607204586267471e-03 -1.682123402133584023e-03 -1.668078009970486164e-03 -1.700906665064394474e-03 -1.706879120320081711e-03 -1.672227983362972736e-03 -1.722491113469004631e-03 -1.669172663241624832e-03 -1.664652372710406780e-03 -1.658839057199656963e-03 -1.702247420325875282e-03 -1.632980536669492722e-03 -1.696490682661533356e-03 -1.646070508286356926e-03 -1.716253580525517464e-03 -1.692208577878773212e-03 -1.692388323135674000e-03 -1.685477211140096188e-03 -1.641943817958235741e-03 -1.724665635265409946e-03
0.000000000000000000e+00 0.000000000000000000e+00 -0.000000000000000000e+00 0.000000000000000000e+00 -0.000000000000000000e+00 0.000000000000000000e+00 0.000000000000000000e+00 0.000000000000000000e+00 0.000000000000000000e+00 -0.000000000000000000e+00 0.000000000000000000e+00 0.000000000000000000e+00 0.000000000000000000e+00 0.000000000000000000e+00 0.000000000000000000e+00 -0.000000000000000000e+00 -0.000000000000000000e+00 0.000000000000000000e+00 -0.000000000000000000e+00 0.000000000000000000e+00 -0.000000000000000000e+00 -0.000000000000000000e+00 0.000000000000000000e+00 -0.000000000000000000e+00 -0.000000000000000000e+00 -0.000000000000000000e+00 -0.000000000000000000e+00 -0.000000000000000000e+00 -0.000000000000000000e+00 -0.000000000000000000e+00 0.000000000000000000e+00 -0.000000000000000000e+00 0.000000000000000000e+00 -0.000000000000000000e+00 -0.000000000000000000e+00 -0.000000000000000000e+00 0.000000000000000000e+00 -0.000000000000000000e+00 -0.000000000000000000e+00 -0.000000000000000000e+00 -0.000000000000000000e+00 0.000000000000000000e+00 -0.000000000000000000e+00 -0.000000000000000000e+00 -0.000000000000000000e+00 -0.000000000000000000e+00 0.000000000000000000e+00 0.000000000000000000e+00 -0.000000000000000000e+00 0.000000000000000000e+00 0.000000000000000000e+00 0.000000000000000000e+00 -0.000000000000000000e+00 0.000000000000000000e+00 0.000000000000000000e+00 -0.000000000000000000e+00 -0.000000000000000000e+00 0.000000000000000000e+00 0.000000000000000000e+00 0.000000000000000000e+00 0.000000000000000000e+00 -0.000000000000000000e+00 0.000000000000000000e+00 -0.000000000000000000e+00 -1.652707229368388653e-03 -1.644535223022103310e-03 -1.632897532545030117e-03 -1.643327064812183380e-03 -1.695666112937033176e-03 -1.663664937950670719e-03 -1.643655123189091682e-03 -1.698856474831700325e-03 -1.653822720982134342e-03 -1.650490099564194679e-03 -1.612942083738744259e-03 -1.665312214754521847e-03 -1.615690533071756363e-03 -1.630120445042848587e-03 -1.662775874137878418e-03 -1.633238047361373901e-03 -1.643975148908793926e-03 -1.653978833928704262e-03 -1.631040358915925026e-03 -1.637536915950477123e-03 -1.628699712455272675e-03 -1.630214275792241096e-03 -1.639447873458266258e-03 -1.647988799959421158e-03 -1.621197792701423168e-03 -1.597338588908314705e-03 -1.637014211155474186e-03 -1.662423135712742805e-03 -1.633349689655005932e-03 -1.651372411288321018e-03 -1.646298449486494064e-03 -1.598873175680637360e-03 -1.643290393985807896e-03 -1.660292851738631725e-03 -1.619280898012220860e-03 -1.601038035005331039e-03 -1.652717939577996731e-03 -1.640882925130426884e-03 -1.640608184970915318e-03 -1.676024869084358215e-03 -1.614957116544246674e-03 -1.631225226446986198e-03 -1.628817408345639706e-03 -1.669172430410981178e-03 -1.683207694441080093e-03 -1.608739141374826431e-03 -1.667124335654079914e-03 -1.575503381900489330e-03 -1.688441843725740910e-03 -1.696135499514639378e-03 -1.669244957156479359e-03 -1.617621630430221558e-03 -1.646050717681646347e-03 -1.624606666155159473e-03 -1.633113017305731773e-03 -1.652472768910229206e-03 -1.602987758815288544e-03 -1.597065944224596024e-03 -1.658601802773773670e-03 -1.625143690034747124e-03 -1.674739061854779720e-03 -1.658400171436369419e-03 -1.624844968318939209e-03 -1.704886439256370068e-03
-0.000000000000000000e+00 0.000000000000000000e+00 0.000000000000000000e+00 -0.000000000000000000e+00 -0.000000000000000000e+00 -0.000000000000000000e+00 -0.000000000000000000e+00 -0.000000000000000000e+00 0.000000000000000000e+00 -0.000000000000000000e+00 0.000000000000000000e+00 -0.000000000000000000e+00 -0.000000000000000000e+00 0.000000000000000000e+00 0.000000000000000000e+00 -0.000000000000000000e+00 -0.000000000000000000e+00 0.000000000000000000e+00 0.000000000000000000e+00 0.000000000000000000e+00 -0.000000000000000000e+00 -0.000000000000000000e+00 0.000000000000000000e+00 0.000000000000000000e+00 -0.000000000000000000e+00 0.000000000000000000e+00 -0.000000000000000000e+00 -0.000000000000000000e+00 0.000000000000000000e+00 0.000000000000000000e+00 -0.000000000000000000e+00 -0.000000000000000000e+00 -0.000000000000000000e+00 -0.000000000000000000e+00 0.000000000000000000e+00 -0.000000000000000000e+00 0.000000000000000000e+00 0.000000000000000000e+00 -0.000000000000000000e+00 0.000000000000000000e+00 0.000000000000000000e+00 -0.000000000000000000e+00 0.000000000000000000e+00 -0.000000000000000000e+00 0.000000000000000000e+00 0.000000000000000000e+00 -0.000000000000000000e+00 -0.000000000000000000e+00 -0.000000000000000000e+00 0.000000000000000000e+00 0.000000000000000000e+00 -0.000000000000000000e+00 -0.000000000000000000e+00 -0.000000000000000000e+00 0.000000000000000000e+00 -0.000000000000000000e+00 0.000000000000000000e+00 -0.000000000000000000e+00 0.000000000000000000e+00 -0.000000000000000000e+00 -0.000000000000000000e+00 -0.000000000000000000e+00 0.000000000000000000e+00 -0.000000000000000000e+00 -2.337681944482028484e-04 -3.789323673117905855e-04 -2.825407718773931265e-04 -2.529166813474148512e-04 -5.571634392254054546e-04 -4.296083061490207911e-04 -1.149545787484385073e-04 -5.389941507019102573e-04 -5.576813709922134876e-04 -1.421178894815966487e-04 -3.398214757908135653e-04 -1.702527224551886320e-04 4.838458380618249066e-07 -5.566196632571518421e-04 -5.841794773004949093e-04 -5.556385149247944355e-04 -1.062865339918062091e-04 -2.302309439983218908e-04 -5.263743223622441292e-04 -2.383305036346428096e-05 -1.446116075385361910e-04 -5.246442742645740509e-04 -3.203271771781146526e-04 -2.248581768071744591e-05 -4.316876293160021305e-04 -4.887593095190823078e-04 -1.597850059624761343e-04 -1.376872533001005650e-04 1.426025573891820386e-05 -5.584855680353939533e-04 -5.486346199177205563e-04 -6.161470082588493824e-05 -5.255113937892019749e-04 -2.896944934036582708e-04 -1.866139355115592480e-04 -3.764024950214661658e-05 -9.755101200425997376e-05 -3.455965488683432341e-04 -4.128904256504029036e-04 -9.883157326839864254e-05 -4.752547829411923885e-04 -7.565050327684730291e-05 -1.888257684186100960e-04 -1.787891233107075095e-04 -2.973655064124614000e-04 -7.589139568153768778e-05 -4.377125878818333149e-04 -5.438704392872750759e-04 -3.147571405861526728e-04 -4.873407597187906504e-04 2.801535401886212640e-06 -5.639172159135341644e-04 -5.547073087655007839e-04 -1.293021196033805609e-04 -5.208331276662647724e-04 -1.161532200057990849e-04 -5.753851146437227726e-04 -5.498034297488629818e-04 -2.944172592833638191e-04 -5.091598723083734512e-04 -2.229836682090535760e-04 -4.502835217863321304e-04 -1.246489409822970629e-04 -2.530472411308437586e-04
-0.000000000000000000e+00 0.000000000000000000e+00 0.000000000000000000e+00 0.000000000000000000e+00 0.000000000000000000e+00 -0.000000000000000000e+00 -0.000000000000000000e+00 0.000000000000000000e+00 0.000000000000000000e+00 0.000000000000000000e+00 -0.000000000000000000e+00 0.000000000000000000e+00 0.000000000000000000e+00 0.000000000000000000e+00 -0.000000000000000000e+00 -0.000000000000000000e+00 -0.000000000000000000e+00 -0.000000000000000000e+00 0.000000000000000000e+00 0.000000000000000000e+00 0.000000000000000000e+00 -0.000000000000000000e+00 0.000000000000000000e+00 -0.000000000000000000e+00 -0.000000000000000000e+00 -0.000000000000000000e+00 0.000000000000000000e+00 -0.000000000000000000e+00 -0.000000000000000000e+00 0.000000000000000000e+00 0.000000000000000000e+00 0.000000000000000000e+00 0.000000000000000000e+00 0.000000000000000000e+00 0.000000000000000000e+00 -0.000000000000000000e+00 -0.000000000000000000e+00 0.000000000000000000e+00 0.000000000000000000e+00 -0.000000000000000000e+00 -0.000000000000000000e+00 0.000000000000000000e+00 -0.000000000000000000e+00 0.000000000000000000e+00 0.000000000000000000e+00 -0.000000000000000000e+00 -0.000000000000000000e+00 -0.000000000000000000e+00 0.000000000000000000e+00 -0.000000000000000000e+00 -0.000000000000000000e+00 -0.000000000000000000e+00 0.000000000000000000e+00 -0.000000000000000000e+00 -0.000000000000000000e+00 0.000000000000000000e+00 0.000000000000000000e+00 0.000000000000000000e+00 -0.000000000000000000e+00 0.000000000000000000e+00 0.000000000000000000e+00 -0.000000000000000000e+00 0.000000000000000000e+00 -0.000000000000000000e+00 -5.219419563218252733e-06 -1.199286907649366185e-05 -1.424932861482375301e-06 -2.659428901097271591e-05 -2.251714067824650556e-05 -2.768554077192675322e-05 -3.484354601823724806e-05 -1.096597861760528758e-05 -1.784419328032527119e-05 -5.953464096819516271e-06 -1.132066790887620300e-05 3.005375583597924560e-05 1.574500311107840389e-05 -2.809695070027373731e-05 -2.678211239981465042e-05 -3.992514393758028746e-05 1.357784549327334389e-05 -1.419940144842257723e-05 1.227987922902684659e-05 -1.371700136587605812e-06 3.174136872985400259e-05 -4.511441147769801319e-05 -5.516617238754406571e-05 4.707665721070952713e-05 -3.600252603064291179e-05 -2.650058195285964757e-05 1.320994101661199238e-06 -5.185896952752955258e-06 -1.371819507767213508e-05 -5.377142224460840225e-05 -5.505644367076456547e-05 3.363421456015203148e-06 -5.172679720999440178e-06 5.426404186437139288e-06 -2.840753404598217458e-05 -3.568553438526578248e-05 -7.788406946929171681e-06 -6.333823421300621703e-06 -4.164873098488897085e-05 -2.768151534837670624e-05 -4.295404869480989873e-05 2.858629159163683653e-06 -4.566494681057520211e-06 2.719918938964838162e-07 -9.608345862943679094e-06 1.887571488623507321e-05 -4.328426439315080643e-05 -2.498715548426844180e-05 -4.832874310523038730e-06 -2.739104820648208261e-05 2.988872984133195132e-05 -4.475522655411623418e-05 -2.818001121340785176e-05 -2.527678952901624143e-05 -8.435630661551840603e-06 1.202701787406112999e-05 -2.534870509407483041e-05 1.419120599166490138e-05 7.619983080076053739e-07 -2.431117900414392352e-05 -8.479323128085525241e-07 -5.513225551112554967e-05 2.315111714779050089e-06 -2.519861482142005116e-05
0.000000000000000000e+00 -0.000000000000000000e+00 0.000000000000000000e+00 -0.000000000000000000e+00 0.000000000000000000e+00 0.000000000000000000e+00 0.000000000000000000e+00 -0.000000000000000000e+00 0.000000000000000000e+00 0.000000000000000000e+00 -0.000000000000000000e+00 0.000000000000000000e+00 0.000000000000000000e+00 0.000000000000000000e+00 0.000000000000000000e+00 0.000000000000000000e+00 -0.000000000000000000e+00 -0.000000000000000000e+00 -0.000000000000000000e+00 -0.000000000000000000e+00 -0.000000000000000000e+00 0.000000000000000000e+00 -0.000000000000000000e+00 -0.000000000000000000e+00 -0.000000000000000000e+00 -0.000000000000000000e+00 0.000000000000000000e+00 -0.000000000000000000e+00 -0.000000000000000000e+00 -0.000000000000000000e+00 -0.000000000000000000e+00 0.000000000000000000e+00 -0.000000000000000000e+00 -0.000000000000000000e+00 0.000000000000000000e+00 0.000000000000000000e+00 0.000000000000000000e+00 0.000000000000000000e+00 0.000000000000000000e+00 -0.000000000000000000e+00 -0.000000000000000000e+00 -0.000000000000000000e+00 -0.000000000000000000e+00 0.000000000000000000e+00 0.000000000000000000e+00 -0.000000000000000000e+00 0.000000000000000000e+00 -0.000000000000000000e+00 0.000000000000000000e+00 -0.000000000000000000e+00 -0.000000000000000000e+00 -0.000000000000000000e+00 0.000000000000000000e+00 0.000000000000000000e+00 0.000000000000000000e+00 -0.000000000000000000e+00 -0.000000000000000000e+00 0.000000000000000000e+00 0.000000000000000000e+00 0.000000000000000000e+00 0.000000000000000000e+00 0.000000000000000000e+00 0.000000000000000000e+00 0.000000000000000000e+00 -1.633689622394740582e-03 -1.729002106003463268e-03 -1.709014759398996830e-03 -1.664109760895371437e-03 -1.740488689392805099e-03 -1.664975425228476524e-03 -1.525668543763458729e-03 -1.735669909976422787e-03 -1.735903206281363964e-03 -1.592301996424794197e-03 -1.694767968729138374e-03 -1.547894557006657124e-03 -7.793166441842913628e-04 -1.761490711942315102e-03 -1.749152899719774723e-03 -1.715166610665619373e-03 -1.507480628788471222e-03 -1.644569798372685909e-03 -1.732341479510068893e-03 -1.046834629960358143e-03 -1.434585195966064930e-03 -1.708406955003738403e-03 -1.676399959251284599e-03 -1.170406467281281948e-03 -1.692342921160161495e-03 -1.714439364150166512e-03 -1.595716108568012714e-03 -1.526342239230871201e-03 -6.528455996885895729e-04 -1.735647558234632015e-03 -1.750289346091449261e-03 -1.428844290785491467e-03 -1.756886369548738003e-03 -1.714840880595147610e-03 -1.606195233762264252e-03 -7.290277862921357155e-04 -1.447660033591091633e-03 -1.703276415355503559e-03 -1.722007524222135544e-03 -1.440946361981332302e-03 -1.729977200739085674e-03 -1.579953008331358433e-03 -1.591278240084648132e-03 -1.590818865224719048e-03 -1.658824854530394077e-03 -1.518288743682205677e-03 -1.752031617797911167e-03 -1.750457216985523701e-03 -1.683960901573300362e-03 -1.713300007395446301e-03 -3.645793185569345951e-04 -1.701385946944355965e-03 -1.737977960146963596e-03 -1.541199511848390102e-03 -1.736569451168179512e-03 -1.574196037836372852e-03 -1.760929939337074757e-03 -1.729622716084122658e-03 -1.671784557402133942e-03 -1.755285076797008514e-03 -1.704016001895070076e-03 -1.723410561680793762e-03 -1.455190591514110565e-03 -1.699958695098757744e-03
-0.000000000000000000e+00 0.000000000000000000e+00 0.000000000000000000e+00 -0.000000000000000000e+00 0.000000000000000000e+00 0.000000000000000000e+00 -0.000000000000000000e+00 -0.000000000000000000e+00 0.000000000000000000e+00 0.000000000000000000e+00 -0.000000000000000000e+00 0.000000000000000000e+00 0.000000000000000000e+00 0.000000000000000000e+00 0.000000000000000000e+00 0.000000000000000000e+00 0.000000000000000000e+00 -0.000000000000000000e+00 -0.000000000000000000e+00 0.000000000000000000e+00 -0.000000000000000000e+00 0.000000000000000000e+00 -0.000000000000000000e+00 0.000000000000000000e+00 -0.000000000000000000e+00 0.000000000000000000e+00 0.000000000000000000e+00 0.000000000000000000e+00 -0.000000000000000000e+00 -0.000000000000000000e+00 -0.000000000000000000e+00 0.000000000000000000e+00 0.000000000000000000e+00 0.000000000000000000e+00 0.000000000000000000e+00 0.000000000000000000e+00 -0.000000000000000000e+00 0.000000000000000000e+00 0.000000000000000000e+00 -0.000000000000000000e+00 -0.000000000000000000e+00 0.000000000000000000e+00 0.000000000000000000e+00 -0.000000000000000000e+00 0.000000000000000000e+00 0.000000000000000000e+00 -0.000000000000000000e+00 0.000000000000000000e+00 -0.000000000000000000e+00 0.000000000000000000e+00 0.000000000000000000e+00 -0.000000000000000000e+00 -0.000000000000000000e+00 -0.000000000000000000e+00 0.000000000000000000e+00 -0.000000000000000000e+00 -0.000000000000000000e+00 0.000000000000000000e+00 -0.000000000000000000e+00 -0.000000000000000000e+00 -0.000000000000000000e+00 -0.000000000000000000e+00 0.000000000000000000e+00 -0.000000000000000000e+00 -1.350922160781919956e-03 -1.509186462499201298e-03 -1.518200966529548168e-03 -1.453970908187329769e-03 -1.651132479310035706e-03 -1.559312106110155582e-03 -1.156055252067744732e-03 -1.630026963539421558e-03 -1.616896945051848888e-03 -1.139919389970600605e-03 -1.523853046819567680e-03 -1.247436041012406349e-03 -4.338991129770874977e-04 -1.660190639086067677e-03 -1.621839357540011406e-03 -1.612692722119390965e-03 -1.064654323272407055e-03 -1.354463864117860794e-03 -1.630690996535122395e-03 -4.360111197456717491e-04 -9.053691173903644085e-04 -1.646753516979515553e-03 -1.488886307924985886e-03 -6.080045131966471672e-04 -1.544158440083265305e-03 -1.599420793354511261e-03 -1.245334278792142868e-03 -1.207445282489061356e-03 -2.690008259378373623e-04 -1.623502816073596478e-03 -1.651270664297044277e-03 -8.586985059082508087e-04 -1.634121872484683990e-03 -1.525331870652735233e-03 -1.290358952246606350e-03 -4.354803531896322966e-04 -8.742883219383656979e-04 -1.493290066719055176e-03 -1.550329849123954773e-03 -1.025072648189961910e-03 -1.591350766830146313e-03 -1.170399831607937813e-03 -1.296753063797950745e-03 -1.278667245060205460e-03 -1.468191156163811684e-03 -1.018784358166158199e-03 -1.580865122377872467e-03 -1.663295901380479336e-03 -1.508156768977642059e-03 -1.597434747964143753e-03 -6.963824125705286860e-05 -1.613456988707184792e-03 -1.629171078093349934e-03 -1.056268927641212940e-03 -1.617577858269214630e-03 -1.213264884427189827e-03 -1.635805587284266949e-03 -1.624914933927357197e-03 -1.436505583114922047e-03 -1.611224608495831490e-03 -1.454643323086202145e-03 -1.588792074471712112e-03 -1.138255232945084572e-03 -1.398915192112326622e-03
