-7.292497903108596802e-04
-8.811282459646463394e-04
-5.525737069547176361e-04
-7.274295203387737274e-04
-6.413467228412628174e-03
-6.580348708666861057e-04
-1.520684105344116688e-03
-6.532941479235887527e-04
-6.839296547695994377e-04
-4.254560917615890503e-03
-6.813360378146171570e-04
-7.337814313359558582e-04
-6.616708124056458473e-04
-6.857841508463025093e-04
-7.350057712756097317e-04
-6.965837092138826847e-04
1.881976495496928692e-03
-7.099426584318280220e-04
-6.830507190898060799e-04
-6.134075811132788658e-04
-6.582208443433046341e-04
-1.289785723201930523e-03
-5.824437830597162247e-04
-6.661610677838325500e-04
-8.768975021666847169e-06
-6.913917604833841324e-04
3.531457914505153894e-04
-6.006787880323827267e-04
-7.148395525291562080e-04
-6.895805126987397671e-04
-6.488524959422647953e-04
-3.827630716841667891e-04
-7.751180673949420452e-04
-6.729954620823264122e-04
1.096793494070880115e-05
-6.756016518920660019e-04
-2.567779738456010818e-04
-9.011783404275774956e-04
-6.734110647812485695e-04
-6.276024505496025085e-04
-7.080711075104773045e-04
7.610735337948426604e-05
-6.579770706593990326e-04
-7.079035276547074318e-04
-7.230498013086616993e-04
-6.696348427794873714e-04
-3.097541630268096924e-03
-8.329294505529105663e-04
-7.015807786956429482e-04
-6.888131611049175262e-04
-6.706424173898994923e-04
-5.434735212475061417e-04
-6.965639768168330193e-04
-6.572976708412170410e-04
-7.187138544395565987e-04
-6.678829086013138294e-04
2.079350408166646957e-03
-6.646239198744297028e-04
-6.208610720932483673e-04
-7.466973620466887951e-04
-7.196204969659447670e-04
-2.159378025680780411e-03
-7.221723790280520916e-04
-6.864978931844234467e-04
-7.627818849869072437e-04
-6.922304164618253708e-04
-2.842060348484665155e-04
-6.587484385818243027e-04
-6.784463766962289810e-04
-6.789318285882472992e-04
-6.948875379748642445e-04
-7.192765042418614030e-05
-6.844255840405821800e-04
-7.024729857221245766e-04
4.563369202514877543e-06
-7.193455821834504604e-04
1.182397409138502553e-05
-1.756042183842509985e-05
-1.098248503694776446e-05
-1.472924122936092317e-05
-6.659218925051391125e-04
-8.754068403504788876e-06
7.306795851036440581e-06
3.962145456171128899e-06
1.080600100067385938e-06
-6.960696773603558540e-04
-1.458323549741180614e-05
3.144223956041969359e-05
4.842691851081326604e-05
3.769376417039893568e-05
-7.099483627825975418e-04
2.851786302926484495e-05
7.808901500538922846e-06
4.728824569610878825e-05
-6.542867140524322167e-06
-6.892050732858479023e-04
1.219551268150098622e-05
1.868446133812540211e-06
2.430289168842136860e-05
2.350619979551993310e-05
-6.891172379255294800e-04
5.027939096180489287e-07
2.061843952105846256e-05
1.906382203742396086e-05
1.931440237967763096e-05
-6.949370144866406918e-04
2.177688884330564179e-06
-2.452221269777510315e-05
9.901705197989940643e-06
-1.112890913645969704e-05
-6.858076667413115501e-04
2.285606205987278372e-05
-1.103411068470450118e-05
9.995772416004911065e-06
6.015334292897023261e-06
-7.016326417215168476e-04
-5.570990197156788781e-06
-1.194299784401664510e-05
3.720233144122175872e-05
-1.692674049991182983e-05
-6.851092912256717682e-04
-1.328848156845197082e-05
-3.409916462260298431e-05
-1.186352619697572663e-05
1.851520937634631991e-05
-6.854564999230206013e-04
1.884266930574085563e-05
-2.740371564868837595e-05
7.944597200548741966e-06
1.846708619268611073e-05
-6.738304509781301022e-04
-1.669945777393877506e-05
-4.197629459667950869e-05
-1.591143643508985406e-07
-3.126007186438073404e-06
-7.038727053441107273e-04
8.549912308808416128e-06
-2.167415914300363511e-05
-1.875657835626043379e-05
1.542561403766740113e-05
-6.958185113035142422e-04
-1.225506366608897224e-05
-2.763402335403952748e-06
-2.569852995293331333e-06
-4.062396328663453460e-05
-6.869895732961595058e-04
-6.111609309300547466e-06
-7.578557415399700403e-06
2.255867002531886101e-05
-6.885881884954869747e-05
5.279232027532998472e-06
-4.112547030672430992e-04
-9.541040053591132164e-04
-1.354938838630914688e-03
2.306815076735801995e-05
-8.356700163858477026e-06
-3.977198048232821748e-06
-1.567582876305095851e-05
-8.073976496234536171e-04
1.529092155396938324e-02
-2.167814272979740053e-05
1.260151748283533379e-05
-3.557956006261520088e-05
-1.792649891285691410e-05
-6.636868929490447044e-04
-2.361349061175133102e-06
-1.021526804834138602e-05
-2.107097134285140783e-05
-5.725834125769324601e-05
-7.043216555757680908e-06
1.532101631164550781e-02
2.219751849770545959e-02
-1.230223197489976883e-02
-1.845990300353150815e-05
-2.278360079799313098e-05
-9.218649211106821895e-06
4.798955284059047699e-03
-2.690103137865662575e-03
7.306161336600780487e-03
-2.615740413602907211e-05
-2.746737300185486674e-05
3.061728057218715549e-05
3.846819890895858407e-05
-6.711428868584334850e-04
2.904110122472047806e-03
2.420361124677583575e-05
2.805042458930984139e-05
-3.001675759151112288e-05
1.084814630303299055e-05
-6.777872331440448761e-04
9.395544111612252891e-06
-3.995989573013503104e-06
1.485301527281990275e-05
4.018974141217768192e-05
3.076824214076623321e-05
1.677970029413700104e-02
1.468240749090909958e-02
-6.132412236183881760e-03
5.814793894387548789e-06
-6.713799848512280732e-06
-1.085772510123206303e-05
-8.845918346196413040e-04
-3.056233690585941076e-04
-5.102279130369424820e-03
-1.117844112741295248e-05
5.041888289269991219e-05
-4.186308615317102522e-06
-3.741900854947743937e-06
-6.580785848200321198e-04
6.973156359890708700e-06
1.343413077847799286e-05
1.896256071631796658e-05
-3.235608528484590352e-05
-2.858192965504713356e-05
-6.729601882398128510e-04
-3.387898323126137257e-05
1.920852992043364793e-05
1.247944851456850301e-06
-7.122293936845380813e-06
-1.041443192661972716e-05
-6.391800707206130028e-04
-5.385979893617331982e-04
-1.571166649227961898e-05
-1.143024110206170008e-05
2.256419065815862268e-05
-2.393745671724900603e-05
2.334492048248648643e-03
-1.929086819291114807e-02
-1.794112473726272583e-02
8.454844646621495485e-06
1.994611695408821106e-02
2.046361987595446408e-05
7.687310244364198297e-06
-6.416652468033134937e-04
-4.504530224949121475e-03
-8.729521141503937542e-06
-4.716223884315695614e-06
-2.617719110276084393e-05
1.369257461192319170e-05
-6.757176015526056290e-04
9.059684089152142406e-06
-1.752363095874898136e-05
2.112036781909409910e-05
2.538855915190652013e-05
-1.102152782550547272e-05
-7.623485871590673923e-04
2.563917951192706823e-04
-3.230307129342691042e-06
-3.272808726251241751e-07
5.263389539322815835e-06
2.524878073018044233e-05
9.940613381331786513e-05
-3.145449096336960793e-03
-4.939876031130552292e-03
-7.966721568664070219e-06
-3.028530591109301895e-05
2.246595613542012870e-05
1.281523873331025243e-05
-7.547237910330295563e-04
3.749036462977528572e-03
-1.542138670629356056e-05
-1.283452911593485624e-05
1.979799708351492882e-05
5.892024546483298764e-06
-6.812725914642214775e-04
-4.933656236971728504e-05
-3.201515210093930364e-05
3.607945473049767315e-05
-1.750038609316106886e-05
-6.779853720217943192e-04
-2.614402001199778169e-05
-1.777722536644432694e-05
5.751371645601466298e-06
2.215489803347736597e-05
-5.673904524883255363e-05
-1.329366932623088360e-05
-8.577703265473246574e-04
-1.952489954419434071e-03
2.775746164843440056e-03
-2.557451261964160949e-05
1.350647304207086563e-02
1.362050170428119600e-05
-9.095714631257578731e-06
-7.326201885007321835e-04
6.233760155737400055e-03
-1.106954277929617092e-05
-8.111625356832519174e-05
-1.449228761885024142e-06
-1.606638215889688581e-05
-6.949923699721693993e-04
-3.111475962214171886e-05
-2.284601396240759641e-05
-1.259247892448911443e-05
4.288374839234165847e-06
-7.605398877785773948e-06
-6.879775901325047016e-04
-6.836404791101813316e-04
-1.204998898174380884e-05
2.477175985404755920e-05
-2.926821798610035330e-05
3.787246782849251758e-07
-1.299161347560584545e-03
1.742916792863979936e-04
-2.871813252568244934e-03
-1.616487134015187621e-05
-2.673730705282650888e-05
2.777529516606591642e-05
1.671614518272690475e-05
-5.781052168458700180e-04
-7.519433740526437759e-03
-1.765735760272946209e-05
6.221170224307570606e-06
2.376009433646686375e-05
1.667639935476472601e-06
-6.543734343722462654e-04
-8.683717169333249331e-06
1.747031819832045585e-05
1.096107098419452086e-06
2.991081237269099802e-05
-6.500502349808812141e-04
-5.493344815477030352e-06
-3.633261803770437837e-05
-1.054258336807833984e-05
2.401544224994722754e-05
-1.023127970256609842e-05
2.273433892696630210e-05
-1.139034284278750420e-03
-5.925191100686788559e-03
3.364594886079430580e-03
-1.642475035623647273e-05
8.500644071318674833e-06
-2.376487145738792606e-06
-2.587501739981235005e-06
-4.431619308888912201e-04
-1.060040201991796494e-02
3.464503242867067456e-05
1.233621060237055644e-05
8.032163350435439497e-06
-2.683975435502361506e-05
-6.784894503653049469e-04
-2.569654861872550100e-05
-2.746416066656820476e-05
-6.531550297950161621e-06
1.937116212502587587e-05
3.535879659466445446e-05
-7.627379964105784893e-04
3.786917775869369507e-03
7.157824256864842027e-06
-1.661426153987122234e-06
2.156022674171254039e-05
2.899232458730693907e-05
3.178255865350365639e-03
-1.402334868907928467e-02
-1.142946165055036545e-02
-2.080448393826372921e-05
6.042463239282369614e-03
-1.304755278397351503e-05
-1.627001984161324799e-05
-6.493695545941591263e-04
-2.436404611216858029e-05
9.098424925468862057e-06
1.292840806854655966e-05
-2.638098067109240219e-06
2.565032264101319015e-05
-6.850817007943987846e-04
-1.980891101993620396e-05
2.963681254186667502e-05
4.061427171109244227e-05
-8.456755722363595851e-07
1.739290564728435129e-05
-6.066732457838952541e-04
2.145356032997369766e-03
-2.337587466172408313e-05
-3.057219510083086789e-05
-5.863291789864888415e-06
-3.513284536893479526e-05
1.906258519738912582e-03
-8.689593523740768433e-03
4.391739203128963709e-04
-4.799838734470540658e-06
1.092434445126855280e-06
-1.058287489286158234e-05
1.571920984133612365e-05
-5.556829273700714111e-04
-5.495022982358932495e-03
-2.219197631347924471e-05
-2.867562398023437709e-05
-2.868716001103166491e-05
-5.981304980196000542e-07
-6.695931078866124153e-04
-2.907890484493691474e-05
-5.064738161308923736e-06
3.939267480745911598e-05
-3.314647619845345616e-05
3.195777753717266023e-05
-6.908308714628219604e-04
-8.938217433751560748e-06
4.734026879305019975e-05
1.485205029894132167e-05
-2.732798566285055131e-05
-3.379620829946361482e-05
-1.263034180738031864e-03
-8.658627979457378387e-03
1.907472684979438782e-02
-2.123654849128797650e-05
-1.966152740351390094e-05
1.732509372232016176e-05
-4.667414032155647874e-05
-6.911315722391009331e-04
-3.397422842681407928e-03
-1.253359914699103683e-05
1.170009454654064029e-05
1.584217898198403418e-05
2.891976146202068776e-05
-6.945709465071558952e-04
1.609158425708301365e-05
8.075529876805376261e-06
-1.147362127085216343e-05
-4.578987500281073153e-06
1.238389995705801994e-05
-6.390296039171516895e-04
-7.560695521533489227e-03
6.970664117034175433e-07
2.613626384118106216e-05
-2.232636325061321259e-05
3.658446075860410929e-06
-3.689326578751206398e-03
1.412061695009469986e-02
4.881528671830892563e-03
3.722117617144249380e-05
2.139840034942608327e-05
2.002365363296121359e-05
-3.445558832027018070e-05
-7.001414196565747261e-04
-1.251448452421755064e-06
1.390195029671303928e-05
-2.681044861674308777e-05
-2.545425195421557873e-05
1.608206548553425819e-05
-6.730314344167709351e-04
-2.948119072243571281e-05
8.635812264401465654e-06
-1.965695992112159729e-05
-1.242845792148727924e-05
3.294543057563714683e-05
-6.120300386101007462e-04
-1.822799909859895706e-03
2.652940565894823521e-05
2.824777402565814555e-05
1.012466054817195982e-05
9.302309990744106472e-06
8.809173014014959335e-04
-1.166349928826093674e-02
4.662476014345884323e-03
-4.087496563442982733e-05
3.019530049641616642e-05
1.795171192497946322e-05
2.136802504537627101e-05
-6.666413974016904831e-04
-3.360548580531030893e-04
1.466016783524537459e-05
-7.660480150661896914e-06
8.600650289736222476e-06
-6.932093583600362763e-06
-6.817755056545138359e-04
2.555542960180900991e-05
4.278044798411428928e-06
-2.926836350525263697e-05
-1.376506952510681003e-05
2.411789319012314081e-05
-5.832259776070713997e-04
-6.164295133203268051e-03
2.852706893463619053e-05
2.609687044241582043e-06
2.327898982912302017e-05
1.125976268667727709e-05
-1.083882409147918224e-03
1.224991586059331894e-02
-4.525606986135244370e-03
-4.292675384931499138e-06
1.613117456145118922e-05
-3.428564014029689133e-05
-1.794108720787335187e-05
-6.853496888652443886e-04
-3.138562533422373235e-05
-2.854244667105376720e-05
-2.950426824099849910e-05
5.542261988011887297e-06
-1.113402595365187153e-05
-6.702082464471459389e-04
1.646478580141774728e-07
-1.267837615159805864e-05
1.030345742947247345e-06
-7.735619874438270926e-06
-3.085035814365255646e-06
-6.445144535973668098e-04
-1.001949422061443329e-03
-2.014926758420187980e-05
1.115899749493109994e-06
1.102181727219431195e-06
1.266837671209941618e-06
2.255270010209642351e-05
-1.442447397857904434e-02
8.391589857637882233e-03
-2.783250238280743361e-06
-1.561788521939888597e-04
-3.294347334303893149e-05
-5.585483449976891279e-06
-6.445384351536631584e-04
-2.692416273930575699e-05
1.873186374723445624e-05
1.693994090601336211e-05
-8.706268999958410859e-06
-4.038060433231294155e-05
-6.768358871340751648e-04
4.992171307094395161e-05
3.008311432495247573e-05
2.576658698671963066e-05
-8.889311175153125077e-06
-6.865460891276597977e-04
7.887331776146311313e-06
-1.850460466812364757e-05
1.733248063828796148e-05
-1.966983290913049132e-05
-4.825060386792756617e-06
-6.280393572524189949e-04
-5.497516758623532951e-05
-3.233246752643026412e-05
9.692109415482264012e-06
2.657787035786896013e-06
-6.659851642325520515e-04
-1.662901740928646177e-05
-3.507867631924455054e-06
-3.333103450131602585e-05
-3.670340447570197284e-05
-6.609599804505705833e-04
4.347622962086461484e-05
1.354259984509553760e-05
2.878898703784216195e-05
-1.804845305741764605e-05
-6.941718747839331627e-04
1.416027089362614788e-06
9.206926733895670623e-06
-5.066729045211104676e-06
-3.437636769376695156e-05
-6.865276955068111420e-04
-3.905542598658939824e-06
-5.015593706048093736e-05
-1.968812102859374136e-05
-1.553363972561783157e-06
-6.523005431517958641e-04
-1.738657556416001171e-05
-5.905736543354578316e-06
-1.251492540177423507e-05
1.468989285058341920e-05
-6.831443170085549355e-04
1.997507206397131085e-05
-5.552426046051550657e-06
4.815136890101712197e-06
-3.568373358575627208e-06
-6.690270965918898582e-04
2.290618613187689334e-05
-2.657850200193934143e-05
-3.650012104117195122e-06
-3.192201256752014160e-05
-6.827857578173279762e-04
-5.534218416869407520e-06
4.211820851196534932e-06
-2.743877303146291524e-05
7.796585123287513852e-06
-6.469605723395943642e-04
-2.005759256462624762e-07
-2.023008892138022929e-05
-2.497732930351048708e-05
3.195970202796161175e-05
-6.547899683937430382e-04
-2.266884985147044063e-05
2.892826614697696641e-06
3.835392635664902627e-05
5.964180900264182128e-07
-7.266228785738348961e-04
8.826149496599100530e-06
1.173701275547500700e-05
2.882443004637025297e-05
1.405024158884771168e-05
-6.568520329892635345e-04
-2.074606709356885403e-05
-2.684151513676624745e-05
-4.200404873699881136e-05
-2.020709507633000612e-05
-6.594861624762415886e-04
2.253754610137548298e-05
2.332740405108779669e-05
-7.104505129973404109e-06
-1.677125510468613356e-05
-6.999835604801774025e-04
2.736810347414575517e-05
1.964420152944512665e-05
-1.607179910934064537e-05
8.433087714365683496e-06
-1.360291847959160805e-03
4.403740149427903816e-06
-9.204412344843149185e-04
-1.357987057417631149e-03
-8.825378026813268661e-04
1.291976543143391609e-03
1.719182590022683144e-03
-6.656937766820192337e-03
-2.054241849691607058e-05
5.416950443759560585e-04
-7.633206434547901154e-03
-6.134849507361650467e-03
-2.637113910168409348e-03
5.630481056869029999e-03
-6.123373284935951233e-03
3.740501706488430500e-04
5.019932053983211517e-03
1.268691290169954300e-02
9.694484062492847443e-03
-8.114880882203578949e-03
-1.362666254863142967e-03
-2.631585113704204559e-03
-3.961018752306699753e-03
5.905763246119022369e-03
-6.353589706122875214e-03
-6.603751098737120628e-04
7.954847998917102814e-03
-4.826239892281591892e-04
4.855276551097631454e-03
-1.839356613345444202e-03
-1.763266627676784992e-03
-3.602335928007960320e-03
3.474633907899260521e-03
-2.522621070966124535e-03
-5.455051432363688946e-04
6.724263075739145279e-04
4.839968867599964142e-03
-1.363975694403052330e-03
1.793643968994729221e-05
-9.560731705278158188e-04
-1.371613470837473869e-03
1.154411438619717956e-05
-9.382683783769607544e-04
-6.825752789154648781e-04
-1.164756304206093773e-05
3.048385951842647046e-05
-3.231626578781288117e-06
3.021787233592476696e-05
-2.207136247307062149e-03
-1.824374521675053984e-05
-5.954398075118660927e-04
-2.234614919871091843e-03
-3.573327325284481049e-03
9.717583889141678810e-04
-3.679156769067049026e-03
1.338399853557348251e-02
2.454533474519848824e-03
-3.377794986590743065e-03
-2.953841118142008781e-03
-4.050610121339559555e-03
1.768756075762212276e-03
3.583237528800964355e-03
-7.352684158831834793e-03
2.413633977994322777e-03
-1.995423110201954842e-03
-1.233981270343065262e-02
-2.387246349826455116e-03
5.976523738354444504e-03
-2.191491890698671341e-03
7.813585922122001648e-03
2.891889607781195082e-06
-9.769954485818743706e-04
-1.314993278356269002e-05
-1.607031933963298798e-02
-7.803874905221164227e-04
1.323950756341218948e-02
-9.181278757750988007e-03
5.443760659545660019e-03
-4.448972642421722412e-03
-1.272738794796168804e-03
-9.592023561708629131e-04
2.089824061840772629e-03
-3.717768471688032150e-03
7.157977670431137085e-03
-4.986544139683246613e-03
-2.215138170868158340e-03
2.607698115753009915e-05
-5.688633536919951439e-04
-2.218979410827159882e-03
1.013552446238463745e-05
-5.724994698539376259e-04
-2.178439870476722717e-03
-5.949406186118721962e-04
-1.327311565546551719e-05
6.038818537490442395e-05
-3.981674126407597214e-06
-7.237239740788936615e-03
2.607417627586983144e-05
-2.505472366465255618e-05
-7.289088331162929535e-03
4.444144666194915771e-03
-7.775024510920047760e-03
8.122554048895835876e-03
-3.676585620269179344e-03
8.907156297937035561e-04
3.396136453375220299e-03
-1.885969890281558037e-03
1.148680574260652065e-03
-9.603257640264928341e-04
-1.457817968912422657e-03
2.587926806882023811e-03
-9.883207269012928009e-03
-1.944954972714185715e-03
-4.218527581542730331e-03
6.432545371353626251e-03
3.952823753934353590e-04
-7.287042215466499329e-03
-1.906091230921447277e-03
-8.401218801736831665e-03
-2.510174410417675972e-03
2.828539581969380379e-03
5.169106647372245789e-03
-5.968959536403417587e-03
1.706093922257423401e-02
6.600235356017947197e-04
-7.446655072271823883e-03
-2.607451518997550011e-03
1.282118028029799461e-03
-5.110367201268672943e-03
-5.058168317191302776e-04
-5.785840130556607619e-06
4.980138968676328659e-03
7.490891031920909882e-03
-7.269735913723707199e-03
1.897533002193085849e-05
-4.106644337298348546e-05
-7.273051422089338303e-03
-9.399630471307318658e-06
-1.288964176637819037e-05
-7.298661395907402039e-03
6.009308435750426725e-06
-5.857798532815650105e-05
-1.377566422888776287e-05
2.979058990604244173e-05
1.784553169272840023e-03
-3.581989585654810071e-05
-7.739026914350688457e-04
1.836399664171040058e-03
6.895353086292743683e-03
-1.365258412988623604e-05
-2.211967715993523598e-03
1.393092563375830650e-03
1.410195727657992393e-05
1.577909104526042938e-02
1.021960517391562462e-03
-3.012221422977745533e-04
5.382457282394170761e-03
4.080091603100299835e-03
-1.947027747519314289e-03
3.348521888256072998e-03
-3.873753594234585762e-03
1.033808104693889618e-03
-1.438095816411077976e-03
-3.371044993400573730e-03
1.795241725631058216e-03
-1.022056094370782375e-03
-5.419754423201084137e-03
4.513160325586795807e-03
6.311729550361633301e-03
2.069778041914105415e-03
-2.380866324529051781e-03
1.897517540783155710e-05
-9.962436743080615997e-04
1.279447809793055058e-03
7.467496208846569061e-03
-9.510106792731676251e-06
2.688377629965543747e-03
1.335790567100048065e-02
3.206823312211781740e-04
2.131196670234203339e-03
-8.074900833889842033e-04
1.804887433536350727e-03
-1.481449817219981924e-05
-7.388902013190090656e-04
1.802021753974258900e-03
2.080906597257126123e-05
-7.267731125466525555e-04
1.801994745619595051e-03
6.358901828207308426e-06
1.924658863572403789e-05
-7.290918729268014431e-04
-3.825971361948177218e-06
-2.555766695877537131e-05
-6.877449341118335724e-04
-1.378702017973409966e-05
-1.894966408144682646e-05
-6.802732823416590691e-04
8.454378985334187746e-06
2.927125569840427488e-05
-2.231279358966276050e-05
5.482070832840690855e-07
-3.534395773385767825e-06
-1.472380245104432106e-05
6.944268079678295180e-06
1.317380065302131698e-05
-4.563334732665680349e-05
2.697260470085893758e-06
-1.593969864188693464e-05
-1.915056054713204503e-05
1.978977888938970864e-05
9.482732821197714657e-06
-3.512910916469991207e-05
1.779608464858029038e-05
-6.676350021734833717e-04
9.862716296993312426e-07
1.694856837275438011e-05
-5.256428266875445843e-05
1.282011567127483431e-06
-2.331291398149915040e-05
-4.964912022842327133e-06
1.608796810614876449e-05
-1.296783102588960901e-05
-3.040494266315363348e-05
-3.508489953674143180e-06
3.428051286391564645e-06
-4.247981632943265140e-05
1.277598585147643462e-05
1.949498073372524232e-05
-2.549817145336419344e-05
2.324155320820864290e-05
-6.687230197712779045e-04
2.098977711284533143e-05
-1.226542190124746412e-05
-6.637304322794079781e-04
-2.077942554024048150e-05
-1.353568950435146689e-05
-3.631443178164772689e-05
-3.273721631558146328e-06
6.642271728196647018e-06
-6.470434600487351418e-04
