-2.220950409537181258e-04
-1.971777674043551087e-04
-2.183222823077812791e-04
-2.125524915754795074e-04
-4.728839558083564043e-04
-4.231542698107659817e-04
-2.234575658803805709e-04
-2.262685302412137389e-04
-2.086452441290020943e-04
-4.382842744234949350e-04
-6.333821802400052547e-04
-2.261423796880990267e-04
-2.214251144323498011e-04
-2.302658540429547429e-04
-2.137626579497009516e-04
-8.305181981995701790e-04
-2.378381468588486314e-04
-2.057246019830927253e-04
-2.067000750685110688e-04
-2.160050789825618267e-04
-1.033226260915398598e-03
-2.084990119328722358e-04
-2.168628125218674541e-04
-2.196772402385249734e-04
9.769443749974016100e-06
-1.234665745869278908e-03
-2.124659367837011814e-04
-2.016777725657448173e-04
-2.108053886331617832e-04
-2.074272779282182455e-04
-1.433392753824591637e-03
-2.092141367029398680e-04
-2.081752318190410733e-04
-2.208028599852696061e-04
-1.000599127110035624e-06
-1.620958442799746990e-03
-2.335471654077991843e-04
-2.225598145741969347e-04
-2.190735685871914029e-04
-2.172328531742095947e-04
-1.812148606404662132e-03
-2.416107890894636512e-04
-2.117854164680466056e-04
-2.074152725981548429e-04
-2.140510623576119542e-04
-1.992073142901062965e-03
-2.119327691616490483e-04
-2.116359682986512780e-04
-2.170542866224423051e-04
-2.206758508691564202e-04
-2.181217074394226074e-03
-2.358568308409303427e-04
-2.179638686357066035e-04
-2.173985267290845513e-04
-4.765107296407222748e-04
-2.367723267525434494e-03
-2.092933573294430971e-04
-2.122284640790894628e-04
-2.134007809218019247e-04
-2.317424805369228125e-04
-2.544539049267768860e-03
-2.361789083806797862e-04
-2.133405359927564859e-04
-2.179170405725017190e-04
-2.093344082823023200e-04
-2.722581615671515465e-03
-2.210783422924578190e-04
-2.074079966405406594e-04
-2.141547884093597531e-04
-2.207946672569960356e-04
-2.894665580242872238e-03
-2.094462251989170909e-04
-2.121969737345352769e-04
-2.131173096131533384e-04
6.174210284370929003e-06
-3.066296223551034927e-03
9.083954864763654768e-06
9.077083632291760296e-06
-1.397076357534388080e-05
1.095101288228761405e-05
-3.246446140110492706e-03
-3.940619080822216347e-06
-2.645555241542751901e-06
-1.417057956132339314e-05
1.363829778711078689e-05
-3.416684456169605255e-03
6.458336883952142671e-06
-1.774340853444300592e-05
-1.089523379960155580e-06
-1.009763082038261928e-06
-3.569902852177619934e-03
5.401041107688797638e-06
-5.393593710323330015e-06
-7.647426173207350075e-06
-4.045129117002943531e-06
-3.735808189958333969e-03
-1.400885594193823636e-05
3.586745606298791245e-06
4.055439148942241445e-07
-5.813763436890440062e-06
-3.898780560120940208e-03
-2.565344630056642927e-06
7.130940957722486928e-07
-5.138170763530069962e-06
7.768058480905892793e-07
-4.050237592309713364e-03
1.189238560073135886e-06
-9.138892664850573055e-07
-1.248976423084968701e-05
7.073846859384502750e-07
-4.206361714750528336e-03
-8.548632649763021618e-06
-1.822540980356279761e-06
8.104599373837118037e-07
-1.760057784849777818e-06
-4.359605722129344940e-03
7.246605491673108190e-06
6.494347871921490878e-06
-6.840635364824265707e-07
2.464176077410229482e-06
-4.513837862759828568e-03
9.420466085430234671e-06
3.515095158945769072e-06
1.148246724369528238e-06
-1.040593178913695738e-05
-4.659341648221015930e-03
-5.071974555903580040e-06
-2.114542496656213189e-07
1.100719600799493492e-05
-1.316367706749588251e-05
-4.948670510202646255e-03
5.245313786872429773e-06
-6.871981895528733730e-06
-5.301628789311507717e-06
4.820724939236242790e-07
-5.098647437989711761e-03
9.773953934200108051e-06
-8.950673304752854165e-07
1.371991970700037200e-06
8.859474820432922115e-10
-5.242802668362855911e-03
-3.655695081761223264e-06
-4.719473508885130286e-06
-3.804309471888700500e-07
1.149249237641924992e-05
-5.384450778365135193e-03
3.254420789744472131e-06
1.532387159386416897e-06
2.476674353601993062e-06
-6.485252470156410709e-06
1.003011948341736570e-05
-2.427242725389078259e-04
4.498253474594093859e-05
3.769943077713833191e-06
2.859723508663591929e-06
-5.431320914794923738e-06
5.389468242356088012e-06
5.026063263358082622e-07
-2.148645144188776612e-04
-1.349235753878019750e-05
-4.053690190630732104e-06
9.643118573876563460e-06
4.924691893393173814e-06
1.510649326519342139e-06
-2.215002023149281740e-04
4.007453298981999978e-06
8.884090675564948469e-06
-8.224062185036018491e-06
-6.340349955280544236e-06
-3.056547029700595886e-06
-8.128832268994301558e-05
-1.293152217840543017e-05
-1.297878479817882180e-04
-2.715818027354544029e-06
-4.677747256209840998e-07
-3.050754457945004106e-07
-2.175554254790768027e-04
-8.964899279817473143e-06
-2.544504241086542606e-06
1.356164489152433816e-06
-2.793571809434070019e-07
-1.292700471822172403e-05
8.646818059787619859e-06
-2.227655058959499002e-04
2.220642954853246920e-06
3.915686477284907596e-07
4.117402113479329273e-06
-5.381531536841066554e-06
3.469213424978079274e-06
-2.207115030614659190e-04
7.375559562206035480e-06
-4.693477876571705565e-06
-1.500534835940925404e-06
-4.308842562750214711e-06
6.172872872411971912e-06
-1.177859667222946882e-04
-9.591777597961481661e-06
-9.773948841029778123e-05
7.707037070758815389e-07
1.232931572303641587e-05
-2.112469132953265216e-07
-2.196091809310019016e-04
7.684437150601297617e-06
2.985429773616488092e-06
4.029981482744915411e-06
5.088769583494467952e-08
-2.045548853857326321e-06
2.580991804279619828e-06
-2.106864703819155693e-04
-7.558114702987950295e-06
-1.025398796627996489e-05
-1.670278106757905334e-05
2.124006414305767976e-06
1.186324698210228235e-05
-2.086212625727057457e-04
4.265371444489574060e-06
-7.182539775385521352e-06
8.067394446698017418e-06
-1.667010451456008013e-06
7.599686341563938186e-06
-2.304645604453980923e-04
3.822092821792466566e-06
-1.460698399569082540e-06
5.615971986117074266e-06
-3.747417622435023077e-06
-5.757000508310738951e-06
-2.166592166759073734e-04
3.419748736632755026e-06
-1.611906191101297736e-05
-1.395470690113143064e-06
-9.325869541498832405e-06
6.295261300692800432e-06
-2.868255705834599212e-06
-2.304312220076099038e-04
2.796927446979680099e-06
5.173154931981116533e-06
1.176654131995746866e-05
-6.056036909285467118e-06
-5.639826213155174628e-06
-2.382262173341587186e-04
-2.979973260153201409e-06
6.102160568843828514e-06
1.045056433213176206e-05
-1.923711124618421309e-06
7.914794878161046654e-06
-2.025410358328372240e-04
9.441009751753881574e-06
2.348943326069274917e-06
7.858585377107374370e-06
3.612314912970759906e-06
-6.737074272678000852e-06
-2.133805101038888097e-04
1.208989397127879784e-05
9.804229193832725286e-06
-5.386423254094552249e-06
-8.976802746474277228e-06
4.340922714618500322e-07
5.651747869706014171e-06
-2.052376512438058853e-04
-4.861720299231819808e-06
-4.531293143372749910e-06
2.498604317224817351e-06
1.306851913795981091e-06
5.227548626862699166e-06
-2.110589994117617607e-04
-1.349028298136545345e-05
2.510986178094753996e-06
6.517637984870816581e-07
6.562274847965454683e-06
-2.094109950121492147e-04
-9.027726264321245253e-06
-4.161309334449470043e-06
-7.356526566582033411e-06
1.766491322996444069e-06
-6.186640348460059613e-06
-8.534002517990302294e-06
-2.064465952571481466e-04
-9.972605766961351037e-06
7.587821983179310337e-06
-8.163101483660284430e-07
4.796792723027465399e-07
8.731228263059165329e-06
-2.685187837414559908e-06
-2.026817383011803031e-04
4.082794930582167581e-06
-8.994562449515797198e-06
-7.245141205203253776e-06
8.862666618369985372e-06
-7.235017164930468425e-06
-2.223826450062915683e-04
-5.424173650681041181e-06
-5.831250746268779039e-06
1.241647851202287711e-06
8.877377695171162486e-06
-7.049506166367791593e-06
-2.164063334930688143e-04
-1.046389752445975319e-05
6.763960300304461271e-06
1.621106946458894527e-07
-4.980450739822117612e-06
-6.527593086502747610e-06
-2.275691076647490263e-04
1.640771188249345869e-05
2.256943389511434361e-06
9.658936505729798228e-06
-1.055726988852256909e-05
-3.213031504856189713e-06
-7.703114874857419636e-07
-2.049389731837436557e-04
8.975099262897856534e-06
-5.127930307935457677e-06
-4.565630661090835929e-06
-4.125295163248665631e-06
6.392220257112057880e-06
-2.115759853040799499e-04
-8.323111615027301013e-06
7.241900448207161389e-07
-1.694691854936536402e-05
-1.157213546321145259e-06
-2.088034962071105838e-04
4.901542524748947471e-06
1.172064798993233126e-06
5.456430244521470740e-06
6.785130608477629721e-06
1.620474358787760139e-05
1.117061128752538934e-05
-2.011696487898007035e-04
-2.762903022812679410e-05
1.072172381100244820e-05
4.351044026407180354e-06
4.331285708758514374e-06
5.061403385298035573e-07
-6.265526280913036317e-06
-2.076461823889985681e-04
-2.466135356371523812e-06
1.340182279818691313e-05
-1.460271619180275593e-06
-1.629917096579447389e-05
-5.244094609224703163e-06
-2.040045510511845350e-04
4.154933321842690930e-06
1.045193312165793031e-05
3.453958925092592835e-06
5.815846179757500067e-06
9.091350875678472221e-06
-2.208466903539374471e-04
-1.855920572779723443e-07
8.060650884544884320e-07
-2.129771701220306568e-07
1.100034387491177768e-05
2.143359125739152660e-07
-1.951379672391340137e-04
-2.928076719399541616e-05
9.831598617893178016e-06
1.806570480766822584e-06
-1.302454074902925640e-05
-8.819873755783191882e-07
3.069447529924218543e-06
-2.117031981470063329e-04
9.056932412931928411e-07
-1.170027098851278424e-05
-8.786109901848249137e-06
-1.931776523633743636e-06
7.201175321824848652e-06
-2.142691664630547166e-04
-9.513809686723107006e-07
-7.283252671186346561e-06
1.784623918865690939e-06
3.033724851775332354e-06
1.041937480295018759e-06
-2.189036895288154483e-04
-3.818385266640689224e-06
-2.858980906239594333e-06
-9.685976465334533714e-07
7.937715054140426219e-07
5.494023298524552956e-06
-2.205110358772799373e-04
-1.320776209468021989e-05
1.064777052306453697e-06
1.545949999126605690e-05
8.645745765534229577e-06
-1.786880034160276409e-06
3.737034603545907885e-06
-2.152494562324136496e-04
1.406407250215124805e-06
5.007439995097229257e-06
5.891531600354937837e-06
2.717532879614736885e-06
-1.014532426779624075e-05
-2.088957553496584296e-04
-1.356516895612003282e-05
-2.463154942233813927e-06
-3.906793153873877600e-06
9.151684139396820683e-07
1.232373733728309162e-06
-2.197036956204101443e-04
-4.953223196935141459e-06
-2.885019966925028712e-06
1.295309516535780858e-06
9.018289347295649350e-06
4.457847353478427976e-06
-2.086034801322966814e-04
-1.591710861248429865e-05
-3.937948349630460143e-06
-2.010640400840202346e-06
-9.602727004676125944e-06
1.194049855257617310e-05
8.737789357837755233e-06
-2.161676966352388263e-04
-1.406645333190681413e-05
-1.237541482623782940e-06
1.206756678584497422e-06
7.305575309146661311e-06
-3.207684130757115781e-06
-2.135803224518895149e-04
9.620019227440934628e-06
-1.591088448549271561e-06
4.600527063303161412e-06
-2.423699015707825311e-06
-7.389118650280579459e-07
-8.039198291953653097e-05
-4.749761956190923229e-06
-1.526225532870739698e-04
-1.569306914461776614e-05
2.370537686147144996e-06
-5.363962827686918899e-06
-2.180662268074229360e-04
7.432399797835387290e-07
1.028844508255133405e-05
-3.250615009164903313e-06
7.382096100627677515e-06
6.277884040173375979e-06
-3.860581273329444230e-06
-2.074600051855668426e-04
-5.792669071524869651e-06
5.205679372011218220e-06
-8.046245056902989745e-06
4.796521935190867225e-08
1.253905611520167440e-05
-2.019612438743934035e-04
4.580545009957859293e-07
-3.214351636415813118e-06
-3.161114364047534764e-06
-1.785894255590392277e-06
5.387523742683697492e-06
-2.095162053592503071e-04
-1.502446025369863492e-06
-5.259769750409759581e-06
-5.147942943040106911e-07
-4.638368409359827638e-06
-3.361049039085628465e-06
-1.919259229907765985e-04
-3.712362513397238217e-06
1.548140744489501230e-06
1.023003369482466951e-05
-3.087678578594932333e-06
-7.645146524737356231e-07
3.253934011127057602e-08
-2.147024933947250247e-04
6.854675120848696679e-06
-1.228882297255040612e-06
1.718979319775826298e-06
-6.053765446267789230e-06
-7.867872227507177740e-06
-2.106952306348830462e-04
-3.351138502694084309e-06
-3.015576794496155344e-06
-9.367275197291746736e-06
3.015204129042103887e-06
-1.082873404811834916e-05
-2.117020339937880635e-04
1.029645045491633937e-05
-9.691247214504983276e-06
-4.510486178332939744e-06
-7.327456842176616192e-06
-1.441996346329688095e-06
-2.057161327684298158e-04
-3.981401732744416222e-06
4.097497878774447599e-07
1.252305651178176049e-06
-3.745152071132906713e-06
1.902199073811061680e-06
4.583754162013065070e-06
-2.181635645683854818e-04
-9.826288078329525888e-06
-6.641323125222697854e-06
2.914935350872838171e-07
-1.485088660047040321e-06
5.763616172771435231e-06
-2.134739479515701532e-04
-7.800535968272015452e-06
5.839927325723692775e-06
-3.469283228696440347e-06
-1.654103107284754515e-05
1.036136382026597857e-06
-2.062463609036058187e-04
-1.426895596523536369e-05
1.490944487159140408e-05
6.028159077686723322e-06
9.831287570705171674e-06
-3.825551857516984455e-07
-2.117558469763025641e-04
-1.705351678538136184e-05
1.174836324935313314e-05
6.265769570745760575e-06
-1.031737429002532735e-05
9.176943649435997941e-07
2.895472334785154089e-06
-2.238672022940590978e-04
-1.834313593462866265e-06
4.691054073191480711e-06
-8.852087375998962671e-06
-1.069454538082936779e-05
-3.004556901942123659e-06
-2.058370882878080010e-04
4.070294835401000455e-06
-1.500191137893125415e-05
6.033932550053577870e-06
-7.073989308992167935e-06
-2.018502709688618779e-04
2.428837888146517798e-06
-6.280887191678630188e-06
5.549142770178150386e-06
1.452997025808144826e-06
-9.038295502250548452e-06
-2.324637025594711304e-04
3.847755124297691509e-06
1.593837396285380237e-06
-1.877390218396612909e-06
-1.903572524497576524e-06
-2.062212588498368859e-04
2.152787601517047733e-06
1.777105609335194458e-07
4.397871180117363110e-06
3.083227056777104735e-06
-2.128150081261992455e-04
-2.049032218565116636e-06
-3.663420784505433403e-06
-6.883430160087300465e-06
-1.938865494821584434e-07
-2.196429850300773978e-04
6.614955509576248005e-06
3.142386958643328398e-06
1.817681209104193840e-06
1.861905388977902476e-06
-2.263117494294419885e-04
2.853155592674738728e-06
-5.903720193600747734e-06
1.984208211069926620e-06
5.891511136724147946e-06
-2.169886865885928273e-04
1.472931580792646855e-05
7.608762189192930236e-06
1.669485982347396202e-06
3.940349870390491560e-06
-2.250308607472106814e-04
-2.961388645417173393e-06
9.755968903846223839e-07
2.281229399159201421e-06
1.342599830422841478e-06
-2.138636482413858175e-04
-6.255931452869845089e-07
-1.507920728727185633e-06
-1.497076573286904022e-05
4.309039013605797663e-06
-2.140731812687590718e-04
1.719775536912493408e-05
-3.451075372140621766e-06
-2.810649675666354597e-06
-6.801717518101213500e-06
-2.066921297227963805e-04
-6.174318968987790868e-06
-3.378600467840442434e-06
2.637804072946892120e-06
4.021925633423961699e-06
-2.013530465774238110e-04
1.492300953032099642e-06
1.154810092884872574e-06
3.849466793326428160e-06
-7.166797331592533737e-06
-2.311110729351639748e-04
1.187050202133832499e-05
-3.728352567122783512e-06
-8.876027095539029688e-06
-1.115606210078112781e-05
-2.092913200613111258e-04
-1.466866251575993374e-05
-1.213649511555559002e-06
-2.000716449401807040e-06
1.814511392694839742e-06
-2.162134333048015833e-04
1.098323809856083244e-05
-7.359303140219708439e-07
1.265633181901648641e-05
1.590388365002581850e-06
-2.239280584035441279e-04
-6.267528533498989418e-06
1.036677440424682572e-05
1.117346710088895634e-05
1.000726570055121556e-05
6.022363777447026223e-06
8.886203204383491538e-07
-2.086780150420963764e-04
-1.662886006670305505e-08
-3.448851566645316780e-05
2.119918281096033752e-05
1.017514932755148038e-05
4.247484321240335703e-05
-2.305691623405436985e-06
-2.086320819216780365e-05
-1.968288961506914347e-05
-4.011893543065525591e-05
-2.695033117561251856e-06
-1.637807145016267896e-05
2.343505184398964047e-05
-2.545057031966280192e-05
-2.203587609983514994e-05
-3.747572554857470095e-05
-1.806086515898641665e-07
-7.555932825198397040e-05
-5.873603186046238989e-06
5.387480996432714164e-06
-5.464435525937005877e-05
-1.749323928379453719e-05
-4.130019806325435638e-05
3.936953817174071446e-06
-6.067919002816779539e-06
-5.882473487872630358e-05
-2.799638059514109045e-05
-2.593460885691456497e-05
-1.089431179934763350e-06
-5.641335974360117689e-06
-2.973394293803721666e-05
2.061029772448819131e-05
-1.959216206159908324e-05
4.039397754240781069e-05
2.220340866188053042e-05
-6.534504791488870978e-06
5.248127763479715213e-06
-2.111060020979493856e-04
3.347032588862930425e-07
3.745713001990225166e-06
-2.309198898728936911e-04
-2.116660325555130839e-04
-5.214165867073461413e-06
-2.252959347970318049e-06
-8.090129995252937078e-06
-6.019219199515646324e-06
-1.758977123245131224e-05
-7.573446055175736547e-06
-1.900730712804943323e-04
-1.830508517741691321e-05
-6.362128624459728599e-05
-2.036693513218779117e-05
4.603064007824286819e-05
2.662447877810336649e-05
2.156546725018415600e-05
-4.322615131968632340e-05
-1.888150472950655967e-05
-2.395488809270318598e-05
-9.706579476187471300e-06
-1.542681820865254849e-05
-3.381114220246672630e-05
-2.994123497046530247e-05
-6.492548436654033139e-06
-5.303295580461053760e-08
-5.050388267591188196e-07
-2.285542541358154267e-05
-2.001723441935610026e-05
-1.526498090242967010e-05
6.785222012695157900e-06
1.838528078224044293e-05
-4.690405330620706081e-05
-2.689470784389413893e-05
-5.279221659293398261e-05
4.668309338740073144e-05
-9.049906111613381654e-06
9.859276360657531768e-06
1.904041710076853633e-05
-2.159350697183981538e-05
-3.269768421887420118e-05
-7.946103323774877936e-06
-3.117975211353041232e-05
1.584103074492304586e-06
-4.045528839924372733e-05
-1.808501292543951422e-05
3.045420953640132211e-06
-2.037933154497295618e-04
-1.692925616225693375e-05
8.972422733677376527e-07
-1.878234324976801872e-04
-9.195920029014814645e-06
-2.049417234957218170e-04
-3.887823822878999636e-06
-3.425707291171420366e-06
1.384715631047583884e-07
4.993401671526953578e-05
1.369513665849808604e-05
-2.672563714440912008e-04
6.092063631513155997e-05
-2.820102236000820994e-05
-7.527173147536814213e-05
-2.924117325164843351e-05
1.118536783906165510e-05
-1.104693728848360479e-05
-1.241446807398460805e-05
1.662674662838981021e-06
5.074902674095937982e-06
4.997527867089956999e-06
-1.931953556777443737e-05
-2.444266465317923576e-05
-1.797734876163303852e-05
-1.029976488098327536e-06
9.350885648018447682e-07
-6.445480539696291089e-05
-2.008570299949496984e-05
4.639362668967805803e-05
-2.573537494754418731e-05
1.457392772863386199e-05
-1.055361644830554724e-05
1.970360472114407457e-06
-3.557572927093133330e-05
1.675788735155947506e-05
-2.282776040374301374e-05
-1.364711497444659472e-04
-6.590734119527041912e-05
-1.199752841785084456e-05
-1.785371023288462311e-05
7.283199010998941958e-06
-2.122467958542983979e-05
-1.612780215509701520e-05
1.762565807439386845e-05
1.310520383412949741e-05
5.377825800678692758e-05
-6.537988156196661294e-06
-2.653817937243729830e-04
6.043458779458887875e-05
9.813811630010604858e-06
-2.558609412517398596e-04
4.889928095508366823e-05
-1.514884502284985501e-06
-2.687434025574475527e-04
-7.201354605967935640e-07
-7.669350452488288283e-06
-5.656812936649657786e-05
-4.697757503890898079e-06
-1.642203569645062089e-04
-4.942063969792798162e-05
1.890502971946261823e-05
1.201809936901554465e-06
-8.317411811731290072e-06
-3.800271588261239231e-05
8.001104106369893998e-06
-1.552353751321788877e-05
2.851357692179590231e-07
1.634922568882757332e-06
-7.307044143090024590e-06
-4.619345872924895957e-06
-1.314582095801597461e-05
-1.740542757033836097e-05
-1.053530468198005110e-05
-1.127548694057622924e-05
-4.814990461454726756e-05
-4.400829493533819914e-05
-5.727026655222289264e-05
-4.202276249998249114e-05
-4.799099042429588735e-05
-4.419046945258742198e-06
2.227060213044751436e-05
2.563467569416388869e-05
-6.610513082705438137e-06
2.497274635970825329e-06
1.679699198575690389e-05
-1.121503373724408448e-05
-7.632047527295071632e-07
2.849283191608265042e-06
-7.414196261379402131e-06
1.328072448814054951e-05
-6.105946522438898683e-05
-2.115171446348540485e-05
-1.227982829732354730e-05
-5.142926966072991490e-05
-8.875125786289572716e-06
-1.489688147557899356e-04
-5.719223918276838958e-05
-2.098911409120773897e-06
-1.404914801241829991e-04
-5.578342097578570247e-05
-4.958478257321985438e-06
4.848548996960744262e-06
-1.577675720909610391e-04
4.887282557319849730e-06
4.033876848552608863e-06
-2.214607375208288431e-04
-3.226109583920333534e-06
-2.324052957192179747e-06
-2.160368603654205799e-04
-9.939343499354436062e-07
-1.394589253322919831e-05
5.232057901594089344e-06
1.604128192411735654e-05
9.676083209342323244e-06
1.339315076620550826e-07
6.294505055848276243e-06
1.012088546303857584e-06
-1.513053848611889407e-05
-1.631199484108947217e-05
-4.722243374999379739e-06
9.566572600760991918e-08
4.737099743579165079e-07
-8.330741820827824995e-07
-5.409210189100122079e-06
-7.700642527197487652e-06
-2.281022461829707026e-04
-1.218364104715874419e-05
-5.051216476203990169e-07
6.925658908585319296e-06
6.219510396476835012e-06
2.289016492795781232e-06
-4.243571765982778743e-06
-5.438076186692342162e-06
7.773431207169778645e-06
-2.549413011365686543e-06
-5.621122909360565245e-06
6.882067282276693732e-06
4.898920906271087006e-06
1.835743887568241917e-06
-4.731205081043299288e-06
5.443755071610212326e-06
5.583457095781341195e-06
-2.142760058632120490e-04
6.405939984688302502e-06
-4.341915428085485473e-06
-2.061657869489863515e-04
-8.320968845509923995e-06
1.157994029199471697e-05
5.981078629702096805e-06
3.964474217355018482e-06
-2.456736183376051486e-06
-2.112506772391498089e-04
1.351252663880586624e-02
-1.292565744370222092e-02
-9.757355786859989166e-03
2.022745320573449135e-03
-9.627183899283409119e-03
-9.575761854648590088e-03
9.095833636820316315e-03
2.365177031606435776e-03
6.405282765626907349e-03
1.976366527378559113e-02
-1.115024182945489883e-02
-6.323263049125671387e-03
-3.072780556976795197e-03
-1.095377746969461441e-02
-8.403697051107883453e-03
-2.382016554474830627e-02
-8.591307327151298523e-03
-3.959703259170055389e-03
-9.842828148975968361e-04
-1.050851307809352875e-02
-9.940594434738159180e-03
6.176910828799009323e-03
1.772682368755340576e-02
-2.637307159602642059e-03
-3.492887830361723900e-03
2.207005023956298828e-02
-1.857678033411502838e-02
2.980238059535622597e-03
-1.188452541828155518e-02
-1.135024987161159515e-02
-5.981762893497943878e-03
1.081835385411977768e-02
-1.052015088498592377e-02
-7.820904254913330078e-03
-1.270862389355897903e-02
-1.751827448606491089e-02
-8.430829271674156189e-03
1.880079880356788635e-02
-7.252905052155256271e-03
-1.051508076488971710e-02
1.418212801218032837e-02
9.756205603480339050e-03
-1.668574847280979156e-02
-1.605982705950737000e-02
-1.152801979333162308e-02
-8.194331079721450806e-03
-6.505902856588363647e-03
1.018545124679803848e-03
-1.207247748970985413e-02
-1.410001982003450394e-02
-7.273016963154077530e-03
-1.739240437746047974e-02
-1.536588836461305618e-02
-1.053304783999919891e-02
-1.284046657383441925e-02
-1.073583122342824936e-02
-7.652741856873035431e-03
-1.382472179830074310e-02
-1.957183517515659332e-02
3.643951611593365669e-03
-5.723774433135986328e-03
-1.421288400888442993e-02
-1.025359518826007843e-02
-5.703605245798826218e-03
7.743535097688436508e-03
-1.082480419427156448e-02
-6.403044797480106354e-03
-2.382575767114758492e-03
-1.153219211846590042e-02
-7.999754510819911957e-03
-9.819509461522102356e-03
-2.479129703715443611e-03
-1.051902864128351212e-02
-1.052284147590398788e-02
9.547728113830089569e-04
1.335498993285000324e-03
-2.215923555195331573e-02
-1.393312588334083557e-02
-1.386595796793699265e-02
8.043201640248298645e-03
3.065311163663864136e-02
1.350132934749126434e-02
1.475429441779851913e-02
-1.346357818692922592e-02
-8.295715786516666412e-03
-1.306000072509050369e-02
-5.396172404289245605e-03
-2.655135467648506165e-03
-7.840968668460845947e-03
-3.283433616161346436e-03
-1.205223519355058670e-02
-1.196539029479026794e-02
-1.050870399922132492e-02
-3.749598516151309013e-03
-2.070097718387842178e-03
5.054292455315589905e-02
-1.455301884561777115e-02
-1.051951292902231216e-02
-5.480105988681316376e-03
-1.132463687099516392e-03
-1.343808975070714951e-02
-1.431851275265216827e-02
-7.045421749353408813e-03
-6.433534435927867889e-03
-1.230221986770629883e-02
1.989547163248062134e-02
1.198965962976217270e-02
-1.279541011899709702e-02
-2.961558522656559944e-03
-1.059652213007211685e-02
-1.003486756235361099e-02
-5.652005318552255630e-03
1.474155485630035400e-02
-8.722833357751369476e-03
-1.052321773022413254e-02
-1.120697986334562302e-02
-8.584978990256786346e-03
-6.659303326159715652e-03
1.095821848139166832e-03
2.234279923141002655e-02
-1.370131154544651508e-03
1.977156102657318115e-02
4.050293192267417908e-02
-1.052787993103265762e-02
-1.510809455066919327e-02
-1.097504422068595886e-02
-9.398232214152812958e-03
1.601365953683853149e-02
6.037472933530807495e-02
-3.478201571851968765e-03
2.201089635491371155e-02
8.684036321938037872e-03
1.287132780998945236e-02
-1.052426919341087341e-02
-5.687298718839883804e-03
-7.156860549002885818e-03
-1.048125140368938446e-02
-1.078780554234981537e-02
-1.591371744871139526e-02
4.125396907329559326e-02
-1.468996517360210419e-02
-9.547355584800243378e-03
-1.676012761890888214e-03
-8.579900488257408142e-03
-1.187273394316434860e-02
1.959346234798431396e-03
-8.821839466691017151e-03
-1.364657282829284668e-02
-1.163492444902658463e-02
-8.320301771163940430e-03
-1.321487594395875931e-03
-1.139507349580526352e-02
1.673724129796028137e-02
-2.369706751778721809e-03
1.651147939264774323e-02
-1.053338591009378433e-02
-1.116422750055789948e-02
1.194776850752532482e-03
-1.052436977624893188e-02
-1.006083004176616669e-02
-2.190846716985106468e-03
-1.056411117315292358e-02
4.605982918292284012e-03
-1.412266679108142853e-02
-1.123983599245548248e-02
4.357403144240379333e-03
-2.262070588767528534e-02
-8.820956572890281677e-03
-1.672067120671272278e-02
-9.862785227596759796e-03
2.046201005578041077e-02
-1.016520522534847260e-02
-3.376902313902974129e-03
-1.564330607652664185e-02
-1.362714171409606934e-02
-5.758469458669424057e-03
1.200161129236221313e-02
4.980498459190130234e-03
8.303618058562278748e-03
1.894974894821643829e-02
-1.036014035344123840e-02
-1.391565706580877304e-02
9.027278050780296326e-03
5.483008455485105515e-03
4.965018015354871750e-03
-8.020557463169097900e-03
3.300160169601440430e-03
-1.148764323443174362e-02
-1.771794818341732025e-02
-1.169168297201395035e-02
-4.761493764817714691e-03
-1.294284313917160034e-02
-1.539756194688379765e-03
-1.015636138617992401e-02
9.835643693804740906e-03
-1.233260612934827805e-02
-1.083757728338241577e-02
-1.472161337733268738e-02
4.602797701954841614e-02
-1.907691545784473419e-02
-9.192476049065589905e-03
-1.165675558149814606e-02
1.344999298453330994e-02
4.581196699291467667e-03
-1.493017561733722687e-02
9.443290531635284424e-03
5.716733634471893311e-03
-1.006392203271389008e-02
-1.450323313474655151e-02
-1.427666284143924713e-02
-1.072925701737403870e-02
-1.461732387542724609e-02
8.496582508087158203e-03
-1.139362156391143799e-02
-1.282116211950778961e-02
-1.764198578894138336e-02
1.422735117375850677e-02
-8.896554820239543915e-03
8.365930058062076569e-03
-1.128593273460865021e-02
-9.974111802875995636e-03
-1.150609832257032394e-02
3.112487867474555969e-02
1.231953129172325134e-02
-2.724308287724852562e-03
-2.287160977721214294e-02
-9.671232663094997406e-03
-2.569665201008319855e-02
-1.084335613995790482e-02
-2.634620992466807365e-03
-2.001297101378440857e-02
-2.332540042698383331e-02
-4.142763093113899231e-03
-1.052031200379133224e-02
-2.060694433748722076e-02
-1.279559824615716934e-02
1.620612293481826782e-02
2.494387514889240265e-02
1.518842880614101887e-03
2.588561549782752991e-02
-1.050925161689519882e-02
1.144920755177736282e-02
-1.191003154963254929e-02
-9.799486957490444183e-03
-1.519867032766342163e-02
-1.048828288912773132e-02
6.718772929161787033e-03
1.905694790184497833e-02
-7.723363116383552551e-03
5.297814495861530304e-03
1.638602837920188904e-02
-1.216572895646095276e-02
1.273269881494343281e-03
-6.014863029122352600e-03
-1.051544304937124252e-02
-3.793108277022838593e-03
8.478370495140552521e-03
-6.618876475840806961e-03
1.166909188032150269e-02
-1.123610511422157288e-02
-5.603822413831949234e-03
1.309016998857259750e-02
-8.965880610048770905e-03
5.892384331673383713e-03
3.526809159666299820e-03
-1.661802455782890320e-02
-1.242315489798784256e-02
-1.202300470322370529e-02
1.799081824719905853e-02
-1.052172947674989700e-02
-3.017632989212870598e-03
-1.021509151905775070e-02
-1.116269081830978394e-02
-3.000263823196291924e-03
-1.552589517086744308e-02
-1.901929080486297607e-02
-1.138699334114789963e-02
2.439222112298011780e-02
-1.091470010578632355e-02
-6.890464574098587036e-03
-2.054023556411266327e-02
-9.412986226379871368e-03
-7.728028111159801483e-03
5.199891980737447739e-03
-1.344481017440557480e-02
5.428203381597995758e-03
-1.284825615584850311e-02
-1.129249855875968933e-02
3.859650809317827225e-03
-1.467815227806568146e-02
-7.272042799741029739e-03
-6.512917578220367432e-03
-1.340890116989612579e-02
1.293437089771032333e-02
-7.664235774427652359e-03
-1.412888057529926300e-02
-1.273673679679632187e-02
7.407689932733774185e-03
-1.027553807944059372e-02
-1.192628964781761169e-02
-1.051643025130033493e-02
-4.000741522759199142e-03
-9.837652323767542839e-04
4.247151780873537064e-03
3.089892305433750153e-02
-7.565436419099569321e-03
-1.179426163434982300e-02
-1.012654509395360947e-02
1.686264947056770325e-02
5.961225368082523346e-03
-9.651522152125835419e-03
-8.366036228835582733e-03
7.160308887250721455e-04
-1.050076726824045181e-02
1.028880104422569275e-02
-1.252934988588094711e-02
-7.753521669656038284e-03
-1.134226191788911819e-02
-1.498993951827287674e-02
-1.466915477067232132e-02
-1.099908538162708282e-02
-1.334996148943901062e-02
1.305411942303180695e-02
-8.138972334563732147e-03
-1.147702988237142563e-02
1.445539109408855438e-02
-1.713208109140396118e-02
6.046536192297935486e-02
-1.051521487534046173e-02
2.279485203325748444e-02
1.168688666075468063e-02
-8.952036499977111816e-03
-2.143577486276626587e-02
-1.052178442478179932e-02
-8.574672043323516846e-03
-1.410523708909749985e-02
-6.557056680321693420e-03
-1.182980183511972427e-02
-1.123200170695781708e-02
-1.051579136401414871e-02
1.495413947850465775e-02
-4.929968621581792831e-03
-9.516022168099880219e-03
-1.039452478289604187e-02
-1.197169721126556396e-02
-8.395191282033920288e-03
1.561852823942899704e-02
-1.083894725888967514e-02
4.520014394074678421e-03
-6.684764754027128220e-03
1.119703240692615509e-02
-9.910322725772857666e-03
1.512066082796081901e-04
-1.065433025360107422e-02
-9.925749152898788452e-03
-1.201138645410537720e-02
-6.638044025748968124e-03
-1.785974577069282532e-02
2.149339765310287476e-03
-1.146619860082864761e-02
-7.801876869052648544e-03
-1.154635660350322723e-02
-4.821945447474718094e-03
1.972980098798871040e-03
-1.394466846249997616e-03
-1.012368593364953995e-02
-9.208262898027896881e-03
1.551221497356891632e-02
1.288768253289163113e-03
-1.129460986703634262e-02
-4.537446424365043640e-03
-9.066872298717498779e-03
-7.055010646581649780e-03
-3.815047384705394506e-04
1.504415459930896759e-02
1.246761064976453781e-02
-1.052725967019796371e-02
8.174499496817588806e-03
6.437654048204421997e-02
-6.153222173452377319e-03
1.125479862093925476e-02
-4.171509295701980591e-03
-1.052025426179170609e-02
-7.007479202002286911e-03
-1.076561678200960159e-02
-1.691477745771408081e-02
-2.780670532956719398e-03
-1.052061654627323151e-02
-1.009382959455251694e-02
-7.963893935084342957e-03
-1.453808136284351349e-02
1.485405582934617996e-02
-3.407258074730634689e-03
-1.735487394034862518e-02
5.213589873164892197e-03
-3.789204871281981468e-03
2.519746124744415283e-02
-9.879069402813911438e-03
-8.095097728073596954e-03
-1.924611814320087433e-02
-6.314421189017593861e-04
1.436663325875997543e-03
-1.648464938625693321e-03
-1.560446526855230331e-02
-1.599999703466892242e-02
-4.756169393658638000e-03
5.772588774561882019e-04
-1.052054017782211304e-02
1.418773550540208817e-03
-2.258575696032494307e-04
-8.366185240447521210e-03
-8.533443324267864227e-03
-1.265761326067149639e-03
1.633808575570583344e-02
-6.650217343121767044e-03
6.440837867558002472e-03
-1.819521375000476837e-02
-9.276721626520156860e-03
-1.993048004806041718e-03
-1.052621565759181976e-02
-1.146257016807794571e-02
-1.142810285091400146e-02
-3.418322186917066574e-03
-1.144370716065168381e-02
-5.921902135014533997e-03
-2.402127720415592194e-03
-2.023489959537982941e-02
-1.424218155443668365e-02
-1.185426767915487289e-02
2.252683509141206741e-03
-1.759886182844638824e-02
-1.754619181156158447e-02
5.979883018881082535e-03
-1.723396405577659607e-02
-1.491557154804468155e-02
-1.298420969396829605e-02
-1.328528393059968948e-03
-1.051564607769250870e-02
-2.415640978142619133e-03
-6.109811365604400635e-03
6.415462121367454529e-03
-1.132334489375352859e-02
-6.878102663904428482e-03
-1.312314439564943314e-02
-1.227140892297029495e-02
-1.004568114876747131e-02
-1.573670096695423126e-02
-6.245497148483991623e-03
-6.987445522099733353e-03
1.912752725183963776e-02
-1.430276967585086823e-02
-2.118519134819507599e-02
4.131179302930831909e-03
-1.754544489085674286e-02
-1.976166106760501862e-02
-1.052959263324737549e-02
-1.052513998001813889e-02
1.989553420571610332e-04
-2.069129981100559235e-02
1.204613782465457916e-02
-1.204420812427997589e-02
-1.478680595755577087e-02
1.947054825723171234e-02
2.749790437519550323e-03
-1.061893440783023834e-02
-1.387776806950569153e-03
-1.116272155195474625e-02
-1.490510813891887665e-02
-1.094270590692758560e-02
1.186707895249128342e-02
1.011762488633394241e-02
-9.719766676425933838e-03
-9.750029072165489197e-03
-9.561693295836448669e-03
-1.357399299740791321e-02
-1.815909333527088165e-02
-1.038638968020677567e-02
8.551889099180698395e-03
-1.106720417737960815e-02
4.530026577413082123e-03
-5.044929683208465576e-03
1.049328409135341644e-02
-7.366180885583162308e-03
-5.870147142559289932e-03
-1.051594699674751610e-05
-1.763311028480529785e-02
-1.146208494901657104e-02
3.978183493018150330e-03
1.564939739182591438e-03
-4.663480911403894424e-03
-1.051890570670366287e-02
-1.432463340461254120e-02
2.095243893563747406e-02
-1.127337384968996048e-02
7.996414788067340851e-03
3.034859662875533104e-03
-1.700934395194053650e-02
6.225519813597202301e-03
-1.052024681121110916e-02
5.223878845572471619e-02
-1.676942221820354462e-02
-1.122919935733079910e-02
-8.781196549534797668e-03
5.283487960696220398e-03
2.327697118744254112e-03
-1.172601524740457535e-02
-1.052558235824108124e-02
-4.440241958945989609e-03
-5.890695378184318542e-03
-1.439835317432880402e-02
-1.905494835227727890e-03
-1.058251783251762390e-02
-8.945024572312831879e-03
-1.040227990597486496e-02
-9.793573990464210510e-03
-1.538205053657293320e-02
-1.878660544753074646e-02
4.506094846874475479e-03
-1.204946776852011681e-03
-1.051855646073818207e-02
-9.836533106863498688e-03
-1.425225287675857544e-02
-1.132115162909030914e-02
-1.053325831890106201e-02
-2.456491638440638781e-04
-7.352567277848720551e-03
-8.239453891292214394e-04
-5.655451095663011074e-04
1.835356466472148895e-02
-1.076455786824226379e-02
1.108441036194562912e-03
-1.434344891458749771e-02
-9.796281345188617706e-03
-8.114800788462162018e-03
-9.444008581340312958e-03
-7.387972436845302582e-03
-1.059069111943244934e-02
-1.443666778504848480e-02
1.662245579063892365e-02
4.838219378143548965e-03
-1.052096486091613770e-02
-1.410513650625944138e-02
-1.173415407538414001e-02
-4.930841969326138496e-04
-1.260017137974500656e-02
1.278168614953756332e-02
-1.364063750952482224e-02
-3.782511339522898197e-04
-1.063098199665546417e-02
-1.138160657137632370e-02
-7.040481548756361008e-03
-1.331810653209686279e-02
-1.166794728487730026e-02
-3.418136620894074440e-03
-1.387034449726343155e-02
-1.051829103380441666e-02
-9.748199954628944397e-03
6.723893340677022934e-03
-4.832819104194641113e-03
-1.196528226137161255e-02
-5.924181081354618073e-03
-1.051621511578559875e-02
-2.103762887418270111e-02
-1.156116835772991180e-02
1.837097108364105225e-03
-1.311974879354238510e-02
-6.837671622633934021e-03
-1.157753635197877884e-02
-1.543980371206998825e-02
-1.052283402532339096e-02
-1.302017923444509506e-02
-5.597000475972890854e-03
-7.128828205168247223e-03
-3.851849120110273361e-03
-1.285310089588165283e-02
-9.460891596972942352e-03
-1.268368028104305267e-02
2.992433728650212288e-04
-1.211983151733875275e-02
-1.524838060140609741e-02
-9.107783436775207520e-03
-1.225300878286361694e-02
-1.394238043576478958e-02
-1.260318979620933533e-02
-1.833238825201988220e-02
-9.917111136019229889e-03
1.229525892995297909e-03
-9.811698459088802338e-03
-2.649639034643769264e-03
-1.290284469723701477e-02
3.149615228176116943e-02
3.564426908269524574e-03
2.221527509391307831e-03
-1.176613289862871170e-02
-2.254840073874220252e-04
-1.129973120987415314e-02
-1.719875819981098175e-02
-6.551069207489490509e-03
1.913861371576786041e-02
-9.611300192773342133e-03
-1.409527380019426346e-02
-8.564612828195095062e-03
5.077381618320941925e-03
-9.186564944684505463e-03
-1.593013666570186615e-02
-1.522112521342933178e-03
-3.448531206231564283e-04
-1.083010341972112656e-02
-1.136611588299274445e-02
1.950969803147017956e-03
1.740412786602973938e-02
4.881831351667642593e-03
-1.007734891027212143e-02
1.520639657974243164e-02
-1.051450520753860474e-02
-6.884297356009483337e-03
-1.444679871201515198e-02
-1.006639096885919571e-02
-9.911744855344295502e-03
-1.061963476240634918e-02
-1.065207831561565399e-02
-8.373026736080646515e-03
-1.087782159447669983e-02
6.015104707330465317e-03
-1.052590832114219666e-02
-8.943133056163787842e-03
-6.557304412126541138e-03
-1.386711467057466507e-02
-1.865917630493640900e-02
-6.349209696054458618e-03
-5.770444404333829880e-03
3.272610716521739960e-03
-1.267562247812747955e-02
3.383370488882064819e-02
-1.489527896046638489e-02
-1.066768541932106018e-02
9.655597386881709099e-04
-1.051272731274366379e-02
-1.232642494142055511e-02
-8.364113979041576385e-03
1.166329439729452133e-02
-4.909709095954895020e-03
-1.637137494981288910e-02
-1.163678057491779327e-02
-1.148882880806922913e-02
-1.420106831938028336e-02
-1.030935533344745636e-02
2.321951556950807571e-03
-1.016528438776731491e-02
1.281952206045389175e-02
1.398194930516183376e-03
-1.199948415160179138e-02
-1.474397024139761925e-03
-1.142017170786857605e-02
4.833003506064414978e-03
-1.001866883598268032e-03
-1.392687018960714340e-02
3.300518263131380081e-03
-6.437815260142087936e-03
-1.264133770018815994e-02
4.397484299261122942e-04
-5.624915938824415207e-03
-6.502894684672355652e-03
-9.617822244763374329e-03
-1.153814885765314102e-02
-1.503847166895866394e-02
-1.529016648419201374e-03
-7.248585578054189682e-03
1.363183278590440750e-02
5.370756611227989197e-03
1.008288841694593430e-02
-1.149096712470054626e-02
3.260040655732154846e-02
-1.044913288205862045e-02
-1.053017191588878632e-02
-1.144469995051622391e-02
-1.270362082868814468e-02
-9.803368709981441498e-03
1.720376498997211456e-02
-9.736043401062488556e-03
-7.529107970185577869e-04
-8.623363450169563293e-03
-1.099290791898965836e-02
-9.967368096113204956e-03
1.657093502581119537e-02
-8.838014677166938782e-03
-1.507319975644350052e-02
2.097442187368869781e-02
-4.139247816056013107e-03
-1.522214617580175400e-02
3.552961570676416159e-04
-3.414621809497475624e-03
-1.347621809691190720e-02
-1.115178316831588745e-02
-1.014486048370599747e-02
-1.211902406066656113e-02
-1.983866095542907715e-02
-1.117603015154600143e-02
-1.198671013116836548e-02
1.013730466365814209e-02
4.556746687740087509e-03
1.692733145318925381e-03
2.421254478394985199e-02
-5.792047828435897827e-03
7.022069301456212997e-03
-1.741726696491241455e-02
-9.356463328003883362e-03
-7.664245553314685822e-03
-6.878830492496490479e-03
3.840723307803273201e-03
-8.645615540444850922e-03
1.773633621633052826e-02
-5.165876355022192001e-03
-7.774985395371913910e-03
-5.206449422985315323e-03
-1.203433331102132797e-02
-1.051266770809888840e-02
-8.145976811647415161e-03
-4.293261561542749405e-03
-1.003371179103851318e-02
9.361133910715579987e-03
-1.750839315354824066e-02
-1.052152179181575775e-02
8.805561810731887817e-03
6.730430293828248978e-03
2.256727078929543495e-03
-8.169401437044143677e-03
-1.027174945920705795e-02
-1.392883341759443283e-02
5.170702934265136719e-03
-2.107261214405298233e-03
-1.188241690397262573e-02
-1.051189098507165909e-02
-1.133110746741294861e-02
-1.104945037513971329e-02
-6.086148321628570557e-03
-1.195778697729110718e-02
-1.096006482839584351e-02
6.543359719216823578e-03
-1.184950210154056549e-02
-1.053047087043523788e-02
-6.523225922137498856e-03
1.752942800521850586e-02
-1.606564270332455635e-03
-7.778172846883535385e-03
-3.083991818130016327e-03
-1.728909276425838470e-02
-1.776859047822654247e-03
2.977241994813084602e-03
-1.335774268954992294e-02
-9.697938337922096252e-03
-1.052979938685894012e-02
-1.618293672800064087e-02
1.991360913962125778e-04
-1.258369348943233490e-02
-1.439938042312860489e-02
-1.690226793289184570e-02
-1.078937016427516937e-02
-9.172060526907444000e-03
-5.555392708629369736e-03
-7.488549221307039261e-03
-1.080360822379589081e-02
-9.851819835603237152e-03
9.278031997382640839e-03
8.646103553473949432e-03
-1.051911432296037674e-02
1.135792303830385208e-02
1.317817531526088715e-02
-2.217645198106765747e-02
-1.051994692534208298e-02
-1.972410455346107483e-02
9.524722700007259846e-04
-1.861078664660453796e-02
-1.715699210762977600e-02
-6.104714702814817429e-03
-1.052071619778871536e-02
-1.763093657791614532e-02
-9.861144237220287323e-03
-3.365013049915432930e-03
-1.001622527837753296e-02
-7.219356950372457504e-03
1.669996604323387146e-02
-6.251352839171886444e-03
9.823922067880630493e-03
-1.921860268339514732e-03
-1.044009625911712646e-02
-1.196805946528911591e-02
-1.001013442873954773e-02
1.079332176595926285e-02
-2.692079544067382812e-02
-9.394570253789424896e-03
-1.602644845843315125e-02
-1.564968004822731018e-02
-1.361069548875093460e-02
-1.101746782660484314e-02
-9.574946016073226929e-03
-7.221222389489412308e-03
-1.143097877502441406e-02
-1.741363853216171265e-02
-1.052514649927616119e-02
-9.633035399019718170e-03
-1.118453964591026306e-02
-1.052562519907951355e-02
-2.331048715859651566e-03
2.944060973823070526e-02
-5.418796092271804810e-03
2.706619910895824432e-03
-5.520519800484180450e-03
-1.132099889218807220e-02
-3.574220929294824600e-03
7.911434397101402283e-03
-8.755093440413475037e-03
-1.176191493868827820e-02
-1.466474961489439011e-02
-1.297979336231946945e-02
-5.659559275954961777e-03
-9.332261979579925537e-03
4.176151752471923828e-02
2.028051298111677170e-03
-9.273912757635116577e-03
-1.385841984301805496e-02
-1.293131522834300995e-02
-9.701748378574848175e-03
-2.768429694697260857e-03
-1.898853108286857605e-02
-7.376089692115783691e-03
4.479425400495529175e-02
-1.538492180407047272e-02
-8.484651334583759308e-03
3.519063349813222885e-03
-1.375076826661825180e-02
-4.040224943310022354e-03
2.633609063923358917e-02
-1.931598410010337830e-02
-9.282513521611690521e-03
3.880645381286740303e-03
3.756394435185939074e-04
9.568274952471256256e-03
-1.075568795204162598e-02
-1.560523081570863724e-02
1.523207174614071846e-03
-7.984280819073319435e-04
-4.160330165177583694e-03
3.448459901846945286e-04
1.284145005047321320e-02
-2.519554400350898504e-04
1.228031353093683720e-03
-8.057591505348682404e-03
-3.204542445018887520e-03
-1.169980317354202271e-02
-1.032521016895771027e-02
-1.071851421147584915e-02
1.500673219561576843e-02
6.014403421431779861e-03
-1.050644740462303162e-02
-1.169795449823141098e-02
-1.153007242828607559e-02
-1.029861811548471451e-02
-1.956493407487869263e-02
-1.189568731933832169e-02
-2.616069279611110687e-03
-9.408155456185340881e-03
-1.532688736915588379e-02
-1.597270742058753967e-02
-1.266861520707607269e-02
-9.651869535446166992e-03
-1.388595532625913620e-02
-9.881502017378807068e-03
-7.557418197393417358e-03
-6.245721131563186646e-03
3.430447075515985489e-03
-2.830788725987076759e-03
-9.189181029796600342e-03
-7.982627488672733307e-03
-4.160400480031967163e-03
4.733417555689811707e-02
-6.672346033155918121e-03
-1.188421715050935745e-02
-1.050965581089258194e-02
-8.149556815624237061e-03
-7.864594459533691406e-03
-1.183960866183042526e-02
-3.301446791738271713e-03
-2.079192548990249634e-03
1.447200123220682144e-02
-2.853744197636842728e-03
-1.800187048502266407e-03
-8.462834171950817108e-03
-3.820346668362617493e-03
8.921430446207523346e-03
-1.049844827502965927e-02
-1.052245311439037323e-02
-7.535999640822410583e-03
-1.569534651935100555e-02
-1.138772536069154739e-02
-1.228424627333879471e-02
-5.782322026789188385e-03
-1.044448465108871460e-02
2.562140114605426788e-02
1.087669935077428818e-02
-8.682512678205966949e-03
-1.950769126415252686e-02
-9.103819727897644043e-03
-2.040018094703555107e-03
-1.042151916772127151e-02
-1.141283288598060608e-02
-7.680539507418870926e-03
-6.534350104629993439e-03
-2.123984321951866150e-02
5.691642872989177704e-04
-8.085506968200206757e-03
-1.044100709259510040e-02
7.051280234009027481e-03
-7.850603200495243073e-03
-1.051670871675014496e-02
-1.247843820601701736e-02
-1.130569260567426682e-02
3.352512791752815247e-02
-8.884723298251628876e-03
-1.051329821348190308e-02
-1.296647079288959503e-02
-1.557280961424112320e-02
-6.787960417568683624e-03
-8.984981104731559753e-03
-1.052779797464609146e-02
-1.026428211480379105e-02
-1.051465608179569244e-02
8.729594992473721504e-04
-2.165689831599593163e-03
-1.879309862852096558e-02
2.259371615946292877e-02
-1.932686194777488708e-02
-3.690479570650495589e-05
-2.188070444390177727e-03
-6.169735454022884369e-03
-9.575991891324520111e-03
-9.329770691692829132e-04
-1.097131520509719849e-02
-1.100196409970521927e-02
-8.202297613024711609e-03
-1.131129916757345200e-02
-1.051284559071063995e-02
-1.372034661471843719e-02
-1.098167710006237030e-02
-1.196946948766708374e-02
-6.333318073302507401e-03
-1.198843121528625488e-02
-9.160759858787059784e-03
-1.604167185723781586e-02
-1.591746881604194641e-02
1.491814851760864258e-02
-2.159145660698413849e-03
2.139464206993579865e-02
-2.399733848869800568e-02
-4.367947112768888474e-03
-9.382124058902263641e-03
-1.253480743616819382e-02
3.254633629694581032e-03
-1.538900565356016159e-02
-1.158557366579771042e-02
-1.217616442590951920e-02
-1.096006948500871658e-02
6.184082012623548508e-03
-1.083040027879178524e-03
-8.422708138823509216e-03
8.017792366445064545e-03
-1.054634898900985718e-02
-7.490458432585000992e-03
-1.581894233822822571e-02
-1.085998862981796265e-02
5.245479405857622623e-04
-1.926038647070527077e-03
-1.188061013817787170e-02
-1.255214214324951172e-02
-8.663711138069629669e-03
-1.017958042211830616e-03
-1.220156159251928329e-02
-1.980348955839872360e-03
-1.275196857750415802e-02
-9.165803901851177216e-03
-2.288770629093050957e-03
-5.738977342844009399e-03
-9.217587299644947052e-03
-1.645418629050254822e-02
-1.860407739877700806e-02
-1.485465746372938156e-02
-1.471734419465065002e-02
-1.051256339997053146e-02
-2.094112522900104523e-02
-1.051193661987781525e-02
4.799405485391616821e-02
-1.776608824729919434e-02
-1.178505364805459976e-02
-8.483390323817729950e-03
-6.775825284421443939e-03
1.402293425053358078e-02
-1.335183996707201004e-02
-1.244870852679014206e-02
1.117422431707382202e-02
1.060487329959869385e-02
-1.134123187512159348e-02
-5.359727889299392700e-03
6.652834825217723846e-03
-1.372918952256441116e-02
-3.616062895162031054e-05
-8.743484504520893097e-03
-1.777748204767704010e-02
-3.032356267794966698e-03
-1.669747568666934967e-02
2.806828357279300690e-03
1.228470704518258572e-03
-5.252894479781389236e-03
-1.077894307672977448e-02
1.923567615449428558e-02
-1.505809929221868515e-02
-1.020127069205045700e-02
-6.726006045937538147e-03
6.517052534036338329e-04
2.489651786163449287e-03
-3.212552517652511597e-03
1.998828724026679993e-03
-1.138527505099773407e-02
2.013484714552760124e-03
-1.406831108033657074e-02
-1.041339151561260223e-02
3.599238349124789238e-03
-1.287491992115974426e-02
-1.330800354480743408e-02
-1.116124819964170456e-02
-1.399391237646341324e-02
-4.045806359499692917e-03
-1.062904950231313705e-02
-9.522441774606704712e-03
-7.059075869619846344e-03
-1.540025044232606888e-02
-1.233586482703685760e-02
1.194911776110529900e-03
1.865549944341182709e-02
3.955624997615814209e-02
2.563016675412654877e-02
-1.158812176436185837e-02
4.997739195823669434e-02
-3.949847538024187088e-03
-3.398399567231535912e-03
-1.079816929996013641e-02
-1.517261844128370285e-02
-1.263222750276327133e-02
-1.150358933955430984e-02
-1.127288676798343658e-02
-1.376005727797746658e-02
-5.548727232962846756e-03
-2.022106572985649109e-02
-4.586078692227602005e-03
-5.977873690426349640e-03
-3.383968723937869072e-03
-2.888449467718601227e-03
-7.318831048905849457e-03
-8.984384126961231232e-03
-1.269582100212574005e-02
-8.282524533569812775e-03
-1.802002824842929840e-02
-1.051247771829366684e-02
-6.985802319832146168e-04
9.837417863309383392e-03
-9.063305333256721497e-03
-7.486041169613599777e-03
2.954941615462303162e-02
-1.051503978669643402e-02
-1.786715351045131683e-02
-1.052364427596330643e-02
6.460390519350767136e-03
-1.306490274146199226e-03
-1.408237963914871216e-02
-1.382607617415487766e-03
-8.128394372761249542e-03
-1.213947217911481857e-02
-1.078195404261350632e-02
-4.874469712376594543e-03
-1.052163913846015930e-02
-6.410473026335239410e-03
1.486784126609563828e-02
-8.266573771834373474e-03
-1.161273848265409470e-02
6.050348654389381409e-02
-1.148121058940887451e-02
-1.802822388708591461e-02
3.255867399275302887e-03
-9.033270180225372314e-03
-6.175196729600429535e-03
-1.437519956380128860e-02
8.039390668272972107e-03
-1.069616060703992844e-02
1.361391786485910416e-02
7.606805302202701569e-04
-6.465617567300796509e-03
-3.243212355300784111e-03
4.691812396049499512e-02
-1.479503419250249863e-02
4.038122715428471565e-04
-1.336753182113170624e-02
-1.441822946071624756e-02
6.571394391357898712e-03
-1.118528004735708237e-02
-5.482089705765247345e-03
2.823473652824759483e-03
-1.050908118486404419e-02
-5.977036897093057632e-03
-1.184873189777135849e-02
-1.052431855350732803e-02
-1.215062662959098816e-02
-1.396040339022874832e-02
-9.840474231168627739e-04
-1.187162473797798157e-02
-6.310826633125543594e-03
3.433110658079385757e-03
6.265188101679086685e-03
-5.958489142358303070e-03
-1.041289512068033218e-02
-1.297649741172790527e-02
8.768972940742969513e-03
-1.053016446530818939e-02
-1.550158765166997910e-02
-1.295976154506206512e-02
-1.168084610253572464e-02
-1.506166998296976089e-02
-1.192856230773031712e-03
-9.256323799490928650e-03
-1.593350805342197418e-02
-1.047485228627920151e-02
1.276813331060111523e-03
-1.722074858844280243e-02
1.963020116090774536e-02
-1.013029552996158600e-02
7.215169258415699005e-03
-1.000234484672546387e-02
-2.030060859397053719e-03
3.236276563256978989e-03
9.018650278449058533e-03
-1.163338311016559601e-02
-1.269429805688560009e-03
-6.127925124019384384e-03
-1.121221389621496201e-02
-8.560919202864170074e-03
5.534316413104534149e-03
3.801080310950055718e-05
3.344256430864334106e-02
1.740993373095989227e-02
-6.056750658899545670e-03
-8.099108003079891205e-03
-1.057842653244733810e-02
-1.694246195256710052e-03
-1.619890332221984863e-02
-1.129425875842571259e-02
-4.471699707210063934e-03
1.896075345575809479e-02
-2.520615526009351015e-04
-1.052831858396530151e-02
-1.081356685608625412e-02
-1.096218917518854141e-02
2.267816476523876190e-02
-4.151239991188049316e-03
-1.652060262858867645e-02
-1.006187964230775833e-02
1.587779447436332703e-02
1.288015488535165787e-02
-1.167656015604734421e-02
3.823561221361160278e-02
-8.724493090994656086e-04
-2.973432652652263641e-03
1.460129744373261929e-03
-5.274122580885887146e-03
-1.176553964614868164e-02
1.554353628307580948e-02
-1.315085869282484055e-02
-1.051180344074964523e-02
-1.338540483266115189e-02
-6.434506736695766449e-03
-9.526040405035018921e-03
-7.077122572809457779e-03
-1.052074693143367767e-02
7.191037759184837341e-03
-1.184787508100271225e-02
-6.267073098570108414e-03
-1.430352032184600830e-02
-1.051693595945835114e-02
-9.710215963423252106e-03
5.068389233201742172e-03
1.780598238110542297e-02
-1.610562088899314404e-03
1.698294840753078461e-02
-1.052795164287090302e-02
-1.865919446572661400e-03
1.055874954909086227e-02
-6.370145361870527267e-03
-9.537289850413799286e-03
2.223420422524213791e-03
-4.631208721548318863e-03
-1.371993869543075562e-02
-1.136203855276107788e-02
-1.145199686288833618e-02
3.295687201898545027e-04
2.909285714849829674e-03
1.255292561836540699e-03
1.421329565346240997e-02
-8.056585676968097687e-03
1.072453986853361130e-02
1.872614142484962940e-03
-6.386830005794763565e-03
-6.989656016230583191e-03
-1.215689070522785187e-02
-1.052333693951368332e-02
-5.124598741531372070e-03
-1.376548223197460175e-02
-1.443922054022550583e-02
-1.787632470950484276e-03
9.059956297278404236e-03
7.477283943444490433e-03
-1.650235988199710846e-02
-1.081437896937131882e-02
-1.057198923081159592e-02
-1.806972920894622803e-02
-1.459336839616298676e-02
-1.666383445262908936e-02
-7.131336722522974014e-03
5.263571441173553467e-02
-1.189034990966320038e-02
-1.096018496900796890e-02
-1.666295155882835388e-02
-1.398018468171358109e-02
3.629247890785336494e-03
-5.460466854856349528e-05
-1.099693961441516876e-02
-1.052571740001440048e-02
-5.966738099232316017e-04
3.291667997837066650e-02
-1.341239083558320999e-02
-1.199508085846900940e-02
-2.260703593492507935e-03
3.628576174378395081e-02
-1.382307149469852448e-02
-4.822902265004813671e-04
-9.162036702036857605e-03
-1.052922196686267853e-02
9.685624390840530396e-03
2.249701647087931633e-03
-9.529096074402332306e-03
-1.894904882647097111e-03
-9.216536767780780792e-03
-9.290766902267932892e-03
-1.095512602478265762e-02
-1.229813322424888611e-02
9.413061663508415222e-03
5.309022963047027588e-03
-1.052633207291364670e-02
-1.132435631006956100e-02
1.091415062546730042e-03
-1.843208633363246918e-02
-1.024956069886684418e-02
-1.604111120104789734e-02
-1.598460972309112549e-02
-7.509914692491292953e-03
-2.699761185795068741e-03
-1.651351153850555420e-02
-1.042353641241788864e-02
-8.792855776846408844e-03
-1.167634408921003342e-02
1.739618740975856781e-02
-3.788088914006948471e-03
-1.488854642957448959e-02
-1.628855615854263306e-02
-1.051862630993127823e-02
6.500909104943275452e-03
-2.317898347973823547e-02
-1.897134631872177124e-02
2.350767608731985092e-03
-1.375586632639169693e-02
9.555657394230365753e-03
-1.583616435527801514e-02
-8.053706027567386627e-03
-1.143544167280197144e-02
-1.410180516541004181e-02
-1.234418712556362152e-02
-8.610357530415058136e-03
-1.105191279202699661e-02
-1.188281830400228500e-02
-6.534446496516466141e-03
2.815960906445980072e-04
7.138300687074661255e-03
-8.570096455514431000e-03
-1.051821373403072357e-02
1.241781137650832534e-04
-2.574211452156305313e-03
-1.210150588303804398e-02
-1.053010951727628708e-02
-1.056828536093235016e-02
-1.543602719902992249e-02
-1.392149273306131363e-02
2.734424546360969543e-02
-1.141934841871261597e-02
-1.948831416666507721e-02
-1.155193522572517395e-02
-1.092161983251571655e-02
-1.164929941296577454e-02
-9.587431326508522034e-03
1.916903071105480194e-02
-2.032207325100898743e-03
-1.506780833005905151e-02
-3.226969391107559204e-03
-1.052350737154483795e-02
-1.039849873632192612e-02
-2.010759199038147926e-03
-1.618407294154167175e-02
9.261626750230789185e-03
-1.835326291620731354e-02
-1.181860268115997314e-02
-2.010145923122763634e-03
-1.696159504354000092e-02
-2.445348072797060013e-04
-9.737317450344562531e-03
-8.898269385099411011e-03
-1.158556994050741196e-02
-1.535318139940500259e-02
-1.093799900263547897e-02
-1.895736530423164368e-02
-5.198705010116100311e-03
-1.078998949378728867e-02
-6.000543944537639618e-03
-5.374634172767400742e-03
-2.172851935029029846e-03
-8.841035887598991394e-03
-2.698956523090600967e-03
-1.392872654832899570e-03
-1.199547480791807175e-02
7.566900923848152161e-03
-1.147136092185974121e-02
-1.072137523442506790e-02
-6.788514554500579834e-03
1.044013630598783493e-02
-2.539637684822082520e-02
-1.169957779347896576e-02
-1.596959307789802551e-02
3.799277357757091522e-03
-1.300166547298431396e-02
-9.023875929415225983e-03
-1.051019132137298584e-02
-1.091251149773597717e-02
3.895108401775360107e-02
-8.449537679553031921e-03
2.626246772706508636e-02
-9.440454654395580292e-03
-1.181860174983739853e-02
-1.433046767488121986e-03
-4.816540051251649857e-03
-1.825224421918392181e-02
-1.198439300060272217e-02
-7.904121652245521545e-03
1.220806618221104145e-03
-3.410106291994452477e-03
-1.167724747210741043e-02
-3.390590660274028778e-03
-9.686749428510665894e-03
-1.634696498513221741e-02
-3.566481638699769974e-03
-5.008068867027759552e-03
-1.051597110927104950e-02
-1.187135712825693190e-04
3.421644121408462524e-02
-3.775267628952860832e-03
7.827729731798171997e-02
-5.156652070581912994e-03
-1.170415710657835007e-02
-1.429754029959440231e-02
1.644177176058292389e-02
-4.968991503119468689e-03
-3.459423780441284180e-03
-1.767743262462317944e-03
-8.527424186468124390e-03
-9.342904202640056610e-03
-9.203637018799781799e-03
-9.375491179525852203e-03
-9.972309693694114685e-03
-5.247719585895538330e-03
-1.273470371961593628e-02
-3.123920643702149391e-03
-2.049476839601993561e-02
4.357872996479272842e-03
-1.051391754299402237e-02
-1.809982582926750183e-02
-1.465151272714138031e-02
-6.757534574717283249e-04
2.508277771994471550e-03
-2.818766050040721893e-03
-8.185572922229766846e-03
-2.627016976475715637e-03
-1.836518011987209320e-02
-1.052398607134819031e-02
2.398694679141044617e-02
-1.495766174048185349e-02
-9.067413397133350372e-03
3.070397360716015100e-05
-1.440332829952239990e-02
-7.199255283921957016e-03
-8.249902166426181793e-03
-1.138970348984003067e-02
-1.704642735421657562e-02
-8.477112278342247009e-03
-1.119343005120754242e-02
-1.001436635851860046e-02
2.020135521888732910e-03
-1.189095899462699890e-02
-1.222980953752994537e-02
-6.849570199847221375e-03
1.357453223317861557e-02
-8.844305761158466339e-03
1.265893038362264633e-02
-9.616473689675331116e-03
-5.576292984187602997e-03
-1.153652556240558624e-02
-2.158383373171091080e-03
-4.837273154407739639e-03
-1.331506017595529556e-02
9.185114875435829163e-03
-1.139654032886028290e-02
-1.183337159454822540e-02
-4.748723004013299942e-03
-2.012873766943812370e-03
-1.063051726669073105e-02
6.734978407621383667e-03
3.498007729649543762e-02
-1.459806226193904877e-02
1.369625329971313477e-02
-1.202265731990337372e-02
5.461620911955833435e-02
-7.425241637974977493e-03
-5.961533170193433762e-04
-1.643023081123828888e-02
8.410598151385784149e-03
-9.504427202045917511e-03
-1.366588100790977478e-02
1.294470508582890034e-03
-8.402169682085514069e-03
-9.812752716243267059e-03
1.881142263300716877e-03
-2.099343948066234589e-02
4.584722046274691820e-04
-6.442661397159099579e-03
1.766763441264629364e-02
-6.237822119146585464e-03
-2.166135981678962708e-02
-2.049025846645236015e-03
-1.067391480319201946e-03
2.698666043579578400e-02
-7.623231969773769379e-03
-1.087633520364761353e-02
-1.866671070456504822e-02
-1.168904919177293777e-02
-1.549205742776393890e-02
-9.614303708076477051e-03
1.031834864988923073e-03
3.582326695322990417e-02
-5.922748241573572159e-03
-1.494694873690605164e-02
7.348354440182447433e-03
-1.119844242930412292e-02
2.238749526441097260e-03
1.284110359847545624e-02
-1.333736721426248550e-02
-3.126665484160184860e-03
5.283064208924770355e-03
-9.694683365523815155e-03
6.136427400633692741e-04
-6.532697472721338272e-03
-1.051422953605651855e-02
-6.188810337334871292e-03
-9.328585118055343628e-03
2.839157171547412872e-02
-1.064701937139034271e-02
-8.548434125259518623e-04
-1.093641947954893112e-02
1.733536133542656898e-03
1.928938180208206177e-02
-1.052552275359630585e-02
-9.637263603508472443e-03
1.656737760640680790e-03
-9.372909553349018097e-03
-1.565229520201683044e-02
7.483969675377011299e-04
-1.246638363227248192e-03
-3.078383859246969223e-03
1.335331238806247711e-02
2.576108963694423437e-04
-1.088609639555215836e-02
-1.065886113792657852e-02
3.313075751066207886e-02
-8.672613650560379028e-03
7.617067079991102219e-03
-1.052407175302505493e-02
-3.711030294653028250e-04
-1.308762189000844955e-02
-1.272045820951461792e-02
-9.716352447867393494e-03
-1.515130512416362762e-02
-8.214109577238559723e-03
-1.417919434607028961e-02
-7.731624878942966461e-03
-7.908872328698635101e-03
-1.616626977920532227e-02
-9.303504601120948792e-03
-2.108016051352024078e-03
2.690194407477974892e-03
-7.712816819548606873e-03
1.077907159924507141e-02
-8.207993581891059875e-03
-1.084431353956460953e-02
-1.051169726997613907e-02
-1.178110018372535706e-02
-3.066742559894919395e-03
-3.232788527384400368e-03
-8.628621697425842285e-03
-4.513118416070938110e-03
-8.524996228516101837e-03
-1.172276120632886887e-02
-1.147521100938320160e-02
1.181377843022346497e-02
-1.072331797331571579e-02
5.400992929935455322e-03
1.048949663527309895e-03
2.300229854881763458e-02
7.769028889015316963e-04
-9.627572726458311081e-04
-1.329390890896320343e-02
2.073317021131515503e-02
-1.180490944534540176e-02
-8.973610587418079376e-03
-7.786380127072334290e-03
2.262040972709655762e-02
-1.191323623061180115e-02
-6.462902296334505081e-03
-4.149855580180883408e-03
-7.207707967609167099e-03
-1.417369302362203598e-02
-1.052185241132974625e-02
-8.564456366002559662e-03
-8.640547282993793488e-03
7.368083111941814423e-03
1.093157939612865448e-02
-1.519044488668441772e-02
4.068681970238685608e-03
-6.858075037598609924e-03
-6.577116437256336212e-03
2.394045703113079071e-02
-6.840261630713939667e-03
-1.940076611936092377e-02
-1.338566839694976807e-02
3.108039731159806252e-03
-9.274630807340145111e-03
-6.565389223396778107e-03
-6.250656675547361374e-03
4.292417434044182301e-04
-1.534592267125844955e-02
-1.051665283739566803e-02
-1.055357605218887329e-02
6.370666902512311935e-03
-5.956615786999464035e-03
-1.286980113945901394e-03
-1.051218435168266296e-02
3.456840664148330688e-02
-5.024489015340805054e-03
-1.046983432024717331e-02
-1.370510738343000412e-02
-9.105094708502292633e-03
-4.294245038181543350e-03
-4.203812684863805771e-03
-1.080192998051643372e-02
-3.178994636982679367e-03
-1.096866000443696976e-02
-5.324443802237510681e-03
-9.136101230978965759e-03
-1.151402015239000320e-02
-9.673566557466983795e-03
-1.067429408431053162e-02
-8.474542759358882904e-03
-6.303967442363500595e-03
-1.474411692470312119e-02
-5.270936526358127594e-03
-8.627130649983882904e-03
-9.103367105126380920e-03
-9.378460235893726349e-03
-1.159110944718122482e-02
-1.887446269392967224e-02
-1.093362737447023392e-02
-2.374400384724140167e-02
-1.188903767615556717e-02
-1.226655021309852600e-02
-1.492305193096399307e-02
-1.353182177990674973e-02
-1.051499601453542709e-02
5.413533188402652740e-03
-1.378756947815418243e-02
5.906528793275356293e-03
-1.094041112810373306e-02
-1.298096403479576111e-02
-1.127708703279495239e-02
-1.206442527472972870e-02
8.449344895780086517e-03
-1.157307624816894531e-02
-2.152286842465400696e-02
1.523686479777097702e-02
7.218515500426292419e-03
-1.916093565523624420e-02
-2.229000441730022430e-03
6.408578716218471527e-03
-1.746845431625843048e-02
1.655010320246219635e-02
1.531363464891910553e-03
1.948290504515171051e-02
-1.918021030724048615e-02
1.408553775399923325e-02
-1.074150204658508301e-02
-1.901216618716716766e-02
-7.791767362505197525e-03
1.333325821906328201e-02
6.525086355395615101e-04
-7.512127514928579330e-03
1.202607713639736176e-02
-5.305982660502195358e-03
-1.291049271821975708e-02
-1.220591831952333450e-02
-1.012261211872100830e-02
-1.280114799737930298e-02
-1.052057836204767227e-02
-1.083745341747999191e-02
-1.037905085831880569e-02
-7.718696258962154388e-03
-1.051617320626974106e-02
-1.249345485121011734e-03
1.054478809237480164e-03
9.618581272661685944e-03
4.832248017191886902e-02
-9.948022663593292236e-03
-1.077636796981096268e-02
-4.671989474445581436e-03
5.413162522017955780e-03
-9.846325032413005829e-03
1.140961050987243652e-02
-1.826471090316772461e-02
-6.096173543483018875e-03
2.244033291935920715e-02
7.516042329370975494e-03
-1.261183340102434158e-02
3.184346714988350868e-03
-2.091591246426105499e-02
-1.665841415524482727e-02
-7.730776909738779068e-03
7.075521163642406464e-03
-1.050902344286441803e-02
-9.547945111989974976e-03
-1.354978512972593307e-02
-5.452579818665981293e-03
3.265581279993057251e-02
1.739574223756790161e-02
-1.046391949057579041e-02
-2.058411017060279846e-03
1.377072650939226151e-02
-7.828642614185810089e-03
7.193198427557945251e-03
-5.052994471043348312e-03
-1.558523159474134445e-02
-1.335961837321519852e-02
1.405301620252430439e-03
-1.490032952278852463e-02
-6.531117949634790421e-03
-9.845905005931854248e-04
-5.359828006476163864e-03
-7.797867991030216217e-03
-1.558865699917078018e-02
-1.091923937201499939e-02
7.710876408964395523e-03
-8.457164280116558075e-03
-1.113205961883068085e-02
-1.375896297395229340e-02
3.558467375114560127e-03
1.014497503638267517e-02
-1.142172981053590775e-02
-7.848018780350685120e-03
-1.570922904647886753e-03
6.681683473289012909e-03
-1.399624347686767578e-02
-1.203773729503154755e-02
8.175455965101718903e-03
-1.052044890820980072e-02
-9.044596925377845764e-03
-1.167689170688390732e-02
9.038230404257774353e-03
1.107748481445014477e-03
-7.340169046074151993e-03
-1.190071552991867065e-02
-8.371707983314990997e-03
-1.355402451008558273e-02
-1.148782856762409210e-02
2.873917669057846069e-02
-1.464500371366739273e-02
-6.988752633333206177e-03
2.411668375134468079e-02
-9.179516695439815521e-03
4.255026113241910934e-03
-1.111652236431837082e-02
-7.166963536292314529e-03
-7.656008005142211914e-03
1.408931519836187363e-02
-1.111906114965677261e-02
-5.119752604514360428e-03
1.976426504552364349e-02
-1.097875460982322693e-02
-2.057955041527748108e-02
-1.020304299890995026e-02
5.878975149244070053e-03
5.477575119584798813e-03
-7.453494239598512650e-03
-1.022422686219215393e-02
1.330919470638036728e-02
2.817502804100513458e-02
-1.977168722078204155e-03
-1.496936753392219543e-02
-1.052489969879388809e-02
-1.024575904011726379e-02
1.462174463085830212e-03
-1.604751683771610260e-02
-1.280275452882051468e-02
-1.317562349140644073e-02
-1.193499471992254257e-02
1.031643431633710861e-02
-3.293425077572464943e-03
-1.117643713951110840e-02
5.796069744974374771e-03
-8.860150352120399475e-03
-1.314784865826368332e-02
-5.648800171911716461e-03
1.550026703625917435e-02
-1.104866340756416321e-02
-1.121041085571050644e-02
1.043749786913394928e-02
-1.143180672079324722e-02
-1.052328292280435562e-02
8.075792342424392700e-03
-1.059074886143207550e-02
-1.921299146488308907e-03
7.479402236640453339e-03
3.382454160600900650e-03
-1.053143106400966644e-02
-7.473495788872241974e-03
-8.325119502842426300e-03
8.559485897421836853e-03
2.589320763945579529e-03
-2.013372816145420074e-02
3.978012129664421082e-03
-6.456347182393074036e-03
-6.768032442778348923e-03
-1.159356068819761276e-02
-1.618101075291633606e-02
-2.470113569870591164e-03
-1.051339693367481232e-02
-3.480407875031232834e-03
3.534940257668495178e-02
-4.520251881331205368e-03
-1.447797100991010666e-02
5.717300227843225002e-04
-9.757825173437595367e-03
-1.156461611390113831e-02
-1.008357666432857513e-02
5.084444419480860233e-04
3.096098080277442932e-03
-8.702033199369907379e-03
-1.141856890171766281e-02
-9.501932188868522644e-03
2.242012135684490204e-02
-2.302023209631443024e-02
-1.167349331080913544e-02
1.366102835163474083e-03
-1.052139420062303543e-02
-9.749850258231163025e-03
-1.423504017293453217e-02
9.371661581099033356e-03
-1.049131155014038086e-02
-1.195978093892335892e-02
-9.393085725605487823e-03
-1.052696444094181061e-02
-1.052218955010175705e-02
-1.283760066144168377e-03
-1.165480632334947586e-02
-1.556051895022392273e-02
7.279188837856054306e-03
-1.606093347072601318e-02
-1.298388652503490448e-02
5.475042760372161865e-02
-9.457177482545375824e-03
-8.707747794687747955e-03
-1.513366121798753738e-03
-1.137731829658150673e-03
-1.292832661420106888e-02
-1.964336633682250977e-02
-5.624043755233287811e-03
-1.175043731927871704e-02
-6.227036006748676300e-03
-9.236297570168972015e-03
-1.345833763480186462e-02
-5.080316681414842606e-03
-3.923350945115089417e-03
3.963445778936147690e-03
-1.069254800677299500e-02
-1.458038482815027237e-02
-4.890005104243755341e-03
-1.184655725955963135e-02
-1.089865993708372116e-02
-2.089344523847103119e-02
-1.766297966241836548e-02
3.040126897394657135e-02
-1.067306008189916611e-02
9.857222437858581543e-03
-3.090602112933993340e-03
6.340557336807250977e-02
4.497609566897153854e-03
-7.090325816534459591e-04
-5.267254076898097992e-03
2.352485898882150650e-03
-1.828864775598049164e-02
-9.186315350234508514e-03
-1.422371342778205872e-02
-2.188502810895442963e-03
-1.240284182131290436e-02
-5.494686774909496307e-05
-1.137778721749782562e-02
-1.219202764332294464e-02
-1.015555951744318008e-02
6.090839579701423645e-02
-1.053206063807010651e-02
-1.189270615577697754e-02
-1.202004682272672653e-02
-2.043905900791287422e-03
2.393471635878086090e-02
-1.144731137901544571e-02
-1.096966117620468140e-02
-2.204370219260454178e-03
-1.598508283495903015e-02
-8.646248839795589447e-03
-9.877439588308334351e-03
-1.013456378132104874e-02
-1.077355910092592239e-02
-4.129819571971893311e-03
-1.155449263751506805e-02
-1.184650976210832596e-02
-1.180358044803142548e-02
-8.728852495551109314e-03
6.677904457319527864e-05
-1.410417631268501282e-02
-9.377455338835716248e-03
-1.817590673454105854e-03
-1.039735507220029831e-02
-1.538000628352165222e-02
-1.279384549707174301e-02
-5.662999581545591354e-03
5.177616141736507416e-03
-1.253758277744054794e-02
-1.990627351915463805e-04
-1.159768644720315933e-02
-7.775654084980487823e-03
-6.891665048897266388e-03
-4.892418161034584045e-03
-1.497035752981901169e-02
-1.092758588492870331e-02
-1.745423302054405212e-02
-9.947376325726509094e-03
-9.055254631675779819e-04
1.043134182691574097e-02
-2.157819224521517754e-03
-9.889137931168079376e-03
-7.206947077065706253e-03
-2.417216077446937561e-03
-2.536836778745055199e-03
2.049702592194080353e-02
1.618471741676330566e-02
-1.051644422113895416e-02
-4.565895535051822662e-03
-1.202449761331081390e-02
1.296036224812269211e-02
2.656824514269828796e-02
-7.129393517971038818e-03
-7.122085429728031158e-03
1.324929110705852509e-02
-1.269609015434980392e-02
-1.154620759189128876e-02
3.600909607484936714e-03
-3.777036210522055626e-03
-9.100103750824928284e-03
5.948404432274401188e-04
-1.266363263130187988e-02
-4.748405423015356064e-03
1.234367489814758301e-02
-1.481038797646760941e-02
6.542611401528120041e-03
1.761347800493240356e-02
-1.313262712210416794e-02
-7.823512889444828033e-03
-4.908127710223197937e-03
-9.131011553108692169e-03
-8.194426074624061584e-03
-1.052335742861032486e-02
-1.886341348290443420e-02
1.626983471214771271e-02
-1.129476912319660187e-02
-7.725281466264277697e-05
-7.557237520813941956e-03
-1.216773316264152527e-02
-4.076937213540077209e-03
-1.251145452260971069e-02
-2.364060375839471817e-03
-1.024983078241348267e-02
1.482100598514080048e-02
5.136090796440839767e-03
9.346855222247540951e-04
-6.497891619801521301e-03
1.662409491837024689e-02
2.401779405772686005e-03
-8.698807097971439362e-03
1.291516353376209736e-03
-1.079870201647281647e-02
-1.103658135980367661e-02
1.041101198643445969e-02
-1.235468965023756027e-02
2.854254329577088356e-03
-2.343462221324443817e-02
-9.861055761575698853e-03
-1.291063334792852402e-02
6.907869875431060791e-02
2.739685401320457458e-02
-1.281974278390407562e-02
-8.183329366147518158e-03
-1.458387821912765503e-03
5.799993872642517090e-02
-2.530874125659465790e-02
-1.157428510487079620e-02
-7.343300152570009232e-03
-1.051052473485469818e-02
6.605630274862051010e-03
2.073932625353336334e-02
-1.656925305724143982e-02
-1.042782980948686600e-02
-1.491004973649978638e-02
-1.019065361469984055e-02
2.099828561767935753e-03
-5.575368646532297134e-03
-2.215364074800163507e-04
-1.128762587904930115e-02
-6.221027579158544540e-03
-5.628459039144217968e-04
-1.260261051356792450e-02
-3.976861014962196350e-03
-1.169437449425458908e-02
-1.525160949677228928e-02
-1.051051449030637741e-02
-2.894478384405374527e-03
-1.495634391903877258e-02
-5.836369004100561142e-03
-1.060919091105461121e-02
-1.823799498379230499e-02
6.203998811542987823e-03
-5.325616337358951569e-03
-7.885315455496311188e-03
-7.135104387998580933e-03
-1.552921626716852188e-02
-1.229326520115137100e-02
-1.338348723948001862e-02
-1.051839068531990051e-02
-1.812445744872093201e-02
-1.318594347685575485e-02
1.461998035665601492e-04
-4.176115617156028748e-03
-1.380610838532447815e-02
-1.051223278045654297e-02
-6.183704826980829239e-03
-1.299469638615846634e-02
-3.168495604768395424e-03
1.006741877063177526e-04
-1.435506739653646946e-03
5.000418424606323242e-02
-1.065444108098745346e-02
-1.632293686270713806e-02
-6.130153778940439224e-03
2.295879647135734558e-03
-1.112618017941713333e-02
-1.455250382423400879e-02
7.614176254719495773e-03
-9.970331564545631409e-03
1.486704451963305473e-03
-2.118302322924137115e-02
-5.443159956485033035e-03
-8.414505980908870697e-03
-6.787040038034319878e-04
-8.673958480358123779e-03
-1.575567945837974548e-02
-2.068154513835906982e-02
-2.332576550543308258e-03
-4.368937574326992035e-03
1.114588929340243340e-03
