2.607357129454612732e-02
4.861798509955406189e-02
4.864767938852310181e-02
-2.161086350679397583e-01
2.647984772920608521e-02
-9.956716746091842651e-02
8.260693401098251343e-02
-1.313938498497009277e-01
8.841527253389358521e-02
-3.984068706631660461e-02
-1.922532916069030762e-02
6.207242980599403381e-02
-1.270072609186172485e-01
-6.236233189702033997e-02
7.576614618301391602e-02
-6.873492151498794556e-02
4.022247493267059326e-01
-1.731965392827987671e-01
1.870336383581161499e-01
2.170095443725585938e-01
1.372609287500381470e-02
-1.114374026656150818e-01
3.993935286998748779e-01
2.023115754127502441e-01
-5.708513036370277405e-02
-2.218923717737197876e-01
-7.578123360872268677e-02
-1.213248297572135925e-01
1.971650570631027222e-01
-2.714058011770248413e-02
1.908720135688781738e-01
7.452822476625442505e-02
-1.701227277517318726e-01
-7.945870608091354370e-02
-5.947322025895118713e-02
-9.492655843496322632e-02
-1.717262566089630127e-01
5.390257760882377625e-02
-1.205935850739479065e-01
5.703775212168693542e-02
3.160545527935028076e-01
-4.790539667010307312e-02
3.612869605422019958e-02
1.759367734193801880e-01
5.163807049393653870e-02
-7.967579178512096405e-03
-5.292039131745696068e-04
-1.743154078722000122e-01
4.502238333225250244e-02
-4.152288660407066345e-02
2.026634961366653442e-01
-8.145433850586414337e-03
5.671412125229835510e-02
1.372747123241424561e-01
2.156344205141067505e-01
1.435717381536960602e-02
8.217022567987442017e-02
4.279125928878784180e-01
-2.739381417632102966e-02
-4.888519272208213806e-02
4.805280361324548721e-03
1.318279355764389038e-01
1.852978318929672241e-01
-1.543794572353363037e-02
1.394685357809066772e-01
1.193834170699119568e-01
6.987116485834121704e-02
2.000360563397407532e-02
-4.558571055531501770e-02
8.399157226085662842e-02
2.131718546152114868e-01
2.281633168458938599e-01
1.059544607996940613e-01
1.598056405782699585e-01
5.386305227875709534e-02
-2.128747105598449707e-02
3.816307783126831055e-01
1.013564839959144592e-01
5.684856697916984558e-02
1.585249453783035278e-01
1.961226761341094971e-01
1.309420615434646606e-01
8.075623959302902222e-02
3.118351995944976807e-01
2.378654479980468750e-01
1.174899935722351074e-01
2.274773567914962769e-01
1.700094491243362427e-01
2.415025979280471802e-02
1.421557664871215820e-01
2.037669420242309570e-01
-1.946064084768295288e-01
9.822799265384674072e-02
3.394685313105583191e-02
9.554592519998550415e-02
-1.188640967011451721e-01
-6.810421496629714966e-02
-1.035642549395561218e-01
-3.505637347698211670e-01
3.064999580383300781e-01
2.069002836942672729e-01
8.646945655345916748e-02
5.170220881700515747e-02
9.545331448316574097e-02
2.465438395738601685e-01
-2.459519803524017334e-01
-2.176996171474456787e-01
3.919966146349906921e-02
-1.510932296514511108e-01
4.901004955172538757e-02
1.912214607000350952e-01
-5.529404059052467346e-02
-6.180822849273681641e-02
1.657016873359680176e-01
2.562992274761199951e-01
2.277375608682632446e-01
-1.910724788904190063e-01
2.400856837630271912e-02
-9.642286598682403564e-02
-5.009101703763008118e-02
1.320107877254486084e-01
4.402530193328857422e-01
2.129610925912857056e-01
1.903098970651626587e-01
-5.369860213249921799e-03
1.255666911602020264e-01
1.962620466947555542e-01
1.663004010915756226e-01
