2.610829472541809082e-01 -2.865883409976959229e-01 -4.756845235824584961e-01 1.059018969535827637e-01 -7.568722218275070190e-02 2.535182796418666840e-02 1.701056770980358124e-02 1.938399672508239746e-01 6.614181399345397949e-02 -1.293174177408218384e-01 -2.365682125091552734e-01 -7.818715274333953857e-02 1.186587586998939514e-01 -4.295795038342475891e-02 -1.798530807718634605e-03 -3.572264686226844788e-04 1.759317666292190552e-01 9.079334326088428497e-03 -3.187813330441713333e-03 1.973686963319778442e-01 -2.170963287353515625e-01 1.675728112459182739e-01 9.376494586467742920e-02 2.076341807842254639e-01 2.143658697605133057e-01 7.694226806052029133e-04 -2.479095570743083954e-02 -1.196861118078231812e-01 9.714147448539733887e-02 6.307782232761383057e-02 6.391215324401855469e-02 -1.084898561239242554e-01 2.562600970268249512e-01 1.375237256288528442e-01 2.380344271659851074e-01 2.106471061706542969e-01 3.869344294071197510e-01 -4.934327676892280579e-02 9.117603302001953125e-02 -1.975822150707244873e-01 1.501009762287139893e-01 3.167616203427314758e-02 -1.893095485866069794e-02 4.627387225627899170e-02 5.176245048642158508e-02 1.589071936905384064e-02 2.182562500238418579e-01 -1.188571900129318237e-01 -7.615561038255691528e-02 -9.770879149436950684e-02 8.159447461366653442e-02 -1.175204813480377197e-01 -1.033920496702194214e-01 -1.268032193183898926e-01 1.674236506223678589e-01 2.386664003133773804e-01 1.033380627632141113e-01 5.401359871029853821e-02 1.600622236728668213e-01 -2.989596687257289886e-02 2.585728280246257782e-02 2.080942504107952118e-02 7.462325692176818848e-02 3.186863362789154053e-01 0.000000000000000000e+00 -0.000000000000000000e+00 0.000000000000000000e+00 -0.000000000000000000e+00 0.000000000000000000e+00 0.000000000000000000e+00 0.000000000000000000e+00 0.000000000000000000e+00 0.000000000000000000e+00 0.000000000000000000e+00 0.000000000000000000e+00 0.000000000000000000e+00 0.000000000000000000e+00 -0.000000000000000000e+00 0.000000000000000000e+00 -0.000000000000000000e+00 -0.000000000000000000e+00 -0.000000000000000000e+00 0.000000000000000000e+00 0.000000000000000000e+00 -0.000000000000000000e+00 0.000000000000000000e+00 0.000000000000000000e+00 0.000000000000000000e+00 -0.000000000000000000e+00 -0.000000000000000000e+00 -0.000000000000000000e+00 0.000000000000000000e+00 0.000000000000000000e+00 0.000000000000000000e+00 -0.000000000000000000e+00 -0.000000000000000000e+00 -0.000000000000000000e+00 -0.000000000000000000e+00 0.000000000000000000e+00 -0.000000000000000000e+00 -0.000000000000000000e+00 -0.000000000000000000e+00 0.000000000000000000e+00 -0.000000000000000000e+00 -0.000000000000000000e+00 -0.000000000000000000e+00 0.000000000000000000e+00 -0.000000000000000000e+00 0.000000000000000000e+00 0.000000000000000000e+00 -0.000000000000000000e+00 0.000000000000000000e+00 -0.000000000000000000e+00 0.000000000000000000e+00 0.000000000000000000e+00 0.000000000000000000e+00 0.000000000000000000e+00 0.000000000000000000e+00 0.000000000000000000e+00 0.000000000000000000e+00 -0.000000000000000000e+00 -0.000000000000000000e+00 0.000000000000000000e+00 0.000000000000000000e+00 0.000000000000000000e+00 0.000000000000000000e+00 -0.000000000000000000e+00 0.000000000000000000e+00
-2.838649228215217590e-02 1.156520247459411621e-01 2.080372720956802368e-01 -5.903495103120803833e-02 -1.533696427941322327e-02 1.678864657878875732e-01 9.297922253608703613e-03 -9.728074073791503906e-02 2.419381774961948395e-02 -2.656783163547515869e-01 3.095606565475463867e-01 3.299259543418884277e-01 1.482057422399520874e-01 -9.080959856510162354e-02 -9.568662941455841064e-02 1.301040947437286377e-01 4.253816604614257812e-02 -1.920128762722015381e-01 -5.474580079317092896e-02 2.416718751192092896e-01 -1.991342604160308838e-01 1.565704941749572754e-01 7.884790748357772827e-02 6.402415782213211060e-02 -1.679252088069915771e-02 -1.438119560480117798e-01 2.000197619199752808e-01 5.996313691139221191e-02 1.827172338962554932e-01 -2.388470806181430817e-02 3.587094694375991821e-02 3.083741068840026855e-01 4.210140556097030640e-02 2.395455837249755859e-01 5.259154364466667175e-03 2.915768623352050781e-01 1.537943445146083832e-02 2.306975722312927246e-01 1.554592400789260864e-01 1.362439543008804321e-01 1.831104606389999390e-01 1.040368229150772095e-01 -1.499528735876083374e-01 -1.835618354380130768e-02 -6.487679481506347656e-02 -2.207033336162567139e-01 3.004071712493896484e-01 -1.213082298636436462e-01 1.024480536580085754e-01 -1.816286593675613403e-01 4.638641327619552612e-02 -4.581215977668762207e-02 -1.052187979221343994e-01 1.357114315032958984e-01 -5.734400823712348938e-03 2.384041100740432739e-01 -1.567429602146148682e-01 2.236736863851547241e-01 2.890614867210388184e-01 1.942386180162429810e-01 1.118688434362411499e-01 8.752154558897018433e-02 2.387902326881885529e-02 -3.084862828254699707e-01 0.000000000000000000e+00 0.000000000000000000e+00 0.000000000000000000e+00 -0.000000000000000000e+00 0.000000000000000000e+00 -0.000000000000000000e+00 -0.000000000000000000e+00 0.000000000000000000e+00 0.000000000000000000e+00 0.000000000000000000e+00 0.000000000000000000e+00 -0.000000000000000000e+00 0.000000000000000000e+00 0.000000000000000000e+00 -0.000000000000000000e+00 0.000000000000000000e+00 -0.000000000000000000e+00 0.000000000000000000e+00 0.000000000000000000e+00 -0.000000000000000000e+00 0.000000000000000000e+00 -0.000000000000000000e+00 -0.000000000000000000e+00 -0.000000000000000000e+00 -0.000000000000000000e+00 -0.000000000000000000e+00 0.000000000000000000e+00 -0.000000000000000000e+00 0.000000000000000000e+00 0.000000000000000000e+00 0.000000000000000000e+00 0.000000000000000000e+00 0.000000000000000000e+00 0.000000000000000000e+00 0.000000000000000000e+00 0.000000000000000000e+00 -0.000000000000000000e+00 0.000000000000000000e+00 -0.000000000000000000e+00 0.000000000000000000e+00 0.000000000000000000e+00 0.000000000000000000e+00 0.000000000000000000e+00 0.000000000000000000e+00 0.000000000000000000e+00 0.000000000000000000e+00 -0.000000000000000000e+00 0.000000000000000000e+00 -0.000000000000000000e+00 0.000000000000000000e+00 0.000000000000000000e+00 0.000000000000000000e+00 -0.000000000000000000e+00 -0.000000000000000000e+00 0.000000000000000000e+00 0.000000000000000000e+00 -0.000000000000000000e+00 -0.000000000000000000e+00 0.000000000000000000e+00 0.000000000000000000e+00 -0.000000000000000000e+00 -0.000000000000000000e+00 0.000000000000000000e+00 -0.000000000000000000e+00
-2.318544238805770874e-01 -4.217278957366943359e-02 -1.839528530836105347e-01 1.203271821141242981e-01 -1.947285830974578857e-01 1.919518411159515381e-01 -1.216960474848747253e-01 3.232048451900482178e-02 6.591468304395675659e-02 -5.774666368961334229e-02 2.326757609844207764e-01 1.849232055246829987e-02 -2.572304904460906982e-01 8.365093171596527100e-02 6.718013435602188110e-02 -2.330192178487777710e-01 -1.298496723175048828e-01 1.477178931236267090e-01 7.322616130113601685e-02 4.583649337291717529e-02 3.680885434150695801e-01 -7.783180475234985352e-02 -1.771740913391113281e-01 -3.463010489940643311e-02 3.041521646082401276e-02 -7.241231203079223633e-02 1.617440395057201385e-02 1.164636984467506409e-01 3.773815697059035301e-03 -1.280598491430282593e-01 7.099931687116622925e-02 1.404972374439239502e-01 -1.056590452790260315e-01 -9.682253934442996979e-03 1.270579248666763306e-01 -6.609187927097082138e-03 -1.356297880411148071e-01 1.402007974684238434e-02 -5.043241661041975021e-03 3.423483669757843018e-02 -1.125218463130295277e-03 -8.638674765825271606e-02 4.613774269819259644e-02 5.274827033281326294e-02 5.120120197534561157e-02 3.783228099346160889e-01 -1.529427468776702881e-01 1.651983708143234253e-01 3.517427295446395874e-02 2.159903645515441895e-01 -2.245866507291793823e-02 7.144729048013687134e-02 2.522667869925498962e-02 1.231494620442390442e-01 -1.443700790405273438e-01 4.033292829990386963e-02 2.142056524753570557e-01 1.088600903749465942e-01 2.996709942817687988e-01 6.134028080850839615e-03 2.750926911830902100e-01 1.203793101012706757e-02 2.517159283161163330e-01 3.060821294784545898e-01 0.000000000000000000e+00 0.000000000000000000e+00 0.000000000000000000e+00 -0.000000000000000000e+00 0.000000000000000000e+00 0.000000000000000000e+00 0.000000000000000000e+00 0.000000000000000000e+00 0.000000000000000000e+00 0.000000000000000000e+00 -0.000000000000000000e+00 0.000000000000000000e+00 -0.000000000000000000e+00 0.000000000000000000e+00 -0.000000000000000000e+00 0.000000000000000000e+00 -0.000000000000000000e+00 0.000000000000000000e+00 0.000000000000000000e+00 -0.000000000000000000e+00 0.000000000000000000e+00 0.000000000000000000e+00 -0.000000000000000000e+00 0.000000000000000000e+00 0.000000000000000000e+00 -0.000000000000000000e+00 0.000000000000000000e+00 -0.000000000000000000e+00 0.000000000000000000e+00 0.000000000000000000e+00 0.000000000000000000e+00 -0.000000000000000000e+00 -0.000000000000000000e+00 -0.000000000000000000e+00 -0.000000000000000000e+00 -0.000000000000000000e+00 0.000000000000000000e+00 0.000000000000000000e+00 -0.000000000000000000e+00 -0.000000000000000000e+00 0.000000000000000000e+00 -0.000000000000000000e+00 -0.000000000000000000e+00 -0.000000000000000000e+00 -0.000000000000000000e+00 0.000000000000000000e+00 -0.000000000000000000e+00 0.000000000000000000e+00 0.000000000000000000e+00 0.000000000000000000e+00 -0.000000000000000000e+00 0.000000000000000000e+00 -0.000000000000000000e+00 -0.000000000000000000e+00 -0.000000000000000000e+00 0.000000000000000000e+00 0.000000000000000000e+00 -0.000000000000000000e+00 0.000000000000000000e+00 0.000000000000000000e+00 0.000000000000000000e+00 0.000000000000000000e+00 -0.000000000000000000e+00 0.000000000000000000e+00
-2.281290143728256226e-01 1.230449154973030090e-01 -2.146758884191513062e-02 1.850925236940383911e-01 2.571147084236145020e-01 -4.509440809488296509e-02 -1.847473531961441040e-01 1.450706124305725098e-01 -6.251453608274459839e-02 1.893938332796096802e-01 -3.191798031330108643e-01 -2.498723417520523071e-01 7.218016684055328369e-02 -5.792680755257606506e-02 -1.647449880838394165e-01 -4.099497164133936167e-04 5.118197202682495117e-02 -6.401599198579788208e-02 -1.948917657136917114e-01 1.583489775657653809e-01 -1.802869290113449097e-01 5.574528872966766357e-02 -1.484066713601350784e-02 -1.589690297842025757e-01 -1.407030075788497925e-01 1.451694369316101074e-01 2.506706416606903076e-01 -2.811446972191333771e-02 -2.062247507274150848e-02 -4.225804656744003296e-02 -5.843405611813068390e-03 2.253052890300750732e-01 -2.611712515354156494e-01 -8.021721988916397095e-02 8.333409577608108521e-02 2.229351252317428589e-01 -1.884225010871887207e-02 1.055484935641288757e-01 -5.414775013923645020e-02 1.956781595945358276e-01 2.024491280317306519e-01 5.279589444398880005e-02 1.617744751274585724e-02 2.049205452203750610e-01 -2.106732875108718872e-01 -4.471351206302642822e-02 1.120234355330467224e-01 -2.138407677412033081e-01 -4.250602796673774719e-02 -1.979035437107086182e-01 2.079736143350601196e-01 -7.926706224679946899e-02 2.169695794582366943e-01 -6.891158968210220337e-02 6.968103349208831787e-03 -1.557146944105625153e-02 1.725483499467372894e-02 -1.350593566894531250e-01 -2.028351575136184692e-01 -1.773040741682052612e-01 3.315903246402740479e-02 -1.796345971524715424e-02 1.101469025015830994e-01 1.005899459123611450e-01 0.000000000000000000e+00 0.000000000000000000e+00 -0.000000000000000000e+00 -0.000000000000000000e+00 0.000000000000000000e+00 0.000000000000000000e+00 0.000000000000000000e+00 0.000000000000000000e+00 -0.000000000000000000e+00 0.000000000000000000e+00 0.000000000000000000e+00 -0.000000000000000000e+00 0.000000000000000000e+00 0.000000000000000000e+00 0.000000000000000000e+00 -0.000000000000000000e+00 0.000000000000000000e+00 -0.000000000000000000e+00 -0.000000000000000000e+00 0.000000000000000000e+00 -0.000000000000000000e+00 0.000000000000000000e+00 -0.000000000000000000e+00 0.000000000000000000e+00 -0.000000000000000000e+00 0.000000000000000000e+00 -0.000000000000000000e+00 -0.000000000000000000e+00 -0.000000000000000000e+00 -0.000000000000000000e+00 0.000000000000000000e+00 -0.000000000000000000e+00 -0.000000000000000000e+00 0.000000000000000000e+00 -0.000000000000000000e+00 -0.000000000000000000e+00 0.000000000000000000e+00 -0.000000000000000000e+00 -0.000000000000000000e+00 -0.000000000000000000e+00 0.000000000000000000e+00 -0.000000000000000000e+00 -0.000000000000000000e+00 0.000000000000000000e+00 -0.000000000000000000e+00 -0.000000000000000000e+00 -0.000000000000000000e+00 -0.000000000000000000e+00 0.000000000000000000e+00 0.000000000000000000e+00 0.000000000000000000e+00 0.000000000000000000e+00 0.000000000000000000e+00 0.000000000000000000e+00 -0.000000000000000000e+00 0.000000000000000000e+00 0.000000000000000000e+00 0.000000000000000000e+00 -0.000000000000000000e+00 -0.000000000000000000e+00 -0.000000000000000000e+00 0.000000000000000000e+00 -0.000000000000000000e+00 0.000000000000000000e+00
-2.060862630605697632e-01 1.852285116910934448e-01 -3.231130838394165039e-01 -1.548329591751098633e-01 -1.056602690368890762e-03 5.742501094937324524e-02 1.885974854230880737e-01 -1.506654471158981323e-01 -2.792772836983203888e-02 2.334005571901798248e-02 -1.787439137697219849e-01 5.899619683623313904e-02 7.958630472421646118e-02 -1.755934804677963257e-01 -8.839304745197296143e-02 -2.178182154893875122e-01 3.014994412660598755e-02 2.202288806438446045e-01 2.444211952388286591e-02 -2.653851918876171112e-02 -9.253142774105072021e-02 -2.351791970431804657e-02 -1.498691439628601074e-01 3.291075825691223145e-01 7.723192125558853149e-02 -1.117841526865959167e-02 -1.691260784864425659e-01 4.118591174483299255e-02 -1.069327741861343384e-01 -1.251017749309539795e-01 -3.999337926506996155e-02 -5.628810450434684753e-02 -1.861628293991088867e-01 -9.309326112270355225e-02 -1.740843951702117920e-01 7.156775891780853271e-02 2.137295603752136230e-01 1.379178017377853394e-01 -1.969911009073257446e-01 -3.499608114361763000e-02 2.566096782684326172e-01 -2.480443269014358521e-01 -1.865247637033462524e-01 -2.962129116058349609e-01 1.129589602351188660e-01 -1.180618256330490112e-01 -7.319772988557815552e-02 -9.124873578548431396e-02 5.705201625823974609e-02 -2.053884565830230713e-01 -2.316321730613708496e-01 -1.075773984193801880e-01 8.674822747707366943e-02 2.984237857162952423e-02 2.814689278602600098e-01 -1.304125972092151642e-02 1.044164784252643585e-02 5.284455791115760803e-02 -7.256070524454116821e-02 -1.989008933305740356e-01 2.343521825969219208e-02 9.442214667797088623e-02 -3.923777956515550613e-03 -3.865691646933555603e-02 0.000000000000000000e+00 0.000000000000000000e+00 -0.000000000000000000e+00 -0.000000000000000000e+00 0.000000000000000000e+00 -0.000000000000000000e+00 -0.000000000000000000e+00 0.000000000000000000e+00 0.000000000000000000e+00 -0.000000000000000000e+00 0.000000000000000000e+00 0.000000000000000000e+00 0.000000000000000000e+00 -0.000000000000000000e+00 -0.000000000000000000e+00 0.000000000000000000e+00 -0.000000000000000000e+00 -0.000000000000000000e+00 0.000000000000000000e+00 -0.000000000000000000e+00 -0.000000000000000000e+00 0.000000000000000000e+00 -0.000000000000000000e+00 -0.000000000000000000e+00 0.000000000000000000e+00 0.000000000000000000e+00 -0.000000000000000000e+00 0.000000000000000000e+00 0.000000000000000000e+00 -0.000000000000000000e+00 -0.000000000000000000e+00 0.000000000000000000e+00 -0.000000000000000000e+00 0.000000000000000000e+00 -0.000000000000000000e+00 -0.000000000000000000e+00 0.000000000000000000e+00 0.000000000000000000e+00 -0.000000000000000000e+00 0.000000000000000000e+00 0.000000000000000000e+00 -0.000000000000000000e+00 -0.000000000000000000e+00 -0.000000000000000000e+00 -0.000000000000000000e+00 0.000000000000000000e+00 -0.000000000000000000e+00 -0.000000000000000000e+00 -0.000000000000000000e+00 -0.000000000000000000e+00 -0.000000000000000000e+00 0.000000000000000000e+00 0.000000000000000000e+00 -0.000000000000000000e+00 0.000000000000000000e+00 -0.000000000000000000e+00 0.000000000000000000e+00 -0.000000000000000000e+00 0.000000000000000000e+00 0.000000000000000000e+00 0.000000000000000000e+00 -0.000000000000000000e+00 0.000000000000000000e+00 0.000000000000000000e+00
-1.042058840394020081e-01 6.486862152814865112e-02 -1.412760317325592041e-01 1.114297360181808472e-01 -2.674467302858829498e-02 -1.139689311385154724e-01 -7.261157780885696411e-02 -1.565615236759185791e-01 1.078282296657562256e-01 1.547770500183105469e-01 1.996912248432636261e-02 1.522179245948791504e-01 -2.097858339548110962e-01 -2.527289092540740967e-01 1.555221527814865112e-01 -5.800100415945053101e-02 -2.269985675811767578e-01 5.938274785876274109e-02 1.286435276269912720e-01 2.792894095182418823e-02 -2.682749927043914795e-01 -9.828295558691024780e-02 5.772157758474349976e-02 6.705859210342168808e-03 1.065304875373840332e-01 2.168159466236829758e-03 1.275844275951385498e-01 1.239113807678222656e-01 -2.554434239864349365e-01 -2.499258220195770264e-01 -3.086664378643035889e-01 1.103639826178550720e-01 8.621536195278167725e-02 -6.115582212805747986e-02 -1.807211525738239288e-02 -2.413617260754108429e-02 -4.021852314472198486e-01 2.924858778715133667e-02 -2.277903854846954346e-01 6.614699214696884155e-02 -1.992206089198589325e-02 1.171395648270845413e-02 -1.194517090916633606e-01 2.460736632347106934e-01 4.738825932145118713e-02 -4.224587976932525635e-02 -1.275171488523483276e-01 7.634633034467697144e-02 -2.004883997142314911e-02 -1.673164069652557373e-01 -7.375743985176086426e-02 -2.536867745220661163e-03 1.843162477016448975e-01 -1.586175709962844849e-01 1.379472762346267700e-01 -1.272474378347396851e-01 3.410970419645309448e-02 1.298578828573226929e-01 4.725842177867889404e-02 4.165465012192726135e-02 1.513487845659255981e-01 -1.560639142990112305e-01 -1.364598572254180908e-01 -1.082014292478561401e-01 0.000000000000000000e+00 -0.000000000000000000e+00 0.000000000000000000e+00 -0.000000000000000000e+00 -0.000000000000000000e+00 0.000000000000000000e+00 0.000000000000000000e+00 0.000000000000000000e+00 -0.000000000000000000e+00 0.000000000000000000e+00 0.000000000000000000e+00 0.000000000000000000e+00 -0.000000000000000000e+00 -0.000000000000000000e+00 -0.000000000000000000e+00 0.000000000000000000e+00 0.000000000000000000e+00 0.000000000000000000e+00 -0.000000000000000000e+00 -0.000000000000000000e+00 0.000000000000000000e+00 0.000000000000000000e+00 0.000000000000000000e+00 0.000000000000000000e+00 -0.000000000000000000e+00 -0.000000000000000000e+00 0.000000000000000000e+00 -0.000000000000000000e+00 -0.000000000000000000e+00 -0.000000000000000000e+00 -0.000000000000000000e+00 -0.000000000000000000e+00 -0.000000000000000000e+00 -0.000000000000000000e+00 -0.000000000000000000e+00 0.000000000000000000e+00 -0.000000000000000000e+00 -0.000000000000000000e+00 -0.000000000000000000e+00 -0.000000000000000000e+00 -0.000000000000000000e+00 -0.000000000000000000e+00 -0.000000000000000000e+00 0.000000000000000000e+00 0.000000000000000000e+00 -0.000000000000000000e+00 -0.000000000000000000e+00 -0.000000000000000000e+00 -0.000000000000000000e+00 0.000000000000000000e+00 -0.000000000000000000e+00 -0.000000000000000000e+00 0.000000000000000000e+00 0.000000000000000000e+00 -0.000000000000000000e+00 -0.000000000000000000e+00 0.000000000000000000e+00 0.000000000000000000e+00 0.000000000000000000e+00 -0.000000000000000000e+00 0.000000000000000000e+00 -0.000000000000000000e+00 0.000000000000000000e+00 -0.000000000000000000e+00
1.470087170600891113e-01 4.150021448731422424e-02 9.835539385676383972e-03 -4.898473620414733887e-02 -1.681740731000900269e-01 1.006461232900619507e-01 8.360549062490463257e-02 8.885934948921203613e-03 -7.211890816688537598e-02 -4.508612677454948425e-02 6.361803412437438965e-02 1.380285173654556274e-01 4.392353594303131104e-01 -1.013844981789588928e-01 -8.336793631315231323e-03 4.546026512980461121e-02 1.382868289947509766e-01 -7.131542265415191650e-02 -2.106158584356307983e-01 1.053873673081398010e-01 -1.478882431983947754e-01 2.349757961928844452e-02 2.128920517861843109e-02 -4.095715656876564026e-02 -4.345155954360961914e-01 -1.167546063661575317e-01 6.471832096576690674e-02 -1.364280134439468384e-01 -1.625198055990040302e-03 -1.402897685766220093e-01 9.162195771932601929e-02 9.144223481416702271e-02 5.651477351784706116e-02 -1.592268794775009155e-01 -1.007868535816669464e-02 -5.199570581316947937e-02 2.259343266487121582e-01 1.547141075134277344e-01 -2.565593123435974121e-01 1.656866371631622314e-01 3.927749767899513245e-02 5.468208808451890945e-03 -7.936808397062122822e-04 5.539352446794509888e-02 1.105102449655532837e-01 1.121482029557228088e-01 8.665084838867187500e-02 -1.853514909744262695e-01 -6.891351193189620972e-02 -3.298406004905700684e-01 3.402284681797027588e-01 -9.733428061008453369e-02 1.219314187765121460e-01 -2.704849243164062500e-01 -1.388816908001899719e-02 -9.779358655214309692e-02 -3.931673467159271240e-01 -1.302891671657562256e-01 -1.148446425795555115e-01 -3.640483617782592773e-01 2.097249627113342285e-01 1.201355233788490295e-01 -1.226600483059883118e-01 -1.738882511854171753e-01 -0.000000000000000000e+00 -0.000000000000000000e+00 -0.000000000000000000e+00 -0.000000000000000000e+00 0.000000000000000000e+00 -0.000000000000000000e+00 0.000000000000000000e+00 -0.000000000000000000e+00 -0.000000000000000000e+00 0.000000000000000000e+00 -0.000000000000000000e+00 -0.000000000000000000e+00 0.000000000000000000e+00 -0.000000000000000000e+00 0.000000000000000000e+00 0.000000000000000000e+00 -0.000000000000000000e+00 0.000000000000000000e+00 0.000000000000000000e+00 0.000000000000000000e+00 0.000000000000000000e+00 -0.000000000000000000e+00 -0.000000000000000000e+00 -0.000000000000000000e+00 -0.000000000000000000e+00 -0.000000000000000000e+00 0.000000000000000000e+00 0.000000000000000000e+00 -0.000000000000000000e+00 0.000000000000000000e+00 0.000000000000000000e+00 -0.000000000000000000e+00 0.000000000000000000e+00 0.000000000000000000e+00 -0.000000000000000000e+00 0.000000000000000000e+00 -0.000000000000000000e+00 0.000000000000000000e+00 0.000000000000000000e+00 0.000000000000000000e+00 -0.000000000000000000e+00 0.000000000000000000e+00 0.000000000000000000e+00 0.000000000000000000e+00 0.000000000000000000e+00 0.000000000000000000e+00 -0.000000000000000000e+00 0.000000000000000000e+00 -0.000000000000000000e+00 -0.000000000000000000e+00 -0.000000000000000000e+00 -0.000000000000000000e+00 -0.000000000000000000e+00 0.000000000000000000e+00 -0.000000000000000000e+00 -0.000000000000000000e+00 -0.000000000000000000e+00 0.000000000000000000e+00 -0.000000000000000000e+00 0.000000000000000000e+00 -0.000000000000000000e+00 -0.000000000000000000e+00 -0.000000000000000000e+00 0.000000000000000000e+00
9.162054210901260376e-02 -1.227454654872417450e-02 8.451091498136520386e-02 2.362812459468841553e-01 1.502934396266937256e-01 1.882980912923812866e-01 -2.738038450479507446e-02 8.493869751691818237e-02 4.270959179848432541e-03 -2.059202045202255249e-01 -3.643609583377838135e-01 -7.564605027437210083e-02 5.008916556835174561e-02 3.007318079471588135e-01 -1.038061901926994324e-01 -1.598779112100601196e-01 -4.921856895089149475e-02 -4.762242361903190613e-02 -1.458598673343658447e-01 2.230296432971954346e-01 1.916652172803878784e-01 -1.745314337313175201e-02 1.257912665605545044e-01 -7.665059715509414673e-02 -1.508964924141764641e-03 -2.843062579631805420e-01 -1.146207377314567566e-01 -1.583042442798614502e-01 -3.881937591359019279e-03 -6.182185560464859009e-02 5.242620781064033508e-02 -2.770375907421112061e-01 -2.366290688514709473e-01 -7.966060191392898560e-02 1.231744959950447083e-01 5.200706049799919128e-02 1.820992231369018555e-01 7.845430821180343628e-02 2.461578249931335449e-01 2.184878736734390259e-01 4.633040353655815125e-02 -4.174505360424518585e-03 2.170813642442226410e-02 1.260124891996383667e-01 5.550476163625717163e-02 -3.649012185633182526e-03 1.394489556550979614e-01 -1.152061447501182556e-01 2.248657345771789551e-01 1.726861149072647095e-01 -1.064641550183296204e-01 9.957645088434219360e-02 5.624807626008987427e-02 -1.169788017868995667e-01 -4.052937030792236328e-01 2.418477088212966919e-01 -1.677775382995605469e-01 5.452339723706245422e-02 4.031470045447349548e-02 5.814537033438682556e-02 9.524326771497726440e-02 1.174105033278465271e-01 9.963145107030868530e-02 1.184498295187950134e-01 -0.000000000000000000e+00 0.000000000000000000e+00 -0.000000000000000000e+00 -0.000000000000000000e+00 -0.000000000000000000e+00 -0.000000000000000000e+00 -0.000000000000000000e+00 0.000000000000000000e+00 -0.000000000000000000e+00 0.000000000000000000e+00 -0.000000000000000000e+00 -0.000000000000000000e+00 -0.000000000000000000e+00 -0.000000000000000000e+00 -0.000000000000000000e+00 -0.000000000000000000e+00 -0.000000000000000000e+00 0.000000000000000000e+00 -0.000000000000000000e+00 0.000000000000000000e+00 -0.000000000000000000e+00 0.000000000000000000e+00 -0.000000000000000000e+00 -0.000000000000000000e+00 0.000000000000000000e+00 0.000000000000000000e+00 0.000000000000000000e+00 0.000000000000000000e+00 0.000000000000000000e+00 0.000000000000000000e+00 -0.000000000000000000e+00 -0.000000000000000000e+00 -0.000000000000000000e+00 0.000000000000000000e+00 0.000000000000000000e+00 -0.000000000000000000e+00 0.000000000000000000e+00 0.000000000000000000e+00 -0.000000000000000000e+00 0.000000000000000000e+00 -0.000000000000000000e+00 -0.000000000000000000e+00 0.000000000000000000e+00 0.000000000000000000e+00 0.000000000000000000e+00 -0.000000000000000000e+00 -0.000000000000000000e+00 -0.000000000000000000e+00 -0.000000000000000000e+00 -0.000000000000000000e+00 0.000000000000000000e+00 -0.000000000000000000e+00 0.000000000000000000e+00 0.000000000000000000e+00 0.000000000000000000e+00 0.000000000000000000e+00 0.000000000000000000e+00 -0.000000000000000000e+00 0.000000000000000000e+00 0.000000000000000000e+00 -0.000000000000000000e+00 0.000000000000000000e+00 -0.000000000000000000e+00 0.000000000000000000e+00
2.128732353448867798e-01 8.060674369335174561e-02 -9.894063696265220642e-03 7.181343436241149902e-02 -9.879049845039844513e-03 -1.661620587110519409e-01 1.424768418073654175e-01 -6.763989478349685669e-02 -1.599031873047351837e-02 5.283970385789871216e-02 6.634186208248138428e-02 -6.940894573926925659e-02 1.572201699018478394e-01 2.521675452589988708e-02 -2.737957537174224854e-01 2.008801326155662537e-02 1.591475754976272583e-01 -1.294380612671375275e-02 -3.992133960127830505e-02 3.521359711885452271e-02 -5.510649830102920532e-02 1.570869833230972290e-01 1.360921002924442291e-02 -3.276002705097198486e-01 -4.307376965880393982e-02 -1.494901180267333984e-01 9.228773415088653564e-02 -4.820910468697547913e-02 3.379751741886138916e-02 2.789639635011553764e-03 -6.305707618594169617e-03 -2.369982153177261353e-01 -2.252516597509384155e-01 -1.310135424137115479e-01 9.044864773750305176e-02 -8.505114912986755371e-02 9.942929446697235107e-02 -2.559247314929962158e-01 -2.064571529626846313e-01 1.929970532655715942e-01 -9.012997150421142578e-02 1.847040206193923950e-01 -6.593881547451019287e-02 2.422250360250473022e-01 3.131045699119567871e-01 6.051639840006828308e-02 -1.472359150648117065e-01 -7.965688407421112061e-02 -1.908385306596755981e-01 -2.107847183942794800e-01 7.626106590032577515e-02 1.036781668663024902e-01 -6.191585958003997803e-02 -1.354920715093612671e-01 2.458135634660720825e-01 4.947775602340698242e-02 1.686876863241195679e-01 8.847807534039020538e-03 -2.002551704645156860e-01 -8.458437025547027588e-02 -2.526554465293884277e-01 7.032893598079681396e-02 -9.124704450368881226e-02 -2.151386290788650513e-01 -0.000000000000000000e+00 0.000000000000000000e+00 -0.000000000000000000e+00 0.000000000000000000e+00 0.000000000000000000e+00 0.000000000000000000e+00 -0.000000000000000000e+00 0.000000000000000000e+00 0.000000000000000000e+00 -0.000000000000000000e+00 0.000000000000000000e+00 -0.000000000000000000e+00 -0.000000000000000000e+00 -0.000000000000000000e+00 0.000000000000000000e+00 0.000000000000000000e+00 0.000000000000000000e+00 -0.000000000000000000e+00 0.000000000000000000e+00 0.000000000000000000e+00 0.000000000000000000e+00 0.000000000000000000e+00 0.000000000000000000e+00 0.000000000000000000e+00 0.000000000000000000e+00 -0.000000000000000000e+00 0.000000000000000000e+00 0.000000000000000000e+00 0.000000000000000000e+00 -0.000000000000000000e+00 0.000000000000000000e+00 0.000000000000000000e+00 -0.000000000000000000e+00 0.000000000000000000e+00 -0.000000000000000000e+00 0.000000000000000000e+00 0.000000000000000000e+00 -0.000000000000000000e+00 0.000000000000000000e+00 -0.000000000000000000e+00 -0.000000000000000000e+00 -0.000000000000000000e+00 -0.000000000000000000e+00 0.000000000000000000e+00 0.000000000000000000e+00 -0.000000000000000000e+00 0.000000000000000000e+00 0.000000000000000000e+00 -0.000000000000000000e+00 0.000000000000000000e+00 -0.000000000000000000e+00 0.000000000000000000e+00 0.000000000000000000e+00 0.000000000000000000e+00 0.000000000000000000e+00 0.000000000000000000e+00 -0.000000000000000000e+00 0.000000000000000000e+00 0.000000000000000000e+00 -0.000000000000000000e+00 -0.000000000000000000e+00 0.000000000000000000e+00 -0.000000000000000000e+00 0.000000000000000000e+00
-1.172362193465232849e-01 2.451961785554885864e-01 4.001141339540481567e-02 -1.313797980546951294e-01 -1.665496453642845154e-02 4.922569096088409424e-01 -7.304945960640907288e-03 3.432319164276123047e-01 1.382050067186355591e-01 -2.935831546783447266e-01 2.407969981431961060e-01 4.824797064065933228e-02 -1.244851127266883850e-01 1.286287456750869751e-01 2.301191538572311401e-02 -3.257963061332702637e-02 -2.109474837779998779e-01 3.768244981765747070e-01 1.428654938936233521e-01 1.061543598771095276e-01 8.133744448423385620e-02 -5.753304064273834229e-02 -5.113951116800308228e-02 1.526499539613723755e-01 -5.890880245715379715e-03 -1.167116090655326843e-01 -2.658769488334655762e-02 4.443125426769256592e-02 -1.305741220712661743e-01 9.774591773748397827e-02 -2.565873414278030396e-02 -9.320109337568283081e-02 2.158633433282375336e-03 -9.146405383944511414e-03 -1.489113122224807739e-01 2.183958515524864197e-02 -1.003559306263923645e-01 -1.395665854215621948e-01 2.976242080330848694e-02 1.649688631296157837e-01 1.059703715145587921e-02 1.018661335110664368e-01 -1.573919653892517090e-01 -1.141752526164054871e-01 -1.276658773422241211e-01 1.923500895500183105e-01 1.765533909201622009e-02 -1.804050356149673462e-01 -1.540150642395019531e-01 2.139556035399436951e-02 -1.057404503226280212e-01 -2.059317380189895630e-01 -1.839770935475826263e-02 -1.013006642460823059e-01 5.682070180773735046e-02 -1.917212009429931641e-01 -1.201437786221504211e-01 -6.839302927255630493e-02 -1.148377731442451477e-01 1.852817386388778687e-01 6.843418627977371216e-02 -6.125001609325408936e-02 -7.455851882696151733e-02 -8.018629997968673706e-02 0.000000000000000000e+00 0.000000000000000000e+00 0.000000000000000000e+00 0.000000000000000000e+00 0.000000000000000000e+00 -0.000000000000000000e+00 0.000000000000000000e+00 0.000000000000000000e+00 0.000000000000000000e+00 0.000000000000000000e+00 -0.000000000000000000e+00 0.000000000000000000e+00 -0.000000000000000000e+00 0.000000000000000000e+00 -0.000000000000000000e+00 -0.000000000000000000e+00 0.000000000000000000e+00 -0.000000000000000000e+00 0.000000000000000000e+00 -0.000000000000000000e+00 -0.000000000000000000e+00 -0.000000000000000000e+00 -0.000000000000000000e+00 0.000000000000000000e+00 -0.000000000000000000e+00 0.000000000000000000e+00 0.000000000000000000e+00 -0.000000000000000000e+00 0.000000000000000000e+00 0.000000000000000000e+00 0.000000000000000000e+00 0.000000000000000000e+00 0.000000000000000000e+00 0.000000000000000000e+00 -0.000000000000000000e+00 0.000000000000000000e+00 0.000000000000000000e+00 0.000000000000000000e+00 -0.000000000000000000e+00 0.000000000000000000e+00 0.000000000000000000e+00 0.000000000000000000e+00 -0.000000000000000000e+00 -0.000000000000000000e+00 0.000000000000000000e+00 -0.000000000000000000e+00 0.000000000000000000e+00 0.000000000000000000e+00 -0.000000000000000000e+00 0.000000000000000000e+00 -0.000000000000000000e+00 0.000000000000000000e+00 -0.000000000000000000e+00 -0.000000000000000000e+00 0.000000000000000000e+00 0.000000000000000000e+00 -0.000000000000000000e+00 0.000000000000000000e+00 -0.000000000000000000e+00 -0.000000000000000000e+00 0.000000000000000000e+00 -0.000000000000000000e+00 -0.000000000000000000e+00 -0.000000000000000000e+00
1.899259984493255615e-01 1.136354282498359680e-01 2.213949896395206451e-02 9.740679711103439331e-02 -4.458409920334815979e-02 -5.380566045641899109e-02 -1.170803084969520569e-01 1.105591207742691040e-01 -1.099354177713394165e-01 2.050685137510299683e-01 3.247826993465423584e-01 1.113878563046455383e-01 -1.203415989875793457e-01 -1.712463051080703735e-01 1.690985448658466339e-02 2.702939510345458984e-01 1.015739366412162781e-01 -3.032152540981769562e-02 -1.469399873167276382e-02 3.160735070705413818e-01 -2.072851210832595825e-01 2.062236517667770386e-01 1.248623579740524292e-01 4.013313725590705872e-02 -1.232002526521682739e-01 -1.110776066780090332e-01 1.044344827532768250e-01 3.556358441710472107e-02 1.109541207551956177e-01 2.110564559698104858e-01 1.437864303588867188e-01 1.499608606100082397e-01 -2.519106268882751465e-01 -1.036448553204536438e-01 -4.753894731402397156e-02 -1.229739189147949219e-01 1.283621937036514282e-01 -1.840803474187850952e-01 -6.246606633067131042e-02 -2.065290324389934540e-02 1.077493205666542053e-01 -5.641538277268409729e-02 5.108120385557413101e-03 1.862976700067520142e-01 -3.191183507442474365e-01 2.414886802434921265e-01 -8.343146741390228271e-02 -1.940073221921920776e-01 4.330237954854965210e-02 -1.916641718707978725e-03 -1.466208994388580322e-01 -5.408729240298271179e-02 -1.127704884856939316e-02 3.624929487705230713e-02 -1.337977796792984009e-01 -1.016053650528192520e-02 -2.258808463811874390e-01 -1.428861320018768311e-01 1.814976036548614502e-01 -8.108147419989109039e-03 -1.735671050846576691e-02 -9.826648235321044922e-02 6.330348551273345947e-02 -1.241709887981414795e-01 -0.000000000000000000e+00 -0.000000000000000000e+00 -0.000000000000000000e+00 -0.000000000000000000e+00 0.000000000000000000e+00 0.000000000000000000e+00 0.000000000000000000e+00 -0.000000000000000000e+00 0.000000000000000000e+00 -0.000000000000000000e+00 0.000000000000000000e+00 -0.000000000000000000e+00 0.000000000000000000e+00 -0.000000000000000000e+00 0.000000000000000000e+00 0.000000000000000000e+00 0.000000000000000000e+00 -0.000000000000000000e+00 0.000000000000000000e+00 -0.000000000000000000e+00 -0.000000000000000000e+00 0.000000000000000000e+00 0.000000000000000000e+00 -0.000000000000000000e+00 0.000000000000000000e+00 -0.000000000000000000e+00 0.000000000000000000e+00 -0.000000000000000000e+00 0.000000000000000000e+00 0.000000000000000000e+00 0.000000000000000000e+00 -0.000000000000000000e+00 0.000000000000000000e+00 0.000000000000000000e+00 0.000000000000000000e+00 -0.000000000000000000e+00 -0.000000000000000000e+00 -0.000000000000000000e+00 0.000000000000000000e+00 0.000000000000000000e+00 -0.000000000000000000e+00 -0.000000000000000000e+00 -0.000000000000000000e+00 -0.000000000000000000e+00 -0.000000000000000000e+00 -0.000000000000000000e+00 -0.000000000000000000e+00 -0.000000000000000000e+00 -0.000000000000000000e+00 -0.000000000000000000e+00 -0.000000000000000000e+00 0.000000000000000000e+00 0.000000000000000000e+00 0.000000000000000000e+00 -0.000000000000000000e+00 0.000000000000000000e+00 0.000000000000000000e+00 -0.000000000000000000e+00 -0.000000000000000000e+00 0.000000000000000000e+00 -0.000000000000000000e+00 0.000000000000000000e+00 -0.000000000000000000e+00 0.000000000000000000e+00
-2.795721590518951416e-01 -1.021615788340568542e-01 -3.648617118597030640e-02 2.955685928463935852e-02 7.199183851480484009e-02 1.150136068463325500e-01 -3.770173713564872742e-02 -2.905138023197650909e-02 -2.392117977142333984e-01 -2.041998505592346191e-02 1.147000566124916077e-01 3.000918924808502197e-01 -1.229562088847160339e-01 -2.042193859815597534e-01 -4.047292843461036682e-02 9.393385797739028931e-02 5.526685714721679688e-02 -2.342989146709442139e-01 6.603560596704483032e-02 3.315064609050750732e-01 5.458881333470344543e-02 -2.480154857039451599e-02 -1.126046702265739441e-01 -2.064832113683223724e-02 7.705705612897872925e-02 4.086284432560205460e-03 -1.308091729879379272e-01 3.661173861473798752e-03 -1.632387936115264893e-01 6.032276526093482971e-02 9.559618681669235229e-02 -6.189322471618652344e-02 1.939915269613265991e-01 -2.129786610603332520e-01 -9.813413769006729126e-02 2.035044133663177490e-03 2.388273924589157104e-01 -1.032757535576820374e-01 -2.635228335857391357e-01 -1.128293350338935852e-01 -1.269653346389532089e-02 -9.202054888010025024e-02 2.978323996067047119e-01 3.542594611644744873e-01 -2.091636415570974350e-03 4.288688302040100098e-02 -1.136560272425413132e-02 -6.492096185684204102e-02 2.572586834430694580e-01 -4.230351373553276062e-02 -1.091632172465324402e-01 6.223738193511962891e-02 -1.386712640523910522e-01 -6.023995578289031982e-02 4.469057172536849976e-02 -2.129891701042652130e-02 1.980319619178771973e-03 -5.000302195549011230e-02 -9.518154710531234741e-02 3.101854622364044189e-01 -6.520745158195495605e-02 4.210710525512695312e-02 -1.325699090957641602e-01 1.204315647482872009e-01 0.000000000000000000e+00 0.000000000000000000e+00 0.000000000000000000e+00 0.000000000000000000e+00 -0.000000000000000000e+00 0.000000000000000000e+00 0.000000000000000000e+00 -0.000000000000000000e+00 0.000000000000000000e+00 -0.000000000000000000e+00 -0.000000000000000000e+00 -0.000000000000000000e+00 0.000000000000000000e+00 -0.000000000000000000e+00 -0.000000000000000000e+00 0.000000000000000000e+00 0.000000000000000000e+00 -0.000000000000000000e+00 0.000000000000000000e+00 0.000000000000000000e+00 0.000000000000000000e+00 -0.000000000000000000e+00 0.000000000000000000e+00 -0.000000000000000000e+00 -0.000000000000000000e+00 0.000000000000000000e+00 -0.000000000000000000e+00 -0.000000000000000000e+00 0.000000000000000000e+00 -0.000000000000000000e+00 0.000000000000000000e+00 -0.000000000000000000e+00 0.000000000000000000e+00 0.000000000000000000e+00 -0.000000000000000000e+00 0.000000000000000000e+00 0.000000000000000000e+00 -0.000000000000000000e+00 0.000000000000000000e+00 -0.000000000000000000e+00 -0.000000000000000000e+00 -0.000000000000000000e+00 0.000000000000000000e+00 0.000000000000000000e+00 0.000000000000000000e+00 -0.000000000000000000e+00 0.000000000000000000e+00 -0.000000000000000000e+00 -0.000000000000000000e+00 0.000000000000000000e+00 0.000000000000000000e+00 -0.000000000000000000e+00 0.000000000000000000e+00 -0.000000000000000000e+00 0.000000000000000000e+00 -0.000000000000000000e+00 -0.000000000000000000e+00 0.000000000000000000e+00 0.000000000000000000e+00 0.000000000000000000e+00 -0.000000000000000000e+00 -0.000000000000000000e+00 0.000000000000000000e+00 -0.000000000000000000e+00
9.260478615760803223e-02 1.434664726257324219e-01 -9.037949889898300171e-02 1.903904601931571960e-02 5.587314069271087646e-02 6.072024349123239517e-03 -4.162363708019256592e-02 -2.706096693873405457e-02 -4.208151716738939285e-03 9.512555698165670037e-05 -6.977089680731296539e-03 -1.780803650617599487e-01 -2.241332270205020905e-02 -5.714789777994155884e-02 2.144116759300231934e-01 3.810997307300567627e-02 -1.766809672117233276e-01 -2.646092474460601807e-01 -1.424730867147445679e-01 2.553889155387878418e-01 -1.644479334354400635e-01 -1.111173033714294434e-01 1.218945384025573730e-01 2.362932264804840088e-02 -2.064475119113922119e-01 -3.289646208286285400e-01 -9.001047909259796143e-02 1.911888569593429565e-01 9.620195627212524414e-02 1.152505055069923401e-01 1.227032393217086792e-01 -7.361224293708801270e-02 3.673381507396697998e-01 -5.093932896852493286e-02 -1.895022988319396973e-01 5.410312414169311523e-01 -3.855005651712417603e-02 1.151060611009597778e-01 2.284145951271057129e-01 -1.412495225667953491e-02 1.496584564447402954e-01 -1.779105216264724731e-01 -9.261813014745712280e-02 -1.800880301743745804e-03 -1.334506124258041382e-01 -3.090112470090389252e-02 -8.861837536096572876e-02 2.926972210407257080e-01 -1.322868913412094116e-01 -5.024451017379760742e-02 -1.904170960187911987e-01 -7.651447504758834839e-02 -2.140894234180450439e-01 3.147467598319053650e-02 -1.141440495848655701e-01 1.320771425962448120e-01 7.483528554439544678e-02 -2.029283940792083740e-01 -1.512383818626403809e-01 1.281446665525436401e-01 7.345261424779891968e-02 -2.599631203338503838e-03 -3.558258712291717529e-01 1.422955840826034546e-01 -0.000000000000000000e+00 0.000000000000000000e+00 0.000000000000000000e+00 -0.000000000000000000e+00 0.000000000000000000e+00 -0.000000000000000000e+00 0.000000000000000000e+00 0.000000000000000000e+00 0.000000000000000000e+00 -0.000000000000000000e+00 0.000000000000000000e+00 0.000000000000000000e+00 0.000000000000000000e+00 0.000000000000000000e+00 -0.000000000000000000e+00 0.000000000000000000e+00 0.000000000000000000e+00 0.000000000000000000e+00 -0.000000000000000000e+00 0.000000000000000000e+00 -0.000000000000000000e+00 -0.000000000000000000e+00 0.000000000000000000e+00 0.000000000000000000e+00 -0.000000000000000000e+00 -0.000000000000000000e+00 -0.000000000000000000e+00 0.000000000000000000e+00 -0.000000000000000000e+00 -0.000000000000000000e+00 0.000000000000000000e+00 0.000000000000000000e+00 0.000000000000000000e+00 0.000000000000000000e+00 -0.000000000000000000e+00 0.000000000000000000e+00 -0.000000000000000000e+00 -0.000000000000000000e+00 0.000000000000000000e+00 0.000000000000000000e+00 0.000000000000000000e+00 0.000000000000000000e+00 0.000000000000000000e+00 -0.000000000000000000e+00 0.000000000000000000e+00 0.000000000000000000e+00 -0.000000000000000000e+00 0.000000000000000000e+00 0.000000000000000000e+00 -0.000000000000000000e+00 -0.000000000000000000e+00 -0.000000000000000000e+00 -0.000000000000000000e+00 0.000000000000000000e+00 -0.000000000000000000e+00 -0.000000000000000000e+00 0.000000000000000000e+00 0.000000000000000000e+00 0.000000000000000000e+00 -0.000000000000000000e+00 0.000000000000000000e+00 0.000000000000000000e+00 0.000000000000000000e+00 -0.000000000000000000e+00
-2.234361022710800171e-01 1.708563119173049927e-01 -4.749202355742454529e-02 -1.478973776102066040e-01 -1.182600408792495728e-01 2.072736769914627075e-01 -7.073125243186950684e-02 -1.260300129652023315e-01 -2.449689246714115143e-02 -7.161076366901397705e-02 1.596185117959976196e-01 -2.293671220541000366e-01 1.025614291429519653e-01 1.707489043474197388e-01 2.163914591073989868e-01 -2.495686262845993042e-01 -1.583291441202163696e-01 -2.612279541790485382e-02 1.026681512594223022e-01 1.237943172454833984e-01 1.504580229520797729e-01 1.409827023744583130e-01 3.617371246218681335e-02 -2.880705334246158600e-02 -1.728789061307907104e-01 1.935959607362747192e-01 3.929948434233665466e-02 1.819520741701126099e-01 -2.194384783506393433e-01 2.832241356372833252e-01 -4.373963549733161926e-02 1.318211406469345093e-01 -1.820330470800399780e-01 -1.078884750604629517e-01 1.459316462278366089e-01 -8.536808192729949951e-02 4.837023094296455383e-02 -5.958250537514686584e-02 2.222911864519119263e-01 1.778674274682998657e-01 -1.522787362337112427e-01 -2.454156130552291870e-01 2.510267496109008789e-01 -9.844591841101646423e-03 -3.775497153401374817e-02 5.909130442887544632e-03 3.251996263861656189e-02 1.437097489833831787e-01 -3.370833992958068848e-01 -2.201419323682785034e-01 -1.936838477849960327e-01 -7.140642404556274414e-02 -7.468242943286895752e-02 -1.656313687562942505e-01 -1.304269768297672272e-02 5.344117805361747742e-02 -1.844836920499801636e-01 1.130809187889099121e-01 -5.749370530247688293e-02 -1.932540349662303925e-02 -7.023385167121887207e-02 2.656983137130737305e-01 6.555396318435668945e-02 -2.703065238893032074e-02 0.000000000000000000e+00 -0.000000000000000000e+00 -0.000000000000000000e+00 -0.000000000000000000e+00 0.000000000000000000e+00 -0.000000000000000000e+00 -0.000000000000000000e+00 0.000000000000000000e+00 -0.000000000000000000e+00 0.000000000000000000e+00 -0.000000000000000000e+00 0.000000000000000000e+00 0.000000000000000000e+00 -0.000000000000000000e+00 -0.000000000000000000e+00 -0.000000000000000000e+00 0.000000000000000000e+00 0.000000000000000000e+00 0.000000000000000000e+00 -0.000000000000000000e+00 -0.000000000000000000e+00 0.000000000000000000e+00 0.000000000000000000e+00 0.000000000000000000e+00 -0.000000000000000000e+00 -0.000000000000000000e+00 -0.000000000000000000e+00 0.000000000000000000e+00 -0.000000000000000000e+00 -0.000000000000000000e+00 0.000000000000000000e+00 -0.000000000000000000e+00 0.000000000000000000e+00 0.000000000000000000e+00 -0.000000000000000000e+00 0.000000000000000000e+00 0.000000000000000000e+00 -0.000000000000000000e+00 -0.000000000000000000e+00 0.000000000000000000e+00 -0.000000000000000000e+00 -0.000000000000000000e+00 -0.000000000000000000e+00 0.000000000000000000e+00 0.000000000000000000e+00 -0.000000000000000000e+00 0.000000000000000000e+00 0.000000000000000000e+00 -0.000000000000000000e+00 0.000000000000000000e+00 -0.000000000000000000e+00 -0.000000000000000000e+00 -0.000000000000000000e+00 0.000000000000000000e+00 0.000000000000000000e+00 0.000000000000000000e+00 -0.000000000000000000e+00 -0.000000000000000000e+00 0.000000000000000000e+00 -0.000000000000000000e+00 0.000000000000000000e+00 0.000000000000000000e+00 -0.000000000000000000e+00 0.000000000000000000e+00
-2.709786891937255859e-01 -1.599746197462081909e-02 2.283710092306137085e-01 -1.505554914474487305e-01 6.645368039608001709e-02 2.441098242998123169e-01 8.663447201251983643e-02 -2.321049943566322327e-02 -1.361199021339416504e-01 1.509656757116317749e-01 -1.864808946847915649e-01 7.801230531185865402e-03 -4.011627435684204102e-01 -9.612467139959335327e-02 -6.012142449617385864e-02 1.240699291229248047e-01 -8.687300235033035278e-02 9.446530044078826904e-02 -6.047559157013893127e-02 2.381469160318374634e-01 -2.121605128049850464e-01 9.212735295295715332e-02 1.163056045770645142e-01 4.350936412811279297e-02 -3.689120709896087646e-01 -1.173768565058708191e-02 -8.729009889066219330e-03 1.626187860965728760e-01 2.615907490253448486e-01 -2.625635862350463867e-01 6.612230092287063599e-03 -2.284845411777496338e-01 8.107435703277587891e-02 8.682316541671752930e-02 8.157521486282348633e-02 -5.697400867938995361e-02 9.274512529373168945e-02 1.449204534292221069e-01 1.482476945966482162e-02 -2.147805988788604736e-01 -2.754462957382202148e-01 -6.599719822406768799e-02 -3.737151389941573143e-03 1.952146440744400024e-01 -5.985279008746147156e-02 -2.777907997369766235e-02 -1.081416606903076172e-01 -8.960928767919540405e-02 -1.913130842149257660e-02 -1.314292997121810913e-01 1.860641315579414368e-02 2.240201681852340698e-01 2.048080265522003174e-01 3.872968852519989014e-01 -1.201431974768638611e-01 5.239072814583778381e-02 -6.620284169912338257e-03 -4.890574514865875244e-02 -6.951370090246200562e-02 2.251270780107006431e-04 -2.904509902000427246e-01 -8.080089092254638672e-02 7.555376738309860229e-02 -1.527080982923507690e-01 0.000000000000000000e+00 -0.000000000000000000e+00 -0.000000000000000000e+00 -0.000000000000000000e+00 0.000000000000000000e+00 -0.000000000000000000e+00 -0.000000000000000000e+00 -0.000000000000000000e+00 0.000000000000000000e+00 0.000000000000000000e+00 -0.000000000000000000e+00 0.000000000000000000e+00 0.000000000000000000e+00 -0.000000000000000000e+00 -0.000000000000000000e+00 0.000000000000000000e+00 0.000000000000000000e+00 0.000000000000000000e+00 0.000000000000000000e+00 -0.000000000000000000e+00 -0.000000000000000000e+00 -0.000000000000000000e+00 0.000000000000000000e+00 -0.000000000000000000e+00 0.000000000000000000e+00 0.000000000000000000e+00 0.000000000000000000e+00 -0.000000000000000000e+00 0.000000000000000000e+00 0.000000000000000000e+00 0.000000000000000000e+00 0.000000000000000000e+00 0.000000000000000000e+00 -0.000000000000000000e+00 0.000000000000000000e+00 0.000000000000000000e+00 0.000000000000000000e+00 0.000000000000000000e+00 0.000000000000000000e+00 0.000000000000000000e+00 -0.000000000000000000e+00 -0.000000000000000000e+00 0.000000000000000000e+00 -0.000000000000000000e+00 0.000000000000000000e+00 -0.000000000000000000e+00 0.000000000000000000e+00 0.000000000000000000e+00 -0.000000000000000000e+00 -0.000000000000000000e+00 0.000000000000000000e+00 0.000000000000000000e+00 -0.000000000000000000e+00 0.000000000000000000e+00 0.000000000000000000e+00 0.000000000000000000e+00 -0.000000000000000000e+00 -0.000000000000000000e+00 -0.000000000000000000e+00 0.000000000000000000e+00 -0.000000000000000000e+00 0.000000000000000000e+00 0.000000000000000000e+00 0.000000000000000000e+00
5.641860887408256531e-02 1.817856729030609131e-02 -1.974754966795444489e-03 -7.045185565948486328e-02 1.882684826850891113e-01 1.823070496320724487e-01 1.325588971376419067e-01 -2.524105459451675415e-02 -1.157722622156143188e-01 -1.837425865232944489e-02 -3.154096305370330811e-01 1.478450447320938110e-01 1.520088911056518555e-01 9.446822851896286011e-02 -1.059869155287742615e-01 -3.481938689947128296e-02 9.658923372626304626e-03 2.061748355627059937e-01 -2.103703767061233521e-01 1.087850704789161682e-02 1.874396577477455139e-02 9.401046484708786011e-02 6.057024374604225159e-02 1.684411019086837769e-01 -2.044701576232910156e-01 -1.254519075155258179e-01 -7.140023261308670044e-02 -1.145521923899650574e-02 -1.620673984289169312e-01 -5.235207080841064453e-02 8.207029849290847778e-02 -8.184120804071426392e-02 1.670459359884262085e-01 -2.437938749790191650e-02 1.897896081209182739e-01 7.748253643512725830e-02 2.660934031009674072e-01 -2.249557226896286011e-01 -6.934509426355361938e-02 -3.394689410924911499e-02 -1.106137484312057495e-01 -8.647483587265014648e-02 -6.844173371791839600e-02 -1.448925733566284180e-01 3.552800118923187256e-01 1.189455315470695496e-01 -4.111509025096893311e-02 -1.708356738090515137e-01 -1.231853142380714417e-01 7.870560884475708008e-02 -5.379494279623031616e-02 -4.833338409662246704e-02 1.963544264435768127e-02 -1.074020192027091980e-01 3.150713145732879639e-01 -8.095958083868026733e-02 2.773237228393554688e-01 -9.244987368583679199e-02 -8.279331773519515991e-02 -8.144297450780868530e-02 6.514005362987518311e-03 -2.289713360369205475e-03 1.400766372680664062e-01 8.151174336671829224e-02 0.000000000000000000e+00 0.000000000000000000e+00 0.000000000000000000e+00 0.000000000000000000e+00 -0.000000000000000000e+00 -0.000000000000000000e+00 0.000000000000000000e+00 0.000000000000000000e+00 0.000000000000000000e+00 -0.000000000000000000e+00 -0.000000000000000000e+00 -0.000000000000000000e+00 -0.000000000000000000e+00 -0.000000000000000000e+00 0.000000000000000000e+00 0.000000000000000000e+00 -0.000000000000000000e+00 -0.000000000000000000e+00 -0.000000000000000000e+00 -0.000000000000000000e+00 -0.000000000000000000e+00 0.000000000000000000e+00 0.000000000000000000e+00 -0.000000000000000000e+00 -0.000000000000000000e+00 -0.000000000000000000e+00 0.000000000000000000e+00 0.000000000000000000e+00 -0.000000000000000000e+00 0.000000000000000000e+00 -0.000000000000000000e+00 0.000000000000000000e+00 -0.000000000000000000e+00 0.000000000000000000e+00 -0.000000000000000000e+00 -0.000000000000000000e+00 -0.000000000000000000e+00 -0.000000000000000000e+00 0.000000000000000000e+00 -0.000000000000000000e+00 0.000000000000000000e+00 0.000000000000000000e+00 -0.000000000000000000e+00 -0.000000000000000000e+00 -0.000000000000000000e+00 0.000000000000000000e+00 0.000000000000000000e+00 -0.000000000000000000e+00 -0.000000000000000000e+00 -0.000000000000000000e+00 -0.000000000000000000e+00 0.000000000000000000e+00 -0.000000000000000000e+00 -0.000000000000000000e+00 0.000000000000000000e+00 -0.000000000000000000e+00 -0.000000000000000000e+00 0.000000000000000000e+00 0.000000000000000000e+00 0.000000000000000000e+00 -0.000000000000000000e+00 0.000000000000000000e+00 -0.000000000000000000e+00 -0.000000000000000000e+00
4.236226901412010193e-02 3.137703239917755127e-01 -1.528644710779190063e-01 -1.622979640960693359e-01 9.425980038940906525e-03 -1.038691699504852295e-01 -3.450318705290555954e-03 4.333929345011711121e-02 -8.239054679870605469e-02 2.274620160460472107e-02 -1.705668866634368896e-01 1.037508994340896606e-01 1.543291211128234863e-01 1.493164896965026855e-01 2.432317733764648438e-01 -2.461186349391937256e-01 -2.548123300075531006e-01 -2.963459119200706482e-03 9.353189170360565186e-02 2.226764895021915436e-02 1.219990402460098267e-01 -2.526485361158847809e-02 6.477663666009902954e-02 -8.104359731078147888e-03 3.224860876798629761e-02 -4.544464349746704102e-01 -1.424111425876617432e-01 2.096040248870849609e-01 1.042581722140312195e-01 1.788769960403442383e-01 8.637036383152008057e-02 -7.287604268640279770e-03 -1.323592662811279297e-02 4.925634711980819702e-02 2.953696995973587036e-02 -2.269402146339416504e-01 1.757775992155075073e-02 -8.641459047794342041e-02 1.590603590011596680e-01 -3.567409515380859375e-02 -2.699134349822998047e-01 -4.740655422210693359e-02 -1.453924179077148438e-01 1.543316543102264404e-01 -1.133397817611694336e-01 -1.792434751987457275e-01 6.872722506523132324e-02 -2.889736592769622803e-01 5.802297592163085938e-02 -6.958451867103576660e-02 -1.719888895750045776e-01 8.531283587217330933e-02 1.260389834642410278e-01 -2.063183039426803589e-01 1.365694701671600342e-01 -4.042619466781616211e-02 3.489941060543060303e-01 -9.511812031269073486e-02 -1.543726772069931030e-01 5.807349458336830139e-02 8.261112123727798462e-02 1.423953473567962646e-01 4.502178728580474854e-02 -8.484046906232833862e-02 0.000000000000000000e+00 -0.000000000000000000e+00 0.000000000000000000e+00 -0.000000000000000000e+00 -0.000000000000000000e+00 0.000000000000000000e+00 0.000000000000000000e+00 0.000000000000000000e+00 -0.000000000000000000e+00 0.000000000000000000e+00 0.000000000000000000e+00 -0.000000000000000000e+00 0.000000000000000000e+00 0.000000000000000000e+00 0.000000000000000000e+00 0.000000000000000000e+00 -0.000000000000000000e+00 -0.000000000000000000e+00 -0.000000000000000000e+00 -0.000000000000000000e+00 0.000000000000000000e+00 -0.000000000000000000e+00 0.000000000000000000e+00 -0.000000000000000000e+00 -0.000000000000000000e+00 -0.000000000000000000e+00 -0.000000000000000000e+00 -0.000000000000000000e+00 -0.000000000000000000e+00 0.000000000000000000e+00 -0.000000000000000000e+00 0.000000000000000000e+00 -0.000000000000000000e+00 -0.000000000000000000e+00 -0.000000000000000000e+00 -0.000000000000000000e+00 0.000000000000000000e+00 -0.000000000000000000e+00 -0.000000000000000000e+00 -0.000000000000000000e+00 -0.000000000000000000e+00 0.000000000000000000e+00 0.000000000000000000e+00 0.000000000000000000e+00 -0.000000000000000000e+00 -0.000000000000000000e+00 -0.000000000000000000e+00 0.000000000000000000e+00 0.000000000000000000e+00 0.000000000000000000e+00 -0.000000000000000000e+00 0.000000000000000000e+00 0.000000000000000000e+00 0.000000000000000000e+00 0.000000000000000000e+00 0.000000000000000000e+00 -0.000000000000000000e+00 -0.000000000000000000e+00 0.000000000000000000e+00 0.000000000000000000e+00 0.000000000000000000e+00 0.000000000000000000e+00 0.000000000000000000e+00 -0.000000000000000000e+00
-6.630922853946685791e-02 1.158131100237369537e-02 1.189116761088371277e-01 2.094964087009429932e-01 1.195053830742835999e-01 2.132358551025390625e-01 1.263586431741714478e-01 4.942910373210906982e-02 -2.093787044286727905e-01 -7.722900062799453735e-02 -1.686804145574569702e-01 1.680606305599212646e-01 -2.044524103403091431e-01 1.258091777563095093e-01 -7.254355400800704956e-02 8.000504970550537109e-02 1.169887036085128784e-01 -3.652594238519668579e-02 -7.176712900400161743e-02 1.305620819330215454e-01 7.063449919223785400e-02 -1.032487861812114716e-02 -6.513869017362594604e-02 -7.268968224525451660e-02 4.588172584772109985e-02 -1.921454221010208130e-01 2.897548675537109375e-02 -2.548699676990509033e-01 -1.089546680450439453e-01 -1.308638155460357666e-01 -5.097059905529022217e-02 2.183266542851924896e-02 1.465302407741546631e-01 -1.411142349243164062e-01 -3.256370499730110168e-02 8.760537207126617432e-02 -4.010901600122451782e-02 -6.435585767030715942e-02 -2.832266986370086670e-01 -6.797190010547637939e-02 -6.585624814033508301e-02 2.125039100646972656e-01 -2.031523734331130981e-01 -3.294951096177101135e-02 1.568139791488647461e-01 1.393745243549346924e-01 -5.027070641517639160e-02 -3.826386928558349609e-01 -8.858675509691238403e-02 -3.730013733729720116e-03 1.159961074590682983e-01 -1.429799348115921021e-01 3.048267215490341187e-02 1.892559230327606201e-01 1.988654136657714844e-01 1.130075752735137939e-01 -1.138400658965110779e-01 1.735747456550598145e-01 -4.795853048563003540e-02 1.284906715154647827e-01 7.993618957698345184e-03 -1.937912851572036743e-01 1.074000671505928040e-01 2.872821688652038574e-01 0.000000000000000000e+00 -0.000000000000000000e+00 -0.000000000000000000e+00 -0.000000000000000000e+00 -0.000000000000000000e+00 0.000000000000000000e+00 -0.000000000000000000e+00 -0.000000000000000000e+00 -0.000000000000000000e+00 0.000000000000000000e+00 -0.000000000000000000e+00 -0.000000000000000000e+00 0.000000000000000000e+00 0.000000000000000000e+00 0.000000000000000000e+00 -0.000000000000000000e+00 -0.000000000000000000e+00 -0.000000000000000000e+00 -0.000000000000000000e+00 -0.000000000000000000e+00 0.000000000000000000e+00 -0.000000000000000000e+00 -0.000000000000000000e+00 0.000000000000000000e+00 -0.000000000000000000e+00 -0.000000000000000000e+00 0.000000000000000000e+00 0.000000000000000000e+00 0.000000000000000000e+00 -0.000000000000000000e+00 -0.000000000000000000e+00 0.000000000000000000e+00 0.000000000000000000e+00 -0.000000000000000000e+00 -0.000000000000000000e+00 -0.000000000000000000e+00 0.000000000000000000e+00 0.000000000000000000e+00 -0.000000000000000000e+00 0.000000000000000000e+00 0.000000000000000000e+00 0.000000000000000000e+00 -0.000000000000000000e+00 -0.000000000000000000e+00 -0.000000000000000000e+00 0.000000000000000000e+00 -0.000000000000000000e+00 -0.000000000000000000e+00 -0.000000000000000000e+00 0.000000000000000000e+00 -0.000000000000000000e+00 0.000000000000000000e+00 0.000000000000000000e+00 -0.000000000000000000e+00 0.000000000000000000e+00 0.000000000000000000e+00 -0.000000000000000000e+00 -0.000000000000000000e+00 -0.000000000000000000e+00 -0.000000000000000000e+00 0.000000000000000000e+00 0.000000000000000000e+00 -0.000000000000000000e+00 0.000000000000000000e+00
-1.114604156464338303e-02 1.028032079339027405e-01 9.722097218036651611e-02 -9.176843799650669098e-03 6.098008900880813599e-02 -5.352364853024482727e-02 5.991034954786300659e-02 2.032946050167083740e-01 -2.740499563515186310e-02 -2.152401767671108246e-02 1.708729863166809082e-01 9.247349225915968418e-04 -3.427297808229923248e-03 2.691979408264160156e-01 6.964618712663650513e-02 1.566371694207191467e-02 1.244024708867073059e-01 1.474922597408294678e-01 -1.725542247295379639e-01 -2.647567689418792725e-01 -1.393072009086608887e-01 1.491374522447586060e-01 -1.603441983461380005e-01 -4.772734269499778748e-02 -1.347864866256713867e-01 2.276988476514816284e-01 1.623314023017883301e-01 -1.304854266345500946e-02 1.362781822681427002e-01 2.968239597976207733e-02 1.930261850357055664e-01 -1.873056888580322266e-01 -1.995234638452529907e-01 -2.641026489436626434e-02 1.941913962364196777e-01 1.836704909801483154e-01 1.092155575752258301e-01 3.975110873579978943e-02 3.574302792549133301e-02 -1.358600109815597534e-01 1.243698522448539734e-01 2.415140159428119659e-02 -6.121311709284782410e-02 -2.686480283737182617e-01 -2.901075184345245361e-01 6.277450919151306152e-02 1.417551282793283463e-02 -1.199795007705688477e-01 -1.199696063995361328e-01 -1.893852800130844116e-01 7.223250716924667358e-02 1.748887002468109131e-01 9.425330907106399536e-02 -5.534137017093598843e-04 5.352492257952690125e-02 -1.562922447919845581e-01 -8.775971084833145142e-02 5.691994726657867432e-02 -3.033863194286823273e-02 1.821969449520111084e-01 7.121077924966812134e-02 -4.863600432872772217e-02 -8.742085844278335571e-02 1.477563232183456421e-01 0.000000000000000000e+00 -0.000000000000000000e+00 0.000000000000000000e+00 0.000000000000000000e+00 -0.000000000000000000e+00 0.000000000000000000e+00 0.000000000000000000e+00 0.000000000000000000e+00 0.000000000000000000e+00 -0.000000000000000000e+00 0.000000000000000000e+00 -0.000000000000000000e+00 0.000000000000000000e+00 0.000000000000000000e+00 -0.000000000000000000e+00 0.000000000000000000e+00 0.000000000000000000e+00 -0.000000000000000000e+00 0.000000000000000000e+00 0.000000000000000000e+00 0.000000000000000000e+00 -0.000000000000000000e+00 -0.000000000000000000e+00 -0.000000000000000000e+00 0.000000000000000000e+00 -0.000000000000000000e+00 -0.000000000000000000e+00 0.000000000000000000e+00 0.000000000000000000e+00 0.000000000000000000e+00 -0.000000000000000000e+00 -0.000000000000000000e+00 -0.000000000000000000e+00 -0.000000000000000000e+00 0.000000000000000000e+00 -0.000000000000000000e+00 -0.000000000000000000e+00 0.000000000000000000e+00 -0.000000000000000000e+00 0.000000000000000000e+00 -0.000000000000000000e+00 0.000000000000000000e+00 -0.000000000000000000e+00 0.000000000000000000e+00 -0.000000000000000000e+00 0.000000000000000000e+00 -0.000000000000000000e+00 -0.000000000000000000e+00 0.000000000000000000e+00 0.000000000000000000e+00 -0.000000000000000000e+00 0.000000000000000000e+00 -0.000000000000000000e+00 -0.000000000000000000e+00 -0.000000000000000000e+00 -0.000000000000000000e+00 -0.000000000000000000e+00 0.000000000000000000e+00 -0.000000000000000000e+00 -0.000000000000000000e+00 0.000000000000000000e+00 0.000000000000000000e+00 -0.000000000000000000e+00 -0.000000000000000000e+00
1.764501035213470459e-01 9.230220317840576172e-02 -2.355864085257053375e-02 -8.700770139694213867e-02 1.251442581415176392e-01 -1.572030037641525269e-01 -2.113880664110183716e-01 2.167000323534011841e-01 1.411486566066741943e-01 9.882076643407344818e-03 -6.639266852289438248e-03 -1.507167071104049683e-01 1.869436055421829224e-01 -1.951702684164047241e-01 5.126955732703208923e-02 2.079205214977264404e-01 -2.507353387773036957e-02 -2.469695210456848145e-01 5.059833452105522156e-02 -1.736747175455093384e-01 -1.649478264153003693e-02 -1.954328566789627075e-01 8.331485092639923096e-02 -2.741287089884281158e-02 1.309405416250228882e-01 1.748413145542144775e-01 -7.164953649044036865e-02 6.601099739782512188e-04 1.299845725297927856e-01 -2.177931517362594604e-01 8.909782022237777710e-02 -1.304522901773452759e-01 6.490145344287157059e-03 7.674355804920196533e-02 -1.452011018991470337e-01 9.760227799415588379e-02 -1.660306453704833984e-01 2.178875356912612915e-01 1.275902390480041504e-01 4.345857352018356323e-02 -1.607079505920410156e-01 -1.017802953720092773e-01 4.631194844841957092e-02 -2.182966098189353943e-03 1.020833402872085571e-01 1.938401162624359131e-01 -1.390437502413988113e-02 -3.450220823287963867e-02 -7.731780409812927246e-02 2.644557952880859375e-01 1.252578794956207275e-01 3.140699267387390137e-01 -5.320244655013084412e-02 -7.550095766782760620e-02 2.081613093614578247e-01 7.376042008399963379e-02 -1.504718065261840820e-01 -9.369400329887866974e-03 -4.973039031028747559e-02 -2.339125126600265503e-01 -4.323388263583183289e-02 -3.739693760871887207e-02 -2.498750574886798859e-02 3.899793326854705811e-02 0.000000000000000000e+00 0.000000000000000000e+00 0.000000000000000000e+00 -0.000000000000000000e+00 0.000000000000000000e+00 -0.000000000000000000e+00 -0.000000000000000000e+00 -0.000000000000000000e+00 -0.000000000000000000e+00 0.000000000000000000e+00 -0.000000000000000000e+00 -0.000000000000000000e+00 -0.000000000000000000e+00 -0.000000000000000000e+00 -0.000000000000000000e+00 0.000000000000000000e+00 0.000000000000000000e+00 -0.000000000000000000e+00 0.000000000000000000e+00 0.000000000000000000e+00 -0.000000000000000000e+00 -0.000000000000000000e+00 0.000000000000000000e+00 0.000000000000000000e+00 -0.000000000000000000e+00 0.000000000000000000e+00 0.000000000000000000e+00 0.000000000000000000e+00 -0.000000000000000000e+00 0.000000000000000000e+00 0.000000000000000000e+00 -0.000000000000000000e+00 -0.000000000000000000e+00 -0.000000000000000000e+00 -0.000000000000000000e+00 0.000000000000000000e+00 -0.000000000000000000e+00 0.000000000000000000e+00 -0.000000000000000000e+00 -0.000000000000000000e+00 -0.000000000000000000e+00 0.000000000000000000e+00 -0.000000000000000000e+00 -0.000000000000000000e+00 0.000000000000000000e+00 0.000000000000000000e+00 -0.000000000000000000e+00 -0.000000000000000000e+00 0.000000000000000000e+00 -0.000000000000000000e+00 -0.000000000000000000e+00 -0.000000000000000000e+00 -0.000000000000000000e+00 0.000000000000000000e+00 -0.000000000000000000e+00 -0.000000000000000000e+00 0.000000000000000000e+00 -0.000000000000000000e+00 0.000000000000000000e+00 0.000000000000000000e+00 -0.000000000000000000e+00 0.000000000000000000e+00 0.000000000000000000e+00 0.000000000000000000e+00
1.076210290193557739e-01 -1.783846504986286163e-02 3.395435214042663574e-01 -3.306694328784942627e-02 1.949494779109954834e-01 -2.364044338464736938e-01 -1.385400146245956421e-01 -3.545264527201652527e-02 -1.461187154054641724e-01 1.633222848176956177e-01 4.250423982739448547e-02 7.959847152233123779e-02 -1.379376798868179321e-01 1.815665960311889648e-01 -1.123042106628417969e-01 -1.726012974977493286e-01 1.561871357262134552e-02 1.832087188959121704e-01 -9.849469363689422607e-02 1.065397560596466064e-01 -1.021528393030166626e-01 3.629608079791069031e-02 6.992904841899871826e-02 2.929109930992126465e-01 5.048156157135963440e-02 -1.303041875362396240e-01 1.277428418397903442e-01 -2.985083870589733124e-02 -8.852114900946617126e-03 -6.135760992765426636e-02 1.690530180931091309e-01 -4.190037027001380920e-02 -1.302545368671417236e-01 9.493122994899749756e-02 1.466468423604965210e-01 -6.948496401309967041e-02 5.727628991007804871e-02 1.335610896348953247e-01 4.232407733798027039e-02 -1.360006332397460938e-01 7.665082346647977829e-03 2.643794752657413483e-02 -4.013392701745033264e-02 -1.341098546981811523e-01 1.018694937229156494e-01 1.007635146379470825e-01 1.996278762817382812e-03 2.191572450101375580e-02 -2.090513259172439575e-01 2.258573323488235474e-01 -8.333608508110046387e-02 1.471195071935653687e-01 -2.159137092530727386e-02 4.921961203217506409e-02 2.865379676222801208e-02 -1.153387576341629028e-01 -4.594151303172111511e-02 -2.414383143186569214e-01 -1.817190088331699371e-02 5.238327011466026306e-02 -7.789194583892822266e-02 3.133549094200134277e-01 -1.066007018089294434e-01 2.278976142406463623e-01 -0.000000000000000000e+00 -0.000000000000000000e+00 -0.000000000000000000e+00 -0.000000000000000000e+00 -0.000000000000000000e+00 0.000000000000000000e+00 0.000000000000000000e+00 -0.000000000000000000e+00 0.000000000000000000e+00 0.000000000000000000e+00 0.000000000000000000e+00 0.000000000000000000e+00 -0.000000000000000000e+00 0.000000000000000000e+00 0.000000000000000000e+00 0.000000000000000000e+00 0.000000000000000000e+00 -0.000000000000000000e+00 0.000000000000000000e+00 -0.000000000000000000e+00 -0.000000000000000000e+00 0.000000000000000000e+00 0.000000000000000000e+00 -0.000000000000000000e+00 -0.000000000000000000e+00 0.000000000000000000e+00 -0.000000000000000000e+00 0.000000000000000000e+00 0.000000000000000000e+00 -0.000000000000000000e+00 -0.000000000000000000e+00 0.000000000000000000e+00 -0.000000000000000000e+00 0.000000000000000000e+00 -0.000000000000000000e+00 -0.000000000000000000e+00 0.000000000000000000e+00 0.000000000000000000e+00 -0.000000000000000000e+00 0.000000000000000000e+00 -0.000000000000000000e+00 0.000000000000000000e+00 -0.000000000000000000e+00 0.000000000000000000e+00 0.000000000000000000e+00 -0.000000000000000000e+00 0.000000000000000000e+00 0.000000000000000000e+00 0.000000000000000000e+00 0.000000000000000000e+00 -0.000000000000000000e+00 -0.000000000000000000e+00 0.000000000000000000e+00 -0.000000000000000000e+00 0.000000000000000000e+00 -0.000000000000000000e+00 0.000000000000000000e+00 -0.000000000000000000e+00 0.000000000000000000e+00 -0.000000000000000000e+00 0.000000000000000000e+00 0.000000000000000000e+00 -0.000000000000000000e+00 -0.000000000000000000e+00
1.137987077236175537e-01 1.661493778228759766e-01 5.402014032006263733e-02 6.286128889769315720e-03 1.118707880377769470e-01 -5.696419626474380493e-02 -3.117645904421806335e-02 -1.813322007656097412e-01 -1.583534926176071167e-01 1.576777398586273193e-01 1.819491684436798096e-01 -4.566893726587295532e-02 -5.114700645208358765e-02 2.023535370826721191e-01 1.243068501353263855e-01 -8.104819059371948242e-02 1.757125109434127808e-01 1.973671913146972656e-01 -2.141377031803131104e-01 2.002390772104263306e-01 1.154718101024627686e-01 -8.860637247562408447e-02 -2.217655330896377563e-01 -1.354930549860000610e-01 -6.863619782961905003e-04 3.241559490561485291e-02 9.612628817558288574e-02 2.193616926670074463e-01 2.485672980546951294e-01 8.400480449199676514e-02 2.072938904166221619e-02 -2.105445973575115204e-02 -3.147395849227905273e-01 -2.096446305513381958e-01 -6.955877691507339478e-02 2.124880254268646240e-01 4.700158163905143738e-02 4.759192094206809998e-02 9.550239145755767822e-02 5.423873290419578552e-02 1.535462141036987305e-01 -1.188384741544723511e-01 -2.092515490949153900e-02 2.594280242919921875e-01 1.256579458713531494e-01 1.965004205703735352e-01 6.399419903755187988e-02 1.144481152296066284e-01 -1.219142898917198181e-01 1.234289258718490601e-01 -8.680794388055801392e-03 -7.467204239219427109e-03 -6.011328101158142090e-02 2.746287882328033447e-01 2.095240205526351929e-01 8.009125292301177979e-02 1.411700844764709473e-01 -2.102931439876556396e-01 -4.534628242254257202e-02 8.321287110447883606e-03 2.067742049694061279e-01 4.506466537714004517e-02 8.797945827245712280e-02 -1.017708927392959595e-01 -0.000000000000000000e+00 -0.000000000000000000e+00 -0.000000000000000000e+00 -0.000000000000000000e+00 0.000000000000000000e+00 0.000000000000000000e+00 0.000000000000000000e+00 -0.000000000000000000e+00 -0.000000000000000000e+00 -0.000000000000000000e+00 0.000000000000000000e+00 -0.000000000000000000e+00 -0.000000000000000000e+00 -0.000000000000000000e+00 -0.000000000000000000e+00 0.000000000000000000e+00 -0.000000000000000000e+00 -0.000000000000000000e+00 0.000000000000000000e+00 0.000000000000000000e+00 -0.000000000000000000e+00 -0.000000000000000000e+00 -0.000000000000000000e+00 0.000000000000000000e+00 0.000000000000000000e+00 0.000000000000000000e+00 0.000000000000000000e+00 0.000000000000000000e+00 -0.000000000000000000e+00 0.000000000000000000e+00 0.000000000000000000e+00 -0.000000000000000000e+00 0.000000000000000000e+00 -0.000000000000000000e+00 0.000000000000000000e+00 -0.000000000000000000e+00 0.000000000000000000e+00 0.000000000000000000e+00 0.000000000000000000e+00 -0.000000000000000000e+00 -0.000000000000000000e+00 -0.000000000000000000e+00 0.000000000000000000e+00 0.000000000000000000e+00 -0.000000000000000000e+00 0.000000000000000000e+00 0.000000000000000000e+00 -0.000000000000000000e+00 0.000000000000000000e+00 -0.000000000000000000e+00 0.000000000000000000e+00 0.000000000000000000e+00 -0.000000000000000000e+00 0.000000000000000000e+00 -0.000000000000000000e+00 -0.000000000000000000e+00 0.000000000000000000e+00 0.000000000000000000e+00 0.000000000000000000e+00 -0.000000000000000000e+00 0.000000000000000000e+00 -0.000000000000000000e+00 0.000000000000000000e+00 -0.000000000000000000e+00
1.033927053213119507e-01 7.003990467637777328e-03 -5.770867317914962769e-02 -6.054756417870521545e-02 1.113904267549514771e-01 7.691275328397750854e-02 -1.979399025440216064e-01 1.552371773868799210e-03 -5.596969742327928543e-03 4.126551374793052673e-02 7.726367563009262085e-02 1.769016869366168976e-02 -1.001530438661575317e-01 -5.864467937499284744e-03 -1.253994256258010864e-01 -1.017693877220153809e-01 4.381245672702789307e-01 4.069871082901954651e-02 -1.039042398333549500e-01 -1.084886640310287476e-01 8.311524987220764160e-02 -2.128479629755020142e-02 8.416491746902465820e-02 -1.004160493612289429e-01 1.593125313520431519e-01 1.310744136571884155e-01 4.982681944966316223e-02 6.938145309686660767e-02 1.591104567050933838e-01 4.171155020594596863e-02 -7.113307714462280273e-02 1.335523463785648346e-02 3.220671713352203369e-01 9.246986359357833862e-02 3.068109452724456787e-01 9.924541227519512177e-03 7.205224782228469849e-02 8.738677948713302612e-02 -2.897997014224529266e-02 4.259648546576499939e-02 7.631880789995193481e-02 1.599314212799072266e-01 6.494254618883132935e-02 8.040573447942733765e-02 -1.155481413006782532e-01 1.369027197360992432e-01 -2.340746670961380005e-02 6.444313377141952515e-02 1.023605391383171082e-01 1.461732089519500732e-01 5.352920666337013245e-02 1.458097994327545166e-01 9.231239557266235352e-02 2.581375092267990112e-02 2.212760001420974731e-01 -2.295440882444381714e-01 -2.463329434394836426e-01 -1.834104061126708984e-01 -3.574670851230621338e-01 -1.051031574606895447e-01 -1.998888105154037476e-01 4.449777677655220032e-02 -2.672370970249176025e-01 8.885856717824935913e-02 -0.000000000000000000e+00 -0.000000000000000000e+00 0.000000000000000000e+00 -0.000000000000000000e+00 -0.000000000000000000e+00 0.000000000000000000e+00 0.000000000000000000e+00 -0.000000000000000000e+00 0.000000000000000000e+00 0.000000000000000000e+00 -0.000000000000000000e+00 0.000000000000000000e+00 -0.000000000000000000e+00 0.000000000000000000e+00 -0.000000000000000000e+00 0.000000000000000000e+00 0.000000000000000000e+00 0.000000000000000000e+00 0.000000000000000000e+00 0.000000000000000000e+00 0.000000000000000000e+00 0.000000000000000000e+00 0.000000000000000000e+00 -0.000000000000000000e+00 0.000000000000000000e+00 -0.000000000000000000e+00 -0.000000000000000000e+00 0.000000000000000000e+00 -0.000000000000000000e+00 -0.000000000000000000e+00 -0.000000000000000000e+00 0.000000000000000000e+00 0.000000000000000000e+00 0.000000000000000000e+00 -0.000000000000000000e+00 -0.000000000000000000e+00 0.000000000000000000e+00 0.000000000000000000e+00 0.000000000000000000e+00 -0.000000000000000000e+00 -0.000000000000000000e+00 0.000000000000000000e+00 -0.000000000000000000e+00 0.000000000000000000e+00 0.000000000000000000e+00 0.000000000000000000e+00 -0.000000000000000000e+00 0.000000000000000000e+00 0.000000000000000000e+00 0.000000000000000000e+00 0.000000000000000000e+00 -0.000000000000000000e+00 0.000000000000000000e+00 0.000000000000000000e+00 -0.000000000000000000e+00 0.000000000000000000e+00 -0.000000000000000000e+00 0.000000000000000000e+00 -0.000000000000000000e+00 -0.000000000000000000e+00 0.000000000000000000e+00 0.000000000000000000e+00 -0.000000000000000000e+00 -0.000000000000000000e+00
1.882104575634002686e-01 5.143353343009948730e-02 -1.730964779853820801e-01 1.835805177688598633e-01 8.135627210140228271e-02 1.041253469884395599e-02 2.483346462249755859e-01 -1.403320431709289551e-01 -6.320065353065729141e-03 -1.758743822574615479e-01 -6.792780011892318726e-02 9.991605579853057861e-02 -1.485677342861890793e-02 1.594090647995471954e-02 2.090897560119628906e-01 7.944706082344055176e-02 -1.587282717227935791e-01 3.989010751247406006e-01 1.287105083465576172e-01 -6.534064654260873795e-03 -2.488169819116592407e-01 2.472613453865051270e-01 -2.949191033840179443e-01 -1.736139133572578430e-02 1.524833440780639648e-01 3.176003396511077881e-01 -2.816380187869071960e-02 3.675730898976325989e-02 2.196763157844543457e-01 1.982539519667625427e-02 -8.634799718856811523e-02 -1.713860929012298584e-01 9.125407040119171143e-02 -1.548129320144653320e-01 9.782074391841888428e-02 3.479175865650177002e-01 -6.708634644746780396e-02 1.547244191169738770e-01 2.715636789798736572e-02 2.809414267539978027e-01 8.131803572177886963e-02 9.013280272483825684e-02 9.557501971721649170e-02 9.962286055088043213e-02 1.278919051401317120e-03 -9.006847441196441650e-02 1.353032439947128296e-01 1.294518709182739258e-01 9.546634554862976074e-02 -9.690396487712860107e-02 -2.743098512291908264e-02 -2.184486985206604004e-01 2.435078471899032593e-02 -1.375517398118972778e-01 -1.169800609350204468e-01 2.066297978162765503e-01 -2.262442111968994141e-01 -4.797682911157608032e-02 -1.206707209348678589e-01 -4.380740597844123840e-02 1.251787692308425903e-02 1.616722047328948975e-01 3.064339235424995422e-02 1.031505391001701355e-01 -0.000000000000000000e+00 0.000000000000000000e+00 -0.000000000000000000e+00 0.000000000000000000e+00 -0.000000000000000000e+00 0.000000000000000000e+00 0.000000000000000000e+00 -0.000000000000000000e+00 0.000000000000000000e+00 0.000000000000000000e+00 -0.000000000000000000e+00 -0.000000000000000000e+00 -0.000000000000000000e+00 0.000000000000000000e+00 -0.000000000000000000e+00 0.000000000000000000e+00 0.000000000000000000e+00 0.000000000000000000e+00 0.000000000000000000e+00 -0.000000000000000000e+00 0.000000000000000000e+00 0.000000000000000000e+00 0.000000000000000000e+00 -0.000000000000000000e+00 -0.000000000000000000e+00 -0.000000000000000000e+00 0.000000000000000000e+00 0.000000000000000000e+00 0.000000000000000000e+00 0.000000000000000000e+00 -0.000000000000000000e+00 0.000000000000000000e+00 -0.000000000000000000e+00 -0.000000000000000000e+00 -0.000000000000000000e+00 -0.000000000000000000e+00 0.000000000000000000e+00 -0.000000000000000000e+00 0.000000000000000000e+00 0.000000000000000000e+00 -0.000000000000000000e+00 0.000000000000000000e+00 -0.000000000000000000e+00 0.000000000000000000e+00 -0.000000000000000000e+00 -0.000000000000000000e+00 0.000000000000000000e+00 0.000000000000000000e+00 0.000000000000000000e+00 -0.000000000000000000e+00 0.000000000000000000e+00 0.000000000000000000e+00 0.000000000000000000e+00 -0.000000000000000000e+00 0.000000000000000000e+00 0.000000000000000000e+00 -0.000000000000000000e+00 0.000000000000000000e+00 0.000000000000000000e+00 -0.000000000000000000e+00 0.000000000000000000e+00 0.000000000000000000e+00 0.000000000000000000e+00 0.000000000000000000e+00
-2.863047420978546143e-01 -8.278365433216094971e-02 -7.570052891969680786e-02 -2.638926804065704346e-01 -1.162689849734306335e-01 2.039966881275177002e-01 -1.366363652050495148e-02 1.679114103317260742e-01 1.947227120399475098e-01 6.735214591026306152e-02 3.113325536251068115e-01 -3.439354524016380310e-02 3.935893625020980835e-02 2.660845406353473663e-02 -1.500020734965801239e-03 -1.235783025622367859e-01 5.254138633608818054e-02 -2.402492612600326538e-01 3.335073217749595642e-02 -1.593160070478916168e-02 1.097919642925262451e-01 3.580193817615509033e-01 7.396788895130157471e-02 1.414629220962524414e-01 9.318337589502334595e-02 -4.898603074252605438e-03 7.334096729755401611e-02 5.441637337207794189e-02 5.457223951816558838e-02 1.249781325459480286e-01 1.835341751575469971e-01 5.551902204751968384e-02 1.194273829460144043e-01 1.201604157686233521e-01 -6.543941795825958252e-02 5.801611579954624176e-03 -2.346769906580448151e-02 -1.148981153964996338e-01 2.841973602771759033e-01 1.813328266143798828e-01 1.104270964860916138e-01 1.274742633104324341e-01 6.203334033489227295e-02 8.122606575489044189e-02 2.779373824596405029e-01 1.287999749183654785e-01 -6.839968264102935791e-02 -2.461689710617065430e-01 1.249347254633903503e-01 2.053163647651672363e-01 5.660486407577991486e-03 -1.429411349818110466e-03 -1.548081934452056885e-01 4.876247793436050415e-02 -6.806696765124797821e-03 1.737140119075775146e-01 -4.717130213975906372e-03 -5.717951431870460510e-02 -9.406526386737823486e-02 -2.186827808618545532e-01 -1.337913423776626587e-01 8.099194616079330444e-03 2.732847929000854492e-01 -8.267050236463546753e-02 -0.000000000000000000e+00 0.000000000000000000e+00 -0.000000000000000000e+00 0.000000000000000000e+00 -0.000000000000000000e+00 -0.000000000000000000e+00 -0.000000000000000000e+00 0.000000000000000000e+00 0.000000000000000000e+00 -0.000000000000000000e+00 0.000000000000000000e+00 -0.000000000000000000e+00 0.000000000000000000e+00 0.000000000000000000e+00 0.000000000000000000e+00 0.000000000000000000e+00 0.000000000000000000e+00 0.000000000000000000e+00 -0.000000000000000000e+00 0.000000000000000000e+00 0.000000000000000000e+00 -0.000000000000000000e+00 -0.000000000000000000e+00 -0.000000000000000000e+00 -0.000000000000000000e+00 -0.000000000000000000e+00 0.000000000000000000e+00 -0.000000000000000000e+00 -0.000000000000000000e+00 0.000000000000000000e+00 -0.000000000000000000e+00 -0.000000000000000000e+00 0.000000000000000000e+00 0.000000000000000000e+00 0.000000000000000000e+00 -0.000000000000000000e+00 -0.000000000000000000e+00 -0.000000000000000000e+00 -0.000000000000000000e+00 0.000000000000000000e+00 0.000000000000000000e+00 -0.000000000000000000e+00 -0.000000000000000000e+00 0.000000000000000000e+00 0.000000000000000000e+00 0.000000000000000000e+00 0.000000000000000000e+00 0.000000000000000000e+00 -0.000000000000000000e+00 -0.000000000000000000e+00 0.000000000000000000e+00 -0.000000000000000000e+00 0.000000000000000000e+00 0.000000000000000000e+00 -0.000000000000000000e+00 0.000000000000000000e+00 -0.000000000000000000e+00 -0.000000000000000000e+00 -0.000000000000000000e+00 -0.000000000000000000e+00 -0.000000000000000000e+00 -0.000000000000000000e+00 -0.000000000000000000e+00 -0.000000000000000000e+00
-1.340109854936599731e-01 -5.715065076947212219e-02 -1.755672246217727661e-01 -3.615628927946090698e-02 1.465659439563751221e-01 -7.454925030469894409e-02 1.339402943849563599e-01 -6.787537783384323120e-02 -5.325173959136009216e-02 1.838654279708862305e-02 1.766647249460220337e-01 2.338530719280242920e-01 6.167333573102951050e-02 -2.535704672336578369e-01 1.504554897546768188e-01 1.322832852602005005e-01 -9.959719330072402954e-02 1.520263403654098511e-01 1.055684909224510193e-01 -3.007138706743717194e-02 2.554605528712272644e-02 2.582928240299224854e-01 1.843626946210861206e-01 2.034398764371871948e-01 1.267988085746765137e-01 -2.604425512254238129e-02 1.513173729181289673e-01 -1.431379020214080811e-01 5.764578655362129211e-02 1.851625293493270874e-01 -6.642644852399826050e-02 3.087663650512695312e-02 2.632339596748352051e-01 4.127903655171394348e-02 2.806832641363143921e-02 1.196931302547454834e-01 -6.740175187587738037e-02 6.238346919417381287e-02 2.581613957881927490e-01 -8.955486118793487549e-02 -6.539437174797058105e-02 -1.633181124925613403e-01 -2.086693048477172852e-02 -9.245096147060394287e-02 -2.241627722978591919e-01 3.745164349675178528e-02 9.808982163667678833e-02 6.430573761463165283e-02 2.820309698581695557e-01 -2.272600382566452026e-01 4.329576343297958374e-02 3.348651900887489319e-02 8.479936420917510986e-02 -2.859388291835784912e-02 1.887134164571762085e-01 4.502964392304420471e-02 4.847723618149757385e-02 2.383551001548767090e-02 -1.286309659481048584e-01 1.625516265630722046e-01 -1.258959714323282242e-02 -5.032125860452651978e-02 -5.382450297474861145e-02 -5.207021534442901611e-02 -0.000000000000000000e+00 0.000000000000000000e+00 -0.000000000000000000e+00 0.000000000000000000e+00 -0.000000000000000000e+00 0.000000000000000000e+00 0.000000000000000000e+00 -0.000000000000000000e+00 -0.000000000000000000e+00 -0.000000000000000000e+00 0.000000000000000000e+00 0.000000000000000000e+00 -0.000000000000000000e+00 -0.000000000000000000e+00 -0.000000000000000000e+00 -0.000000000000000000e+00 -0.000000000000000000e+00 -0.000000000000000000e+00 -0.000000000000000000e+00 -0.000000000000000000e+00 0.000000000000000000e+00 -0.000000000000000000e+00 0.000000000000000000e+00 0.000000000000000000e+00 0.000000000000000000e+00 0.000000000000000000e+00 -0.000000000000000000e+00 -0.000000000000000000e+00 -0.000000000000000000e+00 -0.000000000000000000e+00 0.000000000000000000e+00 0.000000000000000000e+00 -0.000000000000000000e+00 0.000000000000000000e+00 -0.000000000000000000e+00 -0.000000000000000000e+00 0.000000000000000000e+00 -0.000000000000000000e+00 0.000000000000000000e+00 -0.000000000000000000e+00 -0.000000000000000000e+00 0.000000000000000000e+00 -0.000000000000000000e+00 -0.000000000000000000e+00 0.000000000000000000e+00 0.000000000000000000e+00 0.000000000000000000e+00 -0.000000000000000000e+00 0.000000000000000000e+00 0.000000000000000000e+00 0.000000000000000000e+00 -0.000000000000000000e+00 0.000000000000000000e+00 0.000000000000000000e+00 -0.000000000000000000e+00 0.000000000000000000e+00 -0.000000000000000000e+00 -0.000000000000000000e+00 0.000000000000000000e+00 -0.000000000000000000e+00 -0.000000000000000000e+00 -0.000000000000000000e+00 -0.000000000000000000e+00 0.000000000000000000e+00
-9.229988604784011841e-02 6.456791609525680542e-02 2.311003506183624268e-01 1.275926977396011353e-01 2.342334091663360596e-01 -3.102339571341872215e-03 1.676439046859741211e-01 -5.654537584632635117e-03 -1.163835823535919189e-02 2.139921635389328003e-01 2.672315537929534912e-01 -1.089766696095466614e-01 2.322071976959705353e-02 8.811549097299575806e-02 8.502452820539474487e-02 1.108950600028038025e-01 -3.169178264215588570e-03 9.407231956720352173e-02 -8.415935188531875610e-02 8.985763788223266602e-02 -1.188885346055030823e-01 2.094379663467407227e-01 3.583229482173919678e-01 -5.113437306135892868e-03 -1.772727370262145996e-01 -3.512250781059265137e-01 -1.516938507556915283e-01 9.713547304272651672e-03 -7.076125591993331909e-02 -1.348993778228759766e-01 -6.190050393342971802e-02 4.529885202646255493e-02 1.432588994503021240e-01 -2.240038942545652390e-03 3.206128627061843872e-02 -1.248077154159545898e-01 -1.009073480963706970e-01 9.121824055910110474e-02 1.493943333625793457e-01 8.094040304422378540e-02 1.083816811442375183e-01 1.424665749073028564e-01 2.074662148952484131e-01 1.211598664522171021e-01 -1.618171334266662598e-01 -5.353691428899765015e-02 -1.157583221793174744e-01 6.808226928114891052e-03 3.079591989517211914e-01 -6.450439337641000748e-03 -7.829231023788452148e-02 -3.724957630038261414e-02 -1.733714938163757324e-01 -8.626978844404220581e-03 -2.425082027912139893e-02 1.065793484449386597e-01 -3.709253296256065369e-02 -1.089183613657951355e-01 9.089926257729530334e-03 -5.831439793109893799e-02 -1.748482882976531982e-01 1.620189547538757324e-01 6.542809307575225830e-02 1.101707294583320618e-02 0.000000000000000000e+00 -0.000000000000000000e+00 0.000000000000000000e+00 -0.000000000000000000e+00 -0.000000000000000000e+00 -0.000000000000000000e+00 -0.000000000000000000e+00 0.000000000000000000e+00 -0.000000000000000000e+00 -0.000000000000000000e+00 0.000000000000000000e+00 -0.000000000000000000e+00 0.000000000000000000e+00 -0.000000000000000000e+00 0.000000000000000000e+00 -0.000000000000000000e+00 0.000000000000000000e+00 -0.000000000000000000e+00 0.000000000000000000e+00 0.000000000000000000e+00 -0.000000000000000000e+00 -0.000000000000000000e+00 0.000000000000000000e+00 0.000000000000000000e+00 -0.000000000000000000e+00 0.000000000000000000e+00 0.000000000000000000e+00 -0.000000000000000000e+00 -0.000000000000000000e+00 -0.000000000000000000e+00 -0.000000000000000000e+00 0.000000000000000000e+00 -0.000000000000000000e+00 -0.000000000000000000e+00 -0.000000000000000000e+00 0.000000000000000000e+00 0.000000000000000000e+00 -0.000000000000000000e+00 -0.000000000000000000e+00 0.000000000000000000e+00 -0.000000000000000000e+00 -0.000000000000000000e+00 0.000000000000000000e+00 -0.000000000000000000e+00 0.000000000000000000e+00 0.000000000000000000e+00 -0.000000000000000000e+00 -0.000000000000000000e+00 0.000000000000000000e+00 -0.000000000000000000e+00 0.000000000000000000e+00 0.000000000000000000e+00 0.000000000000000000e+00 0.000000000000000000e+00 -0.000000000000000000e+00 0.000000000000000000e+00 -0.000000000000000000e+00 0.000000000000000000e+00 -0.000000000000000000e+00 -0.000000000000000000e+00 0.000000000000000000e+00 -0.000000000000000000e+00 -0.000000000000000000e+00 0.000000000000000000e+00
-2.714849822223186493e-02 1.350026428699493408e-01 -1.468373835086822510e-01 1.375172883272171021e-01 1.633176207542419434e-01 -9.357336908578872681e-03 9.372086822986602783e-02 -2.061719894409179688e-01 2.767191231250762939e-01 -5.445206165313720703e-02 1.978530734777450562e-01 -1.292481645941734314e-02 -1.326767206192016602e-01 -1.061283499002456665e-01 -9.254093468189239502e-02 2.045969516038894653e-01 8.409891277551651001e-02 1.689560562372207642e-01 3.123641014099121094e-01 4.729706048965454102e-02 -5.384963750839233398e-02 -8.963610976934432983e-03 5.990231037139892578e-02 -4.562988877296447754e-02 2.683861851692199707e-01 4.004793241620063782e-02 1.050322726368904114e-01 -1.799215227365493774e-01 1.048919335007667542e-01 5.312439519912004471e-03 2.423104047775268555e-01 -1.686498671770095825e-01 -2.051980001851916313e-03 8.529891073703765869e-02 1.649892479181289673e-01 3.996938467025756836e-02 -1.425330787897109985e-01 2.338245511054992676e-01 -6.543855369091033936e-02 9.414853155612945557e-02 2.851603925228118896e-01 9.664042852818965912e-03 -1.126979961991310120e-01 -1.145583242177963257e-01 1.258178651332855225e-01 -3.327649831771850586e-02 -1.312938705086708069e-02 4.366450756788253784e-02 -2.518337368965148926e-01 8.321941643953323364e-02 2.497757077217102051e-01 2.576256394386291504e-01 1.994833499193191528e-01 -5.770203843712806702e-02 1.704749464988708496e-02 -2.221798598766326904e-01 8.584413677453994751e-02 -2.528326511383056641e-01 -2.485893368721008301e-01 -4.579398781061172485e-02 8.210811018943786621e-02 5.327010899782180786e-02 -1.714034378528594971e-01 -2.090734243392944336e-01 -0.000000000000000000e+00 -0.000000000000000000e+00 0.000000000000000000e+00 0.000000000000000000e+00 -0.000000000000000000e+00 0.000000000000000000e+00 -0.000000000000000000e+00 0.000000000000000000e+00 0.000000000000000000e+00 0.000000000000000000e+00 0.000000000000000000e+00 -0.000000000000000000e+00 -0.000000000000000000e+00 0.000000000000000000e+00 0.000000000000000000e+00 0.000000000000000000e+00 -0.000000000000000000e+00 0.000000000000000000e+00 0.000000000000000000e+00 -0.000000000000000000e+00 -0.000000000000000000e+00 -0.000000000000000000e+00 0.000000000000000000e+00 -0.000000000000000000e+00 -0.000000000000000000e+00 0.000000000000000000e+00 0.000000000000000000e+00 0.000000000000000000e+00 -0.000000000000000000e+00 -0.000000000000000000e+00 0.000000000000000000e+00 0.000000000000000000e+00 -0.000000000000000000e+00 -0.000000000000000000e+00 -0.000000000000000000e+00 0.000000000000000000e+00 0.000000000000000000e+00 0.000000000000000000e+00 -0.000000000000000000e+00 0.000000000000000000e+00 -0.000000000000000000e+00 -0.000000000000000000e+00 -0.000000000000000000e+00 0.000000000000000000e+00 -0.000000000000000000e+00 0.000000000000000000e+00 -0.000000000000000000e+00 -0.000000000000000000e+00 -0.000000000000000000e+00 0.000000000000000000e+00 0.000000000000000000e+00 -0.000000000000000000e+00 0.000000000000000000e+00 0.000000000000000000e+00 -0.000000000000000000e+00 -0.000000000000000000e+00 0.000000000000000000e+00 -0.000000000000000000e+00 0.000000000000000000e+00 0.000000000000000000e+00 -0.000000000000000000e+00 0.000000000000000000e+00 -0.000000000000000000e+00 0.000000000000000000e+00
2.594164907932281494e-01 3.531715646386146545e-02 -1.350854188203811646e-01 -4.297710582613945007e-02 -4.014732316136360168e-02 -4.797074794769287109e-01 -4.779659956693649292e-02 1.429968029260635376e-01 1.008213311433792114e-01 2.103803306818008423e-01 2.575499378144741058e-02 3.230001926422119141e-01 1.302180737257003784e-01 -2.443966716527938843e-01 1.379586160182952881e-01 -6.438956409692764282e-02 1.161977648735046387e-01 2.018143683671951294e-01 -1.075193881988525391e-01 1.506743580102920532e-01 -3.058850765228271484e-01 -6.789517402648925781e-02 9.822484850883483887e-02 1.116545870900154114e-02 -8.944942802190780640e-02 1.905902028083801270e-01 -3.261843919754028320e-01 1.460205316543579102e-01 -2.130817770957946777e-01 5.613842979073524475e-02 1.955721229314804077e-01 -2.658258378505706787e-01 2.392175197601318359e-01 -3.105849213898181915e-02 3.690076470375061035e-01 4.009211063385009766e-02 2.004463411867618561e-02 1.951114386320114136e-01 -1.767089217901229858e-01 2.590223550796508789e-01 -3.634495735168457031e-01 1.256975084543228149e-01 -2.848839201033115387e-02 1.265043467283248901e-01 -7.963949441909790039e-02 4.953398369252681732e-03 4.009509831666946411e-02 -6.955969333648681641e-02 4.263239447027444839e-03 1.089282035827636719e-01 1.821506917476654053e-01 1.021494269371032715e-01 -2.010891027748584747e-02 -1.764755547046661377e-01 1.499022692441940308e-01 -2.506669163703918457e-01 -2.015720903873443604e-01 2.037273198366165161e-01 -3.513954114168882370e-03 2.784443460404872894e-02 9.277062490582466125e-03 1.832688450813293457e-01 2.856224179267883301e-01 1.739981621503829956e-01 -0.000000000000000000e+00 -0.000000000000000000e+00 0.000000000000000000e+00 -0.000000000000000000e+00 -0.000000000000000000e+00 -0.000000000000000000e+00 0.000000000000000000e+00 0.000000000000000000e+00 0.000000000000000000e+00 0.000000000000000000e+00 0.000000000000000000e+00 -0.000000000000000000e+00 0.000000000000000000e+00 -0.000000000000000000e+00 -0.000000000000000000e+00 0.000000000000000000e+00 -0.000000000000000000e+00 -0.000000000000000000e+00 0.000000000000000000e+00 0.000000000000000000e+00 0.000000000000000000e+00 0.000000000000000000e+00 0.000000000000000000e+00 0.000000000000000000e+00 0.000000000000000000e+00 -0.000000000000000000e+00 -0.000000000000000000e+00 0.000000000000000000e+00 -0.000000000000000000e+00 0.000000000000000000e+00 0.000000000000000000e+00 -0.000000000000000000e+00 0.000000000000000000e+00 -0.000000000000000000e+00 -0.000000000000000000e+00 -0.000000000000000000e+00 0.000000000000000000e+00 -0.000000000000000000e+00 -0.000000000000000000e+00 -0.000000000000000000e+00 -0.000000000000000000e+00 0.000000000000000000e+00 0.000000000000000000e+00 0.000000000000000000e+00 -0.000000000000000000e+00 0.000000000000000000e+00 0.000000000000000000e+00 -0.000000000000000000e+00 0.000000000000000000e+00 -0.000000000000000000e+00 0.000000000000000000e+00 0.000000000000000000e+00 0.000000000000000000e+00 0.000000000000000000e+00 -0.000000000000000000e+00 0.000000000000000000e+00 0.000000000000000000e+00 0.000000000000000000e+00 -0.000000000000000000e+00 0.000000000000000000e+00 0.000000000000000000e+00 0.000000000000000000e+00 -0.000000000000000000e+00 -0.000000000000000000e+00
-1.761722117662429810e-01 3.718235790729522705e-01 1.497125923633575439e-01 -1.045978069305419922e-01 -6.446803361177444458e-02 1.806369870901107788e-01 7.018524408340454102e-02 5.725769326090812683e-02 -1.813196390867233276e-01 8.122745156288146973e-02 -1.153031438589096069e-01 8.025175333023071289e-02 -2.042021602392196655e-01 -8.573394268751144409e-03 7.137931883335113525e-02 -3.964898735284805298e-02 7.005303353071212769e-02 -6.424742750823497772e-03 4.423487558960914612e-02 -7.647263258695602417e-02 2.880073525011539459e-02 2.928420342504978180e-02 2.778075635433197021e-01 1.256863474845886230e-01 -1.057195886969566345e-01 -1.706459075212478638e-01 -9.908410906791687012e-02 4.957517609000205994e-02 1.303247213363647461e-01 -9.371119737625122070e-02 -7.883001863956451416e-02 -9.216290712356567383e-02 -4.024721682071685791e-03 2.164331227540969849e-01 -2.962577156722545624e-02 6.634347140789031982e-02 1.794221065938472748e-02 1.939847320318222046e-01 -3.304430469870567322e-02 9.686648100614547729e-02 -4.670605808496475220e-02 -1.989026516675949097e-01 1.474503427743911743e-01 9.227751195430755615e-02 -1.337003260850906372e-01 7.234352827072143555e-02 3.385059535503387451e-01 1.628467589616775513e-01 3.985871970653533936e-01 -1.269438266754150391e-01 9.069697558879852295e-02 1.327079348266124725e-02 -1.370573192834854126e-01 -1.254796516150236130e-02 -1.751977950334548950e-01 4.681438580155372620e-02 3.307307064533233643e-01 2.002824246883392334e-01 1.702511124312877655e-02 -3.175910115242004395e-01 2.850640714168548584e-01 -2.197295427322387695e-02 2.645310759544372559e-02 -6.939356774091720581e-02 0.000000000000000000e+00 -0.000000000000000000e+00 0.000000000000000000e+00 -0.000000000000000000e+00 0.000000000000000000e+00 -0.000000000000000000e+00 0.000000000000000000e+00 -0.000000000000000000e+00 -0.000000000000000000e+00 -0.000000000000000000e+00 -0.000000000000000000e+00 -0.000000000000000000e+00 0.000000000000000000e+00 0.000000000000000000e+00 0.000000000000000000e+00 -0.000000000000000000e+00 0.000000000000000000e+00 0.000000000000000000e+00 -0.000000000000000000e+00 0.000000000000000000e+00 -0.000000000000000000e+00 -0.000000000000000000e+00 0.000000000000000000e+00 -0.000000000000000000e+00 -0.000000000000000000e+00 0.000000000000000000e+00 -0.000000000000000000e+00 0.000000000000000000e+00 -0.000000000000000000e+00 0.000000000000000000e+00 -0.000000000000000000e+00 -0.000000000000000000e+00 0.000000000000000000e+00 -0.000000000000000000e+00 -0.000000000000000000e+00 0.000000000000000000e+00 0.000000000000000000e+00 -0.000000000000000000e+00 0.000000000000000000e+00 0.000000000000000000e+00 -0.000000000000000000e+00 0.000000000000000000e+00 0.000000000000000000e+00 -0.000000000000000000e+00 0.000000000000000000e+00 -0.000000000000000000e+00 0.000000000000000000e+00 0.000000000000000000e+00 -0.000000000000000000e+00 0.000000000000000000e+00 0.000000000000000000e+00 -0.000000000000000000e+00 -0.000000000000000000e+00 0.000000000000000000e+00 -0.000000000000000000e+00 -0.000000000000000000e+00 -0.000000000000000000e+00 -0.000000000000000000e+00 -0.000000000000000000e+00 0.000000000000000000e+00 -0.000000000000000000e+00 0.000000000000000000e+00 0.000000000000000000e+00 0.000000000000000000e+00
