2.213228940963745117e-01
-2.588530443608760834e-02
2.333701550960540771e-01
-2.267754226922988892e-01
-9.262369573116302490e-02
5.713291838765144348e-02
-1.624549739062786102e-02
-7.062538713216781616e-02
9.011888504028320312e-02
-1.615611314773559570e-01
-1.632569283246994019e-01
-1.190968975424766541e-01
-1.486934125423431396e-01
6.993994116783142090e-02
-7.364421617239713669e-03
-1.815615147352218628e-01
-3.693741559982299805e-02
2.815020643174648285e-02
-4.024324715137481689e-01
-9.341204166412353516e-02
3.082104921340942383e-01
-8.418156206607818604e-02
-9.753501974046230316e-03
2.603045403957366943e-01
1.088135838508605957e-01
2.016039341688156128e-01
-7.400527130812406540e-03
-2.470628917217254639e-01
-1.099686622619628906e-01
-7.139618694782257080e-02
2.520445883274078369e-01
-1.040441170334815979e-02
4.127220064401626587e-02
-8.671165257692337036e-02
1.505336910486221313e-01
3.258194401860237122e-02
-1.586888134479522705e-01
4.724038019776344299e-02
1.243353560566902161e-01
2.778637111186981201e-01
1.102119907736778259e-01
-2.005761116743087769e-02
5.398546159267425537e-02
5.213043466210365295e-02
2.412767559289932251e-01
6.868564337491989136e-02
1.538175791501998901e-01
2.202663719654083252e-01
1.365266442298889160e-01
1.235603988170623779e-01
1.511788815259933472e-01
4.341683536767959595e-02
-2.378694154322147369e-02
5.158718302845954895e-02
4.300238788127899170e-01
6.502419710159301758e-02
2.721107006072998047e-02
6.859444081783294678e-02
6.605203449726104736e-02
1.918557584285736084e-01
-4.408135637640953064e-02
2.152134478092193604e-01
-3.560910001397132874e-02
-7.134003937244415283e-02
-2.851759083569049835e-02
-2.186582796275615692e-02
5.789275839924812317e-02
1.593255400657653809e-01
-8.175420761108398438e-02
1.818057149648666382e-01
-1.046837866306304932e-01
-1.309817433357238770e-01
-3.953507915139198303e-02
-5.671413615345954895e-03
3.961325809359550476e-02
-3.375546634197235107e-01
2.820360660552978516e-01
-8.024990558624267578e-02
-4.487238526344299316e-01
-2.278439551591873169e-01
1.591436713933944702e-01
3.336860537528991699e-01
-9.710576385259628296e-02
-7.510097324848175049e-02
-3.585634753108024597e-02
-1.404383629560470581e-01
1.155233709141612053e-03
4.281590506434440613e-02
9.982042014598846436e-02
1.057273745536804199e-01
-1.669179946184158325e-01
-1.193325296044349670e-01
2.517980756238102913e-03
1.161170098930597305e-02
4.089543223381042480e-01
2.934971451759338379e-01
3.159694373607635498e-01
-9.814821183681488037e-02
-1.996109336614608765e-01
1.896385103464126587e-01
-9.711459279060363770e-03
2.470114678144454956e-01
-1.400652229785919189e-01
4.422830790281295776e-02
1.974235847592353821e-02
1.997453123331069946e-01
2.158994823694229126e-01
-7.634937763214111328e-02
5.343170091509819031e-02
1.980148702859878540e-01
8.521459996700286865e-02
8.347639441490173340e-02
4.696018248796463013e-02
-3.041296266019344330e-03
1.542411465197801590e-02
8.144428580999374390e-02
1.543053090572357178e-01
-3.479714393615722656e-01
1.952123790979385376e-01
3.558094501495361328e-01
2.115732058882713318e-02
-7.788521796464920044e-02
-1.544369161128997803e-01
3.339671194553375244e-01
7.141478359699249268e-02
-1.477964073419570923e-01
2.524777054786682129e-01
1.973064392805099487e-01
1.418801117688417435e-02
-2.353888005018234253e-01
-5.715863034129142761e-02
-7.085473835468292236e-02
-1.389804929494857788e-01
-6.730915606021881104e-02
5.820652469992637634e-02
-1.393542438745498657e-01
8.459817618131637573e-02
-3.347418736666440964e-03
1.806847751140594482e-01
4.773054644465446472e-02
2.752928808331489563e-02
1.503795851022005081e-02
1.182685345411300659e-01
2.030482515692710876e-02
-2.742557041347026825e-02
6.169883534312248230e-02
-1.188163179904222488e-02
-1.670040339231491089e-01
2.378506958484649658e-01
3.061119318008422852e-01
-8.964470587670803070e-03
2.261449024081230164e-02
1.148635521531105042e-02
-1.047208160161972046e-01
1.213142126798629761e-01
-6.141803169157356024e-05
3.471985831856727600e-02
6.602305173873901367e-02
-1.363274455070495605e-01
2.684578001499176025e-01
-2.905707657337188721e-01
-1.711581945419311523e-01
-1.693558096885681152e-01
6.165893282741308212e-03
1.726840287446975708e-01
-2.463742718100547791e-02
9.590403735637664795e-02
-4.219945892691612244e-02
9.445728361606597900e-02
-3.747488663066178560e-04
3.526211380958557129e-01
-7.864276319742202759e-02
2.740848809480667114e-02
-3.004100322723388672e-01
-2.258396334946155548e-02
-1.364766210317611694e-01
-1.462522000074386597e-01
1.756973415613174438e-01
1.274171173572540283e-01
-1.698380857706069946e-01
5.730500072240829468e-02
3.599312007427215576e-01
-8.422840386629104614e-02
1.766987591981887817e-01
2.561914324760437012e-01
1.863481998443603516e-01
-9.241208434104919434e-02
-3.250929117202758789e-01
-7.104547321796417236e-02
-4.658367950469255447e-03
1.528853625059127808e-01
-2.034675776958465576e-01
1.054357290267944336e-01
-7.845977693796157837e-02
1.530176848173141479e-01
-4.520784690976142883e-02
-1.674094796180725098e-01
-2.325725555419921875e-01
2.438771352171897888e-02
-2.312443591654300690e-02
1.417544335126876831e-01
2.614092230796813965e-01
1.222613975405693054e-01
1.451545655727386475e-01
6.658629328012466431e-02
-1.332878172397613525e-01
5.432098358869552612e-02
7.018104195594787598e-02
-1.370758414268493652e-01
5.100519396364688873e-03
2.422273159027099609e-01
-3.174574673175811768e-02
1.935486868023872375e-02
1.556215882301330566e-01
3.119074106216430664e-01
-8.815210312604904175e-02
1.695312112569808960e-01
1.870214045047760010e-01
-6.802496314048767090e-02
-1.067396253347396851e-02
1.606735885143280029e-01
-1.923797279596328735e-01
-2.129117995500564575e-01
2.257338762283325195e-01
-8.049915730953216553e-02
1.159646436572074890e-01
2.017530798912048340e-01
9.108766168355941772e-02
2.134342677891254425e-02
-9.692510962486267090e-02
2.306347042322158813e-01
1.854434758424758911e-01
-3.616358339786529541e-02
5.067820101976394653e-02
9.165472537279129028e-02
-2.177188694477081299e-01
1.660581678152084351e-02
9.217234700918197632e-02
2.387797459959983826e-02
-3.233822807669639587e-02
-1.841259896755218506e-01
8.546248078346252441e-02
7.435629516839981079e-02
2.345583736896514893e-01
6.736394762992858887e-02
3.630090132355690002e-02
4.485661536455154419e-02
-5.468358099460601807e-02
-1.185285113751888275e-02
2.540148794651031494e-01
1.936233043670654297e-01
3.217516466975212097e-02
1.667674332857131958e-01
8.157604187726974487e-02
1.010477840900421143e-01
-8.109635114669799805e-02
5.973483622074127197e-02
-8.508541435003280640e-02
-1.964692026376724243e-01
1.344327535480260849e-02
1.555626541376113892e-01
-6.908614188432693481e-02
8.568432182073593140e-02
-2.363582998514175415e-01
3.537243902683258057e-01
-1.098443493247032166e-01
1.711632460355758667e-01
-4.439946636557579041e-02
-2.099764943122863770e-01
2.213449776172637939e-01
-6.787062436342239380e-02
-5.426118895411491394e-02
7.664916664361953735e-02
-7.505795359611511230e-02
-1.353534609079360962e-01
5.083717033267021179e-02
-6.948353257030248642e-03
-4.203576967120170593e-02
2.611099481582641602e-01
-1.581759564578533173e-02
-8.160952478647232056e-02
4.080007374286651611e-01
-3.478876873850822449e-02
-5.023026838898658752e-02
4.372957721352577209e-02
-4.498494416475296021e-02
6.949678808450698853e-02
-1.013962551951408386e-01
2.107577957212924957e-02
1.171694844961166382e-01
-2.599738352000713348e-02
-2.632730603218078613e-01
-2.820959389209747314e-01
-2.059448808431625366e-01
1.071525737643241882e-01
3.768194839358329773e-02
2.511402405798435211e-02
1.456107199192047119e-01
1.190123558044433594e-01
-1.620000600814819336e-01
-4.280346911400556564e-03
8.317776769399642944e-02
7.967330515384674072e-02
1.273886263370513916e-01
-1.158863902091979980e-01
-1.070448085665702820e-01
4.256207495927810669e-03
-1.703725755214691162e-01
1.028326824307441711e-01
-2.969012558460235596e-01
1.136861518025398254e-01
7.307235151529312134e-02
-1.652979105710983276e-01
1.927272379398345947e-01
-2.332388162612915039e-01
-2.740045189857482910e-01
1.988278329372406006e-01
1.281411945819854736e-01
2.672369591891765594e-02
-2.913472428917884827e-02
1.580671817064285278e-01
9.158489108085632324e-02
-2.448269724845886230e-02
-3.352515399456024170e-02
-1.048718839883804321e-01
2.783587574958801270e-01
-1.187208741903305054e-01
3.085464006289839745e-03
1.159615218639373779e-01
2.590636909008026123e-01
-9.977190196514129639e-02
7.489094883203506470e-02
5.518927425146102905e-02
9.780579805374145508e-02
-8.182640373706817627e-02
-1.901576668024063110e-01
7.356054335832595825e-02
-3.346411138772964478e-02
-2.664686143398284912e-01
-6.872322410345077515e-02
-1.034805644303560257e-02
-1.140089780092239380e-01
-7.774642109870910645e-02
-4.966858401894569397e-02
-1.627170592546463013e-01
1.844255812466144562e-02
-2.195661962032318115e-01
3.156197965145111084e-01
-2.736847102642059326e-02
-2.013939023017883301e-01
-2.604505978524684906e-02
1.705332547426223755e-01
-8.821110427379608154e-02
1.594273746013641357e-01
-1.218391656875610352e-01
3.968714177608489990e-02
-1.788778007030487061e-01
-8.059861510992050171e-02
6.537486612796783447e-02
2.127306461334228516e-01
-2.145745605230331421e-01
1.589103192090988159e-01
-7.607246516272425652e-04
-2.802523672580718994e-01
5.221575498580932617e-02
1.154027953743934631e-01
-1.862912774085998535e-01
-2.161881420761346817e-03
1.106421351432800293e-01
-8.969268202781677246e-02
-1.021624580025672913e-01
-7.456613332033157349e-02
1.676761955022811890e-01
6.769472360610961914e-02
-5.113729089498519897e-02
-3.382957577705383301e-01
-9.531847387552261353e-02
1.211874634027481079e-01
-8.208201825618743896e-02
-1.056865453720092773e-01
4.735464975237846375e-02
1.399595439434051514e-01
-6.625980883836746216e-02
-7.126337289810180664e-02
-3.114463388919830322e-01
3.335191681981086731e-02
-1.383324712514877319e-01
-9.794654697179794312e-02
-2.068371921777725220e-01
1.383803784847259521e-01
-1.646945774555206299e-01
-2.987555265426635742e-01
-2.050270736217498779e-01
1.805139519274234772e-02
-1.884568035602569580e-01
4.684760421514511108e-02
1.935069411993026733e-01
1.945971846580505371e-01
1.115172207355499268e-01
-4.405119270086288452e-02
-4.742619767785072327e-02
-1.135735586285591125e-01
2.224824279546737671e-01
1.285393685102462769e-01
2.449663542211055756e-02
3.413981497287750244e-01
-1.449904590845108032e-02
1.399096846580505371e-01
-3.122513182461261749e-02
3.131321966648101807e-01
-2.489659339189529419e-01
-1.982551217079162598e-01
-1.227506920695304871e-01
9.308666735887527466e-02
7.624296844005584717e-02
9.653440117835998535e-02
-4.377137720584869385e-01
8.535536937415599823e-03
3.232476115226745605e-02
-2.806818520184606314e-04
3.218634054064750671e-02
1.773654073476791382e-01
-6.201313808560371399e-02
2.429769188165664673e-01
1.935961097478866577e-01
1.384672969579696655e-01
9.551803022623062134e-02
-2.805716395378112793e-01
1.338400095701217651e-01
1.026892736554145813e-01
-1.225998178124427795e-01
4.741373360157012939e-01
1.554556190967559814e-01
2.904646396636962891e-01
-1.724600642919540405e-01
-1.460841298103332520e-01
-1.035950146615505219e-02
6.297418475151062012e-02
-1.004036441445350647e-01
5.395638197660446167e-02
-2.725754976272583008e-01
6.509828567504882812e-02
2.972988784313201904e-02
-1.924849152565002441e-01
-4.177807271480560303e-02
9.667351841926574707e-02
3.220793977379798889e-02
1.337311863899230957e-01
-5.630220174789428711e-01
-1.044936180114746094e-01
9.455834329128265381e-02
1.893903315067291260e-01
-1.716598123311996460e-01
-2.072122395038604736e-01
5.775128956884145737e-03
3.099865615367889404e-01
7.474283874034881592e-02
1.246410235762596130e-01
3.100512623786926270e-01
-4.012171328067779541e-01
-1.232143417000770569e-01
1.564755588769912720e-01
1.037273555994033813e-01
-5.713139474391937256e-02
8.779622614383697510e-02
5.041433125734329224e-02
1.756215989589691162e-01
1.971348822116851807e-01
-2.033703625202178955e-01
2.968657314777374268e-01
-1.792148686945438385e-02
9.751496464014053345e-02
8.024792373180389404e-02
-2.928047180175781250e-01
6.596703827381134033e-02
-2.476225141435861588e-03
-2.712229825556278229e-02
-2.356323748826980591e-01
-2.448553889989852905e-01
-1.600723862648010254e-01
1.740353703498840332e-01
8.550026267766952515e-02
1.659706421196460724e-02
3.103102557361125946e-02
1.977888047695159912e-01
-1.239606514573097229e-01
9.320946782827377319e-02
-2.855570288375020027e-03
1.713404208421707153e-01
-8.360885083675384521e-02
1.922912150621414185e-01
-3.534187972545623779e-01
-2.080774120986461639e-02
1.080769896507263184e-01
4.045947641134262085e-02
1.650131493806838989e-01
-1.031755432486534119e-01
-2.159653306007385254e-01
-1.795117408037185669e-01
3.973892331123352051e-02
-2.315207239007577300e-04
-5.368867423385381699e-03
-9.086689352989196777e-02
-1.818827539682388306e-01
-3.818796575069427490e-02
1.859052181243896484e-01
-9.856441617012023926e-02
1.513205617666244507e-01
-1.000699922442436218e-01
-1.461648195981979370e-01
-2.917136996984481812e-02
1.368284374475479126e-01
1.471745371818542480e-01
1.373770385980606079e-01
-3.692883551120758057e-01
-4.094077274203300476e-02
1.301421374082565308e-01
1.367400288581848145e-01
-1.497614234685897827e-01
2.197671532630920410e-01
2.284168899059295654e-01
-5.377329420298337936e-03
-5.771874263882637024e-02
-1.629967093467712402e-01
1.960314810276031494e-01
3.753910958766937256e-01
2.536518871784210205e-01
-1.044783834367990494e-02
1.936560571193695068e-01
-5.699028074741363525e-02
-3.790711611509323120e-02
1.728116273880004883e-01
-1.670333184301853180e-02
-1.721026897430419922e-01
-3.104997100308537483e-03
1.687109656631946564e-02
-2.958562374114990234e-01
-1.555486619472503662e-01
-2.335871160030364990e-01
9.104645997285842896e-02
-6.287307292222976685e-02
1.218910329043865204e-02
-1.081372871994972229e-01
-2.355477362871170044e-01
-1.260726600885391235e-01
2.938072197139263153e-02
-1.537387538701295853e-02
2.907858043909072876e-02
-2.480907440185546875e-01
-7.016415148973464966e-02
-2.040873020887374878e-01
3.469207137823104858e-02
-2.156604826450347900e-01
-1.819529337808489799e-03
-1.593088209629058838e-01
1.417350918054580688e-01
-1.357535272836685181e-01
-1.390876024961471558e-01
1.602637320756912231e-01
-3.857912868261337280e-02
-5.418942309916019440e-03
-4.202759824693202972e-03
2.358501702547073364e-01
9.369628131389617920e-02
1.939088255167007446e-01
-8.905720897018909454e-03
1.254302561283111572e-01
-1.227684915065765381e-01
5.611585918813943863e-03
-1.669859737157821655e-01
6.980273872613906860e-02
1.218028739094734192e-01
-1.361074745655059814e-01
7.339268922805786133e-02
-1.975101828575134277e-01
-4.852300882339477539e-02
-9.776274114847183228e-02
1.584088802337646484e-02
-1.388110071420669556e-01
-3.423365205526351929e-02
-3.040797077119350433e-02
1.271723359823226929e-01
2.759553492069244385e-01
1.050967797636985779e-01
-6.319737434387207031e-02
-8.232653886079788208e-02
8.724292367696762085e-02
2.100895345211029053e-01
3.163031116127967834e-02
-4.912722390145063400e-03
1.554287783801555634e-02
1.451887339353561401e-01
-7.316270470619201660e-02
1.858553588390350342e-01
-2.888921499252319336e-01
6.494426168501377106e-03
2.339033037424087524e-01
-1.080215275287628174e-01
1.399341374635696411e-01
3.554386645555496216e-02
-2.212206721305847168e-01
-9.466902166604995728e-02
1.507731527090072632e-01
7.372945547103881836e-02
2.386402934789657593e-01
-7.328378409147262573e-02
-1.426870971918106079e-01
-1.376658976078033447e-01
8.130413293838500977e-02
-8.824953436851501465e-02
1.349100321531295776e-01
6.201325356960296631e-02
1.773311793804168701e-01
2.624050676822662354e-01
-1.015771552920341492e-01
1.781915575265884399e-01
6.370061077177524567e-03
2.545933425426483154e-02
4.187304899096488953e-02
1.523202508687973022e-01
-2.463195659220218658e-02
7.322681695222854614e-02
-3.846973925828933716e-02
-2.032747566699981689e-01
8.080725371837615967e-02
8.400930464267730713e-02
3.045866787433624268e-01
1.270803157240152359e-02
5.982427299022674561e-02
-4.045954719185829163e-02
1.638691127300262451e-01
2.893159091472625732e-01
1.128820925951004028e-01
5.445169657468795776e-02
-3.948258981108665466e-02
-4.978124424815177917e-02
-4.030665755271911621e-02
-3.749589249491691589e-02
1.392146646976470947e-01
1.034438610076904297e-01
1.670725941658020020e-01
7.373646646738052368e-02
1.353621575981378555e-02
-2.200771570205688477e-01
1.755031570792198181e-02
-7.659575436264276505e-03
-5.820213258266448975e-02
-1.365814059972763062e-01
9.198934584856033325e-02
2.194761335849761963e-01
-3.029905632138252258e-02
-8.899191021919250488e-02
-9.985775500535964966e-02
-2.489803433418273926e-01
-3.189684450626373291e-01
4.230048656463623047e-01
9.096298366785049438e-03
1.281185001134872437e-01
2.029146254062652588e-01
-9.397422522306442261e-02
1.372064352035522461e-01
6.574901938438415527e-02
-5.389594659209251404e-02
2.589504234492778778e-02
4.612176492810249329e-02
-3.749210834503173828e-01
-1.897989809513092041e-01
-1.211385503411293030e-01
-1.384191811084747314e-01
-1.865991353988647461e-01
-2.463078126311302185e-02
2.194561250507831573e-02
1.878964900970458984e-01
-3.053584396839141846e-01
-1.084120050072669983e-01
9.468590468168258667e-02
-1.133476644754409790e-01
2.308172434568405151e-01
9.253975749015808105e-02
-1.257973257452249527e-02
3.092481195926666260e-02
-1.996115408837795258e-02
8.199586719274520874e-02
2.772888913750648499e-02
2.306314557790756226e-01
5.878102456335909665e-06
2.682620659470558167e-02
1.262402236461639404e-01
-2.208216637372970581e-01
-1.744719035923480988e-02
1.081677228212356567e-01
-1.781120896339416504e-02
1.050313860177993774e-01
3.821791335940361023e-02
-1.704325526952743530e-01
-1.043836697936058044e-01
4.705281183123588562e-02
-1.502317190170288086e-01
1.850702613592147827e-01
-2.065114825963973999e-01
4.412959516048431396e-02
1.606362164020538330e-01
6.298672407865524292e-02
-4.359802976250648499e-02
1.530925333499908447e-01
3.067443668842315674e-01
1.699205487966537476e-01
-3.066196143627166748e-01
-2.333793044090270996e-01
-1.740050017833709717e-01
8.394252508878707886e-02
-1.350387334823608398e-01
2.916544489562511444e-02
1.734237931668758392e-02
-2.391531467437744141e-01
-2.441801317036151886e-02
1.006642431020736694e-01
2.089154422283172607e-01
1.533197704702615738e-02
-1.682571768760681152e-01
1.738224476575851440e-01
7.237145304679870605e-02
-3.084938228130340576e-02
-2.292622327804565430e-01
1.956771463155746460e-01
1.201995462179183960e-01
4.666184261441230774e-02
-1.062626391649246216e-02
-2.240406274795532227e-01
-1.939140707254409790e-01
-1.124695036560297012e-02
9.151228517293930054e-02
-9.059901535511016846e-02
-8.353550918400287628e-03
3.840517252683639526e-02
-1.129403617233037949e-02
-2.146373540163040161e-01
5.891551822423934937e-02
-1.608118414878845215e-01
-3.621095716953277588e-01
-1.612143069505691528e-01
9.495964646339416504e-02
-7.384638488292694092e-02
-8.990797400474548340e-02
6.466651707887649536e-02
3.882963210344314575e-02
-9.847792237997055054e-02
-2.253596112132072449e-02
-5.847122520208358765e-02
-5.986129119992256165e-02
1.115692183375358582e-01
2.431721687316894531e-01
8.544681966304779053e-02
1.971039026975631714e-01
-1.574782431125640869e-01
-1.480004787445068359e-01
2.280575968325138092e-02
-3.127704560756683350e-02
-1.769492924213409424e-01
-1.444207131862640381e-02
-1.419897973537445068e-01
6.597799807786941528e-02
2.310170084238052368e-01
-3.118598759174346924e-01
5.014974251389503479e-02
4.446254298090934753e-02
-4.232908040285110474e-02
-2.432070225477218628e-01
2.976378612220287323e-02
-1.094155572354793549e-02
7.459916378138586879e-05
1.163650974631309509e-01
-2.252682149410247803e-01
2.866280078887939453e-01
-2.491045147180557251e-01
-2.577726244926452637e-01
1.277009546756744385e-01
2.269446551799774170e-01
1.638696528971195221e-02
5.007451027631759644e-02
-1.138335242867469788e-01
2.033168673515319824e-01
-1.319337040185928345e-01
2.257882207632064819e-01
-4.742726683616638184e-03
-8.902984112501144409e-02
3.515461832284927368e-02
9.800068102777004242e-03
3.153705596923828125e-02
-4.796918481588363647e-02
-4.861719161272048950e-02
-1.964646726846694946e-01
-2.053444832563400269e-01
6.580228358507156372e-02
3.260424733161926270e-02
3.312953412532806396e-01
1.936870366334915161e-01
1.134294271469116211e-01
1.138926204293966293e-02
-2.122678607702255249e-02
1.001643985509872437e-01
-1.389947384595870972e-01
-1.755013316869735718e-01
-6.050321087241172791e-02
1.938914358615875244e-01
-1.605268269777297974e-01
6.230906024575233459e-02
2.324274331331253052e-01
5.580741912126541138e-02
-1.062959879636764526e-01
1.567684710025787354e-01
1.800814419984817505e-01
4.234526678919792175e-02
-1.783642023801803589e-01
-2.525488436222076416e-01
6.160935759544372559e-02
-2.705996632575988770e-01
-9.609130769968032837e-02
-1.077411249279975891e-01
6.375454831868410110e-03
-1.083084940910339355e-01
5.746351182460784912e-02
-5.825351923704147339e-02
-5.992252752184867859e-02
-1.293257176876068115e-01
-1.290332619100809097e-02
-2.493144385516643524e-02
-2.217862308025360107e-01
-3.946076612919569016e-03
1.494679898023605347e-01
3.674324154853820801e-01
-9.853840619325637817e-02
-1.096325218677520752e-01
-3.001482188701629639e-01
-2.206444591283798218e-01
2.060504704713821411e-01
-3.948885202407836914e-02
-1.187286153435707092e-01
-3.876733034849166870e-02
-1.706939935684204102e-01
-1.158400923013687134e-01
-1.577513813972473145e-01
-2.396101057529449463e-01
8.258961886167526245e-02
6.820750981569290161e-02
5.444966629147529602e-02
-3.194448053836822510e-01
2.215738743543624878e-01
-1.324424594640731812e-01
-1.967000812292098999e-01
-1.631038961932063103e-03
7.744454592466354370e-02
2.227360606193542480e-01
8.407536894083023071e-02
-9.103649295866489410e-03
1.569292042404413223e-03
-1.040487736463546753e-01
-1.620653420686721802e-01
-5.939316004514694214e-02
-4.295814409852027893e-02
9.945157170295715332e-02
-1.098054200410842896e-01
1.395675260573625565e-02
-9.215062856674194336e-02
-9.768088161945343018e-02
6.886786222457885742e-02
1.908818334341049194e-01
-5.008255690336227417e-02
2.841766476631164551e-01
-2.058818489313125610e-01
7.168410811573266983e-03
1.582679301500320435e-01
-9.476447850465774536e-02
-4.620919376611709595e-02
-5.563567578792572021e-02
8.384802192449569702e-02
6.622430682182312012e-02
-4.483284801244735718e-02
-2.612912356853485107e-01
3.955398499965667725e-02
-2.157403826713562012e-01
-3.423605263233184814e-01
2.466649115085601807e-01
3.445179164409637451e-01
9.799531847238540649e-02
3.861546888947486877e-02
-1.876376196742057800e-02
2.490732520818710327e-01
5.699305608868598938e-02
-1.207631826400756836e-01
-3.672303557395935059e-01
-2.237834222614765167e-02
2.833557780832052231e-03
2.236695736646652222e-01
-1.348987370729446411e-01
1.299124490469694138e-02
6.162035092711448669e-02
2.332744598388671875e-01
9.272252768278121948e-02
1.695932149887084961e-01
2.301889359951019287e-01
-1.035876478999853134e-02
2.145476341247558594e-01
1.287914663553237915e-01
1.863505840301513672e-01
-1.269592940807342529e-01
4.163306206464767456e-02
