-0.000000000000000000e+00 0.000000000000000000e+00 -0.000000000000000000e+00 -0.000000000000000000e+00 -0.000000000000000000e+00 0.000000000000000000e+00 -0.000000000000000000e+00 0.000000000000000000e+00 -0.000000000000000000e+00 -0.000000000000000000e+00 0.000000000000000000e+00 -0.000000000000000000e+00 -0.000000000000000000e+00 -0.000000000000000000e+00 -0.000000000000000000e+00 0.000000000000000000e+00 0.000000000000000000e+00 0.000000000000000000e+00 -0.000000000000000000e+00 0.000000000000000000e+00 0.000000000000000000e+00 -0.000000000000000000e+00 0.000000000000000000e+00 0.000000000000000000e+00 -0.000000000000000000e+00 -0.000000000000000000e+00 -0.000000000000000000e+00 -0.000000000000000000e+00 -0.000000000000000000e+00 0.000000000000000000e+00 0.000000000000000000e+00 -0.000000000000000000e+00 -0.000000000000000000e+00 0.000000000000000000e+00 -0.000000000000000000e+00 -0.000000000000000000e+00 -0.000000000000000000e+00 0.000000000000000000e+00 0.000000000000000000e+00 -0.000000000000000000e+00 -0.000000000000000000e+00 0.000000000000000000e+00 -0.000000000000000000e+00 0.000000000000000000e+00 0.000000000000000000e+00 0.000000000000000000e+00 0.000000000000000000e+00 0.000000000000000000e+00 0.000000000000000000e+00 -0.000000000000000000e+00 -0.000000000000000000e+00 0.000000000000000000e+00 -0.000000000000000000e+00 -0.000000000000000000e+00 -0.000000000000000000e+00 0.000000000000000000e+00 0.000000000000000000e+00 -0.000000000000000000e+00 0.000000000000000000e+00 -0.000000000000000000e+00 0.000000000000000000e+00 -0.000000000000000000e+00 -0.000000000000000000e+00 0.000000000000000000e+00 6.907159928232431412e-03 7.371240761131048203e-03 6.048410665243864059e-03 7.936676964163780212e-03 -6.816332694143056870e-03 7.004708517342805862e-03 6.979060824960470200e-03 7.725882809609174728e-03 8.742087520658969879e-03 7.996207103133201599e-03 6.660735234618186951e-03 6.796207744628190994e-03 8.330153301358222961e-03 5.866804625838994980e-03 7.395910564810037613e-03 9.593076072633266449e-03 6.273044738918542862e-03 7.689550053328275681e-03 7.102932315319776535e-03 6.880755070596933365e-03 6.217657588422298431e-03 8.834687992930412292e-03 7.338470313698053360e-03 6.676836404949426651e-03 6.125491112470626831e-03 6.805727258324623108e-03 7.457275874912738800e-03 -7.515843026340007782e-03 7.112378720194101334e-03 6.932071875780820847e-03 6.871874909847974777e-03 6.992690730839967728e-03 7.781863678246736526e-03 7.843372412025928497e-03 5.765678361058235168e-03 7.278553210198879242e-03 6.895500235259532928e-03 6.338035222142934799e-03 7.747625000774860382e-03 -5.533205345273017883e-03 7.184770889580249786e-03 6.856903433799743652e-03 7.049560546875000000e-03 7.024076301604509354e-03 6.099498365074396133e-03 6.878579501062631607e-03 5.714104510843753815e-03 7.115487009286880493e-03 7.923915050923824310e-03 7.101493887603282928e-03 6.262791808694601059e-03 5.915653426200151443e-03 6.587832700461149216e-03 6.433143280446529388e-03 7.452298421412706375e-03 6.893838290125131607e-03 6.780840456485748291e-03 8.843495510518550873e-03 8.496930822730064392e-03 8.866921998560428619e-03 -4.637273028492927551e-03 7.515937089920043945e-03 6.598622072488069534e-03 6.278121843934059143e-03
0.000000000000000000e+00 0.000000000000000000e+00 -0.000000000000000000e+00 0.000000000000000000e+00 0.000000000000000000e+00 -0.000000000000000000e+00 0.000000000000000000e+00 -0.000000000000000000e+00 -0.000000000000000000e+00 -0.000000000000000000e+00 -0.000000000000000000e+00 -0.000000000000000000e+00 0.000000000000000000e+00 0.000000000000000000e+00 0.000000000000000000e+00 0.000000000000000000e+00 -0.000000000000000000e+00 -0.000000000000000000e+00 0.000000000000000000e+00 -0.000000000000000000e+00 0.000000000000000000e+00 -0.000000000000000000e+00 0.000000000000000000e+00 -0.000000000000000000e+00 -0.000000000000000000e+00 0.000000000000000000e+00 0.000000000000000000e+00 0.000000000000000000e+00 0.000000000000000000e+00 -0.000000000000000000e+00 -0.000000000000000000e+00 -0.000000000000000000e+00 0.000000000000000000e+00 0.000000000000000000e+00 0.000000000000000000e+00 0.000000000000000000e+00 0.000000000000000000e+00 -0.000000000000000000e+00 0.000000000000000000e+00 -0.000000000000000000e+00 -0.000000000000000000e+00 -0.000000000000000000e+00 0.000000000000000000e+00 0.000000000000000000e+00 -0.000000000000000000e+00 -0.000000000000000000e+00 0.000000000000000000e+00 -0.000000000000000000e+00 0.000000000000000000e+00 0.000000000000000000e+00 -0.000000000000000000e+00 -0.000000000000000000e+00 0.000000000000000000e+00 -0.000000000000000000e+00 -0.000000000000000000e+00 -0.000000000000000000e+00 -0.000000000000000000e+00 -0.000000000000000000e+00 -0.000000000000000000e+00 0.000000000000000000e+00 -0.000000000000000000e+00 0.000000000000000000e+00 -0.000000000000000000e+00 0.000000000000000000e+00 -1.277683477383106947e-04 3.346874727867543697e-04 3.794913645833730698e-04 -8.020673703867942095e-05 1.598484232090413570e-03 2.940536614914890379e-05 5.468119707074947655e-05 2.306686219526454806e-04 1.115333172492682934e-03 3.357732435688376427e-03 -1.021497664623893797e-04 2.858159423340111971e-04 6.677941884845495224e-03 1.564149424666538835e-04 -5.754682570113800466e-05 5.079887923784554005e-04 -7.872791029512882233e-04 1.018691342324018478e-03 -1.063047442585229874e-03 -3.327778249513357878e-04 7.171862671384587884e-05 2.249194774776697159e-03 -6.468736683018505573e-04 -1.497770426794886589e-04 -1.003225406748242676e-04 1.823962811613455415e-04 5.519542537513189018e-05 1.465240609832108021e-03 -2.182673233619425446e-05 2.162588061764836311e-04 -5.950090126134455204e-04 4.032879951409995556e-04 -6.531742983497679234e-04 -2.319491431990172714e-05 -4.406288207974284887e-04 1.973787293536588550e-04 4.289813296054489911e-05 1.536577328806743026e-04 -2.235338179161772132e-04 1.314394408836960793e-03 -3.163524961564689875e-04 1.155800709966570139e-04 2.505837301214342006e-06 -7.701779395574703813e-05 4.886555325356312096e-05 -2.861607645172625780e-04 -1.523992614238522947e-05 -4.209407779853790998e-05 -1.781115861376747489e-04 1.507967972429469228e-04 2.299214102094992995e-04 -1.075628460966981947e-04 -1.075888030754867941e-05 3.070538165047764778e-03 4.678758559748530388e-04 -1.044443633873015642e-04 1.287730847252532840e-04 -1.126960036344826221e-03 -6.000444991514086723e-04 -7.555948104709386826e-04 1.014852081425487995e-03 -2.888930903282016516e-04 1.834103750297799706e-04 4.983390681445598602e-05
0.000000000000000000e+00 0.000000000000000000e+00 -0.000000000000000000e+00 -0.000000000000000000e+00 -0.000000000000000000e+00 0.000000000000000000e+00 0.000000000000000000e+00 0.000000000000000000e+00 0.000000000000000000e+00 -0.000000000000000000e+00 0.000000000000000000e+00 -0.000000000000000000e+00 0.000000000000000000e+00 0.000000000000000000e+00 -0.000000000000000000e+00 -0.000000000000000000e+00 0.000000000000000000e+00 -0.000000000000000000e+00 0.000000000000000000e+00 0.000000000000000000e+00 0.000000000000000000e+00 0.000000000000000000e+00 -0.000000000000000000e+00 0.000000000000000000e+00 0.000000000000000000e+00 -0.000000000000000000e+00 0.000000000000000000e+00 0.000000000000000000e+00 -0.000000000000000000e+00 0.000000000000000000e+00 -0.000000000000000000e+00 -0.000000000000000000e+00 0.000000000000000000e+00 0.000000000000000000e+00 0.000000000000000000e+00 0.000000000000000000e+00 0.000000000000000000e+00 -0.000000000000000000e+00 0.000000000000000000e+00 0.000000000000000000e+00 0.000000000000000000e+00 0.000000000000000000e+00 0.000000000000000000e+00 -0.000000000000000000e+00 -0.000000000000000000e+00 0.000000000000000000e+00 -0.000000000000000000e+00 -0.000000000000000000e+00 0.000000000000000000e+00 -0.000000000000000000e+00 -0.000000000000000000e+00 0.000000000000000000e+00 0.000000000000000000e+00 -0.000000000000000000e+00 0.000000000000000000e+00 0.000000000000000000e+00 0.000000000000000000e+00 -0.000000000000000000e+00 -0.000000000000000000e+00 -0.000000000000000000e+00 -0.000000000000000000e+00 -0.000000000000000000e+00 0.000000000000000000e+00 -0.000000000000000000e+00 6.894239690154790878e-03 7.350106257945299149e-03 6.044111680239439011e-03 7.940707728266716003e-03 -6.842810660600662231e-03 7.004236336797475815e-03 6.975883617997169495e-03 7.735910825431346893e-03 8.738094009459018707e-03 8.023888804018497467e-03 6.689120084047317505e-03 6.803848780691623688e-03 8.349251933395862579e-03 5.864642560482025146e-03 7.390130776911973953e-03 9.586114436388015747e-03 6.275877356529235840e-03 7.700272835791110992e-03 7.076168432831764221e-03 6.865909788757562637e-03 6.215257570147514343e-03 8.832995779812335968e-03 7.406639866530895233e-03 6.680641788989305496e-03 6.134273950010538101e-03 6.818368565291166306e-03 7.454331032931804657e-03 -7.510284427553415298e-03 7.112015038728713989e-03 6.942410022020339966e-03 6.900453008711338043e-03 6.981879938393831253e-03 7.828043773770332336e-03 7.837930694222450256e-03 5.724979098886251450e-03 7.286208681762218475e-03 6.894885562360286713e-03 6.328082643449306488e-03 7.762274704873561859e-03 -5.562348756939172745e-03 7.160914130508899689e-03 6.871034856885671616e-03 7.041120436042547226e-03 7.014107424765825272e-03 6.104575004428625107e-03 6.882411427795886993e-03 5.730264820158481598e-03 7.115210872143507004e-03 7.937007583677768707e-03 7.090488448739051819e-03 6.253907456994056702e-03 5.940742325037717819e-03 6.582483183592557907e-03 6.438113283365964890e-03 7.472079247236251831e-03 6.887526251375675201e-03 6.792707368731498718e-03 8.842643350362777710e-03 8.481265045702457428e-03 8.880056440830230713e-03 -4.634987562894821167e-03 7.501345127820968628e-03 6.605365313589572906e-03 6.281070411205291748e-03
-0.000000000000000000e+00 0.000000000000000000e+00 -0.000000000000000000e+00 0.000000000000000000e+00 -0.000000000000000000e+00 0.000000000000000000e+00 -0.000000000000000000e+00 -0.000000000000000000e+00 -0.000000000000000000e+00 -0.000000000000000000e+00 -0.000000000000000000e+00 0.000000000000000000e+00 -0.000000000000000000e+00 0.000000000000000000e+00 -0.000000000000000000e+00 0.000000000000000000e+00 -0.000000000000000000e+00 0.000000000000000000e+00 0.000000000000000000e+00 0.000000000000000000e+00 -0.000000000000000000e+00 0.000000000000000000e+00 -0.000000000000000000e+00 -0.000000000000000000e+00 0.000000000000000000e+00 0.000000000000000000e+00 -0.000000000000000000e+00 -0.000000000000000000e+00 -0.000000000000000000e+00 0.000000000000000000e+00 -0.000000000000000000e+00 -0.000000000000000000e+00 0.000000000000000000e+00 0.000000000000000000e+00 -0.000000000000000000e+00 -0.000000000000000000e+00 0.000000000000000000e+00 -0.000000000000000000e+00 0.000000000000000000e+00 -0.000000000000000000e+00 0.000000000000000000e+00 -0.000000000000000000e+00 -0.000000000000000000e+00 -0.000000000000000000e+00 0.000000000000000000e+00 -0.000000000000000000e+00 0.000000000000000000e+00 0.000000000000000000e+00 0.000000000000000000e+00 0.000000000000000000e+00 0.000000000000000000e+00 -0.000000000000000000e+00 0.000000000000000000e+00 0.000000000000000000e+00 0.000000000000000000e+00 -0.000000000000000000e+00 -0.000000000000000000e+00 -0.000000000000000000e+00 0.000000000000000000e+00 0.000000000000000000e+00 0.000000000000000000e+00 -0.000000000000000000e+00 -0.000000000000000000e+00 0.000000000000000000e+00 1.386126154102385044e-03 1.423829933628439903e-03 1.447588205337524414e-03 1.370659912936389446e-03 1.434266567230224609e-03 1.405819552019238472e-03 1.395722734741866589e-03 1.380337402224540710e-03 1.388911157846450806e-03 1.341808238066732883e-03 1.375040505081415176e-03 1.437749131582677364e-03 1.363744493573904037e-03 1.416482147760689259e-03 1.366946031339466572e-03 1.343114650808274746e-03 1.355513231828808784e-03 1.306170248426496983e-03 7.252283976413309574e-04 1.428311807103455067e-03 1.405803835950791836e-03 1.255736919119954109e-03 1.118012238293886185e-03 1.318883849307894707e-03 1.371432677842676640e-03 1.411349629051983356e-03 1.393763115629553795e-03 1.417507068254053593e-03 1.381148467771708965e-03 1.414294005371630192e-03 1.181907136924564838e-03 1.439346699044108391e-03 1.206934684887528419e-03 1.394884660840034485e-03 1.337561639957129955e-03 1.372291240841150284e-03 1.348991063423454762e-03 1.412277109920978546e-03 1.314085675403475761e-03 1.357302884571254253e-03 1.328095793724060059e-03 1.407808507792651653e-03 1.376103609800338745e-03 1.359451329335570335e-03 1.410253229551017284e-03 1.329756341874599457e-03 1.438232720829546452e-03 1.396979321725666523e-03 1.305777695961296558e-03 1.438264851458370686e-03 1.428696908988058567e-03 1.348934136331081390e-03 1.369639416225254536e-03 1.453586970455944538e-03 1.305203535594046116e-03 1.332610379904508591e-03 1.399360829964280128e-03 1.462678075768053532e-03 1.399927888996899128e-03 1.439409446902573109e-03 1.426066504791378975e-03 1.341111259534955025e-03 1.429027528502047062e-03 1.396392821334302425e-03
0.000000000000000000e+00 -0.000000000000000000e+00 -0.000000000000000000e+00 -0.000000000000000000e+00 -0.000000000000000000e+00 -0.000000000000000000e+00 0.000000000000000000e+00 -0.000000000000000000e+00 -0.000000000000000000e+00 0.000000000000000000e+00 0.000000000000000000e+00 0.000000000000000000e+00 -0.000000000000000000e+00 -0.000000000000000000e+00 0.000000000000000000e+00 0.000000000000000000e+00 0.000000000000000000e+00 -0.000000000000000000e+00 0.000000000000000000e+00 0.000000000000000000e+00 -0.000000000000000000e+00 -0.000000000000000000e+00 -0.000000000000000000e+00 -0.000000000000000000e+00 0.000000000000000000e+00 -0.000000000000000000e+00 -0.000000000000000000e+00 0.000000000000000000e+00 -0.000000000000000000e+00 0.000000000000000000e+00 0.000000000000000000e+00 0.000000000000000000e+00 0.000000000000000000e+00 -0.000000000000000000e+00 -0.000000000000000000e+00 -0.000000000000000000e+00 0.000000000000000000e+00 0.000000000000000000e+00 -0.000000000000000000e+00 -0.000000000000000000e+00 -0.000000000000000000e+00 0.000000000000000000e+00 0.000000000000000000e+00 0.000000000000000000e+00 0.000000000000000000e+00 -0.000000000000000000e+00 0.000000000000000000e+00 0.000000000000000000e+00 0.000000000000000000e+00 0.000000000000000000e+00 0.000000000000000000e+00 0.000000000000000000e+00 -0.000000000000000000e+00 -0.000000000000000000e+00 -0.000000000000000000e+00 0.000000000000000000e+00 -0.000000000000000000e+00 -0.000000000000000000e+00 0.000000000000000000e+00 0.000000000000000000e+00 0.000000000000000000e+00 -0.000000000000000000e+00 0.000000000000000000e+00 0.000000000000000000e+00 6.877040024846792221e-03 7.316268049180507660e-03 6.041339598596096039e-03 7.907440885901451111e-03 -6.679691374301910400e-03 6.968104280531406403e-03 6.891629658639431000e-03 7.744763046503067017e-03 8.710322901606559753e-03 7.884413003921508789e-03 6.574683357030153275e-03 6.804394070059061050e-03 8.314951322972774506e-03 5.848168395459651947e-03 7.247474510222673416e-03 9.499090723693370819e-03 6.234542001038789749e-03 7.518665399402379990e-03 6.907578557729721069e-03 6.847942713648080826e-03 6.266773212701082230e-03 8.618411608040332794e-03 6.983839906752109528e-03 6.455533672124147415e-03 6.087168585509061813e-03 6.783527787774801254e-03 7.415967527776956558e-03 -7.401631679385900497e-03 7.026548031717538834e-03 6.907897070050239563e-03 6.604306399822235107e-03 6.970228161662817001e-03 7.406841497868299484e-03 7.850295864045619965e-03 5.600996781140565872e-03 7.268299348652362823e-03 6.735668517649173737e-03 6.318897474557161331e-03 7.796335499733686447e-03 -5.300536286085844040e-03 6.944644264876842499e-03 6.797651294618844986e-03 6.884216796606779099e-03 6.885415874421596527e-03 6.058639381080865860e-03 6.746693048626184464e-03 5.732126068323850632e-03 7.026739418506622314e-03 7.851427420973777771e-03 7.064896170049905777e-03 6.307591684162616730e-03 5.800175014883279800e-03 6.457532290369272232e-03 6.496090441942214966e-03 7.219379767775535583e-03 6.973582785576581955e-03 6.752144545316696167e-03 8.854594081640243530e-03 8.495150133967399597e-03 8.889860473573207855e-03 -4.553663544356822968e-03 7.380960974842309952e-03 6.563129369169473648e-03 6.262155249714851379e-03
0.000000000000000000e+00 -0.000000000000000000e+00 0.000000000000000000e+00 -0.000000000000000000e+00 -0.000000000000000000e+00 -0.000000000000000000e+00 -0.000000000000000000e+00 -0.000000000000000000e+00 -0.000000000000000000e+00 0.000000000000000000e+00 0.000000000000000000e+00 -0.000000000000000000e+00 -0.000000000000000000e+00 -0.000000000000000000e+00 -0.000000000000000000e+00 0.000000000000000000e+00 -0.000000000000000000e+00 0.000000000000000000e+00 0.000000000000000000e+00 0.000000000000000000e+00 0.000000000000000000e+00 0.000000000000000000e+00 0.000000000000000000e+00 0.000000000000000000e+00 0.000000000000000000e+00 0.000000000000000000e+00 0.000000000000000000e+00 0.000000000000000000e+00 -0.000000000000000000e+00 0.000000000000000000e+00 -0.000000000000000000e+00 -0.000000000000000000e+00 -0.000000000000000000e+00 -0.000000000000000000e+00 -0.000000000000000000e+00 -0.000000000000000000e+00 0.000000000000000000e+00 -0.000000000000000000e+00 0.000000000000000000e+00 0.000000000000000000e+00 -0.000000000000000000e+00 -0.000000000000000000e+00 -0.000000000000000000e+00 0.000000000000000000e+00 0.000000000000000000e+00 -0.000000000000000000e+00 -0.000000000000000000e+00 0.000000000000000000e+00 -0.000000000000000000e+00 0.000000000000000000e+00 -0.000000000000000000e+00 0.000000000000000000e+00 -0.000000000000000000e+00 0.000000000000000000e+00 -0.000000000000000000e+00 -0.000000000000000000e+00 0.000000000000000000e+00 -0.000000000000000000e+00 -0.000000000000000000e+00 0.000000000000000000e+00 -0.000000000000000000e+00 -0.000000000000000000e+00 -0.000000000000000000e+00 0.000000000000000000e+00 9.612296707928180695e-04 1.229486078955233097e-03 1.343029201962053776e-03 1.021408708766102791e-03 1.278535230085253716e-03 1.178968115709722042e-03 1.156133250333368778e-03 1.050406601279973984e-03 1.268678694032132626e-03 1.113482634536921978e-03 1.070799073204398155e-03 1.348744379356503487e-03 1.114025129936635494e-03 1.276156865060329437e-03 1.270897453650832176e-03 8.012200123630464077e-04 1.187522429972887039e-03 -9.721106616780161858e-04 -1.180961378850042820e-03 1.157667837105691433e-03 1.354854553937911987e-03 9.770063916221261024e-04 -1.081631984561681747e-03 7.055583409965038300e-04 1.176709309220314026e-03 1.153630670160055161e-03 1.024808152578771114e-03 1.316433306783437729e-03 1.229306217283010483e-03 1.176744699478149414e-03 -9.739491506479680538e-04 1.314406166784465313e-03 -6.815700908191502094e-04 1.237459131516516209e-03 -9.502851171419024467e-04 9.752609767019748688e-04 -8.843046962283551693e-04 1.180083025246858597e-03 9.010119829326868057e-04 1.151593285612761974e-03 4.171323380433022976e-04 1.270955544896423817e-03 -6.106656510382890701e-04 1.256713410839438438e-03 1.283695688471198082e-03 9.528914233669638634e-04 1.334575586952269077e-03 1.235157134942710400e-03 1.040373230352997780e-03 1.316019333899021149e-03 1.352412160485982895e-03 -1.072501530870795250e-03 3.715703787747770548e-04 1.362717244774103165e-03 1.114181708544492722e-03 -3.810087218880653381e-04 1.159254112280905247e-03 1.340701128356158733e-03 1.311271684244275093e-03 1.358278561383485794e-03 1.234089606441557407e-03 9.516683057881891727e-04 1.170075964182615280e-03 6.481321179307997227e-04
-0.000000000000000000e+00 -0.000000000000000000e+00 -0.000000000000000000e+00 0.000000000000000000e+00 -0.000000000000000000e+00 0.000000000000000000e+00 -0.000000000000000000e+00 -0.000000000000000000e+00 0.000000000000000000e+00 0.000000000000000000e+00 0.000000000000000000e+00 -0.000000000000000000e+00 0.000000000000000000e+00 0.000000000000000000e+00 -0.000000000000000000e+00 -0.000000000000000000e+00 0.000000000000000000e+00 0.000000000000000000e+00 0.000000000000000000e+00 0.000000000000000000e+00 0.000000000000000000e+00 -0.000000000000000000e+00 0.000000000000000000e+00 0.000000000000000000e+00 -0.000000000000000000e+00 0.000000000000000000e+00 0.000000000000000000e+00 -0.000000000000000000e+00 0.000000000000000000e+00 -0.000000000000000000e+00 -0.000000000000000000e+00 -0.000000000000000000e+00 0.000000000000000000e+00 0.000000000000000000e+00 0.000000000000000000e+00 -0.000000000000000000e+00 -0.000000000000000000e+00 0.000000000000000000e+00 -0.000000000000000000e+00 -0.000000000000000000e+00 0.000000000000000000e+00 0.000000000000000000e+00 -0.000000000000000000e+00 -0.000000000000000000e+00 -0.000000000000000000e+00 -0.000000000000000000e+00 -0.000000000000000000e+00 0.000000000000000000e+00 0.000000000000000000e+00 0.000000000000000000e+00 -0.000000000000000000e+00 -0.000000000000000000e+00 0.000000000000000000e+00 -0.000000000000000000e+00 0.000000000000000000e+00 0.000000000000000000e+00 0.000000000000000000e+00 0.000000000000000000e+00 -0.000000000000000000e+00 -0.000000000000000000e+00 0.000000000000000000e+00 0.000000000000000000e+00 0.000000000000000000e+00 -0.000000000000000000e+00 6.881163921207189560e-03 7.364740129560232162e-03 6.030788645148277283e-03 7.937127724289894104e-03 -6.886891089379787445e-03 7.007095962762832642e-03 6.992028094828128815e-03 7.720840629190206528e-03 8.740828372538089752e-03 8.066287264227867126e-03 6.712597794830799103e-03 6.794936023652553558e-03 8.325830101966857910e-03 5.865547340363264084e-03 7.421045098453760147e-03 9.614435955882072449e-03 6.276534404605627060e-03 7.718812208622694016e-03 7.178114261478185654e-03 6.867583375424146652e-03 6.195315625518560410e-03 8.929206989705562592e-03 7.536155171692371368e-03 6.757488008588552475e-03 6.123695056885480881e-03 6.799570750445127487e-03 7.493418641388416290e-03 -7.573158480226993561e-03 7.132159546017646790e-03 6.917988881468772888e-03 7.016879040747880936e-03 6.990951485931873322e-03 7.988303899765014648e-03 7.824700325727462769e-03 5.816651042550802231e-03 7.276838645339012146e-03 6.946116220206022263e-03 6.326866801828145981e-03 7.742622867226600647e-03 -5.642096512019634247e-03 7.229054812341928482e-03 6.875795312225818634e-03 7.075864356011152267e-03 7.041716482490301132e-03 6.095525808632373810e-03 6.930276285856962204e-03 5.698794964700937271e-03 7.139143068343400955e-03 7.950196973979473114e-03 7.102146744728088379e-03 6.248370278626680374e-03 5.941085983067750931e-03 6.616407539695501328e-03 6.416102405637502670e-03 7.532743271440267563e-03 6.842351984232664108e-03 6.781501229852437973e-03 8.796578273177146912e-03 8.490723557770252228e-03 8.870481513440608978e-03 -4.682489205151796341e-03 7.556713186204433441e-03 6.597518920898437500e-03 6.276633124798536301e-03
-0.000000000000000000e+00 -0.000000000000000000e+00 0.000000000000000000e+00 -0.000000000000000000e+00 0.000000000000000000e+00 0.000000000000000000e+00 0.000000000000000000e+00 0.000000000000000000e+00 -0.000000000000000000e+00 -0.000000000000000000e+00 -0.000000000000000000e+00 -0.000000000000000000e+00 -0.000000000000000000e+00 -0.000000000000000000e+00 -0.000000000000000000e+00 0.000000000000000000e+00 0.000000000000000000e+00 0.000000000000000000e+00 0.000000000000000000e+00 0.000000000000000000e+00 -0.000000000000000000e+00 0.000000000000000000e+00 -0.000000000000000000e+00 0.000000000000000000e+00 0.000000000000000000e+00 0.000000000000000000e+00 -0.000000000000000000e+00 -0.000000000000000000e+00 0.000000000000000000e+00 0.000000000000000000e+00 0.000000000000000000e+00 -0.000000000000000000e+00 0.000000000000000000e+00 0.000000000000000000e+00 0.000000000000000000e+00 -0.000000000000000000e+00 -0.000000000000000000e+00 -0.000000000000000000e+00 0.000000000000000000e+00 -0.000000000000000000e+00 0.000000000000000000e+00 -0.000000000000000000e+00 0.000000000000000000e+00 -0.000000000000000000e+00 -0.000000000000000000e+00 0.000000000000000000e+00 0.000000000000000000e+00 -0.000000000000000000e+00 -0.000000000000000000e+00 -0.000000000000000000e+00 -0.000000000000000000e+00 -0.000000000000000000e+00 0.000000000000000000e+00 -0.000000000000000000e+00 0.000000000000000000e+00 -0.000000000000000000e+00 -0.000000000000000000e+00 -0.000000000000000000e+00 0.000000000000000000e+00 0.000000000000000000e+00 -0.000000000000000000e+00 -0.000000000000000000e+00 0.000000000000000000e+00 -0.000000000000000000e+00 -1.096157429856248200e-04 9.489194781053811312e-05 -1.577923831064254045e-04 -1.445426896680146456e-04 1.008423787425272167e-04 -1.265182800125330687e-04 -2.067515306407585740e-04 -2.160262811230495572e-04 1.449226983822882175e-04 7.081760122673586011e-05 7.713372906437143683e-05 -1.302774326177313924e-04 8.485466969432309270e-05 -1.712755620246753097e-04 6.092507101129740477e-05 5.492275886354036629e-05 1.210038535646162927e-04 3.691305391839705408e-05 -2.188286889577284455e-04 1.408575189998373389e-04 1.099191213143058121e-04 -2.019875537371262908e-04 -1.286910119233652949e-04 1.005531157716177404e-04 -1.654330699238926172e-04 -2.133893431164324284e-04 -1.295815163757652044e-04 6.703313556499779224e-05 2.166656122426502407e-05 -1.282707526115700603e-04 1.118800937547348440e-04 -1.378327287966385484e-04 -2.300342166563495994e-04 1.206775923492386937e-04 -1.410181284882128239e-04 -1.470214338041841984e-04 -9.645908721722662449e-05 1.220534759340807796e-04 -2.566447947174310684e-04 -1.322720054304227233e-04 -1.524276158306747675e-04 5.178649735171347857e-05 -1.477477635489776731e-04 -9.002867591334506869e-05 8.501780393999069929e-05 1.037828769767656922e-04 -7.107770215952768922e-05 1.468687696615234017e-04 -1.717611739877611399e-04 -2.138821146218106151e-04 -1.659226691117510200e-04 1.295056281378492713e-04 -1.428916293662041426e-04 9.915568807628005743e-05 -2.192503743572160602e-04 -1.255798706552013755e-04 -1.587347069289535284e-04 -1.055793545674532652e-04 1.389682001899927855e-04 1.013926666928455234e-04 1.407926029060035944e-04 4.963902756571769714e-05 -1.532202732050791383e-04 -1.464935339754447341e-04
-0.000000000000000000e+00 -0.000000000000000000e+00 0.000000000000000000e+00 -0.000000000000000000e+00 0.000000000000000000e+00 -0.000000000000000000e+00 0.000000000000000000e+00 -0.000000000000000000e+00 -0.000000000000000000e+00 -0.000000000000000000e+00 -0.000000000000000000e+00 0.000000000000000000e+00 -0.000000000000000000e+00 0.000000000000000000e+00 -0.000000000000000000e+00 -0.000000000000000000e+00 -0.000000000000000000e+00 0.000000000000000000e+00 0.000000000000000000e+00 0.000000000000000000e+00 -0.000000000000000000e+00 -0.000000000000000000e+00 0.000000000000000000e+00 0.000000000000000000e+00 0.000000000000000000e+00 -0.000000000000000000e+00 0.000000000000000000e+00 -0.000000000000000000e+00 0.000000000000000000e+00 -0.000000000000000000e+00 -0.000000000000000000e+00 -0.000000000000000000e+00 0.000000000000000000e+00 -0.000000000000000000e+00 0.000000000000000000e+00 -0.000000000000000000e+00 -0.000000000000000000e+00 0.000000000000000000e+00 -0.000000000000000000e+00 0.000000000000000000e+00 0.000000000000000000e+00 -0.000000000000000000e+00 -0.000000000000000000e+00 -0.000000000000000000e+00 0.000000000000000000e+00 0.000000000000000000e+00 -0.000000000000000000e+00 0.000000000000000000e+00 -0.000000000000000000e+00 0.000000000000000000e+00 -0.000000000000000000e+00 0.000000000000000000e+00 -0.000000000000000000e+00 -0.000000000000000000e+00 0.000000000000000000e+00 -0.000000000000000000e+00 0.000000000000000000e+00 0.000000000000000000e+00 0.000000000000000000e+00 0.000000000000000000e+00 -0.000000000000000000e+00 -0.000000000000000000e+00 0.000000000000000000e+00 0.000000000000000000e+00 7.985229603946208954e-03 1.165518630295991898e-02 1.237157173454761505e-02 8.810842409729957581e-03 -6.956351920962333679e-03 1.022927835583686829e-02 1.050538569688796997e-02 8.192323148250579834e-03 1.140843518078327179e-02 9.998818859457969666e-03 1.016727183014154434e-02 9.895303286612033844e-03 8.375464938580989838e-03 1.008106023073196411e-02 1.036854740232229233e-02 1.156495139002799988e-02 8.759482763707637787e-03 9.445853531360626221e-03 7.704385556280612946e-03 1.021253783255815506e-02 6.886442657560110092e-03 9.646683931350708008e-03 8.681990206241607666e-03 9.169682860374450684e-03 7.981696166098117828e-03 8.529436774551868439e-03 7.938874885439872742e-03 -8.060164749622344971e-03 9.983041323721408844e-03 9.930551983416080475e-03 7.998568005859851837e-03 1.048225257545709610e-02 9.434097446501255035e-03 7.534520234912633896e-03 8.092964999377727509e-03 8.393503725528717041e-03 9.410568512976169586e-03 9.246947243809700012e-03 7.770860102027654648e-03 -7.202269043773412704e-03 9.777284227311611176e-03 1.128998305648565292e-02 9.894803166389465332e-03 9.688736870884895325e-03 8.987110108137130737e-03 8.273980580270290375e-03 9.096794761717319489e-03 8.449770510196685791e-03 7.034049835056066513e-03 1.020462065935134888e-02 8.031069301068782806e-03 8.829418569803237915e-03 9.357243776321411133e-03 5.915772635489702225e-03 1.063886284828186035e-02 6.365643348544836044e-03 1.042902283370494843e-02 1.181916333734989166e-02 9.366063401103019714e-03 1.283026952296495438e-02 -3.336082911118865013e-03 8.714860305190086365e-03 1.086640916764736176e-02 8.353928104043006897e-03
-0.000000000000000000e+00 -0.000000000000000000e+00 0.000000000000000000e+00 0.000000000000000000e+00 0.000000000000000000e+00 -0.000000000000000000e+00 0.000000000000000000e+00 0.000000000000000000e+00 -0.000000000000000000e+00 -0.000000000000000000e+00 -0.000000000000000000e+00 0.000000000000000000e+00 0.000000000000000000e+00 -0.000000000000000000e+00 0.000000000000000000e+00 0.000000000000000000e+00 -0.000000000000000000e+00 0.000000000000000000e+00 -0.000000000000000000e+00 -0.000000000000000000e+00 0.000000000000000000e+00 -0.000000000000000000e+00 0.000000000000000000e+00 0.000000000000000000e+00 -0.000000000000000000e+00 -0.000000000000000000e+00 -0.000000000000000000e+00 0.000000000000000000e+00 0.000000000000000000e+00 -0.000000000000000000e+00 -0.000000000000000000e+00 -0.000000000000000000e+00 -0.000000000000000000e+00 0.000000000000000000e+00 -0.000000000000000000e+00 -0.000000000000000000e+00 -0.000000000000000000e+00 -0.000000000000000000e+00 -0.000000000000000000e+00 0.000000000000000000e+00 -0.000000000000000000e+00 -0.000000000000000000e+00 -0.000000000000000000e+00 -0.000000000000000000e+00 -0.000000000000000000e+00 -0.000000000000000000e+00 0.000000000000000000e+00 -0.000000000000000000e+00 0.000000000000000000e+00 0.000000000000000000e+00 0.000000000000000000e+00 -0.000000000000000000e+00 -0.000000000000000000e+00 -0.000000000000000000e+00 -0.000000000000000000e+00 -0.000000000000000000e+00 -0.000000000000000000e+00 0.000000000000000000e+00 -0.000000000000000000e+00 0.000000000000000000e+00 -0.000000000000000000e+00 0.000000000000000000e+00 -0.000000000000000000e+00 0.000000000000000000e+00 1.413418678566813469e-03 1.443763729184865952e-03 1.463574008084833622e-03 1.397793414071202278e-03 1.459381193853914738e-03 1.425952534191310406e-03 1.428307732567191124e-03 1.415461534634232521e-03 1.400135573931038380e-03 1.387188443914055824e-03 1.407125964760780334e-03 1.460189465433359146e-03 1.399564323946833611e-03 1.455207006074488163e-03 1.394746359437704086e-03 1.384590985253453255e-03 1.400280394591391087e-03 1.335710636340081692e-03 8.305453811772167683e-04 1.450446899980306625e-03 1.444465131498873234e-03 1.311485655605792999e-03 1.173504977487027645e-03 1.353100757114589214e-03 1.389866229146718979e-03 1.430402626283466816e-03 1.423534471541643143e-03 1.465301727876067162e-03 1.405646093189716339e-03 1.439445535652339458e-03 1.237402320839464664e-03 1.447985530830919743e-03 1.255475101061165333e-03 1.428950112313032150e-03 1.374626299366354942e-03 1.412968267686665058e-03 1.369488658383488655e-03 1.439522369764745235e-03 1.363239716738462448e-03 1.397469197399914265e-03 1.360833877697587013e-03 1.439633662812411785e-03 1.397534622810781002e-03 1.398327643983066082e-03 1.430423581041395664e-03 1.362042385153472424e-03 1.457155798561871052e-03 1.420881482772529125e-03 1.350743114016950130e-03 1.440466498024761677e-03 1.435178564861416817e-03 1.401603571139276028e-03 1.395757775753736496e-03 1.454708515666425228e-03 1.346372417174279690e-03 1.380309928208589554e-03 1.441364991478621960e-03 1.462727203033864498e-03 1.431724638678133488e-03 1.462265616282820702e-03 1.465674722567200661e-03 1.379812834784388542e-03 1.449622795917093754e-03 1.422360772266983986e-03
0.000000000000000000e+00 0.000000000000000000e+00 0.000000000000000000e+00 -0.000000000000000000e+00 -0.000000000000000000e+00 0.000000000000000000e+00 0.000000000000000000e+00 -0.000000000000000000e+00 0.000000000000000000e+00 0.000000000000000000e+00 -0.000000000000000000e+00 0.000000000000000000e+00 0.000000000000000000e+00 -0.000000000000000000e+00 0.000000000000000000e+00 -0.000000000000000000e+00 -0.000000000000000000e+00 0.000000000000000000e+00 -0.000000000000000000e+00 -0.000000000000000000e+00 -0.000000000000000000e+00 0.000000000000000000e+00 0.000000000000000000e+00 -0.000000000000000000e+00 0.000000000000000000e+00 -0.000000000000000000e+00 -0.000000000000000000e+00 0.000000000000000000e+00 0.000000000000000000e+00 -0.000000000000000000e+00 0.000000000000000000e+00 0.000000000000000000e+00 -0.000000000000000000e+00 -0.000000000000000000e+00 -0.000000000000000000e+00 -0.000000000000000000e+00 -0.000000000000000000e+00 -0.000000000000000000e+00 0.000000000000000000e+00 0.000000000000000000e+00 -0.000000000000000000e+00 0.000000000000000000e+00 0.000000000000000000e+00 0.000000000000000000e+00 0.000000000000000000e+00 -0.000000000000000000e+00 -0.000000000000000000e+00 0.000000000000000000e+00 -0.000000000000000000e+00 0.000000000000000000e+00 -0.000000000000000000e+00 0.000000000000000000e+00 -0.000000000000000000e+00 -0.000000000000000000e+00 -0.000000000000000000e+00 0.000000000000000000e+00 -0.000000000000000000e+00 -0.000000000000000000e+00 0.000000000000000000e+00 -0.000000000000000000e+00 -0.000000000000000000e+00 -0.000000000000000000e+00 -0.000000000000000000e+00 -0.000000000000000000e+00 6.371022900566458702e-04 -4.403883067425340414e-04 -4.479205526877194643e-04 -4.443022189661860466e-04 -4.351691750343888998e-04 -4.112436436116695404e-04 -4.401207261253148317e-04 -4.356791032478213310e-04 -4.404127539601176977e-04 -4.269775818102061749e-04 -4.382483602967113256e-04 -4.699748824350535870e-04 -4.328458744566887617e-04 -4.250059428159147501e-04 -4.671106871683150530e-04 -4.276754334568977356e-04 -4.316809936426579952e-04 -2.176210837205871940e-04 -4.387259832583367825e-04 -4.279938293620944023e-04 -4.432602436281740665e-04 -4.459709161892533302e-04 -4.350457747932523489e-04 -4.341886087786406279e-04 -4.382379120215773582e-04 -4.402224731165915728e-04 -4.277495609130710363e-04 -4.324486944824457169e-04 -4.476898466236889362e-04 -4.228285688441246748e-04 -4.529830184765160084e-04 -4.431569250300526619e-04 -4.372371477074921131e-04 -4.422747006174176931e-04 -4.367081564851105213e-04 -4.363078332971781492e-04 -4.251386853866279125e-04 -4.428779939189553261e-04 -4.416972515173256397e-04 -4.439120530150830746e-04 -4.492921580094844103e-04 -4.402559716254472733e-04 -4.415875882841646671e-04 3.805322921834886074e-04 -4.461601492948830128e-04 -4.432549758348613977e-04 -4.387582011986523867e-04 -4.444881342351436615e-04 -4.465541860554367304e-04 -4.374513518996536732e-04 -4.385126230772584677e-04 -4.353521508164703846e-04 -4.409196553751826286e-04 -4.374710260890424252e-04 -4.457279283087700605e-04 -4.382687329780310392e-04 3.102522168774157763e-04 -4.422558122314512730e-04 -4.532188468147069216e-04 -4.336613346822559834e-04 -4.507579433266073465e-04 -5.460031097754836082e-04 -4.337428254075348377e-04 -5.668827216140925884e-04
0.000000000000000000e+00 -0.000000000000000000e+00 -0.000000000000000000e+00 -0.000000000000000000e+00 -0.000000000000000000e+00 0.000000000000000000e+00 0.000000000000000000e+00 0.000000000000000000e+00 0.000000000000000000e+00 0.000000000000000000e+00 -0.000000000000000000e+00 0.000000000000000000e+00 -0.000000000000000000e+00 0.000000000000000000e+00 -0.000000000000000000e+00 0.000000000000000000e+00 -0.000000000000000000e+00 -0.000000000000000000e+00 0.000000000000000000e+00 -0.000000000000000000e+00 0.000000000000000000e+00 0.000000000000000000e+00 -0.000000000000000000e+00 -0.000000000000000000e+00 -0.000000000000000000e+00 0.000000000000000000e+00 0.000000000000000000e+00 0.000000000000000000e+00 0.000000000000000000e+00 -0.000000000000000000e+00 0.000000000000000000e+00 0.000000000000000000e+00 -0.000000000000000000e+00 0.000000000000000000e+00 0.000000000000000000e+00 -0.000000000000000000e+00 0.000000000000000000e+00 0.000000000000000000e+00 -0.000000000000000000e+00 -0.000000000000000000e+00 -0.000000000000000000e+00 0.000000000000000000e+00 -0.000000000000000000e+00 -0.000000000000000000e+00 0.000000000000000000e+00 -0.000000000000000000e+00 0.000000000000000000e+00 -0.000000000000000000e+00 -0.000000000000000000e+00 -0.000000000000000000e+00 -0.000000000000000000e+00 0.000000000000000000e+00 -0.000000000000000000e+00 0.000000000000000000e+00 0.000000000000000000e+00 0.000000000000000000e+00 0.000000000000000000e+00 -0.000000000000000000e+00 0.000000000000000000e+00 0.000000000000000000e+00 0.000000000000000000e+00 -0.000000000000000000e+00 -0.000000000000000000e+00 -0.000000000000000000e+00 6.810807157307863235e-03 7.206727284938097000e-03 6.002760957926511765e-03 7.813132368028163910e-03 -6.513325497508049011e-03 6.866755429655313492e-03 6.765028461813926697e-03 7.733408827334642410e-03 8.642589673399925232e-03 7.651605643332004547e-03 6.354284007102251053e-03 6.767442449927330017e-03 8.245412260293960571e-03 5.791991483420133591e-03 7.024252321571111679e-03 9.355619549751281738e-03 6.132071837782859802e-03 7.239563390612602234e-03 6.702940911054611206e-03 6.769040599465370178e-03 6.284820381551980972e-03 8.359377272427082062e-03 6.548428442329168320e-03 6.201005540788173676e-03 6.000928115099668503e-03 6.722576450556516647e-03 7.283963728696107864e-03 -7.290283218026161194e-03 6.831211037933826447e-03 6.840553600341081619e-03 6.196844391524791718e-03 6.907502654939889908e-03 6.978895049542188644e-03 7.773575372993946075e-03 5.354049615561962128e-03 7.212683558464050293e-03 6.524749100208282471e-03 6.234844215214252472e-03 7.770606316626071930e-03 -4.978716373443603516e-03 6.657347548753023148e-03 6.644095759838819504e-03 6.659708451479673386e-03 6.657615769654512405e-03 5.957654677331447601e-03 6.502185482531785965e-03 5.712655372917652130e-03 6.914270110428333282e-03 7.715517189353704453e-03 7.016302086412906647e-03 6.326027214527130127e-03 5.618805531412363052e-03 6.248567719012498856e-03 6.535815075039863586e-03 6.834380328655242920e-03 7.061515934765338898e-03 6.655665114521980286e-03 8.851305581629276276e-03 8.446095511317253113e-03 8.868779987096786499e-03 -4.488423466682434082e-03 7.185070775449275970e-03 6.470069754868745804e-03 6.198511924594640732e-03
-0.000000000000000000e+00 0.000000000000000000e+00 -0.000000000000000000e+00 -0.000000000000000000e+00 0.000000000000000000e+00 0.000000000000000000e+00 0.000000000000000000e+00 -0.000000000000000000e+00 0.000000000000000000e+00 -0.000000000000000000e+00 0.000000000000000000e+00 0.000000000000000000e+00 0.000000000000000000e+00 -0.000000000000000000e+00 -0.000000000000000000e+00 0.000000000000000000e+00 -0.000000000000000000e+00 0.000000000000000000e+00 -0.000000000000000000e+00 0.000000000000000000e+00 0.000000000000000000e+00 -0.000000000000000000e+00 -0.000000000000000000e+00 0.000000000000000000e+00 0.000000000000000000e+00 0.000000000000000000e+00 0.000000000000000000e+00 0.000000000000000000e+00 -0.000000000000000000e+00 0.000000000000000000e+00 -0.000000000000000000e+00 0.000000000000000000e+00 -0.000000000000000000e+00 -0.000000000000000000e+00 -0.000000000000000000e+00 0.000000000000000000e+00 0.000000000000000000e+00 0.000000000000000000e+00 0.000000000000000000e+00 0.000000000000000000e+00 0.000000000000000000e+00 -0.000000000000000000e+00 0.000000000000000000e+00 -0.000000000000000000e+00 0.000000000000000000e+00 0.000000000000000000e+00 -0.000000000000000000e+00 -0.000000000000000000e+00 0.000000000000000000e+00 -0.000000000000000000e+00 0.000000000000000000e+00 0.000000000000000000e+00 -0.000000000000000000e+00 -0.000000000000000000e+00 -0.000000000000000000e+00 -0.000000000000000000e+00 0.000000000000000000e+00 0.000000000000000000e+00 -0.000000000000000000e+00 -0.000000000000000000e+00 0.000000000000000000e+00 -0.000000000000000000e+00 0.000000000000000000e+00 -0.000000000000000000e+00 1.398618449456989765e-03 1.443006563931703568e-03 1.464380533434450626e-03 1.392288599163293839e-03 1.437875442206859589e-03 1.435316749848425388e-03 1.417492632754147053e-03 1.404286827892065048e-03 1.409026212058961391e-03 1.374713843688368797e-03 1.401760498993098736e-03 1.455712830647826195e-03 1.382768154144287109e-03 1.447335234843194485e-03 1.387664931826293468e-03 1.372897415421903133e-03 1.382931484840810299e-03 1.336374087259173393e-03 8.042370900511741638e-04 1.456977101042866707e-03 1.433723489753901958e-03 1.287670573219656944e-03 1.167012611404061317e-03 1.347677200101315975e-03 1.395750208757817745e-03 1.417905208654701710e-03 1.408765441738069057e-03 1.454959856346249580e-03 1.417728723026812077e-03 1.441547297872602940e-03 1.190860522910952568e-03 1.436966937035322189e-03 1.248173066414892673e-03 1.403351081535220146e-03 1.355470041744410992e-03 1.390518737025558949e-03 1.368775265291333199e-03 1.436928519979119301e-03 1.345595228485763073e-03 1.410555210895836353e-03 1.349997473880648613e-03 1.431660493835806847e-03 1.392453094013035297e-03 1.399069908075034618e-03 1.425256137736141682e-03 1.343704527243971825e-03 1.469825045205652714e-03 1.401031273417174816e-03 1.330863335169851780e-03 1.442014006897807121e-03 1.441381638869643211e-03 1.402523950673639774e-03 1.402431516908109188e-03 1.458099693991243839e-03 1.337096327915787697e-03 1.362926326692104340e-03 1.424367306753993034e-03 1.456837053410708904e-03 1.415164908394217491e-03 1.449600560590624809e-03 1.448026625439524651e-03 1.366922049783170223e-03 1.436705118976533413e-03 1.422804198227822781e-03
-0.000000000000000000e+00 0.000000000000000000e+00 -0.000000000000000000e+00 -0.000000000000000000e+00 -0.000000000000000000e+00 -0.000000000000000000e+00 -0.000000000000000000e+00 0.000000000000000000e+00 -0.000000000000000000e+00 0.000000000000000000e+00 0.000000000000000000e+00 0.000000000000000000e+00 0.000000000000000000e+00 -0.000000000000000000e+00 -0.000000000000000000e+00 -0.000000000000000000e+00 -0.000000000000000000e+00 -0.000000000000000000e+00 0.000000000000000000e+00 0.000000000000000000e+00 -0.000000000000000000e+00 0.000000000000000000e+00 -0.000000000000000000e+00 -0.000000000000000000e+00 0.000000000000000000e+00 0.000000000000000000e+00 -0.000000000000000000e+00 -0.000000000000000000e+00 -0.000000000000000000e+00 -0.000000000000000000e+00 0.000000000000000000e+00 -0.000000000000000000e+00 0.000000000000000000e+00 -0.000000000000000000e+00 -0.000000000000000000e+00 -0.000000000000000000e+00 -0.000000000000000000e+00 -0.000000000000000000e+00 0.000000000000000000e+00 0.000000000000000000e+00 0.000000000000000000e+00 -0.000000000000000000e+00 0.000000000000000000e+00 -0.000000000000000000e+00 0.000000000000000000e+00 -0.000000000000000000e+00 0.000000000000000000e+00 -0.000000000000000000e+00 -0.000000000000000000e+00 -0.000000000000000000e+00 -0.000000000000000000e+00 -0.000000000000000000e+00 -0.000000000000000000e+00 0.000000000000000000e+00 -0.000000000000000000e+00 0.000000000000000000e+00 -0.000000000000000000e+00 0.000000000000000000e+00 -0.000000000000000000e+00 -0.000000000000000000e+00 0.000000000000000000e+00 -0.000000000000000000e+00 0.000000000000000000e+00 0.000000000000000000e+00 6.855555810034275055e-03 7.358159404247999191e-03 5.999901331961154938e-03 7.895163260400295258e-03 -7.038010284304618835e-03 7.003632839769124985e-03 6.970512680709362030e-03 7.627008017152547836e-03 8.699928410351276398e-03 8.093136362731456757e-03 6.735976319760084152e-03 6.747245788574218750e-03 8.303150534629821777e-03 5.843697581440210342e-03 7.471231743693351746e-03 9.631553664803504944e-03 6.261535920202732086e-03 7.802885957062244415e-03 7.399005349725484848e-03 6.835981272161006927e-03 6.109486334025859833e-03 8.995165117084980011e-03 7.912657223641872406e-03 6.841618102043867111e-03 6.093952804803848267e-03 6.762703880667686462e-03 7.457954809069633484e-03 -7.664847187697887421e-03 7.122279144823551178e-03 6.894454360008239746e-03 7.271534763276576996e-03 6.961330771446228027e-03 8.276087231934070587e-03 7.785513065755367279e-03 5.874585360288619995e-03 7.230269256979227066e-03 6.989234592765569687e-03 6.280078552663326263e-03 7.655318826436996460e-03 -5.915276240557432175e-03 7.340414915233850479e-03 6.878945045173168182e-03 7.117003202438354492e-03 7.063646335154771805e-03 6.061646156013011932e-03 6.966288667172193527e-03 5.642556585371494293e-03 7.127222605049610138e-03 7.910833694040775299e-03 7.071500644087791443e-03 6.162514444440603256e-03 5.975020583719015121e-03 6.640355102717876434e-03 6.340657360851764679e-03 7.683071773499250412e-03 6.710706744343042374e-03 6.771129090338945389e-03 8.751123212277889252e-03 8.416921831667423248e-03 8.814107626676559448e-03 -4.756785463541746140e-03 7.582650985568761826e-03 6.574501283466815948e-03 6.235260050743818283e-03
0.000000000000000000e+00 0.000000000000000000e+00 0.000000000000000000e+00 0.000000000000000000e+00 0.000000000000000000e+00 0.000000000000000000e+00 -0.000000000000000000e+00 0.000000000000000000e+00 -0.000000000000000000e+00 0.000000000000000000e+00 0.000000000000000000e+00 -0.000000000000000000e+00 -0.000000000000000000e+00 0.000000000000000000e+00 0.000000000000000000e+00 -0.000000000000000000e+00 -0.000000000000000000e+00 -0.000000000000000000e+00 0.000000000000000000e+00 -0.000000000000000000e+00 0.000000000000000000e+00 0.000000000000000000e+00 0.000000000000000000e+00 0.000000000000000000e+00 0.000000000000000000e+00 -0.000000000000000000e+00 -0.000000000000000000e+00 0.000000000000000000e+00 0.000000000000000000e+00 0.000000000000000000e+00 -0.000000000000000000e+00 -0.000000000000000000e+00 -0.000000000000000000e+00 0.000000000000000000e+00 -0.000000000000000000e+00 0.000000000000000000e+00 0.000000000000000000e+00 0.000000000000000000e+00 -0.000000000000000000e+00 -0.000000000000000000e+00 -0.000000000000000000e+00 -0.000000000000000000e+00 -0.000000000000000000e+00 -0.000000000000000000e+00 0.000000000000000000e+00 -0.000000000000000000e+00 -0.000000000000000000e+00 0.000000000000000000e+00 -0.000000000000000000e+00 -0.000000000000000000e+00 -0.000000000000000000e+00 0.000000000000000000e+00 -0.000000000000000000e+00 0.000000000000000000e+00 0.000000000000000000e+00 -0.000000000000000000e+00 -0.000000000000000000e+00 0.000000000000000000e+00 -0.000000000000000000e+00 -0.000000000000000000e+00 0.000000000000000000e+00 -0.000000000000000000e+00 -0.000000000000000000e+00 -0.000000000000000000e+00 1.354125910438597202e-03 1.405209768563508987e-03 1.431554323062300682e-03 1.368265715427696705e-03 1.443269895389676094e-03 1.396869774907827377e-03 1.391350175254046917e-03 1.375842606648802757e-03 1.366158830933272839e-03 1.331364386714994907e-03 1.364312483929097652e-03 1.418553874827921391e-03 1.339068869128823280e-03 1.406155410222709179e-03 1.347419107332825661e-03 1.332071144133806229e-03 1.354795997031033039e-03 1.289062434807419777e-03 8.470542379654943943e-04 1.426298986189067364e-03 1.403102418407797813e-03 1.264970633201301098e-03 1.127458875998854637e-03 1.310365740209817886e-03 1.351290964521467686e-03 1.377384178340435028e-03 1.385160023346543312e-03 1.455352641642093658e-03 1.358729787170886993e-03 1.404200796969234943e-03 1.171976444311439991e-03 1.414648257195949554e-03 1.186608336865901947e-03 1.381545793265104294e-03 1.318067195825278759e-03 1.346742152236402035e-03 1.319741830229759216e-03 1.403274596668779850e-03 1.323137781582772732e-03 1.410042052157223225e-03 1.310505904257297516e-03 1.402425812557339668e-03 1.344625256024301052e-03 1.354462932795286179e-03 1.390137360431253910e-03 1.313680084422230721e-03 1.426813774742186069e-03 1.378417946398258209e-03 1.292304950766265392e-03 1.413202146068215370e-03 1.417665742337703705e-03 1.346583827398717403e-03 1.344548538327217102e-03 1.432442804798483849e-03 1.308926031924784184e-03 1.325812540017068386e-03 1.402269001118838787e-03 1.428343704901635647e-03 1.386331045068800449e-03 1.422173460014164448e-03 1.451455987989902496e-03 1.346655306406319141e-03 1.410054625011980534e-03 1.369096804410219193e-03
-0.000000000000000000e+00 0.000000000000000000e+00 -0.000000000000000000e+00 0.000000000000000000e+00 0.000000000000000000e+00 -0.000000000000000000e+00 -0.000000000000000000e+00 0.000000000000000000e+00 0.000000000000000000e+00 0.000000000000000000e+00 0.000000000000000000e+00 0.000000000000000000e+00 0.000000000000000000e+00 -0.000000000000000000e+00 0.000000000000000000e+00 0.000000000000000000e+00 -0.000000000000000000e+00 -0.000000000000000000e+00 0.000000000000000000e+00 0.000000000000000000e+00 -0.000000000000000000e+00 -0.000000000000000000e+00 -0.000000000000000000e+00 0.000000000000000000e+00 0.000000000000000000e+00 0.000000000000000000e+00 -0.000000000000000000e+00 0.000000000000000000e+00 -0.000000000000000000e+00 -0.000000000000000000e+00 -0.000000000000000000e+00 -0.000000000000000000e+00 0.000000000000000000e+00 -0.000000000000000000e+00 0.000000000000000000e+00 0.000000000000000000e+00 0.000000000000000000e+00 -0.000000000000000000e+00 -0.000000000000000000e+00 -0.000000000000000000e+00 -0.000000000000000000e+00 0.000000000000000000e+00 0.000000000000000000e+00 0.000000000000000000e+00 0.000000000000000000e+00 0.000000000000000000e+00 0.000000000000000000e+00 -0.000000000000000000e+00 -0.000000000000000000e+00 -0.000000000000000000e+00 -0.000000000000000000e+00 -0.000000000000000000e+00 -0.000000000000000000e+00 0.000000000000000000e+00 -0.000000000000000000e+00 -0.000000000000000000e+00 -0.000000000000000000e+00 -0.000000000000000000e+00 0.000000000000000000e+00 0.000000000000000000e+00 -0.000000000000000000e+00 0.000000000000000000e+00 -0.000000000000000000e+00 -0.000000000000000000e+00 6.870419252663850784e-03 7.367814425379037857e-03 6.016274448484182358e-03 7.935347966849803925e-03 -6.981134880334138870e-03 7.022727280855178833e-03 6.998030934482812881e-03 7.683597039431333542e-03 8.735639043152332306e-03 8.088948205113410950e-03 6.706631742417812347e-03 6.758341100066900253e-03 8.314675651490688324e-03 5.852168425917625427e-03 7.468706928193569183e-03 9.636920876801013947e-03 6.274481769651174545e-03 7.781005464494228363e-03 7.225133944302797318e-03 6.851698737591505051e-03 6.151136010885238647e-03 8.970407769083976746e-03 7.705704774707555771e-03 6.806076504290103912e-03 6.116273347288370132e-03 6.784472148865461349e-03 7.479171734303236008e-03 -7.605652790516614914e-03 7.136077154427766800e-03 6.917391438037157059e-03 7.114763837307691574e-03 6.982212886214256287e-03 8.079756982624530792e-03 7.805324625223875046e-03 5.849560257047414780e-03 7.259322796016931534e-03 6.965891923755407333e-03 6.312909536063671112e-03 7.721827831119298935e-03 -5.756187718361616135e-03 7.284912746399641037e-03 6.873027421534061432e-03 7.118619978427886963e-03 7.053724955767393112e-03 6.087534129619598389e-03 6.964805070310831070e-03 5.688094999641180038e-03 7.125810254365205765e-03 7.948416285216808319e-03 7.087168749421834946e-03 6.219398695975542068e-03 5.974238272756338120e-03 6.641262210905551910e-03 6.381359882652759552e-03 7.609244901686906815e-03 6.782854441553354263e-03 6.787524558603763580e-03 8.777314797043800354e-03 8.469036780297756195e-03 8.859906345605850220e-03 -4.701912868767976761e-03 7.578382734209299088e-03 6.604447495192289352e-03 6.271182559430599213e-03
0.000000000000000000e+00 0.000000000000000000e+00 0.000000000000000000e+00 -0.000000000000000000e+00 -0.000000000000000000e+00 -0.000000000000000000e+00 0.000000000000000000e+00 -0.000000000000000000e+00 0.000000000000000000e+00 0.000000000000000000e+00 -0.000000000000000000e+00 -0.000000000000000000e+00 -0.000000000000000000e+00 0.000000000000000000e+00 0.000000000000000000e+00 0.000000000000000000e+00 -0.000000000000000000e+00 0.000000000000000000e+00 0.000000000000000000e+00 0.000000000000000000e+00 0.000000000000000000e+00 -0.000000000000000000e+00 -0.000000000000000000e+00 -0.000000000000000000e+00 0.000000000000000000e+00 0.000000000000000000e+00 0.000000000000000000e+00 0.000000000000000000e+00 0.000000000000000000e+00 0.000000000000000000e+00 0.000000000000000000e+00 -0.000000000000000000e+00 0.000000000000000000e+00 0.000000000000000000e+00 -0.000000000000000000e+00 0.000000000000000000e+00 -0.000000000000000000e+00 -0.000000000000000000e+00 -0.000000000000000000e+00 -0.000000000000000000e+00 0.000000000000000000e+00 -0.000000000000000000e+00 0.000000000000000000e+00 0.000000000000000000e+00 0.000000000000000000e+00 0.000000000000000000e+00 -0.000000000000000000e+00 0.000000000000000000e+00 0.000000000000000000e+00 0.000000000000000000e+00 -0.000000000000000000e+00 -0.000000000000000000e+00 0.000000000000000000e+00 -0.000000000000000000e+00 0.000000000000000000e+00 -0.000000000000000000e+00 -0.000000000000000000e+00 -0.000000000000000000e+00 0.000000000000000000e+00 -0.000000000000000000e+00 -0.000000000000000000e+00 0.000000000000000000e+00 -0.000000000000000000e+00 0.000000000000000000e+00 -8.672438707435503602e-05 -6.509829108836129308e-05 -7.834382267901673913e-05 -6.509835657197982073e-05 -2.751204010564833879e-05 -7.490000280085951090e-05 -6.608502735616639256e-05 -8.373178570764139295e-05 -6.899988511577248573e-05 -6.733369082212448120e-05 -5.769340350525453687e-05 -8.124460146063938737e-05 -7.674152584513649344e-05 -6.676839257124811411e-05 -6.798662070650607347e-05 -7.916143658803775907e-05 -7.079058559611439705e-05 -6.318853411357849836e-05 -7.342770550167188048e-05 -7.140950765460729599e-05 -7.344833284150809050e-05 -7.053332228679209948e-05 -7.620677934028208256e-05 -7.696427201153710485e-05 -6.853634113213047385e-05 -7.154082413762807846e-05 -7.145629206206649542e-05 -3.050582199648488313e-05 -8.315590821439400315e-05 -6.303434201981872320e-05 -7.031774293864145875e-05 -7.875165465520694852e-05 -7.838603778509423137e-05 -6.943349580978974700e-05 -6.935789133422076702e-05 -7.539357466157525778e-05 -6.815983942942693830e-05 -8.306476229336112738e-05 -7.373066910076886415e-05 -3.233634197385981679e-05 -6.410659989342093468e-05 -7.447417738148942590e-05 -6.712709728162735701e-05 -8.272044942714273930e-05 -6.191334978211671114e-05 -7.888276741141453385e-05 -8.254525164375081658e-05 -6.469270010711625218e-05 -4.893556615570560098e-05 -7.152798934839665890e-05 -7.211677439045161009e-05 -6.426527397707104683e-05 -7.793187251081690192e-05 -6.649552960880100727e-05 -5.839090226800180972e-05 -7.725930481683462858e-05 -7.023003126960247755e-05 -8.686565706739202142e-05 -7.287082553375512362e-05 -6.160634802654385567e-05 -4.058318518218584359e-05 -6.982136983424425125e-05 -7.194413774413987994e-05 -5.536829121410846710e-05
-0.000000000000000000e+00 -0.000000000000000000e+00 0.000000000000000000e+00 0.000000000000000000e+00 -0.000000000000000000e+00 0.000000000000000000e+00 0.000000000000000000e+00 0.000000000000000000e+00 0.000000000000000000e+00 0.000000000000000000e+00 0.000000000000000000e+00 0.000000000000000000e+00 0.000000000000000000e+00 0.000000000000000000e+00 0.000000000000000000e+00 0.000000000000000000e+00 -0.000000000000000000e+00 -0.000000000000000000e+00 -0.000000000000000000e+00 0.000000000000000000e+00 -0.000000000000000000e+00 -0.000000000000000000e+00 -0.000000000000000000e+00 0.000000000000000000e+00 -0.000000000000000000e+00 -0.000000000000000000e+00 -0.000000000000000000e+00 -0.000000000000000000e+00 0.000000000000000000e+00 0.000000000000000000e+00 0.000000000000000000e+00 -0.000000000000000000e+00 0.000000000000000000e+00 -0.000000000000000000e+00 0.000000000000000000e+00 -0.000000000000000000e+00 0.000000000000000000e+00 0.000000000000000000e+00 -0.000000000000000000e+00 0.000000000000000000e+00 -0.000000000000000000e+00 -0.000000000000000000e+00 -0.000000000000000000e+00 -0.000000000000000000e+00 -0.000000000000000000e+00 0.000000000000000000e+00 0.000000000000000000e+00 -0.000000000000000000e+00 -0.000000000000000000e+00 0.000000000000000000e+00 0.000000000000000000e+00 -0.000000000000000000e+00 -0.000000000000000000e+00 -0.000000000000000000e+00 -0.000000000000000000e+00 0.000000000000000000e+00 -0.000000000000000000e+00 -0.000000000000000000e+00 0.000000000000000000e+00 0.000000000000000000e+00 -0.000000000000000000e+00 -0.000000000000000000e+00 0.000000000000000000e+00 -0.000000000000000000e+00 6.865706760436296463e-03 7.355522830039262772e-03 6.015946622937917709e-03 7.909324951469898224e-03 -6.988808047026395798e-03 6.999376229941844940e-03 6.978037301450967789e-03 7.679758127778768539e-03 8.719225414097309113e-03 8.101132698357105255e-03 6.727207917720079422e-03 6.748739164322614670e-03 8.317757397890090942e-03 5.857457872480154037e-03 7.450653240084648132e-03 9.619454853236675262e-03 6.274715997278690338e-03 7.789046037942171097e-03 7.284598425030708313e-03 6.829995661973953247e-03 6.130867637693881989e-03 8.985601365566253662e-03 7.833448238670825958e-03 6.819170434027910233e-03 6.116977892816066742e-03 6.777813192456960678e-03 7.478118408471345901e-03 -7.624330930411815643e-03 7.146537769585847855e-03 6.916470825672149658e-03 7.197544444352388382e-03 6.979015190154314041e-03 8.146093226969242096e-03 7.782212458550930023e-03 5.859856028109788895e-03 7.247229572385549545e-03 6.975501310080289841e-03 6.311845965683460236e-03 7.697016466408967972e-03 -5.829551722854375839e-03 7.311642169952392578e-03 6.876537110656499863e-03 7.129690144211053848e-03 7.071128580719232559e-03 6.073560565710067749e-03 6.961301900446414948e-03 5.692338570952415466e-03 7.137472741305828094e-03 7.927502505481243134e-03 7.071586791425943375e-03 6.201395764946937561e-03 5.977205466479063034e-03 6.631694734096527100e-03 6.366130895912647247e-03 7.657893933355808258e-03 6.744068115949630737e-03 6.792826578021049500e-03 8.788340725004673004e-03 8.470091037452220917e-03 8.839524351060390472e-03 -4.728279076516628265e-03 7.566701620817184448e-03 6.588377524167299271e-03 6.254393141716718674e-03
0.000000000000000000e+00 -0.000000000000000000e+00 -0.000000000000000000e+00 0.000000000000000000e+00 0.000000000000000000e+00 -0.000000000000000000e+00 0.000000000000000000e+00 0.000000000000000000e+00 0.000000000000000000e+00 -0.000000000000000000e+00 -0.000000000000000000e+00 0.000000000000000000e+00 -0.000000000000000000e+00 -0.000000000000000000e+00 -0.000000000000000000e+00 0.000000000000000000e+00 -0.000000000000000000e+00 0.000000000000000000e+00 0.000000000000000000e+00 -0.000000000000000000e+00 -0.000000000000000000e+00 0.000000000000000000e+00 -0.000000000000000000e+00 0.000000000000000000e+00 -0.000000000000000000e+00 0.000000000000000000e+00 -0.000000000000000000e+00 -0.000000000000000000e+00 0.000000000000000000e+00 -0.000000000000000000e+00 0.000000000000000000e+00 -0.000000000000000000e+00 -0.000000000000000000e+00 -0.000000000000000000e+00 0.000000000000000000e+00 -0.000000000000000000e+00 0.000000000000000000e+00 -0.000000000000000000e+00 0.000000000000000000e+00 0.000000000000000000e+00 -0.000000000000000000e+00 0.000000000000000000e+00 0.000000000000000000e+00 0.000000000000000000e+00 0.000000000000000000e+00 0.000000000000000000e+00 0.000000000000000000e+00 0.000000000000000000e+00 0.000000000000000000e+00 -0.000000000000000000e+00 -0.000000000000000000e+00 -0.000000000000000000e+00 -0.000000000000000000e+00 -0.000000000000000000e+00 0.000000000000000000e+00 -0.000000000000000000e+00 -0.000000000000000000e+00 -0.000000000000000000e+00 -0.000000000000000000e+00 -0.000000000000000000e+00 -0.000000000000000000e+00 -0.000000000000000000e+00 -0.000000000000000000e+00 -0.000000000000000000e+00 6.829631980508565903e-03 7.334480993449687958e-03 5.976868327707052231e-03 7.861564867198467255e-03 -7.087083999067544937e-03 6.984967738389968872e-03 6.952748633921146393e-03 7.602060213685035706e-03 8.692306466400623322e-03 8.108786307275295258e-03 6.730457302182912827e-03 6.726631429046392441e-03 8.278894238173961639e-03 5.811991170048713684e-03 7.469122298061847687e-03 9.602957405149936676e-03 6.256198510527610779e-03 7.795547600835561752e-03 7.486006245017051697e-03 6.807792931795120239e-03 6.094671320170164108e-03 9.020539000630378723e-03 7.959523238241672516e-03 6.862216163426637650e-03 6.081904750317335129e-03 6.742465775460004807e-03 7.447210140526294708e-03 -7.691029459238052368e-03 7.117537315934896469e-03 6.878776941448450089e-03 7.266624830663204193e-03 6.939785089343786240e-03 8.313103578984737396e-03 7.741768844425678253e-03 5.870044231414794922e-03 7.208740338683128357e-03 6.982914172112941742e-03 6.277474574744701385e-03 7.632097695022821426e-03 -5.909114610403776169e-03 7.343737874180078506e-03 6.859516724944114685e-03 7.100983522832393646e-03 7.054692134261131287e-03 6.064830347895622253e-03 6.966276559978723526e-03 5.641639698296785355e-03 7.126678712666034698e-03 7.904062047600746155e-03 7.065144367516040802e-03 6.167776882648468018e-03 5.951544269919395447e-03 6.623098161071538925e-03 6.318543571978807449e-03 7.720622234046459198e-03 6.674763280898332596e-03 6.740581244230270386e-03 8.735836483538150787e-03 8.386850357055664062e-03 8.800383657217025757e-03 -4.792364314198493958e-03 7.575947791337966919e-03 6.561059039086103439e-03 6.205794867128133774e-03
-0.000000000000000000e+00 0.000000000000000000e+00 0.000000000000000000e+00 0.000000000000000000e+00 0.000000000000000000e+00 0.000000000000000000e+00 0.000000000000000000e+00 -0.000000000000000000e+00 0.000000000000000000e+00 -0.000000000000000000e+00 -0.000000000000000000e+00 -0.000000000000000000e+00 -0.000000000000000000e+00 0.000000000000000000e+00 0.000000000000000000e+00 -0.000000000000000000e+00 -0.000000000000000000e+00 0.000000000000000000e+00 0.000000000000000000e+00 -0.000000000000000000e+00 0.000000000000000000e+00 -0.000000000000000000e+00 0.000000000000000000e+00 -0.000000000000000000e+00 -0.000000000000000000e+00 0.000000000000000000e+00 -0.000000000000000000e+00 0.000000000000000000e+00 0.000000000000000000e+00 0.000000000000000000e+00 0.000000000000000000e+00 0.000000000000000000e+00 0.000000000000000000e+00 0.000000000000000000e+00 -0.000000000000000000e+00 0.000000000000000000e+00 0.000000000000000000e+00 -0.000000000000000000e+00 0.000000000000000000e+00 -0.000000000000000000e+00 0.000000000000000000e+00 0.000000000000000000e+00 0.000000000000000000e+00 0.000000000000000000e+00 0.000000000000000000e+00 0.000000000000000000e+00 0.000000000000000000e+00 0.000000000000000000e+00 -0.000000000000000000e+00 0.000000000000000000e+00 0.000000000000000000e+00 0.000000000000000000e+00 0.000000000000000000e+00 -0.000000000000000000e+00 -0.000000000000000000e+00 0.000000000000000000e+00 -0.000000000000000000e+00 -0.000000000000000000e+00 0.000000000000000000e+00 0.000000000000000000e+00 0.000000000000000000e+00 0.000000000000000000e+00 0.000000000000000000e+00 -0.000000000000000000e+00 9.008713997900485992e-03 1.371472608298063278e-02 1.471107173711061478e-02 1.057745888829231262e-02 -8.590844459831714630e-03 1.255808863788843155e-02 1.258958969265222549e-02 7.910977117717266083e-03 1.430284790694713593e-02 1.248136721551418304e-02 1.235624682158231735e-02 1.197621598839759827e-02 8.420519530773162842e-03 1.244007516652345657e-02 1.197069417685270309e-02 1.276236493140459061e-02 1.020293775945901871e-02 1.153046172112226486e-02 1.112641859799623489e-02 1.195141579955816269e-02 7.968910038471221924e-03 1.175338216125965118e-02 1.102948281913995743e-02 1.199920568615198135e-02 9.243826381862163544e-03 1.040848065167665482e-02 9.850438684225082397e-03 -9.431106038391590118e-03 1.197138149291276932e-02 1.155486330389976501e-02 1.057062391191720963e-02 1.232325471937656403e-02 1.152737438678741455e-02 9.162824600934982300e-03 1.073528919368982315e-02 1.035741530358791351e-02 1.152770034968852997e-02 1.153848227113485336e-02 8.965738117694854736e-03 -7.988443598151206970e-03 1.173451356589794159e-02 1.379289478063583374e-02 1.227678917348384857e-02 1.094377972185611725e-02 1.163216680288314819e-02 1.102772634476423264e-02 1.123485155403614044e-02 1.081456523388624191e-02 8.778082206845283508e-03 1.241499464958906174e-02 9.497336111962795258e-03 1.200484018772840500e-02 1.212442200630903244e-02 6.387560162693262100e-03 1.268082391470670700e-02 7.104573305696249008e-03 1.227033231407403946e-02 1.215424202382564545e-02 1.038740947842597961e-02 1.393103040754795074e-02 -4.341964609920978546e-03 1.098938100039958954e-02 1.312310900539159775e-02 1.047862041741609573e-02
0.000000000000000000e+00 0.000000000000000000e+00 -0.000000000000000000e+00 -0.000000000000000000e+00 -0.000000000000000000e+00 -0.000000000000000000e+00 -0.000000000000000000e+00 0.000000000000000000e+00 0.000000000000000000e+00 -0.000000000000000000e+00 0.000000000000000000e+00 0.000000000000000000e+00 -0.000000000000000000e+00 -0.000000000000000000e+00 -0.000000000000000000e+00 0.000000000000000000e+00 0.000000000000000000e+00 0.000000000000000000e+00 -0.000000000000000000e+00 0.000000000000000000e+00 0.000000000000000000e+00 -0.000000000000000000e+00 0.000000000000000000e+00 -0.000000000000000000e+00 0.000000000000000000e+00 0.000000000000000000e+00 -0.000000000000000000e+00 -0.000000000000000000e+00 -0.000000000000000000e+00 -0.000000000000000000e+00 -0.000000000000000000e+00 0.000000000000000000e+00 -0.000000000000000000e+00 0.000000000000000000e+00 0.000000000000000000e+00 0.000000000000000000e+00 -0.000000000000000000e+00 0.000000000000000000e+00 0.000000000000000000e+00 0.000000000000000000e+00 0.000000000000000000e+00 -0.000000000000000000e+00 0.000000000000000000e+00 0.000000000000000000e+00 0.000000000000000000e+00 -0.000000000000000000e+00 0.000000000000000000e+00 0.000000000000000000e+00 0.000000000000000000e+00 0.000000000000000000e+00 0.000000000000000000e+00 -0.000000000000000000e+00 -0.000000000000000000e+00 0.000000000000000000e+00 0.000000000000000000e+00 -0.000000000000000000e+00 0.000000000000000000e+00 0.000000000000000000e+00 0.000000000000000000e+00 0.000000000000000000e+00 0.000000000000000000e+00 -0.000000000000000000e+00 -0.000000000000000000e+00 -0.000000000000000000e+00 1.302859280258417130e-03 1.369205769151449203e-03 1.416507177054882050e-03 1.297213486395776272e-03 1.381977810524404049e-03 1.349490368738770485e-03 1.334442174993455410e-03 1.328117214143276215e-03 1.313077518716454506e-03 1.273385598324239254e-03 1.303432043641805649e-03 1.393548096530139446e-03 1.297058770433068275e-03 1.372114173136651516e-03 1.304153003729879856e-03 1.274830894544720650e-03 1.292160246521234512e-03 1.204115222208201885e-03 5.423079710453748703e-04 1.366703887470066547e-03 1.366809359751641750e-03 1.165458350442349911e-03 9.714273619465529919e-04 1.235408592037856579e-03 1.301211887039244175e-03 1.339648501016199589e-03 1.329757738858461380e-03 1.383405178785324097e-03 1.318826223723590374e-03 1.369803794659674168e-03 1.044302480295300484e-03 1.384162227623164654e-03 1.086651231162250042e-03 1.328512793406844139e-03 1.247760956175625324e-03 1.297572162002325058e-03 1.268281019292771816e-03 1.359210815280675888e-03 1.228362671099603176e-03 1.294074347242712975e-03 1.234492636285722256e-03 1.359966117888689041e-03 1.284120255149900913e-03 1.293268171139061451e-03 1.340178423561155796e-03 1.247017760761082172e-03 1.390351098962128162e-03 1.338914618827402592e-03 1.219948986545205116e-03 1.373069244436919689e-03 1.374253304675221443e-03 1.280315802432596684e-03 1.303342171013355255e-03 1.408976735547184944e-03 1.224787440150976181e-03 1.260696095414459705e-03 1.356866559945046902e-03 1.395284314639866352e-03 1.337261754088103771e-03 1.393921440467238426e-03 1.361626200377941132e-03 1.263710088096559048e-03 1.380764413625001907e-03 1.342331874184310436e-03
0.000000000000000000e+00 -0.000000000000000000e+00 -0.000000000000000000e+00 -0.000000000000000000e+00 -0.000000000000000000e+00 0.000000000000000000e+00 -0.000000000000000000e+00 -0.000000000000000000e+00 0.000000000000000000e+00 0.000000000000000000e+00 0.000000000000000000e+00 -0.000000000000000000e+00 0.000000000000000000e+00 -0.000000000000000000e+00 -0.000000000000000000e+00 -0.000000000000000000e+00 0.000000000000000000e+00 0.000000000000000000e+00 -0.000000000000000000e+00 -0.000000000000000000e+00 -0.000000000000000000e+00 0.000000000000000000e+00 -0.000000000000000000e+00 -0.000000000000000000e+00 0.000000000000000000e+00 0.000000000000000000e+00 -0.000000000000000000e+00 -0.000000000000000000e+00 0.000000000000000000e+00 0.000000000000000000e+00 0.000000000000000000e+00 0.000000000000000000e+00 0.000000000000000000e+00 0.000000000000000000e+00 0.000000000000000000e+00 0.000000000000000000e+00 0.000000000000000000e+00 -0.000000000000000000e+00 -0.000000000000000000e+00 -0.000000000000000000e+00 -0.000000000000000000e+00 0.000000000000000000e+00 0.000000000000000000e+00 -0.000000000000000000e+00 -0.000000000000000000e+00 -0.000000000000000000e+00 -0.000000000000000000e+00 0.000000000000000000e+00 -0.000000000000000000e+00 0.000000000000000000e+00 0.000000000000000000e+00 0.000000000000000000e+00 -0.000000000000000000e+00 0.000000000000000000e+00 0.000000000000000000e+00 0.000000000000000000e+00 0.000000000000000000e+00 -0.000000000000000000e+00 0.000000000000000000e+00 -0.000000000000000000e+00 -0.000000000000000000e+00 0.000000000000000000e+00 -0.000000000000000000e+00 -0.000000000000000000e+00 6.299412343651056290e-03 6.628935690969228745e-03 5.818375386297702789e-03 7.259103469550609589e-03 -6.956841330975294113e-03 6.407713051885366440e-03 6.514405831694602966e-03 7.231897208839654922e-03 8.321983739733695984e-03 7.748517673462629318e-03 6.260205525904893875e-03 6.480891723185777664e-03 7.828365080058574677e-03 5.277181044220924377e-03 7.096816785633563995e-03 9.045253507792949677e-03 5.634800530970096588e-03 6.855055224150419235e-03 7.595650386065244675e-03 6.412239279597997665e-03 5.887934472411870956e-03 8.139768615365028381e-03 6.907279137521982193e-03 6.194779649376869202e-03 5.573786329478025436e-03 6.264330353587865829e-03 6.864805240184068680e-03 -7.756466977298259735e-03 6.198817864060401917e-03 6.592566613107919693e-03 5.905680358409881592e-03 6.763909012079238892e-03 7.299186196178197861e-03 7.404119707643985748e-03 4.937687888741493225e-03 6.651718635112047195e-03 6.620220374315977097e-03 5.599067080765962601e-03 7.293527480214834213e-03 -5.770409479737281799e-03 6.574288476258516312e-03 6.339758168905973434e-03 6.165984086692333221e-03 6.512798834592103958e-03 5.632326938211917877e-03 6.236389279365539551e-03 5.298150237649679184e-03 6.920926738530397415e-03 7.468950003385543823e-03 7.008576299995183945e-03 5.902893841266632080e-03 5.128615535795688629e-03 6.114416290074586868e-03 6.092707626521587372e-03 6.652484182268381119e-03 6.409047637134790421e-03 6.280835717916488647e-03 8.628963492810726166e-03 8.079595863819122314e-03 8.564112707972526550e-03 -4.964862484484910965e-03 6.832777522504329681e-03 5.907655693590641022e-03 5.776362959295511246e-03
0.000000000000000000e+00 -0.000000000000000000e+00 -0.000000000000000000e+00 -0.000000000000000000e+00 -0.000000000000000000e+00 0.000000000000000000e+00 -0.000000000000000000e+00 0.000000000000000000e+00 -0.000000000000000000e+00 0.000000000000000000e+00 0.000000000000000000e+00 0.000000000000000000e+00 -0.000000000000000000e+00 -0.000000000000000000e+00 -0.000000000000000000e+00 -0.000000000000000000e+00 -0.000000000000000000e+00 -0.000000000000000000e+00 -0.000000000000000000e+00 -0.000000000000000000e+00 -0.000000000000000000e+00 0.000000000000000000e+00 0.000000000000000000e+00 -0.000000000000000000e+00 0.000000000000000000e+00 0.000000000000000000e+00 -0.000000000000000000e+00 -0.000000000000000000e+00 -0.000000000000000000e+00 -0.000000000000000000e+00 -0.000000000000000000e+00 -0.000000000000000000e+00 0.000000000000000000e+00 0.000000000000000000e+00 0.000000000000000000e+00 -0.000000000000000000e+00 -0.000000000000000000e+00 -0.000000000000000000e+00 0.000000000000000000e+00 -0.000000000000000000e+00 -0.000000000000000000e+00 0.000000000000000000e+00 0.000000000000000000e+00 -0.000000000000000000e+00 0.000000000000000000e+00 0.000000000000000000e+00 0.000000000000000000e+00 0.000000000000000000e+00 -0.000000000000000000e+00 0.000000000000000000e+00 -0.000000000000000000e+00 0.000000000000000000e+00 0.000000000000000000e+00 0.000000000000000000e+00 -0.000000000000000000e+00 0.000000000000000000e+00 -0.000000000000000000e+00 -0.000000000000000000e+00 0.000000000000000000e+00 -0.000000000000000000e+00 0.000000000000000000e+00 -0.000000000000000000e+00 0.000000000000000000e+00 -0.000000000000000000e+00 6.841503549367189407e-03 7.352315355092287064e-03 5.999771878123283386e-03 7.887610234320163727e-03 -7.067229133099317551e-03 6.996591575443744659e-03 6.969725713133811951e-03 7.618963718414306641e-03 8.706623688340187073e-03 8.096699602901935577e-03 6.739787757396697998e-03 6.719978991895914078e-03 8.273389190435409546e-03 5.831565242260694504e-03 7.461780216544866562e-03 9.617429226636886597e-03 6.263063289225101471e-03 7.804196793586015701e-03 7.376499474048614502e-03 6.836065091192722321e-03 6.085498724132776260e-03 9.018575772643089294e-03 7.926784455776214600e-03 6.854672450572252274e-03 6.103327032178640366e-03 6.758809089660644531e-03 7.453767582774162292e-03 -7.658647373318672180e-03 7.141141686588525772e-03 6.885976064950227737e-03 7.284946274012327194e-03 6.964550819247961044e-03 8.261392824351787567e-03 7.763437461107969284e-03 5.886835511773824692e-03 7.208512630313634872e-03 6.996029522269964218e-03 6.283886730670928955e-03 7.626663427799940109e-03 -5.928229540586471558e-03 7.352275308221578598e-03 6.877072621136903763e-03 7.132712751626968384e-03 7.051931694149971008e-03 6.057614926248788834e-03 6.971659604460000992e-03 5.645463708788156509e-03 7.124057039618492126e-03 7.906615734100341797e-03 7.084629964083433151e-03 6.188970059156417847e-03 5.966069176793098450e-03 6.642864551395177841e-03 6.346641108393669128e-03 7.710169069468975067e-03 6.700357887893915176e-03 6.764898542314767838e-03 8.751358836889266968e-03 8.409591391682624817e-03 8.813482709228992462e-03 -4.749373532831668854e-03 7.563030347228050232e-03 6.568041164427995682e-03 6.229419726878404617e-03
-0.000000000000000000e+00 0.000000000000000000e+00 -0.000000000000000000e+00 0.000000000000000000e+00 -0.000000000000000000e+00 -0.000000000000000000e+00 -0.000000000000000000e+00 0.000000000000000000e+00 0.000000000000000000e+00 -0.000000000000000000e+00 0.000000000000000000e+00 0.000000000000000000e+00 0.000000000000000000e+00 -0.000000000000000000e+00 0.000000000000000000e+00 0.000000000000000000e+00 -0.000000000000000000e+00 0.000000000000000000e+00 0.000000000000000000e+00 0.000000000000000000e+00 -0.000000000000000000e+00 -0.000000000000000000e+00 0.000000000000000000e+00 -0.000000000000000000e+00 -0.000000000000000000e+00 0.000000000000000000e+00 -0.000000000000000000e+00 0.000000000000000000e+00 -0.000000000000000000e+00 0.000000000000000000e+00 -0.000000000000000000e+00 -0.000000000000000000e+00 0.000000000000000000e+00 0.000000000000000000e+00 0.000000000000000000e+00 0.000000000000000000e+00 -0.000000000000000000e+00 0.000000000000000000e+00 -0.000000000000000000e+00 -0.000000000000000000e+00 -0.000000000000000000e+00 -0.000000000000000000e+00 0.000000000000000000e+00 -0.000000000000000000e+00 -0.000000000000000000e+00 -0.000000000000000000e+00 -0.000000000000000000e+00 -0.000000000000000000e+00 0.000000000000000000e+00 0.000000000000000000e+00 -0.000000000000000000e+00 -0.000000000000000000e+00 0.000000000000000000e+00 -0.000000000000000000e+00 -0.000000000000000000e+00 -0.000000000000000000e+00 -0.000000000000000000e+00 -0.000000000000000000e+00 0.000000000000000000e+00 0.000000000000000000e+00 -0.000000000000000000e+00 -0.000000000000000000e+00 -0.000000000000000000e+00 -0.000000000000000000e+00 6.899841595441102982e-03 7.374064065515995026e-03 6.033785175532102585e-03 7.946710102260112762e-03 -6.867466960102319717e-03 7.018332369625568390e-03 6.984254810959100723e-03 7.736453786492347717e-03 8.746569044888019562e-03 8.020468987524509430e-03 6.687883287668228149e-03 6.793009117245674133e-03 8.324782364070415497e-03 5.866633262485265732e-03 7.396276108920574188e-03 9.602333419024944305e-03 6.290298420935869217e-03 7.694034837186336517e-03 7.085795048624277115e-03 6.862984038889408112e-03 6.200048606842756271e-03 8.890487253665924072e-03 7.487260736525058746e-03 6.704950239509344101e-03 6.129681598395109177e-03 6.807371042668819427e-03 7.477175444364547729e-03 -7.514030672609806061e-03 7.119598332792520523e-03 6.921028718352317810e-03 6.939461920410394669e-03 6.992961745709180832e-03 7.839938625693321228e-03 7.821650244295597076e-03 5.762140732258558273e-03 7.291017565876245499e-03 6.913031451404094696e-03 6.328989751636981964e-03 7.759985513985157013e-03 -5.603490862995386124e-03 7.183168549090623856e-03 6.863260641694068909e-03 7.047351915389299393e-03 7.019697688519954681e-03 6.084084045141935349e-03 6.897799205034971237e-03 5.721827037632465363e-03 7.108616642653942108e-03 7.931651547551155090e-03 7.089957594871520996e-03 6.256475113332271576e-03 5.931822117418050766e-03 6.588120479136705399e-03 6.420718505978584290e-03 7.469262927770614624e-03 6.872806232422590256e-03 6.793565116822719574e-03 8.815320208668708801e-03 8.477155119180679321e-03 8.884481154382228851e-03 -4.639262799173593521e-03 7.540487218648195267e-03 6.596001796424388885e-03 6.276104133576154709e-03
-0.000000000000000000e+00 0.000000000000000000e+00 0.000000000000000000e+00 0.000000000000000000e+00 -0.000000000000000000e+00 -0.000000000000000000e+00 0.000000000000000000e+00 0.000000000000000000e+00 0.000000000000000000e+00 0.000000000000000000e+00 -0.000000000000000000e+00 0.000000000000000000e+00 -0.000000000000000000e+00 0.000000000000000000e+00 -0.000000000000000000e+00 0.000000000000000000e+00 0.000000000000000000e+00 -0.000000000000000000e+00 0.000000000000000000e+00 -0.000000000000000000e+00 -0.000000000000000000e+00 -0.000000000000000000e+00 -0.000000000000000000e+00 -0.000000000000000000e+00 0.000000000000000000e+00 -0.000000000000000000e+00 -0.000000000000000000e+00 0.000000000000000000e+00 0.000000000000000000e+00 -0.000000000000000000e+00 -0.000000000000000000e+00 0.000000000000000000e+00 -0.000000000000000000e+00 -0.000000000000000000e+00 0.000000000000000000e+00 -0.000000000000000000e+00 0.000000000000000000e+00 0.000000000000000000e+00 0.000000000000000000e+00 -0.000000000000000000e+00 0.000000000000000000e+00 -0.000000000000000000e+00 -0.000000000000000000e+00 0.000000000000000000e+00 0.000000000000000000e+00 -0.000000000000000000e+00 0.000000000000000000e+00 -0.000000000000000000e+00 0.000000000000000000e+00 0.000000000000000000e+00 0.000000000000000000e+00 -0.000000000000000000e+00 0.000000000000000000e+00 -0.000000000000000000e+00 0.000000000000000000e+00 0.000000000000000000e+00 0.000000000000000000e+00 0.000000000000000000e+00 -0.000000000000000000e+00 0.000000000000000000e+00 0.000000000000000000e+00 -0.000000000000000000e+00 -0.000000000000000000e+00 0.000000000000000000e+00 7.094611879438161850e-03 9.715069085359573364e-03 9.481037035584449768e-03 8.161989040672779083e-03 -8.293873630464076996e-03 8.687426336109638214e-03 8.511377498507499695e-03 7.528620306402444839e-03 9.565223939716815948e-03 8.587505668401718140e-03 7.981262169778347015e-03 8.626699447631835938e-03 8.346766233444213867e-03 8.060948923230171204e-03 8.640312589704990387e-03 1.010354608297348022e-02 6.828579120337963104e-03 7.715506013482809067e-03 6.711071822792291641e-03 8.471998386085033417e-03 5.963412579149007797e-03 8.689437061548233032e-03 7.122876588255167007e-03 7.291350979357957840e-03 6.596359889954328537e-03 7.477794308215379715e-03 8.119074627757072449e-03 -8.643807843327522278e-03 8.269510231912136078e-03 8.227955549955368042e-03 6.613430101424455643e-03 8.813544176518917084e-03 7.749192416667938232e-03 7.440069224685430527e-03 6.250290200114250183e-03 7.341739721596240997e-03 7.615756709128618240e-03 7.418272551149129868e-03 7.167156785726547241e-03 -7.375296205282211304e-03 7.682044990360736847e-03 9.228823706507682800e-03 7.989066652953624725e-03 8.173985406756401062e-03 7.708966266363859177e-03 7.157872896641492844e-03 7.473592180758714676e-03 8.174372836947441101e-03 7.399696856737136841e-03 8.798899129033088684e-03 6.553073879331350327e-03 6.938653532415628433e-03 7.911325432360172272e-03 5.942946765571832657e-03 8.184028789401054382e-03 6.168692838400602341e-03 8.395273238420486450e-03 1.070571877062320709e-02 8.650947362184524536e-03 1.106901559978723526e-02 -4.865814931690692902e-03 8.016112260520458221e-03 8.730574510991573334e-03 7.042127195745706558e-03
-0.000000000000000000e+00 0.000000000000000000e+00 0.000000000000000000e+00 0.000000000000000000e+00 0.000000000000000000e+00 -0.000000000000000000e+00 -0.000000000000000000e+00 -0.000000000000000000e+00 -0.000000000000000000e+00 -0.000000000000000000e+00 0.000000000000000000e+00 0.000000000000000000e+00 -0.000000000000000000e+00 0.000000000000000000e+00 -0.000000000000000000e+00 0.000000000000000000e+00 0.000000000000000000e+00 -0.000000000000000000e+00 0.000000000000000000e+00 0.000000000000000000e+00 0.000000000000000000e+00 0.000000000000000000e+00 -0.000000000000000000e+00 0.000000000000000000e+00 -0.000000000000000000e+00 -0.000000000000000000e+00 -0.000000000000000000e+00 0.000000000000000000e+00 0.000000000000000000e+00 0.000000000000000000e+00 -0.000000000000000000e+00 0.000000000000000000e+00 0.000000000000000000e+00 0.000000000000000000e+00 -0.000000000000000000e+00 -0.000000000000000000e+00 0.000000000000000000e+00 0.000000000000000000e+00 -0.000000000000000000e+00 0.000000000000000000e+00 -0.000000000000000000e+00 0.000000000000000000e+00 -0.000000000000000000e+00 0.000000000000000000e+00 -0.000000000000000000e+00 -0.000000000000000000e+00 0.000000000000000000e+00 0.000000000000000000e+00 -0.000000000000000000e+00 -0.000000000000000000e+00 -0.000000000000000000e+00 0.000000000000000000e+00 0.000000000000000000e+00 0.000000000000000000e+00 0.000000000000000000e+00 -0.000000000000000000e+00 -0.000000000000000000e+00 -0.000000000000000000e+00 -0.000000000000000000e+00 -0.000000000000000000e+00 0.000000000000000000e+00 0.000000000000000000e+00 0.000000000000000000e+00 -0.000000000000000000e+00 6.710303016006946564e-03 7.273015100508928299e-03 5.953389219939708710e-03 7.737112697213888168e-03 -7.267351262271404266e-03 6.920085288584232330e-03 6.841554772108793259e-03 7.450344972312450409e-03 8.596628904342651367e-03 8.042666129767894745e-03 6.696439348161220551e-03 6.626750808209180832e-03 8.179219439625740051e-03 5.719318985939025879e-03 7.412254344671964645e-03 9.537298232316970825e-03 6.046758033335208893e-03 7.648568134754896164e-03 8.138097822666168213e-03 6.713056936860084534e-03 5.955016240477561951e-03 9.054291062057018280e-03 8.276275359094142914e-03 6.803559605032205582e-03 5.980380345135927200e-03 6.637196987867355347e-03 7.375959772616624832e-03 -7.848560810089111328e-03 7.013011723756790161e-03 6.794901564717292786e-03 7.344183046370744705e-03 6.885821465402841568e-03 8.536454290151596069e-03 7.644892204552888870e-03 5.869969259947538376e-03 7.084733806550502777e-03 6.975374184548854828e-03 6.160091608762741089e-03 7.475672289729118347e-03 -6.269686855375766754e-03 7.339338306337594986e-03 6.811001803725957870e-03 7.007785607129335403e-03 6.985018495470285416e-03 5.952283740043640137e-03 6.909808609634637833e-03 5.545600783079862595e-03 7.090095896273851395e-03 7.804066408425569534e-03 7.019939832389354706e-03 6.033579818904399872e-03 5.868429318070411682e-03 6.565954536199569702e-03 6.237137597054243088e-03 7.806462235748767853e-03 6.488893646746873856e-03 6.677717436105012894e-03 8.644013665616512299e-03 8.325360715389251709e-03 8.685694076120853424e-03 -4.899878054857254028e-03 7.503991015255451202e-03 6.500400137156248093e-03 6.160933990031480789e-03
0.000000000000000000e+00 -0.000000000000000000e+00 -0.000000000000000000e+00 0.000000000000000000e+00 0.000000000000000000e+00 0.000000000000000000e+00 0.000000000000000000e+00 0.000000000000000000e+00 -0.000000000000000000e+00 -0.000000000000000000e+00 -0.000000000000000000e+00 -0.000000000000000000e+00 0.000000000000000000e+00 -0.000000000000000000e+00 0.000000000000000000e+00 -0.000000000000000000e+00 -0.000000000000000000e+00 -0.000000000000000000e+00 0.000000000000000000e+00 -0.000000000000000000e+00 0.000000000000000000e+00 0.000000000000000000e+00 0.000000000000000000e+00 -0.000000000000000000e+00 0.000000000000000000e+00 0.000000000000000000e+00 -0.000000000000000000e+00 0.000000000000000000e+00 0.000000000000000000e+00 0.000000000000000000e+00 -0.000000000000000000e+00 0.000000000000000000e+00 0.000000000000000000e+00 -0.000000000000000000e+00 -0.000000000000000000e+00 -0.000000000000000000e+00 -0.000000000000000000e+00 -0.000000000000000000e+00 -0.000000000000000000e+00 0.000000000000000000e+00 -0.000000000000000000e+00 0.000000000000000000e+00 0.000000000000000000e+00 0.000000000000000000e+00 0.000000000000000000e+00 -0.000000000000000000e+00 0.000000000000000000e+00 0.000000000000000000e+00 -0.000000000000000000e+00 0.000000000000000000e+00 0.000000000000000000e+00 0.000000000000000000e+00 0.000000000000000000e+00 0.000000000000000000e+00 -0.000000000000000000e+00 0.000000000000000000e+00 -0.000000000000000000e+00 -0.000000000000000000e+00 0.000000000000000000e+00 -0.000000000000000000e+00 0.000000000000000000e+00 0.000000000000000000e+00 -0.000000000000000000e+00 0.000000000000000000e+00 6.416941527277231216e-03 8.026432245969772339e-03 7.500579115003347397e-03 7.455246523022651672e-03 -8.127905428409576416e-03 7.315164431929588318e-03 7.023520302027463913e-03 7.235775701701641083e-03 8.403160609304904938e-03 7.360074203461408615e-03 6.343071348965167999e-03 7.498732302337884903e-03 7.910118438303470612e-03 6.481986958533525467e-03 7.053475361317396164e-03 8.989685215055942535e-03 5.732655059546232224e-03 6.671826355159282684e-03 6.280306261032819748e-03 7.239385508000850677e-03 5.793392192572355270e-03 7.808223832398653030e-03 5.869433749467134476e-03 5.789574235677719116e-03 5.663802847266197205e-03 6.698250304907560349e-03 7.366321049630641937e-03 -8.468393236398696899e-03 6.856808438897132874e-03 7.119962945580482483e-03 5.589394830167293549e-03 7.629317231476306915e-03 6.340752355754375458e-03 7.389206439256668091e-03 4.973666276782751083e-03 6.761806551367044449e-03 6.250102538615465164e-03 6.320724263787269592e-03 7.149681914597749710e-03 -6.286551244556903839e-03 6.234796717762947083e-03 7.309979293495416641e-03 6.406117230653762817e-03 6.652231793850660324e-03 6.345458794385194778e-03 6.126614753156900406e-03 6.297140847891569138e-03 7.138937711715698242e-03 7.196968887001276016e-03 7.747003342956304550e-03 6.120126228779554367e-03 5.453210324048995972e-03 6.281126756221055984e-03 6.248646881431341171e-03 6.499452050775289536e-03 6.383303552865982056e-03 7.074009627103805542e-03 9.684537537395954132e-03 8.199755102396011353e-03 9.610775858163833618e-03 -5.172887817025184631e-03 6.950117181986570358e-03 7.071692496538162231e-03 6.075039971619844437e-03
0.000000000000000000e+00 0.000000000000000000e+00 -0.000000000000000000e+00 -0.000000000000000000e+00 0.000000000000000000e+00 0.000000000000000000e+00 -0.000000000000000000e+00 0.000000000000000000e+00 0.000000000000000000e+00 -0.000000000000000000e+00 -0.000000000000000000e+00 -0.000000000000000000e+00 0.000000000000000000e+00 0.000000000000000000e+00 0.000000000000000000e+00 0.000000000000000000e+00 0.000000000000000000e+00 0.000000000000000000e+00 0.000000000000000000e+00 0.000000000000000000e+00 0.000000000000000000e+00 -0.000000000000000000e+00 -0.000000000000000000e+00 0.000000000000000000e+00 -0.000000000000000000e+00 -0.000000000000000000e+00 0.000000000000000000e+00 0.000000000000000000e+00 -0.000000000000000000e+00 0.000000000000000000e+00 0.000000000000000000e+00 -0.000000000000000000e+00 -0.000000000000000000e+00 -0.000000000000000000e+00 0.000000000000000000e+00 -0.000000000000000000e+00 -0.000000000000000000e+00 0.000000000000000000e+00 0.000000000000000000e+00 0.000000000000000000e+00 -0.000000000000000000e+00 0.000000000000000000e+00 -0.000000000000000000e+00 0.000000000000000000e+00 -0.000000000000000000e+00 -0.000000000000000000e+00 -0.000000000000000000e+00 -0.000000000000000000e+00 0.000000000000000000e+00 0.000000000000000000e+00 0.000000000000000000e+00 -0.000000000000000000e+00 0.000000000000000000e+00 0.000000000000000000e+00 0.000000000000000000e+00 0.000000000000000000e+00 0.000000000000000000e+00 0.000000000000000000e+00 -0.000000000000000000e+00 0.000000000000000000e+00 -0.000000000000000000e+00 -0.000000000000000000e+00 0.000000000000000000e+00 0.000000000000000000e+00 1.417823950760066509e-03 1.457633217796683311e-03 1.481926999986171722e-03 1.404990791343152523e-03 1.457304344512522221e-03 1.453611999750137329e-03 1.436137827113270760e-03 1.420289510861039162e-03 1.426653005182743073e-03 1.402737572789192200e-03 1.417745137587189674e-03 1.459667575545608997e-03 1.397220301441848278e-03 1.459596445783972740e-03 1.419644686393439770e-03 1.412992132827639580e-03 1.408629352226853371e-03 1.356760272756218910e-03 8.491290500387549400e-04 1.464360393583774567e-03 1.451595453545451164e-03 1.325633376836776733e-03 1.194151351228356361e-03 1.377439242787659168e-03 1.432239427231252193e-03 1.439668005332350731e-03 1.448731636628508568e-03 1.476089004427194595e-03 1.423045992851257324e-03 1.454332144930958748e-03 1.243534381501376629e-03 1.470265910029411316e-03 1.280258875340223312e-03 1.431702170521020889e-03 1.372769591398537159e-03 1.406729570589959621e-03 1.381564885377883911e-03 1.463560969568789005e-03 1.378914224915206432e-03 1.413198071531951427e-03 1.373038161545991898e-03 1.451956806704401970e-03 1.403996953740715981e-03 1.416241517290472984e-03 1.444986788555979729e-03 1.376460888423025608e-03 1.478063291870057583e-03 1.448307768441736698e-03 1.371144899167120457e-03 1.462978194467723370e-03 1.457475358620285988e-03 1.426646253094077110e-03 1.415046746842563152e-03 1.471579773351550102e-03 1.382158719934523106e-03 1.386020216159522533e-03 1.446188660338521004e-03 1.474077580496668816e-03 1.447893213480710983e-03 1.464822795242071152e-03 1.459449878893792629e-03 1.404778799042105675e-03 1.462248503230512142e-03 1.432110555469989777e-03
0.000000000000000000e+00 0.000000000000000000e+00 0.000000000000000000e+00 -0.000000000000000000e+00 0.000000000000000000e+00 0.000000000000000000e+00 -0.000000000000000000e+00 0.000000000000000000e+00 -0.000000000000000000e+00 -0.000000000000000000e+00 -0.000000000000000000e+00 0.000000000000000000e+00 -0.000000000000000000e+00 -0.000000000000000000e+00 -0.000000000000000000e+00 -0.000000000000000000e+00 0.000000000000000000e+00 0.000000000000000000e+00 0.000000000000000000e+00 -0.000000000000000000e+00 -0.000000000000000000e+00 -0.000000000000000000e+00 -0.000000000000000000e+00 0.000000000000000000e+00 -0.000000000000000000e+00 0.000000000000000000e+00 -0.000000000000000000e+00 0.000000000000000000e+00 -0.000000000000000000e+00 0.000000000000000000e+00 0.000000000000000000e+00 0.000000000000000000e+00 -0.000000000000000000e+00 -0.000000000000000000e+00 0.000000000000000000e+00 -0.000000000000000000e+00 -0.000000000000000000e+00 -0.000000000000000000e+00 0.000000000000000000e+00 -0.000000000000000000e+00 0.000000000000000000e+00 -0.000000000000000000e+00 0.000000000000000000e+00 0.000000000000000000e+00 0.000000000000000000e+00 0.000000000000000000e+00 0.000000000000000000e+00 0.000000000000000000e+00 0.000000000000000000e+00 0.000000000000000000e+00 -0.000000000000000000e+00 0.000000000000000000e+00 -0.000000000000000000e+00 0.000000000000000000e+00 0.000000000000000000e+00 0.000000000000000000e+00 0.000000000000000000e+00 0.000000000000000000e+00 -0.000000000000000000e+00 0.000000000000000000e+00 0.000000000000000000e+00 0.000000000000000000e+00 -0.000000000000000000e+00 -0.000000000000000000e+00 1.387579482980072498e-03 1.425203867256641388e-03 1.471196534112095833e-03 1.382202841341495514e-03 1.446541980840265751e-03 1.424134592525660992e-03 1.422410598024725914e-03 1.396038685925304890e-03 1.387078897096216679e-03 1.362356240861117840e-03 1.395346247591078281e-03 1.440537162125110626e-03 1.376335043460130692e-03 1.439074869267642498e-03 1.385332550853490829e-03 1.371977734379470348e-03 1.380352769047021866e-03 1.327700912952423096e-03 7.763240719214081764e-04 1.427647424861788750e-03 1.427073031663894653e-03 1.297669834457337856e-03 1.154598663561046124e-03 1.356502645649015903e-03 1.383294351398944855e-03 1.406132359988987446e-03 1.402026391588151455e-03 1.435904181562364101e-03 1.386452466249465942e-03 1.431050244718790054e-03 1.186946639791131020e-03 1.446064794436097145e-03 1.230654888786375523e-03 1.402282854542136192e-03 1.337073859758675098e-03 1.379663008265197277e-03 1.371770165860652924e-03 1.421347144059836864e-03 1.351942541077733040e-03 1.382880262099206448e-03 1.339029055088758469e-03 1.422165543772280216e-03 1.377220731228590012e-03 1.378289773128926754e-03 1.415098202414810658e-03 1.339046633802354336e-03 1.430402859114110470e-03 1.406918279826641083e-03 1.330526312813162804e-03 1.437505357898771763e-03 1.431799144484102726e-03 1.378533430397510529e-03 1.383315655402839184e-03 1.462528482079505920e-03 1.327546313405036926e-03 1.361216651275753975e-03 1.415890175849199295e-03 1.454657176509499550e-03 1.430257223546504974e-03 1.444286550395190716e-03 1.429565250873565674e-03 1.361969509162008762e-03 1.441769534721970558e-03 1.407873583957552910e-03
0.000000000000000000e+00 0.000000000000000000e+00 0.000000000000000000e+00 -0.000000000000000000e+00 -0.000000000000000000e+00 0.000000000000000000e+00 -0.000000000000000000e+00 0.000000000000000000e+00 0.000000000000000000e+00 -0.000000000000000000e+00 -0.000000000000000000e+00 -0.000000000000000000e+00 0.000000000000000000e+00 0.000000000000000000e+00 0.000000000000000000e+00 0.000000000000000000e+00 0.000000000000000000e+00 0.000000000000000000e+00 -0.000000000000000000e+00 0.000000000000000000e+00 -0.000000000000000000e+00 -0.000000000000000000e+00 0.000000000000000000e+00 0.000000000000000000e+00 0.000000000000000000e+00 0.000000000000000000e+00 -0.000000000000000000e+00 0.000000000000000000e+00 0.000000000000000000e+00 0.000000000000000000e+00 -0.000000000000000000e+00 0.000000000000000000e+00 0.000000000000000000e+00 0.000000000000000000e+00 -0.000000000000000000e+00 -0.000000000000000000e+00 -0.000000000000000000e+00 -0.000000000000000000e+00 0.000000000000000000e+00 0.000000000000000000e+00 0.000000000000000000e+00 0.000000000000000000e+00 0.000000000000000000e+00 0.000000000000000000e+00 0.000000000000000000e+00 0.000000000000000000e+00 0.000000000000000000e+00 -0.000000000000000000e+00 0.000000000000000000e+00 -0.000000000000000000e+00 0.000000000000000000e+00 -0.000000000000000000e+00 0.000000000000000000e+00 0.000000000000000000e+00 -0.000000000000000000e+00 -0.000000000000000000e+00 -0.000000000000000000e+00 -0.000000000000000000e+00 -0.000000000000000000e+00 -0.000000000000000000e+00 -0.000000000000000000e+00 -0.000000000000000000e+00 0.000000000000000000e+00 -0.000000000000000000e+00 2.152639906853437424e-03 1.718999817967414856e-03 2.091435249894857407e-03 1.353418803773820400e-03 2.379792975261807442e-03 1.386383664794266224e-03 1.944660791195929050e-03 2.392756752669811249e-03 1.512522925622761250e-03 1.588370651006698608e-03 1.998072490096092224e-03 1.334936125203967094e-03 1.430919510312378407e-03 2.259210217744112015e-03 2.357877558097243309e-03 1.220985315740108490e-03 2.135197166353464127e-03 1.846664003096520901e-03 1.605232362635433674e-03 2.276097889989614487e-03 2.211759332567453384e-03 1.696655293926596642e-03 1.533223199658095837e-03 1.637455658055841923e-03 1.355869579128921032e-03 1.833842135965824127e-03 1.422185567207634449e-03 2.038627164438366890e-03 2.218813169747591019e-03 2.004751237109303474e-03 1.418300322256982327e-03 2.111503388732671738e-03 1.525132218375802040e-03 1.743088359944522381e-03 1.605901285074651241e-03 1.451013959012925625e-03 2.247166819870471954e-03 1.987059367820620537e-03 1.747464644722640514e-03 1.176224322989583015e-03 1.788352848961949348e-03 1.428217394277453423e-03 1.724335364997386932e-03 2.384378574788570404e-03 1.304292702116072178e-03 1.259237877093255520e-03 1.898159622214734554e-03 1.410776516422629356e-03 1.686195493675768375e-03 1.471635419875383377e-03 2.160714007914066315e-03 1.194039243273437023e-03 1.005475525744259357e-03 1.966506475582718849e-03 1.537839532829821110e-03 1.202736049890518188e-03 2.504254225641489029e-03 2.227763645350933075e-03 1.824846840463578701e-03 1.662927446886897087e-03 2.150384243577718735e-03 9.829634800553321838e-04 2.174354624003171921e-03 1.167893293313682079e-03
