2.036098577082157135e-02
1.026084050536155701e-01
-7.430177181959152222e-02
1.263462454080581665e-01
1.530362069606781006e-01
-8.529356122016906738e-02
-8.012978360056877136e-03
4.388887435197830200e-02
-3.275610506534576416e-02
-5.941165238618850708e-02
3.467587754130363464e-02
-7.734698057174682617e-02
1.466905977576971054e-02
4.437482729554176331e-02
8.688037097454071045e-02
-1.057941764593124390e-01
4.883860796689987183e-02
-7.680353522300720215e-02
7.781489938497543335e-02
-5.778758786618709564e-03
-1.339551657438278198e-01
-2.077982574701309204e-01
1.709181256592273712e-02
1.817986718378961086e-03
9.983479976654052734e-02
2.073296345770359039e-02
1.211976930499076843e-01
9.536141902208328247e-02
-1.145765855908393860e-01
9.936802089214324951e-02
-9.256183356046676636e-02
2.985492348670959473e-02
9.716538339853286743e-02
-1.860608346760272980e-02
6.179628893733024597e-02
-3.672427311539649963e-02
-1.477983295917510986e-01
1.088617090135812759e-02
-1.049314290285110474e-01
8.271712064743041992e-02
5.743585899472236633e-02
-8.377071470022201538e-02
1.112751811742782593e-01
-4.101282730698585510e-02
7.199618965387344360e-02
-5.913448333740234375e-02
7.882548868656158447e-02
5.179828405380249023e-02
-3.017081134021282196e-02
-3.790963441133499146e-02
-1.522767543792724609e-01
-1.760427653789520264e-01
8.519914746284484863e-02
-1.216301843523979187e-01
-1.278567612171173096e-01
6.404820829629898071e-02
-2.016841173171997070e-01
-1.113512273877859116e-02
-5.238007754087448120e-02
5.879360064864158630e-02
-2.022019326686859131e-01
1.159852892160415649e-01
5.586440861225128174e-02
1.943491101264953613e-01
4.027812927961349487e-02
-3.603466227650642395e-02
-1.261040121316909790e-01
-9.854429960250854492e-02
-6.101808324456214905e-02
-5.383820272982120514e-03
3.672557696700096130e-02
-1.976716332137584686e-02
-1.283605955541133881e-02
-3.350388631224632263e-02
-7.277274876832962036e-02
7.053053472191095352e-03
1.204607542604207993e-02
-2.985770255327224731e-02
1.778180338442325592e-02
-5.420631542801856995e-02
1.088246107101440430e-01
-2.341531775891780853e-02
7.675548642873764038e-02
4.924403876066207886e-02
1.284903148189187050e-03
-9.168710559606552124e-03
1.049714349210262299e-02
3.157415241003036499e-02
3.623197227716445923e-02
1.336161643266677856e-01
1.122372969985008240e-01
4.347041621804237366e-02
1.345527358353137970e-02
-1.236283872276544571e-02
5.185545235872268677e-02
-1.089826673269271851e-01
1.661668345332145691e-02
-1.936195977032184601e-02
1.870791427791118622e-02
1.641421578824520111e-03
-1.305149286054074764e-03
8.358004689216613770e-02
1.435279995203018188e-01
-1.671423465013504028e-01
5.444202944636344910e-02
-4.299638792872428894e-03
-1.821382530033588409e-02
-7.890343666076660156e-02
-4.067011177539825439e-02
-4.316351562738418579e-02
-3.563037514686584473e-02
8.398807048797607422e-02
-2.156345918774604797e-02
-8.247207850217819214e-03
-3.644775599241256714e-02
-3.835054486989974976e-02
6.349722389131784439e-03
-3.376622044015675783e-04
6.190117076039314270e-02
-1.500556915998458862e-01
2.778027579188346863e-02
-3.040240146219730377e-02
4.221275076270103455e-02
-7.285875827074050903e-02
4.522729292511940002e-02
-3.035072237253189087e-02
-1.130317151546478271e-02
1.544986758381128311e-02
