0.000000000000000000e+00 -0.000000000000000000e+00 -0.000000000000000000e+00 0.000000000000000000e+00 -0.000000000000000000e+00 -0.000000000000000000e+00 -0.000000000000000000e+00 -0.000000000000000000e+00 0.000000000000000000e+00 0.000000000000000000e+00 0.000000000000000000e+00 -0.000000000000000000e+00 -0.000000000000000000e+00 -0.000000000000000000e+00 -0.000000000000000000e+00 -0.000000000000000000e+00 0.000000000000000000e+00 -0.000000000000000000e+00 0.000000000000000000e+00 -0.000000000000000000e+00 0.000000000000000000e+00 0.000000000000000000e+00 -0.000000000000000000e+00 -0.000000000000000000e+00 -0.000000000000000000e+00 0.000000000000000000e+00 0.000000000000000000e+00 -0.000000000000000000e+00 -0.000000000000000000e+00 0.000000000000000000e+00 0.000000000000000000e+00 0.000000000000000000e+00 0.000000000000000000e+00 -0.000000000000000000e+00 -0.000000000000000000e+00 -0.000000000000000000e+00 -0.000000000000000000e+00 0.000000000000000000e+00 -0.000000000000000000e+00 0.000000000000000000e+00 -0.000000000000000000e+00 0.000000000000000000e+00 0.000000000000000000e+00 -0.000000000000000000e+00 -0.000000000000000000e+00 -0.000000000000000000e+00 -0.000000000000000000e+00 -0.000000000000000000e+00 0.000000000000000000e+00 -0.000000000000000000e+00 0.000000000000000000e+00 0.000000000000000000e+00 -0.000000000000000000e+00 0.000000000000000000e+00 0.000000000000000000e+00 -0.000000000000000000e+00 0.000000000000000000e+00 0.000000000000000000e+00 -0.000000000000000000e+00 -0.000000000000000000e+00 0.000000000000000000e+00 -0.000000000000000000e+00 -0.000000000000000000e+00 0.000000000000000000e+00 8.522951602935791016e-02 -1.107205450534820557e-01 1.028259657323360443e-02 -3.825295716524124146e-02 -5.837554857134819031e-02 2.338509075343608856e-02 4.113391041755676270e-03 4.102658480405807495e-02 -3.084902651607990265e-02 2.268971689045429230e-02 2.830393984913825989e-02 8.463826775550842285e-02 1.938273385167121887e-02 -1.546139363199472427e-02 1.260122060775756836e-01 1.140089929103851318e-01 9.559000283479690552e-02 -5.309675261378288269e-02 4.614824056625366211e-02 -1.421160846948623657e-01 -3.430311754345893860e-02 -4.377450421452522278e-02 -3.465266153216362000e-02 -3.142231330275535583e-02 -1.900547742843627930e-01 2.375942841172218323e-02 4.894677549600601196e-02 -7.466354407370090485e-03 7.870990782976150513e-02 7.575682550668716431e-02 5.771995335817337036e-02 -2.485959092155098915e-03 7.594662159681320190e-02 -1.687265932559967041e-02 9.556159377098083496e-02 -2.859023027122020721e-02 -2.567400042607914656e-05 4.771681502461433411e-02 1.847117021679878235e-02 -1.312486827373504639e-01 -7.251597195863723755e-02 -8.186078071594238281e-02 -9.228495508432388306e-02 -6.825879961252212524e-02 2.551751956343650818e-02 2.600097283720970154e-02 7.660941779613494873e-02 -1.872859708964824677e-02 4.657935723662376404e-02 -3.509030444547533989e-03 -6.445316225290298462e-02 -6.117985397577285767e-02 1.018301397562026978e-02 -8.799643255770206451e-03 1.319279074668884277e-01 -1.237796396017074585e-01 -2.589713549241423607e-03 -1.409305185079574585e-01 8.091625757515430450e-03 5.667336285114288330e-02 7.553207874298095703e-02 -1.353962570428848267e-01 -2.630427666008472443e-02 2.693235129117965698e-02
-0.000000000000000000e+00 -0.000000000000000000e+00 0.000000000000000000e+00 0.000000000000000000e+00 -0.000000000000000000e+00 -0.000000000000000000e+00 0.000000000000000000e+00 -0.000000000000000000e+00 0.000000000000000000e+00 0.000000000000000000e+00 0.000000000000000000e+00 -0.000000000000000000e+00 -0.000000000000000000e+00 0.000000000000000000e+00 0.000000000000000000e+00 -0.000000000000000000e+00 0.000000000000000000e+00 -0.000000000000000000e+00 0.000000000000000000e+00 -0.000000000000000000e+00 0.000000000000000000e+00 -0.000000000000000000e+00 -0.000000000000000000e+00 -0.000000000000000000e+00 -0.000000000000000000e+00 -0.000000000000000000e+00 -0.000000000000000000e+00 0.000000000000000000e+00 0.000000000000000000e+00 -0.000000000000000000e+00 0.000000000000000000e+00 0.000000000000000000e+00 0.000000000000000000e+00 0.000000000000000000e+00 -0.000000000000000000e+00 -0.000000000000000000e+00 0.000000000000000000e+00 -0.000000000000000000e+00 -0.000000000000000000e+00 -0.000000000000000000e+00 -0.000000000000000000e+00 0.000000000000000000e+00 -0.000000000000000000e+00 -0.000000000000000000e+00 0.000000000000000000e+00 -0.000000000000000000e+00 0.000000000000000000e+00 0.000000000000000000e+00 -0.000000000000000000e+00 -0.000000000000000000e+00 0.000000000000000000e+00 -0.000000000000000000e+00 -0.000000000000000000e+00 0.000000000000000000e+00 0.000000000000000000e+00 0.000000000000000000e+00 -0.000000000000000000e+00 0.000000000000000000e+00 0.000000000000000000e+00 -0.000000000000000000e+00 -0.000000000000000000e+00 0.000000000000000000e+00 0.000000000000000000e+00 0.000000000000000000e+00 9.337948262691497803e-02 -3.806794062256813049e-02 5.606759712100028992e-02 -1.565229445695877075e-01 1.012011244893074036e-01 8.679060637950897217e-02 1.048483625054359436e-01 -4.184050485491752625e-02 1.737671792507171631e-01 2.862537465989589691e-02 2.056619711220264435e-02 -1.028471887111663818e-01 -4.882942140102386475e-02 9.415165521204471588e-03 -3.508689254522323608e-02 -1.666020252741873264e-03 -6.945290416479110718e-02 -6.047056242823600769e-02 -7.086629420518875122e-02 9.913305751979351044e-03 -3.979359194636344910e-02 1.989821493625640869e-01 5.053243134170770645e-03 2.961089834570884705e-02 -4.104974865913391113e-02 -8.414963260293006897e-03 1.589179970324039459e-02 -1.061136946082115173e-01 -1.133638098835945129e-01 -1.967860199511051178e-02 1.180328428745269775e-02 5.438067391514778137e-02 1.358661353588104248e-01 -7.376890629529953003e-02 -8.644613437354564667e-03 -2.531591802835464478e-02 -5.381999164819717407e-02 3.539090510457754135e-03 -4.032105952501296997e-02 -3.727618139237165451e-03 1.508350521326065063e-01 -1.634035818278789520e-02 1.505511701107025146e-01 8.738461881875991821e-02 -6.914427876472473145e-02 1.128365695476531982e-01 -7.700265944004058838e-02 -5.570737272500991821e-02 8.037307858467102051e-02 -1.003027632832527161e-01 -2.756803296506404877e-02 -1.130646616220474243e-01 1.416096389293670654e-01 2.088771574199199677e-02 3.897050023078918457e-02 -9.594481438398361206e-02 3.404188156127929688e-02 8.497453480958938599e-02 9.265205264091491699e-02 7.508695870637893677e-02 1.824165694415569305e-02 3.977133426815271378e-03 1.325061172246932983e-02 -7.496307790279388428e-02
0.000000000000000000e+00 0.000000000000000000e+00 0.000000000000000000e+00 0.000000000000000000e+00 -0.000000000000000000e+00 0.000000000000000000e+00 -0.000000000000000000e+00 0.000000000000000000e+00 0.000000000000000000e+00 0.000000000000000000e+00 0.000000000000000000e+00 0.000000000000000000e+00 0.000000000000000000e+00 -0.000000000000000000e+00 0.000000000000000000e+00 0.000000000000000000e+00 -0.000000000000000000e+00 -0.000000000000000000e+00 0.000000000000000000e+00 0.000000000000000000e+00 0.000000000000000000e+00 0.000000000000000000e+00 -0.000000000000000000e+00 -0.000000000000000000e+00 0.000000000000000000e+00 -0.000000000000000000e+00 -0.000000000000000000e+00 -0.000000000000000000e+00 -0.000000000000000000e+00 -0.000000000000000000e+00 0.000000000000000000e+00 0.000000000000000000e+00 0.000000000000000000e+00 0.000000000000000000e+00 0.000000000000000000e+00 0.000000000000000000e+00 0.000000000000000000e+00 0.000000000000000000e+00 -0.000000000000000000e+00 0.000000000000000000e+00 -0.000000000000000000e+00 0.000000000000000000e+00 0.000000000000000000e+00 0.000000000000000000e+00 0.000000000000000000e+00 0.000000000000000000e+00 0.000000000000000000e+00 -0.000000000000000000e+00 0.000000000000000000e+00 -0.000000000000000000e+00 -0.000000000000000000e+00 0.000000000000000000e+00 -0.000000000000000000e+00 0.000000000000000000e+00 -0.000000000000000000e+00 -0.000000000000000000e+00 -0.000000000000000000e+00 -0.000000000000000000e+00 0.000000000000000000e+00 0.000000000000000000e+00 0.000000000000000000e+00 0.000000000000000000e+00 -0.000000000000000000e+00 0.000000000000000000e+00 2.381175011396408081e-02 6.054690480232238770e-02 -4.318146407604217529e-02 4.316019266843795776e-02 -8.585727959871292114e-02 3.266298398375511169e-02 -5.386013165116310120e-02 -1.265806853771209717e-01 -6.900539249181747437e-02 -4.461143910884857178e-02 3.207391500473022461e-02 3.046126663684844971e-02 4.588526859879493713e-02 4.972876235842704773e-02 1.351561211049556732e-02 -3.315578401088714600e-02 -8.566419035196304321e-02 1.172778159379959106e-01 5.899832770228385925e-02 -5.632300861179828644e-03 -3.179454058408737183e-02 2.177168428897857666e-02 -8.882588706910610199e-03 -1.611033454537391663e-02 -1.449925601482391357e-01 -1.864355802536010742e-02 -1.083731576800346375e-01 -5.337078869342803955e-02 2.229486592113971710e-02 -1.452511642128229141e-03 6.558140367269515991e-02 2.482030540704727173e-02 3.010546974837779999e-02 1.372126340866088867e-01 4.674241319298744202e-02 -7.497615367174148560e-02 1.062582880258560181e-01 -3.313673078082501888e-04 4.564219713211059570e-02 -1.004973575472831726e-01 9.122268296778202057e-03 -1.107075363397598267e-01 -1.463182419538497925e-01 -1.082961484789848328e-01 -1.159506440162658691e-01 -1.663680076599121094e-01 9.724980220198631287e-03 4.684450477361679077e-02 2.371410373598337173e-03 -1.460566371679306030e-01 -4.177908971905708313e-02 1.248349621891975403e-01 -5.205714143812656403e-03 5.453843250870704651e-02 -1.115688160061836243e-01 -6.401357054710388184e-02 -6.191675364971160889e-02 9.287548065185546875e-02 3.169620782136917114e-02 -4.072427004575729370e-02 1.108195073902606964e-02 -6.239129975438117981e-02 -1.291993819177150726e-02 3.534887731075286865e-02
-0.000000000000000000e+00 -0.000000000000000000e+00 -0.000000000000000000e+00 0.000000000000000000e+00 0.000000000000000000e+00 -0.000000000000000000e+00 0.000000000000000000e+00 -0.000000000000000000e+00 -0.000000000000000000e+00 0.000000000000000000e+00 -0.000000000000000000e+00 0.000000000000000000e+00 0.000000000000000000e+00 -0.000000000000000000e+00 0.000000000000000000e+00 0.000000000000000000e+00 -0.000000000000000000e+00 -0.000000000000000000e+00 0.000000000000000000e+00 -0.000000000000000000e+00 0.000000000000000000e+00 -0.000000000000000000e+00 -0.000000000000000000e+00 0.000000000000000000e+00 0.000000000000000000e+00 0.000000000000000000e+00 -0.000000000000000000e+00 0.000000000000000000e+00 0.000000000000000000e+00 -0.000000000000000000e+00 -0.000000000000000000e+00 -0.000000000000000000e+00 0.000000000000000000e+00 -0.000000000000000000e+00 0.000000000000000000e+00 0.000000000000000000e+00 -0.000000000000000000e+00 0.000000000000000000e+00 0.000000000000000000e+00 -0.000000000000000000e+00 0.000000000000000000e+00 0.000000000000000000e+00 0.000000000000000000e+00 0.000000000000000000e+00 0.000000000000000000e+00 0.000000000000000000e+00 0.000000000000000000e+00 0.000000000000000000e+00 0.000000000000000000e+00 -0.000000000000000000e+00 0.000000000000000000e+00 0.000000000000000000e+00 -0.000000000000000000e+00 -0.000000000000000000e+00 -0.000000000000000000e+00 0.000000000000000000e+00 -0.000000000000000000e+00 0.000000000000000000e+00 -0.000000000000000000e+00 -0.000000000000000000e+00 0.000000000000000000e+00 0.000000000000000000e+00 0.000000000000000000e+00 0.000000000000000000e+00 8.649315685033798218e-02 4.764058068394660950e-02 -2.397963404655456543e-02 1.401906907558441162e-01 3.231555595993995667e-02 -7.665780931711196899e-02 -4.335581138730049133e-02 8.865983039140701294e-02 -1.263091564178466797e-01 7.941131293773651123e-02 -6.509227305650711060e-02 -1.439712941646575928e-01 -9.709970653057098389e-02 4.919084534049034119e-02 -1.808283035643398762e-03 1.015933416783809662e-02 -7.949174940586090088e-02 7.218434661626815796e-02 1.111407503485679626e-01 6.879805773496627808e-02 -9.607096202671527863e-03 1.745366305112838745e-02 8.163393475115299225e-03 3.607047721743583679e-02 4.084503278136253357e-02 -8.183869719505310059e-02 9.086760878562927246e-02 1.667712330818176270e-01 -1.365833729505538940e-02 -2.110753655433654785e-01 -3.265649080276489258e-02 -1.021320819854736328e-01 1.228022128343582153e-01 1.019496470689773560e-01 2.474364824593067169e-02 7.427928596735000610e-02 4.958554729819297791e-02 -6.214353069663047791e-02 5.611547082662582397e-02 -1.531963795423507690e-02 2.081445790827274323e-02 1.381530147045850754e-02 2.330537885427474976e-02 1.302966196089982986e-02 -1.288426108658313751e-02 1.795341446995735168e-02 -4.965190961956977844e-02 -2.207542397081851959e-02 1.086499467492103577e-01 -1.478903833776712418e-02 -7.480070926249027252e-03 8.388312160968780518e-02 2.564551308751106262e-02 -7.424183934926986694e-02 -9.943899698555469513e-03 5.037897452712059021e-02 4.417774081230163574e-02 6.742704659700393677e-02 5.316937342286109924e-02 7.539843767881393433e-02 6.554144620895385742e-02 -8.415763825178146362e-02 -3.601853922009468079e-02 -2.581171505153179169e-02
-0.000000000000000000e+00 0.000000000000000000e+00 -0.000000000000000000e+00 0.000000000000000000e+00 0.000000000000000000e+00 0.000000000000000000e+00 -0.000000000000000000e+00 -0.000000000000000000e+00 -0.000000000000000000e+00 0.000000000000000000e+00 -0.000000000000000000e+00 0.000000000000000000e+00 -0.000000000000000000e+00 0.000000000000000000e+00 -0.000000000000000000e+00 -0.000000000000000000e+00 0.000000000000000000e+00 0.000000000000000000e+00 -0.000000000000000000e+00 0.000000000000000000e+00 -0.000000000000000000e+00 0.000000000000000000e+00 -0.000000000000000000e+00 0.000000000000000000e+00 0.000000000000000000e+00 0.000000000000000000e+00 -0.000000000000000000e+00 -0.000000000000000000e+00 0.000000000000000000e+00 0.000000000000000000e+00 -0.000000000000000000e+00 -0.000000000000000000e+00 -0.000000000000000000e+00 -0.000000000000000000e+00 -0.000000000000000000e+00 -0.000000000000000000e+00 0.000000000000000000e+00 0.000000000000000000e+00 0.000000000000000000e+00 -0.000000000000000000e+00 -0.000000000000000000e+00 0.000000000000000000e+00 -0.000000000000000000e+00 0.000000000000000000e+00 -0.000000000000000000e+00 0.000000000000000000e+00 -0.000000000000000000e+00 -0.000000000000000000e+00 -0.000000000000000000e+00 0.000000000000000000e+00 0.000000000000000000e+00 0.000000000000000000e+00 0.000000000000000000e+00 0.000000000000000000e+00 -0.000000000000000000e+00 0.000000000000000000e+00 0.000000000000000000e+00 0.000000000000000000e+00 0.000000000000000000e+00 0.000000000000000000e+00 0.000000000000000000e+00 -0.000000000000000000e+00 0.000000000000000000e+00 -0.000000000000000000e+00 2.731025964021682739e-02 1.247104927897453308e-01 4.106531664729118347e-02 -2.638185396790504456e-02 1.269423961639404297e-01 -5.744727328419685364e-02 -1.691799424588680267e-02 -3.436074033379554749e-02 -1.038380563259124756e-01 -2.575445361435413361e-02 7.342572510242462158e-02 -5.548175796866416931e-02 -9.388609975576400757e-02 4.739183560013771057e-02 6.868995726108551025e-02 3.915647510439157486e-03 1.783030927181243896e-01 2.635439112782478333e-02 -2.092198282480239868e-02 2.486114576458930969e-02 -2.396427467465400696e-02 1.507546156644821167e-01 -6.474400311708450317e-02 2.780017210170626640e-03 7.664272934198379517e-02 9.290470927953720093e-02 2.096346765756607056e-02 -9.495620429515838623e-02 1.086682826280593872e-01 -1.993991248309612274e-02 -8.730159141123294830e-03 8.747939020395278931e-02 4.008845239877700806e-02 -7.504958659410476685e-02 -1.050185337662696838e-01 -7.843786478042602539e-02 9.802392125129699707e-02 4.944013804197311401e-02 8.574067801237106323e-02 -4.658878967165946960e-02 -1.286975748371332884e-04 1.017536669969558716e-01 6.273570656776428223e-02 -1.300788074731826782e-01 -6.444013118743896484e-02 -3.072858788073062897e-02 3.333424450829625130e-03 -4.817828908562660217e-02 6.047518551349639893e-02 -1.304145622998476028e-02 5.655072629451751709e-02 -3.932816162705421448e-02 -6.540191918611526489e-02 -4.714087024331092834e-02 -1.165311411023139954e-02 5.108606070280075073e-02 3.941575065255165100e-02 -7.745384424924850464e-02 -3.365020826458930969e-02 -7.724951487034559250e-03 -5.556301772594451904e-02 -1.598888933658599854e-01 9.114324348047375679e-04 -5.981714650988578796e-02
-0.000000000000000000e+00 0.000000000000000000e+00 -0.000000000000000000e+00 -0.000000000000000000e+00 0.000000000000000000e+00 -0.000000000000000000e+00 0.000000000000000000e+00 -0.000000000000000000e+00 -0.000000000000000000e+00 -0.000000000000000000e+00 -0.000000000000000000e+00 -0.000000000000000000e+00 0.000000000000000000e+00 0.000000000000000000e+00 -0.000000000000000000e+00 -0.000000000000000000e+00 0.000000000000000000e+00 -0.000000000000000000e+00 0.000000000000000000e+00 -0.000000000000000000e+00 -0.000000000000000000e+00 0.000000000000000000e+00 0.000000000000000000e+00 -0.000000000000000000e+00 -0.000000000000000000e+00 -0.000000000000000000e+00 0.000000000000000000e+00 0.000000000000000000e+00 -0.000000000000000000e+00 0.000000000000000000e+00 0.000000000000000000e+00 -0.000000000000000000e+00 0.000000000000000000e+00 0.000000000000000000e+00 0.000000000000000000e+00 -0.000000000000000000e+00 -0.000000000000000000e+00 0.000000000000000000e+00 -0.000000000000000000e+00 -0.000000000000000000e+00 -0.000000000000000000e+00 0.000000000000000000e+00 -0.000000000000000000e+00 0.000000000000000000e+00 0.000000000000000000e+00 -0.000000000000000000e+00 -0.000000000000000000e+00 -0.000000000000000000e+00 0.000000000000000000e+00 -0.000000000000000000e+00 -0.000000000000000000e+00 0.000000000000000000e+00 -0.000000000000000000e+00 -0.000000000000000000e+00 0.000000000000000000e+00 -0.000000000000000000e+00 -0.000000000000000000e+00 0.000000000000000000e+00 0.000000000000000000e+00 -0.000000000000000000e+00 0.000000000000000000e+00 0.000000000000000000e+00 -0.000000000000000000e+00 -0.000000000000000000e+00 -9.491810947656631470e-02 -1.265604980289936066e-02 1.516239996999502182e-02 1.289091631770133972e-02 -6.584945321083068848e-02 -1.562285237014293671e-02 7.529826462268829346e-02 -7.728336006402969360e-02 -1.012502536177635193e-01 -8.212759345769882202e-02 6.770472228527069092e-02 1.518528442829847336e-02 5.221093073487281799e-02 5.082546733319759369e-03 -1.042089983820915222e-01 6.371811777353286743e-02 -6.505099684000015259e-02 2.894807048141956329e-02 -9.934802353382110596e-02 1.475331336259841919e-01 -2.590313367545604706e-02 -2.410994470119476318e-02 -7.258889824151992798e-02 -6.029210239648818970e-02 9.535732865333557129e-02 -7.766613364219665527e-02 -2.387166023254394531e-02 -2.688408084213733673e-02 -2.053010649979114532e-02 -2.177637517452239990e-01 -3.926002979278564453e-02 -5.295754969120025635e-02 -2.777721919119358063e-02 -4.774473235011100769e-02 1.062813550233840942e-01 2.570257894694805145e-02 -8.959871530532836914e-02 8.767385780811309814e-02 5.285695567727088928e-02 -1.366093158721923828e-01 1.426274329423904419e-01 9.056924283504486084e-02 -7.612361758947372437e-02 7.282983511686325073e-02 -7.062299549579620361e-02 -1.741174049675464630e-02 8.043275028467178345e-02 -7.031365297734737396e-03 -9.649069607257843018e-02 -5.317645147442817688e-02 1.132832318544387817e-01 -3.957345709204673767e-02 -1.793629825115203857e-01 3.678846359252929688e-02 -3.519614040851593018e-02 -2.769425511360168457e-02 3.163589164614677429e-02 -3.013046644628047943e-02 7.464085705578327179e-03 2.759542129933834076e-02 4.723326768726110458e-03 -5.215037148445844650e-03 -7.540638744831085205e-02 9.313266724348068237e-02
-0.000000000000000000e+00 -0.000000000000000000e+00 -0.000000000000000000e+00 0.000000000000000000e+00 -0.000000000000000000e+00 0.000000000000000000e+00 0.000000000000000000e+00 0.000000000000000000e+00 0.000000000000000000e+00 0.000000000000000000e+00 -0.000000000000000000e+00 0.000000000000000000e+00 0.000000000000000000e+00 -0.000000000000000000e+00 -0.000000000000000000e+00 0.000000000000000000e+00 0.000000000000000000e+00 0.000000000000000000e+00 0.000000000000000000e+00 0.000000000000000000e+00 -0.000000000000000000e+00 -0.000000000000000000e+00 0.000000000000000000e+00 0.000000000000000000e+00 -0.000000000000000000e+00 -0.000000000000000000e+00 0.000000000000000000e+00 0.000000000000000000e+00 -0.000000000000000000e+00 0.000000000000000000e+00 -0.000000000000000000e+00 -0.000000000000000000e+00 -0.000000000000000000e+00 -0.000000000000000000e+00 -0.000000000000000000e+00 0.000000000000000000e+00 0.000000000000000000e+00 -0.000000000000000000e+00 0.000000000000000000e+00 0.000000000000000000e+00 0.000000000000000000e+00 -0.000000000000000000e+00 -0.000000000000000000e+00 0.000000000000000000e+00 -0.000000000000000000e+00 -0.000000000000000000e+00 0.000000000000000000e+00 0.000000000000000000e+00 -0.000000000000000000e+00 0.000000000000000000e+00 0.000000000000000000e+00 -0.000000000000000000e+00 -0.000000000000000000e+00 -0.000000000000000000e+00 -0.000000000000000000e+00 -0.000000000000000000e+00 -0.000000000000000000e+00 0.000000000000000000e+00 0.000000000000000000e+00 0.000000000000000000e+00 -0.000000000000000000e+00 -0.000000000000000000e+00 0.000000000000000000e+00 0.000000000000000000e+00 -6.817127764225006104e-02 2.312876097857952118e-02 1.638489812612533569e-01 5.914803594350814819e-02 1.039868742227554321e-01 -6.912793964147567749e-02 1.428119093179702759e-02 -4.686177894473075867e-02 -7.764582335948944092e-02 8.111836388707160950e-03 9.202873706817626953e-02 -7.974419742822647095e-03 -4.152049776166677475e-03 3.718241304159164429e-02 -1.693806983530521393e-02 -7.065790891647338867e-02 -1.440604031085968018e-01 6.015568599104881287e-02 7.626654207706451416e-02 4.535397142171859741e-02 2.370841987431049347e-02 -5.583652481436729431e-02 -5.769832432270050049e-02 -2.926770225167274475e-02 2.708032168447971344e-02 -4.891164228320121765e-02 -1.063641682267189026e-01 -1.147112771868705750e-01 1.798547990620136261e-02 6.693457067012786865e-02 1.146387457847595215e-01 1.003625467419624329e-01 -3.421076387166976929e-02 -5.369375273585319519e-02 -1.318775713443756104e-01 1.085534021258354187e-01 -7.443317770957946777e-02 -7.274018228054046631e-02 1.096736341714859009e-01 -2.315442636609077454e-02 3.273389488458633423e-02 3.481015190482139587e-02 -2.426186017692089081e-02 -8.159076422452926636e-02 1.171315014362335205e-01 -1.234497725963592529e-01 1.636849716305732727e-03 -4.812769964337348938e-02 -5.347137898206710815e-02 -8.989148773252964020e-03 1.175895705819129944e-02 -1.666712909936904907e-01 2.703820727765560150e-02 -1.444987859576940536e-02 2.936589764431118965e-03 -4.393947124481201172e-02 -1.074971631169319153e-01 1.930097490549087524e-02 6.279499828815460205e-02 -1.126003563404083252e-01 -5.807125940918922424e-02 1.074226275086402893e-01 -1.520572900772094727e-01 2.010755613446235657e-02
-0.000000000000000000e+00 -0.000000000000000000e+00 0.000000000000000000e+00 0.000000000000000000e+00 0.000000000000000000e+00 0.000000000000000000e+00 0.000000000000000000e+00 0.000000000000000000e+00 0.000000000000000000e+00 0.000000000000000000e+00 -0.000000000000000000e+00 0.000000000000000000e+00 0.000000000000000000e+00 0.000000000000000000e+00 0.000000000000000000e+00 0.000000000000000000e+00 0.000000000000000000e+00 -0.000000000000000000e+00 0.000000000000000000e+00 -0.000000000000000000e+00 0.000000000000000000e+00 -0.000000000000000000e+00 -0.000000000000000000e+00 -0.000000000000000000e+00 -0.000000000000000000e+00 0.000000000000000000e+00 -0.000000000000000000e+00 -0.000000000000000000e+00 0.000000000000000000e+00 -0.000000000000000000e+00 0.000000000000000000e+00 0.000000000000000000e+00 0.000000000000000000e+00 0.000000000000000000e+00 0.000000000000000000e+00 -0.000000000000000000e+00 -0.000000000000000000e+00 0.000000000000000000e+00 0.000000000000000000e+00 0.000000000000000000e+00 0.000000000000000000e+00 0.000000000000000000e+00 0.000000000000000000e+00 0.000000000000000000e+00 -0.000000000000000000e+00 -0.000000000000000000e+00 -0.000000000000000000e+00 -0.000000000000000000e+00 0.000000000000000000e+00 -0.000000000000000000e+00 0.000000000000000000e+00 -0.000000000000000000e+00 0.000000000000000000e+00 -0.000000000000000000e+00 0.000000000000000000e+00 0.000000000000000000e+00 0.000000000000000000e+00 -0.000000000000000000e+00 -0.000000000000000000e+00 0.000000000000000000e+00 0.000000000000000000e+00 -0.000000000000000000e+00 -0.000000000000000000e+00 -0.000000000000000000e+00 1.128266602754592896e-01 -3.640774637460708618e-02 -8.757538162171840668e-03 8.536691218614578247e-02 1.233403943479061127e-02 -6.340815126895904541e-02 -9.758714586496353149e-03 4.193928837776184082e-02 -1.065855771303176880e-01 1.105424575507640839e-02 5.295277386903762817e-02 3.907080739736557007e-02 -7.555995881557464600e-02 2.687126211822032928e-02 1.110866144299507141e-01 -9.168720245361328125e-02 -4.088731855154037476e-02 1.242336537688970566e-02 1.148364469408988953e-01 1.358585357666015625e-01 8.810723200440406799e-03 -7.828772813081741333e-02 -3.279073536396026611e-02 1.089053153991699219e-01 9.968043863773345947e-02 1.058062165975570679e-02 -8.578880131244659424e-02 -1.096046790480613708e-01 -3.307882323861122131e-02 1.296609044075012207e-01 -7.070477120578289032e-03 -7.490859925746917725e-02 1.216942220926284790e-01 -1.822973281377926469e-04 3.216596320271492004e-02 6.888210028409957886e-02 -2.928249724209308624e-02 -1.496119052171707153e-01 -4.136445745825767517e-02 -3.259078413248062134e-02 -5.659819021821022034e-02 -7.145200856029987335e-03 1.020914837718009949e-01 2.337677031755447388e-02 2.269740775227546692e-02 -9.981724433600902557e-03 -7.895641028881072998e-02 -1.059297937899827957e-02 -5.808178801089525223e-03 5.821323767304420471e-02 -2.321793511509895325e-02 2.015305496752262115e-02 6.730927526950836182e-02 -8.757699280977249146e-02 5.511482432484626770e-02 2.359367907047271729e-02 -2.019890770316123962e-02 -6.241163238883018494e-02 1.803123019635677338e-02 -1.097260341048240662e-01 1.200895532965660095e-01 -5.380052328109741211e-02 6.915531307458877563e-02 -3.618519287556409836e-03
0.000000000000000000e+00 0.000000000000000000e+00 -0.000000000000000000e+00 0.000000000000000000e+00 -0.000000000000000000e+00 -0.000000000000000000e+00 0.000000000000000000e+00 -0.000000000000000000e+00 -0.000000000000000000e+00 -0.000000000000000000e+00 -0.000000000000000000e+00 -0.000000000000000000e+00 -0.000000000000000000e+00 0.000000000000000000e+00 0.000000000000000000e+00 -0.000000000000000000e+00 0.000000000000000000e+00 0.000000000000000000e+00 -0.000000000000000000e+00 -0.000000000000000000e+00 -0.000000000000000000e+00 0.000000000000000000e+00 0.000000000000000000e+00 0.000000000000000000e+00 -0.000000000000000000e+00 -0.000000000000000000e+00 0.000000000000000000e+00 -0.000000000000000000e+00 0.000000000000000000e+00 -0.000000000000000000e+00 0.000000000000000000e+00 0.000000000000000000e+00 -0.000000000000000000e+00 0.000000000000000000e+00 0.000000000000000000e+00 0.000000000000000000e+00 -0.000000000000000000e+00 -0.000000000000000000e+00 -0.000000000000000000e+00 0.000000000000000000e+00 0.000000000000000000e+00 -0.000000000000000000e+00 -0.000000000000000000e+00 0.000000000000000000e+00 -0.000000000000000000e+00 -0.000000000000000000e+00 -0.000000000000000000e+00 0.000000000000000000e+00 0.000000000000000000e+00 0.000000000000000000e+00 0.000000000000000000e+00 -0.000000000000000000e+00 -0.000000000000000000e+00 -0.000000000000000000e+00 -0.000000000000000000e+00 0.000000000000000000e+00 -0.000000000000000000e+00 0.000000000000000000e+00 -0.000000000000000000e+00 -0.000000000000000000e+00 -0.000000000000000000e+00 -0.000000000000000000e+00 0.000000000000000000e+00 0.000000000000000000e+00 -1.899867504835128784e-02 2.458131872117519379e-02 6.746939569711685181e-02 -1.387324631214141846e-01 -3.496564552187919617e-02 -1.144854724407196045e-01 3.646406531333923340e-02 -9.442096948623657227e-02 -1.569049805402755737e-01 1.823628991842269897e-01 -4.890828579664230347e-02 -5.178850516676902771e-02 -3.305328264832496643e-02 -7.682340219616889954e-03 -2.493218705058097839e-02 -1.121636182069778442e-01 2.364929392933845520e-02 5.419996008276939392e-02 1.617793925106525421e-02 3.635828942060470581e-02 -1.202524080872535706e-01 -6.427018344402313232e-02 -1.949346512556076050e-01 -7.512089610099792480e-02 1.450241822749376297e-02 3.660582751035690308e-02 1.962479436770081520e-03 -3.952414169907569885e-02 -1.255120988935232162e-02 -2.235939726233482361e-03 8.304703980684280396e-02 1.732458174228668213e-01 -9.811587631702423096e-02 8.629854023456573486e-02 -1.044203713536262512e-01 9.555944055318832397e-02 -2.826037257909774780e-02 1.466658562421798706e-01 -7.593937963247299194e-02 2.645340515300631523e-03 1.092653498053550720e-01 7.020156830549240112e-02 -5.700618401169776917e-02 -3.533246740698814392e-02 -5.494434386491775513e-02 -3.801056370139122009e-02 3.868513554334640503e-02 1.625489071011543274e-02 7.348701357841491699e-02 -1.434917561709880829e-02 -7.377568632364273071e-02 -7.003371417522430420e-02 3.057264350354671478e-02 -1.339213997125625610e-01 -9.275786578655242920e-02 -3.849600255489349365e-02 -5.308936908841133118e-02 1.064230650663375854e-01 -8.625817298889160156e-02 -1.587025970220565796e-01 -6.537708640098571777e-02 -6.600008159875869751e-02 1.779667101800441742e-02 6.025445088744163513e-02
-0.000000000000000000e+00 -0.000000000000000000e+00 0.000000000000000000e+00 0.000000000000000000e+00 0.000000000000000000e+00 0.000000000000000000e+00 0.000000000000000000e+00 0.000000000000000000e+00 -0.000000000000000000e+00 -0.000000000000000000e+00 -0.000000000000000000e+00 -0.000000000000000000e+00 -0.000000000000000000e+00 0.000000000000000000e+00 0.000000000000000000e+00 0.000000000000000000e+00 0.000000000000000000e+00 -0.000000000000000000e+00 0.000000000000000000e+00 0.000000000000000000e+00 0.000000000000000000e+00 -0.000000000000000000e+00 0.000000000000000000e+00 -0.000000000000000000e+00 -0.000000000000000000e+00 0.000000000000000000e+00 0.000000000000000000e+00 0.000000000000000000e+00 -0.000000000000000000e+00 0.000000000000000000e+00 -0.000000000000000000e+00 -0.000000000000000000e+00 -0.000000000000000000e+00 -0.000000000000000000e+00 -0.000000000000000000e+00 -0.000000000000000000e+00 0.000000000000000000e+00 0.000000000000000000e+00 0.000000000000000000e+00 -0.000000000000000000e+00 0.000000000000000000e+00 0.000000000000000000e+00 -0.000000000000000000e+00 0.000000000000000000e+00 0.000000000000000000e+00 -0.000000000000000000e+00 0.000000000000000000e+00 0.000000000000000000e+00 0.000000000000000000e+00 0.000000000000000000e+00 -0.000000000000000000e+00 -0.000000000000000000e+00 0.000000000000000000e+00 -0.000000000000000000e+00 -0.000000000000000000e+00 0.000000000000000000e+00 0.000000000000000000e+00 0.000000000000000000e+00 -0.000000000000000000e+00 0.000000000000000000e+00 0.000000000000000000e+00 0.000000000000000000e+00 -0.000000000000000000e+00 0.000000000000000000e+00 -4.924983903765678406e-02 -2.534248866140842438e-02 1.304104272276163101e-02 -9.970270097255706787e-02 -1.004352513700723648e-02 -1.439506262540817261e-01 -2.841193415224552155e-02 -8.368510007858276367e-02 -7.242683321237564087e-02 3.327397257089614868e-02 7.204577326774597168e-03 -9.591081179678440094e-03 -9.894730523228645325e-03 3.007487952709197998e-02 1.908735372126102448e-02 -7.844861596822738647e-02 -5.680035427212715149e-02 7.284820079803466797e-02 1.557276695966720581e-01 -5.133726820349693298e-02 -1.381686627864837646e-01 -4.039906896650791168e-03 6.903820484876632690e-02 2.677377872169017792e-02 -6.431139260530471802e-02 2.147986441850662231e-01 -3.159934654831886292e-02 -1.254609078168869019e-01 -7.129140663892030716e-03 -6.690552458167076111e-03 -4.610214382410049438e-02 7.520883809775114059e-03 -2.725435979664325714e-02 4.612295702099800110e-02 -6.212313659489154816e-03 5.767177790403366089e-03 1.063778344541788101e-02 -1.075370088219642639e-01 5.628921464085578918e-02 -5.302773322910070419e-03 1.138602867722511292e-01 1.721034012734889984e-02 1.381859481334686279e-01 -5.833936855196952820e-03 -1.295655071735382080e-01 -3.069974109530448914e-02 -3.184205293655395508e-02 -9.519795328378677368e-02 -1.452929340302944183e-02 2.147992700338363647e-02 1.120446845889091492e-01 -5.480258911848068237e-02 -2.033155906246975064e-04 -1.086314395070075989e-01 -5.306620523333549500e-02 -8.170802891254425049e-02 5.833880975842475891e-02 3.013502247631549835e-02 -7.605178654193878174e-02 9.035967290401458740e-03 -1.553957536816596985e-02 -1.065276912413537502e-03 3.046204522252082825e-02 -7.142328470945358276e-02
-0.000000000000000000e+00 0.000000000000000000e+00 -0.000000000000000000e+00 0.000000000000000000e+00 0.000000000000000000e+00 -0.000000000000000000e+00 0.000000000000000000e+00 -0.000000000000000000e+00 0.000000000000000000e+00 0.000000000000000000e+00 -0.000000000000000000e+00 -0.000000000000000000e+00 0.000000000000000000e+00 0.000000000000000000e+00 0.000000000000000000e+00 -0.000000000000000000e+00 0.000000000000000000e+00 0.000000000000000000e+00 -0.000000000000000000e+00 0.000000000000000000e+00 0.000000000000000000e+00 -0.000000000000000000e+00 0.000000000000000000e+00 -0.000000000000000000e+00 0.000000000000000000e+00 0.000000000000000000e+00 -0.000000000000000000e+00 -0.000000000000000000e+00 -0.000000000000000000e+00 0.000000000000000000e+00 0.000000000000000000e+00 -0.000000000000000000e+00 -0.000000000000000000e+00 0.000000000000000000e+00 -0.000000000000000000e+00 -0.000000000000000000e+00 -0.000000000000000000e+00 0.000000000000000000e+00 -0.000000000000000000e+00 -0.000000000000000000e+00 -0.000000000000000000e+00 0.000000000000000000e+00 -0.000000000000000000e+00 0.000000000000000000e+00 -0.000000000000000000e+00 0.000000000000000000e+00 -0.000000000000000000e+00 0.000000000000000000e+00 0.000000000000000000e+00 0.000000000000000000e+00 -0.000000000000000000e+00 0.000000000000000000e+00 -0.000000000000000000e+00 0.000000000000000000e+00 -0.000000000000000000e+00 0.000000000000000000e+00 -0.000000000000000000e+00 -0.000000000000000000e+00 0.000000000000000000e+00 -0.000000000000000000e+00 0.000000000000000000e+00 0.000000000000000000e+00 0.000000000000000000e+00 -0.000000000000000000e+00 1.449207775294780731e-02 -7.822917401790618896e-02 4.468915984034538269e-02 -1.809535361826419830e-02 -1.385783255100250244e-01 2.592367818579077721e-03 1.766218221746385098e-03 1.212371066212654114e-01 -5.154979601502418518e-02 7.009679824113845825e-02 3.338659927248954773e-02 9.308603405952453613e-02 -3.075598040595650673e-03 1.018631383776664734e-01 5.477995052933692932e-02 2.558202855288982391e-02 -2.374878711998462677e-02 -4.449269548058509827e-02 3.191697597503662109e-02 1.288008876144886017e-02 -4.422547295689582825e-02 -6.985365599393844604e-02 1.474468153901398182e-03 3.095050342381000519e-02 5.604232661426067352e-03 -9.549001604318618774e-02 4.420647397637367249e-02 -1.064470186829566956e-01 4.857017099857330322e-02 4.137950018048286438e-02 1.407020166516304016e-02 -2.497738227248191833e-02 -3.317314013838768005e-02 -8.759152889251708984e-02 -1.411248594522476196e-01 7.880187779664993286e-02 1.266164183616638184e-01 2.095991373062133789e-02 -1.054845824837684631e-01 -1.071080099791288376e-02 9.157051146030426025e-02 3.231336176395416260e-02 -3.463495150208473206e-02 -4.455862566828727722e-02 9.908430278301239014e-03 -5.241016671061515808e-02 3.568319603800773621e-02 -1.077252030372619629e-01 9.497520327568054199e-02 -4.391451552510261536e-02 -9.195068851113319397e-03 3.013455495238304138e-02 -3.007083199918270111e-02 -1.621996313333511353e-01 1.221381351351737976e-01 -2.606920525431632996e-02 3.860757872462272644e-02 -6.212791427969932556e-03 1.018976196646690369e-01 2.193038165569305420e-02 -1.865165866911411285e-02 5.546228960156440735e-02 1.190808638930320740e-01 -2.011704258620738983e-02
0.000000000000000000e+00 0.000000000000000000e+00 0.000000000000000000e+00 -0.000000000000000000e+00 -0.000000000000000000e+00 -0.000000000000000000e+00 -0.000000000000000000e+00 0.000000000000000000e+00 -0.000000000000000000e+00 -0.000000000000000000e+00 -0.000000000000000000e+00 -0.000000000000000000e+00 0.000000000000000000e+00 0.000000000000000000e+00 -0.000000000000000000e+00 -0.000000000000000000e+00 0.000000000000000000e+00 -0.000000000000000000e+00 -0.000000000000000000e+00 0.000000000000000000e+00 0.000000000000000000e+00 0.000000000000000000e+00 -0.000000000000000000e+00 0.000000000000000000e+00 0.000000000000000000e+00 -0.000000000000000000e+00 0.000000000000000000e+00 0.000000000000000000e+00 0.000000000000000000e+00 0.000000000000000000e+00 -0.000000000000000000e+00 0.000000000000000000e+00 0.000000000000000000e+00 -0.000000000000000000e+00 -0.000000000000000000e+00 -0.000000000000000000e+00 -0.000000000000000000e+00 -0.000000000000000000e+00 0.000000000000000000e+00 0.000000000000000000e+00 0.000000000000000000e+00 -0.000000000000000000e+00 -0.000000000000000000e+00 0.000000000000000000e+00 -0.000000000000000000e+00 0.000000000000000000e+00 -0.000000000000000000e+00 -0.000000000000000000e+00 0.000000000000000000e+00 -0.000000000000000000e+00 0.000000000000000000e+00 -0.000000000000000000e+00 0.000000000000000000e+00 -0.000000000000000000e+00 -0.000000000000000000e+00 0.000000000000000000e+00 0.000000000000000000e+00 -0.000000000000000000e+00 -0.000000000000000000e+00 0.000000000000000000e+00 -0.000000000000000000e+00 0.000000000000000000e+00 0.000000000000000000e+00 0.000000000000000000e+00 8.086492121219635010e-02 -1.230506449937820435e-01 -6.212129071354866028e-02 -5.284401029348373413e-02 9.911450743675231934e-02 -2.679714560508728027e-02 -1.208071112632751465e-01 2.749102562665939331e-02 3.578219190239906311e-02 -6.340308487415313721e-02 1.738511770963668823e-02 4.129448160529136658e-02 -5.695033073425292969e-02 7.596547156572341919e-02 7.917866855859756470e-02 2.047826945781707764e-01 -5.341958999633789062e-02 -6.746359169483184814e-02 -1.788007328286767006e-03 -3.502711653709411621e-02 -3.710460662841796875e-02 2.533043362200260162e-02 -1.148472502827644348e-01 5.940139293670654297e-02 8.659869432449340820e-02 -4.036895558238029480e-02 9.312877058982849121e-02 1.311585754156112671e-01 7.884752750396728516e-02 6.989119946956634521e-02 5.963310599327087402e-03 5.511713027954101562e-02 5.036658793687820435e-02 -3.733031824231147766e-02 -4.128934070467948914e-02 -7.579571753740310669e-02 6.068170070648193359e-02 9.438849985599517822e-02 -4.875965043902397156e-02 7.373429834842681885e-02 -2.788024395704269409e-02 -1.175718754529953003e-01 5.619060248136520386e-02 -3.915369510650634766e-02 -8.466188609600067139e-02 3.886944428086280823e-02 -5.848872009664773941e-03 -8.970407769083976746e-03 -4.631021618843078613e-02 1.095366757363080978e-02 -5.203485116362571716e-02 3.438079729676246643e-02 -4.386420361697673798e-03 -1.042103469371795654e-01 9.362505376338958740e-02 -5.834095645695924759e-03 5.903549864888191223e-02 -4.643105342984199524e-02 -3.088115714490413666e-02 2.832823991775512695e-02 2.742973901331424713e-02 -2.626529429107904434e-03 -4.522452130913734436e-02 -1.977808214724063873e-02
0.000000000000000000e+00 -0.000000000000000000e+00 0.000000000000000000e+00 0.000000000000000000e+00 -0.000000000000000000e+00 -0.000000000000000000e+00 0.000000000000000000e+00 0.000000000000000000e+00 -0.000000000000000000e+00 0.000000000000000000e+00 -0.000000000000000000e+00 -0.000000000000000000e+00 -0.000000000000000000e+00 -0.000000000000000000e+00 0.000000000000000000e+00 -0.000000000000000000e+00 -0.000000000000000000e+00 -0.000000000000000000e+00 0.000000000000000000e+00 0.000000000000000000e+00 -0.000000000000000000e+00 -0.000000000000000000e+00 0.000000000000000000e+00 0.000000000000000000e+00 -0.000000000000000000e+00 -0.000000000000000000e+00 -0.000000000000000000e+00 -0.000000000000000000e+00 -0.000000000000000000e+00 0.000000000000000000e+00 -0.000000000000000000e+00 0.000000000000000000e+00 -0.000000000000000000e+00 -0.000000000000000000e+00 -0.000000000000000000e+00 -0.000000000000000000e+00 -0.000000000000000000e+00 0.000000000000000000e+00 0.000000000000000000e+00 -0.000000000000000000e+00 0.000000000000000000e+00 0.000000000000000000e+00 -0.000000000000000000e+00 0.000000000000000000e+00 0.000000000000000000e+00 -0.000000000000000000e+00 -0.000000000000000000e+00 0.000000000000000000e+00 0.000000000000000000e+00 -0.000000000000000000e+00 -0.000000000000000000e+00 -0.000000000000000000e+00 0.000000000000000000e+00 0.000000000000000000e+00 0.000000000000000000e+00 0.000000000000000000e+00 -0.000000000000000000e+00 -0.000000000000000000e+00 0.000000000000000000e+00 0.000000000000000000e+00 0.000000000000000000e+00 -0.000000000000000000e+00 -0.000000000000000000e+00 0.000000000000000000e+00 -3.942986950278282166e-02 -9.686492383480072021e-02 -1.315366104245185852e-02 2.004180103540420532e-02 -2.535214461386203766e-02 -5.086154863238334656e-02 -3.033597953617572784e-02 7.362005300819873810e-03 -8.650717139244079590e-02 7.787388563156127930e-02 -6.535042822360992432e-02 -7.779972255229949951e-02 -9.400809183716773987e-03 1.494920700788497925e-01 -4.756454378366470337e-02 5.546732246875762939e-02 -9.435775130987167358e-02 5.172925069928169250e-02 5.630608275532722473e-02 -3.082276321947574615e-02 -1.528011560440063477e-01 2.244712412357330322e-02 1.514023635536432266e-02 1.650020182132720947e-01 2.742160484194755554e-02 -1.419113278388977051e-01 -2.398847835138440132e-03 6.034672632813453674e-02 -1.084312330931425095e-02 -1.164559945464134216e-01 1.107978150248527527e-01 -4.531154036521911621e-02 -7.696694880723953247e-02 2.211426151916384697e-03 -1.717810779809951782e-01 8.759150654077529907e-02 5.335769057273864746e-02 4.222277086228132248e-03 -1.577207585796713829e-03 -5.214671138674020767e-03 2.249035798013210297e-02 5.197903886437416077e-02 4.262515157461166382e-02 8.118974417448043823e-02 -4.443028476089239120e-03 -2.360231941565871239e-03 7.778429239988327026e-02 -5.170425865799188614e-03 1.443055272102355957e-01 -4.451057687401771545e-02 -4.542753100395202637e-02 4.966261610388755798e-02 7.608583569526672363e-02 1.118975039571523666e-02 -1.671659201383590698e-02 -2.947036921977996826e-02 -1.471465174108743668e-02 7.350462675094604492e-02 1.113415509462356567e-01 -6.818289402872323990e-03 -2.333696186542510986e-02 3.431357443332672119e-02 3.342814370989799500e-02 -9.817594289779663086e-02
-0.000000000000000000e+00 0.000000000000000000e+00 0.000000000000000000e+00 -0.000000000000000000e+00 -0.000000000000000000e+00 0.000000000000000000e+00 0.000000000000000000e+00 0.000000000000000000e+00 -0.000000000000000000e+00 0.000000000000000000e+00 0.000000000000000000e+00 -0.000000000000000000e+00 0.000000000000000000e+00 -0.000000000000000000e+00 0.000000000000000000e+00 0.000000000000000000e+00 0.000000000000000000e+00 -0.000000000000000000e+00 -0.000000000000000000e+00 -0.000000000000000000e+00 -0.000000000000000000e+00 -0.000000000000000000e+00 -0.000000000000000000e+00 0.000000000000000000e+00 0.000000000000000000e+00 -0.000000000000000000e+00 -0.000000000000000000e+00 0.000000000000000000e+00 0.000000000000000000e+00 -0.000000000000000000e+00 -0.000000000000000000e+00 -0.000000000000000000e+00 0.000000000000000000e+00 0.000000000000000000e+00 -0.000000000000000000e+00 -0.000000000000000000e+00 0.000000000000000000e+00 0.000000000000000000e+00 0.000000000000000000e+00 -0.000000000000000000e+00 -0.000000000000000000e+00 0.000000000000000000e+00 0.000000000000000000e+00 -0.000000000000000000e+00 -0.000000000000000000e+00 -0.000000000000000000e+00 -0.000000000000000000e+00 -0.000000000000000000e+00 -0.000000000000000000e+00 -0.000000000000000000e+00 -0.000000000000000000e+00 0.000000000000000000e+00 0.000000000000000000e+00 -0.000000000000000000e+00 0.000000000000000000e+00 -0.000000000000000000e+00 0.000000000000000000e+00 -0.000000000000000000e+00 0.000000000000000000e+00 -0.000000000000000000e+00 0.000000000000000000e+00 -0.000000000000000000e+00 -0.000000000000000000e+00 -0.000000000000000000e+00 -1.923425868153572083e-02 1.266890466213226318e-01 1.881624571979045868e-02 -5.778766237199306488e-03 9.003403037786483765e-02 -5.766124650835990906e-02 7.433325517922639847e-03 6.012593582272529602e-02 -6.462626904249191284e-02 -1.228756010532379150e-01 1.253508925437927246e-01 4.744987562298774719e-02 1.729863323271274567e-02 1.087890267372131348e-01 -1.223608478903770447e-01 3.882531076669692993e-02 -5.988354235887527466e-02 -1.037253141403198242e-01 -4.685530066490173340e-02 -6.423677504062652588e-02 5.224692821502685547e-02 3.988248109817504883e-02 4.795608296990394592e-02 1.600031368434429169e-02 1.517324615269899368e-02 -5.214895308017730713e-02 8.762897923588752747e-03 -5.708484724164009094e-02 -4.590304195880889893e-02 -1.361220777034759521e-01 -9.298488497734069824e-02 5.023350939154624939e-02 6.724062561988830566e-02 2.989134937524795532e-02 4.102513566613197327e-02 -8.638085424900054932e-02 -1.743399165570735931e-02 -5.725549533963203430e-02 4.924067109823226929e-02 -1.092641055583953857e-01 -5.823013838380575180e-03 -8.817873895168304443e-03 7.573491334915161133e-02 5.635704472661018372e-02 2.231689728796482086e-02 -1.313093751668930054e-01 -2.219755202531814575e-02 1.215742602944374084e-01 -6.033676862716674805e-02 -2.136785537004470825e-02 6.671683490276336670e-02 -4.680805653333663940e-02 1.572098582983016968e-01 -5.594015493988990784e-02 -1.035814210772514343e-01 1.093533188104629517e-01 9.440871328115463257e-02 1.358852814882993698e-02 6.405013799667358398e-02 4.139637574553489685e-02 3.166395053267478943e-02 -2.234211936593055725e-02 1.683155298233032227e-01 1.095141395926475525e-01
-0.000000000000000000e+00 0.000000000000000000e+00 -0.000000000000000000e+00 -0.000000000000000000e+00 -0.000000000000000000e+00 0.000000000000000000e+00 0.000000000000000000e+00 -0.000000000000000000e+00 -0.000000000000000000e+00 -0.000000000000000000e+00 0.000000000000000000e+00 -0.000000000000000000e+00 0.000000000000000000e+00 0.000000000000000000e+00 -0.000000000000000000e+00 0.000000000000000000e+00 0.000000000000000000e+00 -0.000000000000000000e+00 0.000000000000000000e+00 0.000000000000000000e+00 0.000000000000000000e+00 -0.000000000000000000e+00 -0.000000000000000000e+00 -0.000000000000000000e+00 0.000000000000000000e+00 -0.000000000000000000e+00 0.000000000000000000e+00 -0.000000000000000000e+00 0.000000000000000000e+00 0.000000000000000000e+00 0.000000000000000000e+00 -0.000000000000000000e+00 0.000000000000000000e+00 0.000000000000000000e+00 0.000000000000000000e+00 0.000000000000000000e+00 0.000000000000000000e+00 -0.000000000000000000e+00 0.000000000000000000e+00 -0.000000000000000000e+00 -0.000000000000000000e+00 0.000000000000000000e+00 0.000000000000000000e+00 -0.000000000000000000e+00 0.000000000000000000e+00 -0.000000000000000000e+00 0.000000000000000000e+00 0.000000000000000000e+00 -0.000000000000000000e+00 -0.000000000000000000e+00 -0.000000000000000000e+00 0.000000000000000000e+00 -0.000000000000000000e+00 -0.000000000000000000e+00 0.000000000000000000e+00 0.000000000000000000e+00 0.000000000000000000e+00 0.000000000000000000e+00 -0.000000000000000000e+00 0.000000000000000000e+00 0.000000000000000000e+00 -0.000000000000000000e+00 0.000000000000000000e+00 -0.000000000000000000e+00 3.453770652413368225e-02 -5.004448816180229187e-02 -1.565225720405578613e-01 -1.777761280536651611e-01 1.470345910638570786e-02 -9.470684081315994263e-02 5.239258334040641785e-02 3.750643879175186157e-02 1.011969745159149170e-01 -3.259209915995597839e-02 9.465889632701873779e-02 -4.753252491354942322e-03 1.024998351931571960e-02 2.361149340867996216e-02 2.508954145014286041e-02 -2.272605337202548981e-02 5.330596491694450378e-02 1.288117188960313797e-02 -2.113840728998184204e-02 -1.715323142707347870e-02 2.389600500464439392e-02 -7.881997525691986084e-02 -2.417414449155330658e-02 1.903942786157131195e-02 -8.289320021867752075e-02 -1.586445607244968414e-02 4.084854945540428162e-02 1.795497536659240723e-01 -2.412669546902179718e-02 4.039836674928665161e-02 -1.095671951770782471e-01 -1.240285411477088928e-01 1.572798006236553192e-02 6.541329622268676758e-02 -5.975860357284545898e-02 3.709452599287033081e-02 -9.481035917997360229e-02 5.682173371315002441e-02 1.544756293296813965e-01 -2.810033038258552551e-02 8.369865268468856812e-02 6.332988291978836060e-02 -2.272658422589302063e-02 -1.096220985054969788e-01 7.285748422145843506e-02 6.259381771087646484e-02 1.935113407671451569e-02 -1.289599575102329254e-02 -2.042462676763534546e-02 1.004068329930305481e-01 -6.703827530145645142e-02 -1.221335586160421371e-02 -5.015855655074119568e-03 1.099127978086471558e-01 -1.378873735666275024e-02 -3.905277699232101440e-02 8.352410048246383667e-02 6.650259345769882202e-02 1.009642854332923889e-01 -1.193164661526679993e-01 3.342362865805625916e-02 1.765201985836029053e-02 5.967333912849426270e-02 8.750544488430023193e-02
-0.000000000000000000e+00 -0.000000000000000000e+00 -0.000000000000000000e+00 -0.000000000000000000e+00 -0.000000000000000000e+00 -0.000000000000000000e+00 0.000000000000000000e+00 -0.000000000000000000e+00 -0.000000000000000000e+00 -0.000000000000000000e+00 -0.000000000000000000e+00 -0.000000000000000000e+00 -0.000000000000000000e+00 0.000000000000000000e+00 0.000000000000000000e+00 -0.000000000000000000e+00 0.000000000000000000e+00 0.000000000000000000e+00 0.000000000000000000e+00 -0.000000000000000000e+00 0.000000000000000000e+00 0.000000000000000000e+00 0.000000000000000000e+00 0.000000000000000000e+00 0.000000000000000000e+00 -0.000000000000000000e+00 0.000000000000000000e+00 -0.000000000000000000e+00 -0.000000000000000000e+00 0.000000000000000000e+00 0.000000000000000000e+00 0.000000000000000000e+00 0.000000000000000000e+00 0.000000000000000000e+00 -0.000000000000000000e+00 0.000000000000000000e+00 -0.000000000000000000e+00 -0.000000000000000000e+00 0.000000000000000000e+00 -0.000000000000000000e+00 0.000000000000000000e+00 0.000000000000000000e+00 0.000000000000000000e+00 0.000000000000000000e+00 -0.000000000000000000e+00 -0.000000000000000000e+00 -0.000000000000000000e+00 0.000000000000000000e+00 0.000000000000000000e+00 0.000000000000000000e+00 -0.000000000000000000e+00 0.000000000000000000e+00 -0.000000000000000000e+00 -0.000000000000000000e+00 0.000000000000000000e+00 -0.000000000000000000e+00 0.000000000000000000e+00 0.000000000000000000e+00 -0.000000000000000000e+00 0.000000000000000000e+00 0.000000000000000000e+00 -0.000000000000000000e+00 -0.000000000000000000e+00 0.000000000000000000e+00 2.198600908741354942e-03 -1.159420516341924667e-02 6.283744424581527710e-02 1.044661179184913635e-01 4.945903643965721130e-02 9.524840116500854492e-02 8.260637521743774414e-02 1.765926331281661987e-01 1.210707798600196838e-02 3.630464430898427963e-03 -1.441115885972976685e-01 5.488937720656394958e-02 -9.862476959824562073e-03 -3.785132244229316711e-02 -7.604458369314670563e-05 7.568417116999626160e-03 -2.719390019774436951e-02 -4.324960056692361832e-03 1.890239119529724121e-02 -7.095090299844741821e-02 -7.784730195999145508e-02 -2.192414132878184319e-03 -8.746458590030670166e-02 -7.953545451164245605e-02 -9.451436251401901245e-02 4.901178553700447083e-02 -1.039392426609992981e-01 2.627252601087093353e-02 2.085797721520066261e-03 -1.341341715306043625e-02 -4.589985311031341553e-02 -1.469866186380386353e-02 7.993103563785552979e-02 -1.106462534517049789e-02 -1.217547617852687836e-02 2.001718804240226746e-02 -2.538551948964595795e-02 4.353572800755500793e-02 -5.371017009019851685e-02 5.764159839600324631e-03 -4.914847761392593384e-02 -1.393849030137062073e-02 -5.398587882518768311e-02 5.062230676412582397e-02 7.632227987051010132e-02 1.335597187280654907e-01 2.207980677485466003e-02 6.506998091936111450e-02 1.140704005956649780e-01 1.224690303206443787e-02 -1.993185281753540039e-01 -1.930903084576129913e-02 -1.346089392900466919e-01 1.723919361829757690e-01 3.492206335067749023e-02 -3.243806585669517517e-02 1.257743388414382935e-01 -1.568173617124557495e-02 1.588185578584671021e-01 -1.496037989854812622e-01 -4.318951442837715149e-02 -8.901284635066986084e-02 1.259794235229492188e-01 2.746069990098476410e-02
-0.000000000000000000e+00 -0.000000000000000000e+00 -0.000000000000000000e+00 -0.000000000000000000e+00 -0.000000000000000000e+00 0.000000000000000000e+00 -0.000000000000000000e+00 -0.000000000000000000e+00 0.000000000000000000e+00 -0.000000000000000000e+00 -0.000000000000000000e+00 -0.000000000000000000e+00 -0.000000000000000000e+00 0.000000000000000000e+00 -0.000000000000000000e+00 0.000000000000000000e+00 0.000000000000000000e+00 -0.000000000000000000e+00 0.000000000000000000e+00 -0.000000000000000000e+00 0.000000000000000000e+00 0.000000000000000000e+00 0.000000000000000000e+00 0.000000000000000000e+00 -0.000000000000000000e+00 -0.000000000000000000e+00 0.000000000000000000e+00 -0.000000000000000000e+00 -0.000000000000000000e+00 0.000000000000000000e+00 0.000000000000000000e+00 0.000000000000000000e+00 -0.000000000000000000e+00 -0.000000000000000000e+00 -0.000000000000000000e+00 -0.000000000000000000e+00 0.000000000000000000e+00 0.000000000000000000e+00 -0.000000000000000000e+00 -0.000000000000000000e+00 0.000000000000000000e+00 0.000000000000000000e+00 0.000000000000000000e+00 -0.000000000000000000e+00 -0.000000000000000000e+00 0.000000000000000000e+00 0.000000000000000000e+00 0.000000000000000000e+00 -0.000000000000000000e+00 0.000000000000000000e+00 0.000000000000000000e+00 -0.000000000000000000e+00 -0.000000000000000000e+00 -0.000000000000000000e+00 0.000000000000000000e+00 -0.000000000000000000e+00 0.000000000000000000e+00 0.000000000000000000e+00 -0.000000000000000000e+00 -0.000000000000000000e+00 -0.000000000000000000e+00 0.000000000000000000e+00 0.000000000000000000e+00 0.000000000000000000e+00 1.434849351644515991e-01 7.120990753173828125e-02 -5.460013076663017273e-02 -1.895371591672301292e-03 1.090603694319725037e-01 -2.164033427834510803e-02 1.319800019264221191e-01 -1.217220816761255264e-02 -1.035125255584716797e-01 -1.701634675264358521e-01 2.642003074288368225e-02 7.885199040174484253e-02 3.395660594105720520e-02 -9.954164922237396240e-02 -2.403672412037849426e-02 -4.672510549426078796e-02 5.671152099967002869e-02 4.632298275828361511e-02 1.515232473611831665e-01 4.884844273328781128e-02 -1.154999136924743652e-01 -6.587495561689138412e-03 -4.367346689105033875e-02 -7.364569604396820068e-02 1.420616656541824341e-01 1.731495372951030731e-02 -2.744545228779315948e-02 -1.026023626327514648e-01 9.701367467641830444e-02 1.196656152606010437e-01 7.752186805009841919e-02 4.013238847255706787e-02 4.610833129845559597e-04 -9.870313107967376709e-02 -2.732927165925502777e-02 4.638246074318885803e-02 3.721878305077552795e-02 9.176658466458320618e-03 -8.811884373426437378e-02 6.094407290220260620e-03 3.220259770750999451e-02 -2.805471606552600861e-02 1.395123749971389771e-01 8.129075169563293457e-02 4.152356646955013275e-03 5.366681609302759171e-03 -1.149648800492286682e-01 2.255522459745407104e-02 2.055025473237037659e-02 -1.227564364671707153e-01 -4.066297411918640137e-02 -1.563230007886886597e-01 7.430497556924819946e-02 8.859860897064208984e-02 -9.917137026786804199e-02 4.805771633982658386e-02 -6.408003717660903931e-02 -4.260371252894401550e-02 -1.222939509898424149e-02 -1.008443608880043030e-01 -7.464386522769927979e-02 3.396490588784217834e-02 -1.440478563308715820e-01 9.966069459915161133e-02
0.000000000000000000e+00 -0.000000000000000000e+00 -0.000000000000000000e+00 0.000000000000000000e+00 0.000000000000000000e+00 0.000000000000000000e+00 0.000000000000000000e+00 -0.000000000000000000e+00 0.000000000000000000e+00 0.000000000000000000e+00 -0.000000000000000000e+00 0.000000000000000000e+00 0.000000000000000000e+00 0.000000000000000000e+00 0.000000000000000000e+00 0.000000000000000000e+00 -0.000000000000000000e+00 0.000000000000000000e+00 -0.000000000000000000e+00 -0.000000000000000000e+00 0.000000000000000000e+00 0.000000000000000000e+00 0.000000000000000000e+00 -0.000000000000000000e+00 -0.000000000000000000e+00 0.000000000000000000e+00 0.000000000000000000e+00 -0.000000000000000000e+00 -0.000000000000000000e+00 0.000000000000000000e+00 0.000000000000000000e+00 -0.000000000000000000e+00 -0.000000000000000000e+00 -0.000000000000000000e+00 0.000000000000000000e+00 -0.000000000000000000e+00 -0.000000000000000000e+00 -0.000000000000000000e+00 0.000000000000000000e+00 -0.000000000000000000e+00 0.000000000000000000e+00 0.000000000000000000e+00 -0.000000000000000000e+00 0.000000000000000000e+00 -0.000000000000000000e+00 0.000000000000000000e+00 -0.000000000000000000e+00 -0.000000000000000000e+00 -0.000000000000000000e+00 -0.000000000000000000e+00 -0.000000000000000000e+00 -0.000000000000000000e+00 0.000000000000000000e+00 0.000000000000000000e+00 -0.000000000000000000e+00 0.000000000000000000e+00 -0.000000000000000000e+00 -0.000000000000000000e+00 0.000000000000000000e+00 -0.000000000000000000e+00 -0.000000000000000000e+00 -0.000000000000000000e+00 0.000000000000000000e+00 -0.000000000000000000e+00 1.003325507044792175e-01 -3.958892077207565308e-02 -7.368369400501251221e-02 -7.796638458967208862e-02 -2.056908048689365387e-02 3.831623122096061707e-02 -2.481939084827899933e-02 -9.488359838724136353e-02 -5.871789157390594482e-02 -8.721790462732315063e-02 1.980490796267986298e-02 -1.955381967127323151e-02 -6.897404044866561890e-02 1.865658676251769066e-03 9.585564956068992615e-03 9.847773239016532898e-03 6.162627413868904114e-02 6.659440696239471436e-02 -1.786127686500549316e-02 2.934569306671619415e-02 8.862087130546569824e-02 -4.415860027074813843e-02 1.418954785913228989e-02 -5.966858472675085068e-03 2.620771527290344238e-02 -1.050991788506507874e-01 -5.744697898626327515e-02 9.063971787691116333e-02 3.328299894928932190e-02 1.076387092471122742e-01 -2.298586629331111908e-02 1.227890700101852417e-01 8.117386698722839355e-02 -6.485611200332641602e-02 3.537081927061080933e-02 4.483577981591224670e-02 1.007918491959571838e-01 1.147773042321205139e-01 -5.708402395248413086e-02 5.840234830975532532e-02 1.466287821531295776e-01 3.278268128633499146e-02 -4.861026257276535034e-02 -3.639907110482454300e-03 3.003569506108760834e-02 -9.865679591894149780e-02 3.100578673183917999e-02 -9.981335140764713287e-03 -1.171031780540943146e-02 3.054430009797215462e-03 3.243101760745048523e-02 -2.569635398685932159e-03 3.244736418128013611e-02 8.260826766490936279e-02 -1.099044606089591980e-01 8.833360671997070312e-02 -2.606967277824878693e-02 -2.169328331947326660e-01 2.016063220798969269e-02 6.995005160570144653e-02 -3.976206853985786438e-02 7.802355289459228516e-02 4.286009352654218674e-04 4.029689356684684753e-02
-0.000000000000000000e+00 0.000000000000000000e+00 -0.000000000000000000e+00 -0.000000000000000000e+00 -0.000000000000000000e+00 -0.000000000000000000e+00 -0.000000000000000000e+00 0.000000000000000000e+00 -0.000000000000000000e+00 0.000000000000000000e+00 -0.000000000000000000e+00 0.000000000000000000e+00 -0.000000000000000000e+00 -0.000000000000000000e+00 -0.000000000000000000e+00 -0.000000000000000000e+00 0.000000000000000000e+00 -0.000000000000000000e+00 -0.000000000000000000e+00 0.000000000000000000e+00 0.000000000000000000e+00 -0.000000000000000000e+00 0.000000000000000000e+00 -0.000000000000000000e+00 0.000000000000000000e+00 0.000000000000000000e+00 0.000000000000000000e+00 0.000000000000000000e+00 -0.000000000000000000e+00 0.000000000000000000e+00 0.000000000000000000e+00 0.000000000000000000e+00 0.000000000000000000e+00 0.000000000000000000e+00 -0.000000000000000000e+00 -0.000000000000000000e+00 0.000000000000000000e+00 -0.000000000000000000e+00 0.000000000000000000e+00 0.000000000000000000e+00 0.000000000000000000e+00 -0.000000000000000000e+00 0.000000000000000000e+00 -0.000000000000000000e+00 0.000000000000000000e+00 -0.000000000000000000e+00 -0.000000000000000000e+00 0.000000000000000000e+00 0.000000000000000000e+00 0.000000000000000000e+00 0.000000000000000000e+00 0.000000000000000000e+00 -0.000000000000000000e+00 -0.000000000000000000e+00 0.000000000000000000e+00 -0.000000000000000000e+00 0.000000000000000000e+00 0.000000000000000000e+00 -0.000000000000000000e+00 -0.000000000000000000e+00 0.000000000000000000e+00 0.000000000000000000e+00 -0.000000000000000000e+00 -0.000000000000000000e+00 1.627363078296184540e-02 1.325123384594917297e-02 3.020058013498783112e-02 -1.513866037130355835e-01 -4.690390452742576599e-02 3.244764730334281921e-02 1.069747209548950195e-01 -1.498278789222240448e-02 1.371550559997558594e-01 9.941680729389190674e-02 -6.568636000156402588e-02 1.017741188406944275e-01 1.857482269406318665e-02 -1.510657137259840965e-03 1.063740476965904236e-01 -1.112477034330368042e-01 7.719066739082336426e-02 4.075416922569274902e-02 9.264994412660598755e-02 -2.400845848023891449e-02 -1.134337261319160461e-01 8.751195669174194336e-02 -5.003830417990684509e-02 1.058733761310577393e-01 1.509456634521484375e-01 6.044988706707954407e-02 1.180835589766502380e-01 -7.047412218526005745e-04 -7.933891564607620239e-02 -1.224358007311820984e-01 -1.051315441727638245e-01 7.260453887283802032e-03 -1.286457851529121399e-02 3.841640800237655640e-02 3.525140881538391113e-02 3.658150881528854370e-02 1.455951202660799026e-02 -6.912257522344589233e-02 -3.138450672850012779e-03 2.132028341293334961e-02 -9.948358684778213501e-02 -5.444849282503128052e-02 -5.949510633945465088e-02 -1.777019649744033813e-01 6.719915568828582764e-02 1.027841493487358093e-01 -1.874110475182533264e-02 2.143747871741652489e-03 2.489402890205383301e-02 -4.690199345350265503e-02 3.135592490434646606e-02 2.681038528680801392e-02 -1.818366162478923798e-02 -5.246430262923240662e-02 1.698510721325874329e-02 -9.405133873224258423e-02 2.396992035210132599e-02 -3.701435634866356850e-03 -1.380042880773544312e-01 -1.445956714451313019e-02 1.225211098790168762e-01 -5.564883723855018616e-02 -3.214341774582862854e-02 -8.234059065580368042e-02
0.000000000000000000e+00 0.000000000000000000e+00 0.000000000000000000e+00 -0.000000000000000000e+00 0.000000000000000000e+00 -0.000000000000000000e+00 -0.000000000000000000e+00 0.000000000000000000e+00 0.000000000000000000e+00 -0.000000000000000000e+00 -0.000000000000000000e+00 0.000000000000000000e+00 -0.000000000000000000e+00 -0.000000000000000000e+00 0.000000000000000000e+00 -0.000000000000000000e+00 0.000000000000000000e+00 0.000000000000000000e+00 0.000000000000000000e+00 0.000000000000000000e+00 0.000000000000000000e+00 0.000000000000000000e+00 0.000000000000000000e+00 0.000000000000000000e+00 0.000000000000000000e+00 -0.000000000000000000e+00 0.000000000000000000e+00 0.000000000000000000e+00 0.000000000000000000e+00 -0.000000000000000000e+00 -0.000000000000000000e+00 -0.000000000000000000e+00 -0.000000000000000000e+00 -0.000000000000000000e+00 -0.000000000000000000e+00 -0.000000000000000000e+00 0.000000000000000000e+00 -0.000000000000000000e+00 -0.000000000000000000e+00 -0.000000000000000000e+00 -0.000000000000000000e+00 -0.000000000000000000e+00 -0.000000000000000000e+00 0.000000000000000000e+00 0.000000000000000000e+00 -0.000000000000000000e+00 0.000000000000000000e+00 0.000000000000000000e+00 0.000000000000000000e+00 0.000000000000000000e+00 0.000000000000000000e+00 0.000000000000000000e+00 0.000000000000000000e+00 0.000000000000000000e+00 0.000000000000000000e+00 -0.000000000000000000e+00 0.000000000000000000e+00 0.000000000000000000e+00 -0.000000000000000000e+00 0.000000000000000000e+00 -0.000000000000000000e+00 -0.000000000000000000e+00 0.000000000000000000e+00 -0.000000000000000000e+00 -1.171474233269691467e-01 -8.221331238746643066e-02 1.114163175225257874e-01 -7.779024541378021240e-02 -2.131725475192070007e-02 -7.165460288524627686e-02 6.088749691843986511e-02 1.397795081138610840e-01 -6.993884593248367310e-02 3.858227282762527466e-02 2.201631963253021240e-01 1.590256094932556152e-01 -1.079678907990455627e-01 -7.568757236003875732e-02 -1.254208087921142578e-01 8.795221149921417236e-02 -1.734627187252044678e-01 7.931577414274215698e-02 1.310063302516937256e-01 5.933385714888572693e-02 -8.608059585094451904e-02 -1.033307164907455444e-01 -3.409861773252487183e-02 7.084556668996810913e-02 2.852377481758594513e-02 -5.339742824435234070e-02 2.098375745117664337e-02 2.900143712759017944e-02 4.953524097800254822e-02 -7.516597863286733627e-03 -8.596166223287582397e-02 3.680631518363952637e-02 -7.619688287377357483e-03 1.294864248484373093e-02 5.096808541566133499e-03 3.653254359960556030e-02 4.489345476031303406e-02 -2.835249528288841248e-02 -2.668599598109722137e-02 1.351994872093200684e-01 4.483963176608085632e-02 -5.629279650747776031e-03 -2.270071022212505341e-02 1.322024464607238770e-01 -4.134329408407211304e-02 1.207083612680435181e-01 1.121421437710523605e-02 8.870176039636135101e-03 -3.584203869104385376e-02 -7.596299797296524048e-02 -1.366312801837921143e-02 -5.694935098290443420e-02 -1.433184444904327393e-01 3.812420740723609924e-02 -1.559260953217744827e-02 -2.560955099761486053e-02 9.226994961500167847e-02 -9.004329144954681396e-02 -3.022934496402740479e-02 4.132921993732452393e-02 5.990795046091079712e-02 -3.833531960844993591e-02 5.452870205044746399e-02 2.514300122857093811e-02
-0.000000000000000000e+00 0.000000000000000000e+00 0.000000000000000000e+00 -0.000000000000000000e+00 0.000000000000000000e+00 -0.000000000000000000e+00 -0.000000000000000000e+00 0.000000000000000000e+00 -0.000000000000000000e+00 -0.000000000000000000e+00 0.000000000000000000e+00 0.000000000000000000e+00 -0.000000000000000000e+00 -0.000000000000000000e+00 -0.000000000000000000e+00 -0.000000000000000000e+00 0.000000000000000000e+00 -0.000000000000000000e+00 -0.000000000000000000e+00 -0.000000000000000000e+00 -0.000000000000000000e+00 -0.000000000000000000e+00 0.000000000000000000e+00 0.000000000000000000e+00 -0.000000000000000000e+00 0.000000000000000000e+00 -0.000000000000000000e+00 0.000000000000000000e+00 -0.000000000000000000e+00 0.000000000000000000e+00 0.000000000000000000e+00 0.000000000000000000e+00 0.000000000000000000e+00 -0.000000000000000000e+00 -0.000000000000000000e+00 -0.000000000000000000e+00 0.000000000000000000e+00 0.000000000000000000e+00 0.000000000000000000e+00 -0.000000000000000000e+00 -0.000000000000000000e+00 -0.000000000000000000e+00 0.000000000000000000e+00 0.000000000000000000e+00 0.000000000000000000e+00 0.000000000000000000e+00 0.000000000000000000e+00 -0.000000000000000000e+00 -0.000000000000000000e+00 0.000000000000000000e+00 -0.000000000000000000e+00 -0.000000000000000000e+00 0.000000000000000000e+00 0.000000000000000000e+00 0.000000000000000000e+00 -0.000000000000000000e+00 -0.000000000000000000e+00 -0.000000000000000000e+00 0.000000000000000000e+00 0.000000000000000000e+00 0.000000000000000000e+00 0.000000000000000000e+00 0.000000000000000000e+00 -0.000000000000000000e+00 9.271438419818878174e-02 -1.339452862739562988e-01 -2.856984362006187439e-02 6.245932728052139282e-02 -5.280620884150266647e-03 1.058541517704725266e-02 8.103889413177967072e-03 -1.831668913364410400e-01 6.957069039344787598e-02 -6.351699680089950562e-02 4.454615712165832520e-02 1.351399626582860947e-02 2.817478775978088379e-02 -4.275186359882354736e-02 1.592472046613693237e-01 5.315477401018142700e-02 -2.080102711915969849e-01 -7.493194937705993652e-02 1.079622190445661545e-02 1.347183529287576675e-02 -6.559863686561584473e-02 -2.092947624623775482e-02 2.199153229594230652e-02 1.171509996056556702e-01 2.624191343784332275e-01 -6.406648457050323486e-02 2.836591564118862152e-02 3.823905810713768005e-02 9.017093479633331299e-02 5.137958005070686340e-02 3.911394253373146057e-02 1.022058427333831787e-01 -6.487981975078582764e-02 -1.456997841596603394e-01 -1.050529032945632935e-01 2.000839449465274811e-03 -4.599726945161819458e-02 1.104120537638664246e-02 -1.003676094114780426e-02 -1.179977953433990479e-01 9.182197600603103638e-02 9.494394063949584961e-02 -4.430993646383285522e-02 -8.589930087327957153e-02 2.100683003664016724e-02 1.372746974229812622e-01 2.680375427007675171e-02 -1.468332298099994659e-02 -9.023974835872650146e-02 1.135345250368118286e-01 2.046542242169380188e-02 1.395241022109985352e-01 8.829623460769653320e-02 -4.165351856499910355e-03 -6.199948489665985107e-02 7.383401691913604736e-02 2.125468254089355469e-01 8.624888956546783447e-02 3.807763010263442993e-02 -1.241148486733436584e-01 -5.639734864234924316e-02 4.219457507133483887e-03 -7.207024842500686646e-02 -1.248513069003820419e-02
-0.000000000000000000e+00 0.000000000000000000e+00 -0.000000000000000000e+00 -0.000000000000000000e+00 -0.000000000000000000e+00 -0.000000000000000000e+00 0.000000000000000000e+00 -0.000000000000000000e+00 0.000000000000000000e+00 -0.000000000000000000e+00 -0.000000000000000000e+00 -0.000000000000000000e+00 -0.000000000000000000e+00 -0.000000000000000000e+00 0.000000000000000000e+00 0.000000000000000000e+00 0.000000000000000000e+00 -0.000000000000000000e+00 0.000000000000000000e+00 -0.000000000000000000e+00 0.000000000000000000e+00 -0.000000000000000000e+00 -0.000000000000000000e+00 0.000000000000000000e+00 0.000000000000000000e+00 0.000000000000000000e+00 -0.000000000000000000e+00 0.000000000000000000e+00 0.000000000000000000e+00 0.000000000000000000e+00 -0.000000000000000000e+00 0.000000000000000000e+00 -0.000000000000000000e+00 0.000000000000000000e+00 0.000000000000000000e+00 0.000000000000000000e+00 0.000000000000000000e+00 0.000000000000000000e+00 -0.000000000000000000e+00 -0.000000000000000000e+00 0.000000000000000000e+00 0.000000000000000000e+00 0.000000000000000000e+00 -0.000000000000000000e+00 -0.000000000000000000e+00 0.000000000000000000e+00 0.000000000000000000e+00 0.000000000000000000e+00 -0.000000000000000000e+00 -0.000000000000000000e+00 0.000000000000000000e+00 0.000000000000000000e+00 -0.000000000000000000e+00 -0.000000000000000000e+00 0.000000000000000000e+00 -0.000000000000000000e+00 0.000000000000000000e+00 0.000000000000000000e+00 0.000000000000000000e+00 -0.000000000000000000e+00 -0.000000000000000000e+00 0.000000000000000000e+00 -0.000000000000000000e+00 0.000000000000000000e+00 -8.831269294023513794e-02 2.404936961829662323e-02 1.233819406479597092e-02 3.747664764523506165e-02 -7.535316050052642822e-02 2.626432571560144424e-03 -1.925941929221153259e-02 1.252367347478866577e-01 -1.062111034989356995e-01 -4.697282612323760986e-02 -6.282638758420944214e-02 2.843680046498775482e-02 1.080957334488630295e-02 7.499896921217441559e-03 3.566332906484603882e-02 6.566866487264633179e-02 1.107072923332452774e-02 5.555253475904464722e-03 -1.568933576345443726e-01 1.167861279100179672e-02 -1.638962030410766602e-01 1.854740679264068604e-01 -4.291591420769691467e-02 7.163260877132415771e-02 -3.438582643866539001e-02 8.057799190282821655e-02 -1.746525056660175323e-02 -1.983307451009750366e-01 -6.022311374545097351e-02 -4.897952079772949219e-02 -1.823046803474426270e-01 1.175120919942855835e-01 6.895330548286437988e-02 -1.187547966837882996e-01 -1.161921247839927673e-01 -6.596253812313079834e-02 -1.442620605230331421e-01 -6.815508753061294556e-02 -9.310592710971832275e-02 4.447999875992536545e-03 -4.144894331693649292e-02 -5.131926015019416809e-02 1.256807800382375717e-02 -9.784899652004241943e-02 1.366797252558171749e-03 -5.415477603673934937e-02 -8.194064348936080933e-02 6.277311593294143677e-03 -8.242428302764892578e-02 -3.908246010541915894e-02 -6.661541759967803955e-02 -8.818615972995758057e-02 2.374626696109771729e-02 1.259371340274810791e-01 1.136031374335289001e-02 9.554486721754074097e-02 -7.139579206705093384e-02 1.319455541670322418e-02 -1.227590534836053848e-02 -8.855044841766357422e-02 -2.849741606041789055e-03 1.101805940270423889e-01 5.546195432543754578e-02 -1.063541099429130554e-01
0.000000000000000000e+00 0.000000000000000000e+00 0.000000000000000000e+00 0.000000000000000000e+00 0.000000000000000000e+00 -0.000000000000000000e+00 0.000000000000000000e+00 -0.000000000000000000e+00 0.000000000000000000e+00 0.000000000000000000e+00 -0.000000000000000000e+00 -0.000000000000000000e+00 0.000000000000000000e+00 0.000000000000000000e+00 0.000000000000000000e+00 0.000000000000000000e+00 -0.000000000000000000e+00 -0.000000000000000000e+00 0.000000000000000000e+00 -0.000000000000000000e+00 -0.000000000000000000e+00 -0.000000000000000000e+00 -0.000000000000000000e+00 -0.000000000000000000e+00 -0.000000000000000000e+00 0.000000000000000000e+00 -0.000000000000000000e+00 -0.000000000000000000e+00 0.000000000000000000e+00 -0.000000000000000000e+00 0.000000000000000000e+00 -0.000000000000000000e+00 0.000000000000000000e+00 -0.000000000000000000e+00 -0.000000000000000000e+00 0.000000000000000000e+00 -0.000000000000000000e+00 0.000000000000000000e+00 0.000000000000000000e+00 0.000000000000000000e+00 -0.000000000000000000e+00 0.000000000000000000e+00 -0.000000000000000000e+00 -0.000000000000000000e+00 -0.000000000000000000e+00 -0.000000000000000000e+00 -0.000000000000000000e+00 0.000000000000000000e+00 0.000000000000000000e+00 -0.000000000000000000e+00 0.000000000000000000e+00 -0.000000000000000000e+00 -0.000000000000000000e+00 -0.000000000000000000e+00 0.000000000000000000e+00 0.000000000000000000e+00 0.000000000000000000e+00 0.000000000000000000e+00 -0.000000000000000000e+00 -0.000000000000000000e+00 -0.000000000000000000e+00 -0.000000000000000000e+00 -0.000000000000000000e+00 -0.000000000000000000e+00 9.684095531702041626e-02 2.197937719756737351e-04 -3.298732265830039978e-02 -1.339041143655776978e-01 -4.470624774694442749e-02 5.475749075412750244e-02 2.045656926929950714e-02 9.295293688774108887e-02 5.833780765533447266e-02 -2.866370230913162231e-02 -1.165011078119277954e-01 2.052270248532295227e-02 -9.698269888758659363e-03 2.818304812535643578e-03 6.413600593805313110e-02 2.874112874269485474e-02 -1.743513047695159912e-01 3.275737166404724121e-02 -4.207421559840440750e-03 1.383934766054153442e-01 8.230437338352203369e-02 -7.214732468128204346e-02 4.479422047734260559e-02 2.442433498799800873e-02 7.473589479923248291e-02 -5.707024130970239639e-03 -1.781784892082214355e-01 -9.467845410108566284e-02 2.123259566724300385e-02 6.780568975955247879e-03 1.916040852665901184e-02 4.511738196015357971e-02 1.331518776714801788e-02 -4.393125325441360474e-02 1.735750399529933929e-02 -1.432915776968002319e-01 6.807953119277954102e-02 -4.174953326582908630e-02 -6.366267800331115723e-02 -1.197408586740493774e-01 7.677124440670013428e-02 -8.256111294031143188e-02 -1.685638166964054108e-02 -1.596928238868713379e-01 7.359861582517623901e-02 -2.126567438244819641e-02 -7.536690682172775269e-02 -8.754734694957733154e-02 5.799712240695953369e-02 1.064468771219253540e-01 -5.173321813344955444e-02 -2.898727916181087494e-02 1.533662676811218262e-01 -3.951835259795188904e-02 1.029946953058242798e-01 -3.556305915117263794e-02 9.634074568748474121e-02 -9.836548008024692535e-03 1.419121623039245605e-01 4.703559353947639465e-02 2.136586047708988190e-02 2.054347991943359375e-01 6.696494668722152710e-02 3.417101874947547913e-02
0.000000000000000000e+00 0.000000000000000000e+00 0.000000000000000000e+00 -0.000000000000000000e+00 0.000000000000000000e+00 0.000000000000000000e+00 -0.000000000000000000e+00 0.000000000000000000e+00 -0.000000000000000000e+00 0.000000000000000000e+00 -0.000000000000000000e+00 -0.000000000000000000e+00 -0.000000000000000000e+00 0.000000000000000000e+00 0.000000000000000000e+00 0.000000000000000000e+00 -0.000000000000000000e+00 0.000000000000000000e+00 -0.000000000000000000e+00 -0.000000000000000000e+00 -0.000000000000000000e+00 0.000000000000000000e+00 -0.000000000000000000e+00 0.000000000000000000e+00 -0.000000000000000000e+00 0.000000000000000000e+00 0.000000000000000000e+00 0.000000000000000000e+00 -0.000000000000000000e+00 0.000000000000000000e+00 0.000000000000000000e+00 -0.000000000000000000e+00 -0.000000000000000000e+00 0.000000000000000000e+00 0.000000000000000000e+00 0.000000000000000000e+00 0.000000000000000000e+00 0.000000000000000000e+00 0.000000000000000000e+00 -0.000000000000000000e+00 0.000000000000000000e+00 -0.000000000000000000e+00 0.000000000000000000e+00 -0.000000000000000000e+00 0.000000000000000000e+00 0.000000000000000000e+00 -0.000000000000000000e+00 0.000000000000000000e+00 -0.000000000000000000e+00 0.000000000000000000e+00 0.000000000000000000e+00 0.000000000000000000e+00 -0.000000000000000000e+00 -0.000000000000000000e+00 0.000000000000000000e+00 -0.000000000000000000e+00 0.000000000000000000e+00 0.000000000000000000e+00 -0.000000000000000000e+00 -0.000000000000000000e+00 -0.000000000000000000e+00 0.000000000000000000e+00 -0.000000000000000000e+00 0.000000000000000000e+00 8.164233714342117310e-02 -2.679764293134212494e-03 -8.046972006559371948e-02 -1.205454617738723755e-01 -7.127942144870758057e-02 4.431558772921562195e-02 -4.926253855228424072e-02 4.715186357498168945e-02 -2.583521008491516113e-01 -4.762882739305496216e-02 -6.984277069568634033e-02 -5.175176635384559631e-02 9.397968649864196777e-02 -3.925245627760887146e-02 1.238481849431991577e-01 1.587976962327957153e-01 -4.229574650526046753e-02 2.002727054059505463e-02 -1.024058014154434204e-01 -7.515434920787811279e-02 -1.128841713070869446e-01 3.238511458039283752e-02 4.971180483698844910e-02 -3.719580173492431641e-02 7.503566890954971313e-02 -1.007566154003143311e-01 -1.521130502223968506e-01 8.334057033061981201e-02 2.080136444419622421e-03 -9.773480147123336792e-02 -4.683788865804672241e-02 -1.390267908573150635e-01 -3.920078277587890625e-03 -1.783043146133422852e-01 -1.347608417272567749e-01 -4.089593514800071716e-02 1.852728612720966339e-02 -9.364190697669982910e-02 3.816388174891471863e-02 7.043817639350891113e-02 7.846030592918395996e-02 -4.185730218887329102e-02 -2.229457162320613861e-02 4.696695134043693542e-02 -4.651914350688457489e-03 3.690981119871139526e-02 -8.921021223068237305e-02 -3.261198103427886963e-02 -5.906816571950912476e-02 5.839422717690467834e-02 -1.943185739219188690e-02 4.967482015490531921e-02 -1.971882209181785583e-02 3.125073760747909546e-02 2.217877842485904694e-02 9.759929776191711426e-02 -1.916005462408065796e-01 -4.802239127457141876e-03 -2.304945839568972588e-03 6.313187628984451294e-02 -5.255349352955818176e-02 1.359801143407821655e-01 2.491305395960807800e-02 9.563406556844711304e-02
0.000000000000000000e+00 -0.000000000000000000e+00 -0.000000000000000000e+00 -0.000000000000000000e+00 0.000000000000000000e+00 -0.000000000000000000e+00 0.000000000000000000e+00 0.000000000000000000e+00 -0.000000000000000000e+00 -0.000000000000000000e+00 -0.000000000000000000e+00 -0.000000000000000000e+00 -0.000000000000000000e+00 -0.000000000000000000e+00 0.000000000000000000e+00 0.000000000000000000e+00 0.000000000000000000e+00 0.000000000000000000e+00 0.000000000000000000e+00 -0.000000000000000000e+00 0.000000000000000000e+00 -0.000000000000000000e+00 0.000000000000000000e+00 0.000000000000000000e+00 -0.000000000000000000e+00 -0.000000000000000000e+00 0.000000000000000000e+00 -0.000000000000000000e+00 0.000000000000000000e+00 0.000000000000000000e+00 -0.000000000000000000e+00 -0.000000000000000000e+00 0.000000000000000000e+00 0.000000000000000000e+00 0.000000000000000000e+00 -0.000000000000000000e+00 0.000000000000000000e+00 0.000000000000000000e+00 -0.000000000000000000e+00 -0.000000000000000000e+00 -0.000000000000000000e+00 0.000000000000000000e+00 -0.000000000000000000e+00 0.000000000000000000e+00 -0.000000000000000000e+00 0.000000000000000000e+00 0.000000000000000000e+00 -0.000000000000000000e+00 -0.000000000000000000e+00 0.000000000000000000e+00 -0.000000000000000000e+00 -0.000000000000000000e+00 0.000000000000000000e+00 0.000000000000000000e+00 0.000000000000000000e+00 0.000000000000000000e+00 0.000000000000000000e+00 0.000000000000000000e+00 -0.000000000000000000e+00 0.000000000000000000e+00 -0.000000000000000000e+00 0.000000000000000000e+00 0.000000000000000000e+00 -0.000000000000000000e+00 3.161781351082026958e-04 3.645715489983558655e-02 5.485485866665840149e-02 1.668782345950603485e-02 1.077987067401409149e-02 -6.225889176130294800e-02 2.697277627885341644e-02 -3.803322836756706238e-02 -6.393323093652725220e-02 5.790334567427635193e-02 -1.799577772617340088e-01 2.109772898256778717e-02 6.880033016204833984e-02 -6.668011099100112915e-02 -4.524835944175720215e-02 -5.115131288766860962e-02 6.517715007066726685e-02 1.343028154224157333e-02 -1.511334031820297241e-01 -4.699558764696121216e-02 2.674774453043937683e-02 -3.855590522289276123e-02 -9.205570071935653687e-02 5.945283453911542892e-03 2.142161130905151367e-02 3.901252895593643188e-02 5.343492701649665833e-02 -4.722458124160766602e-02 -2.017515338957309723e-02 -3.606263548135757446e-02 1.123867109417915344e-01 5.132299289107322693e-02 5.965718999505043030e-02 9.812518954277038574e-02 9.295255690813064575e-02 6.967065273784101009e-04 4.566022753715515137e-02 5.016349256038665771e-02 8.755238354206085205e-02 3.181678941473364830e-03 -8.906352519989013672e-02 1.448571681976318359e-01 3.124796599149703979e-02 2.674854919314384460e-02 4.383108578622341156e-03 -1.220299527049064636e-01 9.922396391630172729e-02 -4.566836357116699219e-02 -1.106431800872087479e-02 -5.165770649909973145e-02 1.033806800842285156e-02 9.110676497220993042e-02 -2.019772492349147797e-02 2.670129574835300446e-02 -4.835402965545654297e-02 -2.689496055245399475e-02 -6.745003908872604370e-02 -1.386817097663879395e-01 -1.689271926879882812e-01 -5.609929934144020081e-02 1.091730967164039612e-02 5.853519588708877563e-02 -1.825720667839050293e-01 5.569840222597122192e-02
0.000000000000000000e+00 -0.000000000000000000e+00 -0.000000000000000000e+00 0.000000000000000000e+00 0.000000000000000000e+00 -0.000000000000000000e+00 0.000000000000000000e+00 0.000000000000000000e+00 -0.000000000000000000e+00 0.000000000000000000e+00 -0.000000000000000000e+00 0.000000000000000000e+00 0.000000000000000000e+00 -0.000000000000000000e+00 -0.000000000000000000e+00 0.000000000000000000e+00 -0.000000000000000000e+00 0.000000000000000000e+00 -0.000000000000000000e+00 -0.000000000000000000e+00 0.000000000000000000e+00 -0.000000000000000000e+00 0.000000000000000000e+00 -0.000000000000000000e+00 -0.000000000000000000e+00 0.000000000000000000e+00 -0.000000000000000000e+00 -0.000000000000000000e+00 0.000000000000000000e+00 -0.000000000000000000e+00 -0.000000000000000000e+00 0.000000000000000000e+00 -0.000000000000000000e+00 -0.000000000000000000e+00 0.000000000000000000e+00 0.000000000000000000e+00 0.000000000000000000e+00 0.000000000000000000e+00 0.000000000000000000e+00 -0.000000000000000000e+00 -0.000000000000000000e+00 0.000000000000000000e+00 -0.000000000000000000e+00 -0.000000000000000000e+00 0.000000000000000000e+00 0.000000000000000000e+00 0.000000000000000000e+00 -0.000000000000000000e+00 0.000000000000000000e+00 -0.000000000000000000e+00 -0.000000000000000000e+00 0.000000000000000000e+00 -0.000000000000000000e+00 -0.000000000000000000e+00 0.000000000000000000e+00 -0.000000000000000000e+00 -0.000000000000000000e+00 0.000000000000000000e+00 0.000000000000000000e+00 -0.000000000000000000e+00 -0.000000000000000000e+00 0.000000000000000000e+00 0.000000000000000000e+00 0.000000000000000000e+00 2.822543494403362274e-02 -2.838553115725517273e-02 -4.667631164193153381e-02 -1.476325690746307373e-01 -7.014801353216171265e-02 -4.082883149385452271e-02 -8.024941384792327881e-02 5.109724029898643494e-02 -2.960079163312911987e-02 3.196449950337409973e-02 -3.301717340946197510e-02 4.032516106963157654e-02 -4.546650871634483337e-02 -1.331433467566967010e-02 8.137373626232147217e-02 -1.827539503574371338e-01 -3.161404654383659363e-02 -1.082600355148315430e-01 -1.178357899188995361e-01 3.491758927702903748e-02 -1.698584854602813721e-02 -9.363424777984619141e-02 -4.424995556473731995e-02 -2.187714725732803345e-02 6.855190545320510864e-02 2.184311300516128540e-02 3.172761201858520508e-02 -1.340278536081314087e-01 -9.065584093332290649e-02 7.024981081485748291e-02 -2.022153511643409729e-02 -2.725242078304290771e-02 -1.607634685933589935e-02 -7.690982520580291748e-02 -1.150322556495666504e-01 -3.161869943141937256e-02 -2.744657876974088140e-06 -7.783054560422897339e-02 -3.762613609433174133e-02 3.814158588647842407e-02 1.328347027301788330e-01 4.248132184147834778e-02 4.103109985589981079e-02 1.061742007732391357e-01 -1.799768209457397461e-01 6.148592010140419006e-02 -9.794981777667999268e-02 1.394273247569799423e-02 -1.356166899204254150e-01 2.132357656955718994e-02 -2.792868763208389282e-02 1.450042277574539185e-01 -5.666001886129379272e-02 2.338434755802154541e-02 -4.310501366853713989e-02 -4.303351789712905884e-02 -1.263203024864196777e-01 5.491051077842712402e-02 -6.618890166282653809e-02 3.897121548652648926e-02 -6.408591568470001221e-02 1.471024658530950546e-02 -1.108833402395248413e-02 2.105969935655593872e-02
0.000000000000000000e+00 0.000000000000000000e+00 -0.000000000000000000e+00 0.000000000000000000e+00 0.000000000000000000e+00 0.000000000000000000e+00 -0.000000000000000000e+00 -0.000000000000000000e+00 0.000000000000000000e+00 -0.000000000000000000e+00 0.000000000000000000e+00 -0.000000000000000000e+00 -0.000000000000000000e+00 -0.000000000000000000e+00 -0.000000000000000000e+00 -0.000000000000000000e+00 0.000000000000000000e+00 -0.000000000000000000e+00 0.000000000000000000e+00 -0.000000000000000000e+00 -0.000000000000000000e+00 -0.000000000000000000e+00 0.000000000000000000e+00 0.000000000000000000e+00 0.000000000000000000e+00 0.000000000000000000e+00 0.000000000000000000e+00 0.000000000000000000e+00 -0.000000000000000000e+00 -0.000000000000000000e+00 0.000000000000000000e+00 -0.000000000000000000e+00 -0.000000000000000000e+00 0.000000000000000000e+00 -0.000000000000000000e+00 -0.000000000000000000e+00 -0.000000000000000000e+00 0.000000000000000000e+00 0.000000000000000000e+00 0.000000000000000000e+00 -0.000000000000000000e+00 0.000000000000000000e+00 0.000000000000000000e+00 -0.000000000000000000e+00 0.000000000000000000e+00 0.000000000000000000e+00 0.000000000000000000e+00 -0.000000000000000000e+00 0.000000000000000000e+00 -0.000000000000000000e+00 0.000000000000000000e+00 0.000000000000000000e+00 -0.000000000000000000e+00 0.000000000000000000e+00 0.000000000000000000e+00 0.000000000000000000e+00 0.000000000000000000e+00 0.000000000000000000e+00 0.000000000000000000e+00 0.000000000000000000e+00 0.000000000000000000e+00 -0.000000000000000000e+00 0.000000000000000000e+00 -0.000000000000000000e+00 1.252701692283153534e-02 -1.318583264946937561e-02 5.267564207315444946e-03 1.110460981726646423e-01 -9.449786692857742310e-02 -4.070067033171653748e-02 1.365971192717552185e-02 1.419428586959838867e-01 5.083198100328445435e-02 -7.192932814359664917e-02 1.318937242031097412e-01 9.351962246000766754e-03 -3.538397699594497681e-02 1.673552393913269043e-01 2.064965069293975830e-01 1.886025443673133850e-02 6.819113343954086304e-02 -3.549626842141151428e-02 -7.591967284679412842e-02 1.645553112030029297e-01 -9.824114851653575897e-03 -4.987057670950889587e-02 4.562480375170707703e-02 -5.811879038810729980e-02 4.317700862884521484e-02 7.683642953634262085e-02 6.821896880865097046e-02 1.335371378809213638e-02 -1.316953450441360474e-02 -2.644991129636764526e-02 1.709483861923217773e-01 -2.029567770659923553e-02 -5.946744233369827271e-02 -1.450893282890319824e-01 -5.634429678320884705e-02 9.066390246152877808e-02 1.440855264663696289e-01 7.395291235297918320e-03 7.014011591672897339e-02 -9.094522893428802490e-02 3.571816720068454742e-03 -4.363451153039932251e-02 -3.383370488882064819e-02 2.742359414696693420e-02 -8.174978941679000854e-02 -2.586276270449161530e-02 -5.397532507777214050e-02 4.241582006216049194e-02 -9.460238367319107056e-02 9.891722351312637329e-02 -1.857774890959262848e-02 3.186657652258872986e-02 -7.139311730861663818e-02 1.443030871450901031e-02 1.290033906698226929e-01 1.025887951254844666e-01 -9.676163643598556519e-02 -1.035704463720321655e-01 6.927210092544555664e-02 -8.559699356555938721e-02 3.869478404521942139e-02 -6.886024773120880127e-02 -2.920512482523918152e-02 7.003425806760787964e-02
-0.000000000000000000e+00 -0.000000000000000000e+00 0.000000000000000000e+00 0.000000000000000000e+00 0.000000000000000000e+00 -0.000000000000000000e+00 0.000000000000000000e+00 0.000000000000000000e+00 -0.000000000000000000e+00 -0.000000000000000000e+00 -0.000000000000000000e+00 -0.000000000000000000e+00 -0.000000000000000000e+00 0.000000000000000000e+00 0.000000000000000000e+00 0.000000000000000000e+00 -0.000000000000000000e+00 0.000000000000000000e+00 -0.000000000000000000e+00 -0.000000000000000000e+00 0.000000000000000000e+00 0.000000000000000000e+00 -0.000000000000000000e+00 0.000000000000000000e+00 0.000000000000000000e+00 -0.000000000000000000e+00 0.000000000000000000e+00 -0.000000000000000000e+00 0.000000000000000000e+00 0.000000000000000000e+00 0.000000000000000000e+00 -0.000000000000000000e+00 0.000000000000000000e+00 -0.000000000000000000e+00 0.000000000000000000e+00 0.000000000000000000e+00 0.000000000000000000e+00 -0.000000000000000000e+00 -0.000000000000000000e+00 0.000000000000000000e+00 0.000000000000000000e+00 -0.000000000000000000e+00 0.000000000000000000e+00 -0.000000000000000000e+00 -0.000000000000000000e+00 -0.000000000000000000e+00 -0.000000000000000000e+00 -0.000000000000000000e+00 -0.000000000000000000e+00 -0.000000000000000000e+00 0.000000000000000000e+00 -0.000000000000000000e+00 -0.000000000000000000e+00 -0.000000000000000000e+00 0.000000000000000000e+00 -0.000000000000000000e+00 0.000000000000000000e+00 0.000000000000000000e+00 0.000000000000000000e+00 -0.000000000000000000e+00 -0.000000000000000000e+00 -0.000000000000000000e+00 0.000000000000000000e+00 0.000000000000000000e+00 1.693759858608245850e-02 -2.611404471099376678e-02 7.863611727952957153e-02 1.708834171295166016e-01 -4.056810960173606873e-02 -1.194920241832733154e-01 2.645814120769500732e-01 -3.383950144052505493e-02 7.213927060365676880e-02 -3.921493515372276306e-02 -9.559336304664611816e-02 6.343899667263031006e-02 -1.110227853059768677e-01 -6.743513047695159912e-02 -1.241275761276483536e-02 -8.053665608167648315e-02 1.644543260335922241e-01 1.750694513320922852e-01 -4.755090177059173584e-02 -4.533683136105537415e-02 -4.472794756293296814e-02 -1.243041604757308960e-01 -5.764238163828849792e-02 -1.282845139503479004e-01 3.501825779676437378e-02 -2.237977832555770874e-02 3.582642227411270142e-02 2.067476697266101837e-02 -1.238436922430992126e-01 -9.599097818136215210e-02 4.506405442953109741e-02 2.233012579381465912e-02 1.284439563751220703e-01 1.114832013845443726e-01 3.044597804546356201e-02 -1.286566853523254395e-01 3.184878453612327576e-02 1.660568863153457642e-01 -1.017582267522811890e-01 4.575553163886070251e-02 -5.597866326570510864e-02 -4.351868852972984314e-02 -2.141683548688888550e-02 1.738984286785125732e-01 -2.195162698626518250e-02 2.645510993897914886e-02 4.124823026359081268e-03 2.160588651895523071e-02 4.146535322070121765e-02 -3.475692123174667358e-02 -3.924260661005973816e-02 3.486159071326255798e-02 4.617106541991233826e-02 -6.055948138236999512e-02 8.622702211141586304e-02 -1.131698340177536011e-01 4.869906231760978699e-02 -1.412717849016189575e-01 1.306555047631263733e-02 -2.373472554609179497e-03 -1.324215810745954514e-02 -5.170761793851852417e-02 4.763324558734893799e-02 -4.551301151514053345e-02
0.000000000000000000e+00 0.000000000000000000e+00 -0.000000000000000000e+00 0.000000000000000000e+00 0.000000000000000000e+00 -0.000000000000000000e+00 0.000000000000000000e+00 -0.000000000000000000e+00 -0.000000000000000000e+00 0.000000000000000000e+00 -0.000000000000000000e+00 0.000000000000000000e+00 0.000000000000000000e+00 0.000000000000000000e+00 -0.000000000000000000e+00 0.000000000000000000e+00 -0.000000000000000000e+00 0.000000000000000000e+00 0.000000000000000000e+00 0.000000000000000000e+00 -0.000000000000000000e+00 -0.000000000000000000e+00 -0.000000000000000000e+00 -0.000000000000000000e+00 -0.000000000000000000e+00 -0.000000000000000000e+00 0.000000000000000000e+00 0.000000000000000000e+00 0.000000000000000000e+00 0.000000000000000000e+00 -0.000000000000000000e+00 0.000000000000000000e+00 0.000000000000000000e+00 -0.000000000000000000e+00 0.000000000000000000e+00 -0.000000000000000000e+00 0.000000000000000000e+00 0.000000000000000000e+00 -0.000000000000000000e+00 -0.000000000000000000e+00 -0.000000000000000000e+00 -0.000000000000000000e+00 -0.000000000000000000e+00 -0.000000000000000000e+00 -0.000000000000000000e+00 0.000000000000000000e+00 -0.000000000000000000e+00 0.000000000000000000e+00 0.000000000000000000e+00 0.000000000000000000e+00 -0.000000000000000000e+00 -0.000000000000000000e+00 -0.000000000000000000e+00 0.000000000000000000e+00 0.000000000000000000e+00 0.000000000000000000e+00 -0.000000000000000000e+00 0.000000000000000000e+00 0.000000000000000000e+00 -0.000000000000000000e+00 0.000000000000000000e+00 0.000000000000000000e+00 0.000000000000000000e+00 -0.000000000000000000e+00 5.335150286555290222e-02 -6.337392330169677734e-02 -2.191316150128841400e-02 -9.682877361774444580e-02 -4.409888014197349548e-02 7.402769476175308228e-02 -3.411954641342163086e-02 3.665705397725105286e-02 2.017262019217014313e-02 -1.917181164026260376e-01 -4.938217997550964355e-02 -6.872000545263290405e-02 -1.281827390193939209e-01 1.416772454977035522e-01 3.872488625347614288e-03 -8.871469646692276001e-03 7.237042486667633057e-02 2.895803004503250122e-02 4.212728515267372131e-02 -1.613689213991165161e-01 -1.149817332625389099e-01 -1.022599264979362488e-01 -3.383287787437438965e-02 -2.658471837639808655e-02 -5.402915552258491516e-02 1.218431070446968079e-02 2.944551035761833191e-02 -8.694425225257873535e-02 5.916371569037437439e-02 -2.439798228442668915e-02 -1.323480159044265747e-02 -2.611395902931690216e-02 -3.176467865705490112e-02 6.171070039272308350e-02 -1.051632836461067200e-01 1.062097847461700439e-01 -2.940648235380649567e-02 2.724751364439725876e-03 -1.352348774671554565e-01 1.124289780855178833e-01 6.533881276845932007e-02 -1.967304199934005737e-02 1.652440279722213745e-01 -1.008151471614837646e-01 1.421023458242416382e-01 -1.571237342432141304e-03 3.777308855205774307e-03 4.413051158189773560e-02 5.869018286466598511e-02 8.252036571502685547e-02 -2.575553357601165771e-01 3.003224544227123260e-02 1.951465383172035217e-02 3.267545998096466064e-02 -2.768742665648460388e-02 -1.279247254133224487e-01 1.109955087304115295e-01 -6.764046102762222290e-02 -5.604725796729326248e-03 -9.652306884527206421e-02 -4.320894926786422729e-02 -4.275900311768054962e-03 2.826740778982639313e-02 -7.432619482278823853e-02
-0.000000000000000000e+00 0.000000000000000000e+00 0.000000000000000000e+00 0.000000000000000000e+00 0.000000000000000000e+00 -0.000000000000000000e+00 0.000000000000000000e+00 0.000000000000000000e+00 0.000000000000000000e+00 0.000000000000000000e+00 0.000000000000000000e+00 -0.000000000000000000e+00 -0.000000000000000000e+00 -0.000000000000000000e+00 0.000000000000000000e+00 0.000000000000000000e+00 -0.000000000000000000e+00 0.000000000000000000e+00 0.000000000000000000e+00 -0.000000000000000000e+00 0.000000000000000000e+00 -0.000000000000000000e+00 -0.000000000000000000e+00 -0.000000000000000000e+00 -0.000000000000000000e+00 -0.000000000000000000e+00 -0.000000000000000000e+00 -0.000000000000000000e+00 -0.000000000000000000e+00 0.000000000000000000e+00 -0.000000000000000000e+00 0.000000000000000000e+00 -0.000000000000000000e+00 0.000000000000000000e+00 -0.000000000000000000e+00 -0.000000000000000000e+00 -0.000000000000000000e+00 0.000000000000000000e+00 -0.000000000000000000e+00 -0.000000000000000000e+00 -0.000000000000000000e+00 0.000000000000000000e+00 0.000000000000000000e+00 -0.000000000000000000e+00 0.000000000000000000e+00 -0.000000000000000000e+00 -0.000000000000000000e+00 -0.000000000000000000e+00 0.000000000000000000e+00 0.000000000000000000e+00 -0.000000000000000000e+00 -0.000000000000000000e+00 0.000000000000000000e+00 -0.000000000000000000e+00 0.000000000000000000e+00 -0.000000000000000000e+00 -0.000000000000000000e+00 0.000000000000000000e+00 -0.000000000000000000e+00 -0.000000000000000000e+00 -0.000000000000000000e+00 -0.000000000000000000e+00 0.000000000000000000e+00 0.000000000000000000e+00 -7.782744616270065308e-02 -1.066968397935852408e-04 -3.108471166342496872e-03 3.169724345207214355e-02 3.441443666815757751e-02 3.486129641532897949e-02 -4.083424434065818787e-02 3.743884712457656860e-02 1.112295314669609070e-01 1.346639730036258698e-02 -1.353433132171630859e-01 -1.554103195667266846e-01 -4.293040931224822998e-02 -1.344679668545722961e-02 8.941476047039031982e-02 -4.090389609336853027e-02 1.810268610715866089e-01 -1.047894731163978577e-01 -1.017972156405448914e-01 1.940657570958137512e-02 -7.711421698331832886e-02 -2.386267064139246941e-03 1.115720048546791077e-01 9.596817195415496826e-02 -4.601497575640678406e-02 7.176963239908218384e-02 -1.079074852168560028e-02 -1.455605681985616684e-02 -3.399615734815597534e-02 -4.364429041743278503e-02 -1.022674143314361572e-02 -1.652048826217651367e-01 -1.922522932291030884e-01 5.855845659971237183e-02 -1.285625100135803223e-01 1.460933238267898560e-01 -1.515201628208160400e-01 -5.995708331465721130e-02 -8.400016278028488159e-02 7.218552380800247192e-02 -5.386813730001449585e-02 5.822231993079185486e-02 4.785630851984024048e-02 9.360874444246292114e-02 1.359832137823104858e-01 -3.430756740272045135e-03 6.190308928489685059e-02 1.339463442564010620e-01 -7.637143135070800781e-02 4.704781994223594666e-02 7.025427650660276413e-03 1.300113350152969360e-01 1.308787167072296143e-01 1.763962656259536743e-01 -3.140056133270263672e-02 -7.302076369524002075e-02 -9.067653119564056396e-02 8.224940299987792969e-02 8.601938933134078979e-02 1.903568953275680542e-02 8.410176262259483337e-03 1.076675392687320709e-02 -1.668062359094619751e-01 1.280548721551895142e-01
