-5.893618464469909668e-01
-2.403793856501579285e-02
2.700852751731872559e-01
5.885129794478416443e-02
5.131488665938377380e-02
-5.366963893175125122e-02
1.611701995134353638e-01
1.763418316841125488e-01
1.215057969093322754e-01
-3.005231618881225586e-01
2.886321544647216797e-01
-1.854733750224113464e-02
-1.515717804431915283e-01
-1.129814051091670990e-02
3.371559679508209229e-01
2.040133625268936157e-01
3.216756582260131836e-01
5.244445800781250000e-02
3.019371628761291504e-01
1.751557290554046631e-01
-6.445235759019851685e-02
1.833839416503906250e-01
-1.198395192623138428e-01
5.943514779210090637e-02
2.221848219633102417e-01
-1.305816024541854858e-01
1.533941328525543213e-01
-1.002727597951889038e-01
-1.228756643831729889e-02
-1.978754699230194092e-01
-9.567218273878097534e-02
1.038096006959676743e-02
-1.150285452604293823e-01
-5.250852927565574646e-02
1.266973763704299927e-01
5.139435827732086182e-02
-1.035613659769296646e-02
-1.086709424853324890e-01
-2.559675872325897217e-01
-7.192925363779067993e-02
1.265572309494018555e-01
-8.621507883071899414e-02
1.232645064592361450e-01
2.663913369178771973e-01
1.565292105078697205e-02
-1.866238377988338470e-02
1.835785657167434692e-01
1.336359381675720215e-01
-1.174585297703742981e-01
1.463434249162673950e-01
2.860374376177787781e-02
1.822824478149414062e-01
-1.985742747783660889e-01
4.651655443012714386e-03
-1.312373764812946320e-02
2.548231780529022217e-01
1.234341040253639221e-01
6.807234883308410645e-02
1.122247651219367981e-01
2.066373080015182495e-01
-3.230021521449089050e-02
-7.164604216814041138e-02
-6.969855725765228271e-02
1.144782602787017822e-01
-7.404041942209005356e-03
2.274524420499801636e-01
-1.890139430761337280e-01
2.196910381317138672e-01
-1.972080618143081665e-01
3.423269987106323242e-01
1.589213758707046509e-01
-5.328180268406867981e-02
2.459413930773735046e-02
3.211969137191772461e-02
2.328497022390365601e-01
2.083840407431125641e-02
-6.994996964931488037e-02
3.036522865295410156e-01
1.303326636552810669e-01
-3.918065503239631653e-02
-2.728643715381622314e-01
8.545576035976409912e-02
2.254898846149444580e-01
-9.308634698390960693e-02
4.436720162630081177e-02
1.284279823303222656e-01
3.559459447860717773e-01
2.098928391933441162e-01
9.010033309459686279e-02
1.114024743437767029e-01
-1.495859622955322266e-01
4.789732396602630615e-02
1.935907900333404541e-01
1.642396897077560425e-01
-1.326747834682464600e-01
-3.009794093668460846e-02
-2.395875155925750732e-01
3.004131652414798737e-02
-6.022925674915313721e-02
1.013029590249061584e-01
1.224043816328048706e-01
3.052835464477539062e-01
-1.221074759960174561e-01
1.088174954056739807e-01
2.790961563587188721e-01
-2.347614169120788574e-01
1.607139781117439270e-02
2.788416147232055664e-01
2.669783532619476318e-01
7.266932725906372070e-02
1.114977151155471802e-02
1.427542120218276978e-01
6.774007529020309448e-02
8.646992594003677368e-02
-6.888417154550552368e-02
-3.350529074668884277e-02
-1.093326434493064880e-01
-5.120487883687019348e-02
3.041270077228546143e-01
9.874555468559265137e-02
3.665918409824371338e-01
7.051283121109008789e-02
1.989292055368423462e-01
-1.311405748128890991e-01
-2.017097622156143188e-01
3.421877026557922363e-01
4.120467305183410645e-01
1.713056303560733795e-02
