-0.000000000000000000e+00 -0.000000000000000000e+00 0.000000000000000000e+00 -0.000000000000000000e+00 0.000000000000000000e+00 0.000000000000000000e+00 0.000000000000000000e+00 -0.000000000000000000e+00 -0.000000000000000000e+00 -0.000000000000000000e+00 0.000000000000000000e+00 -0.000000000000000000e+00 0.000000000000000000e+00 0.000000000000000000e+00 -0.000000000000000000e+00 -0.000000000000000000e+00 0.000000000000000000e+00 -0.000000000000000000e+00 -0.000000000000000000e+00 0.000000000000000000e+00 0.000000000000000000e+00 0.000000000000000000e+00 0.000000000000000000e+00 0.000000000000000000e+00 -0.000000000000000000e+00 0.000000000000000000e+00 -0.000000000000000000e+00 0.000000000000000000e+00 -0.000000000000000000e+00 -0.000000000000000000e+00 0.000000000000000000e+00 0.000000000000000000e+00 0.000000000000000000e+00 0.000000000000000000e+00 -0.000000000000000000e+00 -0.000000000000000000e+00 -0.000000000000000000e+00 0.000000000000000000e+00 0.000000000000000000e+00 -0.000000000000000000e+00 -0.000000000000000000e+00 0.000000000000000000e+00 0.000000000000000000e+00 -0.000000000000000000e+00 -0.000000000000000000e+00 0.000000000000000000e+00 0.000000000000000000e+00 -0.000000000000000000e+00 -0.000000000000000000e+00 0.000000000000000000e+00 0.000000000000000000e+00 -0.000000000000000000e+00 0.000000000000000000e+00 0.000000000000000000e+00 0.000000000000000000e+00 -0.000000000000000000e+00 -0.000000000000000000e+00 0.000000000000000000e+00 0.000000000000000000e+00 -0.000000000000000000e+00 -0.000000000000000000e+00 -0.000000000000000000e+00 0.000000000000000000e+00 -0.000000000000000000e+00 1.024050563573837280e-01 -2.619921267032623291e-01 -1.995534598827362061e-01 -1.974869146943092346e-02 3.494672104716300964e-02 -1.582025364041328430e-02 -3.137091174721717834e-02 4.404317587614059448e-02 -1.006496790796518326e-02 -1.021079868078231812e-01 -5.361494049429893494e-02 1.082026436924934387e-01 5.082368254661560059e-01 -7.742539793252944946e-02 8.006403595209121704e-02 -3.433090820908546448e-02 9.568982571363449097e-02 1.963481456041336060e-01 3.091609776020050049e-01 8.396720886230468750e-02 -1.399902552366256714e-01 -1.931131072342395782e-02 -2.091366797685623169e-01 1.291818320751190186e-01 -4.873689264059066772e-03 3.659849986433982849e-02 -2.719410955905914307e-01 1.567896082997322083e-02 2.841179072856903076e-02 -5.837938934564590454e-02 -4.593210667371749878e-02 1.275286376476287842e-01 -9.243915230035781860e-02 -2.256654500961303711e-01 1.330600678920745850e-01 -1.425941735506057739e-01 -9.846671670675277710e-02 -2.476047128438949585e-01 -6.777659803628921509e-02 6.420974433422088623e-02 1.723623722791671753e-01 2.113876938819885254e-01 -4.153864458203315735e-02 7.599297165870666504e-02 -3.881646692752838135e-02 1.069965809583663940e-01 3.287969902157783508e-02 -4.571425542235374451e-02 -3.859739005565643311e-02 1.903843134641647339e-02 7.289671152830123901e-02 3.362382063642144203e-03 -4.293461740016937256e-01 -6.975148618221282959e-02 -1.513263583183288574e-01 1.272909808903932571e-02 -5.386663973331451416e-02 -6.717887520790100098e-02 -1.288534402847290039e-01 -6.846795976161956787e-02 -9.586744010448455811e-02 -3.824495673179626465e-01 -1.552053093910217285e-01 1.333172768354415894e-01
-0.000000000000000000e+00 -0.000000000000000000e+00 0.000000000000000000e+00 0.000000000000000000e+00 -0.000000000000000000e+00 0.000000000000000000e+00 -0.000000000000000000e+00 0.000000000000000000e+00 -0.000000000000000000e+00 0.000000000000000000e+00 -0.000000000000000000e+00 -0.000000000000000000e+00 0.000000000000000000e+00 0.000000000000000000e+00 0.000000000000000000e+00 0.000000000000000000e+00 -0.000000000000000000e+00 -0.000000000000000000e+00 -0.000000000000000000e+00 -0.000000000000000000e+00 -0.000000000000000000e+00 0.000000000000000000e+00 -0.000000000000000000e+00 0.000000000000000000e+00 -0.000000000000000000e+00 -0.000000000000000000e+00 -0.000000000000000000e+00 -0.000000000000000000e+00 0.000000000000000000e+00 0.000000000000000000e+00 -0.000000000000000000e+00 0.000000000000000000e+00 0.000000000000000000e+00 0.000000000000000000e+00 -0.000000000000000000e+00 0.000000000000000000e+00 0.000000000000000000e+00 -0.000000000000000000e+00 0.000000000000000000e+00 0.000000000000000000e+00 0.000000000000000000e+00 0.000000000000000000e+00 -0.000000000000000000e+00 -0.000000000000000000e+00 0.000000000000000000e+00 -0.000000000000000000e+00 0.000000000000000000e+00 0.000000000000000000e+00 0.000000000000000000e+00 -0.000000000000000000e+00 0.000000000000000000e+00 -0.000000000000000000e+00 0.000000000000000000e+00 0.000000000000000000e+00 0.000000000000000000e+00 -0.000000000000000000e+00 0.000000000000000000e+00 0.000000000000000000e+00 -0.000000000000000000e+00 -0.000000000000000000e+00 -0.000000000000000000e+00 0.000000000000000000e+00 -0.000000000000000000e+00 0.000000000000000000e+00 3.682098090648651123e-01 7.428197562694549561e-02 -3.108322620391845703e-02 1.419607251882553101e-01 4.618780687451362610e-02 1.778370290994644165e-01 2.011902183294296265e-01 1.493151932954788208e-01 7.203213870525360107e-02 -8.370923250913619995e-02 1.218031495809555054e-01 9.954149276018142700e-02 -2.383517771959304810e-01 4.446429759263992310e-02 2.087195068597793579e-01 -5.100956931710243225e-02 6.366816163063049316e-02 1.453554928302764893e-01 3.162775039672851562e-01 2.150757759809494019e-01 4.996979534626007080e-01 -7.011540234088897705e-02 1.906037926673889160e-01 1.107215732336044312e-01 2.521906495094299316e-01 -1.297529637813568115e-01 -5.776617303490638733e-02 1.175055503845214844e-01 1.041470374912023544e-02 2.983994083479046822e-03 1.063381433486938477e-01 -7.047054171562194824e-02 -3.168631717562675476e-02 1.692834198474884033e-01 3.159357905387878418e-01 -2.368631958961486816e-01 1.293519586324691772e-01 2.111271619796752930e-01 3.527278602123260498e-01 1.046371683478355408e-01 2.390827983617782593e-01 1.866108924150466919e-01 6.372761726379394531e-02 -2.868122458457946777e-01 1.550330966711044312e-01 -9.689138829708099365e-02 -2.587810344994068146e-02 3.598651662468910217e-02 -1.764323711395263672e-01 2.055680751800537109e-01 1.641394793987274170e-01 1.151871010661125183e-01 4.416662454605102539e-01 7.090886682271957397e-02 9.530013799667358398e-02 -2.002016156911849976e-01 1.141673177480697632e-01 4.390104487538337708e-02 1.187590323388576508e-02 -1.421136083081364632e-03 7.222470641136169434e-02 3.885172903537750244e-01 8.794361352920532227e-02 -1.027417629957199097e-01
0.000000000000000000e+00 0.000000000000000000e+00 0.000000000000000000e+00 -0.000000000000000000e+00 0.000000000000000000e+00 0.000000000000000000e+00 -0.000000000000000000e+00 0.000000000000000000e+00 -0.000000000000000000e+00 -0.000000000000000000e+00 -0.000000000000000000e+00 -0.000000000000000000e+00 -0.000000000000000000e+00 -0.000000000000000000e+00 0.000000000000000000e+00 -0.000000000000000000e+00 0.000000000000000000e+00 -0.000000000000000000e+00 -0.000000000000000000e+00 -0.000000000000000000e+00 -0.000000000000000000e+00 0.000000000000000000e+00 0.000000000000000000e+00 0.000000000000000000e+00 0.000000000000000000e+00 -0.000000000000000000e+00 -0.000000000000000000e+00 0.000000000000000000e+00 0.000000000000000000e+00 -0.000000000000000000e+00 0.000000000000000000e+00 0.000000000000000000e+00 0.000000000000000000e+00 -0.000000000000000000e+00 0.000000000000000000e+00 0.000000000000000000e+00 -0.000000000000000000e+00 -0.000000000000000000e+00 0.000000000000000000e+00 0.000000000000000000e+00 0.000000000000000000e+00 0.000000000000000000e+00 0.000000000000000000e+00 -0.000000000000000000e+00 -0.000000000000000000e+00 0.000000000000000000e+00 0.000000000000000000e+00 0.000000000000000000e+00 -0.000000000000000000e+00 -0.000000000000000000e+00 -0.000000000000000000e+00 0.000000000000000000e+00 0.000000000000000000e+00 0.000000000000000000e+00 0.000000000000000000e+00 0.000000000000000000e+00 -0.000000000000000000e+00 -0.000000000000000000e+00 -0.000000000000000000e+00 0.000000000000000000e+00 0.000000000000000000e+00 -0.000000000000000000e+00 0.000000000000000000e+00 -0.000000000000000000e+00 -3.336731716990470886e-02 -3.591122571378946304e-03 -1.377473399043083191e-02 1.221902295947074890e-01 2.878297269344329834e-01 1.831262707710266113e-01 -2.648901045322418213e-01 2.012379914522171021e-01 3.912242352962493896e-01 7.501482218503952026e-02 -2.817294895648956299e-01 2.794819772243499756e-01 5.446214228868484497e-02 4.518113732337951660e-01 3.705533966422080994e-02 1.538905501365661621e-01 -7.147592958062887192e-03 1.916902959346771240e-01 2.812295258045196533e-01 1.529318392276763916e-01 1.804387420415878296e-01 5.186802241951227188e-03 5.976489782333374023e-01 2.166165262460708618e-01 1.874643266201019287e-01 -1.689172238111495972e-01 -3.854519128799438477e-02 1.152727454900741577e-01 7.830434292554855347e-02 -8.950389921665191650e-03 9.968367218971252441e-02 -7.309536635875701904e-02 1.808852851390838623e-01 2.202998287975788116e-02 -5.971186980605125427e-02 1.143010740634053946e-04 -9.985680878162384033e-02 2.313829958438873291e-01 1.704722195863723755e-01 1.016615852713584900e-01 -3.258404508233070374e-02 2.659367322921752930e-01 2.794778645038604736e-01 -1.148004084825515747e-01 6.225232407450675964e-02 -2.519829273223876953e-01 2.376280725002288818e-01 2.036892175674438477e-01 -7.365925610065460205e-02 5.954894050955772400e-02 1.464900076389312744e-01 1.626067757606506348e-01 -1.226119697093963623e-01 1.874339431524276733e-01 2.873650491237640381e-01 2.674256861209869385e-01 1.451195031404495239e-01 -2.509888494387269020e-03 5.413326993584632874e-02 -1.387975960969924927e-01 2.690854296088218689e-02 -4.734394699335098267e-02 1.372022181749343872e-01 2.562947757542133331e-02
-0.000000000000000000e+00 -0.000000000000000000e+00 -0.000000000000000000e+00 -0.000000000000000000e+00 -0.000000000000000000e+00 0.000000000000000000e+00 0.000000000000000000e+00 -0.000000000000000000e+00 -0.000000000000000000e+00 -0.000000000000000000e+00 0.000000000000000000e+00 0.000000000000000000e+00 -0.000000000000000000e+00 0.000000000000000000e+00 0.000000000000000000e+00 -0.000000000000000000e+00 0.000000000000000000e+00 0.000000000000000000e+00 0.000000000000000000e+00 -0.000000000000000000e+00 -0.000000000000000000e+00 -0.000000000000000000e+00 -0.000000000000000000e+00 0.000000000000000000e+00 -0.000000000000000000e+00 -0.000000000000000000e+00 0.000000000000000000e+00 0.000000000000000000e+00 -0.000000000000000000e+00 0.000000000000000000e+00 -0.000000000000000000e+00 0.000000000000000000e+00 0.000000000000000000e+00 0.000000000000000000e+00 -0.000000000000000000e+00 -0.000000000000000000e+00 0.000000000000000000e+00 0.000000000000000000e+00 0.000000000000000000e+00 0.000000000000000000e+00 -0.000000000000000000e+00 0.000000000000000000e+00 0.000000000000000000e+00 0.000000000000000000e+00 0.000000000000000000e+00 -0.000000000000000000e+00 -0.000000000000000000e+00 0.000000000000000000e+00 0.000000000000000000e+00 -0.000000000000000000e+00 -0.000000000000000000e+00 0.000000000000000000e+00 0.000000000000000000e+00 0.000000000000000000e+00 0.000000000000000000e+00 -0.000000000000000000e+00 -0.000000000000000000e+00 0.000000000000000000e+00 -0.000000000000000000e+00 0.000000000000000000e+00 0.000000000000000000e+00 -0.000000000000000000e+00 -0.000000000000000000e+00 0.000000000000000000e+00 2.282974123954772949e-02 1.777740567922592163e-01 -2.691825926303863525e-01 -4.919749125838279724e-02 7.550171762704849243e-02 1.154432073235511780e-01 -8.951245248317718506e-02 5.926206335425376892e-02 -7.335865497589111328e-02 1.655629575252532959e-01 -3.918260037899017334e-01 2.248725891113281250e-01 -2.846966683864593506e-01 2.593861818313598633e-01 3.123701363801956177e-02 2.946415171027183533e-02 -6.517072021961212158e-02 7.154356688261032104e-02 1.641881316900253296e-01 2.103212326765060425e-01 -1.077814921736717224e-01 1.895336806774139404e-01 1.303841322660446167e-01 4.327217936515808105e-01 2.182191163301467896e-01 2.667955756187438965e-01 -4.597681388258934021e-02 -3.441534042358398438e-01 7.014827430248260498e-02 1.363632231950759888e-01 -8.511707186698913574e-02 -2.198009192943572998e-01 1.623694598674774170e-01 -1.500535309314727783e-01 3.687491416931152344e-01 1.709422022104263306e-01 -2.361649088561534882e-02 -1.263793744146823883e-02 1.366034895181655884e-01 1.350503414869308472e-01 9.523250162601470947e-02 -1.814935654401779175e-01 1.624918133020401001e-01 -2.504942752420902252e-02 2.500175312161445618e-02 -1.432316936552524567e-02 2.479409426450729370e-02 -3.975872322916984558e-02 -1.421972736716270447e-02 2.128295898437500000e-01 -2.815949916839599609e-01 9.874819219112396240e-02 6.259693205356597900e-02 2.817414104938507080e-01 2.573208212852478027e-01 -1.569221317768096924e-01 2.163814753293991089e-01 -7.208862900733947754e-02 2.706232964992523193e-01 -9.454796463251113892e-02 -1.247219145298004150e-01 2.125920951366424561e-01 5.480648949742317200e-02 6.199994683265686035e-02
-0.000000000000000000e+00 -0.000000000000000000e+00 0.000000000000000000e+00 -0.000000000000000000e+00 -0.000000000000000000e+00 0.000000000000000000e+00 0.000000000000000000e+00 -0.000000000000000000e+00 -0.000000000000000000e+00 -0.000000000000000000e+00 0.000000000000000000e+00 -0.000000000000000000e+00 0.000000000000000000e+00 0.000000000000000000e+00 0.000000000000000000e+00 0.000000000000000000e+00 0.000000000000000000e+00 0.000000000000000000e+00 -0.000000000000000000e+00 0.000000000000000000e+00 -0.000000000000000000e+00 -0.000000000000000000e+00 0.000000000000000000e+00 0.000000000000000000e+00 -0.000000000000000000e+00 0.000000000000000000e+00 0.000000000000000000e+00 -0.000000000000000000e+00 0.000000000000000000e+00 0.000000000000000000e+00 -0.000000000000000000e+00 0.000000000000000000e+00 0.000000000000000000e+00 0.000000000000000000e+00 -0.000000000000000000e+00 -0.000000000000000000e+00 -0.000000000000000000e+00 0.000000000000000000e+00 0.000000000000000000e+00 -0.000000000000000000e+00 0.000000000000000000e+00 0.000000000000000000e+00 -0.000000000000000000e+00 -0.000000000000000000e+00 -0.000000000000000000e+00 0.000000000000000000e+00 0.000000000000000000e+00 0.000000000000000000e+00 -0.000000000000000000e+00 0.000000000000000000e+00 0.000000000000000000e+00 0.000000000000000000e+00 0.000000000000000000e+00 0.000000000000000000e+00 0.000000000000000000e+00 -0.000000000000000000e+00 0.000000000000000000e+00 0.000000000000000000e+00 0.000000000000000000e+00 -0.000000000000000000e+00 0.000000000000000000e+00 0.000000000000000000e+00 0.000000000000000000e+00 -0.000000000000000000e+00 2.829583287239074707e-01 5.807248502969741821e-02 3.078244030475616455e-01 -2.175110578536987305e-01 -6.008494272828102112e-02 1.053275465965270996e-01 6.610494852066040039e-02 4.372946918010711670e-01 8.420863747596740723e-02 1.243748888373374939e-01 1.375436931848526001e-01 -7.772494852542877197e-02 3.640533611178398132e-02 1.559859365224838257e-01 9.416443109512329102e-02 -2.420415580272674561e-01 7.607814669609069824e-02 -7.545608282089233398e-02 -3.130580997094511986e-03 7.019575685262680054e-02 2.552633583545684814e-01 1.518016904592514038e-01 7.957296073436737061e-02 2.727748751640319824e-01 1.474224925041198730e-01 1.870677620172500610e-01 -1.031775102019309998e-01 4.433591663837432861e-01 4.706776738166809082e-01 -1.047181487083435059e-01 6.774620711803436279e-02 1.061630062758922577e-02 -3.001627698540687561e-02 1.358684450387954712e-01 1.970273107290267944e-01 3.004526197910308838e-01 5.808624252676963806e-02 2.787189185619354248e-01 -2.105724764987826347e-03 -4.417480528354644775e-02 2.699342370033264160e-01 3.395521640777587891e-01 1.430927962064743042e-01 -2.479872256517410278e-01 -1.793562322854995728e-01 3.540021181106567383e-01 1.635413169860839844e-01 3.370048701763153076e-01 -1.751357922330498695e-03 3.053744509816169739e-02 -4.635288566350936890e-02 3.358478844165802002e-01 1.710480302572250366e-01 -7.661671843379735947e-03 3.942221030592918396e-02 -6.153152137994766235e-02 -4.538927227258682251e-02 1.366554498672485352e-01 1.504487246274948120e-01 -2.189846038818359375e-01 9.012906253337860107e-02 1.051418930292129517e-01 1.690440922975540161e-01 5.054016113281250000e-01
-0.000000000000000000e+00 -0.000000000000000000e+00 -0.000000000000000000e+00 0.000000000000000000e+00 -0.000000000000000000e+00 0.000000000000000000e+00 -0.000000000000000000e+00 -0.000000000000000000e+00 -0.000000000000000000e+00 0.000000000000000000e+00 0.000000000000000000e+00 0.000000000000000000e+00 -0.000000000000000000e+00 0.000000000000000000e+00 0.000000000000000000e+00 -0.000000000000000000e+00 0.000000000000000000e+00 -0.000000000000000000e+00 -0.000000000000000000e+00 0.000000000000000000e+00 -0.000000000000000000e+00 0.000000000000000000e+00 0.000000000000000000e+00 -0.000000000000000000e+00 0.000000000000000000e+00 0.000000000000000000e+00 -0.000000000000000000e+00 0.000000000000000000e+00 0.000000000000000000e+00 -0.000000000000000000e+00 0.000000000000000000e+00 -0.000000000000000000e+00 0.000000000000000000e+00 -0.000000000000000000e+00 0.000000000000000000e+00 -0.000000000000000000e+00 0.000000000000000000e+00 -0.000000000000000000e+00 -0.000000000000000000e+00 -0.000000000000000000e+00 0.000000000000000000e+00 0.000000000000000000e+00 0.000000000000000000e+00 -0.000000000000000000e+00 0.000000000000000000e+00 -0.000000000000000000e+00 -0.000000000000000000e+00 -0.000000000000000000e+00 -0.000000000000000000e+00 -0.000000000000000000e+00 -0.000000000000000000e+00 -0.000000000000000000e+00 0.000000000000000000e+00 0.000000000000000000e+00 -0.000000000000000000e+00 -0.000000000000000000e+00 0.000000000000000000e+00 0.000000000000000000e+00 0.000000000000000000e+00 -0.000000000000000000e+00 0.000000000000000000e+00 0.000000000000000000e+00 -0.000000000000000000e+00 0.000000000000000000e+00 -1.312385946512222290e-01 4.145205020904541016e-02 8.982180058956146240e-02 2.946952581405639648e-01 9.429166465997695923e-02 4.056968539953231812e-02 -8.615294098854064941e-02 -3.798090517520904541e-01 -4.662089981138706207e-03 5.670277401804924011e-03 3.833197057247161865e-01 -9.579904377460479736e-02 1.593582034111022949e-01 9.432653337717056274e-02 -1.385488957166671753e-01 -8.748047798871994019e-02 9.668381512165069580e-02 6.209708005189895630e-02 3.055820763111114502e-01 -1.623045206069946289e-01 1.635101139545440674e-01 -1.120936125516891479e-01 -2.778286039829254150e-01 -1.516859084367752075e-01 -1.551659852266311646e-01 -6.276267115026712418e-03 1.963681876659393311e-01 1.091285496950149536e-01 -4.890410974621772766e-02 3.599219620227813721e-01 -1.278400570154190063e-01 2.102630436420440674e-01 -2.797893881797790527e-01 5.423279106616973877e-02 -2.985661849379539490e-02 -2.166324481368064880e-02 4.468312487006187439e-02 -4.279869198799133301e-01 -1.356096416711807251e-01 -4.430228099226951599e-02 6.572545319795608521e-02 -1.037270724773406982e-01 -4.402777180075645447e-02 7.028520852327346802e-02 -1.493283547461032867e-03 -1.690964847803115845e-01 1.795406825840473175e-02 -2.092144340276718140e-01 -9.914846718311309814e-02 -2.627242803573608398e-01 1.790806353092193604e-01 1.847165971994400024e-01 -1.515292227268218994e-01 -6.978717446327209473e-02 1.928270459175109863e-01 -4.909615218639373779e-02 1.139110773801803589e-01 4.451102763414382935e-02 2.882327735424041748e-01 1.557951271533966064e-01 -9.837785735726356506e-03 -2.150291800498962402e-01 2.567821927368640900e-02 1.698529534041881561e-02
0.000000000000000000e+00 0.000000000000000000e+00 -0.000000000000000000e+00 -0.000000000000000000e+00 0.000000000000000000e+00 -0.000000000000000000e+00 -0.000000000000000000e+00 0.000000000000000000e+00 -0.000000000000000000e+00 -0.000000000000000000e+00 0.000000000000000000e+00 -0.000000000000000000e+00 0.000000000000000000e+00 -0.000000000000000000e+00 0.000000000000000000e+00 0.000000000000000000e+00 0.000000000000000000e+00 0.000000000000000000e+00 0.000000000000000000e+00 -0.000000000000000000e+00 -0.000000000000000000e+00 -0.000000000000000000e+00 0.000000000000000000e+00 0.000000000000000000e+00 0.000000000000000000e+00 0.000000000000000000e+00 0.000000000000000000e+00 0.000000000000000000e+00 -0.000000000000000000e+00 -0.000000000000000000e+00 0.000000000000000000e+00 0.000000000000000000e+00 0.000000000000000000e+00 -0.000000000000000000e+00 0.000000000000000000e+00 0.000000000000000000e+00 -0.000000000000000000e+00 0.000000000000000000e+00 -0.000000000000000000e+00 -0.000000000000000000e+00 0.000000000000000000e+00 0.000000000000000000e+00 -0.000000000000000000e+00 0.000000000000000000e+00 -0.000000000000000000e+00 0.000000000000000000e+00 0.000000000000000000e+00 0.000000000000000000e+00 -0.000000000000000000e+00 -0.000000000000000000e+00 0.000000000000000000e+00 -0.000000000000000000e+00 0.000000000000000000e+00 -0.000000000000000000e+00 0.000000000000000000e+00 0.000000000000000000e+00 -0.000000000000000000e+00 0.000000000000000000e+00 -0.000000000000000000e+00 0.000000000000000000e+00 -0.000000000000000000e+00 0.000000000000000000e+00 -0.000000000000000000e+00 -0.000000000000000000e+00 1.339813768863677979e-01 2.928810417652130127e-01 1.193047985434532166e-01 -1.833540387451648712e-02 2.018221020698547363e-01 1.359228193759918213e-01 -2.234953939914703369e-01 4.346767067909240723e-01 -3.353916108608245850e-01 4.760374128818511963e-01 -6.399765610694885254e-02 2.272816896438598633e-01 2.268647029995918274e-02 -2.084953635931015015e-01 1.003217548131942749e-01 1.048467084765434265e-01 6.883899867534637451e-02 1.462160702794790268e-02 -4.161690920591354370e-02 2.061661630868911743e-01 2.230010032653808594e-01 -2.835080027580261230e-01 -3.316648304462432861e-01 2.201848775148391724e-01 4.203328788280487061e-01 2.156913727521896362e-01 -2.779277265071868896e-01 3.286995887756347656e-01 1.023578718304634094e-01 3.550508618354797363e-01 1.410998404026031494e-01 2.213989496231079102e-01 8.727431297302246094e-02 4.662108607590198517e-03 -2.334034740924835205e-01 7.116124033927917480e-02 1.734295189380645752e-01 -1.530921012163162231e-01 1.804919093847274780e-01 -2.959080785512924194e-02 8.857607096433639526e-02 3.216403126716613770e-01 -3.469931893050670624e-03 -3.259144723415374756e-01 -8.998627215623855591e-02 6.579122543334960938e-01 3.205144032835960388e-02 2.169567197561264038e-01 -4.384235665202140808e-02 7.297270745038986206e-02 6.995570659637451172e-02 6.434229016304016113e-02 8.067573606967926025e-02 -4.705389961600303650e-02 3.176333904266357422e-01 -8.059556037187576294e-02 1.722655594348907471e-01 -4.838462918996810913e-02 -1.410829871892929077e-01 4.483839962631464005e-03 6.443240493535995483e-02 -9.911289811134338379e-02 5.134774744510650635e-02 2.763945758342742920e-01
-0.000000000000000000e+00 0.000000000000000000e+00 -0.000000000000000000e+00 0.000000000000000000e+00 0.000000000000000000e+00 0.000000000000000000e+00 0.000000000000000000e+00 -0.000000000000000000e+00 0.000000000000000000e+00 -0.000000000000000000e+00 0.000000000000000000e+00 0.000000000000000000e+00 -0.000000000000000000e+00 -0.000000000000000000e+00 -0.000000000000000000e+00 0.000000000000000000e+00 -0.000000000000000000e+00 0.000000000000000000e+00 0.000000000000000000e+00 0.000000000000000000e+00 0.000000000000000000e+00 -0.000000000000000000e+00 0.000000000000000000e+00 -0.000000000000000000e+00 0.000000000000000000e+00 -0.000000000000000000e+00 -0.000000000000000000e+00 0.000000000000000000e+00 0.000000000000000000e+00 0.000000000000000000e+00 0.000000000000000000e+00 0.000000000000000000e+00 0.000000000000000000e+00 -0.000000000000000000e+00 -0.000000000000000000e+00 -0.000000000000000000e+00 0.000000000000000000e+00 -0.000000000000000000e+00 -0.000000000000000000e+00 0.000000000000000000e+00 -0.000000000000000000e+00 -0.000000000000000000e+00 -0.000000000000000000e+00 -0.000000000000000000e+00 -0.000000000000000000e+00 -0.000000000000000000e+00 -0.000000000000000000e+00 0.000000000000000000e+00 -0.000000000000000000e+00 0.000000000000000000e+00 -0.000000000000000000e+00 -0.000000000000000000e+00 0.000000000000000000e+00 0.000000000000000000e+00 0.000000000000000000e+00 0.000000000000000000e+00 0.000000000000000000e+00 -0.000000000000000000e+00 0.000000000000000000e+00 -0.000000000000000000e+00 -0.000000000000000000e+00 -0.000000000000000000e+00 -0.000000000000000000e+00 0.000000000000000000e+00 3.442569673061370850e-01 1.133644357323646545e-01 9.614185243844985962e-02 -2.802801318466663361e-02 -1.288616657257080078e-01 2.624372541904449463e-01 4.402924478054046631e-01 2.581965178251266479e-02 1.040903776884078979e-01 5.742144584655761719e-02 -1.287761479616165161e-01 -3.911846876144409180e-02 8.759384602308273315e-02 4.026202484965324402e-02 1.058125197887420654e-01 -2.054245024919509888e-02 5.459267180413007736e-03 1.668943613767623901e-01 -8.158042281866073608e-02 2.874349951744079590e-01 8.587495423853397369e-03 -1.348665915429592133e-02 1.048894748091697693e-01 2.851736545562744141e-01 -1.991434842348098755e-01 2.081079594790935516e-02 2.119064480066299438e-01 -1.141841113567352295e-01 4.381065070629119873e-02 3.579984009265899658e-01 1.271553486585617065e-01 -1.481467336416244507e-01 2.236092835664749146e-01 2.994700372219085693e-01 1.224173605442047119e-02 -7.506825774908065796e-02 7.182649523019790649e-02 4.339060485363006592e-01 -1.490499228239059448e-01 -1.841964721679687500e-01 1.595770418643951416e-01 -7.520356029272079468e-02 -8.057104796171188354e-02 -2.508994638919830322e-01 1.820628792047500610e-01 1.276337951421737671e-01 1.123415306210517883e-01 2.318132482469081879e-02 -8.436127752065658569e-02 1.052509173750877380e-01 3.107719421386718750e-01 1.211876887828111649e-02 2.465038374066352844e-02 -1.465495377779006958e-01 3.560653328895568848e-02 3.070535324513912201e-02 1.157683208584785461e-01 1.675540357828140259e-01 1.740392148494720459e-01 -2.445882409811019897e-01 5.685951933264732361e-02 2.171649932861328125e-01 2.694412767887115479e-01 3.017739020287990570e-02
0.000000000000000000e+00 -0.000000000000000000e+00 -0.000000000000000000e+00 0.000000000000000000e+00 -0.000000000000000000e+00 0.000000000000000000e+00 0.000000000000000000e+00 -0.000000000000000000e+00 -0.000000000000000000e+00 -0.000000000000000000e+00 -0.000000000000000000e+00 0.000000000000000000e+00 -0.000000000000000000e+00 0.000000000000000000e+00 0.000000000000000000e+00 -0.000000000000000000e+00 -0.000000000000000000e+00 -0.000000000000000000e+00 -0.000000000000000000e+00 -0.000000000000000000e+00 0.000000000000000000e+00 -0.000000000000000000e+00 -0.000000000000000000e+00 0.000000000000000000e+00 0.000000000000000000e+00 -0.000000000000000000e+00 -0.000000000000000000e+00 0.000000000000000000e+00 0.000000000000000000e+00 -0.000000000000000000e+00 0.000000000000000000e+00 -0.000000000000000000e+00 0.000000000000000000e+00 0.000000000000000000e+00 -0.000000000000000000e+00 -0.000000000000000000e+00 0.000000000000000000e+00 -0.000000000000000000e+00 0.000000000000000000e+00 0.000000000000000000e+00 -0.000000000000000000e+00 -0.000000000000000000e+00 -0.000000000000000000e+00 0.000000000000000000e+00 -0.000000000000000000e+00 -0.000000000000000000e+00 0.000000000000000000e+00 0.000000000000000000e+00 0.000000000000000000e+00 -0.000000000000000000e+00 -0.000000000000000000e+00 0.000000000000000000e+00 0.000000000000000000e+00 0.000000000000000000e+00 -0.000000000000000000e+00 0.000000000000000000e+00 0.000000000000000000e+00 -0.000000000000000000e+00 -0.000000000000000000e+00 0.000000000000000000e+00 -0.000000000000000000e+00 0.000000000000000000e+00 0.000000000000000000e+00 0.000000000000000000e+00 -6.512928009033203125e-02 2.415964156389236450e-01 6.808087974786758423e-02 1.685142815113067627e-01 -4.882451146841049194e-02 -1.410914678126573563e-02 -2.802100032567977905e-03 1.758077740669250488e-01 -2.662583589553833008e-01 2.535030245780944824e-01 -6.189869716763496399e-02 -5.496997386217117310e-03 -4.083858057856559753e-02 4.636762663722038269e-02 5.166596919298171997e-02 8.860585093498229980e-02 -5.678630992770195007e-02 2.422809749841690063e-01 7.388383150100708008e-02 1.066839471459388733e-01 -2.159211188554763794e-01 1.868770867586135864e-01 1.728497594594955444e-01 8.202929049730300903e-02 3.500309586524963379e-01 -5.639949813485145569e-02 2.712757512927055359e-02 -2.176510095596313477e-01 1.742323786020278931e-01 1.406961530447006226e-01 1.641865372657775879e-01 1.369349099695682526e-02 2.792629599571228027e-01 2.473384588956832886e-01 1.985764652490615845e-01 -1.487963944673538208e-01 1.720533221960067749e-01 -7.215811312198638916e-02 1.132435202598571777e-01 2.925170660018920898e-01 1.471805423498153687e-01 -6.269314140081405640e-02 1.912318915128707886e-01 -3.398295119404792786e-02 -8.173169940710067749e-02 -1.262799650430679321e-01 2.069369107484817505e-01 1.343928426504135132e-01 3.420644104480743408e-01 -2.866671979427337646e-01 -1.505817770957946777e-01 2.464499026536941528e-01 -8.073722571134567261e-02 1.340401768684387207e-01 3.870613276958465576e-01 8.770985901355743408e-02 2.260251194238662720e-01 6.367829442024230957e-02 1.302829384803771973e-01 1.180016249418258667e-02 5.991865694522857666e-02 3.143835961818695068e-01 -4.261536151170730591e-02 3.635280728340148926e-01
0.000000000000000000e+00 0.000000000000000000e+00 0.000000000000000000e+00 -0.000000000000000000e+00 0.000000000000000000e+00 -0.000000000000000000e+00 -0.000000000000000000e+00 -0.000000000000000000e+00 0.000000000000000000e+00 0.000000000000000000e+00 -0.000000000000000000e+00 -0.000000000000000000e+00 0.000000000000000000e+00 -0.000000000000000000e+00 -0.000000000000000000e+00 -0.000000000000000000e+00 0.000000000000000000e+00 0.000000000000000000e+00 -0.000000000000000000e+00 -0.000000000000000000e+00 -0.000000000000000000e+00 -0.000000000000000000e+00 -0.000000000000000000e+00 -0.000000000000000000e+00 0.000000000000000000e+00 -0.000000000000000000e+00 -0.000000000000000000e+00 0.000000000000000000e+00 -0.000000000000000000e+00 -0.000000000000000000e+00 0.000000000000000000e+00 0.000000000000000000e+00 0.000000000000000000e+00 -0.000000000000000000e+00 -0.000000000000000000e+00 -0.000000000000000000e+00 0.000000000000000000e+00 -0.000000000000000000e+00 -0.000000000000000000e+00 -0.000000000000000000e+00 0.000000000000000000e+00 0.000000000000000000e+00 0.000000000000000000e+00 0.000000000000000000e+00 0.000000000000000000e+00 -0.000000000000000000e+00 0.000000000000000000e+00 -0.000000000000000000e+00 -0.000000000000000000e+00 -0.000000000000000000e+00 0.000000000000000000e+00 0.000000000000000000e+00 -0.000000000000000000e+00 -0.000000000000000000e+00 0.000000000000000000e+00 0.000000000000000000e+00 0.000000000000000000e+00 0.000000000000000000e+00 -0.000000000000000000e+00 0.000000000000000000e+00 0.000000000000000000e+00 -0.000000000000000000e+00 -0.000000000000000000e+00 0.000000000000000000e+00 7.158752530813217163e-02 1.080862153321504593e-02 1.449558287858963013e-01 -1.787351220846176147e-01 1.293933540582656860e-01 1.695945560932159424e-01 1.916259527206420898e-02 8.496336638927459717e-02 9.362337738275527954e-02 -9.817093610763549805e-02 2.591104805469512939e-01 -1.968153566122055054e-01 1.887411326169967651e-01 1.259336024522781372e-01 2.469497621059417725e-01 3.630713224411010742e-01 -1.865377426147460938e-01 2.129651010036468506e-01 8.463045209646224976e-02 2.619060575962066650e-01 -7.009337097406387329e-02 1.109793856739997864e-01 1.739924252033233643e-01 5.732051283121109009e-02 1.443896293640136719e-01 9.790801256895065308e-02 -1.053663864731788635e-01 1.244482919573783875e-01 6.351655721664428711e-02 2.007347047328948975e-01 -2.727667242288589478e-02 -2.717760205268859863e-01 4.738040864467620850e-01 -1.231543626636266708e-02 5.675654113292694092e-02 8.484341949224472046e-02 -5.545628443360328674e-02 -4.942788928747177124e-02 2.640550956130027771e-02 -5.857671424746513367e-02 3.840652480721473694e-02 8.693631738424301147e-02 8.729998767375946045e-02 -6.676567345857620239e-02 2.379457056522369385e-01 2.112765312194824219e-01 1.873327493667602539e-01 1.753139793872833252e-01 1.345427781343460083e-01 -2.924741059541702271e-02 -1.117688417434692383e-01 1.064781993627548218e-01 8.740269392728805542e-02 1.036782339215278625e-01 -1.926407404243946075e-02 -1.264530271291732788e-01 9.114268422126770020e-02 -3.004760947078466415e-03 2.919512391090393066e-01 -4.281294718384742737e-02 -3.773889690637588501e-02 3.336820006370544434e-01 1.329033374786376953e-01 -1.490815281867980957e-01
-0.000000000000000000e+00 -0.000000000000000000e+00 0.000000000000000000e+00 -0.000000000000000000e+00 -0.000000000000000000e+00 -0.000000000000000000e+00 -0.000000000000000000e+00 -0.000000000000000000e+00 0.000000000000000000e+00 -0.000000000000000000e+00 0.000000000000000000e+00 -0.000000000000000000e+00 -0.000000000000000000e+00 -0.000000000000000000e+00 0.000000000000000000e+00 -0.000000000000000000e+00 0.000000000000000000e+00 -0.000000000000000000e+00 0.000000000000000000e+00 0.000000000000000000e+00 -0.000000000000000000e+00 -0.000000000000000000e+00 0.000000000000000000e+00 0.000000000000000000e+00 -0.000000000000000000e+00 0.000000000000000000e+00 0.000000000000000000e+00 -0.000000000000000000e+00 -0.000000000000000000e+00 0.000000000000000000e+00 -0.000000000000000000e+00 0.000000000000000000e+00 0.000000000000000000e+00 -0.000000000000000000e+00 -0.000000000000000000e+00 -0.000000000000000000e+00 -0.000000000000000000e+00 0.000000000000000000e+00 0.000000000000000000e+00 0.000000000000000000e+00 -0.000000000000000000e+00 0.000000000000000000e+00 -0.000000000000000000e+00 0.000000000000000000e+00 0.000000000000000000e+00 -0.000000000000000000e+00 0.000000000000000000e+00 0.000000000000000000e+00 -0.000000000000000000e+00 -0.000000000000000000e+00 -0.000000000000000000e+00 0.000000000000000000e+00 -0.000000000000000000e+00 -0.000000000000000000e+00 0.000000000000000000e+00 -0.000000000000000000e+00 0.000000000000000000e+00 0.000000000000000000e+00 0.000000000000000000e+00 -0.000000000000000000e+00 0.000000000000000000e+00 -0.000000000000000000e+00 -0.000000000000000000e+00 0.000000000000000000e+00 2.172002345323562622e-01 -1.813013479113578796e-02 2.968988120555877686e-01 -2.021194994449615479e-01 7.577114738523960114e-03 -6.051400676369667053e-02 -1.637234091758728027e-01 2.257774025201797485e-01 -7.867026329040527344e-02 2.389680743217468262e-01 7.982508838176727295e-02 -4.443242028355598450e-02 3.131962940096855164e-02 3.382872939109802246e-01 1.661965101957321167e-01 1.370927691459655762e-01 1.071856841444969177e-01 -4.501764103770256042e-02 3.867552056908607483e-02 2.912363223731517792e-02 2.207538485527038574e-01 -1.314022988080978394e-01 -9.314391016960144043e-02 2.087481915950775146e-01 1.430276036262512207e-01 3.298106193542480469e-01 1.307610720396041870e-01 1.383218318223953247e-01 -2.897253818809986115e-02 1.448114514350891113e-01 2.475322484970092773e-01 -3.723432123661041260e-01 8.815816044807434082e-02 2.159581184387207031e-01 1.545701473951339722e-01 6.162320449948310852e-02 -1.020544469356536865e-01 1.380629539489746094e-01 -1.351964771747589111e-01 4.396404027938842773e-01 7.200855761766433716e-02 1.909177601337432861e-01 3.075907938182353973e-02 -1.518473029136657715e-02 1.969034969806671143e-01 -1.263654441572725773e-03 -1.219659447669982910e-01 1.283644437789916992e-01 -1.788810342550277710e-01 2.664961814880371094e-01 1.053484752774238586e-01 9.188443422317504883e-02 6.807065010070800781e-02 -6.824601441621780396e-02 1.829574108123779297e-01 -1.165035441517829895e-01 1.723382771015167236e-01 1.950865089893341064e-01 1.899402439594268799e-01 -1.872123479843139648e-01 4.255868867039680481e-02 -1.311200857162475586e-01 -4.962880164384841919e-03 -2.251132577657699585e-01
-0.000000000000000000e+00 -0.000000000000000000e+00 -0.000000000000000000e+00 -0.000000000000000000e+00 0.000000000000000000e+00 -0.000000000000000000e+00 0.000000000000000000e+00 -0.000000000000000000e+00 -0.000000000000000000e+00 0.000000000000000000e+00 -0.000000000000000000e+00 0.000000000000000000e+00 -0.000000000000000000e+00 0.000000000000000000e+00 -0.000000000000000000e+00 -0.000000000000000000e+00 -0.000000000000000000e+00 0.000000000000000000e+00 -0.000000000000000000e+00 -0.000000000000000000e+00 0.000000000000000000e+00 -0.000000000000000000e+00 0.000000000000000000e+00 -0.000000000000000000e+00 -0.000000000000000000e+00 0.000000000000000000e+00 -0.000000000000000000e+00 0.000000000000000000e+00 -0.000000000000000000e+00 -0.000000000000000000e+00 0.000000000000000000e+00 0.000000000000000000e+00 0.000000000000000000e+00 0.000000000000000000e+00 0.000000000000000000e+00 -0.000000000000000000e+00 -0.000000000000000000e+00 0.000000000000000000e+00 -0.000000000000000000e+00 0.000000000000000000e+00 -0.000000000000000000e+00 -0.000000000000000000e+00 0.000000000000000000e+00 0.000000000000000000e+00 0.000000000000000000e+00 -0.000000000000000000e+00 0.000000000000000000e+00 -0.000000000000000000e+00 -0.000000000000000000e+00 -0.000000000000000000e+00 0.000000000000000000e+00 0.000000000000000000e+00 0.000000000000000000e+00 -0.000000000000000000e+00 0.000000000000000000e+00 0.000000000000000000e+00 -0.000000000000000000e+00 -0.000000000000000000e+00 0.000000000000000000e+00 0.000000000000000000e+00 -0.000000000000000000e+00 -0.000000000000000000e+00 -0.000000000000000000e+00 0.000000000000000000e+00 1.238857209682464600e-01 -1.549380868673324585e-01 -8.428870141506195068e-02 -3.463808298110961914e-01 -1.490392982959747314e-01 5.310835242271423340e-01 1.653351485729217529e-01 9.980263561010360718e-02 3.747560381889343262e-01 8.188606798648834229e-02 -2.324659824371337891e-01 1.016163453459739685e-01 -1.347257792949676514e-01 -6.521347165107727051e-02 -2.775941789150238037e-02 3.594506978988647461e-01 3.851030766963958740e-01 3.264626264572143555e-01 -2.527334354817867279e-02 -4.009662941098213196e-02 5.213366448879241943e-02 3.044310212135314941e-02 1.587977856397628784e-01 1.101646386086940765e-02 3.832367435097694397e-02 -6.933383643627166748e-02 -2.834329009056091309e-01 7.928430289030075073e-02 -9.973116964101791382e-02 2.630757391452789307e-01 -8.623541891574859619e-02 3.550633490085601807e-01 2.102143615484237671e-01 1.292023621499538422e-02 1.553996205329895020e-01 2.028066217899322510e-01 1.141553148627281189e-01 1.081224381923675537e-01 -1.755621731281280518e-01 -1.434889435768127441e-02 2.390772104263305664e-01 1.284746974706649780e-01 2.222764939069747925e-01 -2.526562511920928955e-01 2.991625294089317322e-02 2.761243581771850586e-01 4.030419886112213135e-01 9.986183792352676392e-02 -2.626696042716503143e-02 8.424662984907627106e-03 -1.503616124391555786e-01 5.218982324004173279e-02 1.012552529573440552e-01 -3.996820747852325439e-01 3.225264549255371094e-01 2.342126220464706421e-01 4.500520229339599609e-02 8.334647864103317261e-02 6.130279973149299622e-02 1.209784578531980515e-02 -1.323353350162506104e-01 2.541181743144989014e-01 8.838412165641784668e-02 6.045755371451377869e-02
0.000000000000000000e+00 0.000000000000000000e+00 0.000000000000000000e+00 0.000000000000000000e+00 -0.000000000000000000e+00 -0.000000000000000000e+00 -0.000000000000000000e+00 0.000000000000000000e+00 0.000000000000000000e+00 -0.000000000000000000e+00 0.000000000000000000e+00 -0.000000000000000000e+00 0.000000000000000000e+00 -0.000000000000000000e+00 -0.000000000000000000e+00 0.000000000000000000e+00 -0.000000000000000000e+00 -0.000000000000000000e+00 -0.000000000000000000e+00 0.000000000000000000e+00 0.000000000000000000e+00 0.000000000000000000e+00 -0.000000000000000000e+00 0.000000000000000000e+00 -0.000000000000000000e+00 0.000000000000000000e+00 -0.000000000000000000e+00 -0.000000000000000000e+00 -0.000000000000000000e+00 0.000000000000000000e+00 0.000000000000000000e+00 -0.000000000000000000e+00 0.000000000000000000e+00 -0.000000000000000000e+00 0.000000000000000000e+00 0.000000000000000000e+00 0.000000000000000000e+00 -0.000000000000000000e+00 0.000000000000000000e+00 -0.000000000000000000e+00 -0.000000000000000000e+00 0.000000000000000000e+00 0.000000000000000000e+00 -0.000000000000000000e+00 -0.000000000000000000e+00 -0.000000000000000000e+00 -0.000000000000000000e+00 0.000000000000000000e+00 0.000000000000000000e+00 -0.000000000000000000e+00 -0.000000000000000000e+00 0.000000000000000000e+00 -0.000000000000000000e+00 0.000000000000000000e+00 0.000000000000000000e+00 0.000000000000000000e+00 -0.000000000000000000e+00 0.000000000000000000e+00 -0.000000000000000000e+00 0.000000000000000000e+00 -0.000000000000000000e+00 -0.000000000000000000e+00 0.000000000000000000e+00 -0.000000000000000000e+00 8.047578483819961548e-02 -2.409006953239440918e-01 9.111760556697845459e-02 9.953489154577255249e-02 -1.976141631603240967e-01 -1.079917326569557190e-01 -9.572540968656539917e-02 -1.523750871419906616e-01 9.811793267726898193e-02 6.854911148548126221e-02 3.867759555578231812e-02 7.690510153770446777e-02 1.472795456647872925e-01 -1.693107336759567261e-01 -7.322191447019577026e-02 1.027324236929416656e-02 2.698082104325294495e-02 -1.844593882560729980e-02 -2.392885088920593262e-02 -4.716791212558746338e-02 -7.149778306484222412e-02 8.777008950710296631e-02 -3.185850977897644043e-01 1.966476142406463623e-01 1.137286275625228882e-01 1.687849313020706177e-01 -9.373685717582702637e-02 -2.127476334571838379e-01 5.913401767611503601e-02 -1.168163791298866272e-01 -2.184651643037796021e-01 -1.797302216291427612e-01 1.506305187940597534e-01 1.689644455909729004e-01 7.961213588714599609e-02 -3.541337251663208008e-01 9.240275621414184570e-02 -1.315416842699050903e-01 -1.021018847823143005e-01 2.598525956273078918e-02 4.034623503684997559e-02 5.139325559139251709e-02 -2.277952283620834351e-01 -3.011382222175598145e-01 -5.954482406377792358e-02 -4.200820997357368469e-02 -1.915167376864701509e-04 1.263687908649444580e-01 1.116632893681526184e-01 -1.410976750776171684e-03 -1.385891735553741455e-01 -2.402522712945938110e-01 -5.325770005583763123e-02 3.903362434357404709e-03 -3.486968576908111572e-02 1.889817565679550171e-01 8.322021365165710449e-02 -8.436772227287292480e-02 -9.027818217873573303e-03 -3.145857527852058411e-02 -3.558480739593505859e-01 -7.989929616451263428e-02 4.561842232942581177e-02 2.643303275108337402e-01
-0.000000000000000000e+00 0.000000000000000000e+00 -0.000000000000000000e+00 0.000000000000000000e+00 0.000000000000000000e+00 -0.000000000000000000e+00 0.000000000000000000e+00 0.000000000000000000e+00 -0.000000000000000000e+00 -0.000000000000000000e+00 -0.000000000000000000e+00 -0.000000000000000000e+00 0.000000000000000000e+00 0.000000000000000000e+00 -0.000000000000000000e+00 -0.000000000000000000e+00 0.000000000000000000e+00 -0.000000000000000000e+00 0.000000000000000000e+00 0.000000000000000000e+00 -0.000000000000000000e+00 0.000000000000000000e+00 -0.000000000000000000e+00 0.000000000000000000e+00 -0.000000000000000000e+00 0.000000000000000000e+00 -0.000000000000000000e+00 -0.000000000000000000e+00 0.000000000000000000e+00 -0.000000000000000000e+00 -0.000000000000000000e+00 0.000000000000000000e+00 -0.000000000000000000e+00 -0.000000000000000000e+00 0.000000000000000000e+00 0.000000000000000000e+00 -0.000000000000000000e+00 0.000000000000000000e+00 -0.000000000000000000e+00 0.000000000000000000e+00 0.000000000000000000e+00 0.000000000000000000e+00 0.000000000000000000e+00 -0.000000000000000000e+00 -0.000000000000000000e+00 0.000000000000000000e+00 -0.000000000000000000e+00 0.000000000000000000e+00 0.000000000000000000e+00 -0.000000000000000000e+00 -0.000000000000000000e+00 -0.000000000000000000e+00 0.000000000000000000e+00 0.000000000000000000e+00 -0.000000000000000000e+00 0.000000000000000000e+00 -0.000000000000000000e+00 -0.000000000000000000e+00 -0.000000000000000000e+00 0.000000000000000000e+00 -0.000000000000000000e+00 -0.000000000000000000e+00 -0.000000000000000000e+00 -0.000000000000000000e+00 -1.776631921529769897e-02 -1.322382092475891113e-01 2.098185569047927856e-01 -1.716974526643753052e-01 -1.149961426854133606e-01 1.464794874191284180e-01 3.249944448471069336e-01 3.463718891143798828e-01 -9.117358177900314331e-02 1.633731424808502197e-01 8.619357645511627197e-02 1.218775287270545959e-01 8.325384557247161865e-02 2.831981703639030457e-02 -1.069042384624481201e-01 3.708335105329751968e-03 1.981879025697708130e-02 2.119278460741043091e-01 3.744816482067108154e-01 9.350567311048507690e-02 7.476989179849624634e-02 -1.163494773209095001e-02 -9.649535641074180603e-03 1.405037045478820801e-01 1.518064737319946289e-01 4.227523505687713623e-01 -3.264921307563781738e-01 2.878409922122955322e-01 3.597145676612854004e-01 3.086903989315032959e-01 2.563164532184600830e-01 2.170568853616714478e-01 4.429979249835014343e-02 1.516907215118408203e-01 3.049155175685882568e-01 -1.671989709138870239e-01 6.658698897808790207e-03 -2.523316144943237305e-01 1.749355196952819824e-01 3.758079186081886292e-02 -9.412627667188644409e-03 -2.416755445301532745e-02 1.601595282554626465e-01 -2.507624924182891846e-01 -4.330098256468772888e-02 2.827126681804656982e-01 -1.899325102567672729e-01 1.071245372295379639e-01 -3.029648065567016602e-01 -1.628247462213039398e-02 -1.648501902818679810e-01 1.364745199680328369e-01 -2.025037258863449097e-01 -3.206176683306694031e-02 1.044631451368331909e-01 -2.762355096638202667e-02 -5.912582203745841980e-02 9.092561900615692139e-02 2.721422016620635986e-01 2.814254462718963623e-01 4.585919156670570374e-02 -6.418930739164352417e-02 -2.585763297975063324e-02 -1.161074712872505188e-01
0.000000000000000000e+00 0.000000000000000000e+00 -0.000000000000000000e+00 0.000000000000000000e+00 0.000000000000000000e+00 0.000000000000000000e+00 -0.000000000000000000e+00 0.000000000000000000e+00 0.000000000000000000e+00 0.000000000000000000e+00 0.000000000000000000e+00 -0.000000000000000000e+00 0.000000000000000000e+00 0.000000000000000000e+00 -0.000000000000000000e+00 -0.000000000000000000e+00 0.000000000000000000e+00 -0.000000000000000000e+00 0.000000000000000000e+00 -0.000000000000000000e+00 -0.000000000000000000e+00 -0.000000000000000000e+00 -0.000000000000000000e+00 -0.000000000000000000e+00 -0.000000000000000000e+00 0.000000000000000000e+00 -0.000000000000000000e+00 -0.000000000000000000e+00 0.000000000000000000e+00 0.000000000000000000e+00 0.000000000000000000e+00 0.000000000000000000e+00 -0.000000000000000000e+00 -0.000000000000000000e+00 0.000000000000000000e+00 0.000000000000000000e+00 0.000000000000000000e+00 -0.000000000000000000e+00 0.000000000000000000e+00 -0.000000000000000000e+00 -0.000000000000000000e+00 -0.000000000000000000e+00 0.000000000000000000e+00 -0.000000000000000000e+00 -0.000000000000000000e+00 -0.000000000000000000e+00 -0.000000000000000000e+00 -0.000000000000000000e+00 0.000000000000000000e+00 0.000000000000000000e+00 -0.000000000000000000e+00 0.000000000000000000e+00 0.000000000000000000e+00 -0.000000000000000000e+00 -0.000000000000000000e+00 -0.000000000000000000e+00 0.000000000000000000e+00 0.000000000000000000e+00 0.000000000000000000e+00 0.000000000000000000e+00 0.000000000000000000e+00 0.000000000000000000e+00 0.000000000000000000e+00 -0.000000000000000000e+00 9.821724891662597656e-02 4.356045275926589966e-02 -1.457346528768539429e-01 2.880780026316642761e-02 2.058699429035186768e-01 4.330115020275115967e-01 3.020174801349639893e-01 1.009624898433685303e-01 3.287620246410369873e-01 -1.077609062194824219e-01 3.524265885353088379e-01 3.280295431613922119e-01 -2.697473764419555664e-01 4.200904071331024170e-02 -2.557670474052429199e-01 2.629589103162288666e-02 1.945374347269535065e-02 1.090632677078247070e-01 -1.669180989265441895e-01 4.491232633590698242e-01 1.283761709928512573e-01 -5.793210491538047791e-02 3.736763820052146912e-02 1.759512424468994141e-01 1.482955515384674072e-01 -1.259632110595703125e-01 1.808804459869861603e-02 1.845202744007110596e-01 1.527862101793289185e-01 2.810555696487426758e-01 1.555122733116149902e-01 1.536267995834350586e-02 -3.563334420323371887e-02 2.416673600673675537e-01 3.851312771439552307e-02 -1.458492279052734375e-01 7.993793487548828125e-02 3.419408500194549561e-01 2.151472121477127075e-01 5.519273504614830017e-02 -1.049899458885192871e-01 2.921989001333713531e-02 3.800788894295692444e-02 2.825459837913513184e-01 8.087560534477233887e-02 3.698847591876983643e-01 -1.438772380352020264e-01 6.611324846744537354e-02 -9.126516431570053101e-02 3.621929883956909180e-01 -1.752392016351222992e-02 6.040479615330696106e-02 2.405120283365249634e-01 -2.337425760924816132e-02 4.383247494697570801e-01 3.691436946392059326e-01 -6.743872910737991333e-02 6.808063387870788574e-02 3.006686568260192871e-01 -1.298553645610809326e-01 1.478822678327560425e-01 2.256052941083908081e-01 3.891025781631469727e-01 2.165575511753559113e-02
0.000000000000000000e+00 -0.000000000000000000e+00 -0.000000000000000000e+00 0.000000000000000000e+00 -0.000000000000000000e+00 0.000000000000000000e+00 0.000000000000000000e+00 0.000000000000000000e+00 -0.000000000000000000e+00 0.000000000000000000e+00 0.000000000000000000e+00 -0.000000000000000000e+00 0.000000000000000000e+00 -0.000000000000000000e+00 -0.000000000000000000e+00 0.000000000000000000e+00 0.000000000000000000e+00 -0.000000000000000000e+00 0.000000000000000000e+00 -0.000000000000000000e+00 -0.000000000000000000e+00 -0.000000000000000000e+00 0.000000000000000000e+00 -0.000000000000000000e+00 0.000000000000000000e+00 -0.000000000000000000e+00 -0.000000000000000000e+00 0.000000000000000000e+00 -0.000000000000000000e+00 -0.000000000000000000e+00 -0.000000000000000000e+00 0.000000000000000000e+00 0.000000000000000000e+00 0.000000000000000000e+00 -0.000000000000000000e+00 -0.000000000000000000e+00 -0.000000000000000000e+00 0.000000000000000000e+00 -0.000000000000000000e+00 -0.000000000000000000e+00 -0.000000000000000000e+00 -0.000000000000000000e+00 0.000000000000000000e+00 -0.000000000000000000e+00 -0.000000000000000000e+00 0.000000000000000000e+00 0.000000000000000000e+00 -0.000000000000000000e+00 0.000000000000000000e+00 -0.000000000000000000e+00 0.000000000000000000e+00 0.000000000000000000e+00 -0.000000000000000000e+00 0.000000000000000000e+00 0.000000000000000000e+00 0.000000000000000000e+00 -0.000000000000000000e+00 0.000000000000000000e+00 -0.000000000000000000e+00 -0.000000000000000000e+00 -0.000000000000000000e+00 -0.000000000000000000e+00 0.000000000000000000e+00 -0.000000000000000000e+00 1.832404881715774536e-01 1.425894349813461304e-01 2.366805076599121094e-01 -2.238526474684476852e-03 -6.869393587112426758e-02 -1.660048775374889374e-02 -1.478320509195327759e-01 1.165878698229789734e-01 -1.780410259962081909e-01 4.506085999310016632e-03 -5.458998307585716248e-02 -1.959632709622383118e-02 2.995056211948394775e-01 -4.376280903816223145e-01 7.840637117624282837e-02 5.176490172743797302e-02 1.503996551036834717e-01 1.280204057693481445e-01 1.438726931810379028e-01 1.651922464370727539e-01 1.203863620758056641e-01 1.243934631347656250e-01 2.093491554260253906e-01 3.538097068667411804e-02 -1.693871021270751953e-01 1.846311092376708984e-01 -1.079040691256523132e-01 5.970962718129158020e-02 2.925286591053009033e-01 9.194382280111312866e-02 1.106926277279853821e-01 5.512648075819015503e-02 1.983197033405303955e-01 1.288366615772247314e-01 3.496135771274566650e-01 2.417459785938262939e-01 1.678353399038314819e-01 3.097908198833465576e-01 -1.434531956911087036e-01 4.791181161999702454e-02 2.204309999942779541e-01 -2.989897802763152868e-05 -1.437635719776153564e-01 2.990310490131378174e-01 3.551228642463684082e-01 2.244547009468078613e-01 9.920927882194519043e-02 1.031178608536720276e-01 -6.687868386507034302e-02 4.314672350883483887e-01 2.136731594800949097e-01 2.898974418640136719e-01 -5.860525742173194885e-02 3.918149471282958984e-01 -3.674727976322174072e-01 -1.046339720487594604e-01 1.389482170343399048e-01 2.520622611045837402e-01 1.553905755281448364e-01 1.454554684460163116e-02 -1.868663579225540161e-01 1.311294734477996826e-01 -1.706549674272537231e-01 1.568043529987335205e-01
-0.000000000000000000e+00 0.000000000000000000e+00 -0.000000000000000000e+00 -0.000000000000000000e+00 -0.000000000000000000e+00 0.000000000000000000e+00 0.000000000000000000e+00 -0.000000000000000000e+00 0.000000000000000000e+00 -0.000000000000000000e+00 0.000000000000000000e+00 -0.000000000000000000e+00 0.000000000000000000e+00 0.000000000000000000e+00 -0.000000000000000000e+00 -0.000000000000000000e+00 0.000000000000000000e+00 0.000000000000000000e+00 -0.000000000000000000e+00 0.000000000000000000e+00 0.000000000000000000e+00 -0.000000000000000000e+00 0.000000000000000000e+00 -0.000000000000000000e+00 0.000000000000000000e+00 -0.000000000000000000e+00 -0.000000000000000000e+00 0.000000000000000000e+00 0.000000000000000000e+00 -0.000000000000000000e+00 -0.000000000000000000e+00 -0.000000000000000000e+00 0.000000000000000000e+00 0.000000000000000000e+00 -0.000000000000000000e+00 0.000000000000000000e+00 -0.000000000000000000e+00 0.000000000000000000e+00 -0.000000000000000000e+00 -0.000000000000000000e+00 0.000000000000000000e+00 0.000000000000000000e+00 -0.000000000000000000e+00 0.000000000000000000e+00 -0.000000000000000000e+00 -0.000000000000000000e+00 -0.000000000000000000e+00 0.000000000000000000e+00 0.000000000000000000e+00 0.000000000000000000e+00 0.000000000000000000e+00 -0.000000000000000000e+00 0.000000000000000000e+00 -0.000000000000000000e+00 0.000000000000000000e+00 -0.000000000000000000e+00 0.000000000000000000e+00 0.000000000000000000e+00 0.000000000000000000e+00 -0.000000000000000000e+00 0.000000000000000000e+00 -0.000000000000000000e+00 -0.000000000000000000e+00 -0.000000000000000000e+00 2.330699712038040161e-01 2.560673654079437256e-01 9.317699074745178223e-02 1.806413196027278900e-02 3.295280039310455322e-01 -8.815336227416992188e-02 1.626274436712265015e-01 2.412633746862411499e-01 -1.429733484983444214e-01 -6.155055388808250427e-02 9.370759874582290649e-02 -9.212497621774673462e-02 6.218741834163665771e-02 -7.837283611297607422e-02 -9.538395702838897705e-02 -4.889940842986106873e-02 2.843920141458511353e-02 2.603140771389007568e-01 1.171786487102508545e-01 1.049890592694282532e-01 1.830227673053741455e-03 -1.697277836501598358e-02 4.023464620113372803e-01 9.373867511749267578e-02 5.744908452033996582e-01 3.943901956081390381e-01 -4.976959899067878723e-02 8.773425221443176270e-02 1.102004125714302063e-01 2.376241832971572876e-01 2.765800356864929199e-01 -2.046115994453430176e-01 3.387285172939300537e-01 3.055003881454467773e-01 7.177129387855529785e-02 2.035785699263215065e-03 -9.110499918460845947e-02 5.430056527256965637e-02 6.865265965461730957e-02 1.956861764192581177e-01 2.967375516891479492e-01 -4.042125120759010315e-02 -1.490392256528139114e-02 7.708464562892913818e-02 1.429854184389114380e-01 1.663547903299331665e-01 -3.597662597894668579e-02 1.377093493938446045e-01 3.583259135484695435e-02 9.646014869213104248e-02 1.604043543338775635e-01 2.672626674175262451e-01 2.637112736701965332e-01 3.846950456500053406e-02 1.497798319905996323e-02 3.082636594772338867e-01 1.019134446978569031e-01 2.104513943195343018e-01 2.472379431128501892e-02 -1.675628274679183960e-01 6.805198639631271362e-02 8.252803236246109009e-02 9.143751859664916992e-02 1.550025790929794312e-01
0.000000000000000000e+00 0.000000000000000000e+00 0.000000000000000000e+00 0.000000000000000000e+00 -0.000000000000000000e+00 -0.000000000000000000e+00 0.000000000000000000e+00 0.000000000000000000e+00 -0.000000000000000000e+00 0.000000000000000000e+00 0.000000000000000000e+00 -0.000000000000000000e+00 -0.000000000000000000e+00 -0.000000000000000000e+00 -0.000000000000000000e+00 0.000000000000000000e+00 -0.000000000000000000e+00 -0.000000000000000000e+00 -0.000000000000000000e+00 -0.000000000000000000e+00 0.000000000000000000e+00 0.000000000000000000e+00 -0.000000000000000000e+00 -0.000000000000000000e+00 -0.000000000000000000e+00 0.000000000000000000e+00 0.000000000000000000e+00 -0.000000000000000000e+00 0.000000000000000000e+00 -0.000000000000000000e+00 0.000000000000000000e+00 0.000000000000000000e+00 -0.000000000000000000e+00 0.000000000000000000e+00 -0.000000000000000000e+00 0.000000000000000000e+00 -0.000000000000000000e+00 -0.000000000000000000e+00 0.000000000000000000e+00 -0.000000000000000000e+00 -0.000000000000000000e+00 -0.000000000000000000e+00 0.000000000000000000e+00 0.000000000000000000e+00 -0.000000000000000000e+00 -0.000000000000000000e+00 -0.000000000000000000e+00 -0.000000000000000000e+00 0.000000000000000000e+00 0.000000000000000000e+00 0.000000000000000000e+00 0.000000000000000000e+00 -0.000000000000000000e+00 0.000000000000000000e+00 0.000000000000000000e+00 0.000000000000000000e+00 0.000000000000000000e+00 -0.000000000000000000e+00 0.000000000000000000e+00 0.000000000000000000e+00 -0.000000000000000000e+00 0.000000000000000000e+00 0.000000000000000000e+00 0.000000000000000000e+00 1.855260133743286133e-01 8.097030967473983765e-02 -1.418695896863937378e-01 1.363190710544586182e-01 -6.131225079298019409e-02 -2.242970839142799377e-02 7.728819549083709717e-02 -9.463682025671005249e-02 -3.055717609822750092e-02 1.713390345685184002e-03 -1.043342202901840210e-01 -6.883137393742799759e-04 1.559972018003463745e-01 -3.232464194297790527e-01 9.902324527502059937e-02 -3.005835413932800293e-01 1.423462778329849243e-01 -4.496144130825996399e-02 -7.208111137151718140e-02 1.614471375942230225e-01 2.325989454984664917e-01 -1.458358764648437500e-01 -8.964879810810089111e-02 -6.355530023574829102e-02 6.115854904055595398e-02 -7.867406308650970459e-02 2.536253014113754034e-04 -1.653929501771926880e-01 1.088265180587768555e-01 -4.248510114848613739e-03 -1.848506741225719452e-02 -2.586795389652252197e-01 -5.324944853782653809e-01 1.237478223629295826e-03 -2.128577232360839844e-01 1.683958768844604492e-01 9.619600325822830200e-02 -3.456245362758636475e-01 -3.643356263637542725e-01 2.747317217290401459e-02 8.284590393304824829e-02 -5.488131195306777954e-02 -1.075025182217359543e-02 5.659560114145278931e-02 -2.013066783547401428e-03 -3.252252340316772461e-01 -1.663964428007602692e-02 4.782493039965629578e-02 -1.671914011240005493e-01 -3.292400389909744263e-02 3.003307878971099854e-01 1.673039980232715607e-02 -2.484813183546066284e-01 -3.422499597072601318e-01 -4.227529745548963547e-03 1.043275520205497742e-01 -3.997064232826232910e-01 -8.982412517070770264e-02 -1.865625381469726562e-02 -5.894641578197479248e-02 -1.461683511734008789e-01 1.429620981216430664e-01 3.490144759416580200e-02 -1.042042747139930725e-01
-0.000000000000000000e+00 -0.000000000000000000e+00 0.000000000000000000e+00 0.000000000000000000e+00 -0.000000000000000000e+00 -0.000000000000000000e+00 -0.000000000000000000e+00 -0.000000000000000000e+00 -0.000000000000000000e+00 0.000000000000000000e+00 -0.000000000000000000e+00 0.000000000000000000e+00 -0.000000000000000000e+00 0.000000000000000000e+00 -0.000000000000000000e+00 0.000000000000000000e+00 0.000000000000000000e+00 0.000000000000000000e+00 -0.000000000000000000e+00 0.000000000000000000e+00 0.000000000000000000e+00 -0.000000000000000000e+00 0.000000000000000000e+00 -0.000000000000000000e+00 -0.000000000000000000e+00 -0.000000000000000000e+00 -0.000000000000000000e+00 0.000000000000000000e+00 -0.000000000000000000e+00 -0.000000000000000000e+00 0.000000000000000000e+00 0.000000000000000000e+00 0.000000000000000000e+00 0.000000000000000000e+00 -0.000000000000000000e+00 -0.000000000000000000e+00 0.000000000000000000e+00 0.000000000000000000e+00 0.000000000000000000e+00 -0.000000000000000000e+00 0.000000000000000000e+00 0.000000000000000000e+00 0.000000000000000000e+00 0.000000000000000000e+00 0.000000000000000000e+00 -0.000000000000000000e+00 -0.000000000000000000e+00 0.000000000000000000e+00 -0.000000000000000000e+00 -0.000000000000000000e+00 0.000000000000000000e+00 0.000000000000000000e+00 -0.000000000000000000e+00 0.000000000000000000e+00 0.000000000000000000e+00 0.000000000000000000e+00 -0.000000000000000000e+00 0.000000000000000000e+00 -0.000000000000000000e+00 0.000000000000000000e+00 -0.000000000000000000e+00 0.000000000000000000e+00 -0.000000000000000000e+00 0.000000000000000000e+00 -1.996914893388748169e-01 1.501474063843488693e-02 4.849018901586532593e-02 2.403257340192794800e-01 2.899921238422393799e-01 8.364676684141159058e-02 8.077359199523925781e-02 1.668262481689453125e-01 6.455049663782119751e-02 -2.054870128631591797e-02 9.620594978332519531e-02 -8.902582526206970215e-02 -3.693344891071319580e-01 2.618211209774017334e-01 2.034348249435424805e-01 9.290958195924758911e-02 -2.198084443807601929e-01 1.541723906993865967e-01 2.703945934772491455e-01 3.651794046163558960e-02 7.263783365488052368e-02 -3.374021947383880615e-01 6.326279044151306152e-02 -4.177812114357948303e-02 2.293005585670471191e-02 3.775587081909179688e-01 -2.315074652433395386e-01 1.615088582038879395e-01 1.297535002231597900e-01 3.309101983904838562e-02 4.615552723407745361e-01 1.195698976516723633e-01 8.459011465311050415e-02 -9.595555812120437622e-02 2.697288990020751953e-01 3.580367565155029297e-01 1.387790441513061523e-01 -2.871846258640289307e-01 1.241303682327270508e-01 1.726532280445098877e-01 -1.648717969655990601e-01 -1.817378401756286621e-01 4.733991250395774841e-02 -1.302738208323717117e-02 -2.126754969358444214e-01 -3.157032653689384460e-02 -1.065772548317909241e-01 1.844151914119720459e-01 -3.543990105390548706e-02 1.723182201385498047e-01 1.597110480070114136e-01 1.467218101024627686e-01 -7.937471382319927216e-03 3.112134039402008057e-01 4.516150802373886108e-02 2.731994390487670898e-01 -1.715771406888961792e-01 -1.769414171576499939e-02 -2.222482413053512573e-01 4.150545597076416016e-02 1.702794283628463745e-01 1.266550123691558838e-01 2.360413968563079834e-02 3.251427114009857178e-01
-0.000000000000000000e+00 -0.000000000000000000e+00 -0.000000000000000000e+00 0.000000000000000000e+00 0.000000000000000000e+00 0.000000000000000000e+00 -0.000000000000000000e+00 -0.000000000000000000e+00 0.000000000000000000e+00 0.000000000000000000e+00 -0.000000000000000000e+00 0.000000000000000000e+00 0.000000000000000000e+00 0.000000000000000000e+00 -0.000000000000000000e+00 -0.000000000000000000e+00 -0.000000000000000000e+00 0.000000000000000000e+00 -0.000000000000000000e+00 0.000000000000000000e+00 0.000000000000000000e+00 -0.000000000000000000e+00 0.000000000000000000e+00 -0.000000000000000000e+00 -0.000000000000000000e+00 0.000000000000000000e+00 -0.000000000000000000e+00 -0.000000000000000000e+00 -0.000000000000000000e+00 -0.000000000000000000e+00 0.000000000000000000e+00 -0.000000000000000000e+00 0.000000000000000000e+00 0.000000000000000000e+00 -0.000000000000000000e+00 -0.000000000000000000e+00 0.000000000000000000e+00 0.000000000000000000e+00 0.000000000000000000e+00 0.000000000000000000e+00 -0.000000000000000000e+00 0.000000000000000000e+00 -0.000000000000000000e+00 0.000000000000000000e+00 -0.000000000000000000e+00 -0.000000000000000000e+00 -0.000000000000000000e+00 0.000000000000000000e+00 0.000000000000000000e+00 -0.000000000000000000e+00 0.000000000000000000e+00 -0.000000000000000000e+00 0.000000000000000000e+00 -0.000000000000000000e+00 0.000000000000000000e+00 0.000000000000000000e+00 -0.000000000000000000e+00 -0.000000000000000000e+00 -0.000000000000000000e+00 -0.000000000000000000e+00 0.000000000000000000e+00 0.000000000000000000e+00 -0.000000000000000000e+00 -0.000000000000000000e+00 -1.096054613590240479e-01 1.455460339784622192e-01 -2.522782087326049805e-01 3.148390352725982666e-02 3.817703947424888611e-02 -3.800066933035850525e-02 -2.258994430303573608e-01 -4.896004218608140945e-03 7.675844430923461914e-02 -1.171595901250839233e-01 -3.211650550365447998e-01 2.829148173332214355e-01 -6.553255766630172729e-02 -2.410675287246704102e-01 2.401247248053550720e-02 2.825394086539745331e-02 1.554982066154479980e-01 1.169925928115844727e-01 -2.421448193490505219e-02 -4.937771856784820557e-01 2.195000052452087402e-01 1.266183555126190186e-01 1.500955969095230103e-01 -2.375511080026626587e-01 3.049539402127265930e-02 1.261775642633438110e-01 2.296114414930343628e-01 7.588503509759902954e-02 2.820777334272861481e-02 1.558240503072738647e-02 5.721546337008476257e-02 6.920620054006576538e-02 2.747621573507785797e-02 -2.096437364816665649e-01 -4.572430253028869629e-02 1.780253946781158447e-01 -7.077210396528244019e-02 -6.045196652412414551e-01 -2.003945857286453247e-01 -1.023711115121841431e-01 -3.080837428569793701e-01 6.837078928947448730e-02 -1.225736439228057861e-01 -2.316384017467498779e-01 -8.218532800674438477e-02 2.760576605796813965e-01 -1.890309900045394897e-01 -5.829854309558868408e-02 3.252605348825454712e-02 -1.154978051781654358e-01 -3.046717047691345215e-01 1.401960253715515137e-01 2.945874929428100586e-01 3.663925230503082275e-01 8.393486589193344116e-02 2.320591360330581665e-01 -3.559391573071479797e-02 -6.701696664094924927e-03 -1.421831846237182617e-01 -1.994816362857818604e-01 -8.797053247690200806e-02 1.672842912375926971e-02 -1.532655060291290283e-01 -2.476639673113822937e-02
0.000000000000000000e+00 0.000000000000000000e+00 -0.000000000000000000e+00 -0.000000000000000000e+00 -0.000000000000000000e+00 -0.000000000000000000e+00 0.000000000000000000e+00 0.000000000000000000e+00 0.000000000000000000e+00 0.000000000000000000e+00 0.000000000000000000e+00 -0.000000000000000000e+00 0.000000000000000000e+00 -0.000000000000000000e+00 -0.000000000000000000e+00 0.000000000000000000e+00 0.000000000000000000e+00 -0.000000000000000000e+00 -0.000000000000000000e+00 0.000000000000000000e+00 -0.000000000000000000e+00 -0.000000000000000000e+00 -0.000000000000000000e+00 -0.000000000000000000e+00 -0.000000000000000000e+00 0.000000000000000000e+00 0.000000000000000000e+00 0.000000000000000000e+00 -0.000000000000000000e+00 -0.000000000000000000e+00 0.000000000000000000e+00 0.000000000000000000e+00 0.000000000000000000e+00 -0.000000000000000000e+00 -0.000000000000000000e+00 0.000000000000000000e+00 -0.000000000000000000e+00 -0.000000000000000000e+00 0.000000000000000000e+00 0.000000000000000000e+00 -0.000000000000000000e+00 0.000000000000000000e+00 0.000000000000000000e+00 -0.000000000000000000e+00 0.000000000000000000e+00 -0.000000000000000000e+00 -0.000000000000000000e+00 -0.000000000000000000e+00 0.000000000000000000e+00 -0.000000000000000000e+00 -0.000000000000000000e+00 -0.000000000000000000e+00 0.000000000000000000e+00 -0.000000000000000000e+00 0.000000000000000000e+00 0.000000000000000000e+00 -0.000000000000000000e+00 -0.000000000000000000e+00 -0.000000000000000000e+00 0.000000000000000000e+00 0.000000000000000000e+00 -0.000000000000000000e+00 0.000000000000000000e+00 -0.000000000000000000e+00 3.400230407714843750e-01 6.855199486017227173e-02 3.269085660576820374e-02 -5.503160506486892700e-02 9.856674820184707642e-02 2.792890667915344238e-01 3.914970457553863525e-01 1.582005769014358521e-01 -2.152679562568664551e-01 -1.158336028456687927e-01 -5.122161004692316055e-03 1.903134025633335114e-02 -2.161093354225158691e-01 -4.221423715353012085e-02 6.872813403606414795e-02 1.086742207407951355e-01 7.168051600456237793e-02 -6.638138741254806519e-02 9.360703080892562866e-02 -1.366482973098754883e-01 3.510135412216186523e-02 -3.187381923198699951e-01 3.433836400508880615e-01 3.201107680797576904e-01 1.091439649462699890e-01 1.547807902097702026e-01 -3.305275365710258484e-02 -1.027205586433410645e-01 1.325199939310550690e-02 -3.138944273814558983e-03 8.453741669654846191e-02 5.771252140402793884e-02 -5.253811925649642944e-02 -1.719435304403305054e-01 1.403940171003341675e-01 7.306244224309921265e-02 -1.768946498632431030e-01 3.461219668388366699e-01 2.284314930438995361e-01 2.290516346693038940e-01 -2.470763772726058960e-01 1.340401619672775269e-01 -5.311423167586326599e-02 1.360553950071334839e-01 -2.606330811977386475e-02 1.594550013542175293e-01 7.517895661294460297e-03 -4.916103556752204895e-02 1.838361285626888275e-02 1.882511526346206665e-01 -5.789210647344589233e-02 2.627043128013610840e-01 2.138657867908477783e-01 3.063272833824157715e-01 1.291612833738327026e-01 4.253358840942382812e-01 7.059990614652633667e-02 -1.465841680765151978e-01 -1.464645117521286011e-01 -2.659296058118343353e-02 -1.336894929409027100e-01 5.520033463835716248e-02 2.812462449073791504e-01 1.480275094509124756e-01
-0.000000000000000000e+00 0.000000000000000000e+00 -0.000000000000000000e+00 0.000000000000000000e+00 0.000000000000000000e+00 0.000000000000000000e+00 0.000000000000000000e+00 -0.000000000000000000e+00 0.000000000000000000e+00 0.000000000000000000e+00 -0.000000000000000000e+00 0.000000000000000000e+00 0.000000000000000000e+00 -0.000000000000000000e+00 -0.000000000000000000e+00 0.000000000000000000e+00 -0.000000000000000000e+00 -0.000000000000000000e+00 -0.000000000000000000e+00 -0.000000000000000000e+00 0.000000000000000000e+00 0.000000000000000000e+00 0.000000000000000000e+00 0.000000000000000000e+00 -0.000000000000000000e+00 0.000000000000000000e+00 0.000000000000000000e+00 0.000000000000000000e+00 0.000000000000000000e+00 -0.000000000000000000e+00 0.000000000000000000e+00 -0.000000000000000000e+00 0.000000000000000000e+00 -0.000000000000000000e+00 -0.000000000000000000e+00 -0.000000000000000000e+00 0.000000000000000000e+00 -0.000000000000000000e+00 0.000000000000000000e+00 0.000000000000000000e+00 -0.000000000000000000e+00 0.000000000000000000e+00 -0.000000000000000000e+00 -0.000000000000000000e+00 0.000000000000000000e+00 -0.000000000000000000e+00 0.000000000000000000e+00 -0.000000000000000000e+00 -0.000000000000000000e+00 -0.000000000000000000e+00 0.000000000000000000e+00 0.000000000000000000e+00 -0.000000000000000000e+00 0.000000000000000000e+00 0.000000000000000000e+00 -0.000000000000000000e+00 -0.000000000000000000e+00 0.000000000000000000e+00 0.000000000000000000e+00 0.000000000000000000e+00 -0.000000000000000000e+00 0.000000000000000000e+00 0.000000000000000000e+00 -0.000000000000000000e+00 2.547318935394287109e-01 -2.100367844104766846e-02 -7.077977806329727173e-02 -1.292677819728851318e-01 -1.085630878806114197e-01 1.932364515960216522e-02 7.658116519451141357e-02 -4.164869710803031921e-02 3.367563188076019287e-01 -1.770076528191566467e-02 -4.731933400034904480e-02 -1.682120375335216522e-02 -4.632549360394477844e-02 6.843907386064529419e-02 5.554025061428546906e-03 -1.217621490359306335e-01 6.871440261602401733e-02 3.948031738400459290e-02 -1.298372298479080200e-01 -9.988791495561599731e-02 3.363364934921264648e-02 -1.121097430586814880e-01 3.959039226174354553e-03 -3.497051820158958435e-02 2.200855687260627747e-02 2.635153010487556458e-02 -3.372212499380111694e-02 3.947942703962326050e-02 -1.446798592805862427e-01 -2.538499534130096436e-01 -1.470670700073242188e-01 1.665889173746109009e-01 4.921434819698333740e-02 1.039287075400352478e-01 -3.799656033515930176e-02 -3.231344223022460938e-01 -9.551401436328887939e-02 -5.157124623656272888e-02 1.038385555148124695e-01 8.775036782026290894e-02 -2.414729073643684387e-02 -1.484819650650024414e-01 -1.457941979169845581e-01 2.083218097686767578e-01 9.711794555187225342e-03 -2.510205805301666260e-01 -1.306470781564712524e-01 7.629662007093429565e-02 2.261283248662948608e-02 -8.296730369329452515e-02 -1.205455288290977478e-01 1.281447410583496094e-01 4.160802438855171204e-02 -1.615962982177734375e-01 -2.162889093160629272e-01 1.599448174238204956e-01 -1.110585704445838928e-01 -2.939889430999755859e-01 1.970838159322738647e-01 -1.306871771812438965e-01 4.278851300477981567e-02 1.268286705017089844e-01 -1.081802994012832642e-01 -2.827142179012298584e-01
-0.000000000000000000e+00 0.000000000000000000e+00 0.000000000000000000e+00 -0.000000000000000000e+00 0.000000000000000000e+00 -0.000000000000000000e+00 0.000000000000000000e+00 -0.000000000000000000e+00 0.000000000000000000e+00 -0.000000000000000000e+00 -0.000000000000000000e+00 0.000000000000000000e+00 0.000000000000000000e+00 -0.000000000000000000e+00 -0.000000000000000000e+00 0.000000000000000000e+00 0.000000000000000000e+00 0.000000000000000000e+00 0.000000000000000000e+00 -0.000000000000000000e+00 0.000000000000000000e+00 -0.000000000000000000e+00 0.000000000000000000e+00 0.000000000000000000e+00 -0.000000000000000000e+00 -0.000000000000000000e+00 -0.000000000000000000e+00 0.000000000000000000e+00 0.000000000000000000e+00 -0.000000000000000000e+00 -0.000000000000000000e+00 -0.000000000000000000e+00 -0.000000000000000000e+00 -0.000000000000000000e+00 -0.000000000000000000e+00 -0.000000000000000000e+00 -0.000000000000000000e+00 -0.000000000000000000e+00 -0.000000000000000000e+00 0.000000000000000000e+00 -0.000000000000000000e+00 -0.000000000000000000e+00 0.000000000000000000e+00 0.000000000000000000e+00 -0.000000000000000000e+00 0.000000000000000000e+00 -0.000000000000000000e+00 -0.000000000000000000e+00 0.000000000000000000e+00 0.000000000000000000e+00 0.000000000000000000e+00 0.000000000000000000e+00 0.000000000000000000e+00 0.000000000000000000e+00 -0.000000000000000000e+00 -0.000000000000000000e+00 -0.000000000000000000e+00 -0.000000000000000000e+00 0.000000000000000000e+00 -0.000000000000000000e+00 0.000000000000000000e+00 0.000000000000000000e+00 -0.000000000000000000e+00 0.000000000000000000e+00 1.760636121034622192e-01 -4.377531111240386963e-01 9.235546737909317017e-02 -2.116917669773101807e-01 1.047921404242515564e-01 -7.394909858703613281e-02 2.133256793022155762e-01 1.641186699271202087e-02 -1.196822151541709900e-01 3.022196702659130096e-02 -7.066087424755096436e-02 3.592592477798461914e-02 -2.838635742664337158e-01 1.841432154178619385e-01 8.581538498401641846e-02 1.197298541665077209e-01 2.351301759481430054e-01 1.974313557147979736e-01 -2.663337253034114838e-02 6.129622459411621094e-02 2.013629227876663208e-01 -1.040036529302597046e-01 2.108606398105621338e-01 1.856536418199539185e-01 2.502535581588745117e-01 2.678109109401702881e-01 2.183706611394882202e-01 7.809773832559585571e-02 -1.104955747723579407e-01 3.325755596160888672e-01 -1.766325347125530243e-02 1.059342920780181885e-01 1.567602604627609253e-01 2.166051119565963745e-01 4.441920295357704163e-02 9.629251062870025635e-02 1.904850900173187256e-01 2.046721428632736206e-01 1.313048303127288818e-01 2.193743437528610229e-01 -1.440201103687286377e-01 7.999633997678756714e-02 1.897786855697631836e-01 -2.551887333393096924e-01 -1.179877966642379761e-01 7.532773166894912720e-02 1.710269898176193237e-01 -1.196984387934207916e-02 -1.619389094412326813e-02 2.305234223604202271e-01 -9.103658795356750488e-02 2.204755097627639771e-01 1.992407739162445068e-01 -4.577810689806938171e-02 1.032723337411880493e-01 -8.112484961748123169e-02 -1.069514527916908264e-01 2.768303453922271729e-01 -2.048878222703933716e-01 1.880303174257278442e-01 5.463982746005058289e-02 2.881511747837066650e-01 7.239042967557907104e-02 3.678336739540100098e-02
0.000000000000000000e+00 -0.000000000000000000e+00 0.000000000000000000e+00 -0.000000000000000000e+00 -0.000000000000000000e+00 0.000000000000000000e+00 0.000000000000000000e+00 -0.000000000000000000e+00 -0.000000000000000000e+00 0.000000000000000000e+00 0.000000000000000000e+00 -0.000000000000000000e+00 -0.000000000000000000e+00 0.000000000000000000e+00 -0.000000000000000000e+00 0.000000000000000000e+00 -0.000000000000000000e+00 -0.000000000000000000e+00 -0.000000000000000000e+00 0.000000000000000000e+00 -0.000000000000000000e+00 0.000000000000000000e+00 0.000000000000000000e+00 0.000000000000000000e+00 0.000000000000000000e+00 0.000000000000000000e+00 0.000000000000000000e+00 0.000000000000000000e+00 0.000000000000000000e+00 0.000000000000000000e+00 -0.000000000000000000e+00 -0.000000000000000000e+00 -0.000000000000000000e+00 -0.000000000000000000e+00 -0.000000000000000000e+00 -0.000000000000000000e+00 0.000000000000000000e+00 -0.000000000000000000e+00 0.000000000000000000e+00 0.000000000000000000e+00 0.000000000000000000e+00 0.000000000000000000e+00 -0.000000000000000000e+00 -0.000000000000000000e+00 0.000000000000000000e+00 0.000000000000000000e+00 0.000000000000000000e+00 -0.000000000000000000e+00 -0.000000000000000000e+00 -0.000000000000000000e+00 0.000000000000000000e+00 -0.000000000000000000e+00 -0.000000000000000000e+00 -0.000000000000000000e+00 0.000000000000000000e+00 -0.000000000000000000e+00 0.000000000000000000e+00 0.000000000000000000e+00 -0.000000000000000000e+00 0.000000000000000000e+00 -0.000000000000000000e+00 0.000000000000000000e+00 -0.000000000000000000e+00 -0.000000000000000000e+00 -2.302077263593673706e-01 1.544331312179565430e-01 -7.056553661823272705e-02 -1.257304102182388306e-01 1.101860105991363525e-01 1.045675426721572876e-01 1.678126603364944458e-01 1.072778105735778809e-01 -1.514187753200531006e-01 1.875106096267700195e-01 -2.615024149417877197e-01 3.317432403564453125e-01 1.836475729942321777e-01 4.759144037961959839e-02 -1.259251125156879425e-02 -6.582881906069815159e-04 6.723978370428085327e-02 1.126304194331169128e-01 3.085730411112308502e-02 4.157460927963256836e-01 2.132733613252639771e-01 -2.644283175468444824e-01 3.744954243302345276e-02 -1.085090935230255127e-01 1.151573732495307922e-01 2.019627988338470459e-01 2.293898910284042358e-01 1.204485967755317688e-01 4.525357484817504883e-02 2.041847817599773407e-02 8.011660724878311157e-02 7.249652594327926636e-02 -4.341261386871337891e-01 2.885759472846984863e-01 1.897636614739894867e-02 7.564548403024673462e-02 3.771840631961822510e-01 1.720074117183685303e-01 2.755198180675506592e-01 1.586637645959854126e-01 -1.287949681282043457e-01 5.853853188455104828e-03 -2.457621041685342789e-03 2.190334498882293701e-01 -1.034928411245346069e-01 5.543305724859237671e-02 2.083267420530319214e-01 -9.945967793464660645e-02 -6.559669226408004761e-02 6.329218298196792603e-02 -7.000689208507537842e-02 2.818181216716766357e-01 3.902788162231445312e-01 1.079350188374519348e-01 1.966929286718368530e-01 1.970819681882858276e-01 1.739509999752044678e-01 1.158931851387023926e-01 4.097809549421072006e-03 -2.035874314606189728e-02 2.541267871856689453e-01 1.530485153198242188e-01 7.716035842895507812e-02 -6.738204509019851685e-02
0.000000000000000000e+00 0.000000000000000000e+00 -0.000000000000000000e+00 -0.000000000000000000e+00 -0.000000000000000000e+00 0.000000000000000000e+00 -0.000000000000000000e+00 -0.000000000000000000e+00 0.000000000000000000e+00 -0.000000000000000000e+00 -0.000000000000000000e+00 -0.000000000000000000e+00 -0.000000000000000000e+00 0.000000000000000000e+00 -0.000000000000000000e+00 0.000000000000000000e+00 0.000000000000000000e+00 0.000000000000000000e+00 -0.000000000000000000e+00 0.000000000000000000e+00 -0.000000000000000000e+00 0.000000000000000000e+00 -0.000000000000000000e+00 0.000000000000000000e+00 -0.000000000000000000e+00 0.000000000000000000e+00 -0.000000000000000000e+00 -0.000000000000000000e+00 -0.000000000000000000e+00 -0.000000000000000000e+00 0.000000000000000000e+00 -0.000000000000000000e+00 0.000000000000000000e+00 0.000000000000000000e+00 0.000000000000000000e+00 0.000000000000000000e+00 0.000000000000000000e+00 0.000000000000000000e+00 -0.000000000000000000e+00 -0.000000000000000000e+00 0.000000000000000000e+00 -0.000000000000000000e+00 0.000000000000000000e+00 0.000000000000000000e+00 0.000000000000000000e+00 -0.000000000000000000e+00 0.000000000000000000e+00 0.000000000000000000e+00 -0.000000000000000000e+00 -0.000000000000000000e+00 -0.000000000000000000e+00 0.000000000000000000e+00 -0.000000000000000000e+00 -0.000000000000000000e+00 -0.000000000000000000e+00 -0.000000000000000000e+00 -0.000000000000000000e+00 0.000000000000000000e+00 0.000000000000000000e+00 0.000000000000000000e+00 0.000000000000000000e+00 -0.000000000000000000e+00 -0.000000000000000000e+00 -0.000000000000000000e+00 5.118218064308166504e-02 -1.611252725124359131e-01 1.565375179052352905e-01 8.718971908092498779e-02 5.423013865947723389e-02 -4.340480640530586243e-02 1.496197879314422607e-01 -5.087400972843170166e-02 1.463445872068405151e-01 2.455604523420333862e-01 1.858898550271987915e-01 -8.696550875902175903e-02 6.334599107503890991e-02 -8.124194294214248657e-02 2.466717660427093506e-01 9.636204689741134644e-03 -3.397583216428756714e-02 1.764388978481292725e-01 -7.503508776426315308e-02 2.730990648269653320e-01 3.354626893997192383e-01 1.543462276458740234e-02 2.216846793889999390e-01 -8.758245408535003662e-02 -2.660491466522216797e-01 -1.651764512062072754e-01 1.133027076721191406e-01 1.599694341421127319e-01 2.541824579238891602e-01 1.049107238650321960e-01 8.905956149101257324e-02 2.052101492881774902e-02 9.142015129327774048e-02 1.605099886655807495e-01 -4.760087933391332626e-03 2.014796584844589233e-01 5.124129354953765869e-02 -6.657475978136062622e-02 7.072952389717102051e-02 2.611031234264373779e-01 -2.443695366382598877e-01 -8.072020113468170166e-02 4.943072795867919922e-01 1.290491968393325806e-01 -8.084703236818313599e-02 -5.684345588088035583e-02 2.032190561294555664e-01 3.925551176071166992e-01 -3.295863866806030273e-01 1.750637292861938477e-01 8.690542727708816528e-02 3.987629339098930359e-02 5.243430733680725098e-01 2.133288681507110596e-01 5.120751857757568359e-01 9.445963054895401001e-02 9.838834404945373535e-02 3.935868144035339355e-01 8.270832151174545288e-02 1.567189209163188934e-02 -3.195044100284576416e-01 -2.428644150495529175e-02 -5.866912379860877991e-02 1.875900924205780029e-01
0.000000000000000000e+00 -0.000000000000000000e+00 -0.000000000000000000e+00 -0.000000000000000000e+00 -0.000000000000000000e+00 -0.000000000000000000e+00 0.000000000000000000e+00 0.000000000000000000e+00 -0.000000000000000000e+00 0.000000000000000000e+00 0.000000000000000000e+00 0.000000000000000000e+00 0.000000000000000000e+00 -0.000000000000000000e+00 0.000000000000000000e+00 0.000000000000000000e+00 0.000000000000000000e+00 -0.000000000000000000e+00 0.000000000000000000e+00 0.000000000000000000e+00 0.000000000000000000e+00 0.000000000000000000e+00 0.000000000000000000e+00 -0.000000000000000000e+00 -0.000000000000000000e+00 -0.000000000000000000e+00 0.000000000000000000e+00 0.000000000000000000e+00 -0.000000000000000000e+00 -0.000000000000000000e+00 -0.000000000000000000e+00 0.000000000000000000e+00 -0.000000000000000000e+00 0.000000000000000000e+00 0.000000000000000000e+00 -0.000000000000000000e+00 0.000000000000000000e+00 -0.000000000000000000e+00 -0.000000000000000000e+00 -0.000000000000000000e+00 0.000000000000000000e+00 -0.000000000000000000e+00 -0.000000000000000000e+00 0.000000000000000000e+00 0.000000000000000000e+00 -0.000000000000000000e+00 0.000000000000000000e+00 0.000000000000000000e+00 -0.000000000000000000e+00 -0.000000000000000000e+00 -0.000000000000000000e+00 0.000000000000000000e+00 0.000000000000000000e+00 -0.000000000000000000e+00 0.000000000000000000e+00 0.000000000000000000e+00 -0.000000000000000000e+00 -0.000000000000000000e+00 0.000000000000000000e+00 -0.000000000000000000e+00 -0.000000000000000000e+00 0.000000000000000000e+00 -0.000000000000000000e+00 0.000000000000000000e+00 -1.804753541946411133e-01 1.373912841081619263e-01 1.576324701309204102e-01 -1.588375568389892578e-01 -2.636158466339111328e-01 1.721665114164352417e-01 -1.100218817591667175e-01 5.790555849671363831e-02 -2.406110763549804688e-01 4.809851646423339844e-01 -1.774891018867492676e-01 9.791493415832519531e-02 -5.041089281439781189e-02 -1.302852928638458252e-01 -3.968589305877685547e-01 1.267116665840148926e-01 -8.505274355411529541e-02 -2.285020798444747925e-02 -2.138907909393310547e-01 2.109866291284561157e-01 2.623701393604278564e-01 1.952764242887496948e-01 -7.940482348203659058e-02 2.736838068813085556e-04 7.725587487220764160e-02 2.970580458641052246e-01 1.271646320819854736e-01 5.000436305999755859e-02 2.260531485080718994e-02 -2.656278312206268311e-01 1.355972290039062500e-01 -2.112572342157363892e-01 3.031215667724609375e-01 -1.707456856966018677e-01 2.329939305782318115e-01 6.212779507040977478e-02 1.319719403982162476e-01 -2.139343321323394775e-02 2.250837087631225586e-01 2.726441621780395508e-01 6.364164873957633972e-03 3.097143173217773438e-01 1.260839849710464478e-01 2.956863865256309509e-02 3.663857579231262207e-01 1.454170048236846924e-01 -1.266899555921554565e-01 1.791976541280746460e-01 1.393746491521596909e-02 -2.572663314640522003e-02 -2.095413655042648315e-01 -5.150943621993064880e-02 -7.370863109827041626e-02 2.280503362417221069e-01 2.086376994848251343e-01 2.460840940475463867e-01 7.618985325098037720e-02 3.941174447536468506e-01 2.292289584875106812e-01 -3.269130885601043701e-01 -3.284486830234527588e-01 2.946786023676395416e-02 2.269953042268753052e-01 -6.781633943319320679e-02
0.000000000000000000e+00 -0.000000000000000000e+00 -0.000000000000000000e+00 -0.000000000000000000e+00 0.000000000000000000e+00 -0.000000000000000000e+00 0.000000000000000000e+00 0.000000000000000000e+00 -0.000000000000000000e+00 -0.000000000000000000e+00 -0.000000000000000000e+00 0.000000000000000000e+00 0.000000000000000000e+00 -0.000000000000000000e+00 0.000000000000000000e+00 0.000000000000000000e+00 0.000000000000000000e+00 -0.000000000000000000e+00 0.000000000000000000e+00 0.000000000000000000e+00 0.000000000000000000e+00 -0.000000000000000000e+00 -0.000000000000000000e+00 -0.000000000000000000e+00 0.000000000000000000e+00 -0.000000000000000000e+00 -0.000000000000000000e+00 0.000000000000000000e+00 -0.000000000000000000e+00 0.000000000000000000e+00 -0.000000000000000000e+00 -0.000000000000000000e+00 -0.000000000000000000e+00 -0.000000000000000000e+00 -0.000000000000000000e+00 -0.000000000000000000e+00 -0.000000000000000000e+00 0.000000000000000000e+00 0.000000000000000000e+00 0.000000000000000000e+00 -0.000000000000000000e+00 0.000000000000000000e+00 -0.000000000000000000e+00 -0.000000000000000000e+00 0.000000000000000000e+00 0.000000000000000000e+00 -0.000000000000000000e+00 0.000000000000000000e+00 0.000000000000000000e+00 -0.000000000000000000e+00 0.000000000000000000e+00 0.000000000000000000e+00 -0.000000000000000000e+00 -0.000000000000000000e+00 -0.000000000000000000e+00 -0.000000000000000000e+00 -0.000000000000000000e+00 -0.000000000000000000e+00 -0.000000000000000000e+00 -0.000000000000000000e+00 0.000000000000000000e+00 0.000000000000000000e+00 0.000000000000000000e+00 0.000000000000000000e+00 -3.394688069820404053e-01 -3.483764231204986572e-01 1.155786737799644470e-01 -2.674115076661109924e-02 -4.587167501449584961e-02 -2.386655062437057495e-01 -7.194201648235321045e-02 1.071341987699270248e-02 -3.606970608234405518e-01 -6.492470949888229370e-02 5.262291431427001953e-02 4.288594052195549011e-02 7.390571292489767075e-03 -4.493386298418045044e-02 2.969608828425407410e-02 -2.131320089101791382e-01 1.077272444963455200e-01 9.779570251703262329e-02 1.386508941650390625e-01 -3.111904300749301910e-02 1.329940259456634521e-01 5.736134201288223267e-02 1.311994274146854877e-03 2.582315541803836823e-02 6.604273617267608643e-02 -2.704755961894989014e-02 1.641591787338256836e-01 7.368151843547821045e-02 1.272655427455902100e-01 9.923192858695983887e-02 6.528130173683166504e-02 1.076474264264106750e-01 -1.459634453058242798e-01 1.868274509906768799e-01 2.068396359682083130e-01 -1.647721230983734131e-01 -1.903022378683090210e-01 -8.928824961185455322e-02 -6.304687261581420898e-02 5.596659705042839050e-02 1.698453165590763092e-02 1.519710104912519455e-02 -4.963473230600357056e-02 3.304660320281982422e-01 1.729468703269958496e-01 -1.655727438628673553e-02 -1.958110481500625610e-01 -1.168221011757850647e-01 -4.479170963168144226e-02 -1.134236380457878113e-01 3.551307618618011475e-01 1.550239026546478271e-01 -1.927257180213928223e-01 3.003136627376079559e-02 -4.771855100989341736e-02 2.527709305286407471e-02 -2.288513779640197754e-01 -3.585142195224761963e-01 1.431138068437576294e-02 2.592347934842109680e-02 1.355651021003723145e-01 -1.345629096031188965e-01 -2.332631200551986694e-01 6.696090567857027054e-03
-0.000000000000000000e+00 0.000000000000000000e+00 0.000000000000000000e+00 0.000000000000000000e+00 -0.000000000000000000e+00 -0.000000000000000000e+00 -0.000000000000000000e+00 0.000000000000000000e+00 0.000000000000000000e+00 0.000000000000000000e+00 -0.000000000000000000e+00 -0.000000000000000000e+00 0.000000000000000000e+00 0.000000000000000000e+00 0.000000000000000000e+00 0.000000000000000000e+00 0.000000000000000000e+00 -0.000000000000000000e+00 -0.000000000000000000e+00 -0.000000000000000000e+00 0.000000000000000000e+00 -0.000000000000000000e+00 -0.000000000000000000e+00 -0.000000000000000000e+00 0.000000000000000000e+00 0.000000000000000000e+00 -0.000000000000000000e+00 -0.000000000000000000e+00 0.000000000000000000e+00 0.000000000000000000e+00 -0.000000000000000000e+00 -0.000000000000000000e+00 -0.000000000000000000e+00 -0.000000000000000000e+00 0.000000000000000000e+00 -0.000000000000000000e+00 0.000000000000000000e+00 0.000000000000000000e+00 0.000000000000000000e+00 -0.000000000000000000e+00 0.000000000000000000e+00 0.000000000000000000e+00 0.000000000000000000e+00 0.000000000000000000e+00 -0.000000000000000000e+00 0.000000000000000000e+00 -0.000000000000000000e+00 0.000000000000000000e+00 -0.000000000000000000e+00 0.000000000000000000e+00 -0.000000000000000000e+00 -0.000000000000000000e+00 -0.000000000000000000e+00 0.000000000000000000e+00 0.000000000000000000e+00 0.000000000000000000e+00 -0.000000000000000000e+00 -0.000000000000000000e+00 -0.000000000000000000e+00 -0.000000000000000000e+00 0.000000000000000000e+00 -0.000000000000000000e+00 0.000000000000000000e+00 -0.000000000000000000e+00 -5.281132459640502930e-02 2.741181254386901855e-01 -1.746211759746074677e-02 3.932952880859375000e-02 -1.267783902585506439e-02 1.621348410844802856e-01 3.056680262088775635e-01 -3.364561498165130615e-02 -3.100680932402610779e-02 9.394930303096771240e-02 -3.368025645613670349e-02 5.034819841384887695e-01 -1.500442177057266235e-01 1.771506369113922119e-01 -4.089715480804443359e-01 1.869792938232421875e-01 1.246619150042533875e-01 2.151455432176589966e-01 9.488926827907562256e-02 -9.985928237438201904e-02 8.449436724185943604e-02 1.533405333757400513e-01 6.247416883707046509e-02 1.860353350639343262e-01 -1.126548796892166138e-01 1.907052993774414062e-01 1.071436852216720581e-01 3.864440023899078369e-01 -2.941512167453765869e-01 1.428557634353637695e-01 2.590623199939727783e-01 -1.644217818975448608e-01 1.123699266463518143e-02 -1.370521038770675659e-01 1.000701114535331726e-01 9.511630982160568237e-02 1.290972828865051270e-01 5.088598281145095825e-02 1.070130020380020142e-01 -8.880253136157989502e-02 -4.705748870037496090e-04 1.360222399234771729e-01 -1.802034825086593628e-01 -1.810213327407836914e-01 1.197505220770835876e-01 4.597496613860130310e-02 3.066151142120361328e-01 -1.492659449577331543e-01 8.095916360616683960e-02 -4.200338572263717651e-02 -8.286388963460922241e-02 3.792815208435058594e-01 3.067205250263214111e-01 1.351840049028396606e-01 1.415931880474090576e-01 1.675344854593276978e-01 3.295183181762695312e-01 1.713345646858215332e-01 2.305203080177307129e-01 -9.438435733318328857e-02 -5.494120344519615173e-02 1.860994994640350342e-01 -9.052012860774993896e-02 -1.067047379910945892e-02
0.000000000000000000e+00 -0.000000000000000000e+00 -0.000000000000000000e+00 -0.000000000000000000e+00 -0.000000000000000000e+00 -0.000000000000000000e+00 0.000000000000000000e+00 0.000000000000000000e+00 -0.000000000000000000e+00 -0.000000000000000000e+00 -0.000000000000000000e+00 -0.000000000000000000e+00 -0.000000000000000000e+00 -0.000000000000000000e+00 0.000000000000000000e+00 0.000000000000000000e+00 -0.000000000000000000e+00 -0.000000000000000000e+00 -0.000000000000000000e+00 0.000000000000000000e+00 0.000000000000000000e+00 -0.000000000000000000e+00 -0.000000000000000000e+00 -0.000000000000000000e+00 -0.000000000000000000e+00 -0.000000000000000000e+00 0.000000000000000000e+00 0.000000000000000000e+00 0.000000000000000000e+00 -0.000000000000000000e+00 -0.000000000000000000e+00 0.000000000000000000e+00 0.000000000000000000e+00 0.000000000000000000e+00 0.000000000000000000e+00 0.000000000000000000e+00 0.000000000000000000e+00 -0.000000000000000000e+00 0.000000000000000000e+00 0.000000000000000000e+00 -0.000000000000000000e+00 0.000000000000000000e+00 -0.000000000000000000e+00 0.000000000000000000e+00 -0.000000000000000000e+00 -0.000000000000000000e+00 0.000000000000000000e+00 0.000000000000000000e+00 0.000000000000000000e+00 -0.000000000000000000e+00 -0.000000000000000000e+00 -0.000000000000000000e+00 0.000000000000000000e+00 -0.000000000000000000e+00 -0.000000000000000000e+00 -0.000000000000000000e+00 -0.000000000000000000e+00 0.000000000000000000e+00 -0.000000000000000000e+00 0.000000000000000000e+00 -0.000000000000000000e+00 -0.000000000000000000e+00 0.000000000000000000e+00 0.000000000000000000e+00 -2.615110762417316437e-02 -1.973932087421417236e-01 7.533697783946990967e-02 -1.392379254102706909e-01 3.711210787296295166e-01 1.547049880027770996e-01 1.733464300632476807e-01 2.235525101423263550e-01 2.464400827884674072e-01 -2.983064353466033936e-01 -3.450105711817741394e-02 1.066696643829345703e-02 1.301143616437911987e-01 3.336682915687561035e-01 1.381086558103561401e-01 4.212304949760437012e-01 -4.353396221995353699e-02 3.555547893047332764e-01 -6.021991372108459473e-02 -9.086663275957107544e-02 5.044688284397125244e-02 1.457233796827495098e-03 2.830195473507046700e-03 6.054885685443878174e-02 2.209825217723846436e-01 -2.350854687392711639e-02 1.428679823875427246e-01 -3.367160260677337646e-01 1.872085481882095337e-01 2.032897025346755981e-01 3.121718019247055054e-02 1.635762751102447510e-01 8.933996409177780151e-02 1.071695238351821899e-01 -2.080303132534027100e-01 3.772602230310440063e-02 2.293876111507415771e-01 2.084466665983200073e-01 -6.938844919204711914e-02 -2.881254069507122040e-02 1.420311629772186279e-01 1.226616725325584412e-01 -8.376374840736389160e-02 -1.051442418247461319e-02 1.655196771025657654e-02 2.313859462738037109e-01 -2.671420201659202576e-02 2.877874672412872314e-01 1.523482948541641235e-01 -1.288604289293289185e-01 2.620207890868186951e-02 -7.491189986467361450e-02 1.547012329101562500e-01 4.712813198566436768e-01 -1.855386644601821899e-01 1.083464846014976501e-01 2.141278535127639771e-01 2.471295595169067383e-01 2.353035211563110352e-01 2.491912245750427246e-01 -1.223288029432296753e-01 3.556569814682006836e-01 7.897753268480300903e-02 9.965095669031143188e-02
0.000000000000000000e+00 0.000000000000000000e+00 -0.000000000000000000e+00 -0.000000000000000000e+00 0.000000000000000000e+00 -0.000000000000000000e+00 0.000000000000000000e+00 -0.000000000000000000e+00 0.000000000000000000e+00 -0.000000000000000000e+00 -0.000000000000000000e+00 -0.000000000000000000e+00 0.000000000000000000e+00 0.000000000000000000e+00 -0.000000000000000000e+00 -0.000000000000000000e+00 -0.000000000000000000e+00 -0.000000000000000000e+00 0.000000000000000000e+00 0.000000000000000000e+00 0.000000000000000000e+00 -0.000000000000000000e+00 0.000000000000000000e+00 -0.000000000000000000e+00 -0.000000000000000000e+00 0.000000000000000000e+00 0.000000000000000000e+00 0.000000000000000000e+00 -0.000000000000000000e+00 0.000000000000000000e+00 0.000000000000000000e+00 0.000000000000000000e+00 0.000000000000000000e+00 0.000000000000000000e+00 -0.000000000000000000e+00 0.000000000000000000e+00 0.000000000000000000e+00 0.000000000000000000e+00 -0.000000000000000000e+00 0.000000000000000000e+00 0.000000000000000000e+00 -0.000000000000000000e+00 0.000000000000000000e+00 -0.000000000000000000e+00 -0.000000000000000000e+00 0.000000000000000000e+00 -0.000000000000000000e+00 -0.000000000000000000e+00 -0.000000000000000000e+00 -0.000000000000000000e+00 -0.000000000000000000e+00 0.000000000000000000e+00 0.000000000000000000e+00 0.000000000000000000e+00 0.000000000000000000e+00 -0.000000000000000000e+00 0.000000000000000000e+00 0.000000000000000000e+00 0.000000000000000000e+00 -0.000000000000000000e+00 0.000000000000000000e+00 -0.000000000000000000e+00 0.000000000000000000e+00 0.000000000000000000e+00 1.189199648797512054e-02 6.770349293947219849e-02 -9.351581335067749023e-02 2.176389694213867188e-01 8.528218418359756470e-02 1.771487295627593994e-01 2.191178202629089355e-01 1.711009256541728973e-02 -9.130011312663555145e-03 -3.389855101704597473e-02 1.612697988748550415e-01 1.212090179324150085e-01 -1.235207393765449524e-01 1.448606550693511963e-01 -1.081577315926551819e-01 8.173354715108871460e-02 -1.139221414923667908e-01 3.178651332855224609e-01 2.002155035734176636e-01 1.857264935970306396e-01 -1.452605277299880981e-01 -2.218496203422546387e-01 3.630475103855133057e-01 2.909936308860778809e-01 5.683628842234611511e-02 1.734667420387268066e-01 -2.079768292605876923e-02 1.544692218303680420e-01 -1.119001507759094238e-01 2.381432950496673584e-01 9.298891574144363403e-02 4.922986030578613281e-02 4.378421232104301453e-02 -1.363125294446945190e-01 4.259087145328521729e-02 1.420743912458419800e-01 4.101937711238861084e-01 -2.485413700342178345e-01 2.753539383411407471e-01 8.188847452402114868e-02 -5.229389667510986328e-02 7.093483954668045044e-02 2.273570373654365540e-02 -7.032081484794616699e-02 2.977847158908843994e-01 1.967653632164001465e-01 1.524746865034103394e-01 -2.123240381479263306e-03 1.382499784231185913e-01 -3.727061673998832703e-02 1.138871759176254272e-01 1.066002920269966125e-01 -3.426492586731910706e-02 2.241536825895309448e-01 -7.717000693082809448e-02 2.911093235015869141e-01 1.836995966732501984e-02 2.807015478610992432e-01 -1.239035725593566895e-01 -3.131015002727508545e-01 -3.221614658832550049e-01 1.161466017365455627e-01 7.158265262842178345e-02 8.711568266153335571e-02
