-9.928301721811294556e-02
2.309948503971099854e-01
8.581146597862243652e-02
-1.683567464351654053e-01
4.811936914920806885e-01
1.864260733127593994e-01
-3.721408545970916748e-01
3.304180130362510681e-02
-1.347757875919342041e-01
6.677915900945663452e-02
-1.547625809907913208e-01
4.605412483215332031e-03
1.297926008701324463e-01
3.037100844085216522e-02
2.515814006328582764e-01
2.955324351787567139e-01
2.713596522808074951e-01
-2.788633406162261963e-01
6.766666471958160400e-02
2.518232464790344238e-01
-8.356615900993347168e-02
9.276126325130462646e-02
7.074172049760818481e-02
-1.047671362757682800e-01
9.490171819925308228e-02
3.174570575356483459e-02
3.611811697483062744e-01
3.187276422977447510e-01
-3.715608641505241394e-02
-7.802995294332504272e-02
9.637167304754257202e-02
2.183601446449756622e-02
2.656924426555633545e-01
-7.503696717321872711e-03
-8.825011551380157471e-02
2.056470364332199097e-01
1.894971281290054321e-01
9.739232063293457031e-02
3.127075359225273132e-02
5.726312473416328430e-02
1.291187554597854614e-01
-2.535221278667449951e-01
2.321949154138565063e-01
-3.521384298801422119e-01
-3.906008973717689514e-02
1.011239960789680481e-01
1.587866805493831635e-02
-4.455022513866424561e-03
2.891804277896881104e-01
2.163668163120746613e-02
-7.565122842788696289e-02
1.152989789843559265e-01
7.056879252195358276e-02
1.791495382785797119e-01
3.110581636428833008e-02
4.148892760276794434e-01
-1.391620188951492310e-01
5.377461388707160950e-02
5.701524391770362854e-02
-7.689279317855834961e-02
6.598252803087234497e-02
2.779885530471801758e-01
3.407170176506042480e-01
3.224413469433784485e-02
1.747864186763763428e-01
1.836831420660018921e-01
2.899277508258819580e-01
8.246587216854095459e-02
1.101137846708297729e-01
-1.192411705851554871e-01
2.817058563232421875e-01
-7.038807123899459839e-02
-1.938755512237548828e-01
-2.670444846153259277e-01
1.199552118778228760e-01
7.647157460451126099e-02
-4.024424552917480469e-01
-2.086344957351684570e-01
-4.334332048892974854e-02
-7.189912348985671997e-02
3.370232582092285156e-01
-4.610888957977294922e-01
4.714033752679824829e-02
-1.009950786828994751e-01
-2.008934691548347473e-02
3.414238989353179932e-01
9.482939541339874268e-02
-1.183295920491218567e-01
9.343989938497543335e-02
-2.002950944006443024e-02
-1.304080784320831299e-01
1.093302443623542786e-01
2.588271796703338623e-01
3.670893013477325439e-01
-2.727015614509582520e-01
-6.881527602672576904e-02
-7.212917506694793701e-02
-1.196481361985206604e-01
-3.689424991607666016e-01
1.659667342901229858e-01
-1.607758402824401855e-01
5.555844679474830627e-02
-1.730915904045104980e-01
7.651031017303466797e-02
-4.728960245847702026e-02
-9.234496951103210449e-02
-1.721538603305816650e-02
-9.556832164525985718e-02
-1.271088421344757080e-01
-1.794243603944778442e-02
-7.497571408748626709e-02
1.602052152156829834e-01
5.657822638750076294e-02
-1.634072810411453247e-01
4.888842813670635223e-03
-1.613212525844573975e-01
5.191002041101455688e-02
-1.174663752317428589e-01
-7.294449955224990845e-02
3.518235385417938232e-01
-2.596965134143829346e-01
-2.691505849361419678e-01
2.324314266443252563e-01
-5.336421728134155273e-02
4.262449219822883606e-02
1.662888191640377045e-02
-6.034881994128227234e-02
1.276674717664718628e-01
2.546050585806369781e-02
-6.980781257152557373e-02
2.264533042907714844e-01
1.338566392660140991e-01
-3.139131963253021240e-01
2.599822171032428741e-02
-1.534112393856048584e-01
3.850323855876922607e-01
6.810905784368515015e-02
6.168688461184501648e-02
2.875365614891052246e-01
3.182985484600067139e-01
1.047711372375488281e-01
1.104262173175811768e-01
-1.393897235393524170e-01
8.385887742042541504e-02
1.107282713055610657e-01
1.949953101575374603e-02
1.316155120730400085e-02
-3.032664582133293152e-02
1.300386041402816772e-01
2.348484247922897339e-01
-6.415495276451110840e-02
-1.134165972471237183e-01
-2.743322551250457764e-01
-4.138175249099731445e-01
-1.617876887321472168e-01
-1.588144451379776001e-01
-2.127520292997360229e-01
2.150599062442779541e-01
-1.478824466466903687e-01
-3.232849836349487305e-01
-3.293971121311187744e-01
1.073952391743659973e-01
1.384041607379913330e-01
3.065644800662994385e-01
-1.347258687019348145e-01
3.802272677421569824e-02
-3.283010795712471008e-02
2.466825209558010101e-02
1.459598839282989502e-01
-1.465751677751541138e-01
7.007045298814773560e-02
-1.253208220005035400e-01
4.648189619183540344e-02
6.763534992933273315e-02
2.200482785701751709e-01
3.900324180722236633e-02
-1.018110848963260651e-02
-2.900998294353485107e-01
-1.314704567193984985e-01
2.078832872211933136e-02
-5.212215706706047058e-02
2.140515856444835663e-02
-1.314506381750106812e-01
4.731396958231925964e-02
3.083982765674591064e-01
-8.684571832418441772e-02
2.194208838045597076e-02
1.345874071121215820e-01
-8.140344917774200439e-02
-3.310596644878387451e-01
-1.156443357467651367e-01
1.753750294446945190e-01
1.974806040525436401e-01
-4.476372152566909790e-02
-7.703123986721038818e-02
-2.148964554071426392e-01
1.019790917634963989e-01
-2.731775641441345215e-01
-8.694736659526824951e-02
-9.520728886127471924e-02
-1.279726922512054443e-01
-5.029879882931709290e-02
6.087150797247886658e-02
-4.060219600796699524e-02
3.413466513156890869e-01
-6.406291574239730835e-02
5.727396532893180847e-02
1.282509416341781616e-01
2.230606973171234131e-01
-4.395341500639915466e-02
4.195247218012809753e-02
2.889567017555236816e-01
8.270866423845291138e-02
7.397225499153137207e-02
-2.441412536427378654e-03
1.288597583770751953e-01
-1.171742603182792664e-01
2.490058839321136475e-01
7.596078515052795410e-02
9.855543822050094604e-02
-2.720184326171875000e-01
1.538203060626983643e-01
1.134627610445022583e-01
3.181275725364685059e-02
-2.133701443672180176e-01
-4.471131414175033569e-02
-2.500220239162445068e-01
2.651229687035083771e-02
-3.257213532924652100e-02
1.795663833618164062e-01
2.353596501052379608e-02
9.381859004497528076e-02
-3.242389261722564697e-01
-1.173975784331560135e-02
2.829065732657909393e-02
1.037613749504089355e-01
-1.156636551022529602e-01
-6.578928232192993164e-02
-1.547542661428451538e-01
-6.389614939689636230e-02
1.663555055856704712e-01
-8.269368112087249756e-02
-1.586852520704269409e-01
2.981488704681396484e-01
4.873153865337371826e-01
-1.556377485394477844e-02
-1.751902997493743896e-01
-1.342638731002807617e-01
-1.139926686882972717e-01
-1.270933598279953003e-01
-3.550804406404495239e-02
3.903816454112529755e-03
-1.945752836763858795e-02
1.413711160421371460e-01
2.413423545658588409e-02
5.828636139631271362e-02
-3.354076296091079712e-02
2.363964356482028961e-02
-1.182866469025611877e-01
-2.021637111902236938e-01
-6.211566552519798279e-02
3.765159845352172852e-01
1.245439127087593079e-01
-2.468384355306625366e-01
-2.799753472208976746e-02
-3.885563835501670837e-02
3.772347047924995422e-02
-1.394926011562347412e-01
-4.354677498340606689e-01
-1.153770647943019867e-02
-8.302659541368484497e-02
-2.554259598255157471e-01
9.148886799812316895e-02
-2.225953787565231323e-01
1.375366151332855225e-01
1.544678211212158203e-01
-1.921781338751316071e-02
2.050475403666496277e-02
6.486811488866806030e-02
2.723791897296905518e-01
-1.600244343280792236e-01
6.382016092538833618e-02
2.806219160556793213e-01
1.259485781192779541e-01
3.122484683990478516e-01
-2.021193206310272217e-01
-1.789958626031875610e-01
-1.495685875415802002e-01
-6.431560218334197998e-02
1.947909146547317505e-01
-1.895918743684887886e-03
1.092166602611541748e-01
-2.355596572160720825e-01
-8.311359584331512451e-02
-1.767934560775756836e-01
1.631555855274200439e-01
-6.653260439634323120e-02
6.690683960914611816e-02
-1.105973497033119202e-01
-1.172823235392570496e-01
-2.609735913574695587e-02
4.794030450284481049e-03
1.340165436267852783e-01
-1.535135954618453979e-01
-1.173342317342758179e-01
1.619014143943786621e-02
-6.999912112951278687e-02
-6.067050620913505554e-03
2.684841156005859375e-01
1.112723127007484436e-01
-1.926840543746948242e-01
3.169688880443572998e-01
-7.814362645149230957e-02
2.264802902936935425e-01
2.944516837596893311e-01
1.397222429513931274e-01
-1.635076701641082764e-01
-2.454642206430435181e-01
1.028079986572265625e-01
3.718861639499664307e-01
-2.622719621285796165e-03
8.163926005363464355e-02
-1.241873428225517273e-01
1.217887401580810547e-01
3.066791407763957977e-02
1.792032644152641296e-02
1.671866774559020996e-01
-1.396531704813241959e-03
1.536227315664291382e-01
4.617543518543243408e-01
-1.189137101173400879e-01
9.061990678310394287e-02
2.687492072582244873e-01
-1.485604420304298401e-02
2.172494232654571533e-01
-5.114880204200744629e-02
-3.132254779338836670e-01
3.004943020641803741e-03
-2.306443154811859131e-01
1.259606778621673584e-01
1.147799473255872726e-02
-7.961533218622207642e-02
1.128759905695915222e-01
2.576979100704193115e-01
-4.903121292591094971e-02
1.269078254699707031e-01
1.055380180478096008e-01
1.392761524766683578e-02
5.354065820574760437e-02
1.324365139007568359e-01
6.328098475933074951e-02
1.905930638313293457e-01
-2.788785994052886963e-01
2.794559299945831299e-01
-8.258053660392761230e-02
-9.050828963518142700e-02
-3.651600331068038940e-02
5.579104274511337280e-02
2.920636236667633057e-01
-3.075104653835296631e-01
-2.826727868523448706e-04
-1.190213263034820557e-01
-2.679224312305450439e-01
-6.893041729927062988e-02
-2.517159469425678253e-02
-6.421527266502380371e-02
-9.310866892337799072e-02
-5.030793696641921997e-02
2.093072421848773956e-02
-1.065134033560752869e-01
-1.166993752121925354e-01
-5.108683928847312927e-02
8.220924437046051025e-02
1.309249699115753174e-01
1.671190857887268066e-01
-5.004489049315452576e-02
1.179049536585807800e-01
-3.468278050422668457e-01
1.912412643432617188e-01
6.345550715923309326e-02
-9.391350671648979187e-03
1.582594066858291626e-01
-1.990566700696945190e-01
-9.263817220926284790e-02
-8.997008204460144043e-02
-6.677512079477310181e-03
-8.894169703125953674e-03
-2.273361012339591980e-02
-1.821468919515609741e-01
5.137414485216140747e-02
1.954979747533798218e-01
2.723621726036071777e-01
1.132530421018600464e-01
1.648494452238082886e-01
2.187074869871139526e-01
-3.083535134792327881e-01
-1.690826416015625000e-01
-6.433817744255065918e-02
-2.090825438499450684e-01
9.140685945749282837e-02
-9.804729372262954712e-02
3.125513438135385513e-03
2.249771803617477417e-01
1.890935599803924561e-01
-8.657892048358917236e-02
5.948006734251976013e-02
1.742304116487503052e-01
-3.609910979866981506e-02
-8.998484909534454346e-02
1.143854483962059021e-01
3.215385228395462036e-02
1.265230923891067505e-01
-1.545418798923492432e-01
1.129970997571945190e-01
1.735906898975372314e-01
2.152903676033020020e-01
5.006799474358558655e-02
-1.560741215944290161e-01
-4.436598122119903564e-01
2.360341846942901611e-01
6.675063818693161011e-02
-1.024490073323249817e-01
9.159071743488311768e-02
1.092660147696733475e-02
3.844773164018988609e-03
3.376742303371429443e-01
-8.763905614614486694e-02
2.683787345886230469e-01
-1.203198209404945374e-01
-1.025589257478713989e-01
-1.142104435712099075e-02
-2.513369917869567871e-01
1.645520329475402832e-01
-1.642868071794509888e-01
-1.088745966553688049e-01
1.238630414009094238e-01
-6.675918400287628174e-02
-6.178551539778709412e-02
8.698966354131698608e-02
6.836950778961181641e-03
1.287977695465087891e-01
-1.546484380960464478e-01
-6.598961353302001953e-02
1.061991825699806213e-01
1.663047634065151215e-02
-2.643070816993713379e-01
8.960548788309097290e-02
-2.257459461688995361e-01
-1.108081042766571045e-01
-1.485619843006134033e-01
-7.417625188827514648e-02
-1.701213568449020386e-01
-1.023733243346214294e-01
2.377036511898040771e-01
-2.597130537033081055e-01
1.762931048870086670e-01
8.709573745727539062e-02
-1.771581918001174927e-02
-1.174742504954338074e-01
2.917975485324859619e-01
8.033251017332077026e-02
1.015544589608907700e-02
-5.769910756498575211e-03
3.045531921088695526e-02
-3.822843730449676514e-02
-7.530716061592102051e-02
2.659022621810436249e-02
-3.005531132221221924e-01
-6.172535941004753113e-02
1.895310431718826294e-01
1.383404880762100220e-01
-2.492651529610157013e-02
1.701644062995910645e-01
-1.339994557201862335e-02
2.537160553038120270e-02
1.825366914272308350e-01
-2.895770668983459473e-01
1.028383821249008179e-01
-4.953970387578010559e-02
-2.807292342185974121e-02
-2.447301335632801056e-02
-2.985938191413879395e-01
-1.527020186185836792e-01
-1.211848668754100800e-02
-2.792279124259948730e-01
-9.964273124933242798e-02
-1.523983031511306763e-01
-1.089210659265518188e-01
-7.154636085033416748e-02
1.181818246841430664e-01
-8.796508610248565674e-02
-5.429596453905105591e-02
3.905579149723052979e-01
3.455356359481811523e-01
3.557930886745452881e-01
1.917943209409713745e-01
-8.760318160057067871e-02
-6.669640541076660156e-02
-1.236075758934020996e-01
6.450278311967849731e-02
1.028335690498352051e-01
1.744482666254043579e-01
3.195585906505584717e-01
-4.269510100129991770e-04
1.120582409203052521e-02
-1.098294705152511597e-01
1.406677961349487305e-01
1.857011169195175171e-01
1.113030388951301575e-01
1.470069289207458496e-01
1.592527627944946289e-01
3.656713664531707764e-02
1.541412621736526489e-01
-8.031536638736724854e-02
-1.756945550441741943e-01
-1.475538760423660278e-01
9.480184316635131836e-02
-3.544335439801216125e-02
-8.711705356836318970e-02
-2.473756223917007446e-01
1.729628741741180420e-01
9.947675466537475586e-02
-7.364907767623662949e-03
-2.120688259601593018e-01
9.801159054040908813e-02
3.725274279713630676e-02
-1.634003221988677979e-02
-4.974429681897163391e-02
-4.681574180722236633e-02
3.496676683425903320e-02
1.049292739480733871e-03
-1.875247433781623840e-02
8.470581471920013428e-02
-1.958657205104827881e-01
1.222330257296562195e-01
3.549169003963470459e-02
1.827274113893508911e-01
-1.298268092796206474e-03
7.262579351663589478e-02
5.811162590980529785e-01
-7.815144956111907959e-03
2.828805521130561829e-02
6.323304772377014160e-02
-2.329391539096832275e-01
1.025189738720655441e-02
1.580275297164916992e-01
2.925350964069366455e-01
9.825538098812103271e-02
-3.949188813567161560e-02
-2.431416958570480347e-01
-5.345648899674415588e-02
-3.591893613338470459e-02
2.713135182857513428e-01
2.343986779451370239e-01
4.742609336972236633e-02
1.627551913261413574e-01
1.952599547803401947e-02
-8.441095799207687378e-02
-2.107298970222473145e-01
-4.630155861377716064e-02
-1.499713957309722900e-01
-4.822290036827325821e-03
-1.802706718444824219e-01
-1.679908782243728638e-01
-3.103969804942607880e-02
-3.412207961082458496e-02
-4.484444484114646912e-02
-3.220915049314498901e-02
1.966754496097564697e-01
3.424615263938903809e-01
-1.257812529802322388e-01
1.131100952625274658e-01
1.903284937143325806e-01
-1.903876215219497681e-01
9.940805286169052124e-02
-2.781868875026702881e-01
-9.018626809120178223e-02
8.964661508798599243e-02
3.661877810955047607e-01
2.540491223335266113e-01
-7.779289036989212036e-02
-1.030191108584403992e-01
3.151887282729148865e-02
7.964460179209709167e-03
1.095577143132686615e-03
-4.272877052426338196e-02
2.331566959619522095e-01
-6.201191991567611694e-02
-2.636511810123920441e-02
1.737480461597442627e-01
1.005814522504806519e-01
2.175255417823791504e-01
1.824798285961151123e-01
8.133847266435623169e-02
-1.043596491217613220e-01
-1.954288184642791748e-01
3.417912423610687256e-01
1.628673374652862549e-01
-2.065220326185226440e-01
-2.552874386310577393e-02
7.027814537286758423e-02
2.894722297787666321e-02
-2.450241595506668091e-01
-1.899136453866958618e-01
-2.479470968246459961e-01
1.243617758154869080e-01
5.082790181040763855e-02
-1.220634281635284424e-01
2.219497859477996826e-01
1.740848124027252197e-01
1.698305644094944000e-02
1.596721708774566650e-01
1.569393575191497803e-01
-3.922309875488281250e-01
7.410726696252822876e-02
-1.737749576568603516e-01
-5.811864510178565979e-02
1.335559934377670288e-01
5.439952760934829712e-02
9.540854953229427338e-03
-1.697467118501663208e-01
1.896706782281398773e-02
3.235473111271858215e-02
5.122553929686546326e-02
9.057772904634475708e-02
2.736932784318923950e-02
4.122602641582489014e-01
-2.584082782268524170e-01
1.884105354547500610e-01
1.027732416987419128e-01
4.671217873692512512e-02
6.044377386569976807e-02
2.038927227258682251e-01
-2.688159048557281494e-01
-1.323909685015678406e-02
-2.184770256280899048e-02
-2.408348955214023590e-02
-7.456841319799423218e-02
-7.962115854024887085e-02
2.293369472026824951e-01
-1.494561135768890381e-01
-2.231426984071731567e-01
4.266552999615669250e-02
2.937977612018585205e-01
-1.097345277667045593e-01
1.572142988443374634e-01
8.380033820867538452e-02
-6.481523066759109497e-02
2.856728434562683105e-01
2.723641134798526764e-02
-1.108135581016540527e-01
3.007173165678977966e-02
-2.464418411254882812e-01
4.193395078182220459e-01
-4.228007048368453979e-02
2.425970584154129028e-01
1.846198588609695435e-01
-1.061274036765098572e-01
-7.641342282295227051e-02
-2.458046004176139832e-02
-1.538168787956237793e-01
1.661586612462997437e-01
-7.942956686019897461e-02
7.176382467150688171e-03
2.790367007255554199e-01
1.040198579430580139e-01
-1.230925545096397400e-01
-1.383746564388275146e-01
-6.648728996515274048e-02
4.874907061457633972e-02
2.033895105123519897e-01
-6.602150946855545044e-02
1.374053359031677246e-01
-1.020442172884941101e-01
1.857932806015014648e-01
4.817290697246789932e-03
3.486492484807968140e-02
-9.603542089462280273e-02
5.128443986177444458e-02
-1.548671573400497437e-01
-1.696553379297256470e-01
-1.144021451473236084e-01
-4.860779047012329102e-01
2.648271322250366211e-01
-3.016896359622478485e-02
-6.620236486196517944e-02
-3.867244124412536621e-01
8.959742635488510132e-02
-5.003931373357772827e-02
2.640097402036190033e-03
3.575617156457155943e-04
5.401135087013244629e-01
-3.384817764163017273e-02
-2.832141220569610596e-01
1.851257830858230591e-01
-2.412893436849117279e-02
-1.331533398479223251e-02
1.138238003477454185e-03
5.497506819665431976e-03
2.365344613790512085e-01
-8.914883434772491455e-02
9.208532422780990601e-02
-5.630089715123176575e-02
1.159261260181665421e-02
2.814937829971313477e-01
9.865326434373855591e-02
1.897163242101669312e-01
-4.764240980148315430e-02
1.920439451932907104e-01
-2.978929579257965088e-01
-2.724662721157073975e-01
-1.309971809387207031e-01
-1.352442204952239990e-01
6.452342867851257324e-02
-2.281854674220085144e-02
-2.360454052686691284e-01
1.316080689430236816e-01
7.765635848045349121e-02
1.621505469083786011e-01
2.078232914209365845e-01
-6.797499209642410278e-02
6.771428883075714111e-02
6.468238681554794312e-02
3.520662337541580200e-02
-2.787587642669677734e-01
2.493302673101425171e-01
2.047047317028045654e-01
-2.081409245729446411e-01
3.514916077256202698e-02
1.246821805834770203e-01
9.418747387826442719e-03
-1.387948840856552124e-01
-2.343347296118736267e-02
-2.398359403014183044e-02
3.241951763629913330e-01
3.444297472015023232e-03
2.330535277724266052e-02
-1.237390637397766113e-01
1.143019199371337891e-01
-8.288148045539855957e-02
-2.745253145694732666e-01
-1.068596076220273972e-02
-1.279341280460357666e-01
-2.411147654056549072e-01
2.231692224740982056e-01
1.041949838399887085e-01
8.377125859260559082e-02
2.672192454338073730e-01
-8.759047486819326878e-04
4.174166619777679443e-01
3.177597224712371826e-01
6.248119287192821503e-03
1.936046779155731201e-01
5.308153107762336731e-02
-5.440182611346244812e-02
2.043816149234771729e-01
-2.813611328601837158e-01
-6.564132124185562134e-02
3.484626859426498413e-02
-1.296217143535614014e-01
2.705456018447875977e-01
7.133904844522476196e-02
-2.361244261264801025e-01
-1.111784279346466064e-01
-4.686833545565605164e-02
-1.376748234033584595e-01
-1.160557344555854797e-01
-5.557697638869285583e-02
-2.281850874423980713e-01
-1.859239637851715088e-01
6.180255860090255737e-02
1.482350677251815796e-01
1.580560803413391113e-01
-9.990112483501434326e-02
-8.537427335977554321e-02
-1.327522657811641693e-02
2.529788315296173096e-01
-2.794690728187561035e-01
1.976254880428314209e-01
1.006348580121994019e-01
-4.878885298967361450e-02
-5.561915412545204163e-02
-1.230589449405670166e-01
1.224909424781799316e-01
9.020369499921798706e-03
4.583754017949104309e-02
4.364911466836929321e-03
2.743434347212314606e-02
-1.825365126132965088e-01
-9.402397274971008301e-02
1.570387976244091988e-03
1.397660523653030396e-01
4.870932176709175110e-02
-2.856878796592354774e-03
-3.666362762451171875e-01
-1.157687231898307800e-01
5.696114897727966309e-02
-2.076113820075988770e-01
1.290942542254924774e-02
-1.221197247505187988e-01
4.692599177360534668e-02
-3.461338952183723450e-02
2.019946426153182983e-01
-1.680528223514556885e-01
-4.345301073044538498e-03
-9.512745589017868042e-02
-1.638138443231582642e-01
-3.967989385128021240e-01
9.331441670656204224e-02
1.341695636510848999e-01
4.201135132461786270e-03
-1.390329748392105103e-01
-3.160190954804420471e-02
-1.112705767154693604e-01
3.769840002059936523e-01
2.470439672470092773e-01
-3.486000895500183105e-01
-1.901464462280273438e-01
-1.373042017221450806e-01
2.748681902885437012e-01
-8.185519278049468994e-02
4.174805879592895508e-01
-1.586492545902729034e-02
-5.337363108992576599e-02
1.470323950052261353e-01
-1.144866347312927246e-01
8.651946485042572021e-02
1.638498604297637939e-01
-6.610749661922454834e-02
-1.725488454103469849e-01
-7.745280861854553223e-02
1.119548156857490540e-01
2.042317688465118408e-01
1.304670572280883789e-01
1.535412967205047607e-01
3.574430570006370544e-02
1.169131025671958923e-01
-1.627531945705413818e-01
-1.161667108535766602e-01
-6.334485486149787903e-03
7.147189229726791382e-03
6.187836453318595886e-02
4.547870159149169922e-02
-2.230882272124290466e-02
-2.464055269956588745e-01
6.194026768207550049e-02
-7.698151469230651855e-02
1.953041553497314453e-01
-3.947207927703857422e-01
-2.424212396144866943e-01
2.567838132381439209e-01
-3.038937225937843323e-02
8.267840743064880371e-02
-1.611937284469604492e-01
1.709942370653152466e-01
-3.797291219234466553e-02
2.807352244853973389e-01
-4.967527464032173157e-02
1.265566200017929077e-01
-6.985623389482498169e-02
-6.269331276416778564e-02
-6.837745197117328644e-03
-1.442190855741500854e-01
-7.071746885776519775e-02
1.480745375156402588e-01
-1.757979393005371094e-01
1.209794636815786362e-02
-1.086892187595367432e-01
-1.320058405399322510e-01
-2.626926265656948090e-02
1.463925093412399292e-01
-3.028299286961555481e-02
2.218575477600097656e-01
1.840465515851974487e-02
8.643908798694610596e-02
4.562478661537170410e-01
1.408823132514953613e-01
-2.049033194780349731e-01
-4.783134441822767258e-03
2.906511425971984863e-01
-6.329786777496337891e-02
-2.692273259162902832e-01
-2.419942915439605713e-01
1.744756698608398438e-01
2.227359563112258911e-01
2.539757192134857178e-01
-6.444515194743871689e-03
4.532929509878158569e-02
-1.871635578572750092e-02
-3.527900576591491699e-02
5.905145779252052307e-02
8.806895464658737183e-02
2.165781855583190918e-01
1.206900626420974731e-01
-1.789769530296325684e-01
2.191589623689651489e-01
2.989933490753173828e-01
-2.607180774211883545e-01
-1.118624359369277954e-01
3.557621538639068604e-01
-1.659125834703445435e-01
2.290647625923156738e-01
2.794653773307800293e-01
-9.743423014879226685e-02
1.369721889495849609e-01
-1.089510619640350342e-01
1.965706944465637207e-01
