-6.747354927938431501e-05
-8.293744758702814579e-05
-6.090690294513478875e-05
-5.793105447082780302e-05
-9.761591354617848992e-05
-1.130022865254431963e-04
-1.235452509718015790e-04
-7.476616156054660678e-05
-5.402383976615965366e-05
-1.344638440059497952e-04
-1.671633508522063494e-04
-4.468693441594950855e-05
-6.680368096567690372e-05
-7.564436236862093210e-05
-5.886011786060407758e-05
-2.080186386592686176e-04
-7.229566836031153798e-05
-5.149390199221670628e-05
-5.207868525758385658e-05
-6.324828427750617266e-05
-2.544903836678713560e-04
-4.492473090067505836e-05
-5.250049071037210524e-05
-6.505577766802161932e-05
9.769442840479314327e-06
-2.999602002091705799e-04
-5.019603122491389513e-05
-4.819511741516180336e-05
-5.618397335638292134e-05
-4.902588261757045984e-05
-3.431743534747511148e-04
-4.698819248005747795e-05
-5.818984573124907911e-05
-6.618139741476625204e-05
-1.000599013423197903e-06
-3.758368548005819321e-04
-1.068893034243956208e-04
-5.968913319520652294e-05
-6.445214967243373394e-05
-7.821517647244036198e-05
-4.128637956455349922e-04
-1.597657501406501979e-05
-5.716401938116177917e-05
-5.279385368339717388e-05
-6.624755042139440775e-05
-4.394827410578727722e-04
-4.759294461109675467e-05
-5.691911428584717214e-05
-6.243285315576940775e-05
-6.605438829865306616e-05
-4.762748721987009048e-04
-9.472997044213116169e-05
-6.492437387350946665e-05
-6.277713691815733910e-05
-4.876625098404474556e-05
-5.114548839628696442e-04
-7.562176324427127838e-05
-5.454487109091132879e-05
-5.877934381715022027e-05
-7.035363523755222559e-05
-5.380408256314694881e-04
-3.068239675485529006e-05
-5.928394239163026214e-05
-6.329559255391359329e-05
-5.478382445289753377e-05
-5.669983220286667347e-04
-8.913172496249899268e-05
-5.309589323587715626e-05
-5.953329673502594233e-05
-6.119928002590313554e-05
-5.912021151743829250e-04
-2.251331125080469064e-06
-5.693546700058504939e-05
-5.849590161233209074e-05
6.174209829623578116e-06
-6.161741330288350582e-04
9.083953955268952996e-06
9.077082722797058523e-06
-1.397076175635447726e-05
1.095101197279291227e-05
-6.509359809570014477e-04
-3.940618626074865460e-06
-2.645555014169076458e-06
-1.417057774233398959e-05
1.363829596812138334e-05
-6.770727923139929771e-04
6.458336429204791784e-06
-1.774340671545360237e-05
-1.089523266273317859e-06
-1.009762968351424206e-06
-6.874966202303767204e-04
5.401040652941446751e-06
-5.393592800828628242e-06
-7.647425263712648302e-06
-4.045128662255592644e-06
-7.119295187294483185e-04
-1.400885503244353458e-05
3.586745151551440358e-06
4.055438864725147141e-07
-5.813762527395738289e-06
-7.347571663558483124e-04
-2.565344402682967484e-06
7.130939820854109712e-07
-5.138170308782719076e-06
7.768057344037515577e-07
-7.474151789210736752e-04
1.189238446386298165e-06
-9.138891527982195839e-07
-1.248976241186028346e-05
7.073846290950314142e-07
-7.660803967155516148e-04
-8.548631740268319845e-06
-1.822540866669442039e-06
8.104598805402929429e-07
-1.760057671162940096e-06
-7.832095143385231495e-04
7.246604582178406417e-06
6.494346962426789105e-06
-6.840634227955888491e-07
2.464175850036554039e-06
-8.026775321923196316e-04
9.420465175935532898e-06
3.515094704198418185e-06
1.148246610682690516e-06
-1.040593087964225560e-05
-8.147666230797767639e-04
-5.071974101156229153e-06
-2.114542212439118885e-07
1.100719509850023314e-05
-1.316367524850647897e-05
-8.412463939748704433e-04
5.245313332125078887e-06
-6.871980986034031957e-06
-5.301628334564156830e-06
4.820724370802054182e-07
-8.617913699708878994e-04
9.773953024705406278e-06
-8.950672167884476949e-07
1.371991743326361757e-06
8.859474265321409803e-10
-8.778359624557197094e-04
-3.655694627013872378e-06
-4.719473054137779400e-06
-3.804309187671606196e-07
1.149249055742984638e-05
-8.926799055188894272e-04
3.254420562370796688e-06
1.532387045699579176e-06
2.476674126228317618e-06
-6.485251560661708936e-06
1.003011766442796215e-05
-4.663161598728038371e-05
2.246410076622851193e-06
4.795617769559612498e-06
2.859723053916241042e-06
-5.431320005300221965e-06
5.389467787608737126e-06
5.026062694923894014e-07
-6.303705595200881362e-05
-1.068099209078354761e-05
-4.053689735883381218e-06
9.643117664381861687e-06
4.924691438645822927e-06
1.510649212832504418e-06
-6.687876884825527668e-05
4.007452844234649092e-06
8.884089766070246696e-06
-8.224061275541316718e-06
-6.340349045785842463e-06
-3.056546802326920442e-06
-4.864717993768863380e-05
1.933763087436091155e-05
-3.951208782382309437e-05
-2.715817799980868585e-06
-4.677746687775652390e-07
-3.050754173727909802e-07
-2.886185711759026162e-06
-6.921381282154470682e-05
-1.867787091214268003e-06
1.356164375465596095e-06
-2.793571525216975715e-07
-1.292700289923232049e-05
8.646817150292918086e-06
-6.502660107798874378e-05
-9.166282097794464789e-07
3.915686193067813292e-07
4.117401658731978387e-06
-5.381531082093715668e-06
3.469212970230728388e-06
-6.609004049096256495e-05
7.375558652711333707e-06
-4.693477421824354678e-06
-1.500534722254087683e-06
-4.308842108002863824e-06
6.172871962917270139e-06
-3.881995144183747470e-05
2.765708359220298007e-06
-3.378719702595844865e-05
7.707035933890438173e-07
1.232931481354171410e-05
-2.112468990844718064e-07
-8.256070577772334218e-05
1.611224433872848749e-05
1.256650830327998847e-05
4.029981027997564524e-06
5.088768872951732192e-08
-2.045548626483650878e-06
2.580991576905944385e-06
-5.606505510513670743e-05
-7.558113793493248522e-06
-1.025398614729056135e-05
-1.670277924858964980e-05
2.124006186932092533e-06
1.186324607260758057e-05
-5.399985820986330509e-05
4.265370989742223173e-06
-7.182539320638170466e-06
8.067393537203315645e-06
-1.667010337769170292e-06
7.599685886816587299e-06
-7.613267371198162436e-05
4.099807938473531976e-06
-1.460698285882244818e-06
5.615971076622372493e-06
-3.747417167687672190e-06
-5.757000053563388065e-06
-7.547196582891047001e-05
2.066301749437116086e-05
-2.062916064460296184e-05
-1.395470576426305342e-06
-8.701420483703259379e-06
6.295260845945449546e-06
-2.868255251087248325e-06
-7.541966624557971954e-05
2.394389866822166368e-06
5.173154477233765647e-06
1.176654041046276689e-05
-6.056036454538116232e-06
-5.639825303660472855e-06
-8.360459469258785248e-05
-2.979973032779525965e-06
6.102160114096477628e-06
1.045056251314235851e-05
-1.923711124618421309e-06
7.914794878161046654e-06
-4.605456706485711038e-05
7.560383892268873751e-06
2.348943098695599474e-06
7.858584467612672597e-06
3.612314458223409019e-06
-6.737073817930649966e-06
-6.317665247479453683e-05
1.203960800921777263e-05
1.441057429474312812e-05
-5.386422799347201362e-06
-8.976801836979575455e-06
4.340922146184311714e-07
5.651746960211312398e-06
-6.035847400198690593e-05
4.953980806021718308e-06
-4.531292688625399023e-06
2.498604089851141907e-06
1.306851800109143369e-06
5.227548172115348279e-06
-5.643755503115244210e-05
-1.349028116237604991e-05
2.510985950721078552e-06
6.517637416436627973e-07
6.562273938470752910e-06
-5.478963430505245924e-05
-9.027724445331841707e-06
-4.161308879702119157e-06
-7.356526111834682524e-06
1.766491095622768626e-06
-6.186639893712708727e-06
-8.534001608495600522e-06
-5.928414611844345927e-05
5.711600351787637919e-06
-4.806923698197351769e-06
-8.163100346791907214e-07
4.696414180216379464e-06
8.731227353564463556e-06
-2.685187610040884465e-06
-4.692274887929670513e-05
2.938083298431592993e-06
-8.994561540021095425e-06
-7.245140295708552003e-06
8.862665708875283599e-06
-7.235016255435766652e-06
-6.776113878004252911e-05
-5.424173195933690295e-06
-5.831250291521428153e-06
1.241647737515449990e-06
8.877376785676460713e-06
-7.049505711620440707e-06
-6.556519656442105770e-05
-6.656749974354170263e-06
6.763959390809759498e-06
1.621106804350347375e-07
-4.980450285074766725e-06
-6.527592631755396724e-06
-7.831518450984731317e-05
1.957890344783663750e-05
4.532991169980959967e-06
9.658935596235096455e-06
-1.055726897902786732e-05
-3.213031050108838826e-06
-7.703113737989042420e-07
-4.568169606500305235e-05
4.300247383071109653e-06
-5.127929853188106790e-06
-4.565630206343485042e-06
-4.125295163248665631e-06
6.392219347617356107e-06
-5.695455911336466670e-05
-8.323110705532599241e-06
7.241899879772972781e-07
-1.694691673037596047e-05
-1.157213432634307537e-06
-5.418207729235291481e-05
4.901542070001596585e-06
1.172064685306395404e-06
5.456429789774119854e-06
6.785130153730278835e-06
1.620474176888819784e-05
1.117061037803068757e-05
-1.417357270838692784e-05
-6.328232120722532272e-05
1.335953402303857729e-05
4.351043571659829468e-06
4.331285254011163488e-06
5.061403385298035573e-07
-6.265525826165685430e-06
-6.128202221589162946e-05
5.852761660207761452e-06
1.340182188869221136e-05
-1.460271505493437871e-06
-1.629916914680507034e-05
-5.244094154477352276e-06
-4.938311030855402350e-05
4.154932867095340043e-06
1.045193221216322854e-05
3.453958470345241949e-06
5.815845270262798294e-06
9.091349966183770448e-06
-5.062336276751011610e-05
-1.588916347827762365e-05
8.060649747676507104e-07
-2.129771559111759416e-07
1.100034296541707590e-05
2.143358983630605508e-07
-7.348724466282874346e-05
-9.945179954229388386e-06
1.130898453993722796e-05
1.806570367079984862e-06
-4.871233159065013751e-07
-8.819872618914814666e-07
3.069447302550543100e-06
-5.708177195629104972e-05
9.056931276063551195e-07
-1.170026916952338070e-05
-8.786108992353547364e-06
-1.931776296260068193e-06
7.201174412330146879e-06
-5.964767478872090578e-05
-9.513808549854729790e-07
-7.283252216438995674e-06
1.784623805178853218e-06
3.033724397027981468e-06
1.041937366608181037e-06
-5.743449219153262675e-05
-1.094151502911699936e-05
-2.858980678865918890e-06
-9.685975328466156498e-07
7.937713917272049002e-07
5.494022843777202070e-06
-7.707298937020823359e-05
-4.905976425106928218e-07
-4.044801187319535529e-07
1.545949817227665335e-05
8.645744856039527804e-06
-1.786879806786600966e-06
3.737034148798556998e-06
-6.072364703868515790e-05
1.502806981079629622e-06
5.007439540349878371e-06
5.891530690860236064e-06
2.717532424867385998e-06
-1.014532244880683720e-05
-5.427436553873121738e-05
-1.356516713713062927e-05
-2.463154714860138483e-06
-3.906793153873877600e-06
9.151683002528443467e-07
1.232373506354633719e-06
-6.508223304990679026e-05
-4.953222742187790573e-06
-2.885019739551353268e-06
1.295309402848943137e-06
9.018288437800947577e-06
4.457846898731077090e-06
-2.666938235051929951e-05
-5.235778371570631862e-05
5.631525255012093112e-06
-2.010640173466526903e-06
-9.602726095181424171e-06
1.194049673358676955e-05
8.737788448343053460e-06
-5.996465552016161382e-05
-1.566100218042265624e-05
-1.237541255250107497e-06
1.206756564897659700e-06
7.305574399651959538e-06
-3.207683676009764895e-06
-5.895888534723781049e-05
9.620018317946232855e-06
-1.591088334862433840e-06
4.600526608555810526e-06
-2.423698788334149867e-06
-7.389118081846390851e-07
-6.615588063141331077e-05
-1.986710913115530275e-06
-1.457614143873797730e-05
-1.569306732562836260e-05
2.370537458773469552e-06
-5.363961918192217126e-06
-4.278919732314534485e-05
-1.974110637092962861e-05
9.979924470826517791e-06
-3.250614781791227870e-06
7.382095191132975742e-06
6.277883585426025093e-06
-3.860581273329444230e-06
-5.590041473624296486e-05
-2.706722398215788417e-06
5.205678917263867334e-06
-8.046244147408287972e-06
4.796521579919499345e-08
1.253905429621227086e-05
-4.733990499516949058e-05
4.580544441523670685e-07
-3.214351409042137675e-06
-3.161114136673859321e-06
-1.785894028216716833e-06
5.387522833188995719e-06
-5.898365270695649087e-05
-9.321080938207160216e-07
-1.624991568860423286e-06
-5.147942374605918303e-07
-4.638367954612476751e-06
-3.361048584338277578e-06
-7.537247438449412584e-05
2.169485014746896923e-05
1.446160695195430890e-05
1.023003187583526596e-05
-3.087678123847581446e-06
-7.645145956303167623e-07
3.253933655855689722e-08
-5.951614002697169781e-05
6.285459676291793585e-06
-1.228882183568202890e-06
1.718979092402150854e-06
-6.053764991520438343e-06
-7.867872227507177740e-06
-5.607384446193464100e-05
-3.351138047946733423e-06
-3.015576339748804457e-06
-9.367274287797044963e-06
3.015203901668428443e-06
-1.082873313862364739e-05
-5.701031477656215429e-05
1.021478965412825346e-05
-9.691246305010281503e-06
-4.510485723585588858e-06
-7.327455932681914419e-06
-1.441996232642850373e-06
-3.123124042758718133e-05
-2.097935430356301367e-05
-2.454338527968502603e-06
1.252305537491338328e-06
-3.745151843759231269e-06
1.902198846437386237e-06
4.583753707265714183e-06
-6.323287379927933216e-05
-1.013764631352387369e-05
-6.641322670475346968e-06
2.914935066655743867e-07
-1.485088546360202599e-06
5.763615263276733458e-06
-5.885253995074890554e-05
-7.800535058777313679e-06
5.839926416228991002e-06
-3.469283001322764903e-06
-1.654102925385814160e-05
1.036136268339760136e-06
-5.660734314005821943e-05
-9.235431207343935966e-06
1.490944305260200053e-05
6.028158622939372435e-06
9.831285751715768129e-06
-3.825551289082795847e-07
-8.656110730953514576e-05
5.817188593937316909e-06
1.026880090648774058e-05
6.265769115998409688e-06
-1.971422761926078238e-06
9.176942512567620724e-07
2.895472107411478646e-06
-6.988592213019728661e-05
-1.188976284538512118e-06
4.691053618444129825e-06
-8.852086466504260898e-06
-1.069454447133466601e-05
-3.004556674568448216e-06
-5.121572394273243845e-05
4.070294380653649569e-06
-1.500190955994185060e-05
6.033932095306226984e-06
-7.073988854244817048e-06
-4.722893208963796496e-05
2.428837433399166912e-06
-6.280886736931279302e-06
5.549141860683448613e-06
1.452996912121307105e-06
-9.038294592755846679e-06
-7.784213812556117773e-05
3.847754669550340623e-06
1.593837168911704794e-06
-1.877389991022937465e-06
-1.903572297123901080e-06
-5.159985084901563823e-05
2.152787374143372290e-06
1.777105467226647306e-07
4.397870725370012224e-06
3.083226602029753849e-06
-5.819355646963231266e-05
-2.049031991191441193e-06
-3.663420329758082516e-06
-6.883429250592598692e-06
-1.938865352713037282e-07
-6.502152245957404375e-05
6.614954600081546232e-06
3.142386731269652955e-06
1.817680981730518397e-06
1.861905161604227033e-06
-7.169021409936249256e-05
2.853155365301063284e-06
-5.903719284106045961e-06
1.984207983696251176e-06
5.891510227229446173e-06
-6.236725312191992998e-05
1.472931398893706501e-05
7.608761279698228464e-06
1.669485754973720759e-06
3.940349415643140674e-06
-7.040932541713118553e-05
-2.961388190669822507e-06
9.755967766977846622e-07
2.281229171785525978e-06
1.342599603049166035e-06
-5.924220022279769182e-05
-6.255930884435656480e-07
-1.507920615040347911e-06
-1.497076482337433845e-05
4.309038558858446777e-06
-5.945174780208617449e-05
1.719775355013553053e-05
-3.451074917393270880e-06
-2.810649448292679153e-06
-6.801717063353862613e-06
-5.207073991186916828e-05
-6.174318514240439981e-06
-3.378600013093091547e-06
2.637803618199541233e-06
4.021925178676610813e-06
-4.673178045777603984e-05
1.492300725658424199e-06
1.154809979198034853e-06
3.849466338579077274e-06
-7.166796422097831964e-06
-7.648962491657584906e-05
1.187050111184362322e-05
-3.728352112375432625e-06
-8.876026186044327915e-06
-1.115606119128642604e-05
-5.466995935421437025e-05
-1.466866160626523197e-05
-1.213649397868721280e-06
-2.000716222028131597e-06
1.814511165321164299e-06
-6.159199983812868595e-05
1.098323627957142889e-05
-7.359302003351331223e-07
1.265633090952178463e-05
1.590388251315744128e-06
-6.930655217729508877e-05
-6.267528078751638532e-06
1.036677349475212395e-05
1.117346528189955279e-05
1.000726388156181201e-05
-3.303225821582600474e-05
8.886202067515114322e-07
-1.455599885957781225e-05
-3.907122300006449223e-05
4.623776840162463486e-05
1.595850153535138816e-05
2.217565634055063128e-05
-3.793423729803180322e-06
-2.031927351708873175e-06
-2.288307041453663260e-05
-1.353999778075376526e-05
1.695707510407373775e-06
-4.501823696045903489e-06
2.429079358989838511e-05
4.221397830406203866e-06
-6.247655255720019341e-05
-1.152515233115991578e-05
7.128575362003175542e-06
4.281650035409256816e-06
-9.816098099690862000e-06
-4.492821608437225223e-05
4.910461484541883692e-06
-4.061219442519359291e-05
7.555583124485565349e-06
-1.728850656945724040e-05
2.175315603381022811e-05
1.467676793254213408e-05
-2.765223143796902150e-06
1.665467607381287962e-06
-9.780284017324447632e-06
2.178882641601376235e-05
2.162351665901951492e-05
-7.173377980507211760e-06
-1.514285850134911016e-05
1.792224611563142389e-05
8.339273335877805948e-06
-2.784196112770587206e-05
-4.558910586638376117e-05
5.248127308732364327e-06
-1.698396408755797893e-05
-3.871988155879080296e-05
3.745712774616549723e-06
-3.679779183585196733e-05
-5.704460636479780078e-05
-5.214165412326110527e-06
-2.252959120596642606e-06
-8.090129085758235306e-06
-6.019218744768295437e-06
7.652142812730744481e-06
-7.573445145681034774e-06
-5.993742888676933944e-05
6.936840236448915675e-06
2.021212367253610864e-06
5.444061389425769448e-05
-6.160998054838273674e-06
-8.355231329915113747e-06
2.739318551903124899e-05
-3.470428282525972463e-06
-4.963066749041900039e-05
-1.581074866408016533e-05
7.204454959719441831e-06
1.394716127833817154e-05
-4.936061941407388076e-06
-8.312390855280682445e-05
1.218311990669462830e-05
-2.779939677566289902e-05
1.366742799291387200e-05
4.925683242618106306e-06
5.224694177741184831e-06
2.358803067181725055e-05
3.318933886475861073e-05
-7.491033102269284427e-06
-3.163032488373573869e-06
9.444855095352977514e-06
-7.524336251663044095e-05
-5.684805728378705680e-05
1.565551610838156193e-05
-8.797282134764827788e-06
-1.414566577295772731e-05
1.701549649624212179e-06
-5.921509909967426211e-06
5.896622496948111802e-06
1.145388250733958557e-05
2.279254294990096241e-05
-3.535978294166852720e-06
7.156903848226647824e-06
3.045420726266456768e-06
-7.365784404100850224e-05
8.312645149999298155e-06
8.972421596808999311e-07
-5.768776100012473762e-05
1.604602584848180413e-05
-7.480617932742461562e-05
-3.887823368131648749e-06
-3.425706836424069479e-06
1.384715488939036732e-07
-6.974423740757629275e-06
1.369513483950868249e-05
-5.584006066783331335e-05
4.012234512629220262e-06
9.241525731340516359e-06
-3.707715950440615416e-05
3.748188464669510722e-05
1.069570589606883004e-05
-4.182336851954460144e-05
5.206429250392829999e-06
-7.119881956896279007e-06
-1.488539692218182608e-05
7.840497346478514373e-06
-2.440681328153004870e-06
-6.723620026605203748e-05
3.471497984719462693e-05
-2.048541500698775053e-05
-5.620255251415073872e-06
-2.658753692230675370e-05
5.176002741791307926e-05
-1.051482649927493185e-05
1.726852315186988562e-05
-6.221885541890515015e-06
-2.242564551124814898e-05
1.711806362436618656e-06
-2.077979843306820840e-05
-2.292057797603774816e-05
7.366215140791609883e-05
-8.699779573362320662e-05
-1.619499198568519205e-05
-1.406668252457166091e-05
1.039121798385167494e-05
-1.549949274703976698e-06
-7.688135156058706343e-06
-1.173813780042110011e-05
3.200157516403123736e-05
-4.813574832951417193e-06
-3.130091499770060182e-06
-6.537987701449310407e-06
-5.396553751779720187e-05
3.526181899360381067e-06
9.813810720515903085e-06
-4.444460864760912955e-05
-8.009166776901111007e-06
-1.514884388598147780e-06
-5.732698264182545245e-05
-7.201354037533747032e-07
-7.669349542993586510e-06
-1.213630002894205973e-05
-4.697757049143547192e-06
-5.369048085412941873e-05
-4.988796717952936888e-06
-8.284944669867400080e-06
-2.887019945774227381e-05
-3.535488940542563796e-05
-2.521623537177219987e-05
-3.381476290087448433e-06
8.074582729022949934e-05
-5.254378265817649662e-05
1.083320512407226488e-05
-1.859454096120316535e-05
-1.125840026361402124e-05
2.446094549668487161e-05
-1.631258237466681749e-05
6.860982466605491936e-06
1.004940827442624141e-06
-1.423037332415333367e-07
-1.045422209244861733e-06
-1.283844085264718160e-05
6.190981821418972686e-06
-4.853924474446102977e-05
1.469970129619468935e-06
-4.450072992767672986e-06
2.189184488088358194e-05
8.376648111152462661e-06
8.156941476045176387e-06
1.260343742615077645e-05
-1.866159254859667271e-05
-4.450997948879376054e-06
2.849282964234589599e-06
-9.991149454435799271e-06
-2.327419133507646620e-05
1.301889187743654475e-05
-1.942501330631785095e-05
3.382429713383316994e-05
-6.997413947829045355e-06
-8.875124876794870943e-06
-3.843877129838801920e-05
-1.276041894016088918e-05
-2.098911181747098453e-06
-2.996147486555855721e-05
-1.135158709075767547e-05
-4.958477802574634552e-06
4.848548542213393375e-06
-4.723752135760150850e-05
4.887282102572498843e-06
4.033876393805257976e-06
-6.683927495032548904e-05
-3.226109356546658091e-06
-2.324052729818504304e-06
-6.141542689874768257e-05
-9.939342362486058846e-07
-1.394589071423979476e-05
5.232057446846738458e-06
1.604128010512795299e-05
9.676082299847621471e-06
1.339314934512003674e-07
6.294504601100925356e-06
1.012088432617019862e-06
-1.513053666712949052e-05
-1.631199302210006863e-05
-4.722242920252028853e-06
9.566571179675520398e-08
4.737099175144976471e-07
-8.330741252393636387e-07
-5.409209734352771193e-06
-7.700641617702785879e-06
-7.348076906055212021e-05
-1.218363922816934064e-05
-5.051215907769801561e-07
6.925658453837968409e-06
6.219509486982133240e-06
2.289016265422105789e-06
-4.243571311235427856e-06
-5.438075731944991276e-06
7.773430297675076872e-06
-2.549412783992011100e-06
-5.621122454613214359e-06
6.882066372781991959e-06
4.898919996776385233e-06
1.835743660194566473e-06
-4.731204626295948401e-06
5.443754616862861440e-06
5.583456186286639422e-06
-5.965451418887823820e-05
6.405939529940951616e-06
-4.341914973338134587e-06
-5.154440805199556053e-05
-8.320967936015222222e-06
1.157993847300531343e-05
5.981078174954745919e-06
3.964473762607667595e-06
-2.456735956002376042e-06
-5.662926560034975410e-05
7.259386591613292694e-03
-1.643605157732963562e-02
-7.100213784724473953e-03
-1.240124180912971497e-02
-1.304658502340316772e-02
-2.199744340032339096e-03
9.457931853830814362e-03
4.062940366566181183e-03
4.446749016642570496e-02
1.414260081946849823e-02
-9.817132726311683655e-03
2.821839181706309319e-03
1.077999453991651535e-02
-7.306631654500961304e-03
-1.533607020974159241e-02
-9.315360337495803833e-03
-9.013323113322257996e-03
-1.340170856565237045e-04
-1.007844135165214539e-02
-8.074718527495861053e-03
6.095071788877248764e-03
1.754506863653659821e-02
-1.181401591747999191e-02
-1.422954816371202469e-02
-1.120178401470184326e-02
1.020021736621856689e-03
-2.495170757174491882e-02
8.687580935657024384e-03
-1.482549309730529785e-02
-5.635840818285942078e-03
-3.720618551596999168e-04
5.200874526053667068e-03
-1.511130016297101974e-03
-4.622938111424446106e-03
5.950078833848237991e-03
-6.390070077031850815e-03
-5.596157163381576538e-03
4.103315528482198715e-03
3.539581596851348877e-02
-1.643826998770236969e-02
-1.151465903967618942e-02
-3.609138540923595428e-03
-1.478823181241750717e-02
1.521878968924283981e-02
-1.438481733202934265e-02
-1.229968853294849396e-02
-6.797684822231531143e-03
-1.099336240440607071e-02
1.619533821940422058e-02
-1.471039094030857086e-02
-5.911121144890785217e-03
-1.175826974213123322e-02
-3.148762276396155357e-03
-1.645616628229618073e-02
-5.578285083174705505e-03
-8.017852902412414551e-03
2.423136262223124504e-03
5.160696059465408325e-02
-1.474044751375913620e-02
-1.644729077816009521e-02
-5.128839256940409541e-05
-1.658401638269424438e-02
4.898174665868282318e-03
-1.264490769244730473e-03
-3.586538601666688919e-03
-4.402321763336658478e-03
1.809957437217235565e-03
-1.644947007298469543e-02
-9.048125706613063812e-03
-1.080909394659101963e-03
-2.721276134252548218e-03
1.216146908700466156e-02
-9.087229147553443909e-03
-1.644602976739406586e-02
-3.039144910871982574e-03
-1.997340470552444458e-03
-1.339970529079437256e-02
-1.843709871172904968e-02
-1.167416665703058243e-02
7.453909143805503845e-03
1.137141976505517960e-02
-6.980595644563436508e-03
4.428561776876449585e-03
-1.433391775935888290e-02
-1.026578713208436966e-02
-9.107606485486030579e-03
-6.207444239407777786e-03
4.054238647222518921e-02
-1.099025551229715347e-02
-1.166649349033832550e-02
-1.409949548542499542e-02
-2.304327244928572327e-05
-1.643200591206550598e-02
1.742676366120576859e-03
-1.066404487937688828e-02
2.281746827065944672e-02
-1.311396528035402298e-02
-1.644291356205940247e-02
-9.769149124622344971e-03
-7.986375130712985992e-03
-1.641141436994075775e-02
-6.387242116034030914e-03
-5.567896179854869843e-03
-3.311887150630354881e-03
-1.215426810085773468e-02
-6.357419770210981369e-04
6.014817953109741211e-02
-9.856300428509712219e-03
2.650813898071646690e-03
-6.544142030179500580e-03
-8.962803520262241364e-03
-5.871730856597423553e-03
3.133046999573707581e-02
6.500544492155313492e-03
-1.644650287926197052e-02
-5.726180505007505417e-03
-1.644679531455039978e-02
-1.643814332783222198e-02
-9.152759797871112823e-03
-5.642135161906480789e-03
2.258609747514128685e-03
3.549512848258018494e-02
-3.514697076752781868e-03
-1.645129173994064331e-02
-5.786501802504062653e-03
-1.032538060098886490e-02
9.203510358929634094e-03
6.694204173982143402e-03
3.110894933342933655e-02
-6.608068943023681641e-03
-3.257592208683490753e-03
-7.863853126764297485e-03
8.008066564798355103e-03
-1.644757948815822601e-02
-5.959334317594766617e-03
-7.582217454910278320e-03
-1.094971038401126862e-02
-4.680718295276165009e-03
-1.212717406451702118e-02
1.096609234809875488e-02
2.362671075388789177e-04
-6.885986775159835815e-03
-6.985037587583065033e-03
-7.571875117719173431e-03
-9.170348756015300751e-03
-8.543826406821608543e-04
-9.002084843814373016e-03
-3.900816664099693298e-03
-3.507246728986501694e-03
-1.078081037849187851e-02
2.480692788958549500e-02
-9.495174163021147251e-04
1.558117102831602097e-03
1.996050216257572174e-02
8.113735355436801910e-03
-1.645666174590587616e-02
1.798340864479541779e-02
-4.158187191933393478e-03
-1.644769497215747833e-02
-8.114604279398918152e-03
-4.373242147266864777e-03
-7.684019859880208969e-03
3.873689332976937294e-03
-4.925917368382215500e-03
-1.016485411673784256e-02
4.400765057653188705e-03
-1.802439615130424500e-02
-8.997604250907897949e-03
-4.096925724297761917e-03
-6.152276881039142609e-03
3.937103319913148880e-03
1.780335907824337482e-03
-1.216892432421445847e-02
-8.181829936802387238e-03
-1.529933512210845947e-02
-1.643940433859825134e-02
5.796389887109398842e-04
5.411682184785604477e-03
-6.621747277677059174e-03
9.533041156828403473e-03
-8.220085874199867249e-03
-1.098010223358869553e-02
-1.259319111704826355e-02
2.682016638573259115e-04
-1.645405776798725128e-02
-6.259009242057800293e-03
8.225960657000541687e-03
-5.114952218718826771e-04
-4.758961033076047897e-03
-7.019699085503816605e-03
2.108158543705940247e-02
-1.395503338426351547e-02
-1.034074579365551472e-03
-1.306258607655763626e-02
2.967816032469272614e-02
3.368600038811564445e-03
7.471568882465362549e-03
-1.657490618526935577e-02
4.224133864045143127e-02
2.006051130592823029e-02
-8.669377304613590240e-03
-1.028667110949754715e-02
8.425968699157238007e-03
-1.131152152083814144e-03
-1.644574105739593506e-02
-4.868993419222533703e-04
-3.973714541643857956e-03
-1.434184028767049313e-03
-1.046531461179256439e-02
-7.886589504778385162e-03
-2.714192669373005629e-04
-3.702215617522597313e-03
-1.073368452489376068e-02
-8.909672498703002930e-03
-3.349228762090206146e-03
-1.559411175549030304e-02
-4.079339094460010529e-03
-1.181077864021062851e-02
-6.894886959344148636e-03
-9.990800172090530396e-04
-6.983041297644376755e-03
-2.217862755060195923e-02
1.075421366840600967e-02
-1.224851980805397034e-02
-1.118008419871330261e-02
-1.497602369636297226e-02
-1.048011705279350281e-02
1.300746202468872070e-02
-8.425722829997539520e-03
-9.302182123064994812e-03
-1.644345186650753021e-02
-1.417014561593532562e-02
-1.454353239387273788e-02
-1.644368655979633331e-02
-2.269929088652133942e-02
-2.246061107143759727e-03
5.862354882992804050e-04
5.062654381617903709e-04
-4.593863617628812790e-03
-1.645376719534397125e-02
-1.643244735896587372e-02
5.789552349597215652e-03
-1.181206200271844864e-02
-1.044331304728984833e-02
-1.366104930639266968e-02
-4.655204247683286667e-03
-1.494301110506057739e-02
-1.226817909628152847e-02
-2.785254502668976784e-03
-2.672390313819050789e-03
3.643811494112014771e-02
-9.045836515724658966e-03
8.301837369799613953e-03
1.428066845983266830e-02
-8.119631558656692505e-03
-1.412245631217956543e-02
5.621738964691758156e-04
-8.306805044412612915e-03
-1.644859090447425842e-02
1.200190396048128605e-03
-8.423846215009689331e-03
1.404137909412384033e-02
-4.503047093749046326e-03
5.200370796956121922e-04
-1.193495281040668488e-02
-1.443552598357200623e-02
-1.644048653542995453e-02
-1.204446982592344284e-02
-4.031206481158733368e-03
-1.644489169120788574e-02
-1.426733750849962234e-02
1.950041949748992920e-02
-4.399407189339399338e-03
-1.286544487811625004e-03
-5.139520857483148575e-03
8.010398014448583126e-04
-1.252702344208955765e-02
3.703682916238903999e-03
5.542989820241928101e-03
-4.941721446812152863e-03
-1.169795915484428406e-02
-1.644234359264373779e-02
-1.182499248534440994e-02
1.415530592203140259e-02
-1.544712949544191360e-02
-4.003443289548158646e-03
-1.165547221899032593e-02
-8.427072316408157349e-03
4.957130551338195801e-02
-1.325526274740695953e-02
-1.630215160548686981e-02
-1.643119379878044128e-02
-1.046724896878004074e-02
-1.245327526703476906e-03
1.023680786602199078e-03
-1.528968941420316696e-02
-1.114987675100564957e-02
-4.599896259605884552e-03
-7.438997738063335419e-03
-9.064225479960441589e-03
-1.643962971866130829e-02
-1.191544532775878906e-02
-2.906530629843473434e-03
5.840211361646652222e-02
1.276726648211479187e-02
-6.510935258120298386e-03
-4.172900808043777943e-04
-1.644032634794712067e-02
2.437605336308479309e-02
4.866804927587509155e-02
-6.126858294010162354e-03
-1.116161141544580460e-02
1.321691647171974182e-02
-1.642397232353687286e-02
-7.778477855026721954e-03
-3.325079800561070442e-03
4.070509970188140869e-02
-1.007257588207721710e-02
-8.109371177852153778e-03
1.431908831000328064e-02
-6.930049043148756027e-03
-2.895311918109655380e-03
-3.128004958853125572e-03
-1.157249603420495987e-02
4.288922064006328583e-03
5.807609111070632935e-02
-8.164273574948310852e-03
4.904042929410934448e-02
-1.643843948841094971e-02
-5.771954543888568878e-03
5.352182313799858093e-03
-1.535196509212255478e-02
-1.591658778488636017e-02
-1.644505187869071960e-02
1.355705782771110535e-03
-4.313251934945583344e-03
9.606150910258293152e-03
-9.581820107996463776e-03
-1.080920081585645676e-02
-7.425460498780012131e-03
6.089644972234964371e-03
-1.219838298857212067e-02
-8.467164821922779083e-03
-1.409412082284688950e-02
-1.189380418509244919e-02
-2.654338022693991661e-03
-3.678465727716684341e-03
8.742108941078186035e-03
-3.258253214880824089e-03
3.623069962486624718e-03
1.476484816521406174e-02
-5.085968878120183945e-03
-6.556777749210596085e-03
-1.118310913443565369e-02
-3.811962204053997993e-03
-7.671851199120283127e-03
-8.727999404072761536e-03
-1.451773103326559067e-03
-1.644125580787658691e-02
-1.457386650145053864e-02
-1.234481460414826870e-03
-1.365915592759847641e-02
-8.492701686918735504e-03
4.974923096597194672e-03
-1.199209690093994141e-02
-1.014576386660337448e-02
-1.201659068465232849e-02
-3.617059905081987381e-03
-1.165622938424348831e-02
1.852899789810180664e-02
3.056751936674118042e-02
-1.446033827960491180e-02
-4.188084509223699570e-03
3.737196384463459253e-04
3.267327323555946350e-03
-1.252330746501684189e-02
-8.184341713786125183e-03
-5.072465166449546814e-03
5.329145118594169617e-03
4.625355824828147888e-03
3.361293347552418709e-04
-1.237406767904758453e-02
-1.644347608089447021e-02
-1.020284908008761704e-04
-1.480503380298614502e-02
3.001578617841005325e-03
1.370261795818805695e-02
-1.644388958811759949e-02
2.576357685029506683e-02
1.237508095800876617e-02
-1.119309943169355392e-02
1.179237291216850281e-02
-7.512002717703580856e-03
-1.643613539636135101e-02
-2.166222548112273216e-03
5.241064820438623428e-03
1.884855679236352444e-03
-1.315131690353155136e-02
3.134566918015480042e-02
-1.295831706374883652e-02
4.756236914545297623e-03
1.887335814535617828e-02
-5.396322812885046005e-03
-9.888577274978160858e-03
-1.437644846737384796e-02
-8.102612569928169250e-03
3.919264301657676697e-02
-7.361623458564281464e-03
9.914254769682884216e-03
-2.046380937099456787e-02
3.140453621745109558e-02
-9.139736182987689972e-03
-7.333317771553993225e-03
-4.885057453066110611e-03
8.103600703179836273e-03
-4.580466193147003651e-04
-9.557696990668773651e-03
-5.838103126734495163e-03
-2.955672563984990120e-03
-1.918324641883373260e-02
-3.982535563409328461e-03
-1.017315220087766647e-02
-1.510222442448139191e-02
-1.247192453593015671e-02
7.608704734593629837e-03
-2.131604356691241264e-03
-3.566087223589420319e-03
-1.511123497039079666e-02
-1.454293821007013321e-02
-3.306137397885322571e-03
-2.205399610102176666e-02
-7.513277232646942139e-03
-8.059018291532993317e-03
1.218111347407102585e-02
-8.247136138379573822e-03
3.714654222130775452e-02
8.480793330818414688e-04
1.488599367439746857e-02
-1.040283590555191040e-02
-1.530517544597387314e-02
-5.073993466794490814e-03
1.605492271482944489e-02
-1.328225526958703995e-02
-1.130206696689128876e-02
-8.012430742383003235e-03
-2.460371935740113258e-03
-1.210962794721126556e-02
2.553503960371017456e-03
-1.302449032664299011e-02
-6.686780601739883423e-03
-1.373644266277551651e-02
-9.717118926346302032e-03
7.065261248499155045e-03
-1.002375036478042603e-02
1.931445114314556122e-02
-1.645274460315704346e-02
-1.644860208034515381e-02
1.811940036714076996e-02
-1.307898201048374176e-02
4.724526777863502502e-03
-9.662659838795661926e-03
2.728464081883430481e-03
-1.643165387213230133e-02
-1.475464785471558571e-03
-6.569407414644956589e-03
3.286394756287336349e-03
-4.350931849330663681e-03
-4.251175560057163239e-03
-7.296269759535789490e-03
1.241429336369037628e-02
-1.539015094749629498e-03
-5.703018046915531158e-03
-9.315585717558860779e-03
-1.074871327728033066e-02
-5.404358264058828354e-03
-1.490404549986124039e-02
-1.445073448121547699e-02
-6.247680867090821266e-04
4.852291662245988846e-03
2.297619357705116272e-03
-3.174398560076951981e-03
3.958668932318687439e-02
-1.502293627709150314e-03
-9.951372630894184113e-03
1.479832688346505165e-03
4.300791304558515549e-03
-1.296002976596355438e-02
-7.044697646051645279e-03
2.157532842829823494e-03
4.560409113764762878e-03
-1.644216477870941162e-02
-1.235926989465951920e-02
1.395676657557487488e-02
-1.178925484418869019e-02
2.614414785057306290e-03
-8.133654482662677765e-03
4.657890647649765015e-03
1.674577035009860992e-02
-1.358451414853334427e-02
6.655707955360412598e-03
-1.332258433103561401e-02
-6.490203551948070526e-03
5.832432769238948822e-03
2.962630940601229668e-03
4.494919849094003439e-04
-5.593580193817615509e-03
-1.096088439226150513e-02
-3.753298195078969002e-03
-2.300888532772660255e-03
-7.279825396835803986e-03
-1.276559848338365555e-02
-8.608742617070674896e-03
-1.398816145956516266e-02
-3.857923438772559166e-03
-1.171852648258209229e-02
-1.536194048821926117e-02
-7.009059190750122070e-03
4.066401452291756868e-04
-2.620382234454154968e-03
-1.644178107380867004e-02
-8.565461263060569763e-03
-7.923765107989311218e-03
-9.513094089925289154e-03
3.317796811461448669e-02
-3.686466487124562263e-03
1.078774034976959229e-02
1.923857838846743107e-03
-1.107552181929349899e-02
9.293449111282825470e-04
1.435676217079162598e-02
-5.156171973794698715e-03
-1.036375202238559723e-02
-1.392910443246364594e-02
-3.245858242735266685e-03
-2.146250102669000626e-03
3.670400008559226990e-03
2.605229150503873825e-03
-4.009352065622806549e-03
-2.272326266393065453e-03
1.237086020410060883e-02
-1.644429378211498260e-02
-1.920839771628379822e-02
2.158852526918053627e-03
3.299661353230476379e-02
2.646116167306900024e-02
6.048368290066719055e-03
6.750547072442714125e-06
-3.217177465558052063e-03
-7.964640855789184570e-03
-9.981762617826461792e-03
-1.503925770521163940e-03
-3.767366288229823112e-03
-6.248299032449722290e-03
1.550992834381759167e-03
-1.133818272501230240e-02
-1.644163019955158234e-02
-7.644378114491701126e-03
2.210645377635955811e-02
-1.373225264251232147e-02
1.809575944207608700e-03
2.017832128331065178e-03
-5.971656180918216705e-03
7.594185881316661835e-03
-1.315675769001245499e-02
-8.519174531102180481e-03
1.016507763415575027e-02
-1.272031851112842560e-02
8.760335855185985565e-03
-9.692158550024032593e-03
-1.644612476229667664e-02
1.015865989029407501e-02
-7.278167642652988434e-03
-2.421805402263998985e-03
1.847888529300689697e-02
-8.416706696152687073e-03
-9.112386964261531830e-03
-1.135253626853227615e-02
-6.650368683040142059e-03
-3.695941762998700142e-03
-6.284253671765327454e-03
-8.365040645003318787e-03
-3.954531624913215637e-03
-8.248677477240562439e-03
-5.447764415293931961e-03
3.627137513831257820e-03
-3.194253658875823021e-03
6.513468921184539795e-03
1.556770224124193192e-02
-8.698462508618831635e-03
-5.026094615459442139e-03
-4.086674656718969345e-03
2.447562990710139275e-03
1.194857060909271240e-02
-4.932331852614879608e-03
-9.024435654282569885e-03
1.640212349593639374e-02
-1.335500460118055344e-02
1.333375182002782822e-02
1.299880724400281906e-02
-1.253744214773178101e-02
-1.318456046283245087e-02
-2.813518280163407326e-03
9.878102689981460571e-03
-6.507507525384426117e-03
7.542794104665517807e-03
2.558105625212192535e-03
-1.644678786396980286e-02
-8.466597646474838257e-03
2.563260262832045555e-03
-5.963142029941082001e-04
1.911052502691745758e-02
1.307610655203461647e-04
2.986974455416202545e-02
1.464221533387899399e-02
-1.643771864473819733e-02
-7.328556850552558899e-03
-1.049027126282453537e-02
-7.520159706473350525e-03
-1.644245907664299011e-02
-4.944523796439170837e-03
-1.640737242996692657e-02
-8.721788413822650909e-03
-8.953726850450038910e-03
-1.409723423421382904e-02
-5.219457205384969711e-03
-5.170348566025495529e-03
-1.038400083780288696e-02
-9.454103186726570129e-03
-1.633062399923801422e-02
2.037245780229568481e-03
-8.633024059236049652e-03
-9.050427936017513275e-03
-9.341016266262158751e-05
2.415688149631023407e-02
-7.811169140040874481e-03
-1.257067359983921051e-02
2.260049432516098022e-02
1.300990348681807518e-03
-1.094908360391855240e-02
1.742601278237998486e-03
-1.805393985705450177e-04
-5.116783082485198975e-03
-1.020080316811800003e-02
-9.510437026619911194e-03
-8.432519622147083282e-03
-1.178669836372137070e-02
-8.756925351917743683e-03
1.034021098166704178e-02
-9.537847712635993958e-03
4.179733991622924805e-02
-1.041485462337732315e-02
-2.187231788411736488e-03
8.106397464871406555e-03
-4.648489411920309067e-03
-6.421106518246233463e-04
1.014203391969203949e-02
-1.638974063098430634e-02
-4.446001723408699036e-03
-1.154875662177801132e-02
-7.014226634055376053e-03
-4.419656470417976379e-03
-6.230058148503303528e-03
-4.831431433558464050e-03
-4.753352608531713486e-03
-1.583668775856494904e-02
-1.028973609209060669e-02
2.926136180758476257e-02
2.092640352202579379e-04
-6.324218120425939560e-03
-9.257520548999309540e-03
1.398037839680910110e-02
-7.262640167027711868e-03
5.003135185688734055e-03
-5.956018809229135513e-03
4.573736339807510376e-03
-1.469251327216625214e-02
1.709394901990890503e-02
-2.126564271748065948e-02
8.892701007425785065e-03
-8.510343730449676514e-03
-1.644419878721237183e-02
-8.036796003580093384e-03
-1.243709027767181396e-02
-1.027501188218593597e-02
2.414852567017078400e-02
-3.262257436290383339e-03
-1.092092972248792648e-02
-6.872110534459352493e-03
-4.118137061595916748e-03
-1.126378681510686874e-02
2.874746546149253845e-02
2.579961530864238739e-02
-1.566755585372447968e-02
-7.286355685209855437e-05
-5.370208062231540680e-03
-8.833901025354862213e-03
-1.680158637464046478e-02
-2.187383361160755157e-03
-2.041873754933476448e-03
2.775830216705799103e-04
-1.033423840999603271e-02
4.518497269600629807e-03
7.333350367844104767e-03
1.166982925496995449e-03
8.114174008369445801e-03
-9.418782778084278107e-03
9.113851003348827362e-03
-8.063759654760360718e-03
-3.293205751106142998e-03
-2.572457538917660713e-03
-1.003639213740825653e-02
8.308460004627704620e-03
-5.567032378166913986e-03
2.629483863711357117e-02
-1.171483844518661499e-02
6.289860233664512634e-03
-1.061472459696233273e-03
6.730076856911182404e-03
-7.181727327406406403e-03
-5.832529626786708832e-03
7.014970178715884686e-04
-9.388238191604614258e-03
-1.644491031765937805e-02
8.300241082906723022e-03
-9.782884269952774048e-03
-1.053445599973201752e-02
-2.920423168689012527e-03
-9.030111134052276611e-03
-4.056883510202169418e-03
-1.566582359373569489e-02
-7.985828444361686707e-03
-1.366911735385656357e-02
-1.643504574894905090e-02
1.059396285563707352e-02
-1.230309065431356430e-02
-5.016521550714969635e-03
-9.617794305086135864e-03
1.654653623700141907e-02
6.439613178372383118e-03
1.255245506763458252e-02
-1.645385660231113434e-02
-1.355906482785940170e-02
1.993049122393131256e-02
-8.919125422835350037e-03
3.639052854850888252e-03
-9.532527066767215729e-03
-3.533679526299238205e-03
1.401485758833587170e-03
1.826130039989948273e-02
-1.095172017812728882e-02
-1.295147184282541275e-02
-1.645311713218688965e-02
-1.267977152019739151e-02
2.806300856173038483e-02
-3.921155352145433426e-03
2.476108493283390999e-04
4.428123938851058483e-04
-1.644333265721797943e-02
-4.578720778226852417e-03
-8.313280530273914337e-03
-7.595811970531940460e-03
-9.327366948127746582e-03
-5.682702176272869110e-03
-1.437103562057018280e-02
4.255163669586181641e-02
-1.644245721399784088e-02
6.514029228128492832e-04
-9.907131083309650421e-03
-1.643138565123081207e-02
-1.644326187670230865e-02
-9.525425732135772705e-03
7.696321699768304825e-04
-3.361161798238754272e-03
-8.640876039862632751e-03
-5.967437755316495895e-03
-1.644389890134334564e-02
3.039104864001274109e-03
-1.232116203755140305e-02
7.094006054103374481e-03
3.056993708014488220e-03
-1.205131178721785545e-03
3.419815748929977417e-02
3.524954430758953094e-03
1.271285209804773331e-02
1.697028242051601410e-02
7.909279316663742065e-03
2.780994167551398277e-03
-1.049594837240874767e-03
3.844477236270904541e-03
-1.498745754361152649e-02
-1.643862947821617126e-02
-2.058341167867183685e-03
2.154319733381271362e-02
6.228580605238676071e-04
-8.016877807676792145e-03
-1.375958882272243500e-02
-5.710592027753591537e-03
-5.351568572223186493e-03
-1.172061357647180557e-02
-5.492985248565673828e-03
-1.301987469196319580e-02
-1.252121105790138245e-02
1.533851120620965958e-02
-1.139138452708721161e-02
1.556492410600185394e-02
-4.851221572607755661e-03
-8.173867128789424896e-03
-4.335485398769378662e-03
-1.388218719512224197e-02
2.116343751549720764e-02
-1.100988447433337569e-04
-8.444486185908317566e-03
-1.138191670179367065e-02
2.441516518592834473e-02
-6.947753718122839928e-04
-7.365793921053409576e-03
-1.055879238992929459e-02
-1.115826424211263657e-03
6.619944702833890915e-03
-6.432763766497373581e-03
-1.150066126137971878e-02
-1.101963501423597336e-02
-6.163947400636970997e-04
-1.422557514160871506e-02
-1.270046643912792206e-02
-8.728525601327419281e-03
5.648767575621604919e-03
-1.017651241272687912e-02
-6.822652183473110199e-03
1.080389600247144699e-02
-8.493347093462944031e-03
2.436937205493450165e-02
4.217667505145072937e-03
-1.360650081187486649e-02
-1.001766230911016464e-02
9.551283903419971466e-03
-1.650975830852985382e-02
-1.146689616143703461e-02
-1.988648995757102966e-02
-1.133234519511461258e-02
4.020867496728897095e-02
8.728097192943096161e-03
-1.359770912677049637e-02
1.620735786855220795e-02
3.214908391237258911e-02
-6.402690429240465164e-03
-3.214262425899505615e-03
6.376286968588829041e-03
-5.985496100038290024e-03
-1.528475992381572723e-02
-5.774675402790307999e-03
-3.898358205333352089e-03
-2.584044821560382843e-03
3.565468266606330872e-02
-1.642965339124202728e-02
-8.391947485506534576e-03
-9.949926752597093582e-04
-1.474657910875976086e-03
-2.318699378520250320e-03
-1.480824779719114304e-02
1.739565399475395679e-03
-3.167025279253721237e-03
-3.957057837396860123e-03
8.987916633486747742e-03
-7.008012384176254272e-03
-4.157239571213722229e-03
-1.138695515692234039e-03
3.653991734609007835e-03
2.397762378677725792e-03
-8.280798792839050293e-03
4.133763257414102554e-03
9.077028371393680573e-03
-3.048750339075922966e-03
-9.949409868568181992e-04
-1.014785934239625931e-02
1.782099157571792603e-02
-8.374188095331192017e-03
-5.344789475202560425e-03
-1.643305085599422455e-02
1.078246720135211945e-02
1.331996917724609375e-02
2.438492886722087860e-02
6.529854144901037216e-03
-7.529595866799354553e-03
-7.888413965702056885e-03
-1.822349731810390949e-03
7.618279778398573399e-04
-1.110019907355308533e-02
-1.191287115216255188e-02
-3.373758168891072273e-03
-9.598436765372753143e-03
-9.590044617652893066e-03
-8.897522930055856705e-04
-1.296185515820980072e-02
-7.963791489601135254e-03
-9.169360622763633728e-03
-1.419911999255418777e-02
-7.521344348788261414e-03
-3.431317454669624567e-04
6.760191172361373901e-03
-1.242366433143615723e-02
-1.185053121298551559e-02
-1.215541362762451172e-02
-1.062026619911193848e-02
-5.130508914589881897e-03
7.427931763231754303e-03
2.325692772865295410e-02
3.168485825881361961e-03
-1.985107921063899994e-02
3.951292857527732849e-02
-8.219657465815544128e-03
-5.950179416686296463e-03
2.926077460870146751e-03
-1.328785996884107590e-02
-1.643998920917510986e-02
2.694833558052778244e-03
-8.830899372696876526e-03
-5.907428916543722153e-03
1.945018884725868702e-03
-7.661140989512205124e-03
-7.620559539645910263e-03
2.086140681058168411e-03
5.183810368180274963e-03
-8.071606978774070740e-03
-1.645102910697460175e-02
4.815165419131517410e-03
-1.643772050738334656e-02
-8.533303625881671906e-03
-9.957368485629558563e-03
-1.460451632738113403e-02
-9.917804971337318420e-03
-1.077112858183681965e-03
-1.393762184306979179e-03
2.129048667848110199e-02
-8.704133331775665283e-03
-6.013379897922277451e-03
-4.400115925818681717e-03
1.386098680086433887e-03
-8.846552111208438873e-03
6.276541855186223984e-03
-1.047918666154146194e-02
-1.643626391887664795e-02
1.012693159282207489e-02
-1.330997142940759659e-02
4.547232761979103088e-03
1.311354991048574448e-02
-3.568313783034682274e-03
1.592241926118731499e-03
4.843861330300569534e-03
-1.006613578647375107e-02
3.059916943311691284e-02
-1.142692752182483673e-02
2.671165205538272858e-02
-2.434037812054157257e-02
-2.398043638095259666e-03
-6.173476576805114746e-03
-4.896591417491436005e-04
-1.644436269998550415e-02
-1.393421646207571030e-02
-9.183446876704692841e-03
9.803600609302520752e-03
-1.410807203501462936e-02
2.406457066535949707e-02
1.401166897267103195e-02
-2.734695794060826302e-03
9.231462143361568451e-03
-1.550797955133020878e-03
4.146623250562697649e-04
-2.075995551422238350e-03
-1.225781999528408051e-02
-2.737127244472503662e-03
2.934714546427130699e-03
1.114507578313350677e-02
-1.281730271875858307e-02
-1.032227091491222382e-02
-4.245575517416000366e-03
-5.628827493637800217e-03
-1.752125658094882965e-02
-1.302694994956254959e-02
1.218467112630605698e-02
5.432949401438236237e-04
-1.644068211317062378e-02
-2.865729155018925667e-03
-1.488988474011421204e-02
-9.955884888768196106e-03
-1.323071215301752090e-02
-1.120967697352170944e-02
-1.643580570816993713e-02
5.482193082571029663e-03
-1.643516495823860168e-02
5.906434729695320129e-03
-5.549163557589054108e-03
-1.573489792644977570e-02
1.538235880434513092e-02
-6.768734659999608994e-03
1.259907055646181107e-02
-1.156122982501983643e-02
-8.985807187855243683e-03
3.125046845525503159e-03
-1.038466766476631165e-02
-9.659804403781890869e-03
-1.319032907485961914e-02
4.081274196505546570e-02
-2.944310661405324936e-03
8.813393302261829376e-03
-1.106414850801229477e-02
-4.152112640440464020e-03
-4.502837080508470535e-03
-1.072389632463455200e-02
-1.066363602876663208e-02
1.601641066372394562e-02
-5.233102478086948395e-03
-1.030821911990642548e-02
2.948979660868644714e-02
-1.321268361061811447e-02
9.188674157485365868e-04
-1.288812234997749329e-02
4.632692318409681320e-03
-2.389278495684266090e-03
-8.992647752165794373e-03
1.724745961837470531e-04
-7.197569124400615692e-03
-1.644979044795036316e-02
8.207249455153942108e-03
-8.562571369111537933e-03
-7.127266377210617065e-03
2.482583513483405113e-03
-9.735066443681716919e-03
-1.226760540157556534e-02
-1.100894808769226074e-02
-1.097172033041715622e-02
6.524796131998300552e-03
-1.401735562831163406e-02
-6.298673339188098907e-03
-9.402955882251262665e-03
-7.425832096487283707e-03
-2.008912619203329086e-03
4.510715976357460022e-02
3.202072903513908386e-02
4.104640334844589233e-03
1.895364024676382542e-03
7.170067634433507919e-03
-1.830331608653068542e-02
-6.219590082764625549e-03
1.567575708031654358e-02
-3.951207268983125687e-03
8.990463800728321075e-03
-1.017416920512914658e-02
-7.374474778771400452e-03
-1.634856127202510834e-02
6.450812332332134247e-03
-8.137925527989864349e-03
6.252235732972621918e-03
-5.285972729325294495e-03
-1.982615140150301158e-05
-5.014271009713411331e-03
-5.673942621797323227e-03
-7.957353256642818451e-03
1.757212099619209766e-03
6.896414794027805328e-03
-5.446944851428270340e-03
-6.818837951868772507e-03
3.387089527677744627e-04
4.371016100049018860e-02
3.059244528412818909e-02
-8.735370822250843048e-03
4.096758086234331131e-03
-1.643826253712177277e-02
-7.763536646962165833e-03
-1.644696481525897980e-02
2.678293175995349884e-02
5.476256483234465122e-04
-6.110366433858871460e-03
-3.792316420003771782e-03
-8.102239109575748444e-03
-9.693290106952190399e-03
-1.644120924174785614e-02
1.282397750765085220e-02
-1.644485816359519958e-02
-6.067877620807848871e-05
-4.163928329944610596e-03
-3.752730088308453560e-03
-7.757923565804958344e-03
-7.182675413787364960e-03
-1.363051123917102814e-02
-1.644286885857582092e-02
-5.233622156083583832e-03
5.625351797789335251e-03
-1.644773595035076141e-02
-1.186718419194221497e-02
-2.986144274473190308e-03
-3.612333443015813828e-03
1.465327478945255280e-02
-1.645839214324951172e-02
-8.978688158094882965e-03
-3.672839957289397717e-04
2.018943428993225098e-02
-1.305400766432285309e-02
7.484942674636840820e-03
-1.361919939517974854e-02
-1.457136590033769608e-02
-1.188360527157783508e-02
-9.612662717700004578e-03
-3.520071739330887794e-03
-1.709027565084397793e-03
5.030261352658271790e-03
-3.873732173815369606e-03
-1.106185372918844223e-02
-2.028319984674453735e-02
-1.643847487866878510e-02
-9.385271929204463959e-03
-9.284247644245624542e-03
-3.679682034999132156e-03
1.328837592154741287e-02
-1.034025195986032486e-02
-1.207317411899566650e-02
2.520566806197166443e-03
-9.805798530578613281e-03
-9.399401023983955383e-03
2.778203226625919342e-03
-1.645333878695964813e-02
-3.706059185788035393e-03
-7.643546443432569504e-03
-7.442698348313570023e-03
-3.451579250395298004e-03
-6.398757454007863998e-03
-1.204908546060323715e-02
-1.416927110403776169e-02
-9.246298111975193024e-03
5.319818388670682907e-03
-1.583737507462501526e-02
9.529212489724159241e-03
-8.379790931940078735e-03
2.777068584691733122e-04
-1.006247941404581070e-02
-1.800678484141826630e-02
7.645028177648782730e-03
-3.919087816029787064e-03
-1.131191290915012360e-02
-1.180341653525829315e-02
2.382122911512851715e-03
-1.422872673720121384e-02
5.118036642670631409e-03
-6.151283159852027893e-03
-1.133123040199279785e-02
-1.827525720000267029e-02
6.080167368054389954e-03
-1.101477537304162979e-02
-7.773608434945344925e-03
-1.063224393874406815e-02
-7.269749417901039124e-03
-9.299730882048606873e-03
-1.092699542641639709e-02
-9.702654555439949036e-03
-1.600187970325350761e-04
-1.162319537252187729e-02
-1.645145379006862640e-02
-1.004837639629840851e-02
5.535758100450038910e-04
-2.158025279641151428e-02
-1.071029226295650005e-03
-4.365987610071897507e-03
-8.060348220169544220e-03
4.494800305110402405e-05
-2.097545424476265907e-03
-1.018900703638792038e-02
-6.162945181131362915e-03
-1.005559694021940231e-02
-1.761909574270248413e-02
3.120850399136543274e-02
-1.644222252070903778e-02
-7.947837002575397491e-03
-2.001037209993228316e-04
-3.592984983697533607e-03
-1.643509790301322937e-02
-7.703302428126335144e-03
3.078014589846134186e-03
-9.003067389130592346e-03
-1.918578287586569786e-03
-1.644401252269744873e-02
4.558930546045303345e-02
5.290398001670837402e-02
6.444387836381793022e-04
-2.084934385493397713e-03
-1.644043810665607452e-02
-1.415818464010953903e-02
-7.015999406576156616e-03
-1.644606515765190125e-02
-9.141178801655769348e-03
1.098386663943529129e-02
-6.674578879028558731e-03
-1.309526246041059494e-02
-2.939339727163314819e-03
-2.042218577116727829e-03
-1.369961630553007126e-02
7.596244569867849350e-03
-8.787507191300392151e-03
-1.028165500611066818e-02
-7.004725746810436249e-03
-1.191566418856382370e-02
-1.229952089488506317e-02
-6.217719987034797668e-03
4.308195319026708603e-03
5.711025092750787735e-03
-2.688711043447256088e-03
1.953968778252601624e-02
-1.211860449984669685e-03
-1.381899509578943253e-02
3.564223181456327438e-03
2.544599585235118866e-03
-2.649559173732995987e-04
-2.407565771136432886e-04
-1.212017331272363663e-02
-7.981174276210367680e-04
-5.880371667444705963e-03
1.216819437104277313e-04
8.385285735130310059e-03
3.828556090593338013e-02
-8.778054267168045044e-03
-7.655851542949676514e-03
-2.983678365126252174e-03
1.151229627430438995e-02
-8.806714788079261780e-03
-1.006009057164192200e-03
-5.309144034981727600e-03
-1.056840736418962479e-02
-1.025600358843803406e-02
-1.486631482839584351e-02
-1.516943424940109253e-02
3.994603641331195831e-03
2.193122403696179390e-03
-8.243988268077373505e-03
-1.948885247111320496e-02
3.718327032402157784e-03
1.432894356548786163e-02
-1.212156098335981369e-02
-1.328634656965732574e-02
-6.981952465139329433e-04
4.286500625312328339e-03
-8.201665244996547699e-03
-1.662937924265861511e-02
-4.226147662848234177e-03
-1.645249687135219574e-02
-4.063551314175128937e-03
1.778136356733739376e-03
3.221980296075344086e-03
4.461143689695745707e-04
1.841300516389310360e-03
-1.588484458625316620e-02
4.636193159967660904e-03
-2.847390249371528625e-03
5.119055509567260742e-03
8.413084782660007477e-03
-1.644958928227424622e-02
-9.884536266326904297e-03
3.459420427680015564e-02
-1.491846051067113876e-03
-8.818631060421466827e-03
-7.683389820158481598e-03
-1.214001886546611786e-02
4.740351345390081406e-03
-5.460860120365396142e-05
-1.300590392202138901e-02
-8.672619238495826721e-03
-5.226161330938339233e-03
-1.280627958476543427e-02
1.063288189470767975e-02
2.666703052818775177e-02
-1.331603620201349258e-02
-1.172946649603545666e-03
-1.644183695316314697e-02
-1.644395105540752411e-02
-1.809929125010967255e-02
-1.665979810059070587e-02
-1.061252877116203308e-02
-8.890872821211814880e-03
-6.837582215666770935e-03
-4.030157811939716339e-03
-5.912045948207378387e-03
-1.066739857196807861e-02
-1.228481996804475784e-02
-6.648360285907983780e-03
-2.022667322307825089e-03
5.421917885541915894e-03
-1.650391705334186554e-02
6.166349048726260662e-04
-2.595818659756332636e-04
-7.910293526947498322e-03
-3.405251074582338333e-03
-1.644154824316501617e-02
-8.401064202189445496e-03
-1.041857060045003891e-02
-1.300530880689620972e-02
-1.516498252749443054e-02
-1.645191758871078491e-02
6.441897246986627579e-03
6.925953784957528114e-04
3.643215168267488480e-03
-1.644185557961463928e-02
5.282987840473651886e-03
-1.009237952530384064e-02
-7.551021408289670944e-03
-9.813869372010231018e-03
-1.022863201797008514e-02
-1.575108617544174194e-03
1.188025996088981628e-02
-2.683775033801794052e-03
-1.178847905248403549e-02
-1.104375440627336502e-02
-3.975432366132736206e-03
1.662899367511272430e-02
5.176439508795738220e-02
1.802709326148033142e-02
-1.087311282753944397e-02
-1.052626501768827438e-02
-1.060379296541213989e-02
-1.178523898124694824e-02
2.717658411711454391e-03
4.059454891830682755e-03
-1.034798752516508102e-02
-9.527685120701789856e-03
-4.945019725710153580e-03
-1.262926775962114334e-02
-2.366464398801326752e-02
3.529700683429837227e-03
1.292088185437023640e-03
-4.665215034037828445e-03
-2.868773415684700012e-03
3.651382168754935265e-03
-1.279162988066673279e-02
1.166045479476451874e-02
1.049054600298404694e-02
-1.873393915593624115e-02
6.964734755456447601e-03
-1.283605862408876419e-02
-4.763715434819459915e-03
-1.645138859748840332e-02
-4.005887079983949661e-03
-1.864755712449550629e-02
-1.393805351108312607e-02
-1.427943725138902664e-02
-8.146156556904315948e-03
-1.645006239414215088e-02
-4.769763443619012833e-03
-1.643333956599235535e-02
-1.475136075168848038e-02
1.548317843116819859e-03
-3.051748266443610191e-03
1.096983905881643295e-02
-6.794706918299198151e-03
-3.993609920144081116e-03
2.838041633367538452e-03
-1.341297011822462082e-02
-8.027119562029838562e-03
-3.335380461066961288e-03
-3.345915349200367928e-03
-1.254136208444833755e-02
1.829514466226100922e-02
-1.291701104491949081e-02
2.801899798214435577e-02
-8.673597127199172974e-03
-8.725185180082917213e-04
-1.835839077830314636e-02
-4.001783381681889296e-04
-1.643920689821243286e-02
-5.979578942060470581e-03
4.444462805986404419e-02
5.631865002214908600e-03
-5.491124466061592102e-03
-8.127897977828979492e-03
-9.203296154737472534e-03
-1.140016689896583557e-02
-1.546164602041244507e-02
-1.155831199139356613e-02
3.301865654066205025e-03
3.773567080497741699e-02
2.329449867829680443e-03
-4.606064874678850174e-03
-8.454178459942340851e-03
-1.644889637827873230e-02
2.356860227882862091e-02
2.268158458173274994e-02
-6.911138538271188736e-03
-8.604419417679309845e-03
-5.055913235992193222e-03
-1.435539871454238892e-02
-1.643716171383857727e-02
6.226965226233005524e-03
-1.709753833711147308e-02
-5.551532376557588577e-03
2.452852018177509308e-02
-9.548267349600791931e-03
-1.156600192189216614e-02
3.600291907787322998e-02
1.346418866887688637e-03
-1.644714176654815674e-02
1.961468718945980072e-02
2.978181000798940659e-03
-2.877894323319196701e-03
1.097803004086017609e-02
-8.511850610375404358e-03
1.007860898971557617e-02
-1.027971133589744568e-02
-9.841183200478553772e-03
-1.763801462948322296e-02
-1.044451631605625153e-02
-9.268343448638916016e-03
-1.514751464128494263e-02
-2.169275423511862755e-03
-1.329739298671483994e-02
4.045972228050231934e-02
-1.112595852464437485e-02
3.474403638392686844e-03
3.072168678045272827e-03
8.087244816124439240e-03
1.803148351609706879e-02
-1.155103323981165886e-03
-9.194223210215568542e-03
-1.095313765108585358e-02
1.422744942829012871e-03
2.134035341441631317e-02
-1.644419319927692413e-02
-1.426306180655956268e-02
-1.123310532420873642e-02
-6.058752187527716160e-04
1.438105478882789612e-03
-6.868849974125623703e-03
-9.438666515052318573e-03
-4.893124569207429886e-03
2.583494642749428749e-03
-5.104650277644395828e-03
4.283432848751544952e-03
-1.787570072337985039e-03
-1.016795914620161057e-02
3.655766369774937630e-03
-8.643022738397121429e-03
-1.569278887473046780e-03
-1.644854992628097534e-02
-6.749304477125406265e-03
2.551863528788089752e-02
7.692732615396380424e-04
-7.328013423830270767e-03
-8.462895639240741730e-03
-3.675838466733694077e-03
1.575754582881927490e-02
-1.589300297200679779e-02
1.446673553436994553e-02
9.999168105423450470e-03
-7.400043774396181107e-03
-6.202419288456439972e-03
8.894543163478374481e-03
-1.353823859244585037e-02
6.531198974698781967e-03
1.862108893692493439e-02
4.817875102162361145e-03
-1.294631976634263992e-02
-1.612485572695732117e-02
-1.221608463674783707e-02
3.328886348754167557e-03
-4.034581594169139862e-03
7.710509467869997025e-03
1.236907020211219788e-02
-6.502827629446983337e-03
-7.710048928856849670e-03
-6.219496484845876694e-03
-6.188755854964256287e-03
2.927285851910710335e-03
-3.977853339165449142e-03
1.672477461397647858e-02
-1.214202144183218479e-03
1.364702708087861538e-03
7.501220796257257462e-03
-1.643746532499790192e-02
-1.298015657812356949e-02
-1.644720323383808136e-02
1.699242182075977325e-02
-9.110366925597190857e-03
3.669297788292169571e-03
-6.833237595856189728e-03
4.623583517968654633e-03
2.143741771578788757e-02
-8.393073454499244690e-03
-1.457786839455366135e-02
-1.187166571617126465e-02
-5.339635536074638367e-03
-1.391459163278341293e-02
2.698556985706090927e-03
2.777104964479804039e-03
4.339590203016996384e-03
-1.139509398490190506e-02
1.837942400015890598e-03
-3.531695343554019928e-03
6.861825822852551937e-04
-1.065025851130485535e-02
1.145690027624368668e-02
8.201588876545429230e-03
-1.644747145473957062e-02
3.066517226397991180e-02
-1.072130072861909866e-02
1.205366570502519608e-02
1.448748749680817127e-03
-8.182655088603496552e-03
-1.084582973271608353e-02
-1.048343349248170853e-02
-1.643423177301883698e-02
-3.845569211989641190e-03
1.279757416341453791e-04
-9.242830798029899597e-03
-8.547477424144744873e-03
2.618378028273582458e-03
-1.644524559378623962e-02
-9.536357596516609192e-03
-1.382035575807094574e-02
1.294036675244569778e-02
4.402410413604229689e-04
-1.606358028948307037e-02
-6.992760114371776581e-03
3.010284388437867165e-03
-3.811682108789682388e-03
-9.122360497713088989e-04
-6.703927065245807171e-04
-1.037863548845052719e-02
-1.410546433180570602e-02
2.046508155763149261e-02
-1.045162416994571686e-02
6.473369896411895752e-03
8.480379357933998108e-03
1.709361001849174500e-02
1.443022210150957108e-02
-3.437985433265566826e-03
7.488751434721052647e-04
-1.520544174127280712e-03
4.311512224376201630e-03
-2.214799867942929268e-03
7.178803905844688416e-03
2.486690063960850239e-04
-6.563938688486814499e-03
-3.027223749086260796e-03
-3.853673581033945084e-03
6.093833362683653831e-04
-7.079292554408311844e-03
-1.667178608477115631e-02
3.310398897156119347e-03
4.222946241497993469e-03
-8.319594897329807281e-03
-5.597331095486879349e-03
2.444087155163288116e-02
-5.568936467170715332e-03
-1.877838803920894861e-04
-1.262553036212921143e-02
-1.643578521907329559e-02
-9.057897143065929413e-03
-1.815102808177471161e-02
-1.373199559748172760e-02
-7.388242520391941071e-03
-2.258263528347015381e-03
6.830162019468843937e-04
-3.609874518588185310e-03
-2.840115223079919815e-03
-9.441965259611606598e-03
-1.643986068665981293e-02
-1.404095068573951721e-02
-4.227100289426743984e-04
-1.526335906237363815e-02
-4.398560617119073868e-03
2.041750820353627205e-03
1.259846147149801254e-02
-7.568655069917440414e-03
-1.275364588946104050e-02
-4.806842654943466187e-03
3.362742136232554913e-04
-5.061171017587184906e-03
-2.769236452877521515e-03
5.759065505117177963e-03
-1.644257828593254089e-02
-1.055314391851425171e-02
-1.118592103011906147e-03
-1.330707315355539322e-02
-4.022696986794471741e-03
-4.795471206307411194e-03
-9.282258339226245880e-03
-1.340640150010585785e-02
-5.367113742977380753e-03
-1.272945012897253036e-02
-4.597809631377458572e-03
-5.558072589337825775e-03
-8.817362599074840546e-03
-7.831417955458164215e-03
-1.390047557651996613e-02
3.809072077274322510e-03
7.733335252851247787e-03
-2.172357635572552681e-03
-6.082708016037940979e-03
-5.978891626000404358e-03
-1.035996060818433762e-02
-7.355146575719118118e-03
-1.239885669201612473e-02
4.479052440728992224e-04
-1.562454551458358765e-02
-2.504311269149184227e-03
-9.373930282890796661e-03
-1.308948826044797897e-02
-9.776305407285690308e-03
-1.182614360004663467e-02
-3.303435863927006721e-03
-1.233183965086936951e-02
-9.832748211920261383e-03
1.385931670665740967e-02
-5.300845950841903687e-04
-1.606148667633533478e-02
-5.026803119108080864e-04
-3.505927161313593388e-04
-3.227241570129990578e-03
-7.107806741259992123e-04
-8.405159227550029755e-03
7.264939136803150177e-03
-1.669524936005473137e-03
-1.819160184822976589e-03
-2.637960948050022125e-03
-7.669203449040651321e-03
-1.367159374058246613e-02
1.231788657605648041e-02
-1.645214110612869263e-02
-6.589965894818305969e-03
-5.973981693387031555e-03
4.573387559503316879e-03
-1.171558350324630737e-02
-8.037055842578411102e-03
-1.221853680908679962e-02
-1.749427802860736847e-02
-1.644390821456909180e-02
-8.317503146827220917e-03
-6.922836415469646454e-03
-1.088085304945707321e-02
1.308661769144237041e-03
-6.223740987479686737e-03
1.798587106168270111e-02
1.162365823984146118e-02
9.481135755777359009e-03
-6.884250324219465256e-03
-8.859614841639995575e-03
-5.814518313854932785e-03
1.235941890627145767e-03
3.463441133499145508e-02
-1.085021765902638435e-03
-1.087127253413200378e-02
8.096072822809219360e-03
1.642889529466629028e-02
2.446110593155026436e-03
-7.928481325507164001e-03
5.849227309226989746e-03
3.313747001811861992e-03
-7.700091227889060974e-03
-1.079501817002892494e-03
8.188926614820957184e-03
-1.737030688673257828e-03
-5.744016729295253754e-03
-1.208596862852573395e-02
-1.467542350292205811e-02
-5.141308531165122986e-03
-1.253398135304450989e-03
-5.118488334119319916e-03
-4.598318133503198624e-03
7.324981503188610077e-03
-1.152997650206089020e-02
1.461157295852899551e-02
-1.018396578729152679e-02
-1.558408886194229126e-02
-2.716572256758809090e-03
-1.484000938944518566e-03
5.556529387831687927e-03
-1.230943854898214340e-02
1.196341356262564659e-03
-1.359895523637533188e-02
-1.445804350078105927e-02
-1.308535318821668625e-02
-4.704945255070924759e-03
1.326793991029262543e-02
-8.782017976045608521e-03
-1.074374932795763016e-02
-7.052783854305744171e-03
-7.343982812017202377e-03
-1.393983489833772182e-03
-9.458385407924652100e-03
-3.168848343193531036e-03
-1.117686554789543152e-02
5.913945846259593964e-03
-2.153789158910512924e-03
-1.260304357856512070e-02
4.655569791793823242e-02
-1.644376665353775024e-02
-6.678821984678506851e-03
-3.130465047433972359e-03
-8.399544749408960342e-04
-1.403525238856673241e-03
-2.803905168548226357e-03
-1.003709342330694199e-02
-6.928801536560058594e-03
-9.243058972060680389e-03
-1.315392460674047470e-02
8.432584814727306366e-03
-8.567627519369125366e-03
-1.220285426825284958e-02
1.279958710074424744e-02
2.302724309265613556e-02
-9.582631289958953857e-03
3.551559057086706161e-03
2.872865879908204079e-03
-8.419519290328025818e-04
1.515438035130500793e-02
-4.020912107080221176e-03
1.332420110702514648e-02
-1.181360799819231033e-02
-1.061097811907529831e-02
1.905446872115135193e-02
-1.055251527577638626e-02
-1.071258168667554855e-02
7.294720970094203949e-03
-2.723960438743233681e-03
-1.717617735266685486e-02
-3.951285965740680695e-03
-1.644943095743656158e-02
1.047011371701955795e-02
-2.048844471573829651e-03
-1.644836179912090302e-02
-7.661110721528530121e-03
-7.472467608749866486e-03
7.308246567845344543e-03
-1.137440465390682220e-02
-1.270811725407838821e-02
-1.304562110453844070e-02
5.515611544251441956e-02
-1.272538676857948303e-02
-8.936597034335136414e-03
-1.149788312613964081e-02
2.997228410094976425e-03
-1.036021392792463303e-02
-2.135233208537101746e-02
4.229884594678878784e-02
-1.939100329764187336e-03
-1.387960929423570633e-02
-8.314777165651321411e-03
-1.559980958700180054e-02
-1.644647866487503052e-02
3.761896491050720215e-02
-7.678152993321418762e-03
-1.234707608819007874e-02
4.085416905581951141e-03
4.435960669070482254e-03
-9.053036570549011230e-03
-9.131745435297489166e-03
-7.098674774169921875e-03
-7.495492231100797653e-03
2.562621957622468472e-04
5.348307546228170395e-03
-4.669330548495054245e-03
-1.667874678969383240e-02
1.208467967808246613e-02
-1.565244048833847046e-02
-1.673200912773609161e-02
2.217764500528573990e-03
-7.947924546897411346e-03
-7.409405079670250416e-04
5.277150776237249374e-03
-1.363332197070121765e-02
-4.441786091774702072e-03
-4.889368428848683834e-04
3.979465737938880920e-02
1.096951309591531754e-02
-1.189067400991916656e-02
-1.023174356669187546e-02
3.140960261225700378e-02
-5.758043844252824783e-03
-4.896512720733880997e-03
-5.998049862682819366e-03
-1.825002836994826794e-03
-4.154344554990530014e-03
-1.824124343693256378e-02
1.611994230188429356e-03
-1.644458994269371033e-02
-7.192298769950866699e-03
-1.193538121879100800e-02
-4.583065863698720932e-03
-8.544761687517166138e-03
3.159637097269296646e-03
1.864323951303958893e-02
-7.239949889481067657e-03
-1.644535176455974579e-02
-1.192059554159641266e-02
-1.337189134210348129e-02
-1.282001473009586334e-02
1.037494186311960220e-02
-9.676189161837100983e-03
-9.082455188035964966e-03
1.067388243973255157e-02
5.877327639609575272e-03
2.795472182333469391e-02
-1.293021626770496368e-02
-5.602119490504264832e-03
-1.472221873700618744e-02
-4.890629206784069538e-04
-8.593871258199214935e-03
-3.724503563717007637e-03
3.153759753331542015e-03
3.270881995558738708e-02
-1.066060736775398254e-02
5.711280391551554203e-04
1.146763679571449757e-03
-8.893817663192749023e-03
8.024176582694053650e-03
-1.005920954048633575e-02
-1.197507884353399277e-02
-1.509015541523694992e-02
-9.333668276667594910e-03
3.485625144094228745e-03
-9.099262766540050507e-03
-1.146931387484073639e-02
1.861798949539661407e-02
-1.021033991128206253e-02
3.191096708178520203e-03
5.900326650589704514e-03
-8.737993426620960236e-03
-1.446310151368379593e-02
4.575568716973066330e-03
-5.034609348513185978e-04
-1.479203905910253525e-02
-1.012299675494432449e-02
-1.708381809294223785e-02
1.572012319229543209e-03
1.897331140935420990e-02
-1.720718480646610260e-02
-1.161210238933563232e-03
1.089803176000714302e-03
-1.015978399664163589e-02
5.330788437277078629e-03
-1.645534299314022064e-02
-1.606950722634792328e-02
-8.732757531106472015e-03
-5.846438463777303696e-03
8.474665693938732147e-03
-6.013438105583190918e-03
-1.208125520497560501e-02
-1.040163356810808182e-02
-1.120270043611526489e-02
-1.072816364467144012e-02
-1.029636524617671967e-02
4.303895868360996246e-03
-2.538332482799887657e-03
1.158158411271870136e-03
-9.756145067512989044e-03
-1.404688344337046146e-03
-2.320039831101894379e-02
-8.897500112652778625e-03
-1.536497939378023148e-02
-7.067608181387186050e-03
-5.981723312288522720e-03
-2.667929278686642647e-03
-1.406515575945377350e-02
-1.711199246346950531e-02
-1.753845252096652985e-03
2.515079453587532043e-02
6.559411063790321350e-03
2.766711404547095299e-03
1.162223797291517258e-02
-1.487214304506778717e-02
-1.163473445922136307e-02
3.976899664849042892e-03
-1.513218972831964493e-02
-1.367663219571113586e-02
5.981063470244407654e-03
-6.294347345829010010e-03
-3.482580184936523438e-03
-6.217982154339551926e-03
3.845302388072013855e-03
-1.654654182493686676e-02
-1.139872800558805466e-02
3.161362605169415474e-03
-6.548499688506126404e-03
-7.304711733013391495e-03
1.620906637981534004e-03
2.620074711740016937e-02
-1.643971353769302368e-02
-9.267888031899929047e-03
-1.333763822913169861e-02
-5.769382230937480927e-03
6.099078059196472168e-02
-6.239559967070817947e-03
-1.190070807933807373e-02
-1.644515432417392731e-02
-7.858018390834331512e-03
-1.031627133488655090e-02
-2.669026842340826988e-03
-1.973683480173349380e-03
-8.867631666362285614e-03
-1.351329125463962555e-02
-6.326517555862665176e-03
1.729597221128642559e-03
2.200007252395153046e-02
-5.979604087769985199e-03
-1.111762318760156631e-02
-1.060681790113449097e-02
4.570585209876298904e-03
1.814840361475944519e-02
-1.083128992468118668e-02
4.742226563394069672e-03
3.240186348557472229e-02
-2.252894267439842224e-02
-1.418463420122861862e-02
-9.151507169008255005e-03
-3.479709848761558533e-03
1.393231563270092010e-02
-5.916655063629150391e-03
-1.247501652687788010e-02
-1.036621909588575363e-02
-1.428165752440690994e-02
-3.395845415070652962e-03
-2.592052100226283073e-03
8.742700330913066864e-03
-3.491177048999816179e-04
8.046723902225494385e-03
-1.644833013415336609e-02
4.641349427402019501e-03
-3.379358677193522453e-03
-6.330932956188917160e-03
-1.399877294898033142e-02
-7.046806160360574722e-03
-1.704051974229514599e-03
-6.915617268532514572e-04
-9.573513641953468323e-03
3.549304325133562088e-03
-1.574086025357246399e-02
-7.387502118945121765e-03
-4.558145999908447266e-03
5.765299499034881592e-02
-7.036437746137380600e-03
-1.620876975357532501e-02
3.200876340270042419e-02
-2.875703154131770134e-03
6.009599193930625916e-02
-6.998753175139427185e-03
-1.192445028573274612e-02
-9.865816682577133179e-03
-1.643379963934421539e-02
-1.193682104349136353e-02
-1.144190505146980286e-02
-2.125381678342819214e-02
-7.113849278539419174e-03
-1.945312507450580597e-02
1.659257570281624794e-03
-8.350761607289314270e-03
-5.700061563402414322e-03
-2.610590890981256962e-04
6.808127363910898566e-05
-6.408497691154479980e-03
-9.607560932636260986e-03
-8.107231929898262024e-03
-1.484450069256126881e-03
-8.471623994410037994e-03
-5.299113690853118896e-03
-1.643370650708675385e-02
1.147985341958701611e-03
-1.152253616601228714e-02
-7.131986785680055618e-04
-7.963282987475395203e-03
-1.853324659168720245e-02
7.278154604136943817e-03
1.425506547093391418e-02
1.427229586988687515e-02
1.741295494139194489e-02
-8.860210888087749481e-03
-1.409654226154088974e-02
-1.403779163956642151e-02
-1.644178479909896851e-02
-1.113770622760057449e-02
-5.729905795305967331e-03
4.660177975893020630e-03
-1.262299902737140656e-02
-1.535669900476932526e-02
-1.643562503159046173e-02
-8.127503097057342529e-03
-1.070261374115943909e-02
3.780862782150506973e-03
-8.455605246126651764e-03
-3.089446341618895531e-03
-1.644262671470642090e-02
-2.183878608047962189e-02
-8.397126570343971252e-03
-1.645323075354099274e-02
-7.886721752583980560e-03
-1.222725678235292435e-02
-9.316707146354019642e-04
-1.094898395240306854e-02
-1.570058614015579224e-02
-9.932726621627807617e-03
2.228402532637119293e-03
3.637481015175580978e-03
-1.373814232647418976e-02
-7.823674008250236511e-03
2.697844756767153740e-03
1.093964744359254837e-02
-1.698811165988445282e-02
-8.588886121287941933e-04
-1.644675619900226593e-02
-1.039086934179067612e-02
