2.856770902872085571e-02
5.111208185553550720e-02
5.114240199327468872e-02
-2.136135846376419067e-01
3.555442392826080322e-02
-9.707229584455490112e-02
8.510180562734603882e-02
-1.288988590240478516e-01
9.091014415025711060e-02
-3.734659031033515930e-02
-1.673132739961147308e-02
6.456688791513442993e-02
-1.245120018720626831e-01
-6.236233189702033997e-02
7.826096564531326294e-02
-6.624003499746322632e-02
4.047227203845977783e-01
-1.707016080617904663e-01
1.895285844802856445e-01
2.195046842098236084e-01
1.621998474001884460e-02
-1.089424192905426025e-01
4.018912613391876221e-01
2.048066854476928711e-01
-5.459071695804595947e-02
-2.218923717737197876e-01
-7.328636199235916138e-02
-1.188298985362052917e-01
1.996600031852722168e-01
-2.464658021926879883e-02
1.933675855398178101e-01
7.702309638261795044e-02
-1.676277220249176025e-01
-7.696384191513061523e-02
-5.697911605238914490e-02
-9.243168681859970093e-02
-1.692311912775039673e-01
5.639667436480522156e-02
-1.180986538529396057e-01
5.953184887766838074e-02
3.185522854328155518e-01
-4.541128873825073242e-02
3.862278908491134644e-02
1.784317940473556519e-01
5.413216724991798401e-02
-5.473739933222532272e-03
1.965054310858249664e-03
-1.743154078722000122e-01
4.436119645833969116e-02
-3.902878239750862122e-02
2.051587104797363281e-01
-5.651590880006551743e-03
5.920821428298950195e-02
1.397703289985656738e-01
2.181294858455657959e-01
1.685134507715702057e-02
8.466508984565734863e-02
4.304103255271911621e-01
-2.489938214421272278e-02
-4.639109596610069275e-02
7.299123797565698624e-03
1.343228667974472046e-01
1.877928227186203003e-01
-1.294366549700498581e-02
1.419634670019149780e-01
1.218782886862754822e-01
7.236606627702713013e-02
2.249766141176223755e-02
-4.309161379933357239e-02
8.648643642663955688e-02
2.156668007373809814e-01
2.306582629680633545e-01
1.084493324160575867e-01
1.623005717992782593e-01
5.635736882686614990e-02
-1.879344880580902100e-02
3.841285705566406250e-01
1.038513556122779846e-01
5.934288352727890015e-02
1.610198915004730225e-01
1.986177116632461548e-01
1.334370076656341553e-01
8.325111120939254761e-02
3.143329322338104248e-01
2.403605431318283081e-01
1.199849769473075867e-01
2.299723029136657715e-01
1.724756062030792236e-01
2.664426527917385101e-02
1.446509361267089844e-01
2.037669420242309570e-01
-1.921114623546600342e-01
1.007228195667266846e-01
3.644095733761787415e-02
9.804082661867141724e-02
-1.163692325353622437e-01
-6.560853123664855957e-02
-1.010693013668060303e-01
-3.505630493164062500e-01
3.089977502822875977e-01
2.093952149152755737e-01
8.648549765348434448e-02
5.419642850756645203e-02
9.794818609952926636e-02
2.490387707948684692e-01
-2.459519803524017334e-01
-2.176974564790725708e-01
4.169388487935066223e-02
-1.485982984304428101e-01
5.150414630770683289e-02
1.937163919210433960e-01
-5.279994383454322815e-02
-5.931414663791656494e-02
1.681974530220031738e-01
2.587969601154327393e-01
2.302324920892715454e-01
-1.885767728090286255e-01
2.650262042880058289e-02
-9.642286598682403564e-02
-4.759692400693893433e-02
1.345057785511016846e-01
4.427507519721984863e-01
2.154560387134552002e-01
1.928048282861709595e-01
-2.875993493944406509e-03
1.280617415904998779e-01
1.987577527761459351e-01
1.687953323125839233e-01
