2.305687367916107178e-01
-5.168695747852325439e-02
2.571761310100555420e-01
-1.735366880893707275e-01
-2.829558029770851135e-02
1.192981004714965820e-01
4.446255043148994446e-02
-7.623826619237661362e-03
1.474269628524780273e-01
-1.048746854066848755e-01
-1.080293133854866028e-01
-5.687416344881057739e-02
-9.417925775051116943e-02
1.248294338583946228e-01
4.740014672279357910e-02
-1.281472593545913696e-01
1.638070866465568542e-02
7.838445156812667847e-02
-3.566177189350128174e-01
-5.220045149326324463e-02
3.445061743259429932e-01
-5.109360441565513611e-02
1.884576678276062012e-02
2.835663259029388428e-01
1.262986660003662109e-01
2.187029570341110229e-01
3.153132973238825798e-03
-2.505903542041778564e-01
-1.189727485179901123e-01
-6.650291383266448975e-02
2.288555800914764404e-01
-3.969582542777061462e-02
3.892806358635425568e-03
-1.272314786911010742e-01
1.051909402012825012e-01
-2.167330868542194366e-02
-2.131543755531311035e-01
-2.495992369949817657e-02
5.308648198843002319e-02
2.096217572689056396e-01
3.787485137581825256e-02
-9.630946069955825806e-02
-2.715894393622875214e-02
-3.373075276613235474e-02
1.530219018459320068e-01
-2.237666770815849304e-02
5.920371040701866150e-02
1.314231604337692261e-01
3.776140883564949036e-02
2.444972470402717590e-02
4.038469493389129639e-02
-6.017383933067321777e-02
-1.280748844146728516e-01
-5.222338065505027771e-02
3.286469578742980957e-01
-4.052690044045448303e-02
-7.494866847991943359e-02
-3.322884440422058105e-02
-3.478011861443519592e-02
9.265496581792831421e-02
-1.423554867506027222e-01
1.237947642803192139e-01
-1.296753883361816406e-01
-1.597152799367904663e-01
-1.174710392951965332e-01
-1.077416911721229553e-01
-2.509677037596702576e-02
1.535957157611846924e-01
-8.167787641286849976e-02
1.900644302368164062e-01
-9.147924929857254028e-02
-1.141975671052932739e-01
-1.861079595983028412e-02
1.900036074221134186e-02
6.766555458307266235e-02
-3.129379749298095703e-01
3.132864832878112793e-01
-4.876934736967086792e-02
-4.200710356235504150e-01
-1.998833417892456055e-01
1.849472224712371826e-01
3.578093349933624268e-01
-7.204563170671463013e-02
-5.380661413073539734e-02
-1.622099243104457855e-02
-1.222746223211288452e-01
1.684523560106754303e-02
5.673314258456230164e-02
1.120141744613647461e-01
1.148338690400123596e-01
-1.602151691913604736e-01
-1.120795235037803650e-01
8.627893403172492981e-03
9.890242479741573334e-03
4.133947789669036865e-01
2.962037324905395508e-01
3.159081339836120605e-01
-9.865917265415191650e-02
-2.035767883062362671e-01
1.811973750591278076e-01
-1.811267621815204620e-02
2.327110767364501953e-01
-1.529540866613388062e-01
3.072299249470233917e-02
4.389426670968532562e-03
1.821798384189605713e-01
1.970264613628387451e-01
-9.647708386182785034e-02
3.148682415485382080e-02
1.749297976493835449e-01
6.085961684584617615e-02
5.691472440958023071e-02
2.104555442929267883e-02
-3.044916130602359772e-02
-1.152656413614749908e-02
5.201267078518867493e-02
1.240987107157707214e-01
-3.786437809467315674e-01
1.624989509582519531e-01
3.227452337741851807e-01
-1.315269060432910919e-02
-1.116093322634696960e-01
-1.897833198308944702e-01
2.972005009651184082e-01
3.395818546414375305e-02
-1.866128444671630859e-01
2.131315767765045166e-01
1.579760611057281494e-01
-2.618677914142608643e-02
-2.764781713485717773e-01
-9.890738129615783691e-02
-6.994311511516571045e-02
-1.374032646417617798e-01
-6.639876961708068848e-02
5.911809578537940979e-02
-1.384422332048416138e-01
8.548120409250259399e-02
-1.764381304383277893e-03
1.815116256475448608e-01
4.865448176860809326e-02
2.844101004302501678e-02
1.503795851022005081e-02
1.198565065860748291e-01
2.030482515692710876e-02
-2.742557041347026825e-02
6.169883534312248230e-02
-1.188163179904222488e-02
-1.654111891984939575e-01
2.378506958484649658e-01
3.061119318008422852e-01
-8.964470587670803070e-03
2.261449024081230164e-02
1.308293081820011139e-02
-1.047208160161972046e-01
1.213142126798629761e-01
-6.141803169157356024e-05
3.471985831856727600e-02
6.762321293354034424e-02
-1.363274455070495605e-01
2.684578001499176025e-01
-2.905707657337188721e-01
-1.711581945419311523e-01
-1.677523553371429443e-01
6.165893282741308212e-03
1.726840287446975708e-01
-2.463742718100547791e-02
9.590403735637664795e-02
-4.059322923421859741e-02
9.445728361606597900e-02
-3.747488663066178560e-04
3.526211380958557129e-01
-7.864276319742202759e-02
2.901747077703475952e-02
-3.004100322723388672e-01
-2.258396334946155548e-02
-1.364766210317611694e-01
-1.462522000074386597e-01
1.773087382316589355e-01
1.274171173572540283e-01
-1.698380857706069946e-01
5.730500072240829468e-02
3.599312007427215576e-01
-8.261475712060928345e-02
1.766987591981887817e-01
2.561914324760437012e-01
1.863481998443603516e-01
-9.241208434104919434e-02
-3.234763741493225098e-01
-7.104547321796417236e-02
-4.658367950469255447e-03
1.528853625059127808e-01
-2.034675776958465576e-01
1.070534437894821167e-01
-7.845977693796157837e-02
1.530176848173141479e-01
-4.520784690976142883e-02
-1.674094796180725098e-01
-2.309515923261642456e-01
2.438771352171897888e-02
-2.312443591654300690e-02
1.417544335126876831e-01
2.614092230796813965e-01
1.238839104771614075e-01
1.451545655727386475e-01
6.658629328012466431e-02
-1.332878172397613525e-01
5.432098358869552612e-02
7.180486619472503662e-02
-1.370758414268493652e-01
5.100519396364688873e-03
2.422273159027099609e-01
-3.174574673175811768e-02
2.098029106855392456e-02
1.556215882301330566e-01
3.119074106216430664e-01
-8.815210312604904175e-02
1.695312112569808960e-01
1.870214045047760010e-01
-6.704281270503997803e-02
-1.069087348878383636e-02
1.605450659990310669e-01
-1.923797279596328735e-01
-2.129117995500564575e-01
2.257338762283325195e-01
-8.049915730953216553e-02
1.168762668967247009e-01
2.017530798912048340e-01
9.108766168355941772e-02
2.134342677891254425e-02
-9.692510962486267090e-02
2.306347042322158813e-01
1.863554865121841431e-01
-3.616358339786529541e-02
5.067820101976394653e-02
9.165472537279129028e-02
-2.177188694477081299e-01
1.660581678152084351e-02
9.165862202644348145e-02
2.537626028060913086e-02
-3.146450594067573547e-02
-1.841259896755218506e-01
8.546248078346252441e-02
7.435629516839981079e-02
2.354256212711334229e-01
6.735951453447341919e-02
3.641257435083389282e-02
4.485661536455154419e-02
-5.468358099460601807e-02
-1.185285113751888275e-02
2.540148794651031494e-01
1.945353150367736816e-01
3.217516466975212097e-02
1.667674332857131958e-01
8.157604187726974487e-02
1.010477840900421143e-01
-8.109635114669799805e-02
6.064640730619430542e-02
-8.508541435003280640e-02
-1.964692026376724243e-01
1.344327535480260849e-02
1.555626541376113892e-01
-6.908614188432693481e-02
8.474726229906082153e-02
-2.363260090351104736e-01
3.555245995521545410e-01
-1.098443493247032166e-01
1.711632460355758667e-01
-4.439946636557579041e-02
-2.090644836425781250e-01
2.213449776172637939e-01
-6.787062436342239380e-02
-5.426118895411491394e-02
7.664916664361953735e-02
-7.505795359611511230e-02
-1.353534609079360962e-01
5.174811556935310364e-02
-6.946044508367776871e-03
-4.203576967120170593e-02
2.611099481582641602e-01
-1.581759564578533173e-02
-8.160952478647232056e-02
4.089121222496032715e-01
-3.478876873850822449e-02
-5.023026838898658752e-02
4.372957721352577209e-02
-4.498494416475296021e-02
6.949678808450698853e-02
-1.005037799477577209e-01
2.112241461873054504e-02
1.171694844961166382e-01
-2.599738352000713348e-02
-2.632730603218078613e-01
-2.820959389209747314e-01
-2.051170319318771362e-01
1.071525737643241882e-01
3.787133842706680298e-02
2.511402405798435211e-02
1.456107199192047119e-01
1.190123558044433594e-01
-1.620000600814819336e-01
-3.368948819115757942e-03
8.317821472883224487e-02
7.967330515384674072e-02
1.273886263370513916e-01
-1.158863902091979980e-01
-1.070448085665702820e-01
5.167875438928604126e-03
-1.703725755214691162e-01
1.028326824307441711e-01
-2.969012558460235596e-01
1.136861518025398254e-01
7.307235151529312134e-02
-1.644001752138137817e-01
1.927623450756072998e-01
-2.332388162612915039e-01
-2.740045189857482910e-01
1.988278329372406006e-01
1.281411945819854736e-01
2.763557061553001404e-02
-2.913472428917884827e-02
1.580669134855270386e-01
9.158489108085632324e-02
-2.448269724845886230e-02
-3.352515399456024170e-02
-1.048718839883804321e-01
2.792701423168182373e-01
-1.187208741903305054e-01
3.085464006289839745e-03
1.159615218639373779e-01
2.590636909008026123e-01
-9.977190196514129639e-02
7.580257207155227661e-02
5.518927425146102905e-02
9.780579805374145508e-02
-8.182640373706817627e-02
-1.901576668024063110e-01
7.447216659784317017e-02
-3.346411138772964478e-02
-2.664686143398284912e-01
-6.872322410345077515e-02
-1.034805644303560257e-02
-1.140089780092239380e-01
-7.774642109870910645e-02
-4.855925217270851135e-02
-1.629404723644256592e-01
1.844255998730659485e-02
-2.195661962032318115e-01
3.156197965145111084e-01
-2.736847102642059326e-02
-2.013939023017883301e-01
-2.513059973716735840e-02
1.705271601676940918e-01
-8.821110427379608154e-02
1.594273746013641357e-01
-1.218391656875610352e-01
3.968714177608489990e-02
-1.779657900333404541e-01
-8.059861510992050171e-02
6.537486612796783447e-02
2.127306461334228516e-01
-2.145745605230331421e-01
1.589103192090988159e-01
1.682686997810378671e-04
-2.802932858467102051e-01
5.221575498580932617e-02
1.154027953743934631e-01
-1.862912774085998535e-01
-2.161881420761346817e-03
1.115297749638557434e-01
-8.969268202781677246e-02
-1.021063327789306641e-01
-7.456613332033157349e-02
1.676761955022811890e-01
6.769472360610961914e-02
-5.113729089498519897e-02
-3.373843729496002197e-01
-9.531847387552261353e-02
1.211874634027481079e-01
-8.208201825618743896e-02
-1.056865453720092773e-01
4.735464975237846375e-02
1.408715546131134033e-01
-6.625980883836746216e-02
-7.126337289810180664e-02
-3.114463388919830322e-01
3.335191681981086731e-02
-1.374204605817794800e-01
-9.794654697179794312e-02
-2.068371921777725220e-01
1.383803784847259521e-01
-1.646945774555206299e-01
-2.987555265426635742e-01
-2.050270736217498779e-01
1.899018324911594391e-02
-1.885187923908233643e-01
4.684760421514511108e-02
1.935069411993026733e-01
1.945971846580505371e-01
1.115172207355499268e-01
-4.405119270086288452e-02
-4.652934893965721130e-02
-1.135381013154983521e-01
2.224824279546737671e-01
1.285393685102462769e-01
2.449663542211055756e-02
3.413981497287750244e-01
-1.358736678957939148e-02
1.399096846580505371e-01
-3.122513182461261749e-02
3.131321966648101807e-01
-2.489659339189529419e-01
-1.982551217079162598e-01
-1.218397021293640137e-01
9.308797121047973633e-02
7.624296844005584717e-02
9.653440117835998535e-02
-4.377137720584869385e-01
8.535536937415599823e-03
3.323633223772048950e-02
-2.806818520184606314e-04
3.218634054064750671e-02
1.773654073476791382e-01
-6.201313808560371399e-02
2.429769188165664673e-01
1.935961097478866577e-01
1.393781751394271851e-01
9.552004933357238770e-02
-2.805716395378112793e-01
1.338400095701217651e-01
1.026892736554145813e-01
-1.225998178124427795e-01
4.750487208366394043e-01
1.554556190967559814e-01
2.904646396636962891e-01
-1.724600642919540405e-01
-1.460841298103332520e-01
-1.035950146615505219e-02
6.388580799102783203e-02
-1.004036441445350647e-01
5.395638197660446167e-02
-2.725754976272583008e-01
6.509828567504882812e-02
2.972988784313201904e-02
-1.915765404701232910e-01
-4.177807271480560303e-02
9.668277204036712646e-02
3.220793977379798889e-02
1.337311863899230957e-01
-5.630220174789428711e-01
-1.044936180114746094e-01
9.544040262699127197e-02
1.894446015357971191e-01
-1.716598123311996460e-01
-2.072122395038604736e-01
5.775128956884145737e-03
3.099865615367889404e-01
7.565446197986602783e-02
1.246410235762596130e-01
3.100512623786926270e-01
-4.012171328067779541e-01
-1.232143417000770569e-01
1.564755588769912720e-01
1.046300828456878662e-01
-5.711393803358078003e-02
8.779622614383697510e-02
5.041433125734329224e-02
1.756215989589691162e-01
1.971348822116851807e-01
-2.024850845336914062e-01
2.968500852584838867e-01
-1.783898845314979553e-02
9.751496464014053345e-02
8.024792373180389404e-02
-2.928047180175781250e-01
6.596703827381134033e-02
-1.567280967719852924e-03
-2.711186558008193970e-02
-2.356323748826980591e-01
-2.448553889989852905e-01
-1.600723862648010254e-01
1.740353703498840332e-01
8.641188591718673706e-02
1.659706421196460724e-02
3.103102557361125946e-02
1.977888047695159912e-01
-1.239606514573097229e-01
9.320946782827377319e-02
-4.307361785322427750e-03
1.713404208421707153e-01
-8.160846680402755737e-02
1.922912150621414185e-01
-3.534187972545623779e-01
-2.080774120986461639e-02
1.090007051825523376e-01
4.043903946876525879e-02
1.650131493806838989e-01
-1.031755432486534119e-01
-2.159653306007385254e-01
-1.795117408037185669e-01
3.973892331123352051e-02
6.803619326092302799e-04
-5.369275342673063278e-03
-9.086689352989196777e-02
-1.818827539682388306e-01
-3.818796575069427490e-02
1.859052181243896484e-01
-9.765279293060302734e-02
1.513205617666244507e-01
-1.000699922442436218e-01
-1.461648195981979370e-01
-2.917136996984481812e-02
1.368284374475479126e-01
1.483642905950546265e-01
1.373770385980606079e-01
-3.693642020225524902e-01
-4.094077274203300476e-02
1.301421374082565308e-01
1.367400288581848145e-01
-1.488494127988815308e-01
2.197671532630920410e-01
2.284168899059295654e-01
-5.377329420298337936e-03
-5.771874263882637024e-02
-1.629967093467712402e-01
1.960314810276031494e-01
3.763024806976318359e-01
2.536518871784210205e-01
-1.044783834367990494e-02
1.936560571193695068e-01
-5.699028074741363525e-02
-3.790711611509323120e-02
1.737236380577087402e-01
-1.670333184301853180e-02
-1.721026897430419922e-01
-3.104997100308537483e-03
1.687109656631946564e-02
-2.958562374114990234e-01
-1.546366512775421143e-01
-2.335871160030364990e-01
9.104645997285842896e-02
-6.287307292222976685e-02
1.218910329043865204e-02
-1.081372871994972229e-01
-2.346344441175460815e-01
-1.260746717453002930e-01
2.938072197139263153e-02
-1.537387538701295853e-02
2.907858043909072876e-02
-2.480907440185546875e-01
-7.016415148973464966e-02
-2.031752914190292358e-01
3.469207137823104858e-02
-2.156604826450347900e-01
-1.819529337808489799e-03
-1.593088209629058838e-01
1.417350918054580688e-01
-1.348415166139602661e-01
-1.390876024961471558e-01
1.602637320756912231e-01
-3.857912868261337280e-02
-5.418942309916019440e-03
-4.202759824693202972e-03
2.367910742759704590e-01
9.363278746604919434e-02
1.939088255167007446e-01
-8.905720897018909454e-03
1.254302561283111572e-01
-1.227684915065765381e-01
6.611578166484832764e-03
-1.671752333641052246e-01
6.980538368225097656e-02
1.218028739094734192e-01
-1.361074745655059814e-01
7.339268922805786133e-02
-1.975101828575134277e-01
-4.762376844882965088e-02
-9.773271530866622925e-02
1.584088802337646484e-02
-1.388110071420669556e-01
-3.423365205526351929e-02
-3.040797077119350433e-02
1.280843466520309448e-01
2.759553492069244385e-01
1.050967797636985779e-01
-6.319737434387207031e-02
-8.232653886079788208e-02
8.815454691648483276e-02
2.100895345211029053e-01
3.163031116127967834e-02
-4.912722390145063400e-03
1.554287783801555634e-02
1.451887339353561401e-01
-7.225108146667480469e-02
1.858553588390350342e-01
-2.888921499252319336e-01
6.494426168501377106e-03
2.339033037424087524e-01
-1.071099042892456055e-01
1.399341374635696411e-01
3.554386645555496216e-02
-2.212206721305847168e-01
-9.466902166604995728e-02
1.516851633787155151e-01
7.372945547103881836e-02
2.386402934789657593e-01
-7.328378409147262573e-02
-1.426870971918106079e-01
-1.367538869380950928e-01
8.130413293838500977e-02
-8.824953436851501465e-02
1.349100321531295776e-01
6.201325356960296631e-02
1.782431900501251221e-01
2.624050676822662354e-01
-1.015771552920341492e-01
1.781915575265884399e-01
6.370061077177524567e-03
2.637105621397495270e-02
4.187304899096488953e-02
1.523202508687973022e-01
-2.463195659220218658e-02
7.322681695222854614e-02
-3.755816817283630371e-02
-2.032747566699981689e-01
8.080725371837615967e-02
8.400930464267730713e-02
3.045866787433624268e-01
1.361971069127321243e-02
5.982427299022674561e-02
-4.045954719185829163e-02
1.638691127300262451e-01
2.893159091472625732e-01
1.137937158346176147e-01
5.445169657468795776e-02
-3.948258981108665466e-02
-4.978124424815177917e-02
-4.030665755271911621e-02
-3.658432140946388245e-02
1.392146646976470947e-01
1.034438610076904297e-01
1.670725941658020020e-01
7.373646646738052368e-02
1.444789487868547440e-02
-2.200771570205688477e-01
1.755031570792198181e-02
-7.659575436264276505e-03
-5.820213258266448975e-02
-1.356693953275680542e-01
9.198934584856033325e-02
2.194761335849761963e-01
-3.029905632138252258e-02
-8.899191021919250488e-02
-9.894613176584243774e-02
-2.489803433418273926e-01
-3.189684450626373291e-01
4.230048656463623047e-01
9.096298366785049438e-03
1.290305107831954956e-01
2.029146254062652588e-01
-9.397422522306442261e-02
1.372064352035522461e-01
6.574901938438415527e-02
-5.298437550663948059e-02
2.589504234492778778e-02
4.612176492810249329e-02
-3.749210834503173828e-01
-1.897989809513092041e-01
-1.210657656192779541e-01
-1.384191811084747314e-01
-1.857246756553649902e-01
-2.455791085958480835e-02
2.279761619865894318e-02
1.878983825445175171e-01
-3.053584396839141846e-01
-1.084120050072669983e-01
9.469573944807052612e-02
-1.133440807461738586e-01
2.308172434568405151e-01
9.255057573318481445e-02
-1.257973257452249527e-02
3.092481195926666260e-02
-1.996115408837795258e-02
8.199586719274520874e-02
2.774105966091156006e-02
2.306314557790756226e-01
5.878102456335909665e-06
2.682620659470558167e-02
1.263126879930496216e-01
-2.208197712898254395e-01
-1.744722574949264526e-02
1.081470474600791931e-01
-1.780288293957710266e-02
1.055751070380210876e-01
3.821791335940361023e-02
-1.704433113336563110e-01
-1.041877269744873047e-01
4.716777056455612183e-02
-1.500478237867355347e-01
1.850973218679428101e-01
-2.064905762672424316e-01
4.413939639925956726e-02
1.608254760503768921e-01
6.298672407865524292e-02
-4.360617324709892273e-02
1.531649976968765259e-01
3.067443668842315674e-01
1.707950085401535034e-01
-3.065476417541503906e-01
-2.333793044090270996e-01
-1.731305420398712158e-01
8.485414832830429077e-02
-1.350387334823608398e-01
2.916544489562511444e-02
1.734237931668758392e-02
-2.391531467437744141e-01
-2.404834888875484467e-02
1.006642431020736694e-01
2.096484303474426270e-01
1.570162735879421234e-02
-1.675975173711776733e-01
1.738177835941314697e-01
7.256405055522918701e-02
-3.075914084911346436e-02
-2.292838394641876221e-01
1.956771463155746460e-01
1.202027797698974609e-01
4.649034515023231506e-02
-1.065370626747608185e-02
-2.240412086248397827e-01
-1.939111649990081787e-01
-1.124726328998804092e-02
9.152704477310180664e-02
-9.059901535511016846e-02
-8.353550918400287628e-03
3.848633542656898499e-02
-1.092438399791717529e-02
-2.142772674560546875e-01
5.887113511562347412e-02
-1.608089357614517212e-01
-3.619925379753112793e-01
-1.610347330570220947e-01
9.496580809354782104e-02
-7.404275238513946533e-02
-8.991266787052154541e-02
6.466945260763168335e-02
3.880850225687026978e-02
-9.828984737396240234e-02
-2.256890013813972473e-02
-5.841539800167083740e-02
-5.985772982239723206e-02
1.115822643041610718e-01
2.435754835605621338e-01
8.581626415252685547e-02
1.971039026975631714e-01
-1.567452549934387207e-01
-1.476311385631561279e-01
2.280575968325138092e-02
-3.054394200444221497e-02
-1.765799522399902344e-01
-1.370901241898536682e-02
-1.419897973537445068e-01
6.597799807786941528e-02
2.310170084238052368e-01
-3.121430873870849609e-01
5.014974251389503479e-02
4.554640129208564758e-02
-4.261066019535064697e-02
-2.421663552522659302e-01
2.975977025926113129e-02
-1.094155572354793549e-02
7.459916378138586879e-05
1.163650974631309509e-01
-2.252817302942276001e-01
2.866281569004058838e-01
-2.492084503173828125e-01
-2.577726244926452637e-01
1.277095377445220947e-01
2.269446551799774170e-01
1.661758311092853546e-02
5.007451027631759644e-02
-1.138335242867469788e-01
2.033168673515319824e-01
-1.319814920425415039e-01
2.255061119794845581e-01
-4.373152740299701691e-03
-8.902482688426971436e-02
3.558417037129402161e-02
9.780156426131725311e-03
3.160997852683067322e-02
-4.759349301457405090e-02
-4.861719161272048950e-02
-1.964721381664276123e-01
-2.054854035377502441e-01
6.578871607780456543e-02
3.267597779631614685e-02
3.314778208732604980e-01
1.934206038713455200e-01
1.136957406997680664e-01
1.157696265727281570e-02
-2.123815938830375671e-02
9.988284856081008911e-02
-1.389947384595870972e-01
-1.744173467159271240e-01
-6.078479066491127014e-02
1.938914358615875244e-01
-1.594428420066833496e-01
6.202748045325279236e-02
2.324274331331253052e-01
5.689127743244171143e-02
-1.062959879636764526e-01
1.567684710025787354e-01
1.804298460483551025e-01
4.234526678919792175e-02
-1.776196211576461792e-01
-2.522012293338775635e-01
6.240746006369590759e-02
-2.707223296165466309e-01
-9.605332463979721069e-02
-1.077411249279975891e-01
6.375454831868410110e-03
-1.083084940910339355e-01
5.746351182460784912e-02
-5.824873596429824829e-02
-5.992252752184867859e-02
-1.293257176876068115e-01
-1.292282808572053909e-02
-2.493144385516643524e-02
-2.217862308025360107e-01
-3.946076612919569016e-03
1.494395732879638672e-01
3.674324154853820801e-01
-9.819027036428451538e-02
-1.094454899430274963e-01
-3.001482188701629639e-01
-2.206444591283798218e-01
2.062827348709106445e-01
-3.959154337644577026e-02
-1.187281236052513123e-01
-3.878683224320411682e-02
-1.706939935684204102e-01
-1.158366352319717407e-01
-1.577245891094207764e-01
-2.396150976419448853e-01
8.283918350934982300e-02
6.875891238451004028e-02
5.429648980498313904e-02
-3.194802403450012207e-01
2.215738743543624878e-01
-1.320940554141998291e-01
-1.967000812292098999e-01
-8.868197328411042690e-04
7.779268175363540649e-02
2.227360606193542480e-01
8.481950312852859497e-02
-8.755276910960674286e-03
1.569292042404413223e-03
-1.040487736463546753e-01
-1.613207608461380005e-01
-5.939316004514694214e-02
-4.295814409852027893e-02
1.003631949424743652e-01
-1.098054200410842896e-01
1.395675260573625565e-02
-9.123900532722473145e-02
-9.768088161945343018e-02
6.886786222457885742e-02
1.908818334341049194e-01
-5.008255690336227417e-02
2.841766476631164551e-01
-2.058818489313125610e-01
7.168410811573266983e-03
1.582679301500320435e-01
-9.476447850465774536e-02
-4.620919376611709595e-02
-5.563567578792572021e-02
8.384802192449569702e-02
6.622430682182312012e-02
-4.483284801244735718e-02
-2.612912356853485107e-01
3.955398499965667725e-02
-2.148283720016479492e-01
-3.423605263233184814e-01
2.466649115085601807e-01
3.445179164409637451e-01
9.799531847238540649e-02
3.861546888947486877e-02
-1.876376196742057800e-02
2.490732520818710327e-01
5.699305608868598938e-02
-1.207631826400756836e-01
-3.672303557395935059e-01
-2.237834222614765167e-02
2.833557780832052231e-03
2.236695736646652222e-01
-1.348987370729446411e-01
1.299124490469694138e-02
6.162035092711448669e-02
2.341864705085754395e-01
9.272252768278121948e-02
1.695932149887084961e-01
2.311009466648101807e-01
-1.035876478999853134e-02
2.145476341247558594e-01
1.287914663553237915e-01
1.863505840301513672e-01
-1.269592940807342529e-01
4.254463315010070801e-02
