2.171387970447540283e-01
-4.821448028087615967e-02
2.568511068820953369e-01
-1.724900752305984497e-01
-3.414816036820411682e-02
1.088932529091835022e-01
3.749974071979522705e-02
-1.201682258397340775e-02
1.356934309005737305e-01
-1.042423695325851440e-01
-1.179973036050796509e-01
-6.208680570125579834e-02
-1.071447804570198059e-01
1.133855581283569336e-01
3.191050887107849121e-02
-1.400204449892044067e-01
8.323747315444052219e-04
5.609240755438804626e-02
-3.501616418361663818e-01
-5.549773573875427246e-02
3.248853683471679688e-01
-5.021757632493972778e-02
1.107548270374536514e-02
2.733518779277801514e-01
1.262421607971191406e-01
2.155062556266784668e-01
1.491319667547941208e-02
-2.339282929897308350e-01
-1.129068955779075623e-01
-4.340258985757827759e-02
2.261186987161636353e-01
-4.064854234457015991e-02
1.058199349790811539e-02
-1.223469972610473633e-01
9.631539136171340942e-02
-2.827368676662445068e-02
-2.162891775369644165e-01
-1.969711668789386749e-02
4.919233918190002441e-02
1.974275857210159302e-01
2.965250611305236816e-02
-1.031837463378906250e-01
-2.832313440740108490e-02
-3.421440348029136658e-02
1.508101969957351685e-01
-1.767175830900669098e-02
6.555978953838348389e-02
1.353702098131179810e-01
4.376018419861793518e-02
3.579758852720260620e-02
5.548585578799247742e-02
-3.386723995208740234e-02
-9.668005257844924927e-02
-2.901401743292808533e-02
3.408867120742797852e-01
-1.246752031147480011e-02
-4.751486703753471375e-02
-1.811016467399895191e-03
-2.755962777882814407e-03
1.153518483042716980e-01
-1.033912450075149536e-01
1.447564661502838135e-01
-8.781260251998901367e-02
-1.242839097976684570e-01
-7.885143160820007324e-02
-8.606272935867309570e-02
1.013803295791149139e-02
1.574148386716842651e-01
-7.692603766918182373e-02
1.818945258855819702e-01
-9.569927304983139038e-02
-1.106904074549674988e-01
-2.395186014473438263e-02
1.137488894164562225e-02
6.208976358175277710e-02
-3.064548373222351074e-01
2.978560924530029297e-01
-5.337249487638473511e-02
-4.084230959415435791e-01
-1.934583932161331177e-01
1.734568476676940918e-01
3.383537530899047852e-01
-7.096070796251296997e-02
-5.173129215836524963e-02
-1.418475341051816940e-02
-1.195799037814140320e-01
1.939716190099716187e-02
6.088352203369140625e-02
1.100510433316230774e-01
1.192171871662139893e-01
-1.457398682832717896e-01
-1.016513556241989136e-01
1.915821805596351624e-02
2.290403470396995544e-02
4.097837507724761963e-01
2.988920211791992188e-01
3.181647360324859619e-01
-7.877694815397262573e-02
-1.783426702022552490e-01
1.931615471839904785e-01
-9.766858420334756374e-05
2.477816045284271240e-01
-1.301699280738830566e-01
5.267279595136642456e-02
2.394802123308181763e-02
1.963656693696975708e-01
2.144436389207839966e-01
-6.864246726036071777e-02
5.402331799268722534e-02
1.913452744483947754e-01
8.173319697380065918e-02
7.685710489749908447e-02
4.589707031846046448e-02
-5.671675782650709152e-03
8.308798074722290039e-03
7.330529391765594482e-02
1.419704556465148926e-01
-3.430932462215423584e-01
1.786376684904098511e-01
3.349152505397796631e-01
1.310666836798191071e-02
-8.158107101917266846e-02
-1.585799008607864380e-01
3.091672360897064209e-01
6.103550642728805542e-02
-1.570011973381042480e-01
2.310332357883453369e-01
1.770503073930740356e-01
8.630483062006533146e-04
-2.370870262384414673e-01
-6.626939773559570312e-02
-6.748051941394805908e-02
-1.325654834508895874e-01
-6.406095623970031738e-02
5.703663080930709839e-02
-1.335678696632385254e-01
8.247153460979461670e-02
-1.702259993180632591e-03
1.751208454370498657e-01
4.694142937660217285e-02
2.743964269757270813e-02
1.450849324464797974e-02
1.156365275382995605e-01
1.958992145955562592e-02
-2.645995467901229858e-02
5.952650681138038635e-02
-1.146329566836357117e-02
-1.595872938632965088e-01
2.294763028621673584e-01
2.953341603279113770e-01
-8.648844435811042786e-03
2.181826718151569366e-02
1.262229867279529572e-02
-1.010337471961975098e-01
1.170429140329360962e-01
-5.925559162278659642e-05
3.349741920828819275e-02
6.524229049682617188e-02
-1.315275579690933228e-01
2.590057849884033203e-01
-2.803401947021484375e-01
-1.651319563388824463e-01
-1.618460267782211304e-01
5.948800593614578247e-03
1.666040569543838501e-01
-2.376997843384742737e-02
9.252738952636718750e-02
-3.916399925947189331e-02
9.113157540559768677e-02
-3.615544992499053478e-04
3.402058482170104980e-01
-7.587386667728424072e-02
2.799580618739128113e-02
-2.898330390453338623e-01
-2.178881317377090454e-02
-1.316714733839035034e-01
-1.411028653383255005e-01
1.710659414529800415e-01
1.229309439659118652e-01
-1.638583391904830933e-01
5.528737232089042664e-02
3.472585380077362061e-01
-7.970601320266723633e-02
1.704774349927902222e-01
2.471712827682495117e-01
1.797871291637420654e-01
-8.915838599205017090e-02
-3.120872080326080322e-01
-6.854405999183654785e-02
-4.494353663176298141e-03
1.475024819374084473e-01
-1.963037699460983276e-01
1.032842397689819336e-01
-7.569731771945953369e-02
1.476301550865173340e-01
-4.361614212393760681e-02
-1.615152359008789062e-01
-2.228201180696487427e-01
2.352905645966529846e-02
-2.231025695800781250e-02
1.367634534835815430e-01
2.522053718566894531e-01
1.195221319794654846e-01
1.400438696146011353e-01
6.424188613891601562e-02
-1.285949498414993286e-01
5.240841954946517944e-02
6.927672028541564941e-02
-1.322495937347412109e-01
4.920937120914459229e-03
2.336988449096679688e-01
-3.062802366912364960e-02
2.024160325527191162e-02
1.501423716545104980e-01
3.009256124496459961e-01
-8.504839241504669189e-02
1.635622531175613403e-01
1.804366409778594971e-01
-6.468233466148376465e-02
-1.031446270644664764e-02
1.548925042152404785e-01
-1.856063008308410645e-01
-2.054154723882675171e-01
2.177861034870147705e-01
-7.766489684581756592e-02
1.127612218260765076e-01
1.946496367454528809e-01
8.788059651851654053e-02
2.059195563197135925e-02
-9.351251274347305298e-02
2.225143760442733765e-01
1.797941625118255615e-01
-3.489031270146369934e-02
4.889389127492904663e-02
8.842769265174865723e-02
-2.100532948970794678e-01
1.602114923298358917e-02
8.843145519495010376e-02
2.448279783129692078e-02
-3.035668469965457916e-02
-1.776431649923324585e-01
8.245346695184707642e-02
7.173831760883331299e-02
2.271366119384765625e-01
6.498788297176361084e-02
3.513053804636001587e-02
4.327727854251861572e-02
-5.275825038552284241e-02
-1.143552828580141068e-02
2.450713664293289185e-01
1.876859962940216064e-01
3.104232251644134521e-02
1.608957946300506592e-01
7.870386540889739990e-02
9.749002754688262939e-02
-7.824106514453887939e-02
5.851113423705101013e-02
-8.208967745304107666e-02
-1.895518004894256592e-01
1.296995673328638077e-02
1.500855088233947754e-01
-6.665371358394622803e-02
8.176343142986297607e-02
-2.280053049325942993e-01
3.430070877075195312e-01
-1.059768870472908020e-01
1.651368290185928345e-01
-4.283622652292251587e-02
-2.017036080360412598e-01
2.135517299175262451e-01
-6.548099964857101440e-02
-5.235072970390319824e-02
7.395045459270477295e-02
-7.241526991128921509e-02
-1.305878460407257080e-01
4.992613568902015686e-02
-6.701483856886625290e-03
-4.055575281381607056e-02
2.519166469573974609e-01
-1.526068150997161865e-02
-7.873617112636566162e-02
3.945148885250091553e-01
-3.356390446424484253e-02
-4.846173152327537537e-02
4.218991845846176147e-02
-4.340108856558799744e-02
6.704990565776824951e-02
-9.696517884731292725e-02
2.037872374057769775e-02
1.130441129207611084e-01
-2.508205361664295197e-02
-2.540035843849182129e-01
-2.721637487411499023e-01
-1.978951543569564819e-01
1.033798828721046448e-01
3.653794154524803162e-02
2.422979474067687988e-02
1.404839754104614258e-01
1.148220971226692200e-01
-1.562962681055068970e-01
-3.250333014875650406e-03
8.024962991476058960e-02
7.686811685562133789e-02
1.229034513235092163e-01
-1.118061989545822144e-01
-1.032759100198745728e-01
4.985921550542116165e-03
-1.643739938735961914e-01
9.921208769083023071e-02
-2.864477932453155518e-01
1.096834167838096619e-01
7.049957662820816040e-02
-1.586118787527084351e-01
1.859754472970962524e-01
-2.250268012285232544e-01
-2.643571794033050537e-01
1.918273866176605225e-01
1.236295327544212341e-01
2.666256204247474670e-02
-2.810893207788467407e-02
1.525015980005264282e-01
8.836031705141067505e-02
-2.362069487571716309e-02
-3.234478086233139038e-02
-1.011794954538345337e-01
2.694374322891235352e-01
-1.145408824086189270e-01
2.976829186081886292e-03
1.118786782026290894e-01
2.499424219131469727e-01
-9.625907242298126221e-02
7.313366979360580444e-02
5.324613675475120544e-02
9.436219930648803711e-02
-7.894540578126907349e-02
-1.834624856710433960e-01
7.185010612010955811e-02
-3.228588774800300598e-02
-2.570866346359252930e-01
-6.630358099937438965e-02
-9.983715601265430450e-03
-1.099948808550834656e-01
-7.500907778739929199e-02
-4.684955254197120667e-02
-1.572035700082778931e-01
1.779322326183319092e-02
-2.118355780839920044e-01
3.045072853565216064e-01
-2.640486508607864380e-02
-1.943031102418899536e-01
-2.424578554928302765e-02
1.645231395959854126e-01
-8.510531485080718994e-02
1.538141667842864990e-01
-1.175493821501731873e-01
3.828981146216392517e-02
-1.716998666524887085e-01
-7.776084542274475098e-02
6.307311356067657471e-02
2.052406966686248779e-01
-2.070197016000747681e-01
1.533153057098388672e-01
1.623441930860280991e-04
-2.704245746135711670e-01
5.037730932235717773e-02
1.113396212458610535e-01
-1.797322332859039307e-01
-2.085764426738023758e-03
1.076029688119888306e-01
-8.653473109006881714e-02
-9.851131588220596313e-02
-7.194076478481292725e-02
1.617725491523742676e-01
6.531129032373428345e-02
-4.933682084083557129e-02
-3.255055546760559082e-01
-9.196244180202484131e-02
1.169206276535987854e-01
-7.919202744960784912e-02
-1.019654721021652222e-01
4.568735882639884949e-02
1.359116733074188232e-01
-6.392689794301986694e-02
-6.875429302453994751e-02
-3.004807531833648682e-01
3.217764571309089661e-02
-1.325820833444595337e-01
-9.449799358844757080e-02
-1.995547413825988770e-01
1.335081905126571655e-01
-1.588959246873855591e-01
-2.882367670536041260e-01
-1.978083550930023193e-01
1.832156628370285034e-02
-1.818813085556030273e-01
4.519816488027572632e-02
1.866938322782516479e-01
1.877456903457641602e-01
1.075908541679382324e-01
-4.250021278858184814e-02
-4.489111527800559998e-02
-1.095405817031860352e-01
2.146491408348083496e-01
1.240136772394180298e-01
2.363414317369461060e-02
3.293780088424682617e-01
-1.310897525399923325e-02
1.349836587905883789e-01
-3.012573905289173126e-02
3.021072447299957275e-01
-2.402002066373825073e-01
-1.912748366594314575e-01
-1.175498962402343750e-01
8.981047570705413818e-02
7.355856150388717651e-02
9.313555806875228882e-02
-4.223024845123291016e-01
8.235012181103229523e-03
3.206612542271614075e-02
-2.707994426600635052e-04
3.105310536921024323e-02
1.711206287145614624e-01
-5.982974171638488770e-02
2.344220429658889771e-01
1.867798566818237305e-01
1.344708651304244995e-01
9.215692430734634399e-02
-2.706930935382843018e-01
1.291276961565017700e-01
9.907373040914535522e-02
-1.182832568883895874e-01
4.583229124546051025e-01
1.499822437763214111e-01
2.802377939224243164e-01
-1.663879901170730591e-01
-1.409407109022140503e-01
-9.994758293032646179e-03
6.163648143410682678e-02
-9.686857461929321289e-02
5.205665528774261475e-02
-2.629785239696502686e-01
6.280626356601715088e-02
2.868314087390899658e-02
-1.848313957452774048e-01
-4.030712321400642395e-02
9.327870607376098633e-02
3.107394278049468994e-02
1.290227025747299194e-01
-5.431988239288330078e-01
-1.008145436644554138e-01
9.208008646965026855e-02
1.827745139598846436e-01
-1.656159162521362305e-01
-1.999165862798690796e-01
5.571795161813497543e-03
2.990723848342895508e-01
7.299077510833740234e-02
1.202525869011878967e-01
2.991348206996917725e-01
-3.870908617973327637e-01
-1.188761368393898010e-01
1.509662717580795288e-01
1.009462028741836548e-01
-5.510303750634193420e-02
8.470504730939865112e-02
4.863931611180305481e-02
1.694382131099700928e-01
1.901940405368804932e-01
-1.953558772802352905e-01
2.863984107971191406e-01
-1.721090264618396759e-02
9.408160299062728882e-02
7.742250710725784302e-02
-2.824954688549041748e-01
6.364443153142929077e-02
-1.512099290266633034e-03
-2.615729533135890961e-02
-2.273360937833786011e-01
-2.362343817949295044e-01
-1.544364690780639648e-01
1.679078340530395508e-01
8.336944133043289185e-02
1.601270586252212524e-02
2.993846684694290161e-02
1.908249408006668091e-01
-1.195961683988571167e-01
8.992769569158554077e-02
-4.155705682933330536e-03
1.653077602386474609e-01
-7.873515039682388306e-02
1.855209171772003174e-01
-3.409754335880279541e-01
-2.007512934505939484e-02
1.051629409193992615e-01
3.901523724198341370e-02
1.592032611370086670e-01
-9.954287856817245483e-02
-2.083614915609359741e-01
-1.731913834810256958e-01
3.833977133035659790e-02
6.564073846675455570e-04
-5.180230829864740372e-03
-8.766759932041168213e-02
-1.754789203405380249e-01
-3.684342280030250549e-02
1.793597489595413208e-01
-9.421457350254058838e-02
1.459927707910537720e-01
-9.654666483402252197e-02
-1.410185545682907104e-01
-2.814428694546222687e-02
1.320109069347381592e-01
1.431405991315841675e-01
1.325401812791824341e-01
-3.563594222068786621e-01
-3.949930891394615173e-02
1.255600154399871826e-01
1.319256126880645752e-01
-1.436086297035217285e-01
2.120294570922851562e-01
2.203746587038040161e-01
-5.188001319766044617e-03
-5.568654835224151611e-02
-1.572578251361846924e-01
1.891294866800308228e-01
3.630534112453460693e-01
2.447211593389511108e-01
-1.007998455315828323e-02
1.868377029895782471e-01
-5.498373508453369141e-02
-3.657246008515357971e-02
1.676070839166641235e-01
-1.611522957682609558e-02
-1.660431921482086182e-01
-2.995674731209874153e-03
1.627708971500396729e-02
-2.854395806789398193e-01
-1.491921246051788330e-01
-2.253628373146057129e-01
8.784084022045135498e-02
-6.065940111875534058e-02
1.175994146615266800e-02
-1.043299287557601929e-01
-2.263732999563217163e-01
-1.216357573866844177e-01
2.834626846015453339e-02
-1.483258325606584549e-02
2.805476449429988861e-02
-2.393558174371719360e-01
-6.769376993179321289e-02
-1.960217654705047607e-01
3.347061201930046082e-02
-2.080673873424530029e-01
-1.755466335453093052e-03
-1.536997705698013306e-01
1.367448121309280396e-01
-1.300939470529556274e-01
-1.341905146837234497e-01
1.546210795640945435e-01
-3.722080960869789124e-02
-5.228148773312568665e-03
-4.054786637425422668e-03
2.284539937973022461e-01
9.033611416816711426e-02
1.870815753936767578e-01
-8.592163212597370148e-03
1.210140287876129150e-01
-1.184459924697875977e-01
6.378793623298406601e-03
-1.612892299890518188e-01
6.734763085842132568e-02
1.175143644213676453e-01
-1.313153207302093506e-01
7.080863416194915771e-02
-1.905561238527297974e-01
-4.594700410962104797e-02
-9.429168701171875000e-02
1.528315246105194092e-02
-1.339236646890640259e-01
-3.302833437919616699e-02
-2.933735027909278870e-02
1.235746741294860840e-01
2.662393450736999512e-01
1.013964712619781494e-01
-6.097228452563285828e-02
-7.942793518304824829e-02
8.505074679851531982e-02
2.026925683021545410e-01
3.051665425300598145e-02
-4.739752039313316345e-03
1.499563548713922501e-02
1.400768458843231201e-01
-6.970722228288650513e-02
1.793116629123687744e-01
-2.787206470966339111e-01
6.265766918659210205e-03
2.256679087877273560e-01
-1.033387184143066406e-01
1.350072622299194336e-01
3.429241850972175598e-02
-2.134318053722381592e-01
-9.133585542440414429e-02
1.463445425033569336e-01
7.113354653120040894e-02
2.302380949258804321e-01
-7.070356607437133789e-02
-1.376632899045944214e-01
-1.319389790296554565e-01
7.844152301549911499e-02
-8.514239639043807983e-02
1.301600337028503418e-01
5.982985347509384155e-02
1.719675064086914062e-01
2.531661391258239746e-01
-9.800076484680175781e-02
1.719176918268203735e-01
6.145780440419912338e-03
2.544256858527660370e-02
4.039875790476799011e-02
1.469572633504867554e-01
-2.376469969749450684e-02
7.064861059188842773e-02
-3.623579815030097961e-02
-1.961177438497543335e-01
7.796214520931243896e-02
8.105145394802093506e-02
2.938626110553741455e-01
1.314017921686172485e-02
5.771794170141220093e-02
-3.903502225875854492e-02
1.580995172262191772e-01
2.791295051574707031e-01
1.097872033715248108e-01
5.253452807664871216e-02
-3.809246420860290527e-02
-4.802851751446723938e-02
-3.888751566410064697e-02
-3.529623895883560181e-02
1.343131214380264282e-01
9.980174899101257324e-02
1.611901968717575073e-01
7.114031165838241577e-02
1.393920462578535080e-02
-2.123285531997680664e-01
1.693239435553550720e-02
-7.389892358332872391e-03
-5.615291744470596313e-02
-1.308926641941070557e-01
8.875053375959396362e-02
2.117486894130706787e-01
-2.923226915299892426e-02
-8.585862815380096436e-02
-9.546238183975219727e-02
-2.402141094207763672e-01
-3.077380061149597168e-01
4.081114530563354492e-01
8.776030503213405609e-03
1.244875341653823853e-01
1.957702934741973877e-01
-9.066552668809890747e-02
1.323755979537963867e-01
6.343409419059753418e-02
-5.111887305974960327e-02
2.498331479728221893e-02
4.449788108468055725e-02
-3.617206513881683350e-01
-1.831164211034774780e-01
-1.168032065033912659e-01
-1.335456371307373047e-01
-1.791855692863464355e-01
-2.369326166808605194e-02
2.199494466185569763e-02
1.812827438116073608e-01
-2.946071922779083252e-01
-1.045949757099151611e-01
9.136163443326950073e-02
-1.093533933162689209e-01
2.226905077695846558e-01
8.929200470447540283e-02
-1.213681790977716446e-02
2.983599342405796051e-02
-1.925835013389587402e-02
7.910890877246856689e-02
2.676433697342872620e-02
2.225112468004226685e-01
5.671142844221321866e-06
2.588169276714324951e-02
1.218653991818428040e-01
-2.130450159311294556e-01
-1.683293282985687256e-02
1.043393462896347046e-01
-1.717606745660305023e-02
1.018579602241516113e-01
3.687231242656707764e-02
-1.644422411918640137e-01
-1.005194261670112610e-01
4.550706222653388977e-02
-1.447648555040359497e-01
1.785802990198135376e-01
-1.992203295230865479e-01
4.258530959486961365e-02
1.551630347967147827e-01
6.076904758810997009e-02
-4.207086190581321716e-02
1.477722823619842529e-01
2.959443330764770508e-01
1.647815555334091187e-01
-2.957545220851898193e-01
-2.251623421907424927e-01
-1.670348495244979858e-01
8.186655491590499878e-02
-1.302842050790786743e-01
2.813857235014438629e-02
1.673177815973758698e-02
-2.307329028844833374e-01
-2.320164069533348083e-02
9.711999446153640747e-02
2.022670060396194458e-01
1.514879614114761353e-02
-1.616966426372528076e-01
1.676979064941406250e-01
7.000917196273803711e-02
-2.967615425586700439e-02
-2.212110906839370728e-01
1.887876242399215698e-01
1.159706115722656250e-01
4.485348612070083618e-02
-1.027860399335622787e-02
-2.161530256271362305e-01
-1.870838254690170288e-01
-1.085126306861639023e-02
8.830450475215911865e-02
-8.740915358066558838e-02
-8.059434592723846436e-03
3.713128715753555298e-02
-1.053975149989128113e-02
-2.067328691482543945e-01
5.679836496710777283e-02
-1.551470756530761719e-01
-3.492473065853118896e-01
-1.553649306297302246e-01
9.162219613790512085e-02
-7.143580913543701172e-02
-8.674696832895278931e-02
6.239253282546997070e-02
3.744211047887802124e-02
-9.482919424772262573e-02
-2.177428081631660461e-02
-5.635867267847061157e-02
-5.775022134184837341e-02
1.076536104083061218e-01
2.349995225667953491e-01
8.279480040073394775e-02
1.901641637086868286e-01
-1.512264758348464966e-01
-1.424332559108734131e-01
2.200280129909515381e-02
-2.946853265166282654e-02
-1.703628152608871460e-01
-1.322633679956197739e-02
-1.369905322790145874e-01
6.365501135587692261e-02
2.228832244873046875e-01
-3.011529743671417236e-01
4.838404059410095215e-02
4.394277557730674744e-02
-4.111039638519287109e-02
-2.336400300264358521e-01
2.871197089552879333e-02
-1.055631972849369049e-02
7.197263039415702224e-05
1.122680455446243286e-01
-2.173498868942260742e-01
2.765364050865173340e-01
-2.404341697692871094e-01
-2.486968189477920532e-01
1.232130602002143860e-01
2.189542502164840698e-01
1.603250019252300262e-02
4.831146076321601868e-02
-1.098256111145019531e-01
1.961583644151687622e-01
-1.273346096277236938e-01
2.175663709640502930e-01
-4.219179973006248474e-03
-8.589038997888565063e-02
3.433129936456680298e-02
9.435811080038547516e-03
3.049703501164913177e-02
-4.591779410839080811e-02
-4.690545052289962769e-02
-1.895546317100524902e-01
-1.982505470514297485e-01
6.347239017486572266e-02
3.152550011873245239e-02
3.198069632053375244e-01
1.866105496883392334e-01
1.096926704049110413e-01
1.116935443133115768e-02
-2.049039490520954132e-02
9.636611491441726685e-02
-1.341009438037872314e-01
-1.682763546705245972e-01
-5.864464491605758667e-02
1.870647817850112915e-01
-1.538290828466415405e-01
5.984358116984367371e-02
2.242439985275268555e-01
5.488821864128112793e-02
-1.025534570217132568e-01
1.512488722801208496e-01
1.740771681070327759e-01
4.085434973239898682e-02
-1.713658869266510010e-01
-2.433215677738189697e-01
6.021017953753471375e-02
-2.611905634403228760e-01
-9.267141669988632202e-02
-1.039477065205574036e-01
6.150984205305576324e-03
-1.044951081275939941e-01
5.544030293822288513e-02
-5.619788169860839844e-02
-5.781274288892745972e-02
-1.247723400592803955e-01
-1.246783323585987091e-02
-2.405364438891410828e-02
-2.139774560928344727e-01
-3.807140747085213661e-03
1.441780179738998413e-01
3.544956445693969727e-01
-9.473313391208648682e-02
-1.055920720100402832e-01
-2.895804047584533691e-01
-2.128758728504180908e-01
1.990198045969009399e-01
-3.819758072495460510e-02
-1.145478710532188416e-01
-3.742120042443275452e-02
-1.646841019392013550e-01
-1.117581948637962341e-01
-1.521713286638259888e-01
-2.311785966157913208e-01
7.992253452539443970e-02
6.633801013231277466e-02
5.238479003310203552e-02
-3.082317709922790527e-01
2.137725800275802612e-01
-1.274432092905044556e-01
-1.897745579481124878e-01
-8.555960957892239094e-04
7.505371421575546265e-02
2.148938328027725220e-01
8.183313161134719849e-02
-8.447016589343547821e-03
1.514039468020200729e-03
-1.003853678703308105e-01
-1.556408852338790894e-01
-5.730201303958892822e-02
-4.144565016031265259e-02
9.682954847812652588e-02
-1.059393212199211121e-01
1.346535515040159225e-02
-8.802661299705505371e-02
-9.424167871475219727e-02
6.644312292337417603e-02
1.841611564159393311e-01
-4.831922054290771484e-02
2.741711735725402832e-01
-1.986330449581146240e-01
6.916021462529897690e-03
1.526955366134643555e-01
-9.142795205116271973e-02
-4.458223283290863037e-02
-5.367682129144668579e-02
8.089584857225418091e-02
6.389264762401580811e-02
-4.325434565544128418e-02
-2.520915567874908447e-01
3.816134482622146606e-02
-2.072645574808120728e-01
-3.303065001964569092e-01
2.379801869392395020e-01
3.323879241943359375e-01
9.454503655433654785e-02
3.725587576627731323e-02
-1.810311712324619293e-02
2.403037399053573608e-01
5.498641356825828552e-02
-1.165112778544425964e-01
-3.543007075786590576e-01
-2.159043401479721069e-02
2.733792411163449287e-03
2.157944887876510620e-01
-1.301491558551788330e-01
1.253384072333574295e-02
5.945078656077384949e-02
2.259410917758941650e-01
8.945789933204650879e-02
1.636220812797546387e-01
2.229642122983932495e-01
-9.994047693908214569e-03
2.069937139749526978e-01
1.242568939924240112e-01
1.797894388437271118e-01
-1.224892362952232361e-01
4.104669764637947083e-02
