-1.885517733171582222e-03 -1.271668588742613792e-04 -1.624844968318939209e-03 -1.760175335220992565e-03 -5.623679680866189301e-05 -1.909036305733025074e-03 -1.467631082050502300e-03 -1.772751798853278160e-03 -1.728039118461310863e-03 -1.388468197546899319e-03 -1.796256401576101780e-03 -9.873091476038098335e-04 -1.651490572839975357e-03 -1.768474350683391094e-03 -9.811797644942998886e-04 -1.916853711009025574e-03 -1.785041997209191322e-03 -1.764649059623479843e-03 -8.251133112935349345e-05 -1.455951482057571411e-03 -1.749524264596402645e-03 -1.776201068423688412e-03 -1.740903011523187160e-03 -1.774403848685324192e-03 -1.606030506081879139e-03 -1.697865896858274937e-03 -6.580390618182718754e-04 -3.828810076811350882e-05 -1.772270421497523785e-03 -1.691599842160940170e-03 -1.639219233766198158e-03 -1.713917474262416363e-03 -1.311755157075822353e-03 -1.708583207800984383e-03 -1.747175119817256927e-03 -1.497234683483839035e-03 -1.766857574693858624e-03 -1.651875791139900684e-03 -1.750104827806353569e-03 -1.715599210001528263e-03 -1.755389384925365448e-03 -1.466201851144433022e-03 -6.472245149780064821e-05 -1.725536887533962727e-03 -1.540001132525503635e-03 -1.737779006361961365e-03 -1.741309184581041336e-03 -1.785808592103421688e-03 -1.711178570985794067e-03 -1.656656735576689243e-03 -1.808699453249573708e-03 -1.746641588397324085e-03 -1.775107579305768013e-03 -1.550755347125232220e-03 -1.732179545797407627e-03 -1.790461596101522446e-03 -1.524727325886487961e-03 -1.488538575358688831e-03 -1.795153832063078880e-03 -1.582956057973206043e-03 -1.793843344785273075e-03 -1.750796684063971043e-03 -1.755249570123851299e-03 -1.743325963616371155e-03 0.000000000000000000e+00 0.000000000000000000e+00 -0.000000000000000000e+00 0.000000000000000000e+00 -0.000000000000000000e+00 0.000000000000000000e+00 -0.000000000000000000e+00 0.000000000000000000e+00 -0.000000000000000000e+00 0.000000000000000000e+00 0.000000000000000000e+00 0.000000000000000000e+00 0.000000000000000000e+00 -0.000000000000000000e+00 -0.000000000000000000e+00 0.000000000000000000e+00 -0.000000000000000000e+00 0.000000000000000000e+00 -0.000000000000000000e+00 -0.000000000000000000e+00 -0.000000000000000000e+00 -0.000000000000000000e+00 -0.000000000000000000e+00 -0.000000000000000000e+00 -0.000000000000000000e+00 0.000000000000000000e+00 0.000000000000000000e+00 0.000000000000000000e+00 0.000000000000000000e+00 0.000000000000000000e+00 -0.000000000000000000e+00 -0.000000000000000000e+00 -0.000000000000000000e+00 0.000000000000000000e+00 0.000000000000000000e+00 0.000000000000000000e+00 -0.000000000000000000e+00 -0.000000000000000000e+00 0.000000000000000000e+00 -0.000000000000000000e+00 -0.000000000000000000e+00 -0.000000000000000000e+00 0.000000000000000000e+00 -0.000000000000000000e+00 -0.000000000000000000e+00 0.000000000000000000e+00 0.000000000000000000e+00 0.000000000000000000e+00 0.000000000000000000e+00 0.000000000000000000e+00 -0.000000000000000000e+00 0.000000000000000000e+00 0.000000000000000000e+00 -0.000000000000000000e+00 0.000000000000000000e+00 0.000000000000000000e+00 0.000000000000000000e+00 -0.000000000000000000e+00 0.000000000000000000e+00 -0.000000000000000000e+00 0.000000000000000000e+00 0.000000000000000000e+00 -0.000000000000000000e+00 -0.000000000000000000e+00
-1.890274696052074432e-03 -1.426256494596600533e-04 -1.666717231273651123e-03 -1.734690857119858265e-03 -5.724826769437640905e-05 -1.858314382843673229e-03 -1.455067191272974014e-03 -1.736427773721516132e-03 -1.770552364178001881e-03 -1.412621815688908100e-03 -1.730981050059199333e-03 -9.902718011289834976e-04 -1.697796746157109737e-03 -1.738937688060104847e-03 -1.012000837363302708e-03 -1.925734453834593296e-03 -1.743416301906108856e-03 -1.797876087948679924e-03 -7.485171954613178968e-05 -1.442998065613210201e-03 -1.735217054374516010e-03 -1.720672007650136948e-03 -1.763939275406301022e-03 -1.793631468899548054e-03 -1.597603433765470982e-03 -1.698235748335719109e-03 -6.322766421362757683e-04 -4.476889080251567066e-05 -1.730950199998915195e-03 -1.689456752501428127e-03 -1.622042153030633926e-03 -1.762664644047617912e-03 -1.339535927399992943e-03 -1.749901683069765568e-03 -1.732711447402834892e-03 -1.500755082815885544e-03 -1.761153107509016991e-03 -1.656519831158220768e-03 -1.714845653623342514e-03 -1.764393178746104240e-03 -1.719364430755376816e-03 -1.448173075914382935e-03 -6.647010013693943620e-05 -1.748669194057583809e-03 -1.535608549602329731e-03 -1.757465768605470657e-03 -1.776250312104821205e-03 -1.780729973688721657e-03 -1.765345339663326740e-03 -1.687251147814095020e-03 -1.805991982109844685e-03 -1.775399316102266312e-03 -1.742797903716564178e-03 -1.538732787594199181e-03 -1.727973343804478645e-03 -1.741531421430408955e-03 -1.546675572171807289e-03 -1.495627802796661854e-03 -1.793932286091148853e-03 -1.645515789277851582e-03 -1.752260373905301094e-03 -1.781545812264084816e-03 -1.742547494359314442e-03 -1.758594298735260963e-03 0.000000000000000000e+00 0.000000000000000000e+00 0.000000000000000000e+00 0.000000000000000000e+00 0.000000000000000000e+00 -0.000000000000000000e+00 -0.000000000000000000e+00 -0.000000000000000000e+00 0.000000000000000000e+00 0.000000000000000000e+00 -0.000000000000000000e+00 -0.000000000000000000e+00 -0.000000000000000000e+00 -0.000000000000000000e+00 0.000000000000000000e+00 0.000000000000000000e+00 0.000000000000000000e+00 -0.000000000000000000e+00 0.000000000000000000e+00 -0.000000000000000000e+00 -0.000000000000000000e+00 -0.000000000000000000e+00 0.000000000000000000e+00 0.000000000000000000e+00 -0.000000000000000000e+00 0.000000000000000000e+00 0.000000000000000000e+00 -0.000000000000000000e+00 0.000000000000000000e+00 -0.000000000000000000e+00 0.000000000000000000e+00 -0.000000000000000000e+00 0.000000000000000000e+00 0.000000000000000000e+00 -0.000000000000000000e+00 0.000000000000000000e+00 -0.000000000000000000e+00 -0.000000000000000000e+00 -0.000000000000000000e+00 0.000000000000000000e+00 0.000000000000000000e+00 -0.000000000000000000e+00 -0.000000000000000000e+00 0.000000000000000000e+00 0.000000000000000000e+00 -0.000000000000000000e+00 -0.000000000000000000e+00 0.000000000000000000e+00 -0.000000000000000000e+00 -0.000000000000000000e+00 0.000000000000000000e+00 0.000000000000000000e+00 0.000000000000000000e+00 -0.000000000000000000e+00 -0.000000000000000000e+00 0.000000000000000000e+00 0.000000000000000000e+00 0.000000000000000000e+00 -0.000000000000000000e+00 -0.000000000000000000e+00 -0.000000000000000000e+00 0.000000000000000000e+00 0.000000000000000000e+00 0.000000000000000000e+00
-1.863266574218869209e-03 -1.045678873197175562e-04 -1.650502672418951988e-03 -1.752890879288315773e-03 -5.647242869599722326e-05 -1.866752165369689465e-03 -1.504949177615344524e-03 -1.762330532073974609e-03 -1.791759277693927288e-03 -1.370638492517173290e-03 -1.765167340636253357e-03 -1.052837586030364037e-03 -1.716637169010937214e-03 -1.750141964294016361e-03 -9.855624521151185036e-04 -1.918239169754087925e-03 -1.735773868858814240e-03 -1.744179986417293549e-03 -1.206993256346322596e-04 -1.425203983671963215e-03 -1.733197015710175037e-03 -1.733789336867630482e-03 -1.733425771817564964e-03 -1.748238923028111458e-03 -1.615474815480411053e-03 -1.675182022154331207e-03 -6.002067239023745060e-04 -1.529102883068844676e-05 -1.763285836204886436e-03 -1.692669349722564220e-03 -1.630544662475585938e-03 -1.729795825667679310e-03 -1.325160148553550243e-03 -1.702715293504297733e-03 -1.728723291307687759e-03 -1.452202093787491322e-03 -1.712718978524208069e-03 -1.675229170359671116e-03 -1.725543756037950516e-03 -1.752918353304266930e-03 -1.751214032992720604e-03 -1.467492082156240940e-03 -6.700840458506718278e-05 -1.731741125695407391e-03 -1.534807612188160419e-03 -1.781327882781624794e-03 -1.751847099512815475e-03 -1.731115975417196751e-03 -1.767055946402251720e-03 -1.669157645665109158e-03 -1.803166465833783150e-03 -1.749428105540573597e-03 -1.777826109901070595e-03 -1.565188635140657425e-03 -1.720333704724907875e-03 -1.762078958563506603e-03 -1.544335624203085899e-03 -1.439883722923696041e-03 -1.759169390425086021e-03 -1.584214624017477036e-03 -1.784474239684641361e-03 -1.770789502188563347e-03 -1.744835171848535538e-03 -1.747494097799062729e-03 -0.000000000000000000e+00 -0.000000000000000000e+00 -0.000000000000000000e+00 0.000000000000000000e+00 -0.000000000000000000e+00 -0.000000000000000000e+00 -0.000000000000000000e+00 -0.000000000000000000e+00 0.000000000000000000e+00 0.000000000000000000e+00 0.000000000000000000e+00 0.000000000000000000e+00 0.000000000000000000e+00 -0.000000000000000000e+00 -0.000000000000000000e+00 -0.000000000000000000e+00 -0.000000000000000000e+00 0.000000000000000000e+00 0.000000000000000000e+00 -0.000000000000000000e+00 0.000000000000000000e+00 0.000000000000000000e+00 -0.000000000000000000e+00 -0.000000000000000000e+00 -0.000000000000000000e+00 0.000000000000000000e+00 -0.000000000000000000e+00 -0.000000000000000000e+00 0.000000000000000000e+00 -0.000000000000000000e+00 -0.000000000000000000e+00 0.000000000000000000e+00 0.000000000000000000e+00 -0.000000000000000000e+00 0.000000000000000000e+00 -0.000000000000000000e+00 -0.000000000000000000e+00 0.000000000000000000e+00 -0.000000000000000000e+00 0.000000000000000000e+00 0.000000000000000000e+00 -0.000000000000000000e+00 0.000000000000000000e+00 0.000000000000000000e+00 -0.000000000000000000e+00 -0.000000000000000000e+00 0.000000000000000000e+00 -0.000000000000000000e+00 0.000000000000000000e+00 0.000000000000000000e+00 -0.000000000000000000e+00 -0.000000000000000000e+00 0.000000000000000000e+00 -0.000000000000000000e+00 0.000000000000000000e+00 -0.000000000000000000e+00 -0.000000000000000000e+00 -0.000000000000000000e+00 -0.000000000000000000e+00 0.000000000000000000e+00 0.000000000000000000e+00 -0.000000000000000000e+00 -0.000000000000000000e+00 0.000000000000000000e+00
-1.848385669291019440e-03 -1.772786345100030303e-04 -1.666970783844590187e-03 -1.759272185154259205e-03 -5.482088818098418415e-05 -1.920620910823345184e-03 -1.459568506106734276e-03 -1.751650823280215263e-03 -1.779053476639091969e-03 -1.422725734300911427e-03 -1.760732964612543583e-03 -1.041059382259845734e-03 -1.656111096963286400e-03 -1.753188320435583591e-03 -9.465944604016840458e-04 -1.915173255838453770e-03 -1.732139033265411854e-03 -1.781581435352563858e-03 -9.674701141193509102e-05 -1.497082645073533058e-03 -1.735558034852147102e-03 -1.782178878784179688e-03 -1.738647581078112125e-03 -1.741115469485521317e-03 -1.619525370188057423e-03 -1.665689400397241116e-03 -6.207737606018781662e-04 -7.809095404809340835e-05 -1.763818436302244663e-03 -1.648130360990762711e-03 -1.665485440753400326e-03 -1.746227149851620197e-03 -1.352965366095304489e-03 -1.696038874797523022e-03 -1.712297787889838219e-03 -1.448234543204307556e-03 -1.789717585779726505e-03 -1.619161223061382771e-03 -1.746958005242049694e-03 -1.772443298250436783e-03 -1.762344501912593842e-03 -1.497208490036427975e-03 -3.165217276546172798e-05 -1.763188512995839119e-03 -1.545888488180935383e-03 -1.719396095722913742e-03 -1.731610856950283051e-03 -1.728013274259865284e-03 -1.766876666806638241e-03 -1.638694317080080509e-03 -1.813567010685801506e-03 -1.712571363896131516e-03 -1.770312315784394741e-03 -1.534233218990266323e-03 -1.783315092325210571e-03 -1.785345259122550488e-03 -1.550259185023605824e-03 -1.463810331188142300e-03 -1.765033346600830555e-03 -1.566651859320700169e-03 -1.775683253072202206e-03 -1.740186708047986031e-03 -1.724474481306970119e-03 -1.742227468639612198e-03 -0.000000000000000000e+00 -0.000000000000000000e+00 0.000000000000000000e+00 -0.000000000000000000e+00 0.000000000000000000e+00 -0.000000000000000000e+00 0.000000000000000000e+00 -0.000000000000000000e+00 0.000000000000000000e+00 0.000000000000000000e+00 -0.000000000000000000e+00 -0.000000000000000000e+00 0.000000000000000000e+00 0.000000000000000000e+00 -0.000000000000000000e+00 -0.000000000000000000e+00 -0.000000000000000000e+00 -0.000000000000000000e+00 -0.000000000000000000e+00 0.000000000000000000e+00 0.000000000000000000e+00 -0.000000000000000000e+00 -0.000000000000000000e+00 0.000000000000000000e+00 -0.000000000000000000e+00 -0.000000000000000000e+00 0.000000000000000000e+00 -0.000000000000000000e+00 0.000000000000000000e+00 0.000000000000000000e+00 0.000000000000000000e+00 -0.000000000000000000e+00 -0.000000000000000000e+00 0.000000000000000000e+00 0.000000000000000000e+00 0.000000000000000000e+00 0.000000000000000000e+00 -0.000000000000000000e+00 -0.000000000000000000e+00 0.000000000000000000e+00 -0.000000000000000000e+00 -0.000000000000000000e+00 -0.000000000000000000e+00 0.000000000000000000e+00 0.000000000000000000e+00 -0.000000000000000000e+00 -0.000000000000000000e+00 -0.000000000000000000e+00 0.000000000000000000e+00 -0.000000000000000000e+00 0.000000000000000000e+00 -0.000000000000000000e+00 -0.000000000000000000e+00 0.000000000000000000e+00 -0.000000000000000000e+00 0.000000000000000000e+00 0.000000000000000000e+00 -0.000000000000000000e+00 -0.000000000000000000e+00 0.000000000000000000e+00 0.000000000000000000e+00 0.000000000000000000e+00 -0.000000000000000000e+00 -0.000000000000000000e+00
-1.861355500295758247e-03 -1.831000117817893624e-04 -1.652464503422379494e-03 -1.782652223482728004e-03 -1.685545139480382204e-04 -1.914902473799884319e-03 -1.467863796278834343e-03 -1.757036428898572922e-03 -1.772073330357670784e-03 -1.425384427420794964e-03 -1.787770539522171021e-03 -1.378506422042846680e-03 -1.730963005684316158e-03 -1.767441397532820702e-03 -1.301442505791783333e-03 -1.883787801489233971e-03 -1.750273397192358971e-03 -1.795125892385840416e-03 -2.336503239348530769e-04 -1.478420221246778965e-03 -1.745485700666904449e-03 -1.771037001162767410e-03 -1.772852381691336632e-03 -1.812111353501677513e-03 -1.612089341506361961e-03 -1.673887018114328384e-03 -8.351729484274983406e-04 -6.705405394313856959e-05 -1.790227135643362999e-03 -1.765866996720433235e-03 -1.626677694730460644e-03 -1.792848808690905571e-03 -1.359801739454269409e-03 -1.783762010745704174e-03 -1.781784463673830032e-03 -1.478986348956823349e-03 -1.775060780346393585e-03 -1.709728734567761421e-03 -1.758124213665723801e-03 -1.783354906365275383e-03 -1.743584638461470604e-03 -1.500322134234011173e-03 -1.593039633007720113e-04 -1.788899768143892288e-03 -1.643151626922190189e-03 -1.802677405066788197e-03 -1.793874544091522694e-03 -1.784329768270254135e-03 -1.803536200895905495e-03 -1.672388752922415733e-03 -1.818242482841014862e-03 -1.792275346815586090e-03 -1.759403268806636333e-03 -1.549514359794557095e-03 -1.747162546962499619e-03 -1.803050981834530830e-03 -1.600402174517512321e-03 -1.495218020863831043e-03 -1.788418157957494259e-03 -1.590207801200449467e-03 -1.766226254403591156e-03 -1.784570980817079544e-03 -1.768846297636628151e-03 -1.752104144543409348e-03 0.000000000000000000e+00 -0.000000000000000000e+00 -0.000000000000000000e+00 0.000000000000000000e+00 -0.000000000000000000e+00 -0.000000000000000000e+00 -0.000000000000000000e+00 -0.000000000000000000e+00 -0.000000000000000000e+00 -0.000000000000000000e+00 -0.000000000000000000e+00 -0.000000000000000000e+00 -0.000000000000000000e+00 0.000000000000000000e+00 -0.000000000000000000e+00 -0.000000000000000000e+00 0.000000000000000000e+00 -0.000000000000000000e+00 -0.000000000000000000e+00 -0.000000000000000000e+00 0.000000000000000000e+00 -0.000000000000000000e+00 -0.000000000000000000e+00 0.000000000000000000e+00 0.000000000000000000e+00 0.000000000000000000e+00 0.000000000000000000e+00 -0.000000000000000000e+00 -0.000000000000000000e+00 -0.000000000000000000e+00 0.000000000000000000e+00 0.000000000000000000e+00 -0.000000000000000000e+00 0.000000000000000000e+00 0.000000000000000000e+00 -0.000000000000000000e+00 0.000000000000000000e+00 0.000000000000000000e+00 -0.000000000000000000e+00 0.000000000000000000e+00 0.000000000000000000e+00 0.000000000000000000e+00 0.000000000000000000e+00 -0.000000000000000000e+00 -0.000000000000000000e+00 0.000000000000000000e+00 -0.000000000000000000e+00 -0.000000000000000000e+00 -0.000000000000000000e+00 -0.000000000000000000e+00 -0.000000000000000000e+00 -0.000000000000000000e+00 -0.000000000000000000e+00 -0.000000000000000000e+00 -0.000000000000000000e+00 -0.000000000000000000e+00 -0.000000000000000000e+00 0.000000000000000000e+00 0.000000000000000000e+00 0.000000000000000000e+00 -0.000000000000000000e+00 0.000000000000000000e+00 -0.000000000000000000e+00 -0.000000000000000000e+00
-1.839923439547419548e-03 -2.090285997837781906e-04 -1.690793316811323166e-03 -1.788353896699845791e-03 -1.196525045088492334e-04 -1.884494326077401638e-03 -1.463060965761542320e-03 -1.795773860067129135e-03 -1.787069486454129219e-03 -1.419561216607689857e-03 -1.781628234311938286e-03 -1.257296418771147728e-03 -1.687766518443822861e-03 -1.752761541865766048e-03 -1.229333574883639812e-03 -1.948067336343228817e-03 -1.785715576261281967e-03 -1.787928282283246517e-03 -1.726335904095321894e-04 -1.461153966374695301e-03 -1.788084860891103745e-03 -1.754933153279125690e-03 -1.795496791601181030e-03 -1.775804674252867699e-03 -1.599136972799897194e-03 -1.694303355179727077e-03 -9.401921997778117657e-04 -7.292895315913483500e-05 -1.783701358363032341e-03 -1.733203302137553692e-03 -1.657921005971729755e-03 -1.769997761584818363e-03 -1.344875548966228962e-03 -1.754294498823583126e-03 -1.759646576829254627e-03 -1.497788820415735245e-03 -1.768955611623823643e-03 -1.649848651140928268e-03 -1.754943281412124634e-03 -1.764962915331125259e-03 -1.780302030965685844e-03 -1.507929642684757710e-03 -9.441884321859106421e-05 -1.786456909030675888e-03 -1.656406791880726814e-03 -1.727991271764039993e-03 -1.801389036700129509e-03 -1.753115560859441757e-03 -1.756974379532039165e-03 -1.647908356972038746e-03 -1.800728379748761654e-03 -1.813377370126545429e-03 -1.717996085062623024e-03 -1.564134028740227222e-03 -1.825942192226648331e-03 -1.785998581908643246e-03 -1.611424027942121029e-03 -1.473948825150728226e-03 -1.783267711289227009e-03 -1.628390280529856682e-03 -1.761877210810780525e-03 -1.778321922756731510e-03 -1.778192003257572651e-03 -1.803782652132213116e-03 0.000000000000000000e+00 -0.000000000000000000e+00 -0.000000000000000000e+00 -0.000000000000000000e+00 -0.000000000000000000e+00 0.000000000000000000e+00 -0.000000000000000000e+00 0.000000000000000000e+00 0.000000000000000000e+00 -0.000000000000000000e+00 -0.000000000000000000e+00 0.000000000000000000e+00 0.000000000000000000e+00 0.000000000000000000e+00 0.000000000000000000e+00 -0.000000000000000000e+00 0.000000000000000000e+00 0.000000000000000000e+00 -0.000000000000000000e+00 0.000000000000000000e+00 0.000000000000000000e+00 -0.000000000000000000e+00 -0.000000000000000000e+00 -0.000000000000000000e+00 -0.000000000000000000e+00 -0.000000000000000000e+00 0.000000000000000000e+00 0.000000000000000000e+00 0.000000000000000000e+00 0.000000000000000000e+00 0.000000000000000000e+00 0.000000000000000000e+00 -0.000000000000000000e+00 0.000000000000000000e+00 -0.000000000000000000e+00 0.000000000000000000e+00 0.000000000000000000e+00 -0.000000000000000000e+00 0.000000000000000000e+00 -0.000000000000000000e+00 -0.000000000000000000e+00 -0.000000000000000000e+00 -0.000000000000000000e+00 -0.000000000000000000e+00 -0.000000000000000000e+00 0.000000000000000000e+00 0.000000000000000000e+00 -0.000000000000000000e+00 0.000000000000000000e+00 0.000000000000000000e+00 -0.000000000000000000e+00 0.000000000000000000e+00 0.000000000000000000e+00 -0.000000000000000000e+00 0.000000000000000000e+00 0.000000000000000000e+00 -0.000000000000000000e+00 0.000000000000000000e+00 -0.000000000000000000e+00 0.000000000000000000e+00 0.000000000000000000e+00 -0.000000000000000000e+00 -0.000000000000000000e+00 0.000000000000000000e+00
-1.864034915342926979e-03 -1.436925958842039108e-04 -1.638177316635847092e-03 -1.788354129530489445e-03 -8.975789387477561831e-05 -1.883721794001758099e-03 -1.429426134563982487e-03 -1.780331833288073540e-03 -1.765794819220900536e-03 -1.391574391163885593e-03 -1.727466587908565998e-03 -1.252997666597366333e-03 -1.696464256383478642e-03 -1.773880911059677601e-03 -1.215996337123215199e-03 -1.919993781484663486e-03 -1.774714794009923935e-03 -1.736964681185781956e-03 -2.294952719239518046e-04 -1.416660030372440815e-03 -1.799651305191218853e-03 -1.770660979673266411e-03 -1.722798915579915047e-03 -1.738992170430719852e-03 -1.609678380191326141e-03 -1.662256661802530289e-03 -7.613136549480259418e-04 -6.637412298005074263e-05 -1.797197735868394375e-03 -1.732455450110137463e-03 -1.681465888395905495e-03 -1.736062695272266865e-03 -1.346236560493707657e-03 -1.745898625813424587e-03 -1.745346817187964916e-03 -1.490451744757592678e-03 -1.747942063957452774e-03 -1.668180921114981174e-03 -1.771890674717724323e-03 -1.812852569855749607e-03 -1.767709269188344479e-03 -1.464950037188827991e-03 -1.126625938923098147e-04 -1.775212003849446774e-03 -1.619428279809653759e-03 -1.750403665937483311e-03 -1.776455901563167572e-03 -1.721921260468661785e-03 -1.784034539014101028e-03 -1.614764914847910404e-03 -1.764392247423529625e-03 -1.759829232469201088e-03 -1.722905668430030346e-03 -1.505721593275666237e-03 -1.801447360776364803e-03 -1.788352965377271175e-03 -1.571426168084144592e-03 -1.494167139753699303e-03 -1.771969487890601158e-03 -1.579579897224903107e-03 -1.772519084624946117e-03 -1.779802027158439159e-03 -1.764922635629773140e-03 -1.789066125638782978e-03 -0.000000000000000000e+00 0.000000000000000000e+00 -0.000000000000000000e+00 -0.000000000000000000e+00 0.000000000000000000e+00 -0.000000000000000000e+00 -0.000000000000000000e+00 -0.000000000000000000e+00 -0.000000000000000000e+00 -0.000000000000000000e+00 -0.000000000000000000e+00 -0.000000000000000000e+00 -0.000000000000000000e+00 -0.000000000000000000e+00 0.000000000000000000e+00 0.000000000000000000e+00 0.000000000000000000e+00 0.000000000000000000e+00 -0.000000000000000000e+00 0.000000000000000000e+00 0.000000000000000000e+00 -0.000000000000000000e+00 -0.000000000000000000e+00 -0.000000000000000000e+00 -0.000000000000000000e+00 0.000000000000000000e+00 -0.000000000000000000e+00 0.000000000000000000e+00 -0.000000000000000000e+00 -0.000000000000000000e+00 0.000000000000000000e+00 0.000000000000000000e+00 0.000000000000000000e+00 0.000000000000000000e+00 -0.000000000000000000e+00 0.000000000000000000e+00 0.000000000000000000e+00 -0.000000000000000000e+00 0.000000000000000000e+00 0.000000000000000000e+00 0.000000000000000000e+00 -0.000000000000000000e+00 0.000000000000000000e+00 -0.000000000000000000e+00 0.000000000000000000e+00 0.000000000000000000e+00 0.000000000000000000e+00 -0.000000000000000000e+00 0.000000000000000000e+00 0.000000000000000000e+00 -0.000000000000000000e+00 0.000000000000000000e+00 -0.000000000000000000e+00 -0.000000000000000000e+00 -0.000000000000000000e+00 -0.000000000000000000e+00 0.000000000000000000e+00 -0.000000000000000000e+00 -0.000000000000000000e+00 0.000000000000000000e+00 0.000000000000000000e+00 0.000000000000000000e+00 0.000000000000000000e+00 0.000000000000000000e+00
-1.858017873018980026e-03 -1.620456605451181531e-04 -1.682389294728636742e-03 -1.777379191480576992e-03 -8.055331272771582007e-05 -1.870476990006864071e-03 -1.470664748921990395e-03 -1.737018930725753307e-03 -1.714132144115865231e-03 -1.405824325047433376e-03 -1.763769309036433697e-03 -9.730235324241220951e-04 -1.660237088799476624e-03 -1.763717387802898884e-03 -1.051098573952913284e-03 -1.913165091536939144e-03 -1.772828632965683937e-03 -1.768060727044939995e-03 -8.787805563770234585e-05 -1.428879098966717720e-03 -1.754367374815046787e-03 -1.766268513165414333e-03 -1.755824079737067223e-03 -1.737671904265880585e-03 -1.604520366527140141e-03 -1.689354889094829559e-03 -6.229103310033679008e-04 2.066439890313631622e-07 -1.764341606758534908e-03 -1.689772470854222775e-03 -1.631236635148525238e-03 -1.771241193637251854e-03 -1.347610261291265488e-03 -1.720258384011685848e-03 -1.680940622463822365e-03 -1.478734193369746208e-03 -1.774800242856144905e-03 -1.670086872763931751e-03 -1.766906119883060455e-03 -1.765671186149120331e-03 -1.751321018673479557e-03 -1.473727519623935223e-03 -3.583255238481797278e-05 -1.752516953274607658e-03 -1.541318953968584538e-03 -1.749387476593255997e-03 -1.785625237971544266e-03 -1.722087617963552475e-03 -1.774916774593293667e-03 -1.649252953939139843e-03 -1.800626283511519432e-03 -1.775892334990203381e-03 -1.737997750751674175e-03 -1.523303799331188202e-03 -1.747993170283734798e-03 -1.734785386361181736e-03 -1.559032010845839977e-03 -1.514500821940600872e-03 -1.815229537896811962e-03 -1.563198282383382320e-03 -1.739883911795914173e-03 -1.774289412423968315e-03 -1.717710285447537899e-03 -1.731559401378035545e-03 0.000000000000000000e+00 -0.000000000000000000e+00 -0.000000000000000000e+00 -0.000000000000000000e+00 0.000000000000000000e+00 0.000000000000000000e+00 0.000000000000000000e+00 -0.000000000000000000e+00 -0.000000000000000000e+00 0.000000000000000000e+00 -0.000000000000000000e+00 -0.000000000000000000e+00 0.000000000000000000e+00 -0.000000000000000000e+00 0.000000000000000000e+00 -0.000000000000000000e+00 0.000000000000000000e+00 -0.000000000000000000e+00 -0.000000000000000000e+00 0.000000000000000000e+00 -0.000000000000000000e+00 -0.000000000000000000e+00 0.000000000000000000e+00 -0.000000000000000000e+00 0.000000000000000000e+00 0.000000000000000000e+00 -0.000000000000000000e+00 -0.000000000000000000e+00 0.000000000000000000e+00 0.000000000000000000e+00 0.000000000000000000e+00 -0.000000000000000000e+00 0.000000000000000000e+00 0.000000000000000000e+00 -0.000000000000000000e+00 0.000000000000000000e+00 -0.000000000000000000e+00 -0.000000000000000000e+00 -0.000000000000000000e+00 0.000000000000000000e+00 -0.000000000000000000e+00 0.000000000000000000e+00 0.000000000000000000e+00 0.000000000000000000e+00 -0.000000000000000000e+00 0.000000000000000000e+00 -0.000000000000000000e+00 0.000000000000000000e+00 -0.000000000000000000e+00 0.000000000000000000e+00 -0.000000000000000000e+00 0.000000000000000000e+00 -0.000000000000000000e+00 -0.000000000000000000e+00 0.000000000000000000e+00 -0.000000000000000000e+00 -0.000000000000000000e+00 -0.000000000000000000e+00 -0.000000000000000000e+00 0.000000000000000000e+00 0.000000000000000000e+00 -0.000000000000000000e+00 -0.000000000000000000e+00 -0.000000000000000000e+00
-1.822273246943950653e-03 -1.621648116270080209e-04 -1.600719057023525238e-03 -1.790091511793434620e-03 -7.354219269473105669e-05 -1.865863101556897163e-03 -1.448531635105609894e-03 -1.750065595842897892e-03 -1.759217586368322372e-03 -1.407639705576002598e-03 -1.751549891196191311e-03 -9.913544636219739914e-04 -1.699615619145333767e-03 -1.768202870152890682e-03 -9.869567584246397018e-04 -1.928213285282254219e-03 -1.712855417281389236e-03 -1.778556499630212784e-03 -1.027945763780735433e-04 -1.453920267522335052e-03 -1.714001642540097237e-03 -1.720575382933020592e-03 -1.785405795089900494e-03 -1.784411375410854816e-03 -1.617596833966672421e-03 -1.719218678772449493e-03 -5.922606214880943298e-04 -1.418785450368886814e-05 -1.756996964104473591e-03 -1.708363648504018784e-03 -1.612356631085276604e-03 -1.790809910744428635e-03 -1.357559813186526299e-03 -1.755401142872869968e-03 -1.708437688648700714e-03 -1.469914685003459454e-03 -1.715126796625554562e-03 -1.658307970501482487e-03 -1.746707595884799957e-03 -1.737007522024214268e-03 -1.793356379494071007e-03 -1.476427190937101841e-03 -7.333202665904536843e-05 -1.754965400323271751e-03 -1.513391151092946529e-03 -1.783916028216481209e-03 -1.770442700944840908e-03 -1.768576097674667835e-03 -1.748972455970942974e-03 -1.637469045817852020e-03 -1.781366765499114990e-03 -1.732410630211234093e-03 -1.746627851389348507e-03 -1.565264072269201279e-03 -1.733921351842582226e-03 -1.730365096591413021e-03 -1.571004395373165607e-03 -1.467259950004518032e-03 -1.772486837580800056e-03 -1.577718998305499554e-03 -1.745872781611979008e-03 -1.715372665785253048e-03 -1.746259513311088085e-03 -1.755716744810342789e-03 -0.000000000000000000e+00 -0.000000000000000000e+00 0.000000000000000000e+00 -0.000000000000000000e+00 -0.000000000000000000e+00 0.000000000000000000e+00 -0.000000000000000000e+00 -0.000000000000000000e+00 0.000000000000000000e+00 0.000000000000000000e+00 0.000000000000000000e+00 0.000000000000000000e+00 0.000000000000000000e+00 0.000000000000000000e+00 0.000000000000000000e+00 0.000000000000000000e+00 -0.000000000000000000e+00 0.000000000000000000e+00 0.000000000000000000e+00 -0.000000000000000000e+00 0.000000000000000000e+00 0.000000000000000000e+00 0.000000000000000000e+00 -0.000000000000000000e+00 0.000000000000000000e+00 -0.000000000000000000e+00 0.000000000000000000e+00 -0.000000000000000000e+00 -0.000000000000000000e+00 0.000000000000000000e+00 0.000000000000000000e+00 0.000000000000000000e+00 -0.000000000000000000e+00 0.000000000000000000e+00 0.000000000000000000e+00 0.000000000000000000e+00 0.000000000000000000e+00 0.000000000000000000e+00 -0.000000000000000000e+00 0.000000000000000000e+00 -0.000000000000000000e+00 -0.000000000000000000e+00 -0.000000000000000000e+00 0.000000000000000000e+00 -0.000000000000000000e+00 -0.000000000000000000e+00 0.000000000000000000e+00 0.000000000000000000e+00 0.000000000000000000e+00 -0.000000000000000000e+00 -0.000000000000000000e+00 0.000000000000000000e+00 -0.000000000000000000e+00 0.000000000000000000e+00 0.000000000000000000e+00 -0.000000000000000000e+00 -0.000000000000000000e+00 0.000000000000000000e+00 -0.000000000000000000e+00 -0.000000000000000000e+00 0.000000000000000000e+00 0.000000000000000000e+00 -0.000000000000000000e+00 0.000000000000000000e+00
-1.871798885986208916e-03 -1.928371930262073874e-04 -1.622005249373614788e-03 -1.767324516549706459e-03 -1.093279424821957946e-04 -1.942129922099411488e-03 -1.428352901712059975e-03 -1.782465726137161255e-03 -1.778621226549148560e-03 -1.408943091519176960e-03 -1.788555644452571869e-03 -1.382122514769434929e-03 -1.681686611846089363e-03 -1.819180557504296303e-03 -1.325211953371763229e-03 -1.958030741661787033e-03 -1.754186116158962250e-03 -1.812468864955008030e-03 -2.051612245850265026e-04 -1.442479784600436687e-03 -1.767889363691210747e-03 -1.791796414181590080e-03 -1.719139982014894485e-03 -1.804627245292067528e-03 -1.599252456799149513e-03 -1.729563344269990921e-03 -8.849850855767726898e-04 -5.360159775591455400e-05 -1.760303974151611328e-03 -1.751987729221582413e-03 -1.658677356317639351e-03 -1.801433274522423744e-03 -1.375343068502843380e-03 -1.813667011447250843e-03 -1.745602930895984173e-03 -1.501831458881497383e-03 -1.761217135936021805e-03 -1.675748033449053764e-03 -1.784469466656446457e-03 -1.777256140485405922e-03 -1.818577293306589127e-03 -1.509747584350407124e-03 -1.457028265576809645e-04 -1.794079085811972618e-03 -1.722679589875042439e-03 -1.755623961798846722e-03 -1.787400455214083195e-03 -1.800321508198976517e-03 -1.824312843382358551e-03 -1.641421811655163765e-03 -1.847375766374170780e-03 -1.777460798621177673e-03 -1.770453993231058121e-03 -1.556931762024760246e-03 -1.787381246685981750e-03 -1.816746080294251442e-03 -1.559339230880141258e-03 -1.463197753764688969e-03 -1.804573927074670792e-03 -1.579783973284065723e-03 -1.764575950801372528e-03 -1.821140525862574577e-03 -1.784874824807047844e-03 -1.796963391825556755e-03 -0.000000000000000000e+00 0.000000000000000000e+00 -0.000000000000000000e+00 -0.000000000000000000e+00 0.000000000000000000e+00 0.000000000000000000e+00 0.000000000000000000e+00 0.000000000000000000e+00 0.000000000000000000e+00 0.000000000000000000e+00 -0.000000000000000000e+00 -0.000000000000000000e+00 0.000000000000000000e+00 0.000000000000000000e+00 0.000000000000000000e+00 0.000000000000000000e+00 0.000000000000000000e+00 0.000000000000000000e+00 0.000000000000000000e+00 0.000000000000000000e+00 -0.000000000000000000e+00 -0.000000000000000000e+00 -0.000000000000000000e+00 -0.000000000000000000e+00 -0.000000000000000000e+00 -0.000000000000000000e+00 0.000000000000000000e+00 0.000000000000000000e+00 -0.000000000000000000e+00 -0.000000000000000000e+00 0.000000000000000000e+00 0.000000000000000000e+00 0.000000000000000000e+00 -0.000000000000000000e+00 -0.000000000000000000e+00 0.000000000000000000e+00 -0.000000000000000000e+00 0.000000000000000000e+00 0.000000000000000000e+00 -0.000000000000000000e+00 0.000000000000000000e+00 -0.000000000000000000e+00 -0.000000000000000000e+00 -0.000000000000000000e+00 0.000000000000000000e+00 0.000000000000000000e+00 -0.000000000000000000e+00 0.000000000000000000e+00 -0.000000000000000000e+00 0.000000000000000000e+00 0.000000000000000000e+00 -0.000000000000000000e+00 -0.000000000000000000e+00 0.000000000000000000e+00 0.000000000000000000e+00 -0.000000000000000000e+00 -0.000000000000000000e+00 0.000000000000000000e+00 -0.000000000000000000e+00 0.000000000000000000e+00 0.000000000000000000e+00 -0.000000000000000000e+00 0.000000000000000000e+00 0.000000000000000000e+00
-1.890100771561264992e-03 -3.293757326900959015e-04 -1.651761122047901154e-03 -1.799335703253746033e-03 -2.149723732145503163e-04 -1.875513466075062752e-03 -1.410132506862282753e-03 -1.776576624251902103e-03 -1.793768838979303837e-03 -1.384799601510167122e-03 -1.811875961720943451e-03 -1.411416917107999325e-03 -1.706096227280795574e-03 -1.776171266101300716e-03 -1.330168917775154114e-03 -1.955541549250483513e-03 -1.780461519956588745e-03 -1.807531807571649551e-03 -2.614176482893526554e-04 -1.517813070677220821e-03 -1.806753105483949184e-03 -1.780611579306423664e-03 -1.781868515536189079e-03 -1.785345724783837795e-03 -1.614980981685221195e-03 -1.700534019619226456e-03 -1.083972048945724964e-03 -1.036942703649401665e-04 -1.792455324903130531e-03 -1.769200782291591167e-03 -1.667865086346864700e-03 -1.767069916240870953e-03 -1.376156695187091827e-03 -1.791795017197728157e-03 -1.777030178345739841e-03 -1.568111591041088104e-03 -1.819806755520403385e-03 -1.690320321358740330e-03 -1.784347929060459137e-03 -1.821229467168450356e-03 -1.774852047674357891e-03 -1.497256336733698845e-03 -1.566479913890361786e-04 -1.784474588930606842e-03 -1.689861877821385860e-03 -1.754912314936518669e-03 -1.780023681931197643e-03 -1.759190927259624004e-03 -1.744655892252922058e-03 -1.677651191130280495e-03 -1.834040158428251743e-03 -1.771889277733862400e-03 -1.767035457305610180e-03 -1.561430050060153008e-03 -1.804934581741690636e-03 -1.799983088858425617e-03 -1.598597969859838486e-03 -1.508446061052381992e-03 -1.766179222613573074e-03 -1.610965933650732040e-03 -1.843449892476201057e-03 -1.788365654647350311e-03 -1.799265621230006218e-03 -1.754241529852151871e-03 0.000000000000000000e+00 0.000000000000000000e+00 -0.000000000000000000e+00 0.000000000000000000e+00 0.000000000000000000e+00 -0.000000000000000000e+00 0.000000000000000000e+00 0.000000000000000000e+00 -0.000000000000000000e+00 0.000000000000000000e+00 -0.000000000000000000e+00 -0.000000000000000000e+00 0.000000000000000000e+00 0.000000000000000000e+00 0.000000000000000000e+00 -0.000000000000000000e+00 -0.000000000000000000e+00 0.000000000000000000e+00 0.000000000000000000e+00 -0.000000000000000000e+00 -0.000000000000000000e+00 -0.000000000000000000e+00 0.000000000000000000e+00 0.000000000000000000e+00 -0.000000000000000000e+00 0.000000000000000000e+00 -0.000000000000000000e+00 -0.000000000000000000e+00 -0.000000000000000000e+00 0.000000000000000000e+00 -0.000000000000000000e+00 0.000000000000000000e+00 -0.000000000000000000e+00 0.000000000000000000e+00 0.000000000000000000e+00 -0.000000000000000000e+00 0.000000000000000000e+00 -0.000000000000000000e+00 0.000000000000000000e+00 0.000000000000000000e+00 -0.000000000000000000e+00 -0.000000000000000000e+00 -0.000000000000000000e+00 0.000000000000000000e+00 0.000000000000000000e+00 -0.000000000000000000e+00 0.000000000000000000e+00 0.000000000000000000e+00 -0.000000000000000000e+00 0.000000000000000000e+00 -0.000000000000000000e+00 -0.000000000000000000e+00 0.000000000000000000e+00 0.000000000000000000e+00 0.000000000000000000e+00 0.000000000000000000e+00 0.000000000000000000e+00 0.000000000000000000e+00 0.000000000000000000e+00 -0.000000000000000000e+00 0.000000000000000000e+00 -0.000000000000000000e+00 0.000000000000000000e+00 -0.000000000000000000e+00
-1.870673964731395245e-03 -1.362967595923691988e-04 -1.714763930067420006e-03 -1.729936921037733555e-03 -4.092248491360805929e-05 -1.885276753455400467e-03 -1.474905759096145630e-03 -1.731502939946949482e-03 -1.713967532850801945e-03 -1.446928246878087521e-03 -1.735793310217559338e-03 -9.803298162296414375e-04 -1.701667322777211666e-03 -1.760832732543349266e-03 -1.008124789223074913e-03 -1.997988671064376831e-03 -1.743894536048173904e-03 -1.762080937623977661e-03 -8.923369750846177340e-05 -1.484244596213102341e-03 -1.782361650839447975e-03 -1.742115593515336514e-03 -1.813377602957189083e-03 -1.754240132868289948e-03 -1.651629223488271236e-03 -1.695512444712221622e-03 -6.587877287529408932e-04 -9.442886039323639125e-06 -1.772705116309225559e-03 -1.694555394351482391e-03 -1.672781538218259811e-03 -1.746914582327008247e-03 -1.424538553692400455e-03 -1.698670559562742710e-03 -1.730682794004678726e-03 -1.516624004580080509e-03 -1.750642666593194008e-03 -1.702623674646019936e-03 -1.744669280014932156e-03 -1.728353905491530895e-03 -1.747501548379659653e-03 -1.550958142615854740e-03 -7.898430339992046356e-05 -1.769920811057090759e-03 -1.537793665193021297e-03 -1.800940372049808502e-03 -1.719174091704189777e-03 -1.746917143464088440e-03 -1.764717395417392254e-03 -1.714866375550627708e-03 -1.837286865338683128e-03 -1.750580500811338425e-03 -1.811610069125890732e-03 -1.613806118257343769e-03 -1.766434172168374062e-03 -1.788806519471108913e-03 -1.606806530617177486e-03 -1.503243227489292622e-03 -1.811224035918712616e-03 -1.596944406628608704e-03 -1.752086332999169827e-03 -1.756019191816449165e-03 -1.691830926574766636e-03 -1.777768949978053570e-03 -0.000000000000000000e+00 -0.000000000000000000e+00 0.000000000000000000e+00 0.000000000000000000e+00 -0.000000000000000000e+00 -0.000000000000000000e+00 -0.000000000000000000e+00 0.000000000000000000e+00 -0.000000000000000000e+00 -0.000000000000000000e+00 -0.000000000000000000e+00 -0.000000000000000000e+00 -0.000000000000000000e+00 -0.000000000000000000e+00 0.000000000000000000e+00 0.000000000000000000e+00 -0.000000000000000000e+00 -0.000000000000000000e+00 0.000000000000000000e+00 0.000000000000000000e+00 -0.000000000000000000e+00 0.000000000000000000e+00 -0.000000000000000000e+00 0.000000000000000000e+00 0.000000000000000000e+00 0.000000000000000000e+00 0.000000000000000000e+00 0.000000000000000000e+00 0.000000000000000000e+00 0.000000000000000000e+00 0.000000000000000000e+00 -0.000000000000000000e+00 -0.000000000000000000e+00 0.000000000000000000e+00 0.000000000000000000e+00 0.000000000000000000e+00 -0.000000000000000000e+00 -0.000000000000000000e+00 -0.000000000000000000e+00 0.000000000000000000e+00 -0.000000000000000000e+00 -0.000000000000000000e+00 0.000000000000000000e+00 -0.000000000000000000e+00 -0.000000000000000000e+00 0.000000000000000000e+00 -0.000000000000000000e+00 0.000000000000000000e+00 0.000000000000000000e+00 0.000000000000000000e+00 0.000000000000000000e+00 0.000000000000000000e+00 -0.000000000000000000e+00 0.000000000000000000e+00 -0.000000000000000000e+00 -0.000000000000000000e+00 -0.000000000000000000e+00 -0.000000000000000000e+00 -0.000000000000000000e+00 -0.000000000000000000e+00 -0.000000000000000000e+00 -0.000000000000000000e+00 -0.000000000000000000e+00 -0.000000000000000000e+00
-1.891804160550236702e-03 -1.146196882473304868e-04 -1.637705601751804352e-03 -1.740204636007547379e-03 -3.856200055452063680e-05 -1.902153133414685726e-03 -1.460259081795811653e-03 -1.760650076903402805e-03 -1.750782364979386330e-03 -1.380963833071291447e-03 -1.776978606358170509e-03 -9.878104319795966148e-04 -1.636170549318194389e-03 -1.740996376611292362e-03 -1.005045021884143353e-03 -1.938230125233530998e-03 -1.731542870402336121e-03 -1.778234727680683136e-03 -9.973816486308351159e-05 -1.468215836212038994e-03 -1.756189507432281971e-03 -1.725900801829993725e-03 -1.743572065606713295e-03 -1.750100520439445972e-03 -1.540481462143361568e-03 -1.672174665145576000e-03 -6.186235696077346802e-04 -2.618062171677593142e-05 -1.744763110764324665e-03 -1.664158422499895096e-03 -1.654786989092826843e-03 -1.746909110806882381e-03 -1.343493349850177765e-03 -1.706835580989718437e-03 -1.747912028804421425e-03 -1.449428964406251907e-03 -1.727250404655933380e-03 -1.631896360777318478e-03 -1.750819385051727295e-03 -1.768529764376580715e-03 -1.747514121234416962e-03 -1.498634112067520618e-03 -4.116819036426022649e-05 -1.746491761878132820e-03 -1.530088135041296482e-03 -1.769692637026309967e-03 -1.765739521943032742e-03 -1.757556339725852013e-03 -1.787506975233554840e-03 -1.628633006475865841e-03 -1.807083492167294025e-03 -1.705272239632904530e-03 -1.779171871021389961e-03 -1.574521302245557308e-03 -1.730458345264196396e-03 -1.761969644576311111e-03 -1.568015082739293575e-03 -1.454653334803879261e-03 -1.812989008612930775e-03 -1.633119303733110428e-03 -1.767315901815891266e-03 -1.759716193191707134e-03 -1.734402962028980255e-03 -1.793941133655607700e-03 0.000000000000000000e+00 -0.000000000000000000e+00 0.000000000000000000e+00 -0.000000000000000000e+00 0.000000000000000000e+00 0.000000000000000000e+00 -0.000000000000000000e+00 0.000000000000000000e+00 0.000000000000000000e+00 -0.000000000000000000e+00 -0.000000000000000000e+00 -0.000000000000000000e+00 0.000000000000000000e+00 0.000000000000000000e+00 0.000000000000000000e+00 0.000000000000000000e+00 -0.000000000000000000e+00 0.000000000000000000e+00 -0.000000000000000000e+00 -0.000000000000000000e+00 -0.000000000000000000e+00 -0.000000000000000000e+00 -0.000000000000000000e+00 0.000000000000000000e+00 -0.000000000000000000e+00 -0.000000000000000000e+00 0.000000000000000000e+00 -0.000000000000000000e+00 -0.000000000000000000e+00 0.000000000000000000e+00 -0.000000000000000000e+00 -0.000000000000000000e+00 -0.000000000000000000e+00 -0.000000000000000000e+00 0.000000000000000000e+00 0.000000000000000000e+00 0.000000000000000000e+00 0.000000000000000000e+00 0.000000000000000000e+00 -0.000000000000000000e+00 -0.000000000000000000e+00 -0.000000000000000000e+00 0.000000000000000000e+00 -0.000000000000000000e+00 -0.000000000000000000e+00 -0.000000000000000000e+00 0.000000000000000000e+00 0.000000000000000000e+00 0.000000000000000000e+00 -0.000000000000000000e+00 -0.000000000000000000e+00 -0.000000000000000000e+00 0.000000000000000000e+00 -0.000000000000000000e+00 -0.000000000000000000e+00 0.000000000000000000e+00 0.000000000000000000e+00 -0.000000000000000000e+00 0.000000000000000000e+00 0.000000000000000000e+00 -0.000000000000000000e+00 0.000000000000000000e+00 -0.000000000000000000e+00 -0.000000000000000000e+00
-1.874083187431097031e-03 -1.501293590990826488e-04 -1.658670371398329735e-03 -1.734675955958664417e-03 -9.318353113485500216e-05 -1.887996448203921318e-03 -1.435468322597444057e-03 -1.784215797670185566e-03 -1.758791157044470310e-03 -1.392957870848476887e-03 -1.767074689269065857e-03 -9.494006517343223095e-04 -1.681747729890048504e-03 -1.743755885399878025e-03 -1.010939828120172024e-03 -1.931595965288579464e-03 -1.736501348204910755e-03 -1.739668892696499825e-03 -5.887647057534195483e-05 -1.445303787477314472e-03 -1.785878674127161503e-03 -1.725852605886757374e-03 -1.756835146807134151e-03 -1.728022936731576920e-03 -1.626764773391187191e-03 -1.709981937892735004e-03 -5.826313281431794167e-04 -2.162252530979458243e-05 -1.779420184902846813e-03 -1.655060681514441967e-03 -1.648025820031762123e-03 -1.759126200340688229e-03 -1.345847733318805695e-03 -1.730212592519819736e-03 -1.733315177261829376e-03 -1.466611982323229313e-03 -1.766822882927954197e-03 -1.670104335062205791e-03 -1.724206493236124516e-03 -1.791160553693771362e-03 -1.739842467941343784e-03 -1.436037709936499596e-03 -5.020699973101727664e-05 -1.786946319043636322e-03 -1.506018801592290401e-03 -1.715918071568012238e-03 -1.778689678758382797e-03 -1.752306940034031868e-03 -1.764130429364740849e-03 -1.664442359469830990e-03 -1.831424538977444172e-03 -1.767528709024190903e-03 -1.777277910150587559e-03 -1.531017012894153595e-03 -1.752197626046836376e-03 -1.712839351966977119e-03 -1.533028436824679375e-03 -1.465783687308430672e-03 -1.730096992105245590e-03 -1.597074209712445736e-03 -1.764932530932128429e-03 -1.766371307894587517e-03 -1.737910322844982147e-03 -1.743209315463900566e-03 -0.000000000000000000e+00 0.000000000000000000e+00 0.000000000000000000e+00 -0.000000000000000000e+00 -0.000000000000000000e+00 -0.000000000000000000e+00 -0.000000000000000000e+00 0.000000000000000000e+00 0.000000000000000000e+00 -0.000000000000000000e+00 -0.000000000000000000e+00 -0.000000000000000000e+00 0.000000000000000000e+00 0.000000000000000000e+00 -0.000000000000000000e+00 0.000000000000000000e+00 -0.000000000000000000e+00 -0.000000000000000000e+00 0.000000000000000000e+00 0.000000000000000000e+00 0.000000000000000000e+00 0.000000000000000000e+00 0.000000000000000000e+00 -0.000000000000000000e+00 0.000000000000000000e+00 -0.000000000000000000e+00 -0.000000000000000000e+00 0.000000000000000000e+00 0.000000000000000000e+00 -0.000000000000000000e+00 0.000000000000000000e+00 0.000000000000000000e+00 -0.000000000000000000e+00 0.000000000000000000e+00 -0.000000000000000000e+00 0.000000000000000000e+00 -0.000000000000000000e+00 0.000000000000000000e+00 0.000000000000000000e+00 -0.000000000000000000e+00 -0.000000000000000000e+00 -0.000000000000000000e+00 0.000000000000000000e+00 -0.000000000000000000e+00 -0.000000000000000000e+00 -0.000000000000000000e+00 0.000000000000000000e+00 0.000000000000000000e+00 -0.000000000000000000e+00 -0.000000000000000000e+00 0.000000000000000000e+00 -0.000000000000000000e+00 -0.000000000000000000e+00 -0.000000000000000000e+00 -0.000000000000000000e+00 0.000000000000000000e+00 0.000000000000000000e+00 0.000000000000000000e+00 -0.000000000000000000e+00 0.000000000000000000e+00 -0.000000000000000000e+00 0.000000000000000000e+00 0.000000000000000000e+00 0.000000000000000000e+00
-1.852687448263168335e-03 -1.443827350158244371e-04 -1.654697000049054623e-03 -1.764246611855924129e-03 -7.154239574447274208e-05 -1.898430055007338524e-03 -1.440272550098598003e-03 -1.732759526930749416e-03 -1.743529690429568291e-03 -1.357392291538417339e-03 -1.778698526322841644e-03 -1.044443110004067421e-03 -1.658180030062794685e-03 -1.718642539344727993e-03 -9.811524068936705589e-04 -1.939638284966349602e-03 -1.770767965354025364e-03 -1.790987793356180191e-03 -9.506323112873360515e-05 -1.453725621104240417e-03 -1.706286799162626266e-03 -1.725301262922585011e-03 -1.733958139084279537e-03 -1.745585701428353786e-03 -1.589306979440152645e-03 -1.661858870647847652e-03 -6.085292552597820759e-04 -2.952322756755165756e-05 -1.712780562229454517e-03 -1.678855391219258308e-03 -1.650416292250156403e-03 -1.753943855874240398e-03 -1.387939089909195900e-03 -1.743185915984213352e-03 -1.728187082335352898e-03 -1.507044420577585697e-03 -1.780892955139279366e-03 -1.677841297350823879e-03 -1.730070216581225395e-03 -1.739468309096992016e-03 -1.742023392580449581e-03 -1.481683808378875256e-03 -6.908832438057288527e-05 -1.767962006852030754e-03 -1.548377214930951595e-03 -1.768143614754080772e-03 -1.772537827491760254e-03 -1.764680142514407635e-03 -1.744969282299280167e-03 -1.606009900569915771e-03 -1.793337170965969563e-03 -1.755731413140892982e-03 -1.739580766297876835e-03 -1.547068357467651367e-03 -1.757103018462657928e-03 -1.743939705193042755e-03 -1.547460560686886311e-03 -1.481287297792732716e-03 -1.748554175719618797e-03 -1.595630892552435398e-03 -1.763285486958920956e-03 -1.752524869516491890e-03 -1.765380031429231167e-03 -1.710972981527447701e-03 -0.000000000000000000e+00 0.000000000000000000e+00 -0.000000000000000000e+00 0.000000000000000000e+00 0.000000000000000000e+00 -0.000000000000000000e+00 0.000000000000000000e+00 -0.000000000000000000e+00 -0.000000000000000000e+00 0.000000000000000000e+00 0.000000000000000000e+00 0.000000000000000000e+00 -0.000000000000000000e+00 0.000000000000000000e+00 0.000000000000000000e+00 -0.000000000000000000e+00 -0.000000000000000000e+00 0.000000000000000000e+00 -0.000000000000000000e+00 -0.000000000000000000e+00 0.000000000000000000e+00 -0.000000000000000000e+00 -0.000000000000000000e+00 0.000000000000000000e+00 -0.000000000000000000e+00 0.000000000000000000e+00 -0.000000000000000000e+00 -0.000000000000000000e+00 0.000000000000000000e+00 -0.000000000000000000e+00 -0.000000000000000000e+00 -0.000000000000000000e+00 -0.000000000000000000e+00 0.000000000000000000e+00 -0.000000000000000000e+00 0.000000000000000000e+00 0.000000000000000000e+00 0.000000000000000000e+00 -0.000000000000000000e+00 -0.000000000000000000e+00 -0.000000000000000000e+00 -0.000000000000000000e+00 -0.000000000000000000e+00 0.000000000000000000e+00 0.000000000000000000e+00 0.000000000000000000e+00 -0.000000000000000000e+00 -0.000000000000000000e+00 -0.000000000000000000e+00 0.000000000000000000e+00 0.000000000000000000e+00 0.000000000000000000e+00 0.000000000000000000e+00 -0.000000000000000000e+00 -0.000000000000000000e+00 0.000000000000000000e+00 -0.000000000000000000e+00 0.000000000000000000e+00 -0.000000000000000000e+00 0.000000000000000000e+00 0.000000000000000000e+00 -0.000000000000000000e+00 -0.000000000000000000e+00 -0.000000000000000000e+00
-1.880876487120985985e-03 -4.455900634638965130e-04 -1.601065043359994888e-03 -1.802014769054949284e-03 -1.801457256078720093e-04 -1.928410376422107220e-03 -1.397883868776261806e-03 -1.816448173485696316e-03 -1.816403237171471119e-03 -1.412978512234985828e-03 -1.801882521249353886e-03 -1.481548766605556011e-03 -1.767895184457302094e-03 -1.760494080372154713e-03 -1.403852249495685101e-03 -1.936824410222470760e-03 -1.793772797100245953e-03 -1.801661681383848190e-03 -3.278174553997814655e-04 -1.483323634602129459e-03 -1.753376913256943226e-03 -1.745566143654286861e-03 -1.786377863027155399e-03 -1.795635907910764217e-03 -1.633767504245042801e-03 -1.693285419605672359e-03 -1.161749358288943768e-03 -1.239189296029508114e-04 -1.787576242350041866e-03 -1.812496921047568321e-03 -1.667740172706544399e-03 -1.764891319908201694e-03 -1.364041119813919067e-03 -1.768828253261744976e-03 -1.765745808370411396e-03 -1.477053738199174404e-03 -1.792204915545880795e-03 -1.693035126663744450e-03 -1.800695084966719151e-03 -1.791094779036939144e-03 -1.778282574377954006e-03 -1.503519481047987938e-03 -2.122699661413207650e-04 -1.770813600160181522e-03 -1.725533162243664265e-03 -1.784861087799072266e-03 -1.782836974598467350e-03 -1.774852746166288853e-03 -1.776402932591736317e-03 -1.632707077078521252e-03 -1.870361273176968098e-03 -1.808855799026787281e-03 -1.739735249429941177e-03 -1.548835192807018757e-03 -1.807904918678104877e-03 -1.788467518053948879e-03 -1.579467090778052807e-03 -1.484259380958974361e-03 -1.835790462791919708e-03 -1.647321972995996475e-03 -1.810880959965288639e-03 -1.789955305866897106e-03 -1.788702793419361115e-03 -1.782622537575662136e-03 0.000000000000000000e+00 0.000000000000000000e+00 0.000000000000000000e+00 0.000000000000000000e+00 0.000000000000000000e+00 0.000000000000000000e+00 -0.000000000000000000e+00 -0.000000000000000000e+00 -0.000000000000000000e+00 0.000000000000000000e+00 -0.000000000000000000e+00 -0.000000000000000000e+00 0.000000000000000000e+00 -0.000000000000000000e+00 0.000000000000000000e+00 -0.000000000000000000e+00 0.000000000000000000e+00 -0.000000000000000000e+00 0.000000000000000000e+00 -0.000000000000000000e+00 -0.000000000000000000e+00 0.000000000000000000e+00 0.000000000000000000e+00 -0.000000000000000000e+00 0.000000000000000000e+00 -0.000000000000000000e+00 0.000000000000000000e+00 -0.000000000000000000e+00 -0.000000000000000000e+00 0.000000000000000000e+00 -0.000000000000000000e+00 0.000000000000000000e+00 -0.000000000000000000e+00 -0.000000000000000000e+00 -0.000000000000000000e+00 -0.000000000000000000e+00 0.000000000000000000e+00 0.000000000000000000e+00 0.000000000000000000e+00 -0.000000000000000000e+00 0.000000000000000000e+00 0.000000000000000000e+00 0.000000000000000000e+00 -0.000000000000000000e+00 0.000000000000000000e+00 -0.000000000000000000e+00 -0.000000000000000000e+00 0.000000000000000000e+00 0.000000000000000000e+00 -0.000000000000000000e+00 0.000000000000000000e+00 -0.000000000000000000e+00 0.000000000000000000e+00 0.000000000000000000e+00 0.000000000000000000e+00 -0.000000000000000000e+00 -0.000000000000000000e+00 0.000000000000000000e+00 0.000000000000000000e+00 0.000000000000000000e+00 -0.000000000000000000e+00 0.000000000000000000e+00 -0.000000000000000000e+00 -0.000000000000000000e+00
-1.900307252071797848e-03 -1.700500870356336236e-04 -1.701297587715089321e-03 -1.750111230649054050e-03 -6.671628943877294660e-05 -1.876397640444338322e-03 -1.493934076279401779e-03 -1.759267994202673435e-03 -1.753900432959198952e-03 -1.449221279472112656e-03 -1.792609924450516701e-03 -1.000736141577363014e-03 -1.738304388709366322e-03 -1.746156252920627594e-03 -9.871544316411018372e-04 -1.948223682120442390e-03 -1.740656327456235886e-03 -1.737522776238620281e-03 -1.045484605128876865e-04 -1.460870960727334023e-03 -1.774834003299474716e-03 -1.711310585960745811e-03 -1.800656435079872608e-03 -1.751768519170582294e-03 -1.648858422413468361e-03 -1.711759250611066818e-03 -6.044511101208627224e-04 -2.540344394219573587e-05 -1.716951490379869938e-03 -1.649129786528646946e-03 -1.649673446081578732e-03 -1.759220263920724392e-03 -1.367008779197931290e-03 -1.740802195854485035e-03 -1.741998479701578617e-03 -1.530194538645446301e-03 -1.738142338581383228e-03 -1.674189348705112934e-03 -1.767592388205230236e-03 -1.762755797244608402e-03 -1.738361315801739693e-03 -1.540195895358920097e-03 -6.381840648828074336e-05 -1.732375589199364185e-03 -1.521806698292493820e-03 -1.820172881707549095e-03 -1.765704830177128315e-03 -1.751978998072445393e-03 -1.750583527609705925e-03 -1.682186266407370567e-03 -1.801450620405375957e-03 -1.743768691085278988e-03 -1.798765617422759533e-03 -1.620927592739462852e-03 -1.775125158019363880e-03 -1.806695479899644852e-03 -1.592584652826189995e-03 -1.520783640444278717e-03 -1.833537127822637558e-03 -1.655414234846830368e-03 -1.757475896738469601e-03 -1.748405047692358494e-03 -1.753427321091294289e-03 -1.734547084197402000e-03 -0.000000000000000000e+00 -0.000000000000000000e+00 0.000000000000000000e+00 -0.000000000000000000e+00 -0.000000000000000000e+00 0.000000000000000000e+00 0.000000000000000000e+00 0.000000000000000000e+00 0.000000000000000000e+00 0.000000000000000000e+00 -0.000000000000000000e+00 -0.000000000000000000e+00 0.000000000000000000e+00 -0.000000000000000000e+00 -0.000000000000000000e+00 -0.000000000000000000e+00 -0.000000000000000000e+00 0.000000000000000000e+00 0.000000000000000000e+00 -0.000000000000000000e+00 0.000000000000000000e+00 -0.000000000000000000e+00 -0.000000000000000000e+00 0.000000000000000000e+00 -0.000000000000000000e+00 -0.000000000000000000e+00 0.000000000000000000e+00 -0.000000000000000000e+00 0.000000000000000000e+00 0.000000000000000000e+00 0.000000000000000000e+00 0.000000000000000000e+00 0.000000000000000000e+00 0.000000000000000000e+00 -0.000000000000000000e+00 0.000000000000000000e+00 -0.000000000000000000e+00 -0.000000000000000000e+00 0.000000000000000000e+00 0.000000000000000000e+00 0.000000000000000000e+00 0.000000000000000000e+00 0.000000000000000000e+00 0.000000000000000000e+00 -0.000000000000000000e+00 -0.000000000000000000e+00 0.000000000000000000e+00 -0.000000000000000000e+00 0.000000000000000000e+00 0.000000000000000000e+00 0.000000000000000000e+00 0.000000000000000000e+00 0.000000000000000000e+00 -0.000000000000000000e+00 -0.000000000000000000e+00 -0.000000000000000000e+00 -0.000000000000000000e+00 0.000000000000000000e+00 -0.000000000000000000e+00 -0.000000000000000000e+00 0.000000000000000000e+00 -0.000000000000000000e+00 -0.000000000000000000e+00 0.000000000000000000e+00
-1.826080726459622383e-03 -1.119232474593445659e-04 -1.647584838792681694e-03 -1.761560095474123955e-03 -8.679934398969635367e-05 -1.870035193860530853e-03 -1.414382131770253181e-03 -1.758885453455150127e-03 -1.765444409102201462e-03 -1.471239025704562664e-03 -1.754922093823552132e-03 -1.012747059576213360e-03 -1.669379300437867641e-03 -1.725852489471435547e-03 -9.792177006602287292e-04 -1.936163869686424732e-03 -1.734824734739959240e-03 -1.752182841300964355e-03 -1.302153541473671794e-04 -1.457184087485074997e-03 -1.726906280964612961e-03 -1.736251986585557461e-03 -1.748390728607773781e-03 -1.739520346745848656e-03 -1.592426444403827190e-03 -1.662802998907864094e-03 -6.101496983319520950e-04 -9.330879947810899466e-06 -1.778269303031265736e-03 -1.654224004596471786e-03 -1.661214395426213741e-03 -1.724065281450748444e-03 -1.344667514786124229e-03 -1.756099169142544270e-03 -1.705169677734375000e-03 -1.480676000937819481e-03 -1.766466768458485603e-03 -1.652009901590645313e-03 -1.785351079888641834e-03 -1.762321102432906628e-03 -1.747181755490601063e-03 -1.479676924645900726e-03 -9.913588291965425014e-05 -1.762899104505777359e-03 -1.509000197984278202e-03 -1.733489567413926125e-03 -1.759354257956147194e-03 -1.711153192445635796e-03 -1.785067608579993248e-03 -1.668806071393191814e-03 -1.741759246215224266e-03 -1.724678673781454563e-03 -1.749573973938822746e-03 -1.554068527184426785e-03 -1.766231958754360676e-03 -1.771215349435806274e-03 -1.570467255078256130e-03 -1.523299724794924259e-03 -1.768282381817698479e-03 -1.594552188180387020e-03 -1.742203836329281330e-03 -1.731663709506392479e-03 -1.735105412080883980e-03 -1.744366949424147606e-03 0.000000000000000000e+00 0.000000000000000000e+00 -0.000000000000000000e+00 0.000000000000000000e+00 0.000000000000000000e+00 -0.000000000000000000e+00 -0.000000000000000000e+00 0.000000000000000000e+00 0.000000000000000000e+00 0.000000000000000000e+00 0.000000000000000000e+00 -0.000000000000000000e+00 -0.000000000000000000e+00 0.000000000000000000e+00 0.000000000000000000e+00 -0.000000000000000000e+00 0.000000000000000000e+00 0.000000000000000000e+00 -0.000000000000000000e+00 -0.000000000000000000e+00 -0.000000000000000000e+00 -0.000000000000000000e+00 0.000000000000000000e+00 0.000000000000000000e+00 0.000000000000000000e+00 0.000000000000000000e+00 0.000000000000000000e+00 -0.000000000000000000e+00 -0.000000000000000000e+00 0.000000000000000000e+00 -0.000000000000000000e+00 0.000000000000000000e+00 -0.000000000000000000e+00 -0.000000000000000000e+00 -0.000000000000000000e+00 0.000000000000000000e+00 0.000000000000000000e+00 0.000000000000000000e+00 -0.000000000000000000e+00 0.000000000000000000e+00 0.000000000000000000e+00 0.000000000000000000e+00 0.000000000000000000e+00 -0.000000000000000000e+00 0.000000000000000000e+00 0.000000000000000000e+00 0.000000000000000000e+00 -0.000000000000000000e+00 0.000000000000000000e+00 -0.000000000000000000e+00 0.000000000000000000e+00 0.000000000000000000e+00 0.000000000000000000e+00 -0.000000000000000000e+00 0.000000000000000000e+00 0.000000000000000000e+00 -0.000000000000000000e+00 0.000000000000000000e+00 0.000000000000000000e+00 -0.000000000000000000e+00 0.000000000000000000e+00 -0.000000000000000000e+00 0.000000000000000000e+00 -0.000000000000000000e+00
-1.858761766925454140e-03 -9.018841956276446581e-05 -1.645354088395833969e-03 -1.736689242534339428e-03 -5.104326919536106288e-05 -1.889896113425493240e-03 -1.471179071813821793e-03 -1.751657575368881226e-03 -1.739113824442028999e-03 -1.404515583999454975e-03 -1.747652306221425533e-03 -9.840307757258415222e-04 -1.685104332864284515e-03 -1.791948219761252403e-03 -9.862772421911358833e-04 -1.941221533343195915e-03 -1.703206682577729225e-03 -1.737285405397415161e-03 -8.246920333476737142e-05 -1.407052855938673019e-03 -1.773479045368731022e-03 -1.754402765072882175e-03 -1.746427384205162525e-03 -1.780622289516031742e-03 -1.615126500837504864e-03 -1.644145580939948559e-03 -6.371735944412648678e-04 -7.460659981006756425e-05 -1.745184999890625477e-03 -1.679657376371324062e-03 -1.651969389058649540e-03 -1.773320720531046391e-03 -1.336555229499936104e-03 -1.740851090289652348e-03 -1.705502159893512726e-03 -1.454675919376313686e-03 -1.756825949996709824e-03 -1.670912257395684719e-03 -1.757362275384366512e-03 -1.770140021108090878e-03 -1.762349973432719707e-03 -1.504874206148087978e-03 -6.253721221582964063e-05 -1.770736300386488438e-03 -1.543728285469114780e-03 -1.763997599482536316e-03 -1.791538321413099766e-03 -1.721979584544897079e-03 -1.734791323542594910e-03 -1.616417081095278263e-03 -1.785877742804586887e-03 -1.769540715031325817e-03 -1.739804516546428204e-03 -1.526060164906084538e-03 -1.755018252879381180e-03 -1.747714821249246597e-03 -1.584656652994453907e-03 -1.477580168284475803e-03 -1.824058359488844872e-03 -1.579612842760980129e-03 -1.759526319801807404e-03 -1.742897438816726208e-03 -1.716687576845288277e-03 -1.738294959068298340e-03 0.000000000000000000e+00 -0.000000000000000000e+00 -0.000000000000000000e+00 -0.000000000000000000e+00 0.000000000000000000e+00 0.000000000000000000e+00 -0.000000000000000000e+00 0.000000000000000000e+00 -0.000000000000000000e+00 -0.000000000000000000e+00 0.000000000000000000e+00 0.000000000000000000e+00 0.000000000000000000e+00 0.000000000000000000e+00 0.000000000000000000e+00 -0.000000000000000000e+00 0.000000000000000000e+00 0.000000000000000000e+00 0.000000000000000000e+00 0.000000000000000000e+00 0.000000000000000000e+00 -0.000000000000000000e+00 0.000000000000000000e+00 -0.000000000000000000e+00 0.000000000000000000e+00 0.000000000000000000e+00 -0.000000000000000000e+00 0.000000000000000000e+00 0.000000000000000000e+00 0.000000000000000000e+00 0.000000000000000000e+00 0.000000000000000000e+00 0.000000000000000000e+00 0.000000000000000000e+00 0.000000000000000000e+00 0.000000000000000000e+00 0.000000000000000000e+00 0.000000000000000000e+00 0.000000000000000000e+00 -0.000000000000000000e+00 -0.000000000000000000e+00 0.000000000000000000e+00 -0.000000000000000000e+00 -0.000000000000000000e+00 -0.000000000000000000e+00 0.000000000000000000e+00 0.000000000000000000e+00 -0.000000000000000000e+00 0.000000000000000000e+00 0.000000000000000000e+00 0.000000000000000000e+00 -0.000000000000000000e+00 -0.000000000000000000e+00 0.000000000000000000e+00 -0.000000000000000000e+00 -0.000000000000000000e+00 0.000000000000000000e+00 -0.000000000000000000e+00 0.000000000000000000e+00 0.000000000000000000e+00 0.000000000000000000e+00 -0.000000000000000000e+00 -0.000000000000000000e+00 -0.000000000000000000e+00
-1.884953118860721588e-03 -1.529398141428828239e-04 -1.652661478146910667e-03 -1.723346766084432602e-03 -4.453797009773552418e-05 -1.919177360832691193e-03 -1.492470037192106247e-03 -1.759224222041666508e-03 -1.740574603900313377e-03 -1.391350408084690571e-03 -1.759474631398916245e-03 -1.017575734294950962e-03 -1.658637891523540020e-03 -1.746897120028734207e-03 -9.902769234031438828e-04 -1.935654203407466412e-03 -1.753461663611233234e-03 -1.762049738317728043e-03 -9.459449938731268048e-05 -1.431964337825775146e-03 -1.757462043315172195e-03 -1.738267252221703529e-03 -1.730132382363080978e-03 -1.748702605254948139e-03 -1.568033476360142231e-03 -1.666930853389203548e-03 -6.196443573571741581e-04 -1.995244747377000749e-05 -1.760939368978142738e-03 -1.678676228038966656e-03 -1.676785177551209927e-03 -1.743563101626932621e-03 -1.361366128548979759e-03 -1.787547604180872440e-03 -1.816512085497379303e-03 -1.453052740544080734e-03 -1.754450844600796700e-03 -1.648413133807480335e-03 -1.744331093505024910e-03 -1.802273909561336040e-03 -1.719888881780207157e-03 -1.452920958399772644e-03 -8.269206591648980975e-05 -1.739820465445518494e-03 -1.509203226305544376e-03 -1.717534614726901054e-03 -1.794224721379578114e-03 -1.741796964779496193e-03 -1.762771164067089558e-03 -1.629036036320030689e-03 -1.755397766828536987e-03 -1.736336736939847469e-03 -1.739202532917261124e-03 -1.536142895929515362e-03 -1.738858758471906185e-03 -1.714168232865631580e-03 -1.524402643553912640e-03 -1.499186269938945770e-03 -1.779141486622393131e-03 -1.563283265568315983e-03 -1.785968197509646416e-03 -1.783856772817671299e-03 -1.726784044876694679e-03 -1.725644920952618122e-03 0.000000000000000000e+00 -0.000000000000000000e+00 -0.000000000000000000e+00 0.000000000000000000e+00 0.000000000000000000e+00 0.000000000000000000e+00 0.000000000000000000e+00 -0.000000000000000000e+00 -0.000000000000000000e+00 0.000000000000000000e+00 0.000000000000000000e+00 -0.000000000000000000e+00 -0.000000000000000000e+00 -0.000000000000000000e+00 -0.000000000000000000e+00 0.000000000000000000e+00 0.000000000000000000e+00 -0.000000000000000000e+00 0.000000000000000000e+00 0.000000000000000000e+00 0.000000000000000000e+00 0.000000000000000000e+00 0.000000000000000000e+00 -0.000000000000000000e+00 -0.000000000000000000e+00 -0.000000000000000000e+00 0.000000000000000000e+00 -0.000000000000000000e+00 0.000000000000000000e+00 0.000000000000000000e+00 -0.000000000000000000e+00 -0.000000000000000000e+00 -0.000000000000000000e+00 -0.000000000000000000e+00 -0.000000000000000000e+00 -0.000000000000000000e+00 -0.000000000000000000e+00 0.000000000000000000e+00 -0.000000000000000000e+00 0.000000000000000000e+00 -0.000000000000000000e+00 -0.000000000000000000e+00 0.000000000000000000e+00 0.000000000000000000e+00 -0.000000000000000000e+00 0.000000000000000000e+00 0.000000000000000000e+00 -0.000000000000000000e+00 -0.000000000000000000e+00 -0.000000000000000000e+00 -0.000000000000000000e+00 0.000000000000000000e+00 0.000000000000000000e+00 0.000000000000000000e+00 0.000000000000000000e+00 0.000000000000000000e+00 -0.000000000000000000e+00 0.000000000000000000e+00 -0.000000000000000000e+00 -0.000000000000000000e+00 -0.000000000000000000e+00 0.000000000000000000e+00 -0.000000000000000000e+00 -0.000000000000000000e+00
-1.858803210780024529e-03 -5.034639034420251846e-04 -1.692694961093366146e-03 -1.775210606865584850e-03 -2.627642825245857239e-04 -1.888632890768349171e-03 -1.429532188922166824e-03 -1.775017357431352139e-03 -1.768162474036216736e-03 -1.462599495425820351e-03 -1.786772161722183228e-03 -1.558076823130249977e-03 -1.662700087763369083e-03 -1.780886785127222538e-03 -1.405843300744891167e-03 -1.931303879246115685e-03 -1.783820101991295815e-03 -1.757563091814517975e-03 -3.564732032828032970e-04 -1.484328415244817734e-03 -1.771058887243270874e-03 -1.786997192539274693e-03 -1.816602190956473351e-03 -1.763118081726133823e-03 -1.644367002882063389e-03 -1.721296343021094799e-03 -1.284500467590987682e-03 -1.304078614339232445e-04 -1.780602848157286644e-03 -1.782530685886740685e-03 -1.690771663561463356e-03 -1.813193899579346180e-03 -1.366903888992965221e-03 -1.774737844243645668e-03 -1.768173766322433949e-03 -1.493554445914924145e-03 -1.800434663891792297e-03 -1.681002555415034294e-03 -1.795407384634017944e-03 -1.817145384848117828e-03 -1.778650912456214428e-03 -1.508836750872433186e-03 -2.344992826692759991e-04 -1.812788657844066620e-03 -1.738463062793016434e-03 -1.718591665849089622e-03 -1.805006177164614201e-03 -1.790881855413317680e-03 -1.794052310287952423e-03 -1.659652218222618103e-03 -1.813986455090343952e-03 -1.764417160302400589e-03 -1.764951506629586220e-03 -1.589860767126083374e-03 -1.785285188816487789e-03 -1.812200644053518772e-03 -1.540854107588529587e-03 -1.460284925997257233e-03 -1.838190946727991104e-03 -1.578894327394664288e-03 -1.789823174476623535e-03 -1.784573658369481564e-03 -1.797809265553951263e-03 -1.783797401003539562e-03 -0.000000000000000000e+00 0.000000000000000000e+00 -0.000000000000000000e+00 0.000000000000000000e+00 0.000000000000000000e+00 0.000000000000000000e+00 0.000000000000000000e+00 -0.000000000000000000e+00 0.000000000000000000e+00 -0.000000000000000000e+00 -0.000000000000000000e+00 0.000000000000000000e+00 -0.000000000000000000e+00 -0.000000000000000000e+00 -0.000000000000000000e+00 -0.000000000000000000e+00 0.000000000000000000e+00 0.000000000000000000e+00 -0.000000000000000000e+00 -0.000000000000000000e+00 -0.000000000000000000e+00 0.000000000000000000e+00 0.000000000000000000e+00 0.000000000000000000e+00 -0.000000000000000000e+00 0.000000000000000000e+00 0.000000000000000000e+00 0.000000000000000000e+00 -0.000000000000000000e+00 0.000000000000000000e+00 0.000000000000000000e+00 -0.000000000000000000e+00 0.000000000000000000e+00 0.000000000000000000e+00 -0.000000000000000000e+00 -0.000000000000000000e+00 -0.000000000000000000e+00 0.000000000000000000e+00 0.000000000000000000e+00 -0.000000000000000000e+00 -0.000000000000000000e+00 -0.000000000000000000e+00 -0.000000000000000000e+00 -0.000000000000000000e+00 0.000000000000000000e+00 -0.000000000000000000e+00 0.000000000000000000e+00 0.000000000000000000e+00 -0.000000000000000000e+00 0.000000000000000000e+00 0.000000000000000000e+00 0.000000000000000000e+00 0.000000000000000000e+00 -0.000000000000000000e+00 -0.000000000000000000e+00 -0.000000000000000000e+00 0.000000000000000000e+00 0.000000000000000000e+00 -0.000000000000000000e+00 0.000000000000000000e+00 0.000000000000000000e+00 0.000000000000000000e+00 -0.000000000000000000e+00 -0.000000000000000000e+00
-1.844152808189392090e-03 -1.527831627754494548e-04 -1.626023324206471443e-03 -1.771775539964437485e-03 -8.765036182012408972e-05 -1.840916578657925129e-03 -1.477705081924796104e-03 -1.736342441290616989e-03 -1.721575506962835789e-03 -1.389686367474496365e-03 -1.758730621077120304e-03 -1.009144471026957035e-03 -1.715269871056079865e-03 -1.764512970112264156e-03 -9.735541534610092640e-04 -1.938675763085484505e-03 -1.767778187058866024e-03 -1.754672732204198837e-03 -1.149176750914193690e-04 -1.456929021514952183e-03 -1.769138500094413757e-03 -1.765524270012974739e-03 -1.746986992657184601e-03 -1.751339179463684559e-03 -1.584237790666520596e-03 -1.694291364401578903e-03 -5.989121855236589909e-04 -4.064586028107441962e-05 -1.715707010589540005e-03 -1.700946595519781113e-03 -1.621617237105965614e-03 -1.769219408743083477e-03 -1.336760586127638817e-03 -1.733944867737591267e-03 -1.736920094117522240e-03 -1.463976223021745682e-03 -1.759710721671581268e-03 -1.629276783205568790e-03 -1.735119963996112347e-03 -1.738423248752951622e-03 -1.751607283949851990e-03 -1.472759060561656952e-03 -8.416175114689394832e-05 -1.759093604050576687e-03 -1.565232058055698872e-03 -1.706031849607825279e-03 -1.716685132123529911e-03 -1.749798771925270557e-03 -1.773213152773678303e-03 -1.658634631894528866e-03 -1.794154057279229164e-03 -1.741952612064778805e-03 -1.753999735228717327e-03 -1.549672218970954418e-03 -1.739217783324420452e-03 -1.781735452823340893e-03 -1.543845515698194504e-03 -1.445870613679289818e-03 -1.789774512872099876e-03 -1.567933359183371067e-03 -1.769968308508396149e-03 -1.744703156873583794e-03 -1.697014085948467255e-03 -1.733460579998791218e-03 0.000000000000000000e+00 -0.000000000000000000e+00 0.000000000000000000e+00 -0.000000000000000000e+00 -0.000000000000000000e+00 0.000000000000000000e+00 0.000000000000000000e+00 -0.000000000000000000e+00 0.000000000000000000e+00 0.000000000000000000e+00 -0.000000000000000000e+00 0.000000000000000000e+00 0.000000000000000000e+00 -0.000000000000000000e+00 0.000000000000000000e+00 0.000000000000000000e+00 -0.000000000000000000e+00 -0.000000000000000000e+00 -0.000000000000000000e+00 0.000000000000000000e+00 -0.000000000000000000e+00 0.000000000000000000e+00 0.000000000000000000e+00 0.000000000000000000e+00 0.000000000000000000e+00 -0.000000000000000000e+00 0.000000000000000000e+00 -0.000000000000000000e+00 -0.000000000000000000e+00 -0.000000000000000000e+00 -0.000000000000000000e+00 -0.000000000000000000e+00 -0.000000000000000000e+00 0.000000000000000000e+00 0.000000000000000000e+00 0.000000000000000000e+00 -0.000000000000000000e+00 0.000000000000000000e+00 0.000000000000000000e+00 0.000000000000000000e+00 0.000000000000000000e+00 -0.000000000000000000e+00 -0.000000000000000000e+00 -0.000000000000000000e+00 0.000000000000000000e+00 -0.000000000000000000e+00 -0.000000000000000000e+00 0.000000000000000000e+00 -0.000000000000000000e+00 -0.000000000000000000e+00 -0.000000000000000000e+00 0.000000000000000000e+00 0.000000000000000000e+00 -0.000000000000000000e+00 -0.000000000000000000e+00 0.000000000000000000e+00 -0.000000000000000000e+00 -0.000000000000000000e+00 0.000000000000000000e+00 -0.000000000000000000e+00 -0.000000000000000000e+00 -0.000000000000000000e+00 0.000000000000000000e+00 -0.000000000000000000e+00
-1.850713277235627174e-03 -1.206357846967875957e-04 -1.634969376027584076e-03 -1.782609033398330212e-03 -6.044044130248948932e-05 -1.885472331196069717e-03 -1.449441304430365562e-03 -1.739695435389876366e-03 -1.759140868671238422e-03 -1.381932408548891544e-03 -1.742802909575402737e-03 -1.002689590677618980e-03 -1.725874957628548145e-03 -1.751829520799219608e-03 -9.792111814022064209e-04 -1.925633405335247517e-03 -1.777562196366488934e-03 -1.750812632963061333e-03 -1.247443142347037792e-04 -1.409744494594633579e-03 -1.753893913701176643e-03 -1.762632862664759159e-03 -1.714710379019379616e-03 -1.778049161657691002e-03 -1.563408295623958111e-03 -1.713480451144278049e-03 -6.127936067059636116e-04 1.962689202628098428e-05 -1.735698082484304905e-03 -1.657676766626536846e-03 -1.662253285758197308e-03 -1.731312600895762444e-03 -1.342727569863200188e-03 -1.752463285811245441e-03 -1.768118701875209808e-03 -1.472505624406039715e-03 -1.705365488305687904e-03 -1.649820362217724323e-03 -1.776545424945652485e-03 -1.750190742313861847e-03 -1.739596482366323471e-03 -1.496842713095247746e-03 -6.154977745609357953e-05 -1.736192731186747551e-03 -1.546554383821785450e-03 -1.763739623129367828e-03 -1.741718500852584839e-03 -1.727997674606740475e-03 -1.726256683468818665e-03 -1.607532380148768425e-03 -1.800767029635608196e-03 -1.803831197321414948e-03 -1.713265082798898220e-03 -1.554007641971111298e-03 -1.729854266159236431e-03 -1.739342347718775272e-03 -1.550997840240597725e-03 -1.527633401565253735e-03 -1.766774221323430538e-03 -1.615922781638801098e-03 -1.741874613799154758e-03 -1.729138428345322609e-03 -1.720082014799118042e-03 -1.756129786372184753e-03 -0.000000000000000000e+00 0.000000000000000000e+00 0.000000000000000000e+00 0.000000000000000000e+00 -0.000000000000000000e+00 -0.000000000000000000e+00 -0.000000000000000000e+00 0.000000000000000000e+00 -0.000000000000000000e+00 0.000000000000000000e+00 -0.000000000000000000e+00 -0.000000000000000000e+00 0.000000000000000000e+00 0.000000000000000000e+00 -0.000000000000000000e+00 -0.000000000000000000e+00 0.000000000000000000e+00 0.000000000000000000e+00 -0.000000000000000000e+00 0.000000000000000000e+00 0.000000000000000000e+00 -0.000000000000000000e+00 -0.000000000000000000e+00 -0.000000000000000000e+00 0.000000000000000000e+00 -0.000000000000000000e+00 -0.000000000000000000e+00 0.000000000000000000e+00 -0.000000000000000000e+00 -0.000000000000000000e+00 -0.000000000000000000e+00 0.000000000000000000e+00 -0.000000000000000000e+00 -0.000000000000000000e+00 0.000000000000000000e+00 0.000000000000000000e+00 0.000000000000000000e+00 -0.000000000000000000e+00 -0.000000000000000000e+00 -0.000000000000000000e+00 -0.000000000000000000e+00 -0.000000000000000000e+00 0.000000000000000000e+00 0.000000000000000000e+00 -0.000000000000000000e+00 -0.000000000000000000e+00 -0.000000000000000000e+00 -0.000000000000000000e+00 0.000000000000000000e+00 0.000000000000000000e+00 -0.000000000000000000e+00 -0.000000000000000000e+00 0.000000000000000000e+00 -0.000000000000000000e+00 -0.000000000000000000e+00 0.000000000000000000e+00 -0.000000000000000000e+00 0.000000000000000000e+00 -0.000000000000000000e+00 -0.000000000000000000e+00 0.000000000000000000e+00 -0.000000000000000000e+00 -0.000000000000000000e+00 0.000000000000000000e+00
-1.870560226961970329e-03 -1.187428206321783364e-04 -1.687419600784778595e-03 -1.755790202878415585e-03 -7.699413254158571362e-05 -1.877959002740681171e-03 -1.482318271882832050e-03 -1.756355981342494488e-03 -1.711901742964982986e-03 -1.448464230634272099e-03 -1.748965703882277012e-03 -9.987128432840108871e-04 -1.681063906289637089e-03 -1.739893574267625809e-03 -9.903134778141975403e-04 -1.911302097141742706e-03 -1.767368987202644348e-03 -1.743137836456298828e-03 -1.149183153756894171e-04 -1.458910759538412094e-03 -1.749690156430006027e-03 -1.716401427984237671e-03 -1.752819865942001343e-03 -1.731190481223165989e-03 -1.577692921273410320e-03 -1.665937015786767006e-03 -6.087532965466380119e-04 -1.354248979623662308e-05 -1.768194837495684624e-03 -1.669166260398924351e-03 -1.623108983039855957e-03 -1.788461464457213879e-03 -1.325434190221130848e-03 -1.755647943355143070e-03 -1.737685641273856163e-03 -1.501153106801211834e-03 -1.747001428157091141e-03 -1.690371544100344181e-03 -1.746662310324609280e-03 -1.756920944899320602e-03 -1.697335042990744114e-03 -1.486868015490472317e-03 -4.103928222320973873e-05 -1.731678959913551807e-03 -1.540421624667942524e-03 -1.776625867933034897e-03 -1.728887436911463737e-03 -1.732357544824481010e-03 -1.755719073116779327e-03 -1.618838170543313026e-03 -1.822205143980681896e-03 -1.767327310517430305e-03 -1.789990812540054321e-03 -1.577596063725650311e-03 -1.782018574886023998e-03 -1.738687860779464245e-03 -1.532385009340941906e-03 -1.487780828028917313e-03 -1.779844053089618683e-03 -1.627239398658275604e-03 -1.757075078785419464e-03 -1.734662218950688839e-03 -1.696037594228982925e-03 -1.787516637705266476e-03 0.000000000000000000e+00 0.000000000000000000e+00 -0.000000000000000000e+00 -0.000000000000000000e+00 -0.000000000000000000e+00 -0.000000000000000000e+00 0.000000000000000000e+00 -0.000000000000000000e+00 -0.000000000000000000e+00 -0.000000000000000000e+00 -0.000000000000000000e+00 0.000000000000000000e+00 0.000000000000000000e+00 0.000000000000000000e+00 0.000000000000000000e+00 -0.000000000000000000e+00 0.000000000000000000e+00 0.000000000000000000e+00 0.000000000000000000e+00 0.000000000000000000e+00 -0.000000000000000000e+00 0.000000000000000000e+00 0.000000000000000000e+00 0.000000000000000000e+00 0.000000000000000000e+00 0.000000000000000000e+00 0.000000000000000000e+00 -0.000000000000000000e+00 -0.000000000000000000e+00 -0.000000000000000000e+00 -0.000000000000000000e+00 0.000000000000000000e+00 0.000000000000000000e+00 0.000000000000000000e+00 0.000000000000000000e+00 -0.000000000000000000e+00 0.000000000000000000e+00 -0.000000000000000000e+00 -0.000000000000000000e+00 0.000000000000000000e+00 -0.000000000000000000e+00 0.000000000000000000e+00 0.000000000000000000e+00 -0.000000000000000000e+00 0.000000000000000000e+00 0.000000000000000000e+00 0.000000000000000000e+00 0.000000000000000000e+00 0.000000000000000000e+00 -0.000000000000000000e+00 -0.000000000000000000e+00 -0.000000000000000000e+00 0.000000000000000000e+00 -0.000000000000000000e+00 -0.000000000000000000e+00 0.000000000000000000e+00 -0.000000000000000000e+00 0.000000000000000000e+00 0.000000000000000000e+00 -0.000000000000000000e+00 0.000000000000000000e+00 0.000000000000000000e+00 -0.000000000000000000e+00 0.000000000000000000e+00
-2.057618803519289941e-05 -5.149790467839920893e-06 -1.375208285026019439e-05 -1.872274538072815631e-06 -1.131036879087332636e-05 3.419165523155243136e-06 6.314197889878414571e-06 2.153821515094023198e-05 -1.104779039451386780e-05 -2.374629366386216134e-05 7.494933470297837630e-06 1.505808450019685552e-05 2.109278284478932619e-05 -6.696346099488437176e-05 3.638784983195364475e-05 3.192052099620923400e-05 -4.718471700471127406e-06 2.128443156834691763e-05 4.214204454910941422e-05 -5.019071977585554123e-05 -2.295383455930277705e-05 -6.763618330296594650e-06 -5.077024525235174224e-06 1.244576742465142161e-05 9.374002729600761086e-06 -1.383830385748296976e-05 3.635892653619521298e-06 -1.339078880846500397e-05 -1.120710567192872986e-05 1.576804788783192635e-05 3.540998022799612954e-06 2.348236012039706111e-05 -1.753922697389498353e-05 4.235342203173786402e-06 9.831546776695176959e-07 3.261987149016931653e-05 4.095893746125511825e-05 1.327664904238190502e-05 -8.612159035692457110e-06 9.358012903248891234e-06 2.074267104035243392e-05 -1.409726883139228448e-05 -5.262785634840838611e-06 -1.278190848097437993e-05 -7.748597454337868840e-06 -1.424380479875253513e-05 5.835052434122189879e-06 -4.430462922755395994e-06 -2.283256435475777835e-05 2.002339897444471717e-05 2.680066927496227436e-06 -2.315518395334947854e-05 1.743324537528678775e-05 -8.621430538369168062e-07 -6.706975455017527565e-07 4.695640200225170702e-06 -9.033624337462242693e-06 4.259160050423815846e-05 -6.215355369931785390e-06 9.879758181341458112e-06 2.425267211947357282e-06 2.178896102122962475e-05 7.357525646511930972e-06 2.966887041111476719e-05 -0.000000000000000000e+00 0.000000000000000000e+00 0.000000000000000000e+00 -0.000000000000000000e+00 0.000000000000000000e+00 -0.000000000000000000e+00 0.000000000000000000e+00 -0.000000000000000000e+00 -0.000000000000000000e+00 0.000000000000000000e+00 0.000000000000000000e+00 0.000000000000000000e+00 -0.000000000000000000e+00 0.000000000000000000e+00 0.000000000000000000e+00 0.000000000000000000e+00 -0.000000000000000000e+00 0.000000000000000000e+00 -0.000000000000000000e+00 0.000000000000000000e+00 0.000000000000000000e+00 -0.000000000000000000e+00 0.000000000000000000e+00 0.000000000000000000e+00 -0.000000000000000000e+00 -0.000000000000000000e+00 -0.000000000000000000e+00 -0.000000000000000000e+00 0.000000000000000000e+00 -0.000000000000000000e+00 -0.000000000000000000e+00 -0.000000000000000000e+00 -0.000000000000000000e+00 0.000000000000000000e+00 0.000000000000000000e+00 -0.000000000000000000e+00 0.000000000000000000e+00 -0.000000000000000000e+00 0.000000000000000000e+00 -0.000000000000000000e+00 -0.000000000000000000e+00 -0.000000000000000000e+00 0.000000000000000000e+00 0.000000000000000000e+00 0.000000000000000000e+00 0.000000000000000000e+00 0.000000000000000000e+00 -0.000000000000000000e+00 -0.000000000000000000e+00 0.000000000000000000e+00 0.000000000000000000e+00 -0.000000000000000000e+00 -0.000000000000000000e+00 0.000000000000000000e+00 0.000000000000000000e+00 -0.000000000000000000e+00 0.000000000000000000e+00 0.000000000000000000e+00 0.000000000000000000e+00 0.000000000000000000e+00 0.000000000000000000e+00 0.000000000000000000e+00 -0.000000000000000000e+00 -0.000000000000000000e+00
-1.908689504489302635e-03 -5.438515800051391125e-04 -1.705577247776091099e-03 -1.793363247998058796e-03 -3.187696565873920918e-04 -1.874106586910784245e-03 -1.413651276379823685e-03 -1.814034883864223957e-03 -1.790916197933256626e-03 -1.433591241948306561e-03 -1.808867207728326321e-03 -1.588865648955106735e-03 -1.669891877099871635e-03 -1.791325747035443783e-03 -1.466096378862857819e-03 -1.964367926120758057e-03 -1.755288685671985149e-03 -1.746414462104439735e-03 -3.836542309727519751e-04 -1.487371861003339291e-03 -1.787620014511048794e-03 -1.811138470657169819e-03 -1.735004712827503681e-03 -1.797525095753371716e-03 -1.610474660992622375e-03 -1.715184655040502548e-03 -1.334694330580532551e-03 -1.467006804887205362e-04 -1.807585475035011768e-03 -1.775103737600147724e-03 -1.699003973044455051e-03 -1.770922564901411533e-03 -1.394634949974715710e-03 -1.807131920941174030e-03 -1.798909157514572144e-03 -1.520009012892842293e-03 -1.747179660014808178e-03 -1.703786780126392841e-03 -1.785369007848203182e-03 -1.768232206813991070e-03 -1.838704687543213367e-03 -1.511032343842089176e-03 -3.090025275014340878e-04 -1.810913789086043835e-03 -1.735054887831211090e-03 -1.789468224160373211e-03 -1.755527569912374020e-03 -1.784416264854371548e-03 -1.815597643144428730e-03 -1.641848590224981308e-03 -1.802276237867772579e-03 -1.814269344322383404e-03 -1.758509548380970955e-03 -1.580525538884103298e-03 -1.757946680299937725e-03 -1.794812385924160480e-03 -1.559243188239634037e-03 -1.416328712366521358e-03 -1.825699931941926479e-03 -1.616654684767127037e-03 -1.807782682590186596e-03 -1.792049384675920010e-03 -1.778156845830380917e-03 -1.759449369274079800e-03 -0.000000000000000000e+00 0.000000000000000000e+00 -0.000000000000000000e+00 -0.000000000000000000e+00 -0.000000000000000000e+00 0.000000000000000000e+00 -0.000000000000000000e+00 -0.000000000000000000e+00 0.000000000000000000e+00 0.000000000000000000e+00 -0.000000000000000000e+00 0.000000000000000000e+00 -0.000000000000000000e+00 -0.000000000000000000e+00 -0.000000000000000000e+00 -0.000000000000000000e+00 -0.000000000000000000e+00 0.000000000000000000e+00 -0.000000000000000000e+00 0.000000000000000000e+00 -0.000000000000000000e+00 -0.000000000000000000e+00 0.000000000000000000e+00 -0.000000000000000000e+00 -0.000000000000000000e+00 0.000000000000000000e+00 -0.000000000000000000e+00 -0.000000000000000000e+00 -0.000000000000000000e+00 -0.000000000000000000e+00 -0.000000000000000000e+00 0.000000000000000000e+00 0.000000000000000000e+00 0.000000000000000000e+00 -0.000000000000000000e+00 0.000000000000000000e+00 0.000000000000000000e+00 0.000000000000000000e+00 -0.000000000000000000e+00 -0.000000000000000000e+00 -0.000000000000000000e+00 -0.000000000000000000e+00 -0.000000000000000000e+00 0.000000000000000000e+00 0.000000000000000000e+00 -0.000000000000000000e+00 -0.000000000000000000e+00 -0.000000000000000000e+00 -0.000000000000000000e+00 0.000000000000000000e+00 0.000000000000000000e+00 -0.000000000000000000e+00 -0.000000000000000000e+00 -0.000000000000000000e+00 -0.000000000000000000e+00 0.000000000000000000e+00 0.000000000000000000e+00 0.000000000000000000e+00 -0.000000000000000000e+00 -0.000000000000000000e+00 0.000000000000000000e+00 -0.000000000000000000e+00 0.000000000000000000e+00 0.000000000000000000e+00
-1.859020441770553589e-03 -1.310705119976773858e-04 -1.654681167565286160e-03 -1.751122414134442806e-03 -6.715422932757064700e-05 -1.836519571952521801e-03 -1.458412036299705505e-03 -1.758149825036525726e-03 -1.752012060023844242e-03 -1.413253485225141048e-03 -1.747840666212141514e-03 -1.006226404570043087e-03 -1.697066705673933029e-03 -1.752316136844456196e-03 -1.004329067654907703e-03 -1.925637363456189632e-03 -1.722586923278868198e-03 -1.784502761438488960e-03 -5.777389378636144102e-05 -1.404760987497866154e-03 -1.763358828611671925e-03 -1.711585558950901031e-03 -1.741955289617180824e-03 -1.729882555082440376e-03 -1.574884285219013691e-03 -1.707524061203002930e-03 -6.291969912126660347e-04 -1.234283718076767400e-05 -1.732738106511533260e-03 -1.710388925857841969e-03 -1.667874632403254509e-03 -1.791924820281565189e-03 -1.341358060017228127e-03 -1.772328163497149944e-03 -1.714041456580162048e-03 -1.462291111238300800e-03 -1.738757826387882233e-03 -1.661355723626911640e-03 -1.760718994773924351e-03 -1.746663008816540241e-03 -1.754510216414928436e-03 -1.476500416174530983e-03 -3.170082345604896545e-05 -1.766694360412657261e-03 -1.494134892709553242e-03 -1.753012416884303093e-03 -1.764361630193889141e-03 -1.757816411554813385e-03 -1.713586971163749695e-03 -1.603746903128921986e-03 -1.803405699320137501e-03 -1.733425771817564964e-03 -1.741841086186468601e-03 -1.547766965813934803e-03 -1.776539604179561138e-03 -1.727546215988695621e-03 -1.520499354228377342e-03 -1.480593695305287838e-03 -1.786549226380884647e-03 -1.602042932063341141e-03 -1.737061887979507446e-03 -1.730630290694534779e-03 -1.761298743076622486e-03 -1.744319917634129524e-03 -0.000000000000000000e+00 0.000000000000000000e+00 0.000000000000000000e+00 -0.000000000000000000e+00 -0.000000000000000000e+00 -0.000000000000000000e+00 0.000000000000000000e+00 -0.000000000000000000e+00 0.000000000000000000e+00 0.000000000000000000e+00 0.000000000000000000e+00 -0.000000000000000000e+00 0.000000000000000000e+00 0.000000000000000000e+00 -0.000000000000000000e+00 -0.000000000000000000e+00 -0.000000000000000000e+00 -0.000000000000000000e+00 -0.000000000000000000e+00 -0.000000000000000000e+00 0.000000000000000000e+00 0.000000000000000000e+00 0.000000000000000000e+00 0.000000000000000000e+00 -0.000000000000000000e+00 0.000000000000000000e+00 0.000000000000000000e+00 0.000000000000000000e+00 0.000000000000000000e+00 -0.000000000000000000e+00 0.000000000000000000e+00 -0.000000000000000000e+00 -0.000000000000000000e+00 -0.000000000000000000e+00 -0.000000000000000000e+00 0.000000000000000000e+00 0.000000000000000000e+00 -0.000000000000000000e+00 0.000000000000000000e+00 0.000000000000000000e+00 -0.000000000000000000e+00 0.000000000000000000e+00 -0.000000000000000000e+00 -0.000000000000000000e+00 -0.000000000000000000e+00 -0.000000000000000000e+00 -0.000000000000000000e+00 -0.000000000000000000e+00 0.000000000000000000e+00 -0.000000000000000000e+00 -0.000000000000000000e+00 0.000000000000000000e+00 -0.000000000000000000e+00 -0.000000000000000000e+00 -0.000000000000000000e+00 0.000000000000000000e+00 -0.000000000000000000e+00 0.000000000000000000e+00 0.000000000000000000e+00 0.000000000000000000e+00 0.000000000000000000e+00 -0.000000000000000000e+00 -0.000000000000000000e+00 0.000000000000000000e+00
-1.861647935584187508e-03 -1.202581406687386334e-04 -1.670365920290350914e-03 -1.770044676959514618e-03 -5.674052954418584704e-05 -1.832086010836064816e-03 -1.429798197932541370e-03 -1.747697126120328903e-03 -1.749058486893773079e-03 -1.399043598212301731e-03 -1.774164498783648014e-03 -9.999349713325500488e-04 -1.663825358264148235e-03 -1.770167145878076553e-03 -9.699137299321591854e-04 -1.907283673062920570e-03 -1.746453810483217239e-03 -1.745180226862430573e-03 -9.678565402282401919e-05 -1.477088779211044312e-03 -1.763838343322277069e-03 -1.744340523146092892e-03 -1.780714141204953194e-03 -1.741750165820121765e-03 -1.605381607078015804e-03 -1.684980699792504311e-03 -6.247136043384671211e-04 -6.495196430478245020e-05 -1.751635223627090454e-03 -1.713600475341081619e-03 -1.640604110434651375e-03 -1.771464827470481396e-03 -1.350341597571969032e-03 -1.735881203785538673e-03 -1.753370743244886398e-03 -1.497642486356198788e-03 -1.751096220687031746e-03 -1.670775818638503551e-03 -1.760975457727909088e-03 -1.736590988002717495e-03 -1.719549531117081642e-03 -1.492488780058920383e-03 -5.065970981377176940e-05 -1.736252685077488422e-03 -1.537986681796610355e-03 -1.720267347991466522e-03 -1.766447559930384159e-03 -1.760532381013035774e-03 -1.736838952638208866e-03 -1.614801236428320408e-03 -1.797893550246953964e-03 -1.766994013451039791e-03 -1.713219797238707542e-03 -1.559137832373380661e-03 -1.718958257697522640e-03 -1.761584659107029438e-03 -1.519958372227847576e-03 -1.480614999309182167e-03 -1.782152452506124973e-03 -1.613382366485893726e-03 -1.762015512213110924e-03 -1.716593164019286633e-03 -1.750891678966581821e-03 -1.733676414005458355e-03 0.000000000000000000e+00 -0.000000000000000000e+00 0.000000000000000000e+00 0.000000000000000000e+00 0.000000000000000000e+00 0.000000000000000000e+00 -0.000000000000000000e+00 -0.000000000000000000e+00 -0.000000000000000000e+00 0.000000000000000000e+00 -0.000000000000000000e+00 -0.000000000000000000e+00 0.000000000000000000e+00 -0.000000000000000000e+00 0.000000000000000000e+00 0.000000000000000000e+00 -0.000000000000000000e+00 -0.000000000000000000e+00 -0.000000000000000000e+00 -0.000000000000000000e+00 0.000000000000000000e+00 -0.000000000000000000e+00 -0.000000000000000000e+00 0.000000000000000000e+00 -0.000000000000000000e+00 -0.000000000000000000e+00 0.000000000000000000e+00 -0.000000000000000000e+00 0.000000000000000000e+00 0.000000000000000000e+00 0.000000000000000000e+00 0.000000000000000000e+00 -0.000000000000000000e+00 -0.000000000000000000e+00 0.000000000000000000e+00 -0.000000000000000000e+00 -0.000000000000000000e+00 0.000000000000000000e+00 -0.000000000000000000e+00 0.000000000000000000e+00 -0.000000000000000000e+00 -0.000000000000000000e+00 0.000000000000000000e+00 -0.000000000000000000e+00 0.000000000000000000e+00 -0.000000000000000000e+00 0.000000000000000000e+00 -0.000000000000000000e+00 -0.000000000000000000e+00 -0.000000000000000000e+00 -0.000000000000000000e+00 0.000000000000000000e+00 -0.000000000000000000e+00 0.000000000000000000e+00 0.000000000000000000e+00 -0.000000000000000000e+00 -0.000000000000000000e+00 -0.000000000000000000e+00 -0.000000000000000000e+00 0.000000000000000000e+00 0.000000000000000000e+00 0.000000000000000000e+00 0.000000000000000000e+00 0.000000000000000000e+00
-1.857099821791052818e-03 -1.310315274167805910e-04 -1.636003144085407257e-03 -1.737478887662291527e-03 -3.935616041417233646e-05 -1.843234756961464882e-03 -1.450157957151532173e-03 -1.728155300952494144e-03 -1.767636858858168125e-03 -1.393844489939510822e-03 -1.743139931932091713e-03 -1.001805067062377930e-03 -1.664534909650683403e-03 -1.745552872307598591e-03 -1.019096118398010731e-03 -1.940005226060748100e-03 -1.759962062351405621e-03 -1.755032455548644066e-03 -1.270854991162195802e-04 -1.447276445105671883e-03 -1.767006935551762581e-03 -1.775825046934187412e-03 -1.751441624946892262e-03 -1.737324637360870838e-03 -1.598058850504457951e-03 -1.698905602097511292e-03 -6.470157532021403313e-04 -5.313400833983905613e-06 -1.763737178407609463e-03 -1.674963627010583878e-03 -1.656652777455747128e-03 -1.723569119349122047e-03 -1.351641491055488586e-03 -1.731450902298092842e-03 -1.763094449415802956e-03 -1.495709992013871670e-03 -1.729914918541908264e-03 -1.675143255852162838e-03 -1.719875261187553406e-03 -1.763214357197284698e-03 -1.772286952473223209e-03 -1.455198973417282104e-03 -3.646424374892376363e-05 -1.777305849827826023e-03 -1.534152892418205738e-03 -1.747732982039451599e-03 -1.720424741506576538e-03 -1.718539861030876637e-03 -1.721915788948535919e-03 -1.627109828405082226e-03 -1.806765212677419186e-03 -1.721665496006608009e-03 -1.745379064232110977e-03 -1.521381083875894547e-03 -1.742661232128739357e-03 -1.771799754351377487e-03 -1.529295113869011402e-03 -1.497305696830153465e-03 -1.782557461410760880e-03 -1.614210545085370541e-03 -1.771460636518895626e-03 -1.732149743475019932e-03 -1.735520781949162483e-03 -1.743577886372804642e-03 0.000000000000000000e+00 0.000000000000000000e+00 -0.000000000000000000e+00 0.000000000000000000e+00 -0.000000000000000000e+00 -0.000000000000000000e+00 -0.000000000000000000e+00 -0.000000000000000000e+00 -0.000000000000000000e+00 -0.000000000000000000e+00 0.000000000000000000e+00 -0.000000000000000000e+00 0.000000000000000000e+00 -0.000000000000000000e+00 -0.000000000000000000e+00 -0.000000000000000000e+00 0.000000000000000000e+00 0.000000000000000000e+00 0.000000000000000000e+00 0.000000000000000000e+00 0.000000000000000000e+00 0.000000000000000000e+00 -0.000000000000000000e+00 0.000000000000000000e+00 0.000000000000000000e+00 -0.000000000000000000e+00 0.000000000000000000e+00 -0.000000000000000000e+00 -0.000000000000000000e+00 0.000000000000000000e+00 0.000000000000000000e+00 -0.000000000000000000e+00 0.000000000000000000e+00 -0.000000000000000000e+00 0.000000000000000000e+00 -0.000000000000000000e+00 -0.000000000000000000e+00 -0.000000000000000000e+00 0.000000000000000000e+00 0.000000000000000000e+00 -0.000000000000000000e+00 0.000000000000000000e+00 0.000000000000000000e+00 0.000000000000000000e+00 -0.000000000000000000e+00 -0.000000000000000000e+00 0.000000000000000000e+00 -0.000000000000000000e+00 0.000000000000000000e+00 0.000000000000000000e+00 -0.000000000000000000e+00 -0.000000000000000000e+00 0.000000000000000000e+00 -0.000000000000000000e+00 -0.000000000000000000e+00 0.000000000000000000e+00 0.000000000000000000e+00 -0.000000000000000000e+00 -0.000000000000000000e+00 -0.000000000000000000e+00 0.000000000000000000e+00 -0.000000000000000000e+00 0.000000000000000000e+00 0.000000000000000000e+00
-1.889304956421256065e-03 -1.416739687556400895e-04 -1.651632366701960564e-03 -1.752837677486240864e-03 -8.882449765224009752e-05 -1.870669540949165821e-03 -1.464008470065891743e-03 -1.779919257387518883e-03 -1.749780378304421902e-03 -1.434434088878333569e-03 -1.760046929121017456e-03 -9.514958946965634823e-04 -1.696172519586980343e-03 -1.755725010298192501e-03 -1.016442663967609406e-03 -1.894629094749689102e-03 -1.728322589769959450e-03 -1.713250530883669853e-03 -1.240540586877614260e-04 -1.460289466194808483e-03 -1.738012768328189850e-03 -1.723006949760019779e-03 -1.757829333655536175e-03 -1.749764312990009785e-03 -1.590802217833697796e-03 -1.663079718127846718e-03 -5.859259981662034988e-04 -7.337994611589238048e-05 -1.693869126029312611e-03 -1.671864418312907219e-03 -1.649100566282868385e-03 -1.729893963783979416e-03 -1.316211884841322899e-03 -1.736265025101602077e-03 -1.715526683256030083e-03 -1.489963266067206860e-03 -1.733849523589015007e-03 -1.644177711568772793e-03 -1.695653889328241348e-03 -1.749526360072195530e-03 -1.744330278597772121e-03 -1.461769687011837959e-03 -7.494193414459004998e-05 -1.775293610990047455e-03 -1.512366696260869503e-03 -1.806408632546663284e-03 -1.738575054332613945e-03 -1.766035216860473156e-03 -1.762240543030202389e-03 -1.623231335543096066e-03 -1.786971581168472767e-03 -1.754100318066775799e-03 -1.772009185515344143e-03 -1.541430829092860222e-03 -1.741456682793796062e-03 -1.717125880531966686e-03 -1.536943367682397366e-03 -1.467115827836096287e-03 -1.814803574234247208e-03 -1.635007211007177830e-03 -1.738464226946234703e-03 -1.725701498799026012e-03 -1.728596282191574574e-03 -1.735174213536083698e-03 -0.000000000000000000e+00 -0.000000000000000000e+00 -0.000000000000000000e+00 -0.000000000000000000e+00 0.000000000000000000e+00 0.000000000000000000e+00 0.000000000000000000e+00 -0.000000000000000000e+00 0.000000000000000000e+00 -0.000000000000000000e+00 -0.000000000000000000e+00 0.000000000000000000e+00 -0.000000000000000000e+00 0.000000000000000000e+00 0.000000000000000000e+00 0.000000000000000000e+00 0.000000000000000000e+00 0.000000000000000000e+00 0.000000000000000000e+00 0.000000000000000000e+00 0.000000000000000000e+00 0.000000000000000000e+00 0.000000000000000000e+00 0.000000000000000000e+00 0.000000000000000000e+00 -0.000000000000000000e+00 -0.000000000000000000e+00 -0.000000000000000000e+00 0.000000000000000000e+00 -0.000000000000000000e+00 -0.000000000000000000e+00 -0.000000000000000000e+00 -0.000000000000000000e+00 0.000000000000000000e+00 -0.000000000000000000e+00 0.000000000000000000e+00 -0.000000000000000000e+00 -0.000000000000000000e+00 0.000000000000000000e+00 -0.000000000000000000e+00 0.000000000000000000e+00 0.000000000000000000e+00 0.000000000000000000e+00 -0.000000000000000000e+00 0.000000000000000000e+00 0.000000000000000000e+00 0.000000000000000000e+00 0.000000000000000000e+00 0.000000000000000000e+00 -0.000000000000000000e+00 0.000000000000000000e+00 -0.000000000000000000e+00 0.000000000000000000e+00 0.000000000000000000e+00 -0.000000000000000000e+00 0.000000000000000000e+00 -0.000000000000000000e+00 0.000000000000000000e+00 -0.000000000000000000e+00 0.000000000000000000e+00 0.000000000000000000e+00 -0.000000000000000000e+00 -0.000000000000000000e+00 -0.000000000000000000e+00
