-1.116269500926136971e-03
-1.285166246816515923e-03
-1.125311013311147690e-03
-1.114448765292763710e-03
4.417335730977356434e-04
-1.045649754814803600e-03
-1.605203142389655113e-03
-1.363693620078265667e-03
-1.070949016138911247e-03
-7.752169622108340263e-04
-1.069150050170719624e-03
-1.218819641508162022e-03
-1.048689708113670349e-03
-1.072803745046257973e-03
-1.099944347515702248e-03
-1.084503368474543095e-03
5.284705199301242828e-03
-1.067808712832629681e-03
-1.070070080459117889e-03
-1.144772395491600037e-03
-1.046193181537091732e-03
-4.900373518466949463e-03
-8.806925034150481224e-04
-1.053180661983788013e-03
-8.768975021666847169e-06
-1.079407637007534504e-03
4.203116404823958874e-04
-1.056190463714301586e-03
-1.101858913898468018e-03
-1.097212312743067741e-03
-1.036897767335176468e-03
-6.408159970305860043e-04
-9.278331999666988850e-04
-1.060014823451638222e-03
1.096793494070880115e-05
-1.063667237758636475e-03
-9.863299783319234848e-04
-1.039794879034161568e-03
-1.060430658981204033e-03
-1.201854320243000984e-03
-1.096150022931396961e-03
-5.654515116475522518e-04
-1.044996082782745361e-03
-1.094922190532088280e-03
-1.231770846061408520e-03
-1.057726447470486164e-03
-9.352087508887052536e-04
-1.166133908554911613e-03
-1.088599907234311104e-03
-1.075832871720194817e-03
-1.058741705492138863e-03
-1.661354443058371544e-03
-1.096103689633309841e-03
-1.044316450133919716e-03
-2.851497614756226540e-03
-1.055996865034103394e-03
-3.267895081080496311e-04
-1.761801540851593018e-03
-1.007879152894020081e-03
-1.334790792316198349e-02
-1.107744988985359669e-03
-1.499509438872337341e-03
-1.144976122304797173e-03
-1.073517603799700737e-03
-7.679001428186893463e-04
-1.080361660569906235e-03
-2.508683362975716591e-03
-1.067319419234991074e-03
-1.065465854480862617e-03
-1.032911357469856739e-03
-1.083022099919617176e-03
1.631544291740283370e-04
-1.253661001101136208e-03
-1.089492114260792732e-03
4.563369202514877543e-06
-1.107486896216869354e-03
1.182397409138502553e-05
-1.756042183842509985e-05
-1.098248503694776446e-05
-1.472924122936092317e-05
-1.054067863151431084e-03
-8.754068403504788876e-06
7.306795851036440581e-06
3.962145456171128899e-06
1.080600100067385938e-06
-1.084215124137699604e-03
-1.458323549741180614e-05
3.144223956041969359e-05
4.842691851081326604e-05
3.769376417039893568e-05
-1.098097534850239754e-03
2.851786302926484495e-05
7.808901500538922846e-06
4.728824569610878825e-05
-6.542867140524322167e-06
-1.077358727343380451e-03
1.219551268150098622e-05
1.868446133812540211e-06
2.430289168842136860e-05
2.350619979551993310e-05
-1.077273045666515827e-03
5.027939096180489287e-07
2.061843952105846256e-05
1.906382203742396086e-05
1.931440237967763096e-05
-1.083091716282069683e-03
2.177688884330564179e-06
-2.452221269777510315e-05
9.901705197989940643e-06
-1.112890913645969704e-05
-1.073973253369331360e-03
2.285606205987278372e-05
-1.103411068470450118e-05
9.995772416004911065e-06
6.015334292897023261e-06
-1.089795143343508244e-03
-5.570990197156788781e-06
-1.194299784401664510e-05
3.720233144122175872e-05
-1.692674049991182983e-05
-1.073285005986690521e-03
-1.328848156845197082e-05
-3.409916462260298431e-05
-1.186352619697572663e-05
1.851520937634631991e-05
-1.073625637218356133e-03
1.884266930574085563e-05
-2.740371564868837595e-05
7.944597200548741966e-06
1.846708619268611073e-05
-1.062001800164580345e-03
-1.669945777393877506e-05
-4.197629459667950869e-05
-1.591143643508985406e-07
-3.126007186438073404e-06
-1.092047546990215778e-03
8.549912308808416128e-06
-2.167415914300363511e-05
-1.875657835626043379e-05
1.542561403766740113e-05
-1.083989976905286312e-03
-1.225506366608897224e-05
-2.763402335403952748e-06
-2.569852995293331333e-06
-4.062396328663453460e-05
-1.075165113434195518e-03
-6.111609309300547466e-06
-7.578557415399700403e-06
2.255867002531886101e-05
-6.885881884954869747e-05
5.279232027532998472e-06
-8.557402761653065681e-04
-5.454349797219038010e-03
-3.243784885853528976e-03
2.306815076735801995e-05
-8.356700163858477026e-06
-3.977198048232821748e-06
-1.567582876305095851e-05
-1.008351799100637436e-03
-3.483542706817388535e-03
-2.167814272979740053e-05
1.260151748283533379e-05
-3.557956006261520088e-05
-1.792649891285691410e-05
-1.050706137903034687e-03
-2.361349061175133102e-06
-1.021526804834138602e-05
-2.107097134285140783e-05
-5.725834125769324601e-05
-7.043216555757680908e-06
1.060799788683652878e-02
1.410986855626106262e-02
7.516169454902410507e-03
-1.845990300353150815e-05
-2.278360079799313098e-05
-9.218649211106821895e-06
3.917766734957695007e-03
-2.442208817228674889e-03
9.407131001353263855e-03
-2.615740413602907211e-05
-2.746737300185486674e-05
3.061728057218715549e-05
3.846819890895858407e-05
-7.346382481046020985e-04
-2.198031172156333923e-02
2.420361124677583575e-05
2.805042458930984139e-05
-3.001675759151112288e-05
1.084814630303299055e-05
-1.064806710928678513e-03
9.395544111612252891e-06
-3.995989573013503104e-06
1.485301527281990275e-05
4.018974141217768192e-05
3.076824214076623321e-05
1.136310026049613953e-02
1.126616075634956360e-02
4.695618990808725357e-03
5.814793894387548789e-06
-6.713799848512280732e-06
-1.085772510123206303e-05
-1.172780175693333149e-03
-1.143995206803083420e-03
-4.525533877313137054e-03
-1.117844112741295248e-05
5.041888289269991219e-05
-4.186308615317102522e-06
-3.741900854947743937e-06
-1.045097596943378448e-03
6.973156359890708700e-06
1.343413077847799286e-05
1.896256071631796658e-05
-3.235608528484590352e-05
-2.858192965504713356e-05
-1.059979666024446487e-03
-3.387898323126137257e-05
1.920852992043364793e-05
1.247944851456850301e-06
-7.122293936845380813e-06
-1.041443192661972716e-05
-1.047675963491201401e-03
-5.799876060336828232e-03
-1.571166649227961898e-05
-1.143024110206170008e-05
2.256419065815862268e-05
-2.393745671724900603e-05
-4.296710249036550522e-03
1.010031253099441528e-02
-1.223490014672279358e-02
8.454844646621495485e-06
1.839524880051612854e-02
2.046361987595446408e-05
7.687310244364198297e-06
-1.057987916283309460e-03
-2.038312144577503204e-03
-8.729521141503937542e-06
-4.716223884315695614e-06
-2.617719110276084393e-05
1.369257461192319170e-05
-1.062737079337239265e-03
9.059684089152142406e-06
-1.752363095874898136e-05
2.112036781909409910e-05
2.538855915190652013e-05
-1.102152782550547272e-05
-1.004423713311553001e-03
-1.039770245552062988e-02
-3.230307129342691042e-06
-3.272808726251241751e-07
5.263389539322815835e-06
2.524878073018044233e-05
3.512602532282471657e-03
-1.982128992676734924e-02
1.306728646159172058e-02
-7.966721568664070219e-06
-3.028530591109301895e-05
2.246595613542012870e-05
1.281523873331025243e-05
-1.229209359735250473e-03
2.011435292661190033e-02
-1.542138670629356056e-05
-1.283452911593485624e-05
1.979799708351492882e-05
5.892024546483298764e-06
-1.068291952833533287e-03
-4.933656236971728504e-05
-3.201515210093930364e-05
3.607945473049767315e-05
-1.750038609316106886e-05
-1.065004616975784302e-03
-2.614402001199778169e-05
-1.777722536644432694e-05
5.751371645601466298e-06
2.215489803347736597e-05
-5.673904524883255363e-05
-1.329366932623088360e-05
-6.119658937677741051e-04
-4.728532861918210983e-03
4.477012553252279758e-04
-2.557451261964160949e-05
1.869286596775054932e-02
1.362050170428119600e-05
-9.095714631257578731e-06
-1.050968887284398079e-03
-2.413746435195207596e-03
-1.106954277929617092e-05
-8.111625356832519174e-05
-1.449228761885024142e-06
-1.606638215889688581e-05
-1.082012197002768517e-03
-3.111475962214171886e-05
-2.284601396240759641e-05
-1.259247892448911443e-05
4.288374839234165847e-06
-7.605398877785773948e-06
-1.053990679793059826e-03
-2.223563846200704575e-03
-1.204998898174380884e-05
2.477175985404755920e-05
-2.926821798610035330e-05
3.787246782849251758e-07
-1.807326916605234146e-03
8.341031498275697231e-04
-1.236370485275983810e-02
-1.616487134015187621e-05
-2.673730705282650888e-05
2.777529516606591642e-05
1.671614518272690475e-05
-1.199823687784373760e-03
5.802992731332778931e-03
-1.765735760272946209e-05
6.221170224307570606e-06
2.376009433646686375e-05
1.667639935476472601e-06
-1.041392679326236248e-03
-8.683717169333249331e-06
1.747031819832045585e-05
1.096107098419452086e-06
2.991081237269099802e-05
-1.037069247104227543e-03
-5.493344815477030352e-06
-3.633261803770437837e-05
-1.054258336807833984e-05
2.401544224994722754e-05
-1.023127970256609842e-05
2.273433892696630210e-05
-4.337371326982975006e-03
-5.606997292488813400e-03
-2.109011802531313151e-05
-1.642475035623647273e-05
8.500644071318674833e-06
-2.376487145738792606e-06
-2.587501739981235005e-06
-1.082510803826153278e-03
-3.963499329984188080e-03
3.464503242867067456e-05
1.233621060237055644e-05
8.032163350435439497e-06
-2.683975435502361506e-05
-1.065508928149938583e-03
-2.569654861872550100e-05
-2.746416066656820476e-05
-6.531550297950161621e-06
1.937116212502587587e-05
3.535879659466445446e-05
-9.601495694369077682e-04
2.903723390772938728e-03
7.157824256864842027e-06
-1.661426153987122234e-06
2.156022674171254039e-05
2.899232458730693907e-05
2.773220883682370186e-03
-1.531562115997076035e-02
-2.013038843870162964e-03
-2.080448393826372921e-05
5.496546160429716110e-03
-1.304755278397351503e-05
-1.627001984161324799e-05
-1.036388683132827282e-03
-2.436404611216858029e-05
9.098424925468862057e-06
1.292840806854655966e-05
-2.638098067109240219e-06
2.565032264101319015e-05
-1.072101062163710594e-03
-1.980891101993620396e-05
2.963681254186667502e-05
4.061427171109244227e-05
-8.456755722363595851e-07
1.739290564728435129e-05
-8.695505093783140182e-04
-2.066151471808552742e-03
-2.337587466172408313e-05
-3.057219510083086789e-05
-5.863291789864888415e-06
-3.513284536893479526e-05
-1.042656367644667625e-03
1.124624069780111313e-02
1.578551530838012695e-02
-4.799838734470540658e-06
1.092434445126855280e-06
-1.058287489286158234e-05
1.571920984133612365e-05
-9.971720864996314049e-04
-4.464551340788602829e-03
-2.219197631347924471e-05
-2.867562398023437709e-05
-2.868716001103166491e-05
-5.981304980196000542e-07
-1.056612352840602398e-03
-2.907890484493691474e-05
-5.064738161308923736e-06
3.939267480745911598e-05
-3.314647619845345616e-05
3.195777753717266023e-05
-1.077850349247455597e-03
-8.938217433751560748e-06
4.734026879305019975e-05
1.485205029894132167e-05
-2.732798566285055131e-05
-3.379620829946361482e-05
-1.568911480717360973e-03
-1.112195942550897598e-02
-3.181233303621411324e-03
-2.123654849128797650e-05
-1.966152740351390094e-05
1.732509372232016176e-05
-4.667414032155647874e-05
-1.065685646608471870e-03
-3.788218135014176369e-03
-1.253359914699103683e-05
1.170009454654064029e-05
1.584217898198403418e-05
2.891976146202068776e-05
-1.081590773537755013e-03
1.609158425708301365e-05
8.075529876805376261e-06
-1.147362127085216343e-05
-4.578987500281073153e-06
1.238389995705801994e-05
1.434966339729726315e-03
7.660774979740381241e-03
-4.269309341907501221e-03
2.613626384118106216e-05
-2.232636325061321259e-05
3.658446075860410929e-06
-1.773128518834710121e-03
2.642469713464379311e-03
8.035873062908649445e-03
3.722117617144249380e-05
2.139840034942608327e-05
2.002365363296121359e-05
-3.445558832027018070e-05
-3.739739186130464077e-04
-3.132076188921928406e-02
1.390195029671303928e-05
-2.681044861674308777e-05
-2.545425195421557873e-05
1.608206548553425819e-05
-1.060050912201404572e-03
-2.948119072243571281e-05
8.635812264401465654e-06
-1.965695992112159729e-05
-1.242845792148727924e-05
3.294543057563714683e-05
2.056683413684368134e-02
3.675173223018646240e-02
-2.423175051808357239e-02
2.824777402565814555e-05
1.012466054817195982e-05
9.302309990744106472e-06
-4.614502249751240015e-04
-5.327067803591489792e-03
1.461236621253192425e-03
-4.087496563442982733e-05
3.019530049641616642e-05
1.795171192497946322e-05
2.136802504537627101e-05
-1.017915550619363785e-03
-5.958294495940208435e-03
1.466016783524537459e-05
-7.660480150661896914e-06
8.600650289736222476e-06
-6.932093583600362763e-06
-1.068794867023825645e-03
2.555542960180900991e-05
4.278044798411428928e-06
-2.926836350525263697e-05
-1.376506952510681003e-05
2.411789319012314081e-05
-1.355404499918222427e-03
1.530372910201549530e-02
2.852706893463619053e-05
2.609687044241582043e-06
2.327898982912302017e-05
1.125976268667727709e-05
7.419934263452887535e-04
1.821640878915786743e-02
-1.779012614861130714e-03
-4.292675384931499138e-06
1.613117456145118922e-05
-3.428564014029689133e-05
-1.794108720787335187e-05
-1.050748745910823345e-03
-2.362689701840281487e-03
-2.854244667105376720e-05
-2.950426824099849910e-05
5.542261988011887297e-06
-1.113402595365187153e-05
-1.057227491401135921e-03
1.646478580141774728e-07
-1.267837615159805864e-05
1.030345742947247345e-06
-7.735619874438270926e-06
-3.085035814365255646e-06
-1.066312775947153568e-03
-2.499581780284643173e-03
-2.014926758420187980e-05
1.115899749493109994e-06
1.102181727219431195e-06
1.266837671209941618e-06
-1.831391011364758015e-03
2.627590147312730551e-04
-8.917349390685558319e-03
-2.783250238280743361e-06
-7.388953690679045394e-06
-3.294347334303893149e-05
-5.585483449976891279e-06
-8.479967946186661720e-04
-9.906844235956668854e-03
1.873186374723445624e-05
1.693994090601336211e-05
-8.706268999958410859e-06
-4.038060433231294155e-05
-1.063855364918708801e-03
4.992171307094395161e-05
3.008311432495247573e-05
2.576658698671963066e-05
-8.889311175153125077e-06
-1.073565799742937088e-03
7.887331776146311313e-06
-1.850460466812364757e-05
1.733248063828796148e-05
-1.966983290913049132e-05
-4.825060386792756617e-06
-1.015057787299156189e-03
-5.497516758623532951e-05
-3.233246752643026412e-05
9.692109415482264012e-06
2.657787035786896013e-06
-1.053004642017185688e-03
-1.662901740928646177e-05
-3.507867631924455054e-06
-3.333103450131602585e-05
-3.670340447570197284e-05
-1.047979341819882393e-03
4.347622962086461484e-05
1.354259984509553760e-05
2.878898703784216195e-05
-1.804845305741764605e-05
-1.081191701814532280e-03
1.416027089362614788e-06
9.206926733895670623e-06
-5.066729045211104676e-06
-3.437636769376695156e-05
-1.073547406122088432e-03
-3.905542598658939824e-06
-5.015593706048093736e-05
-1.968812102859374136e-05
-1.553363972561783157e-06
-1.039319788105785847e-03
-1.738657556416001171e-05
-5.905736543354578316e-06
-1.251492540177423507e-05
1.468989285058341920e-05
-1.070163678377866745e-03
1.997507206397131085e-05
-5.552426046051550657e-06
4.815136890101712197e-06
-3.568373358575627208e-06
-1.056046341545879841e-03
2.290618613187689334e-05
-2.657850200193934143e-05
-3.650012104117195122e-06
-3.192201256752014160e-05
-1.069805119186639786e-03
-5.534218416869407520e-06
4.211820851196534932e-06
-2.743877303146291524e-05
7.796585123287513852e-06
-1.033979700878262520e-03
-2.005759256462624762e-07
-2.023008892138022929e-05
-2.497732930351048708e-05
3.195970202796161175e-05
-1.041809213347733021e-03
-2.266884985147044063e-05
2.892826614697696641e-06
3.835392635664902627e-05
5.964180900264182128e-07
-1.113642007112503052e-03
8.826149496599100530e-06
1.173701275547500700e-05
2.882443004637025297e-05
1.405024158884771168e-05
-1.043871045112609863e-03
-2.074606709356885403e-05
-2.684151513676624745e-05
-4.200404873699881136e-05
-2.020709507633000612e-05
-1.046505291014909744e-03
2.253754610137548298e-05
2.332740405108779669e-05
-7.104505129973404109e-06
-1.677125510468613356e-05
-1.087002689018845558e-03
2.736810347414575517e-05
1.964420152944512665e-05
-1.607179910934064537e-05
8.433087714365683496e-06
2.428791718557476997e-03
4.403740149427903816e-06
-2.162217395380139351e-03
2.431097207590937614e-03
-3.190745366737246513e-03
-2.478236099705100060e-03
-2.412075642496347427e-03
2.593209268525242805e-03
-3.451594384387135506e-03
-4.110129084438085556e-03
-4.447779210750013590e-04
-3.079737070947885513e-03
-4.949816968291997910e-03
1.304356381297111511e-02
6.846654578112065792e-04
-1.108448952436447144e-03
7.475442253053188324e-03
5.491258576512336731e-03
-6.212297827005386353e-03
-3.127499250695109367e-03
2.426417777314782143e-03
-9.418165427632629871e-04
-4.588010720908641815e-03
2.756001427769660950e-03
6.035479018464684486e-04
2.330420538783073425e-03
-6.681988481432199478e-03
1.411082223057746887e-03
-2.556921215727925301e-03
-7.693348918110132217e-03
-5.603000987321138382e-03
-2.486209152266383171e-03
4.400543868541717529e-03
-5.560641642659902573e-03
-1.419200212694704533e-03
-1.504929037764668465e-03
-4.111387301236391068e-03
2.425108570605516434e-03
1.793643968994729221e-05
-2.197850728407502174e-03
2.417472191154956818e-03
1.154411438619717956e-05
-2.180044772103428841e-03
-1.069594640284776688e-03
-1.164756304206093773e-05
3.048385951842647046e-05
-3.231626578781288117e-06
3.021787233592476696e-05
1.550934510305523872e-03
-1.824374521675053984e-05
-1.311914878897368908e-03
1.523458631709218025e-03
-7.149497978389263153e-03
-2.516937442123889923e-03
-1.151604810729622841e-03
8.662873879075050354e-03
3.580166026949882507e-03
8.432411588728427887e-03
4.240137059241533279e-03
4.345356486737728119e-03
-1.038260757923126221e-03
1.336034503765404224e-03
-1.232953858561813831e-03
-1.550502493046224117e-03
4.850710276514291763e-03
-2.188235707581043243e-02
-5.186894908547401428e-03
-8.706432417966425419e-04
1.566579798236489296e-03
-1.666585681959986687e-03
1.311183790676295757e-03
-1.954276347532868385e-03
-2.719380892813205719e-03
7.455729064531624317e-04
-3.169057192280888557e-03
8.482194505631923676e-03
5.064575467258691788e-03
-1.544305216521024704e-02
-1.779967453330755234e-03
5.063547287136316299e-03
-4.457904025912284851e-03
-5.607187747955322266e-03
-5.577104631811380386e-03
-7.730455603450536728e-03
-3.238531295210123062e-03
1.542932586744427681e-03
2.607698115753009915e-05
-1.285337959416210651e-03
1.539091812446713448e-03
1.013552446238463745e-05
-1.288974075578153133e-03
1.579633215442299843e-03
-1.311415689997375011e-03
-1.327311565546551719e-05
6.038818537490442395e-05
-3.981674126407597214e-06
1.409284304827451706e-03
2.607417627586983144e-05
-1.562846824526786804e-03
1.357436180114746094e-03
7.593643851578235626e-03
2.276081824675202370e-03
1.852598856203258038e-03
-3.411576850339770317e-03
2.329882045160047710e-05
-4.771067760884761810e-03
-1.376322377473115921e-02
4.439176991581916809e-03
1.909722923301160336e-03
-1.828574109822511673e-03
5.451048491522669792e-04
-6.396983750164508820e-03
1.770941540598869324e-03
-2.390966517850756645e-03
-9.545296779833734035e-04
-2.517325105145573616e-03
1.359482295811176300e-03
4.129116423428058624e-04
-3.934083040803670883e-03
1.103879367292392999e-05
4.489359911531209946e-03
1.536600291728973389e-03
-9.354787878692150116e-03
3.766980953514575958e-03
-8.603397756814956665e-03
1.221499033272266388e-02
-5.611599422991275787e-03
1.510622329078614712e-03
-9.335474111139774323e-03
1.242007419932633638e-05
4.072394222021102905e-03
4.320856183767318726e-03
2.494067884981632233e-03
1.376790460199117661e-03
1.897533002193085849e-05
-1.578858820721507072e-03
1.373474020510911942e-03
-9.399630471307318658e-06
-1.550680957734584808e-03
1.347864978015422821e-03
6.009308435750426725e-06
-1.596370246261358261e-03
-1.377566422888776287e-05
2.979058990604244173e-05
1.524997409433126450e-03
-3.581989585654810071e-05
-1.137011684477329254e-03
1.576841808855533600e-03
-4.387293010950088501e-03
-5.024560261517763138e-03
8.408701978623867035e-03
-1.344667398370802402e-04
-2.958139171823859215e-03
1.100588683038949966e-02
-3.175097517669200897e-04
-5.073680076748132706e-03
-3.427463816478848457e-04
-8.272127161035314202e-06
2.004812005907297134e-03
-5.439944099634885788e-03
3.750841133296489716e-03
4.706452600657939911e-03
-2.111792564392089844e-03
-1.467778347432613373e-03
1.535685034468770027e-03
-5.419924855232238770e-04
-3.324415301904082298e-03
-2.973486902192234993e-03
-3.203199477866292000e-03
1.553895301185548306e-03
-5.081436131149530411e-03
1.441178959794342518e-03
5.121625727042555809e-04
6.556404754519462585e-03
-2.581103006377816200e-03
-9.510106792731676251e-06
-4.584235604852437973e-03
9.372531436383724213e-03
-2.481293631717562675e-03
-1.660391804762184620e-03
-5.255886353552341461e-03
1.545330276712775230e-03
-1.481449817219981924e-05
-1.101999660022556782e-03
1.542464597150683403e-03
2.080906597257126123e-05
-1.089883036911487579e-03
1.542437588796019554e-03
6.358901828207308426e-06
1.924658863572403789e-05
-1.092201680876314640e-03
-3.825971361948177218e-06
-2.555766695877537131e-05
-1.074764644727110863e-03
-1.378702017973409966e-05
-1.894966408144682646e-05
-1.067292876541614532e-03
8.454378985334187746e-06
2.927125569840427488e-05
-2.231279358966276050e-05
5.482070832840690855e-07
-3.534395773385767825e-06
-1.472380245104432106e-05
6.944268079678295180e-06
1.317380065302131698e-05
-4.563334732665680349e-05
2.697260470085893758e-06
-1.593969864188693464e-05
-1.915056054713204503e-05
1.978977888938970864e-05
9.482732821197714657e-06
-3.512910916469991207e-05
1.779608464858029038e-05
-1.054654014296829700e-03
9.862716296993312426e-07
1.694856837275438011e-05
-5.256428266875445843e-05
1.282011567127483431e-06
-2.331291398149915040e-05
-4.964912022842327133e-06
1.608796810614876449e-05
-1.296783102588960901e-05
-3.040494266315363348e-05
-3.508489953674143180e-06
3.428051286391564645e-06
-4.247981632943265140e-05
1.277598585147643462e-05
1.949498073372524232e-05
-2.549817145336419344e-05
2.324155320820864290e-05
-1.055742264725267887e-03
2.098977711284533143e-05
-1.226542190124746412e-05
-1.050749677233397961e-03
-2.077942554024048150e-05
-1.353568950435146689e-05
-3.631443178164772689e-05
-3.273721631558146328e-06
6.642271728196647018e-06
-1.034062588587403297e-03
